<?xml version="1.0"?>
<opencv_storage>
<svm type_id="opencv-ml-svm">
  <svm_type>C_SVC</svm_type>
  <kernel><type>LINEAR</type></kernel>
  <C>1.</C>
  <term_criteria><epsilon>2.2204460492503131e-016</epsilon>
    <iterations>1000</iterations></term_criteria>
  <var_all>14688</var_all>
  <var_count>14688</var_count>
  <class_count>2</class_count>
  <class_labels type_id="opencv-matrix">
    <rows>1</rows>
    <cols>2</cols>
    <dt>i</dt>
    <data>
      0 1</data></class_labels>
  <sv_total>1</sv_total>
  <support_vectors>
    <_>
      -2.23489023e-005 -3.61688435e-005 -2.02773881e-005
      -6.14476312e-006 -1.97766294e-005 -2.71099043e-006 2.48717993e-006
      -7.78610956e-006 8.43294310e-006 7.95885717e-006 -3.88081116e-006
      1.33032609e-005 1.65550009e-005 2.09048630e-006 1.72798154e-005
      1.10431956e-005 -5.60323542e-006 8.58637122e-006 -2.74089598e-006
      -2.01597377e-005 -8.38072901e-006 1.88198680e-006 -1.50972655e-005
      -5.91569369e-006 3.53334894e-006 -1.15467819e-005 -5.50351751e-006
      -5.84275585e-006 -1.90703140e-005 -1.39209078e-005
      -1.86372690e-005 -2.64743394e-005 -2.34018335e-005
      -1.73176104e-005 -2.56782496e-005 -2.04318894e-005
      -6.61985223e-006 -1.02668919e-005 -4.12300324e-006 8.80996231e-006
      3.37318693e-006 9.07678441e-006 2.56114927e-005 1.61441112e-005
      1.96691053e-005 2.09330192e-005 8.21760841e-006 1.09647535e-005
      2.18598470e-005 7.02043098e-006 9.14481188e-006 1.94167678e-005
      3.17359309e-006 6.74058492e-006 1.49494363e-005 8.25869080e-008
      6.57072087e-006 1.34239535e-005 -2.70894884e-006 4.76152218e-006
      1.56162459e-005 8.46320702e-008 5.70580050e-006 9.34428772e-006
      -5.82674829e-006 -7.48171828e-007 1.25521738e-005 1.04856561e-007
      2.17073966e-006 1.91514464e-005 7.55081692e-006 8.87506576e-006
      3.46821580e-005 2.23975494e-005 2.32851362e-005 5.68243595e-005
      4.32047200e-005 4.40783988e-005 5.33724742e-005 4.26201223e-005
      4.25389517e-005 4.17872070e-005 2.88601877e-005 3.29274153e-005
      3.95302013e-005 2.35579282e-005 3.17775703e-005 3.20857471e-005
      1.31568377e-005 2.32066741e-005 1.13062697e-005 -5.44474051e-006
      1.33942854e-006 3.99889495e-006 -1.19807901e-005 -7.18494721e-006
      2.11221050e-006 -1.33453095e-005 -1.26160712e-005 1.34407337e-005
      -1.15955243e-006 -2.77053982e-006 2.12916511e-005 1.22237097e-005
      7.03260002e-006 3.52688439e-005 2.91010656e-005 2.25611784e-005
      3.80909805e-005 3.49328948e-005 2.84906946e-005 4.41542070e-005
      4.13810158e-005 3.45933804e-005 3.50051196e-005 2.93577068e-005
      2.35594198e-005 2.13094027e-005 1.32944770e-005 6.87874990e-006
      1.87855967e-005 8.99380120e-006 5.32493686e-006 1.42954505e-005
      2.17077263e-006 -1.94836298e-006 1.00235202e-005 -4.76183033e-007
      -7.19183527e-006 1.01262231e-005 -1.76597348e-006 -8.88000704e-006
      -8.02729210e-006 -1.97064219e-005 -2.41969610e-005
      -5.37266305e-006 -2.05587530e-005 -2.51815072e-005 4.48836818e-006
      -1.51070681e-005 -2.25483018e-005 1.31485276e-005 -6.20303354e-006
      -1.55043708e-005 1.61319185e-005 1.25790234e-006 -8.46989042e-006
      1.16278488e-005 1.12584678e-006 -1.21794092e-005 5.08869152e-006
      -2.87089665e-006 -2.20622915e-005 1.47878481e-007 -8.04198498e-006
      -2.97929564e-005 6.20014771e-006 -7.43259625e-006 -2.66627339e-005
      8.00362977e-006 -7.60428020e-006 -2.40189820e-005 1.22697866e-005
      -2.98747295e-006 -1.83976954e-005 1.41835635e-005 -3.65931641e-007
      -1.05258196e-005 8.31126090e-006 -3.90283640e-006 -1.08475533e-005
      -5.82376833e-006 -1.66498248e-005 -1.84329256e-005
      -2.38624616e-005 -3.03301040e-005 -3.06519614e-005
      -1.64966368e-005 -2.25020012e-005 -2.23196366e-005
      -2.11808879e-006 -8.29365126e-006 -9.28758527e-006
      -1.02729919e-005 -1.58928378e-005 -1.63514014e-005
      -1.23231021e-005 -1.60845957e-005 -1.56380665e-005
      -1.57037812e-005 -2.15518085e-005 -1.95981029e-005
      -8.03837281e-007 -1.29928030e-005 -1.00286043e-005 1.35366336e-005
      -9.97093025e-007 2.88980709e-006 1.47560431e-005 4.66105621e-006
      5.50817458e-006 1.47274950e-005 3.33736762e-006 5.57489057e-006
      1.47426554e-005 -3.85472447e-007 -7.07718470e-007 4.33630612e-006
      -1.12767611e-005 -9.79354081e-006 -6.66019560e-006
      -2.24622308e-005 -1.58703424e-005 4.98527243e-006 -8.17071941e-006
      7.31789243e-008 2.75967045e-006 -4.92014942e-006 4.53680923e-006
      2.10655821e-006 -6.08410346e-006 4.11705651e-006 5.17495153e-007
      -6.40465532e-006 1.03413799e-006 3.55461771e-006 -6.97213181e-006
      1.69380485e-006 1.45348577e-006 -1.28148340e-005 -1.86855141e-006
      3.17320678e-006 -1.57623144e-005 -2.67096061e-006 7.44530098e-006
      -1.60075924e-005 -1.41142880e-006 6.61029617e-007 -2.39057936e-005
      -9.55610267e-006 -1.58034309e-005 -3.53653850e-005
      -2.40398313e-005 -1.23057916e-005 -3.17516715e-005
      -2.09738446e-005 -6.90838715e-006 -2.63591119e-005
      -1.43886391e-005 4.96753728e-006 -1.71444426e-005 -4.39043060e-006
      1.00263578e-005 -1.50551605e-005 -1.81349526e-006 9.28828740e-006
      -1.39984113e-005 -1.23509460e-006 1.48207005e-006 -1.41450564e-005
      -3.61226830e-006 7.58510805e-006 -6.00393469e-006 6.17994328e-006
      1.52159218e-005 3.68686415e-006 1.72161126e-005 1.32159221e-005
      6.87919794e-007 1.62286487e-005 7.74405817e-006 -4.56613043e-006
      1.05965983e-005 1.74952561e-006 -1.04018254e-005 5.21537459e-006
      -7.64522429e-006 -1.77527127e-005 -3.84710302e-006
      -1.84876444e-005 -3.01609889e-005 -1.64081612e-005
      -7.77925015e-006 -2.12480973e-005 -1.18174494e-005 1.00808711e-005
      -3.90516880e-006 7.52973801e-006 2.00695031e-005 6.28219595e-006
      2.05320684e-005 1.71346401e-005 5.16181171e-006 1.85855060e-005
      2.31806825e-005 1.41533064e-005 2.50066223e-005 1.74898614e-005
      1.19087090e-005 2.48929191e-005 1.04753371e-005 1.00374700e-005
      2.55016548e-005 -2.52609169e-007 1.51683537e-006 2.21503251e-005
      2.79675390e-007 2.57835268e-006 2.74548329e-005 9.87359363e-006
      6.63929040e-006 3.43019165e-005 2.09495483e-005 1.17553773e-005
      3.76751304e-005 1.69165505e-005 2.01251828e-006 2.67668038e-005
      5.92061588e-006 -1.13037822e-005 1.33290159e-005 2.74525632e-006
      -1.93850865e-005 5.89226602e-006 -3.44393584e-006 -2.63071925e-005
      -2.13690464e-006 -1.08098175e-005 -3.78986479e-005
      -1.36665813e-005 -2.39122237e-005 -4.59674957e-005
      -2.66291499e-005 -3.37887650e-005 -6.11267242e-005
      -3.93180417e-005 -3.69595728e-005 -7.07261643e-005
      -4.40226468e-005 -2.92407549e-005 -6.77466087e-005
      -4.13459929e-005 -2.05984124e-005 -5.62968271e-005
      -3.52835086e-005 -4.39966834e-006 -4.33475798e-005
      -2.32732909e-005 8.70663314e-007 -4.46193881e-005 -2.05496381e-005
      -1.27591047e-005 -6.13800585e-005 -3.62376377e-005
      -2.09764075e-005 -6.97590076e-005 -4.37868985e-005
      -1.15257153e-005 -5.88589501e-005 -3.27636080e-005 3.97989470e-006
      -3.54160875e-005 -8.36319305e-006 1.41340943e-005 -2.07242883e-005
      7.19135414e-006 7.14572298e-006 -2.01665825e-005 6.18641479e-006
      -7.25789687e-006 -3.06343754e-005 -5.70558814e-006
      -1.87818860e-005 -3.75227064e-005 -1.69693922e-005
      -2.23655206e-005 -3.96450159e-005 -2.00276118e-005
      -1.98770776e-005 -3.68867113e-005 -1.48074714e-005
      -9.95665687e-006 -2.85003007e-005 -6.14263536e-006
      -9.55820815e-006 -2.75461825e-005 -4.48899755e-006
      -4.73926775e-006 -2.48580436e-005 -1.25078202e-006 4.88412252e-006
      -1.92027710e-005 2.28097520e-006 2.11567203e-006 -2.64229766e-005
      -2.01235753e-006 -2.40881236e-005 -5.33765487e-005
      -2.64934424e-005 -4.32078450e-005 -7.19173549e-005
      -4.23936144e-005 -2.97458027e-005 -5.23256203e-005
      -2.14945339e-005 -4.20135148e-005 -6.18953491e-005
      -2.94126348e-005 -2.76244373e-005 -4.10811299e-005
      -2.63413567e-005 -7.90848026e-006 -2.11759307e-005
      -7.01896806e-006 3.69549707e-006 -6.26253723e-006 7.89322712e-006
      3.08545241e-005 2.06935056e-005 3.34964934e-005 4.00681529e-005
      2.47725839e-005 3.71429014e-005 3.46975030e-005 1.63828063e-005
      2.73936403e-005 2.65356666e-005 6.30354771e-006 1.44321466e-005
      2.41820162e-005 4.58688646e-006 1.01176465e-005 1.25532069e-005
      -6.14299870e-006 -3.51419089e-006 -4.69996212e-006
      -1.90785886e-005 -1.62450815e-005 -1.71025895e-005
      -2.69256143e-005 -2.45748088e-005 -2.19311169e-005
      -2.90307780e-005 -2.57295924e-005 -5.18842171e-006
      -1.30420858e-005 -8.44620808e-006 1.39434278e-005 7.46268233e-006
      1.24781363e-005 2.15791260e-005 1.02376725e-005 1.42928320e-005
      2.23867883e-005 9.64097489e-006 1.23841346e-005 3.68046058e-005
      2.29105372e-005 2.53411272e-005 3.65365049e-005 2.34148065e-005
      2.52138398e-005 2.34069830e-005 1.02530448e-005 1.55835496e-005
      2.26877182e-005 9.65178060e-006 1.61570078e-005 2.93870035e-005
      1.49445968e-005 2.11678234e-005 2.26556349e-005 9.61250680e-006
      1.49922771e-005 1.82832100e-005 5.68517453e-006 9.31230534e-006
      1.74514662e-005 5.37797268e-006 7.06366154e-006 3.52297939e-005
      2.17646375e-005 2.27974488e-005 6.33738018e-005 4.91128994e-005
      5.04783930e-005 7.08435036e-005 5.89497577e-005 6.07150687e-005
      6.37575795e-005 5.18430243e-005 5.71890268e-005 5.57338171e-005
      4.02941041e-005 4.98225600e-005 4.68060098e-005 3.04304049e-005
      4.00036843e-005 3.58205471e-005 2.13972726e-005 2.87616858e-005
      2.12202394e-005 7.85647717e-006 1.21626936e-005 9.65340678e-006
      -4.41252860e-006 -4.51871801e-006 1.98721445e-005 7.55349220e-006
      3.13589453e-006 2.52750087e-005 1.77799229e-005 9.79309243e-006
      3.04129680e-005 2.65087183e-005 1.57432150e-005 3.89405905e-005
      3.53961987e-005 2.55639061e-005 5.01751165e-005 4.63482611e-005
      3.53774194e-005 3.93166047e-005 3.35690020e-005 2.26439897e-005
      1.95826724e-005 1.11648860e-005 8.89575915e-007 1.41840228e-005
      1.55634564e-006 -7.77110017e-006 6.36030290e-006 -8.24769995e-006
      -1.75349232e-005 9.09908431e-006 -7.21166043e-006 -1.79899125e-005
      2.07044013e-005 5.49663901e-006 -5.76889761e-006 1.31251118e-005
      -2.82424139e-006 -1.05672652e-005 1.39801714e-005 -4.07072503e-006
      -1.15833172e-005 2.69573084e-005 4.53068833e-006 -3.39890516e-006
      2.57985193e-005 3.51855851e-006 -6.68248822e-006 1.93932465e-005
      2.18936657e-006 -1.03599414e-005 1.79206472e-005 5.04662830e-006
      -1.22232632e-005 1.21071589e-005 1.94531844e-006 -2.05281776e-005
      -2.95540622e-006 -1.33968315e-005 -3.70142698e-005
      -5.17213266e-006 -2.03272539e-005 -4.08247979e-005
      -4.43648696e-006 -2.04578664e-005 -4.05526735e-005 2.37951281e-006
      -1.42518611e-005 -3.07711198e-005 8.24521885e-006 -6.37249195e-006
      -1.91261406e-005 4.30342834e-006 -8.32655951e-006 -1.63064014e-005
      -2.17272122e-006 -1.17564769e-005 -1.50903161e-005 1.63426557e-006
      -4.86419822e-006 -7.94489006e-006 -3.39035125e-007
      -6.56762268e-006 -8.53363690e-006 2.04612547e-007 -8.48553736e-006
      -8.00926773e-006 -4.83932217e-006 -1.47326245e-005
      -1.30045564e-005 -1.02762033e-005 -1.83689208e-005
      -1.70173153e-005 -6.67744280e-006 -1.64104131e-005
      -1.51002132e-005 1.57402756e-005 1.86869124e-006 3.10984092e-006
      2.19590529e-005 7.91598359e-006 9.48354591e-006 2.41459184e-005
      1.28688716e-005 1.24632506e-005 2.18434034e-005 9.03621367e-006
      8.20614878e-006 1.43502511e-005 -2.85864007e-006 -4.67159452e-006
      8.99494989e-006 -8.60362161e-006 -9.26265966e-006 3.64388302e-006
      -1.07415635e-005 -8.38235974e-006 6.58781209e-006 -5.98032830e-006
      -1.75329933e-006 9.50098365e-006 -1.11453907e-007 3.57013460e-006
      1.32146670e-005 5.19505738e-006 9.48546585e-006 1.96333403e-005
      1.02417162e-005 1.40238380e-005 1.96262845e-005 8.07107608e-006
      1.15450739e-005 1.69300474e-005 1.19608944e-006 8.89435341e-006
      1.94140521e-005 -1.38388737e-006 7.36646552e-006 2.89855871e-005
      5.48675644e-006 1.43452153e-005 2.85412734e-005 5.31602245e-006
      1.47196770e-005 1.40489428e-005 -6.45675391e-006 3.15774173e-007
      2.87073681e-006 -1.67169856e-005 -8.48623222e-006 1.00520592e-005
      -1.16795181e-005 -2.73788260e-006 1.38245086e-005 -8.90570482e-006
      9.26102189e-007 2.04941152e-005 -4.31528679e-006 5.42046155e-006
      2.69433749e-005 2.65733775e-006 1.28075135e-005 2.66891548e-005
      9.34554373e-006 1.83730135e-005 3.15479665e-005 1.83997308e-005
      2.74501854e-005 3.87439613e-005 2.62569592e-005 3.77183715e-005
      2.91922843e-005 1.78185965e-005 2.95898753e-005 1.71284009e-005
      4.01207171e-006 1.65497968e-005 1.86492689e-005 7.17182229e-006
      1.92194693e-005 2.19405556e-005 1.31359202e-005 2.29016550e-005
      1.58898401e-005 4.51630376e-006 1.39547183e-005 2.77312629e-005
      1.39013700e-005 2.10202816e-005 4.15952964e-005 2.63796901e-005
      3.40047518e-005 3.93125156e-005 2.55669820e-005 3.43353568e-005
      3.97782278e-005 2.77243307e-005 3.71596943e-005 4.82183277e-005
      3.90913956e-005 4.74620538e-005 3.30579751e-005 2.88127303e-005
      3.72719514e-005 1.44721753e-005 1.27418834e-005 2.73176483e-005
      5.32496279e-006 5.82567600e-006 2.47702646e-005 1.60362160e-005
      1.35659957e-005 3.83542101e-005 2.25513959e-005 1.76318445e-005
      4.34953035e-005 4.24206155e-005 3.00760912e-005 5.62914065e-005
      4.03152590e-005 2.26693319e-005 4.73611581e-005 3.01698710e-005
      1.03158882e-005 3.40713304e-005 2.92058994e-005 5.96688596e-006
      2.82757410e-005 2.10457947e-005 -4.78436323e-006 1.79168455e-005
      6.42132818e-006 -1.95875327e-005 2.37900417e-006 3.23910012e-006
      -2.22619092e-005 -2.62095136e-006 -1.31028401e-005
      -4.15160175e-005 -1.84368491e-005 -1.58589264e-005
      -5.06561482e-005 -2.41182170e-005 -1.21197891e-005
      -4.77649337e-005 -2.25690728e-005 3.76955740e-007 -3.62957180e-005
      -1.58307739e-005 1.33467747e-005 -2.48415090e-005 -4.64469758e-006
      2.17385023e-005 -2.27143428e-005 1.27339820e-006 8.28876546e-006
      -3.74560659e-005 -1.33942012e-005 6.17717842e-006 -3.84990053e-005
      -1.43101652e-005 2.29021771e-005 -1.93400429e-005 6.28064799e-006
      3.49390866e-005 -2.13782619e-006 2.41817888e-005 3.87626897e-005
      7.62171203e-006 3.32275304e-005 3.28766182e-005 7.45428952e-006
      3.36554403e-005 1.70507628e-005 -3.34778679e-006 2.15314540e-005
      2.44071680e-006 -1.49659891e-005 7.18015372e-006 -4.17941351e-007
      -1.56155584e-005 5.68495898e-006 -4.31729745e-007 -1.66637819e-005
      5.86317128e-006 -1.05073923e-005 -2.52807113e-005 -3.65272103e-006
      -8.82188669e-006 -2.55528776e-005 -1.40036605e-006
      -1.30373940e-006 -2.03207437e-005 2.94824076e-006 9.11663392e-006
      -1.36966473e-005 7.65339792e-006 1.55351463e-005 -1.11703330e-005
      1.24616681e-005 -4.34099796e-008 -2.86682298e-005 -3.01662772e-006
      -7.14854286e-006 -3.44039472e-005 -6.37663925e-006 2.38257121e-006
      -2.00414288e-005 1.04028913e-005 -2.31948834e-005 -4.28888343e-005
      -1.10346300e-005 -1.76880985e-005 -3.08892559e-005
      -1.88565682e-005 -7.25945574e-006 -1.94583899e-005
      -9.11598727e-006 2.08190613e-005 1.28476686e-005 2.24387586e-005
      4.96559660e-005 4.03644590e-005 4.75210581e-005 4.58333670e-005
      2.96421422e-005 3.87988002e-005 3.81374266e-005 1.74106044e-005
      2.44788771e-005 3.30417715e-005 8.21837784e-006 1.20626628e-005
      3.27080561e-005 8.42784630e-006 9.31744307e-006 1.73409044e-005
      -6.70992495e-006 -7.80557275e-006 -1.20580908e-005
      -3.02308163e-005 -3.17613994e-005 -3.38468781e-005
      -4.56425296e-005 -4.64774348e-005 -3.47392561e-005
      -4.34173562e-005 -4.13097187e-005 -1.83104457e-005
      -2.67179712e-005 -2.36247597e-005 -1.35330299e-006
      -1.07151245e-005 -5.97224698e-006 2.31168679e-006 -1.05905556e-005
      -3.83761608e-006 4.90601133e-006 -9.41857434e-006 -3.13501505e-006
      2.29196903e-005 1.10654146e-005 1.58691819e-005 1.05877334e-005
      3.00022862e-007 3.95919506e-006 -3.26249165e-006 -1.22639685e-005
      -7.63584831e-006 7.41035319e-006 -2.35074071e-006 4.00371027e-006
      1.24226053e-005 -4.33991190e-008 6.56186148e-006 7.23090989e-006
      -5.31080468e-006 1.72863190e-006 -5.41934423e-006 -1.67208764e-005
      -1.29255659e-005 -4.14083206e-006 -1.52572002e-005
      -1.26540426e-005 1.55975722e-005 3.44345750e-007 3.55726434e-006
      4.58804025e-005 3.23346430e-005 3.62285027e-005 6.38869678e-005
      5.16658765e-005 5.59461623e-005 5.66945710e-005 4.51932792e-005
      5.18708512e-005 4.10473440e-005 2.69382308e-005 3.76096432e-005
      4.08322267e-005 2.73007590e-005 3.71130191e-005 4.24762220e-005
      3.16965707e-005 3.85159947e-005 3.84536215e-005 2.97741026e-005
      3.14715107e-005 1.82319382e-005 6.93712491e-006 3.92464199e-006
      2.65660510e-005 1.83195334e-005 9.91029538e-006 3.54402509e-005
      3.16832447e-005 1.56917067e-005 4.07388470e-005 3.87090404e-005
      2.08358724e-005 5.62666537e-005 5.29124300e-005 3.62303872e-005
      5.37372471e-005 4.83331496e-005 2.89559248e-005 3.19704704e-005
      2.42612132e-005 6.00439716e-006 1.32760224e-005 7.58307749e-007
      -1.67675425e-005 1.40056527e-005 -1.35411176e-006 -2.06388122e-005
      1.59497886e-005 -2.52472296e-006 -2.21095688e-005 2.39154706e-005
      1.92393031e-006 -1.93770084e-005 3.83402621e-005 1.51653849e-005
      -5.27534394e-006 3.04389760e-005 6.54023506e-006 -8.94631376e-006
      2.49625555e-005 -2.66905772e-007 -1.34819256e-005 3.04195364e-005
      3.53540599e-006 -7.16285467e-006 2.18211553e-005 -3.67713596e-006
      -1.52757239e-005 1.06793677e-005 -8.18161516e-006 -2.73774567e-005
      9.11918505e-006 -7.03626938e-006 -3.03877223e-005 1.00931857e-005
      -5.03441606e-006 -3.17106424e-005 -8.89457806e-006
      -2.35871921e-005 -5.04782147e-005 -2.83189202e-005
      -4.57031347e-005 -7.18453448e-005 -2.85558981e-005
      -4.64740733e-005 -6.95398048e-005 -2.53250946e-005
      -4.37477975e-005 -6.57799901e-005 -1.62616871e-005
      -3.15625402e-005 -4.99704220e-005 -1.81825035e-005
      -2.84874441e-005 -4.34225185e-005 -2.50961202e-005
      -3.22169581e-005 -4.29480206e-005 -1.40071952e-005
      -2.02774681e-005 -2.84205835e-005 -3.79540620e-006
      -1.33000285e-005 -1.86847228e-005 -7.66520134e-006
      -2.19833219e-005 -2.56247240e-005 -6.52247309e-006
      -2.52052687e-005 -2.54838797e-005 -1.36048930e-005
      -3.12165503e-005 -3.19098544e-005 3.24316375e-006 -1.46860448e-005
      -1.61354001e-005 1.95767152e-005 1.41494138e-006 -1.90615413e-006
      1.81749238e-005 2.31699573e-006 -8.30017939e-007 1.72013024e-005
      3.49173661e-006 -1.83695875e-006 1.96377241e-005 4.30242153e-006
      -1.69870509e-006 1.04021974e-005 -8.08570621e-006 -1.38131409e-005
      4.92870413e-006 -1.35334676e-005 -1.93030719e-005 -2.08103393e-006
      -1.68410770e-005 -2.11890710e-005 -2.27797659e-006
      -1.40368165e-005 -1.77373659e-005 -1.26662680e-005
      -2.24562391e-005 -2.54483075e-005 1.97662143e-006 -8.58972908e-006
      -1.27086014e-005 1.60699528e-005 4.54132805e-006 -1.61231844e-006
      1.42197123e-005 -1.26386533e-006 -5.48608841e-006 9.29662565e-006
      -9.82804158e-006 -1.09876391e-005 1.57345294e-005 -7.44159024e-006
      -8.01617898e-006 2.45116717e-005 -1.16753779e-006 -2.12599844e-006
      3.42724416e-005 1.02862941e-005 9.65072286e-006 2.11808456e-005
      5.82670566e-007 -1.10051326e-006 1.00641557e-006 -1.99166243e-005
      -2.12997347e-005 3.03169008e-006 -1.92806692e-005 -1.62492779e-005
      1.27365947e-005 -1.17571972e-005 -6.30856812e-006 1.74360557e-005
      -7.84670829e-006 -3.49438460e-006 1.50031701e-005 -8.65368838e-006
      -1.97088025e-006 1.51562490e-005 -2.78884158e-006 1.14547402e-006
      7.28117266e-006 -7.56650525e-006 -2.93912171e-006 1.69123450e-005
      3.78860318e-006 1.04821956e-005 1.77049224e-005 6.19441698e-006
      1.25261813e-005 5.66219114e-006 -8.15455860e-006 -2.60725415e-006
      7.20585240e-006 -5.18874185e-006 1.72367277e-006 1.87088281e-005
      8.21576577e-006 1.04572637e-005 2.67651321e-005 1.39462181e-005
      1.56724454e-005 4.15715622e-005 2.53152157e-005 2.72152556e-005
      4.54775072e-005 2.92034038e-005 2.99705152e-005 3.97038857e-005
      2.31340964e-005 2.40877853e-005 5.19276327e-005 4.00495010e-005
      4.12586996e-005 6.54438263e-005 5.61180786e-005 5.68832693e-005
      4.73954533e-005 4.20902725e-005 4.63302749e-005 2.40890531e-005
      2.14715819e-005 3.25142464e-005 1.27295607e-005 9.72257476e-006
      2.72168527e-005 2.57405281e-005 2.02088213e-005 4.25062608e-005
      3.99975106e-005 3.01748332e-005 5.41794616e-005 4.55390946e-005
      2.88075444e-005 5.34718783e-005 4.55745503e-005 2.36043743e-005
      4.71141830e-005 3.63653853e-005 1.14208333e-005 3.27501839e-005
      2.70382679e-005 -2.13695057e-006 1.85759909e-005 1.58212715e-005
      -1.57655631e-005 3.33517141e-006 -4.75607158e-006 -3.79285957e-005
      -1.80744373e-005 -2.56666704e-006 -3.35145305e-005
      -1.26375189e-005 -3.29297791e-006 -3.32364943e-005
      -1.15346165e-005 -7.64387823e-006 -4.19735370e-005
      -1.60611453e-005 -6.79530876e-006 -4.15471477e-005
      -1.65729107e-005 1.76063418e-006 -3.42882813e-005 -1.34611173e-005
      1.95049906e-005 -1.84548753e-005 1.28638760e-006 2.75676703e-005
      -1.40672255e-005 8.01522583e-006 2.09989739e-005 -2.19543836e-005
      2.00146178e-006 1.39673512e-005 -2.53100061e-005 -3.43229476e-006
      2.47818298e-005 -1.02146478e-005 1.13669348e-005 3.52316456e-005
      4.93758171e-006 2.74337399e-005 4.40311342e-005 2.07030807e-005
      4.53276698e-005 4.09684399e-005 2.02735882e-005 4.61178934e-005
      2.58885721e-005 7.17386820e-006 3.31279625e-005 7.48031061e-006
      -1.01552505e-005 1.44942705e-005 7.84168515e-006 -7.08472953e-006
      1.56475180e-005 1.15669882e-005 -1.71210831e-006 1.98394464e-005
      1.12614362e-006 -1.18403041e-005 1.08370332e-005 -1.11272839e-005
      -2.68082495e-005 -2.13377257e-006 -9.82379970e-006
      -2.64928567e-005 -3.17995841e-006 -7.33387151e-006
      -2.73157784e-005 -8.51422283e-006 1.17049312e-005 -1.14917530e-005
      7.65620280e-006 1.44753130e-005 -1.15744233e-005 1.14842705e-005
      2.66802344e-005 1.03603816e-006 2.79982269e-005 1.63098866e-005
      -6.70341069e-006 2.32074308e-005 -1.30581111e-005 -3.24378743e-005
      -1.47073001e-006 -2.00943341e-005 -3.18085731e-005
      -1.99896622e-005 -1.10190340e-005 -2.15501623e-005
      -1.11638610e-005 3.13327146e-005 2.41630605e-005 3.08095296e-005
      5.40536821e-005 4.36952578e-005 4.95338973e-005 4.41481970e-005
      2.76810679e-005 3.28672904e-005 3.99399396e-005 1.77485363e-005
      2.08799338e-005 3.55391094e-005 7.96272161e-006 9.27235214e-006
      2.37152017e-005 -5.50177765e-006 -5.79671814e-006 2.92817572e-006
      -2.40218087e-005 -2.62187732e-005 -7.59038994e-006
      -3.09657917e-005 -3.14505378e-005 -2.83336722e-005
      -4.44273683e-005 -4.37592353e-005 -2.52760983e-005
      -3.70410853e-005 -3.32852178e-005 -6.94746905e-006
      -1.95332323e-005 -1.38022169e-005 -6.69438336e-008
      -1.49323178e-005 -7.35170215e-006 -9.46979981e-006
      -2.43672312e-005 -1.49925509e-005 -3.30440980e-006
      -1.69213035e-005 -7.25478594e-006 8.31299985e-006 -1.32938430e-006
      4.80856670e-006 -6.94209712e-006 -1.44683036e-005 -9.85751922e-006
      -2.63763050e-005 -3.34538308e-005 -2.88084811e-005
      -1.25220859e-005 -2.00361937e-005 -1.36992676e-005
      -1.16849578e-005 -2.23682509e-005 -1.23939371e-005
      -2.17700672e-005 -3.24123394e-005 -2.35573007e-005
      -3.06846341e-005 -4.18291675e-005 -3.54294316e-005
      -2.36364594e-005 -3.51105955e-005 -3.02751105e-005 2.53118128e-006
      -1.08891518e-005 -4.81914185e-006 1.66370228e-005 4.68188637e-006
      9.45175270e-006 1.91191120e-005 8.47453975e-006 1.58585717e-005
      1.75495225e-005 7.40611222e-006 1.55740290e-005 1.34094043e-005
      1.40832611e-007 1.14473669e-005 1.60903764e-005 4.70614350e-006
      1.61569660e-005 2.83377849e-005 1.98674952e-005 2.62385620e-005
      3.25012661e-005 2.64060654e-005 2.69292650e-005 2.57458451e-005
      1.91976251e-005 1.22603387e-005 3.99349301e-005 3.48761605e-005
      2.38589237e-005 4.62212774e-005 4.47586099e-005 2.70706714e-005
      4.58842114e-005 4.43715107e-005 2.27259952e-005 5.46039701e-005
      4.91140418e-005 2.72062607e-005 5.01185532e-005 4.00404278e-005
      1.92550924e-005 2.22002200e-005 1.06114712e-005 -1.21962894e-005
      7.06122137e-006 -9.37427103e-006 -3.19311584e-005 8.40666144e-006
      -1.22100791e-005 -3.68407891e-005 2.44828989e-005 -1.37337452e-006
      -2.66134593e-005 3.90601599e-005 9.19236027e-006 -1.71304055e-005
      4.35181973e-005 1.30274630e-005 -1.12878079e-005 3.46387133e-005
      4.30463388e-006 -1.50533751e-005 2.38402499e-005 -5.34798164e-006
      -2.07823214e-005 2.05644865e-005 -8.49301068e-006 -1.94916665e-005
      1.71660286e-005 -8.43101316e-006 -2.13539806e-005 2.09644186e-005
      -1.22489510e-007 -2.08669608e-005 1.90345054e-005 3.03227330e-006
      -2.33323153e-005 2.38378234e-005 8.56604129e-006 -2.08973652e-005
      1.30135140e-005 -1.55692533e-006 -3.08251147e-005 -1.98608791e-006
      -1.87296009e-005 -4.64204350e-005 -1.39909098e-005
      -3.06965740e-005 -5.49051547e-005 -1.09258817e-005
      -2.69695065e-005 -4.88689002e-005 -2.79219364e-007
      -1.21265839e-005 -3.10446412e-005 1.03292614e-005 3.58591478e-006
      -1.27180601e-005 1.07208843e-005 6.85323403e-006 -5.65223991e-006
      1.32013183e-005 9.04203080e-006 7.80479539e-008 1.15139392e-005
      4.75313118e-006 -1.27977307e-006 1.73204771e-005 6.50510572e-007
      -4.31629860e-006 1.25199522e-005 -1.01934966e-005 -1.16761221e-005
      7.92636001e-006 -1.66552854e-005 -1.72480723e-005 2.31163922e-005
      1.05493463e-007 3.87349672e-008 3.76687858e-005 1.75498571e-005
      1.51498043e-005 2.38322427e-005 6.52815152e-006 3.88678882e-006
      1.30828266e-005 -4.75684097e-008 -4.76545574e-006 1.04195115e-005
      -3.15870966e-006 -7.99252484e-006 4.67114205e-006 -1.13996039e-005
      -1.71374304e-005 7.03275759e-007 -1.48630215e-005 -1.98356702e-005
      4.63512720e-007 -1.09078992e-005 -1.62922461e-005 -2.08390088e-006
      -1.22596084e-005 -1.71860556e-005 -6.83496910e-006
      -1.53595556e-005 -2.21926930e-005 -7.08296830e-006
      -1.32488994e-005 -2.10217768e-005 7.40332098e-006 -4.79008759e-006
      -1.49658936e-005 5.94460016e-006 -8.40161283e-006 -1.85806093e-005
      2.52426230e-006 -1.75125533e-005 -2.32376733e-005 6.17748265e-006
      -1.74700635e-005 -2.21483933e-005 5.07615823e-006 -1.70072199e-005
      -2.14971606e-005 5.38513859e-006 -1.67343278e-005 -2.36155447e-005
      -7.28916405e-007 -2.24653631e-005 -2.79876822e-005
      -3.26505619e-006 -2.29430079e-005 -2.80842760e-005
      -3.89494608e-006 -2.39181809e-005 -2.47121807e-005 1.27843768e-005
      -7.99275767e-006 -6.08313621e-006 7.74857654e-006 -1.25429715e-005
      -9.16910994e-006 5.79164862e-006 -1.27915837e-005 -8.81445976e-006
      1.21796006e-006 -1.36888784e-005 -1.06152684e-005 -4.06280236e-007
      -1.21166122e-005 -9.23248808e-006 1.47447236e-006 -7.16885006e-006
      -2.89032846e-006 -1.66897496e-006 -9.69820303e-006
      -6.45520822e-006 -6.46563103e-006 -1.46049324e-005
      -1.16031060e-005 -1.84121345e-005 -2.49373734e-005
      -2.51720539e-005 -1.00156522e-005 -1.77192651e-005
      -2.10999369e-005 9.27174642e-006 -1.17754951e-006 -4.90291268e-006
      2.79779015e-005 1.15390376e-005 9.29321595e-006 3.54300901e-005
      1.70318417e-005 1.39111526e-005 2.14329484e-005 5.42068710e-006
      2.31649142e-006 3.67720932e-005 2.54924526e-005 1.97242971e-005
      5.87096583e-005 4.93040352e-005 4.39702781e-005 5.35577892e-005
      4.70707564e-005 4.59451985e-005 4.21358600e-005 3.94392409e-005
      4.63764263e-005 4.23727361e-005 3.86475986e-005 5.37357810e-005
      3.95320785e-005 3.12310185e-005 5.08165285e-005 4.77360518e-005
      3.47417554e-005 5.74117003e-005 5.74933074e-005 3.73635958e-005
      6.00072926e-005 5.11392136e-005 2.78775897e-005 4.87396537e-005
      3.65449923e-005 1.07104761e-005 2.95132359e-005 2.72432171e-005
      -1.72434022e-006 1.41183027e-005 1.73719345e-005 -1.42837453e-005
      7.19318678e-007 -6.12914073e-006 -3.84145205e-005 -2.32619896e-005
      -1.71345437e-005 -4.73763466e-005 -2.84236339e-005
      -9.72160979e-006 -4.07925581e-005 -1.89518014e-005
      -4.13214639e-006 -3.62194151e-005 -1.15902385e-005
      -3.94808103e-006 -3.76361531e-005 -1.16040155e-005
      -4.02108344e-006 -3.86304673e-005 -1.54467525e-005 7.30361944e-006
      -2.86212562e-005 -5.21689344e-006 1.10037772e-005 -2.73701062e-005
      -2.29554507e-006 1.57320010e-005 -2.21437749e-005 4.11378414e-006
      2.47709941e-005 -7.36350830e-006 1.62896558e-005 2.44180319e-005
      -2.86748173e-006 1.92059088e-005 2.90894332e-005 9.85105817e-006
      3.33114549e-005 3.35708755e-005 2.07558642e-005 4.51940759e-005
      3.16375044e-005 1.71824722e-005 4.43528370e-005 2.22050039e-005
      9.27406654e-006 3.51924355e-005 1.87029909e-005 4.29558850e-006
      3.02553326e-005 8.35626452e-006 -5.07190998e-006 2.14410265e-005
      1.58299463e-006 -8.79946674e-006 1.62224478e-005 -1.16263836e-005
      -2.11732822e-005 3.83883253e-006 -2.26824322e-005 -3.56190831e-005
      -1.03447082e-005 -2.32423736e-005 -3.96372234e-005
      -1.59520914e-005 -1.83820830e-005 -3.70243106e-005
      -1.87423720e-005 5.19193463e-006 -1.63752084e-005 9.98845394e-007
      1.44005353e-005 -9.10718154e-006 1.15510538e-005 3.74265765e-005
      1.39858203e-005 3.79014855e-005 2.18005425e-005 9.69133794e-007
      2.84161179e-005 -1.20835409e-006 -2.01934108e-005 9.78795015e-006
      -1.50096494e-005 -2.36184114e-005 -1.19617716e-005
      -6.26648125e-006 -1.35875289e-005 -4.13763200e-006 1.89924958e-005
      1.28860529e-005 1.86762809e-005 3.69316513e-005 2.69727898e-005
      3.20405888e-005 3.42869498e-005 1.73863700e-005 2.35597545e-005
      3.91480680e-005 1.47514593e-005 1.98290345e-005 3.57961362e-005
      5.72286353e-006 7.54282792e-006 1.60869567e-005 -1.48804593e-005
      -1.48769323e-005 -6.56785915e-007 -3.09078096e-005
      -3.04860350e-005 -7.73705415e-006 -3.27405542e-005
      -3.06472066e-005 -2.55214636e-005 -4.32056258e-005
      -3.83931256e-005 -2.33990086e-005 -3.72346840e-005
      -2.97400366e-005 -3.80641313e-006 -1.71279953e-005
      -7.50744584e-006 3.04245987e-006 -1.28449674e-005 -1.16125295e-006
      -5.48055141e-006 -1.98531543e-005 -6.30180966e-006
      -7.16856584e-006 -1.74619290e-005 -6.03538456e-006
      -6.09172412e-006 -1.02680442e-005 -1.60412617e-006
      -1.39369768e-005 -1.63383593e-005 -9.76167030e-006
      -2.73920141e-005 -3.05436697e-005 -2.40962236e-005
      -2.12653922e-005 -2.68419881e-005 -1.95125922e-005
      -5.37375399e-006 -1.56293463e-005 -4.93352763e-006
      -1.22326674e-005 -2.39092860e-005 -1.32281457e-005
      -2.19241174e-005 -3.12329139e-005 -2.42397018e-005
      -9.05188881e-006 -1.94150962e-005 -1.21655221e-005 2.05802098e-005
      8.03107832e-006 1.51575805e-005 1.86126854e-005 1.01230371e-005
      1.74335946e-005 6.01234342e-006 -1.71736190e-006 7.75578519e-006
      9.38692392e-006 1.97769668e-006 1.28910760e-005 1.43367752e-005
      5.35204026e-006 1.64437042e-005 2.98449231e-005 2.13078001e-005
      3.10763717e-005 5.44970717e-005 5.01074828e-005 5.53230020e-005
      6.07390648e-005 5.66359813e-005 5.57586900e-005 5.96373102e-005
      5.22690243e-005 4.56244561e-005 7.34979549e-005 7.00162564e-005
      5.80090746e-005 6.11258001e-005 5.87234572e-005 4.33453315e-005
      5.20443282e-005 4.83026633e-005 3.05428657e-005 5.89353367e-005
      4.96968278e-005 3.15122379e-005 6.38318816e-005 4.99199632e-005
      2.91774850e-005 5.07408186e-005 3.11311960e-005 9.89042474e-006
      3.85073981e-005 1.44271617e-005 -8.28522298e-006 4.12596273e-005
      1.22626852e-005 -1.20525319e-005 4.56077287e-005 1.13884007e-005
      -1.50138176e-005 4.84808807e-005 1.14588402e-005 -1.72331293e-005
      6.32500305e-005 2.66599181e-005 -9.02714874e-007 6.58065474e-005
      3.18363600e-005 1.00440429e-005 4.77624380e-005 1.55268863e-005
      -8.50345714e-007 2.23987518e-005 -4.80543395e-006 -1.63810710e-005
      1.38017622e-005 -1.10512301e-005 -2.03865129e-005 1.04453702e-005
      -9.40589962e-006 -2.75606089e-005 5.38762470e-006 -8.72142482e-006
      -3.15849720e-005 1.21254434e-005 1.91800746e-006 -2.48372326e-005
      4.35381025e-006 -4.70649229e-006 -3.33703792e-005 8.36032541e-006
      -1.94116456e-006 -2.80493423e-005 4.63260903e-006 -4.31339367e-006
      -2.77694526e-005 6.08510345e-006 -2.69780253e-006 -2.13323929e-005
      1.97887966e-005 1.37683001e-005 -1.78807386e-006 3.35116056e-005
      3.27379603e-005 1.89385701e-005 4.63940196e-005 4.73608343e-005
      3.66106797e-005 3.85166641e-005 3.97617623e-005 3.11264594e-005
      2.55786490e-005 2.22658655e-005 1.53583078e-005 3.54844233e-005
      2.01934236e-005 1.55104026e-005 4.37392846e-005 1.96766050e-005
      1.91352410e-005 4.13361704e-005 1.60031086e-005 1.61211137e-005
      4.22124758e-005 1.75974310e-005 1.86464276e-005 6.44571264e-005
      4.35840993e-005 4.50786756e-005 5.80634587e-005 4.08627202e-005
      4.44317920e-005 5.69660479e-005 4.30098044e-005 4.59660077e-005
      4.38464995e-005 3.23774257e-005 3.47436471e-005 2.36086817e-005
      1.36496565e-005 1.57684608e-005 7.27349880e-006 1.59800649e-007
      -2.17421487e-007 -7.52059293e-007 -3.81235350e-006
      -6.81130496e-006 7.22483401e-006 6.35907600e-006 3.31091633e-006
      -4.43049612e-006 -3.43919282e-006 -8.27159329e-006
      -1.00084189e-005 -1.47065193e-005 -1.99224560e-005 1.57471550e-005
      7.77157493e-006 -2.16491480e-006 3.54241711e-005 2.25828153e-005
      1.28894635e-005 1.99043952e-005 3.03673517e-007 -6.12571557e-006
      1.06706475e-005 -1.16049314e-005 -1.69897230e-005 4.21316463e-006
      -1.34282682e-005 -2.14934207e-005 -3.65357619e-006
      -2.10275648e-005 -2.93056892e-005 7.67343806e-007 -1.81163559e-005
      -2.62728718e-005 6.38726669e-006 -1.13484521e-005 -1.70093444e-005
      1.31435791e-005 -1.01463286e-006 -2.78504990e-006 1.01129872e-005
      -1.05916683e-006 -2.11764973e-006 7.30958072e-006 -2.02258116e-006
      6.36560102e-008 1.04574456e-005 4.35925040e-006 7.49324272e-006
      8.80535663e-006 4.65989206e-006 9.95719165e-006 5.13656778e-006
      2.47669846e-006 8.15283329e-006 1.00715552e-005 1.05047347e-005
      1.71901447e-005 3.42473004e-006 4.18830768e-006 8.74530724e-006
      4.18034779e-006 5.19018977e-006 7.01048066e-006 -1.31822060e-006
      -5.37067592e-007 -1.47406024e-006 1.29086293e-005 9.44694784e-006
      5.54786720e-006 2.31581871e-005 1.50470178e-005 1.00557390e-005
      3.42151070e-005 1.82053755e-005 1.48061990e-005 3.52954667e-005
      1.66553455e-005 1.12726475e-005 3.37276724e-005 1.51953473e-005
      7.28522036e-006 4.92220679e-005 3.38256941e-005 2.54070073e-005
      6.78267024e-005 5.54399921e-005 4.85828496e-005 7.18927404e-005
      6.45740874e-005 6.09013805e-005 5.78842446e-005 5.53690043e-005
      6.05520836e-005 5.38921704e-005 5.20109134e-005 6.42890373e-005
      6.38838683e-005 5.76916973e-005 7.33705674e-005 7.43866985e-005
      6.24439708e-005 7.97980683e-005 7.54167922e-005 5.77220781e-005
      7.58920723e-005 6.62836392e-005 4.60619449e-005 6.24808381e-005
      4.33595887e-005 2.24927808e-005 3.56314049e-005 3.06201036e-005
      6.35957167e-006 1.80273582e-005 2.37247477e-005 -3.18592811e-006
      7.41874419e-006 1.91341660e-005 -8.76139529e-006 4.20723700e-006
      4.65687435e-006 -2.15112959e-005 -5.77958872e-006 -1.38170035e-005
      -4.16325856e-005 -2.06671284e-005 -9.70702877e-006
      -4.00973913e-005 -1.26913146e-005 -1.65517777e-005
      -4.68565158e-005 -1.80828702e-005 -1.10657284e-005
      -4.12323097e-005 -1.65103902e-005 -1.85469544e-005
      -5.21516995e-005 -2.49179357e-005 -2.51996953e-005
      -5.73460457e-005 -2.67048745e-005 -1.62191227e-005
      -4.59734802e-005 -1.40060210e-005 -1.80709121e-005
      -4.02639780e-005 -1.19172155e-005 -1.17827185e-005
      -2.58421060e-005 1.09811019e-007 6.23537517e-006 -8.33654326e-007
      2.84179368e-005 1.80278676e-005 1.45181757e-005 4.42538731e-005
      2.31833037e-005 1.72912514e-005 4.88688456e-005 2.24194828e-005
      1.50553196e-005 4.59840812e-005 2.35469251e-005 1.32229516e-005
      4.31534281e-005 2.89079144e-005 1.78106056e-005 4.83520889e-005
      2.95425048e-006 -4.26845600e-006 2.53867220e-005 -1.25919378e-005
      -2.13501116e-005 1.00861480e-005 -1.20678469e-005 -2.36361357e-005
      3.94863446e-006 -2.15778018e-005 -3.58848883e-005 -1.38421383e-005
      -1.09642460e-005 -2.84529360e-005 -1.37667184e-005 3.81602422e-006
      -1.60270156e-005 -1.95059147e-006 1.29708278e-005 -6.49254480e-006
      7.75751414e-006 3.99713572e-005 2.07234807e-005 4.02684855e-005
      3.66278364e-005 2.03180171e-005 4.38757270e-005 1.70061521e-005
      4.06423487e-006 2.96295184e-005 -1.42703839e-005 -2.09280734e-005
      -1.06056305e-005 -7.20579783e-006 -1.48223671e-005
      -5.75179547e-006 1.27635403e-005 6.23645792e-006 1.17943018e-005
      2.40842746e-005 1.48925819e-005 1.99423321e-005 1.02152508e-005
      -6.78930974e-006 1.38748726e-006 7.96861150e-006 -1.49627385e-005
      -8.17674663e-006 6.85615851e-006 -2.05444940e-005 -1.74262732e-005
      1.43922334e-005 -1.52133016e-005 -1.22985593e-005 1.32357150e-006
      -2.56137282e-005 -2.10065973e-005 -2.24159212e-005
      -4.38266725e-005 -3.75299496e-005 -4.75505585e-005
      -6.09077251e-005 -5.10739665e-005 -4.15344293e-005
      -5.09509628e-005 -4.00083736e-005 -1.08509912e-005
      -2.23389179e-005 -9.28340978e-006 1.16630536e-005 1.32256162e-006
      1.58507810e-005 1.11252502e-005 3.16474348e-006 1.91970084e-005
      -8.00335692e-006 -1.15927514e-005 1.17226489e-006 -1.32109317e-005
      -1.14731356e-005 -9.64507308e-007 -2.62193225e-005
      -2.24844007e-005 -1.52486136e-005 -4.51494379e-005
      -4.19298194e-005 -3.60992963e-005 -3.37035744e-005
      -3.56080236e-005 -2.95299815e-005 -2.01526254e-005
      -2.62749090e-005 -1.60747877e-005 -2.75310026e-006
      -1.26355362e-005 -3.12047587e-006 8.53558868e-006 5.33029208e-007
      8.77585717e-006 6.32769070e-006 -1.88519459e-006 8.65474703e-006
      1.30975859e-005 3.78867048e-006 1.56417300e-005 -1.51192853e-006
      -8.33379181e-006 4.56113776e-006 -5.86996930e-006 -1.12833714e-005
      7.41886026e-007 -5.26198346e-006 -8.65210859e-006 2.94495021e-006
      -3.54518488e-006 -8.76252034e-006 2.99265048e-006 1.46058383e-005
      1.01838405e-005 1.98795005e-005 4.27450868e-005 4.06994332e-005
      4.65697594e-005 4.93310654e-005 4.69077786e-005 4.91562932e-005
      6.02432228e-005 5.63528120e-005 5.07481818e-005 7.46671940e-005
      7.28248560e-005 6.20495121e-005 5.41555601e-005 5.44771865e-005
      4.09962522e-005 4.86520403e-005 4.68525323e-005 3.12880911e-005
      5.51234261e-005 4.59790353e-005 2.99208677e-005 7.07779109e-005
      5.34873325e-005 3.58511388e-005 6.25241228e-005 3.88880071e-005
      2.00864197e-005 4.22923731e-005 1.29886375e-005 -7.40118412e-006
      4.39450596e-005 9.30228816e-006 -1.41091605e-005 4.51411070e-005
      7.72551812e-006 -1.68702027e-005 4.61871605e-005 6.40720646e-006
      -2.15362761e-005 6.16021789e-005 2.19216963e-005 -4.91104629e-006
      6.57347919e-005 3.05101839e-005 7.98828114e-006 5.75647136e-005
      2.62374506e-005 9.18442311e-006 3.37026177e-005 8.52252106e-006
      -1.51833945e-006 4.76880859e-006 -1.48408390e-005 -2.49401419e-005
      -6.31418334e-006 -2.36639153e-005 -3.94802846e-005
      -1.89233851e-005 -3.12601151e-005 -5.34024548e-005
      -9.66800599e-006 -1.68533388e-005 -4.38311145e-005 1.32401401e-005
      8.29486544e-006 -2.05291526e-005 3.16134137e-005 2.79128435e-005
      2.02770093e-006 3.93307491e-005 3.64075022e-005 1.35922628e-005
      2.79004635e-005 2.53071485e-005 8.29856344e-006 1.96837682e-005
      1.79066701e-005 4.61401942e-006 3.02298868e-005 3.26516529e-005
      2.06934510e-005 4.98189402e-005 5.47075615e-005 4.46603517e-005
      3.90045898e-005 4.22263838e-005 3.29740906e-005 2.26221491e-005
      1.94524764e-005 1.13199294e-005 3.99702622e-005 2.45060073e-005
      1.85423069e-005 6.75502888e-005 4.47086932e-005 4.15158247e-005
      6.37670964e-005 3.91117719e-005 3.71431306e-005 5.42796770e-005
      2.83848967e-005 3.14501376e-005 7.09522574e-005 4.89942468e-005
      5.55218576e-005 6.82589816e-005 5.25865798e-005 6.02695909e-005
      6.85434716e-005 5.89537885e-005 6.67773347e-005 5.25010037e-005
      4.84628727e-005 5.58904794e-005 7.58147735e-006 7.82137249e-006
      1.46892771e-005 -5.62593914e-006 -1.59416845e-006 1.97413851e-006
      -2.38980533e-006 4.05003129e-006 6.82138307e-006 5.93504865e-006
      1.39917893e-005 1.45658532e-005 -2.35705647e-006 5.66664130e-006
      4.16801095e-006 -3.00751162e-006 6.22700213e-007 -5.09567963e-006
      3.32968630e-005 3.27816670e-005 2.46157215e-005 4.37298950e-005
      3.70322632e-005 2.85508941e-005 2.63015918e-005 1.27755957e-005
      7.51844482e-006 8.26761152e-006 -8.44583246e-006 -1.25767538e-005
      -1.15011089e-005 -2.49531477e-005 -3.24364664e-005
      -1.88340382e-005 -3.33899698e-005 -4.13502494e-005
      -1.22092515e-005 -3.04559780e-005 -3.86627580e-005
      -7.37112987e-006 -2.30840888e-005 -2.95787868e-005
      -1.01902633e-005 -1.79910803e-005 -2.12913801e-005
      -1.56272054e-005 -1.62749056e-005 -1.78756327e-005
      -1.11063400e-005 -6.17268370e-006 -6.93801030e-006
      -2.42787905e-006 3.21687435e-006 3.94597555e-006 -5.90570244e-006
      -1.13975682e-006 3.40037900e-006 -5.48530534e-006 1.08747213e-006
      6.28540283e-006 -5.17792705e-006 2.37137442e-006 7.94667267e-006
      -1.57224349e-005 -6.61906961e-006 -3.14833505e-006 2.64082064e-006
      1.23923110e-005 1.25258439e-005 1.67463440e-005 2.63846923e-005
      2.29301422e-005 3.39524522e-005 3.77163451e-005 3.17025915e-005
      2.95182490e-005 2.55729738e-005 1.85748086e-005 2.59477183e-005
      1.30484386e-005 7.87069803e-006 3.65345622e-005 1.77575675e-005
      9.32598869e-006 4.34987051e-005 2.16583558e-005 1.14488530e-005
      6.03711305e-005 3.98494121e-005 2.86357645e-005 8.82243694e-005
      7.29173771e-005 6.27237459e-005 8.40212379e-005 7.41166950e-005
      6.90762245e-005 6.89090084e-005 6.47796478e-005 6.85734922e-005
      6.63522005e-005 6.46341650e-005 7.40138348e-005 7.98983092e-005
      7.60926559e-005 8.85962654e-005 8.81238157e-005 7.91149359e-005
      9.38696612e-005 8.63292589e-005 7.37935698e-005 8.86330454e-005
      7.43454002e-005 5.98859151e-005 7.40402465e-005 3.90544592e-005
      2.66281731e-005 3.76215467e-005 3.09853967e-005 1.85040481e-005
      2.77083345e-005 3.94057606e-005 2.33497321e-005 3.32152704e-005
      3.43106040e-005 1.55724210e-005 2.68647691e-005 9.40817517e-006
      -1.07309625e-005 3.78202162e-006 -1.04157980e-005 -3.30582807e-005
      -1.28622141e-005 -9.91982324e-006 -3.70201924e-005
      -8.68563075e-006 -1.53255551e-005 -4.17132978e-005
      -1.29863793e-005 -1.25858523e-005 -3.96156283e-005
      -1.24489225e-005 -1.74877714e-005 -4.41430420e-005
      -1.59772062e-005 -2.93167068e-005 -5.47671989e-005
      -2.08819092e-005 -3.11575968e-005 -5.25002542e-005
      -1.63623554e-005 -2.76183255e-005 -3.88828630e-005
      -7.23905077e-006 -1.70172225e-005 -2.11173974e-005 1.01893002e-005
      -1.72052830e-006 9.58105147e-007 3.27275411e-005 1.20153563e-005
      1.71107695e-005 4.90495477e-005 1.84471464e-005 2.00050581e-005
      5.39564608e-005 1.19784763e-005 1.04180162e-005 4.24378086e-005
      3.29903996e-005 2.84432062e-005 5.96838581e-005 4.69939187e-005
      4.12280788e-005 7.31724285e-005 2.30709538e-005 1.74164143e-005
      5.31148326e-005 1.17974696e-005 4.16671219e-006 3.73688308e-005
      5.03237425e-006 -5.61234174e-006 2.34993622e-005 -1.51437762e-005
      -2.99935436e-005 -6.13116299e-006 -3.97387566e-006
      -2.06277255e-005 -3.90674631e-006 1.71438260e-005 -2.99070189e-006
      1.08435397e-005 2.79845517e-005 8.17805449e-006 2.36430587e-005
      5.07286313e-005 3.17433296e-005 5.01078939e-005 5.04455893e-005
      3.64253610e-005 5.86622482e-005 2.69487118e-005 1.57542308e-005
      4.02133446e-005 -1.23582831e-005 -2.18798159e-005 -1.52473031e-005
      -2.77385016e-006 -1.19653942e-005 -5.87846034e-006 1.11398749e-005
      2.26389807e-006 7.90298327e-006 7.29032945e-006 -3.16535670e-006
      4.11994188e-006 -4.77977119e-006 -2.11270690e-005 -1.04890842e-005
      -1.02994618e-005 -3.09315255e-005 -2.04178014e-005 3.96301357e-006
      -1.90672745e-005 -1.11699901e-005 1.93585856e-006 -2.20574948e-005
      -1.41903465e-005 -4.14070746e-006 -2.19130179e-005
      -1.28548063e-005 -2.27325636e-005 -3.68988658e-005
      -2.78563384e-005 -4.08033229e-005 -4.77618014e-005
      -3.56845230e-005 -1.79473973e-005 -2.20179409e-005
      -7.84729582e-006 1.61942153e-005 1.10267465e-005 2.58254804e-005
      2.71355129e-005 2.30992828e-005 3.97890180e-005 1.28769407e-005
      1.17691352e-005 2.99814783e-005 -1.67925864e-005 -1.21791900e-005
      4.32297111e-006 -2.48872002e-005 -1.46402745e-005 -3.41583677e-006
      -3.43590000e-005 -2.22691979e-005 -1.57027462e-005
      -5.91533390e-005 -4.85478813e-005 -4.74117987e-005
      -5.25626783e-005 -4.59760558e-005 -4.54969668e-005
      -3.04249570e-005 -3.21729422e-005 -2.71727295e-005
      -5.49353535e-006 -1.04978344e-005 -1.95563825e-006 7.05418188e-006
      3.66761742e-006 1.44400310e-005 -8.84253041e-006 -1.32867099e-005
      1.33770744e-010 -1.01821870e-005 -1.38796695e-005 2.41607040e-006
      -1.56030528e-005 -1.79115868e-005 -3.47575082e-007
      -3.01721702e-005 -2.89364198e-005 -1.47720084e-005
      -3.60745944e-005 -3.44872897e-005 -2.16526805e-005
      -3.26011505e-005 -3.43202955e-005 -2.09102564e-005
      -1.18070602e-005 -1.26267014e-005 -1.28581803e-006 5.46974297e-006
      4.72142119e-006 1.52997090e-005 3.08789786e-005 3.17168851e-005
      3.63539184e-005 3.82092840e-005 3.74267584e-005 3.51626768e-005
      3.39268518e-005 3.67713001e-005 2.96391427e-005 1.96048113e-005
      2.51298097e-005 1.43575571e-005 3.15199177e-005 3.22617161e-005
      1.94723016e-005 3.34079305e-005 2.60656416e-005 1.36973204e-005
      4.29364263e-005 2.69234424e-005 1.23564541e-005 4.81562929e-005
      2.39833844e-005 5.47543004e-006 3.66445165e-005 6.78894321e-006
      -1.28514657e-005 3.15312063e-005 -4.07910966e-006 -2.38761277e-005
      4.46088707e-005 6.97731321e-006 -1.55534344e-005 3.50631854e-005
      -3.40832185e-006 -2.80071617e-005 2.91945671e-005 -8.76475769e-006
      -3.21434709e-005 2.52287737e-005 -8.28252905e-006 -2.81416869e-005
      2.68695330e-005 -3.26722187e-007 -1.74936959e-005 1.64957637e-005
      -4.09937365e-006 -1.61332810e-005 5.78395793e-006 -9.81644644e-006
      -2.05237284e-005 4.29467718e-007 -1.22153133e-005 -2.78186635e-005
      -8.90285946e-007 -8.66186565e-006 -3.09939060e-005 1.61541593e-005
      1.54047320e-005 -1.23211930e-005 3.30977164e-005 3.59006917e-005
      5.14617432e-006 5.24134848e-005 5.61117995e-005 2.81101238e-005
      4.23230958e-005 4.62845455e-005 2.29522375e-005 1.78456448e-005
      2.02322863e-005 4.48806395e-006 2.83351505e-006 5.53865266e-006
      -5.03193633e-006 1.65022193e-005 2.28950248e-005 1.10421570e-005
      3.01332329e-005 3.73240218e-005 2.52784776e-005 1.45723297e-005
      2.18559198e-005 1.09917864e-005 9.15765668e-006 1.04581195e-005
      8.68479503e-007 3.20138897e-005 2.04268090e-005 1.23257305e-005
      4.83913718e-005 2.59395219e-005 2.11428433e-005 5.67763309e-005
      3.09488969e-005 2.86861432e-005 5.12701008e-005 2.71419594e-005
      2.93982193e-005 5.12388578e-005 3.11960212e-005 3.96020587e-005
      4.09396489e-005 2.83629506e-005 4.02323676e-005 3.42029343e-005
      3.12502416e-005 4.33219611e-005 8.74254783e-006 1.30228191e-005
      2.45500651e-005 -1.16501933e-005 -1.67591827e-006 8.58964449e-006
      -1.74725537e-005 -2.92730306e-006 5.21046013e-006 1.30948119e-005
      3.15310026e-005 3.63782601e-005 1.58625317e-005 3.66728163e-005
      3.89338529e-005 1.34400143e-005 3.27057896e-005 3.25315086e-005
      1.67445269e-005 3.39410581e-005 2.93575977e-005 1.47448427e-005
      2.43451886e-005 1.64170087e-005 1.43098159e-005 1.73969747e-005
      1.15209205e-005 4.78706215e-006 2.19253366e-006 -1.11068812e-006
      -2.14280735e-005 -2.81351058e-005 -3.11601216e-005
      -2.01203402e-005 -2.80921322e-005 -3.26216177e-005
      -3.09954776e-005 -4.02871156e-005 -4.57803289e-005
      -1.57926988e-005 -3.06413385e-005 -3.54576587e-005
      -2.05745910e-005 -3.40989900e-005 -3.89228735e-005
      -2.22706058e-005 -2.59246244e-005 -2.76994451e-005
      -2.26387565e-005 -1.30984508e-005 -1.60335767e-005
      -2.12896539e-005 -6.12575923e-006 -9.28743611e-006
      -2.44951152e-005 -6.57534974e-006 -8.42995087e-006
      -9.81574158e-006 7.33589422e-006 8.42042027e-006 -3.92478523e-006
      1.31984470e-005 1.37177867e-005 -1.15810308e-005 6.61150489e-006
      5.98716952e-006 -1.70004041e-005 1.28322870e-006 2.62630465e-006
      -1.33115582e-005 4.20032620e-006 2.19669869e-006 -3.75723448e-006
      1.34527609e-005 8.12962844e-006 2.14805477e-005 3.18151324e-005
      2.49319637e-005 9.45729698e-006 1.26966979e-005 2.87289595e-006
      8.47237789e-006 5.67429254e-007 -6.40511507e-006 2.73132682e-005
      9.06943751e-006 -2.20843347e-007 4.21001423e-005 1.71725223e-005
      4.06832169e-006 5.33072161e-005 2.66170882e-005 1.37656552e-005
      7.52848355e-005 5.44496252e-005 4.47639031e-005 8.26052201e-005
      6.89562803e-005 6.50892252e-005 7.97379325e-005 7.44736317e-005
      7.90491031e-005 6.37900375e-005 6.41260922e-005 7.31905893e-005
      5.65043338e-005 5.64492148e-005 6.78238284e-005 5.93668265e-005
      5.70968805e-005 7.14456473e-005 6.61953309e-005 6.12411823e-005
      7.59304967e-005 4.00286299e-005 3.57352510e-005 4.96790235e-005
      -7.26551798e-006 -6.04870638e-006 6.11340829e-006 -1.42585777e-005
      -1.05797599e-005 -3.94343715e-007 -7.38304743e-006
      -7.79347738e-006 2.26930638e-006 -1.02464116e-006 -5.90508625e-006
      4.90376033e-006 -7.25629388e-006 -1.68240458e-005 -2.59927174e-006
      -5.93552386e-006 -2.10252801e-005 -1.79583353e-007 3.52642269e-006
      -1.49401449e-005 9.80993991e-006 2.76890410e-006 -1.87421774e-005
      9.65369964e-006 -9.54006009e-006 -3.18467646e-005 -4.17759156e-006
      -1.71131687e-005 -3.80845013e-005 -1.06340549e-005
      -1.94529675e-005 -3.73572075e-005 -3.57779209e-006
      -3.36781850e-005 -4.55063200e-005 -8.32117985e-006
      -4.82203432e-005 -5.00378919e-005 -1.57883424e-005
      -3.90071800e-005 -3.36061166e-005 -1.33839336e-007
      -3.33775351e-005 -2.18271307e-005 1.15508810e-005 -2.40155841e-005
      -1.11830504e-005 2.18237474e-005 -9.96785366e-006 3.43536982e-007
      3.23678250e-005 -1.40875254e-005 -6.31755847e-006 2.38665070e-005
      -9.47045100e-006 -7.35643835e-006 2.27536948e-005 6.81047050e-006
      7.40296628e-006 3.79609519e-005 5.37598544e-006 4.87430270e-006
      3.93762639e-005 1.69804764e-006 -2.32419075e-006 3.24308567e-005
      7.79810944e-006 -2.71749263e-006 2.89600775e-005 -9.79896140e-006
      -2.48154993e-005 1.64914786e-006 4.54390238e-006 -1.35485016e-005
      5.11114422e-006 2.47230328e-005 3.91189269e-006 1.99032875e-005
      2.28539047e-005 2.07122935e-006 1.94713029e-005 4.04607963e-005
      1.99962851e-005 3.95674797e-005 4.25097933e-005 2.64267856e-005
      4.78655238e-005 3.00817701e-005 1.71719148e-005 4.11568035e-005
      5.91771027e-007 -1.05741465e-005 -8.87281567e-006 5.43712076e-006
      -5.60964190e-006 -2.53722646e-006 1.02222339e-005 -5.69344081e-007
      3.45140256e-006 1.69815507e-006 -1.11767667e-005 -3.52544930e-006
      2.34898653e-006 -1.34757174e-005 -2.00710952e-006 6.13251927e-007
      -1.59612573e-005 -3.99248938e-006 -3.58823036e-006
      -2.24060295e-005 -1.17428253e-005 -1.78341852e-005
      -3.29693721e-005 -2.32536913e-005 -1.78714454e-005
      -2.75906441e-005 -1.68098650e-005 -3.72521354e-005
      -4.04501770e-005 -2.87368075e-005 -4.67746759e-005
      -4.11125948e-005 -2.84278667e-005 -1.37502584e-005
      -6.43457997e-006 8.43616726e-006 2.05049091e-005 2.48215892e-005
      4.19506905e-005 3.22622727e-005 3.62520550e-005 5.32706727e-005
      6.26815654e-006 1.49136395e-005 3.16380574e-005 -1.63077420e-005
      -8.04226204e-007 1.15733128e-005 -2.43884988e-005 -5.07876894e-006
      4.41853990e-006 -2.38610573e-005 -3.10886026e-006 2.12505654e-007
      -4.11281908e-005 -2.36810556e-005 -2.39788351e-005
      -5.64335569e-005 -4.23403981e-005 -4.38219540e-005
      -2.92506156e-005 -2.41667494e-005 -2.22224553e-005 2.48820902e-006
      3.60088052e-006 8.85056033e-006 8.37389598e-006 8.19780871e-006
      1.87358164e-005 -2.41996877e-005 -2.36674750e-005 -7.78867889e-006
      -2.32885795e-005 -2.02049578e-005 6.05737569e-007 -2.57374450e-005
      -2.11284405e-005 -5.53441112e-007 -3.72579161e-005
      -3.14321369e-005 -1.58765251e-005 -4.41728771e-005
      -3.87911095e-005 -2.56356434e-005 -3.86321699e-005
      -3.55893753e-005 -2.38437315e-005 -2.13093044e-005
      -1.60047857e-005 -5.76198363e-006 -2.02449319e-005
      -1.72141081e-005 -5.85851194e-006 -1.52655393e-005
      -1.05327690e-005 -2.69830798e-006 -8.95379617e-006
      -6.65571270e-006 -6.19137973e-006 -7.04483227e-007 5.94304356e-006
      -6.24855090e-007 9.02202771e-007 9.39675101e-006 -3.71377951e-007
      8.32529167e-006 1.26143614e-005 7.25598113e-007 1.98877315e-005
      1.49739717e-005 2.97130850e-006 3.04508922e-005 1.72816781e-005
      3.49341371e-006 3.47075147e-005 1.18038006e-005 -3.47905848e-006
      3.09881907e-005 3.64440939e-006 -1.36772205e-005 3.07311275e-005
      -2.15414548e-006 -1.94273780e-005 3.49195070e-005 -8.05977379e-007
      -2.01523289e-005 1.95352550e-005 -1.72395630e-005 -3.84251980e-005
      1.06570187e-005 -2.49533496e-005 -4.58784161e-005 2.08240963e-005
      -1.05175650e-005 -3.00054835e-005 2.49704699e-005 -5.12368501e-007
      -1.64118592e-005 8.47644606e-006 -6.88848377e-006 -1.73924254e-005
      9.17465150e-006 9.76203978e-007 -9.32283729e-006 6.12238455e-006
      4.90352932e-007 -1.41520368e-005 5.17810849e-006 3.76238427e-006
      -1.59573738e-005 7.19046102e-006 1.20517188e-005 -1.60395321e-005
      3.44991786e-005 4.24173049e-005 9.98909672e-006 4.71818421e-005
      5.67575407e-005 2.49371951e-005 3.42033964e-005 4.31630833e-005
      1.71158517e-005 -4.62254275e-006 1.44272099e-006 -1.55285288e-005
      -2.36524502e-005 -1.82496588e-005 -2.81720131e-005 2.93605763e-006
      1.24986700e-005 -8.74252748e-007 1.83302745e-005 2.83315221e-005
      1.54205882e-005 4.93880771e-006 1.51733975e-005 3.28132978e-006
      -2.07309381e-006 3.40652537e-006 -7.55739302e-006 1.86515354e-005
      9.25653330e-006 5.96886423e-007 3.63982545e-005 1.68431361e-005
      1.16452229e-005 5.47879390e-005 3.00488919e-005 2.70569490e-005
      5.19278838e-005 2.60769193e-005 2.81560824e-005 1.94994245e-005
      6.25685061e-007 1.07406713e-005 1.85796107e-005 8.95358062e-006
      2.08517322e-005 1.09841421e-005 1.17259287e-005 2.51912334e-005
      -2.19541780e-005 -1.17411664e-005 -1.39271106e-006
      -2.90228982e-005 -1.37930356e-005 -4.49812160e-006
      -1.30959561e-005 6.21244180e-006 1.58894272e-005 1.33718777e-005
      3.66724489e-005 4.05514729e-005 1.25402912e-005 3.59006444e-005
      3.66149361e-005 9.91840807e-007 2.49490713e-005 2.36170054e-005
      2.26799875e-005 4.47744969e-005 4.13488560e-005 5.91713751e-006
      1.92985772e-005 1.48462741e-005 9.10221786e-007 1.10091669e-005
      5.22450819e-006 -8.61163153e-006 -6.11053792e-006 -7.36598349e-006
      -2.44655967e-005 -2.47930075e-005 -2.56618423e-005
      -8.15481872e-006 -1.13851129e-005 -1.55230791e-005
      -8.11005066e-006 -1.20500690e-005 -1.83762040e-005 1.29154987e-005
      3.08677454e-006 -1.93774486e-006 -3.26556659e-007 -8.55887174e-006
      -1.23012278e-005 -9.64315495e-006 -5.36445623e-006
      -9.04627996e-006 -6.95960307e-006 1.08082004e-005 5.92885817e-006
      -2.74001923e-005 -2.82352789e-006 -9.10083781e-006
      -2.19232661e-005 5.07850973e-006 3.83814893e-007 -2.64242203e-006
      2.33080846e-005 1.88353479e-005 6.72630631e-006 3.23545064e-005
      2.77229356e-005 -3.91828462e-006 2.06391542e-005 1.56525784e-005
      -6.42896157e-006 1.60713116e-005 9.79670313e-006 -1.30482322e-005
      8.78329956e-006 2.75164302e-006 -1.87244877e-005 1.51343522e-006
      -6.61357990e-006 4.27827274e-007 1.62595752e-005 7.00633427e-006
      -1.00201960e-005 -2.43340742e-006 -1.05858317e-005
      -8.84307974e-006 -1.30732469e-005 -2.13514395e-005 1.86081706e-005
      2.73271803e-006 -6.53229927e-006 4.39306641e-005 1.73080953e-005
      3.83184806e-006 4.86789831e-005 1.82010317e-005 5.30613488e-006
      4.61748023e-005 1.95065622e-005 1.17425661e-005 5.98689548e-005
      4.10906396e-005 3.85873936e-005 5.96947248e-005 5.10532009e-005
      5.44134855e-005 3.12343582e-005 3.04676705e-005 3.82975813e-005
      2.41776488e-005 2.53490980e-005 3.40345177e-005 3.93864393e-005
      4.00024328e-005 5.05783100e-005 4.57480892e-005 4.68315884e-005
      5.79226253e-005 2.45963984e-005 2.80733111e-005 4.03747217e-005
      -1.11308354e-005 3.11205696e-007 1.16049077e-005 -1.67654416e-005
      -1.87039382e-006 7.83480573e-006 -1.48719955e-005 -4.24123300e-006
      5.81543009e-006 -2.49877412e-005 -1.98075377e-005 -7.03509068e-006
      -2.99162202e-005 -3.11001058e-005 -1.57091818e-005 3.12472434e-006
      -3.57664976e-006 1.52205002e-005 2.33000010e-005 1.11447589e-005
      3.46849411e-005 1.52190150e-005 3.11085637e-006 2.85472343e-005
      -4.92257504e-006 -2.22421604e-005 3.55771067e-006 -1.24350236e-005
      -3.06347611e-005 -3.76460730e-006 -5.88485636e-006
      -1.88816120e-005 1.41417959e-005 -1.55441194e-005 -2.09894788e-005
      1.56994320e-005 -3.14722929e-005 -2.64881528e-005 7.81932067e-006
      -2.10832350e-005 -9.32161402e-006 2.45630345e-005 -1.39563981e-005
      2.68387475e-006 3.74826996e-005 1.15336652e-005 2.93960293e-005
      6.15304452e-005 7.39897587e-006 2.21380542e-005 5.11191356e-005
      -1.56521564e-005 -5.33891171e-006 2.11389724e-005 -2.17506113e-005
      -1.83978409e-005 9.14337852e-006 -1.61460812e-005 -1.42575018e-005
      1.43034476e-005 -7.85916745e-006 -7.64169545e-006 2.53160360e-005
      -5.03482397e-006 -8.52507128e-006 2.47560292e-005 4.31755507e-006
      -5.31511068e-006 2.67173509e-005 7.45174475e-006 -7.33562547e-006
      2.08107012e-005 1.90175779e-005 -3.55865581e-007 2.05492652e-005
      3.46219858e-005 1.19610440e-005 3.12805278e-005 2.47897606e-005
      2.71584076e-006 2.28015233e-005 3.24839020e-005 1.04353767e-005
      3.20579820e-005 3.62298852e-005 1.71001502e-005 4.01904799e-005
      2.40718982e-005 8.34612456e-006 3.24702451e-005 1.73667377e-005
      3.82675262e-006 1.50613869e-006 1.89564598e-005 5.94258518e-006
      6.18867125e-006 1.76922458e-005 4.68601274e-006 8.72574037e-006
      1.49785092e-005 1.80091956e-006 9.59640147e-006 3.17197664e-005
      1.68849783e-005 2.85995302e-005 9.75662260e-006 -4.21586265e-006
      8.58074327e-006 5.65305754e-007 -1.12490125e-005 5.70196761e-008
      -3.54446183e-006 -1.09609164e-005 -1.25686336e-006
      -8.23949904e-006 -8.47384581e-006 2.85417400e-006 -3.09218995e-005
      -2.14662869e-005 -1.07184760e-005 -4.30928631e-005
      -2.59592762e-005 -1.37400602e-005 -3.39434955e-005
      -1.44579708e-005 -1.25283259e-006 -4.09609765e-006 1.23429127e-005
      2.71252993e-005 8.67227391e-006 2.43330724e-005 3.81229183e-005
      7.49695846e-006 2.82559158e-005 3.98054617e-005 -9.23452080e-006
      1.63989425e-005 2.58466771e-005 -3.36283010e-005 -7.23267613e-006
      6.80917140e-007 -3.62255923e-005 -8.31615853e-006 -4.59976400e-006
      -4.60055453e-005 -1.80752086e-005 -1.97955724e-005
      -5.44293980e-005 -3.03615379e-005 -3.55267330e-005
      -2.53613616e-005 -1.10255132e-005 -1.22236470e-005 4.34137519e-006
      1.26514042e-005 1.69904797e-005 2.10422240e-005 2.64114951e-005
      3.49583970e-005 -2.43638297e-005 -1.86924754e-005 -4.82081987e-006
      -1.33865860e-005 -4.00166937e-006 1.44849719e-005 -2.83457689e-006
      8.79251002e-006 2.78759871e-005 -2.44972252e-005 -1.15755138e-005
      3.07620894e-006 -3.67997272e-005 -2.51556103e-005 -1.36175058e-005
      -3.12728152e-005 -2.11091992e-005 -1.25295837e-005
      -2.31259110e-005 -1.29420832e-005 -5.07283266e-006
      -1.83815864e-005 -1.18392645e-005 -1.41754299e-006
      -5.87235263e-006 1.75885111e-006 9.06294190e-006 7.70944280e-006
      1.34780430e-005 1.42539457e-005 3.01488240e-006 1.06155485e-005
      6.13069233e-006 6.83911867e-006 1.57719369e-005 6.94533992e-006
      1.64691301e-005 2.21628852e-005 1.01544401e-005 2.15446271e-005
      1.94346685e-005 4.90012826e-006 2.51786423e-005 1.47560786e-005
      -1.94913991e-006 2.01434468e-005 3.36965854e-006 -1.37688794e-005
      2.13589519e-005 5.64905292e-007 -1.55514863e-005 1.40964412e-005
      -1.31086372e-005 -2.70415076e-005 1.28807069e-005 -1.92275347e-005
      -3.36683734e-005 8.35508854e-006 -2.68058775e-005 -4.34936628e-005
      2.04679436e-005 -1.46947386e-005 -3.18496022e-005 3.02258795e-005
      6.26288795e-007 -1.65016172e-005 4.21751829e-005 1.84967030e-005
      4.45697287e-006 1.97192039e-005 8.99650058e-006 5.18512820e-007
      8.12380222e-006 5.08381208e-006 -1.17570130e-006 2.38533698e-006
      2.76122091e-006 -8.22344737e-006 -9.45675765e-006 -7.40017686e-006
      -2.36871238e-005 4.33315063e-006 1.13941842e-005 -1.62256347e-005
      2.84363323e-005 3.69785266e-005 3.86083275e-006 3.23959466e-005
      4.28978783e-005 8.94718687e-006 3.05177564e-005 4.08977867e-005
      1.08827517e-005 2.58695559e-006 8.18241642e-006 -1.26382711e-005
      -2.73955648e-005 -1.85392837e-005 -3.58193829e-005
      -6.82971995e-006 3.29588761e-006 -1.29369146e-005 -2.92232812e-006
      9.96745257e-006 -5.49262131e-006 -1.04463907e-005 3.83446741e-006
      -9.38342691e-006 -1.05756917e-005 -1.09699135e-006
      -1.24769349e-005 1.62271044e-005 1.09200464e-005 2.40602094e-006
      3.62423671e-005 1.93617052e-005 1.49478128e-005 6.06793401e-005
      3.60560189e-005 3.35910518e-005 4.74707194e-005 2.16346216e-005
      2.49365257e-005 1.79920298e-005 -2.25753723e-007 9.49401874e-006
      8.47651063e-006 4.87290379e-007 1.41591227e-005 -2.26804859e-005
      -2.06866880e-005 -8.51116147e-006 -2.88818774e-005
      -1.86916604e-005 -8.06122262e-006 -1.54989793e-005
      -2.73952469e-006 4.52930863e-006 -9.52783878e-008 1.59225619e-005
      2.18411606e-005 1.09378643e-005 2.65673680e-005 2.71547360e-005
      -4.49956906e-006 1.40206685e-005 1.11151494e-005 -1.71063657e-005
      2.71198383e-006 -4.04928733e-006 -1.21070170e-005 7.81237031e-006
      2.29491593e-006 -5.98996223e-007 1.86310644e-005 1.09568900e-005
      -6.09903145e-006 5.95408983e-006 -3.03569550e-007 -1.97453301e-005
      -1.17462359e-005 -1.39677759e-005 -7.64148717e-006
      -3.30522994e-006 -4.88749492e-006 1.99716396e-005 2.07040230e-005
      1.42899071e-005 3.48869253e-005 3.27126363e-005 2.56691710e-005
      3.48828980e-005 2.97216175e-005 2.39681085e-005 1.33310923e-005
      1.30144599e-005 8.15873591e-006 -1.78404321e-006 1.15759876e-005
      5.78071149e-006 -8.69430187e-006 1.34806105e-005 7.76078468e-006
      -1.19525057e-005 1.90703686e-005 1.18155758e-005 2.42411920e-006
      3.76526295e-005 2.75563671e-005 4.71856674e-006 3.70368543e-005
      2.64512164e-005 1.08900422e-005 4.08744490e-005 3.01253422e-005
      -3.43311604e-006 2.09019690e-005 9.23603329e-006 -1.77033908e-005
      3.26187956e-006 -8.18920125e-006 -2.47195367e-005 -4.32106572e-006
      -1.59693227e-005 -2.84812832e-005 -1.06136695e-005
      -2.09223763e-005 -2.61193290e-005 -7.21708875e-006
      -1.69317354e-005 -2.71765784e-005 -1.57103605e-005
      -2.45366864e-005 -1.24220169e-005 -1.12159696e-005
      -1.85231584e-005 2.72860939e-006 -8.85060126e-006 -1.77493494e-005
      3.58622965e-005 1.02522818e-005 -4.31683884e-006 4.25765538e-005
      9.91869274e-006 -2.40330928e-006 2.61982241e-005 -4.79953997e-006
      -1.15976418e-005 2.75664825e-005 2.06868117e-006 1.55618341e-006
      4.37892868e-006 -9.09269329e-006 -5.86244096e-006 -1.25907682e-005
      -1.80421030e-005 -1.29570799e-005 -9.82818983e-006
      -1.11302024e-005 -6.94206847e-006 1.38171872e-005 1.31990464e-005
      1.84120399e-005 2.69383709e-005 2.86181785e-005 3.64584557e-005
      3.15113084e-006 1.10323763e-005 1.95731154e-005 8.66647042e-006
      2.48472661e-005 3.37579331e-005 1.26988143e-005 3.19081264e-005
      4.08271735e-005 -7.77224795e-006 8.24147173e-006 1.73510198e-005
      -2.25900803e-005 -1.15649937e-005 -4.98838553e-008
      -2.60306097e-005 -1.83044504e-005 -3.47043692e-006
      -5.20674666e-006 -3.40108932e-006 1.45436188e-005 1.67556700e-005
      1.57997511e-005 3.67187677e-005 2.15503569e-005 1.61664448e-005
      3.98014454e-005 1.07706474e-005 -3.53808537e-006 1.85048193e-005
      6.84961287e-006 -9.78522530e-006 1.62994675e-005 1.52670582e-005
      4.46570039e-006 3.53816577e-005 1.44204614e-005 1.19730557e-005
      4.57931455e-005 -6.54487212e-006 2.82465453e-006 3.53759606e-005
      1.47455376e-005 2.87809471e-005 6.15780300e-005 2.51837791e-005
      4.31031476e-005 7.55092624e-005 3.44225518e-005 5.21430557e-005
      7.99578338e-005 6.65324524e-006 1.84752480e-005 4.31343069e-005
      -8.35637911e-006 1.15763476e-006 2.36420328e-005 -4.78729135e-006
      -1.06739935e-006 2.09118807e-005 4.27250643e-006 3.70590874e-006
      2.75389702e-005 -1.24893859e-005 -1.48217050e-005 1.35512273e-005
      -1.99247697e-005 -2.33052851e-005 7.28330724e-006 1.31665056e-005
      1.37318193e-006 3.41290506e-005 9.64397714e-006 -5.59276850e-006
      2.35307543e-005 1.04012433e-005 -1.04435676e-005 1.21869934e-005
      1.86236193e-005 -4.72191505e-006 1.61557418e-005 3.99798319e-006
      -2.02080955e-005 1.47077333e-006 2.59893604e-005 3.92164253e-007
      2.38891134e-005 3.96049727e-005 1.62643937e-005 4.18541422e-005
      3.50638293e-005 1.62371016e-005 4.21825935e-005 2.06877830e-005
      4.62835987e-006 6.99367376e-007 1.90167739e-005 2.97357201e-006
      1.53451492e-006 6.28435964e-006 -7.72056774e-006 -4.71037902e-006
      2.08433848e-005 7.98217570e-006 1.39694603e-005 3.34044198e-005
      1.98874131e-005 3.07782539e-005 1.35184891e-005 2.36819278e-006
      1.47008968e-005 5.76762375e-007 -6.22065500e-006 2.95974087e-006
      4.66103666e-006 4.15210616e-006 1.33699014e-005 -6.71289672e-006
      2.05379160e-006 1.43015232e-005 -1.88183785e-005 -1.03845093e-006
      1.15601051e-005 -4.75186280e-005 -2.15560103e-005 -8.82806853e-006
      -5.12077204e-005 -2.23943825e-005 -9.55179894e-006
      -3.58387588e-005 -1.15486819e-005 1.72045213e-006 -8.95824724e-006
      1.43977977e-005 2.72042234e-005 5.25616633e-006 3.35933728e-005
      4.27201994e-005 -6.04492061e-006 2.45775009e-005 3.22891210e-005
      -3.51707822e-005 -4.31424178e-006 2.10153803e-006 -3.74353731e-005
      -5.02346484e-006 -2.07871881e-006 -3.12232551e-005 2.13678095e-006
      -1.03148557e-006 -2.85316237e-005 3.09776595e-007 -4.29956708e-006
      -7.26296184e-006 1.20356808e-005 1.17056970e-005 2.74225349e-005
      3.84151281e-005 4.38349416e-005 4.24148166e-005 5.02898802e-005
      6.10489587e-005 -1.33994981e-005 -4.78638549e-006 1.09165931e-005
      -1.25634242e-005 -1.96377414e-006 1.78287901e-005 2.24262726e-006
      1.52023886e-005 3.56940436e-005 -2.02052051e-005 -6.16418311e-006
      7.33787419e-006 -4.84178381e-005 -3.48292706e-005 -2.42367187e-005
      -3.00540069e-005 -1.80711850e-005 -1.02180375e-005
      -1.18230591e-005 1.00089198e-006 8.59222291e-006 3.90102150e-006
      1.46784341e-005 2.27359578e-005 7.46494879e-006 1.72187210e-005
      2.45519641e-005 8.05173499e-007 1.02255844e-005 1.14318636e-005
      1.20944042e-005 2.22269682e-005 1.77185866e-005 1.78137343e-005
      2.59055687e-005 1.85905537e-005 2.67274609e-005 3.27323614e-005
      2.17675642e-005 3.52197785e-005 3.51680865e-005 1.84986711e-005
      4.06987238e-005 3.44773362e-005 1.63815803e-005 2.22428662e-005
      1.09014391e-005 -3.44940895e-006 1.50314345e-005 -1.53016390e-006
      -1.13083452e-005 1.56529732e-005 -6.55504391e-006 -1.47729515e-005
      3.35986988e-006 -2.22340786e-005 -3.06057300e-005 1.71585907e-006
      -2.70678320e-005 -3.66633321e-005 1.92790831e-005 -1.12392709e-005
      -2.36509622e-005 3.96854011e-005 1.34948450e-005 1.34611767e-007
      4.57635942e-005 2.74261656e-005 1.63898621e-005 1.15443081e-005
      4.28144131e-006 1.19641868e-006 -1.15072487e-006 3.75591256e-008
      -3.62691458e-006 -1.79650651e-005 -1.21421672e-005
      -2.00347986e-005 -1.69748218e-005 -7.50262507e-006
      -2.22716644e-005 9.65033450e-006 1.94456916e-005 -5.97746703e-006
      2.25579388e-005 3.32276759e-005 2.49006973e-007 1.03832490e-005
      2.05664364e-005 -1.47960463e-005 1.12939069e-005 1.76498252e-005
      -1.37141033e-005 2.81014286e-006 5.01927389e-006 -1.74114684e-005
      2.34650301e-007 3.77197102e-006 -1.26150726e-005 -1.38521909e-005
      -4.88270507e-006 -2.02333140e-005 -1.36914878e-005 2.34811125e-007
      -1.29226582e-005 -6.50863012e-006 1.14992235e-005 2.08089045e-006
      -9.96702397e-007 1.08426657e-005 3.50842197e-006 2.21273040e-005
      1.91951440e-005 1.30921499e-005 3.07973532e-005 1.76515405e-005
      1.38866590e-005 5.02884650e-005 2.87928397e-005 2.60149955e-005
      4.96610082e-005 2.65859780e-005 2.94647889e-005 2.17217003e-005
      6.00892827e-006 1.51251543e-005 9.20253660e-006 2.32205116e-006
      1.56707629e-005 -2.06399727e-005 -1.71280826e-005 -5.81246695e-006
      -3.03805373e-005 -2.05143970e-005 -1.14811128e-005
      -1.79817143e-005 -7.39103007e-006 -1.68697511e-006
      -1.29929242e-006 9.25480072e-006 1.00662237e-005 3.63449317e-007
      8.92083699e-006 6.37337189e-006 -1.42311710e-005 -4.28259136e-006
      -1.17464288e-005 -3.15537363e-005 -1.89756629e-005
      -2.91444849e-005 -2.20058246e-005 -5.66345807e-006
      -1.58255589e-005 -4.72331493e-007 1.48391218e-005 6.49925687e-006
      -4.06933532e-006 9.02965712e-006 1.88660624e-006 -1.70081203e-005
      -5.89894398e-006 -1.12868511e-005 5.41846293e-006 1.37772877e-005
      7.65425648e-006 3.61284146e-005 3.94922026e-005 3.11057011e-005
      4.86719728e-005 4.94923152e-005 3.99190503e-005 3.23545537e-005
      3.06806141e-005 2.26434040e-005 1.02344293e-005 1.36613744e-005
      5.88643843e-006 -4.30112959e-006 1.16038018e-005 6.14523833e-006
      -1.41940945e-005 1.19657143e-005 5.94891844e-006 -1.05708223e-005
      2.40551399e-005 1.59125702e-005 1.08140021e-005 4.70501400e-005
      3.63666841e-005 1.77093971e-005 4.90986240e-005 3.70705166e-005
      2.25851800e-005 5.01695395e-005 3.67089960e-005 6.28199768e-006
      2.97905444e-005 1.33248841e-005 -1.58045405e-005 4.63757033e-006
      -1.26956320e-005 -2.49264576e-005 -6.66399728e-006
      -2.16207663e-005 -1.95243047e-005 2.96873736e-007 -1.34951479e-005
      -2.30538717e-005 -1.33595336e-006 -1.15635057e-005
      -3.05138474e-005 -1.32089071e-005 -2.15277214e-005
      -1.46375623e-005 -7.85498469e-006 -1.40992997e-005 9.40000518e-006
      2.16225385e-006 -6.32016554e-006 4.22885096e-005 1.92716725e-005
      4.71366729e-006 1.92299067e-005 -1.23666459e-005 -2.49576824e-005
      -2.49205709e-006 -3.50971750e-005 -3.80180863e-005
      -1.64192272e-006 -2.91149900e-005 -2.60419183e-005
      -2.19288595e-005 -3.78599507e-005 -3.32158816e-005
      -1.43663383e-005 -2.13404292e-005 -1.65373440e-005 5.53015582e-007
      -3.69311692e-008 2.13446151e-006 2.24234918e-005 2.46221916e-005
      2.54554325e-005 5.16196133e-006 1.10716501e-005 1.37077441e-005
      -5.33036882e-006 5.39394387e-006 1.06911993e-005 1.58362650e-006
      1.88922604e-005 2.33174360e-005 7.37283472e-006 2.65304407e-005
      3.22874876e-005 -7.35498179e-006 9.83468544e-006 1.72919117e-005
      -2.66132502e-005 -1.27214580e-005 -1.28592740e-006
      -1.58570783e-005 -6.81997471e-006 8.71431439e-006 9.57106204e-006
      1.67779672e-005 3.23510649e-005 1.44172318e-005 1.83473785e-005
      3.66845416e-005 1.83059401e-005 1.69130035e-005 3.76837525e-005
      1.55222606e-005 1.03983939e-006 2.43659670e-005 9.25819768e-006
      -6.70195095e-006 1.87131209e-005 3.74463184e-006 -5.61334264e-006
      2.52307655e-005 -2.04753223e-006 -3.41409532e-006 2.99952626e-005
      -1.23490508e-005 -2.02424599e-006 2.93086705e-005 1.99695314e-005
      3.69810259e-005 6.81575111e-005 3.22532360e-005 4.96369030e-005
      7.88464749e-005 2.87236744e-005 4.50845728e-005 6.96821153e-005
      3.23417726e-006 1.44255173e-005 3.51384660e-005 -2.13710655e-006
      5.37896358e-006 2.26133998e-005 -1.07707829e-005 -1.00477482e-005
      5.38763970e-006 -7.37250912e-006 -1.03285984e-005 7.32431772e-006
      -4.92750951e-006 -8.98866165e-006 1.45421463e-005 -1.24520730e-005
      -1.92493226e-005 8.22566017e-006 7.96581298e-006 -4.12997269e-006
      2.36553715e-005 7.15266015e-006 -8.77210186e-006 1.71318970e-005
      1.55557682e-005 -5.41532472e-006 1.62550896e-005 1.90117244e-005
      -4.15467093e-006 1.61350872e-005 1.30061781e-005 -1.29653499e-005
      1.02969707e-005 2.47220669e-005 -2.03400486e-006 2.25846361e-005
      3.86143693e-005 1.32204495e-005 4.00059871e-005 4.81754687e-005
      2.66153438e-005 5.28728924e-005 1.60328000e-005 -1.87340248e-007
      -5.62445848e-006 6.88989667e-006 -9.13718031e-006 -1.31049001e-005
      -1.80059433e-005 -3.31918200e-005 -3.16689438e-005 5.72175895e-006
      -8.33994454e-006 -1.98539510e-006 3.56530218e-005 2.32472466e-005
      3.16191545e-005 2.94923830e-005 1.90671708e-005 2.73353962e-005
      3.13439159e-005 2.65284725e-005 3.40529623e-005 9.80169716e-006
      1.04430910e-005 2.05158958e-005 -9.31090199e-006 1.42385647e-006
      1.30548697e-005 -2.37896347e-005 -2.21429400e-006 8.70739677e-006
      -4.72919237e-005 -1.62379965e-005 -3.42470275e-006
      -4.63142896e-005 -1.50478882e-005 -2.05244032e-006
      -3.75507334e-005 -1.09227622e-005 1.66763994e-006 -2.18935893e-005
      5.62643436e-006 1.69275008e-005 -1.50577353e-005 1.56735223e-005
      2.31755057e-005 -2.15053205e-005 1.05905992e-005 1.72786877e-005
      -3.41465602e-005 -2.64936693e-006 3.27711791e-006 -2.64348473e-005
      6.07031461e-006 8.39015411e-006 -1.26465411e-005 2.15473665e-005
      2.19244303e-005 -1.94755776e-005 1.16955807e-005 1.20421109e-005
      1.17485515e-005 3.31013835e-005 3.77489705e-005 5.32870472e-005
      6.65637490e-005 7.67036690e-005 4.57750248e-005 5.25261894e-005
      6.69277433e-005 -1.04175288e-005 -4.51947972e-006 1.46276752e-005
      -2.22823419e-005 -1.39979247e-005 1.07910882e-005 -1.54207482e-005
      -5.41880718e-006 1.76869071e-005 -3.17261147e-005 -2.12973264e-005
      -5.51183075e-006 -4.71440799e-005 -3.43186985e-005
      -2.46868294e-005 -3.65548512e-005 -2.43751783e-005
      -1.46645034e-005 -8.45285194e-006 4.32891966e-006 1.32388350e-005
      3.11378717e-005 4.28659332e-005 5.16340006e-005 2.26557895e-005
      3.45347034e-005 4.15526629e-005 2.29008638e-005 3.49290785e-005
      3.45240405e-005 1.65971869e-005 2.69787924e-005 2.25642252e-005
      2.53601011e-005 3.51557974e-005 2.80474669e-005 3.25769615e-005
      3.89705674e-005 2.76211558e-005 4.99699381e-005 5.35282670e-005
      3.81357167e-005 5.01265276e-005 4.77954891e-005 3.24655230e-005
      1.41196706e-005 8.03607418e-006 -2.74668628e-006 1.19213132e-006
      -8.07082233e-006 -1.30402777e-005 4.19388425e-006 -1.07737960e-005
      -1.14739632e-005 -1.06527534e-006 -2.10059770e-005
      -2.20232578e-005 6.84798079e-006 -1.39646409e-005 -1.76143985e-005
      1.68777497e-005 -4.77748836e-006 -1.03768862e-005 2.56885687e-005
      3.43869033e-006 -3.25762107e-006 1.98749549e-005 5.91555363e-006
      5.87916418e-007 -8.74019042e-006 -9.98803080e-006 -9.50910726e-006
      -2.88465199e-005 -2.15971886e-005 -2.11440420e-005
      -2.75802377e-005 -1.63590121e-005 -1.97818827e-005
      -2.74662852e-005 -1.28169359e-005 -2.24026971e-005 9.26552912e-006
      2.21638402e-005 -2.31177879e-007 1.65879082e-005 2.46241962e-005
      -5.36031803e-006 -1.02509330e-005 -7.84405802e-006
      -4.03796621e-005 -8.81029223e-007 -2.29642956e-006
      -3.17900704e-005 1.18833095e-005 7.42724069e-006 -1.46955990e-005
      5.07669483e-006 3.36140124e-006 -1.20396016e-005 -1.78286391e-005
      -1.39461008e-005 -2.44221155e-005 -4.52834138e-006 5.81207541e-006
      9.29471753e-008 7.05150660e-006 2.45433093e-005 2.26886623e-005
      1.22655729e-005 2.64030296e-005 2.70154851e-005 1.99946371e-005
      1.91584513e-005 1.93899468e-005 1.73448316e-005 6.19304910e-006
      5.66742483e-006 3.57858007e-005 1.70936128e-005 1.67310336e-005
      4.63227152e-005 2.57263455e-005 2.74876020e-005 3.20101244e-005
      1.77912862e-005 2.58254913e-005 2.70319870e-005 2.19902468e-005
      3.24517714e-005 6.34477828e-006 1.13644810e-005 2.20777274e-005
      -9.37658388e-006 1.55406440e-007 7.66606081e-006 -8.15123167e-006
      5.15251912e-008 2.73398632e-006 5.69804479e-006 1.08862678e-005
      8.24095150e-006 6.70131840e-006 5.46029696e-006 -2.01453418e-006
      -6.79078721e-006 -8.03289458e-006 -1.88128506e-005
      -2.49928307e-005 -2.26894754e-005 -3.57977551e-005
      -1.01583964e-005 -5.08614039e-006 -1.88522408e-005
      -9.58847636e-007 7.91350431e-006 -3.04360151e-006 -5.10087648e-006
      8.80631978e-006 -6.73133087e-008 -1.09943521e-005 8.64064532e-007
      -7.53153654e-006 1.20783534e-005 2.27766177e-005 1.38114065e-005
      4.79186856e-005 5.44500326e-005 4.31719163e-005 5.50697805e-005
      5.81721615e-005 4.62850330e-005 2.79162923e-005 2.90000044e-005
      1.82832719e-005 9.94610036e-006 1.28017527e-005 4.23902384e-006
      -6.66110225e-007 1.22360980e-005 7.85413431e-006 2.41532803e-006
      2.57569682e-005 2.07924222e-005 -3.97023041e-006 2.91220804e-005
      2.25619897e-005 1.03305160e-006 3.09915195e-005 2.17136512e-005
      1.96793735e-005 4.51260312e-005 3.47795176e-005 2.44949988e-005
      4.36727714e-005 3.10827272e-005 -3.42952103e-006 1.44201085e-005
      -1.59663819e-006 -3.27269117e-005 -1.64610992e-005
      -3.37493948e-005 -5.17827466e-005 -3.32208765e-005
      -5.02940929e-005 -2.00732356e-005 -1.58468296e-007
      -1.38789746e-005 -1.16012370e-005 1.38060295e-005 2.57085821e-006
      -7.73511692e-006 1.34015736e-005 6.05575588e-006 1.43022226e-005
      2.64131231e-005 2.05894703e-005 3.90711175e-005 3.48954818e-005
      2.79159558e-005 4.67696445e-005 2.46645595e-005 1.24703729e-005
      2.71427598e-005 -3.54932035e-006 -1.26312370e-005 1.27378999e-005
      -1.97770369e-005 -1.64647554e-005 1.19028082e-005 -1.49947637e-005
      -5.99242321e-006 -1.00512857e-007 -1.79110903e-005
      -6.34899698e-006 3.07318305e-006 -3.85152407e-006 5.36407833e-006
      1.08300046e-005 1.21622597e-005 1.63590266e-005 1.68355418e-005
      2.31098657e-005 2.28845965e-005 3.05144590e-006 1.27611893e-005
      1.12530888e-005 4.70908253e-006 1.70762796e-005 1.45036338e-005
      -2.49566824e-006 1.08077093e-005 1.08561726e-005 -1.40250413e-005
      1.92357575e-007 1.47361300e-006 -1.76812664e-005 -7.58621491e-006
      -1.59378499e-006 -3.27043635e-005 -2.21658775e-005
      -1.17795717e-005 -1.66702612e-005 -7.28357372e-006 8.74542002e-006
      8.66526818e-007 7.21963215e-006 2.39624424e-005 3.37834217e-006
      6.11140376e-006 2.38670764e-005 5.00492933e-006 2.87702790e-007
      2.22359231e-005 3.22114852e-006 -1.16492547e-005 1.19136012e-005
      -1.90089509e-006 -1.68927891e-005 9.74772229e-006 -2.73969690e-005
      -3.58090801e-005 -4.68400685e-006 -3.17976046e-005
      -2.91584365e-005 4.34090816e-006 -3.95796960e-005 -2.53353192e-005
      6.19012826e-006 -2.04141679e-006 1.52726716e-005 4.40027507e-005
      7.05280308e-006 2.25899930e-005 4.95090426e-005 6.60886235e-006
      1.88269041e-005 4.13751732e-005 -1.05728468e-005 -2.74527588e-006
      1.28234469e-005 -1.10386045e-005 -7.68196151e-006 3.51531799e-006
      -2.29205352e-006 -5.59248747e-006 4.12730105e-006 2.16862691e-006
      -5.99461509e-006 5.17009812e-006 1.96554538e-006 -5.45988723e-006
      1.14608565e-005 -6.25286111e-006 -1.71731026e-005 2.99469639e-006
      1.45176245e-005 -4.69231566e-007 2.09925147e-005 1.60088421e-005
      -4.70201030e-007 1.97534137e-005 2.44110233e-005 4.20635752e-006
      2.22544822e-005 3.39468679e-005 1.38528212e-005 3.17206068e-005
      2.16493972e-005 -1.73448154e-006 1.96814817e-005 1.83789616e-005
      -6.83262488e-006 1.72100281e-005 2.43803643e-005 5.75006993e-007
      2.62888952e-005 4.25751641e-005 2.09441132e-005 4.81247189e-005
      1.29489254e-005 -3.62288802e-006 -1.15358407e-005 -2.50277435e-006
      -1.94945587e-005 -2.47868938e-005 -1.91882082e-005
      -3.44229520e-005 -3.39601029e-005 3.36226719e-007 -1.38629548e-005
      -1.00240195e-005 2.38601096e-005 1.06068674e-005 1.57785453e-005
      3.77787146e-005 2.79750548e-005 3.23256245e-005 5.38673085e-005
      4.97485489e-005 5.33123639e-005 3.28803144e-005 3.57452882e-005
      4.20582473e-005 -1.21956318e-005 -1.89972343e-006 1.02068298e-005
      -3.03075922e-005 -1.16570563e-005 2.26841144e-006 -3.07905939e-005
      -2.52838208e-006 1.02778849e-005 -2.49134791e-005 6.69686597e-006
      1.95731627e-005 -9.57215525e-006 1.85775461e-005 3.09611532e-005
      -1.79962371e-005 8.72932833e-006 1.83716129e-005 -1.25499273e-005
      1.60942018e-005 2.13924468e-005 -1.56584447e-005 1.39265085e-005
      1.78106129e-005 -1.31190773e-005 1.57888662e-005 2.02907850e-005
      -8.24923336e-006 2.05725009e-005 2.44215917e-005 -6.74912326e-006
      2.31838458e-005 2.83722493e-005 -2.24934083e-005 6.28285034e-006
      1.17069831e-005 2.41505022e-005 4.45411206e-005 5.57030435e-005
      6.31215298e-005 7.60260300e-005 9.17072175e-005 3.94289200e-005
      4.43485405e-005 6.42693994e-005 -6.39183554e-006 -2.95697532e-006
      1.95191569e-005 -7.91265484e-006 -2.26763154e-006 2.42734095e-005
      -8.64630056e-006 -1.73072112e-006 2.23298648e-005 -3.16555343e-005
      -2.32835864e-005 -9.08962647e-006 -4.37944109e-005
      -3.39660073e-005 -2.40910413e-005 -4.54228393e-005
      -3.54195981e-005 -2.51977635e-005 -2.06550230e-005
      -6.53757752e-006 2.84337034e-006 3.35478035e-005 4.65512130e-005
      5.51018638e-005 3.63053623e-005 5.19298846e-005 5.65635564e-005
      3.73573966e-005 5.09544043e-005 4.97457186e-005 2.83909067e-005
      4.00097706e-005 3.61291786e-005 3.36159173e-005 4.47840757e-005
      3.73765324e-005 4.38846000e-005 5.09015917e-005 4.19545395e-005
      5.97359322e-005 6.33552481e-005 4.96775538e-005 5.65447772e-005
      5.59667023e-005 4.37187955e-005 1.78080018e-006 -1.41331816e-006
      -7.52256346e-006 -1.37879479e-005 -1.81670675e-005
      -1.98383168e-005 -3.89047136e-006 -1.26765954e-005
      -9.75669627e-006 -9.50367576e-006 -2.12835948e-005
      -1.75718687e-005 1.47071955e-006 -9.65296204e-006 -8.05075979e-006
      -8.28845259e-006 -1.88660670e-005 -2.11108982e-005 2.02966976e-006
      -1.07459828e-005 -1.49742018e-005 -5.36261996e-006
      -1.21541025e-005 -1.33193325e-005 -3.99764649e-005
      -3.56519158e-005 -3.29937066e-005 -3.25175643e-005
      -1.92109783e-005 -1.70346248e-005 -1.36604604e-006 1.60947275e-005
      1.47581386e-005 -1.80065513e-006 1.93595952e-005 1.15125249e-005
      3.79875673e-005 5.10718091e-005 3.16939331e-005 3.82274848e-005
      4.17352639e-005 1.58844978e-005 2.04941280e-005 1.83682896e-005
      -1.11166928e-005 2.54804218e-005 1.90551145e-005 -1.00846219e-005
      4.27854538e-005 3.41354717e-005 1.15773064e-005 2.07072517e-005
      1.41999699e-005 3.40476248e-007 -1.02506074e-005 -9.81275753e-006
      -1.68092847e-005 -1.08988797e-006 8.24242852e-006 7.40219230e-006
      5.58929560e-006 2.39219025e-005 2.63446891e-005 1.22763631e-005
      2.83392201e-005 3.32579475e-005 1.30587514e-005 1.29172549e-005
      1.64069752e-005 1.14183204e-005 1.69382611e-006 3.63424920e-006
      2.72601283e-005 1.03152779e-005 1.00843354e-005 4.05432984e-005
      2.10257767e-005 2.15260443e-005 3.33276002e-005 2.03562631e-005
      2.73670175e-005 3.02355929e-005 2.71257286e-005 3.80004094e-005
      7.30276133e-006 1.38033311e-005 2.62991034e-005 -2.34704839e-005
      -1.45255544e-005 -7.27677707e-006 -3.54177087e-006 2.08491088e-006
      3.47534683e-006 6.25382108e-006 7.29340900e-006 1.86595503e-006
      5.00114538e-006 -1.22057804e-006 -1.19733650e-005 6.64051004e-006
      -8.64354320e-007 -1.39250396e-005 -1.46118955e-005
      -2.16100161e-005 -3.62271530e-005 -1.71357715e-005
      -2.12885316e-005 -3.60146551e-005 3.09464417e-006 5.96577729e-006
      -6.02500859e-006 -8.00517955e-006 5.93960408e-007 -1.03523871e-005
      -1.51035520e-005 -3.77877063e-006 -1.59505453e-005 1.37896532e-005
      2.49037712e-005 1.34233278e-005 4.65755293e-005 5.50819932e-005
      4.08362139e-005 4.48050450e-005 5.02219082e-005 3.70265880e-005
      1.57264112e-005 1.84222408e-005 4.58652221e-006 3.97097619e-006
      6.84864926e-006 -2.16181866e-006 4.75691604e-006 1.61538064e-005
      1.12632024e-005 1.07009118e-005 2.93331577e-005 2.76101691e-005
      5.60936269e-006 3.04717851e-005 2.79259020e-005 1.26897366e-005
      3.21590960e-005 2.73980386e-005 3.14538520e-005 4.79016417e-005
      4.06411818e-005 1.55712805e-005 2.74547783e-005 1.85131539e-005
      -1.23825675e-005 -2.06700020e-006 -1.56194383e-005
      -3.62362371e-005 -2.80955392e-005 -4.17318224e-005
      -4.29955289e-005 -3.02493172e-005 -4.50715452e-005
      -3.14744066e-005 -1.40665024e-005 -2.55647974e-005
      -9.63569437e-006 1.56350889e-005 6.89938315e-006 1.27536050e-005
      3.44059627e-005 2.83723111e-005 4.78896800e-005 6.21059226e-005
      5.73929065e-005 6.55136464e-005 6.41974548e-005 5.78354957e-005
      3.98517113e-005 2.13420244e-005 1.11261625e-005 3.64768603e-005
      9.65442632e-006 2.43046702e-006 2.32985331e-005 -4.51509732e-006
      -1.18067567e-006 3.42874191e-005 1.11374393e-005 2.26184784e-005
      1.63080003e-005 4.24949894e-006 2.08383917e-005 7.44828696e-007
      4.53060892e-007 1.42155650e-005 3.39041935e-006 9.55684663e-006
      1.64873400e-005 -3.80214101e-006 7.02987563e-006 7.62665331e-006
      -1.65865440e-005 -4.12129066e-006 -9.21273386e-006
      -1.28821448e-005 -2.59723811e-006 -8.62168054e-006
      -2.66016359e-005 -1.76453832e-005 -2.21698683e-005
      -3.06105285e-005 -2.49850982e-005 -2.38609409e-005
      -2.60280049e-005 -2.26542161e-005 -1.64126541e-005
      -2.46315267e-005 -2.10351463e-005 -9.57032626e-006
      -3.24283574e-005 -2.58005093e-005 -1.34599750e-005
      -2.46743366e-005 -1.86158559e-005 -3.64604284e-006
      -9.10488143e-006 -7.74706950e-006 9.51716174e-006 -2.85038664e-006
      -8.00451471e-006 1.14542463e-005 3.39697749e-007 -1.37412071e-005
      9.76569663e-006 -8.90572119e-006 -2.22221024e-005 4.38896313e-006
      -4.08663291e-005 -4.57197239e-005 -1.69602572e-005
      -5.46941592e-005 -5.18343659e-005 -2.09995542e-005
      -3.66934655e-005 -2.09952013e-005 6.53075040e-006 -2.46452123e-006
      1.51496279e-005 4.05987157e-005 -2.11052138e-005 -7.24047368e-006
      1.69913892e-005 -3.61207931e-005 -2.48071865e-005 -4.67958625e-006
      -4.47501334e-005 -3.87865766e-005 -2.41273010e-005
      -2.50570884e-005 -2.40113004e-005 -1.61088774e-005
      -2.98265081e-006 -8.54307837e-006 -4.25145936e-006 8.29223779e-007
      -8.46947205e-006 -3.78067398e-006 -1.21606099e-005
      -2.39050678e-005 -1.29786185e-005 -1.85190602e-005
      -3.26308073e-005 -1.64674584e-005 5.72681438e-006 -1.00729703e-005
      4.05624269e-006 1.06558009e-005 -8.31078705e-006 5.52329584e-006
      2.89748750e-005 8.39476070e-006 2.17342094e-005 4.48973733e-005
      2.35305233e-005 3.85705098e-005 1.82524072e-005 -5.71805731e-006
      1.31376028e-005 7.99087502e-006 -1.60311138e-005 5.89458523e-006
      1.66862192e-005 -6.27071768e-006 1.69161467e-005 3.78491604e-005
      1.64407720e-005 4.14037313e-005 1.64847243e-005 -6.18181161e-007
      -1.23547752e-005 1.79090432e-006 -1.47588298e-005 -2.38080029e-005
      -1.20606201e-005 -2.82441488e-005 -3.20561885e-005
      -6.58470799e-006 -2.10936923e-005 -2.33263745e-005 2.09996633e-005
      9.07947833e-006 7.82118150e-006 3.62487735e-005 2.61403602e-005
      2.61068999e-005 3.82505023e-005 3.37169331e-005 3.50227092e-005
      1.67638555e-005 1.86137277e-005 2.52952141e-005 -1.48453209e-005
      -7.75258286e-006 5.77947412e-006 -1.71929478e-005 -2.40719646e-006
      1.34180937e-005 -1.34146944e-006 2.42978786e-005 3.87247892e-005
      3.38936775e-006 3.27833332e-005 4.55933659e-005 1.43223351e-005
      3.91443937e-005 4.99905109e-005 -1.21527694e-006 2.11737333e-005
      3.04747027e-005 3.23845916e-006 2.53212474e-005 3.13042583e-005
      6.39781365e-006 2.79587166e-005 3.18182574e-005 1.74251436e-005
      4.01553079e-005 4.63148572e-005 1.76136982e-005 4.06762301e-005
      4.81835414e-005 -7.61648926e-006 1.83516040e-005 2.67014602e-005
      -2.40525260e-005 2.96695248e-007 9.92850892e-006 2.14105548e-005
      3.92372676e-005 5.72415120e-005 3.92498332e-005 4.90284801e-005
      7.05926723e-005 3.64936386e-005 4.01377438e-005 6.56204138e-005
      -5.51239282e-006 -4.92171375e-006 2.27831806e-005 -1.47867922e-005
      -1.33802050e-005 1.75204968e-005 -3.40434849e-006 8.92826108e-007
      2.75633320e-005 -9.96084145e-006 -4.11853307e-006 1.17803411e-005
      -2.53698072e-005 -1.92007010e-005 -8.83001758e-006
      -2.23360657e-005 -1.65464662e-005 -4.82857922e-006
      -5.72223962e-006 2.48226684e-006 1.37129373e-005 3.08292365e-005
      4.19801399e-005 4.82415780e-005 3.64286534e-005 5.14973544e-005
      5.40377405e-005 3.94914932e-005 5.42991147e-005 5.09478850e-005
      3.98049779e-005 5.42739326e-005 4.93389998e-005 4.20605429e-005
      5.41923619e-005 4.93737207e-005 5.53666468e-005 6.50405782e-005
      5.85351409e-005 8.00074122e-005 8.54536265e-005 7.65050499e-005
      5.70382399e-005 5.83790570e-005 5.05288263e-005 2.76175547e-006
      1.17687705e-006 -2.58983778e-006 -2.16637873e-005 -2.47242260e-005
      -2.50732555e-005 -1.06022380e-005 -1.46829561e-005
      -1.08157383e-005 -9.27875044e-006 -1.21055418e-005
      -8.57085433e-006 -6.17685782e-006 -5.06909555e-006
      -4.41005341e-006 -1.45795193e-005 -1.29237142e-005
      -1.38793012e-005 -1.51595978e-005 -1.70373587e-005
      -1.91599574e-005 -2.46254422e-005 -2.23753705e-005
      -2.25068779e-005 -4.80118397e-005 -3.78883196e-005
      -3.39438448e-005 -2.73503410e-005 -8.24806466e-006
      -5.20804542e-006 6.84787892e-006 2.88469673e-005 2.85155456e-005
      1.17668469e-005 3.61076636e-005 2.95489117e-005 4.94384331e-005
      6.11692158e-005 4.40516123e-005 4.55546360e-005 4.75963679e-005
      2.40025074e-005 4.55006011e-005 4.06150393e-005 1.32982168e-005
      5.50282602e-005 4.57020251e-005 1.91541349e-005 6.20933861e-005
      5.11490944e-005 3.02443659e-005 4.37875278e-005 3.55397788e-005
      2.17629076e-005 2.38048847e-006 3.27670000e-006 -2.41436942e-006
      -4.75690013e-006 4.29373176e-006 5.15433203e-006 8.54523114e-006
      2.37909244e-005 2.78194875e-005 1.58621810e-006 1.52457960e-005
      2.00153372e-005 1.41050123e-005 1.40091361e-005 1.69419254e-005
      1.97380596e-005 9.97254028e-006 1.13787255e-005 2.16375574e-005
      3.39224403e-006 2.62182562e-006 3.07872251e-005 1.04358442e-005
      1.44875403e-005 2.67098385e-005 1.37316665e-005 2.38732609e-005
      2.57366628e-005 2.08610454e-005 3.38449499e-005 -2.98551549e-006
      4.84538350e-006 1.74022443e-005 -2.78209427e-005 -1.96996371e-005
      -1.11790268e-005 -9.65862728e-006 -5.88259627e-006
      -3.39342569e-006 3.79605171e-006 1.00130615e-006 -3.80259371e-006
      1.55431608e-005 1.05009412e-005 -1.29545526e-006 1.24897360e-005
      2.53908911e-006 -1.24340149e-005 5.32164267e-006 -7.02926991e-006
      -2.30911137e-005 -4.83240001e-006 -1.39103167e-005
      -2.91195774e-005 -2.19946378e-006 -4.24849850e-006
      -1.61823809e-005 -1.78519094e-005 -1.40083303e-005
      -2.41864291e-005 -1.51610302e-005 -4.59367357e-006
      -1.49672687e-005 1.47547526e-005 2.30596579e-005 1.27389758e-005
      3.87593136e-005 4.51983906e-005 3.25238361e-005 3.59449550e-005
      3.94298440e-005 2.68628064e-005 1.57408012e-005 1.72880373e-005
      4.89518106e-006 -1.01050887e-006 3.79777788e-007 -9.32280909e-006
      -8.73790214e-007 5.80932010e-006 3.33739513e-006 1.08681525e-005
      2.31400900e-005 2.37050299e-005 1.73329390e-005 3.10071409e-005
      3.12529664e-005 3.04426412e-005 3.81922364e-005 3.87340333e-005
      3.01991859e-005 3.46487504e-005 3.45227782e-005 3.19544488e-005
      3.19154751e-005 3.03438228e-005 2.48549131e-005 2.34467461e-005
      1.72897217e-005 5.72043291e-007 -4.22472851e-007 -7.42490283e-006
      -3.34473880e-005 -3.04651439e-005 -3.76680182e-005
      -3.52268216e-005 -2.21861810e-005 -2.90753887e-005
      -2.69280235e-006 1.63140812e-005 1.03136435e-005 1.71509855e-005
      3.75265918e-005 3.19272367e-005 5.24666284e-005 6.71873786e-005
      6.16610341e-005 4.78877228e-005 4.94038395e-005 4.26055230e-005
      1.91016024e-005 5.91803473e-006 -3.27228099e-006 2.33913743e-005
      4.90251205e-006 -9.58966439e-007 1.68747301e-005 -2.12623922e-006
      3.90514788e-006 2.08925740e-005 6.48703599e-006 2.01514085e-005
      -1.57342549e-006 -5.33578213e-006 1.56435217e-005 -1.35535165e-005
      -8.63429977e-006 1.11560148e-005 -1.15871562e-005 -1.19864956e-006
      9.77171749e-006 -1.14953855e-005 2.54919564e-006 6.09844483e-006
      -1.53217679e-005 -5.39095345e-006 -8.85688314e-006
      -1.11171685e-005 -5.38912627e-006 -1.09226239e-005
      -2.40735335e-005 -2.01518287e-005 -2.43302347e-005
      -1.86747184e-005 -1.93218675e-005 -1.85475892e-005
      -1.65150268e-005 -2.13323656e-005 -1.19218412e-005
      -1.61237858e-005 -2.18574132e-005 -9.40724567e-006
      -4.08423075e-005 -3.90639325e-005 -2.75495076e-005
      -2.74074118e-005 -2.33065566e-005 -1.07586457e-005
      -2.51314054e-006 -3.12832231e-006 1.21209123e-005 -1.65243491e-005
      -2.00819195e-005 -3.75407808e-006 -9.60253510e-006
      -2.16647641e-005 -2.49052391e-006 -2.29553680e-005
      -3.08602175e-005 -9.33044521e-006 -4.21925433e-005
      -4.52180320e-005 -2.28686204e-005 -4.29377324e-005
      -4.16034491e-005 -1.65750898e-005 -1.89664806e-005
      -6.93281800e-006 1.57809573e-005 6.07130141e-006 1.95744051e-005
      4.25632315e-005 -1.71259690e-005 -4.18201807e-006 1.68398910e-005
      -3.87679538e-005 -2.76337596e-005 -8.59170359e-006
      -2.71858880e-005 -2.16676326e-005 -8.62792422e-006
      -1.57560880e-005 -1.55435064e-005 -8.49121625e-006 3.62445212e-006
      -2.21586424e-006 2.12437317e-006 -4.72876991e-006 -1.45523463e-005
      -1.22837428e-005 -1.36585422e-005 -2.72178750e-005
      -2.01788389e-005 -2.72049310e-005 -4.43292993e-005
      -3.51633316e-005 -2.60557999e-006 -2.19239391e-005
      -1.41463097e-005 -4.88234127e-006 -2.56216299e-005
      -1.92606931e-005 2.14274023e-005 -8.83659595e-007 8.11041627e-006
      3.96787691e-005 1.72419932e-005 2.67872474e-005 4.70044552e-006
      -1.79291255e-005 -3.05391336e-006 -1.64013400e-005
      -3.82708240e-005 -2.09867776e-005 1.79876145e-006 -2.07392313e-005
      -1.49697087e-006 2.55003361e-005 5.68566247e-006 2.70189703e-005
      9.50354934e-006 -8.77972707e-006 -2.20375914e-005 -7.44026511e-006
      -2.55927862e-005 -3.57819954e-005 -2.17389861e-005
      -3.81326463e-005 -4.45606092e-005 3.46176830e-006 -1.15473631e-005
      -1.57125578e-005 3.55001757e-005 2.28361623e-005 1.68289353e-005
      3.39104117e-005 2.43004615e-005 2.08594138e-005 2.12612158e-005
      1.69051291e-005 1.62177257e-005 -2.50462813e-006 -1.86479781e-006
      3.57195358e-006 -9.84565122e-006 -4.45049591e-006 1.00348771e-005
      -1.31522893e-006 1.15910725e-005 2.78417119e-005 -1.58561234e-005
      8.99425413e-006 2.25378571e-005 -2.46536874e-005 2.00925138e-006
      1.37097322e-005 -1.05123545e-005 1.30093376e-005 2.26881039e-005
      1.95655321e-006 2.16397148e-005 2.83338723e-005 9.53347717e-006
      2.59350363e-005 2.85153510e-005 1.69957839e-005 3.31771444e-005
      3.54213807e-005 1.72120581e-005 3.47461792e-005 4.10349676e-005
      1.70285803e-005 3.49588445e-005 4.36912269e-005 1.29137845e-006
      2.19822377e-005 3.16050464e-005 -1.46128459e-005 4.43794443e-006
      1.58586663e-005 1.85610334e-005 2.93815865e-005 4.88749865e-005
      3.61408784e-005 3.94179806e-005 6.46576955e-005 3.25085130e-005
      3.15228717e-005 5.95147903e-005 -6.34035359e-006 -8.07245942e-006
      2.17813504e-005 -2.84101588e-006 -3.55304496e-006 2.77050312e-005
      1.43137249e-005 1.65145793e-005 4.10517387e-005 7.78301637e-006
      1.28213178e-005 2.51247766e-005 -4.61271475e-006 2.13911153e-006
      1.07344949e-005 -1.42711260e-005 -9.80604364e-006 5.32262391e-007
      7.78276262e-006 1.26047289e-005 2.19966387e-005 4.04043494e-005
      4.95130043e-005 5.23613489e-005 4.58976938e-005 5.77912579e-005
      5.58089741e-005 2.91232682e-005 4.48695937e-005 3.97014337e-005
      3.93335467e-005 5.46446608e-005 4.70462655e-005 3.68634355e-005
      4.82121468e-005 4.29335014e-005 5.60954250e-005 6.54962423e-005
      5.98787228e-005 7.48534367e-005 8.07997567e-005 7.19576492e-005
      4.09388340e-005 4.35418333e-005 3.71023634e-005 -2.02050560e-005
      -2.06755794e-005 -2.26390221e-005 -3.08755989e-005
      -3.07244263e-005 -2.94981401e-005 -1.60263444e-005
      -1.33466256e-005 -1.02006834e-005 -5.34073797e-006
      -1.08085763e-008 2.68095778e-006 2.56279964e-006 1.44560827e-005
      1.29859282e-005 8.66511346e-006 2.04440203e-005 1.80857405e-005
      4.65478206e-006 1.04432766e-005 9.30207807e-006 -8.57781743e-006
      1.30519777e-006 8.70022859e-007 -2.65949693e-005 -9.76708725e-006
      -6.44135343e-006 -2.59909611e-005 -3.45268268e-006 9.75672094e-008
      -6.93696074e-006 1.85192366e-005 1.98584585e-005 -1.61862936e-005
      8.00108683e-006 3.25615474e-006 1.29219407e-005 2.25597396e-005
      9.68501081e-006 1.24374064e-005 1.52961129e-005 -4.03706463e-006
      2.47457192e-005 2.14952015e-005 -1.99899250e-006 4.93497864e-005
      3.90386558e-005 1.60164564e-005 3.91622416e-005 2.81346620e-005
      8.94317418e-006 2.83452537e-005 1.88256054e-005 7.20583694e-006
      4.61745003e-006 5.03379943e-006 3.79132558e-007 -1.08741006e-006
      7.64620472e-006 9.31905470e-006 7.41855229e-006 2.05315628e-005
      2.64066566e-005 -2.37244581e-006 7.54786834e-006 1.35482824e-005
      1.07602909e-005 9.31032901e-006 1.39206841e-005 1.88582744e-005
      8.46459716e-006 1.13519118e-005 6.93969059e-006 -9.42105544e-006
      -6.76951959e-006 1.44474125e-005 -2.91915285e-006 4.19000435e-006
      1.37299076e-005 3.91574713e-006 1.70410203e-005 6.33388936e-006
      5.55019824e-006 2.15973341e-005 -2.37955628e-005 -1.49094822e-005
      8.46254466e-007 -2.88984083e-005 -1.92757161e-005 -8.83354551e-006
      -8.75926980e-006 -6.92300364e-006 -2.99421208e-006 1.07261158e-005
      8.52103312e-006 4.92550907e-006 1.71908632e-005 1.10883611e-005
      5.66531753e-007 3.77267024e-005 2.71011522e-005 1.26545519e-005
