<?xml version="1.0"?>
<opencv_storage>
<opencv_ml_ann_mlp>
  <format>3</format>
  <layer_sizes>
    120 40 65</layer_sizes>
  <activation_function>SIGMOID_SYM</activation_function>
  <f_param1>1.</f_param1>
  <f_param2>1.</f_param2>
  <min_val>-9.4999999999999996e-01</min_val>
  <max_val>9.4999999999999996e-01</max_val>
  <min_val1>-9.7999999999999998e-01</min_val1>
  <max_val1>9.7999999999999998e-01</max_val1>
  <training_params>
    <train_method>BACKPROP</train_method>
    <dw_scale>1.0000000000000001e-01</dw_scale>
    <moment_scale>1.0000000000000001e-01</moment_scale>
    <term_criteria>
      <epsilon>1.0000000000000000e-02</epsilon>
      <iterations>1000</iterations></term_criteria></training_params>
  <input_scale>
    3.1649372437122143e+01 -5.7906944343833436e-02
    4.4358001573634365e+00 -4.1388532692770297e-01
    2.9821808411580220e+00 -1.8520030571268304e+00
    3.8343143364363872e+00 -3.2303172621975671e+00
    4.2033140988203961e+00 -3.0868687431890907e+00
    4.2982396096564957e+00 -3.4661140261905996e+00
    4.0010071991949214e+00 -3.3251469419055608e+00
    3.0070670703780498e+00 -1.3965076795134346e+00
    6.7553516846356603e+00 -2.8342295871606027e-01
    4.8391013718087457e+01 -3.4014087513186179e-02
    4.5052004156736150e+00 -3.3755337050518666e+00
    4.5193722941586509e+00 -3.6804017965989768e+00
    4.5174174064540749e+00 -3.0479358097850415e+00
    4.4130395036843959e+00 -3.1386168807540429e+00
    4.6876554442226848e+00 -3.6614772510383804e+00
    4.5711594901365391e+00 -3.5119585974019074e+00
    4.2381806758354914e+00 -2.8465550028558626e+00
    4.5318145153374747e+00 -3.2351934790771706e+00
    4.4020536223467994e+00 -3.5892124257163949e+00
    4.2959515388644691e+00 -2.9822969700008266e+00
    3.2915594112957153e-01 -3.2105931422891719e-02
    4.4433131923413048e-02 -2.3066325261337797e-01
    1.2994014050958557e-02 -7.8520586344441323e-01
    1.0885290184592831e-02 -1.4843097921923685e+00
    1.0291400560790174e-02 -1.6799163695118238e+00
    1.1409967820763490e-02 -1.9501631611110821e+00
    1.1325024390814115e-02 -1.4788079492921402e+00
    1.6269437999302062e-02 -5.9142537389523264e-01
    6.6202039002158458e-02 -1.3957892149091225e-01
    4.4464017195989969e-01 -2.5421159368627971e-02
    2.9883969969125723e-01 -3.5153330479999328e-02
    3.5299265335435939e-02 -2.7700380622822246e-01
    1.1464626413745271e-02 -1.0604151195757947e+00
    1.0970577383594967e-02 -1.7517034315285034e+00
    1.1514206444875252e-02 -1.4051306871913811e+00
    1.2112141413721970e-02 -1.7587678893544358e+00
    1.0628889571554067e-02 -1.7668464485179820e+00
    1.3545062441534444e-02 -7.9311354841387571e-01
    5.2414222862484282e-02 -1.6946222894671079e-01
    4.5040011320969814e-01 -2.7642676212577676e-02
    2.9371754401081857e-01 -3.4979999761639131e-02
    3.1451882721330558e-02 -2.9141632397717965e-01
    1.0546079741897177e-02 -1.0151211759841670e+00
    1.1116950024004519e-02 -1.4694071014497616e+00
    9.8380468238167783e-03 -8.6390079119700591e-01
    9.9998944520853783e-03 -9.8875356769887002e-01
    1.0133179774455024e-02 -1.4074433898079577e+00
    1.2161422196651329e-02 -7.7422069090877255e-01
    4.6253844947522882e-02 -1.8716416715583434e-01
    5.2095455798372825e-01 -2.5946226767577307e-02
    2.5855093424603320e-01 -3.5546030779806566e-02
    3.1674490426828815e-02 -2.9316260586721277e-01
    1.0587096737118631e-02 -1.0327253903781288e+00
    1.0903279303616075e-02 -1.5597637613045829e+00
    9.8838584703418060e-03 -1.0602604666485744e+00
    1.0403473633093647e-02 -1.1865977537897874e+00
    1.0018117718859947e-02 -1.3314135785375683e+00
    1.2445700151326063e-02 -7.1660074207888524e-01
    4.8566193373658077e-02 -1.7937910511646654e-01
    4.6017438985370113e-01 -2.9755552972761237e-02
    2.7223859828905639e-01 -3.3250768885036967e-02
    3.5745474498042933e-02 -2.6117875801650903e-01
    1.0991373652836839e-02 -9.3903031368529177e-01
    1.0198367389057238e-02 -1.6121027026130061e+00
    1.0658047779399974e-02 -1.6746055235972126e+00
    1.1549556510055561e-02 -2.0261757437756174e+00
    1.1251322780725765e-02 -1.7638668032935807e+00
    1.3488456750388631e-02 -6.7670595428551039e-01
    5.5792875783622381e-02 -1.6155950921780909e-01
    4.3501223934673655e-01 -2.6671780627262769e-02
    2.7220316031843822e-01 -3.8367651981075529e-02
    3.5282705433896520e-02 -2.5283289397415876e-01
    1.1106909988131582e-02 -8.9817869753877944e-01
    1.0453560431820890e-02 -1.4978639675418284e+00
    1.1078447722126041e-02 -1.3713261978961151e+00
    1.1163119185727828e-02 -1.6869421062088858e+00
    1.0900044483945440e-02 -1.7873099731599889e+00
    1.2888876917897755e-02 -7.5730391859017909e-01
    5.6554240179875113e-02 -1.7298559205530845e-01
    4.1733728406723131e-01 -2.3606084808722470e-02
    2.1630946970318354e-01 -4.3988896055079947e-02
    3.2161925941929743e-02 -2.7601997742442552e-01
    1.0597326320291461e-02 -9.5439556973659478e-01
    1.0318964246577422e-02 -1.2873686971866523e+00
    1.0918451802433723e-02 -8.2807455713629485e-01
    1.0523010284934266e-02 -1.0564887047734028e+00
    1.0439812698517348e-02 -1.5717206667141213e+00
    1.1844300648605532e-02 -8.1658606771997733e-01
    4.8355763712824296e-02 -1.9607284706644221e-01
    4.1021233472317814e-01 -2.3602694612360163e-02
    2.1350092445124771e-01 -4.6420591890855185e-02
    2.9415504159080005e-02 -3.0165936224511963e-01
    1.0729911426444088e-02 -1.1441068579589224e+00
    1.1009712155447941e-02 -1.5657253263015707e+00
    1.0690360530532673e-02 -9.1310740727063966e-01
    9.8375873478017111e-03 -1.0229479595369066e+00
    1.0174031767970671e-02 -1.5201622733087192e+00
    1.1710069907562034e-02 -8.5169226422666722e-01
    4.8266861968594213e-02 -2.0302410449576000e-01
    3.8860953247875196e-01 -2.2549006603278774e-02
    2.3552429104910144e-01 -4.7322830033002604e-02
    3.2695328694204710e-02 -2.8606620973489472e-01
    1.1322318074934223e-02 -1.1421843346517166e+00
    1.1005601665989342e-02 -1.8174601272395836e+00
    1.1974080871734559e-02 -1.4765877487841590e+00
    1.2903749803896743e-02 -1.7473298845508538e+00
    9.9212127066221848e-03 -1.5620479441678568e+00
    1.3441996854405919e-02 -8.0970925730317755e-01
    5.6532314151929483e-02 -1.7995752852479158e-01
    3.4676443412082919e-01 -2.4026907332531881e-02
    2.6273241380097589e-01 -4.1847783396453536e-02
    4.3565291458566968e-02 -2.2415541402810887e-01
    1.3298256982695008e-02 -7.5048434750397364e-01
    1.1197717904979579e-02 -1.4332410764236811e+00
    9.8938236040015375e-03 -1.4887969618666077e+00
    1.0097953470457846e-02 -1.4013295977246707e+00
    1.1214792774311585e-02 -1.2192188185248134e+00
    1.6139681490873657e-02 -5.6485544076005378e-01
    7.0268236438798301e-02 -1.4560636207511096e-01
    3.4119823480503297e-01 -2.3516585594209528e-02</input_scale>
  <output_scale>
    5.2631578947368418e-01 4.9999999999999994e-01 5.2631578947368418e-01
    4.9999999999999994e-01 5.2631578947368418e-01 4.9999999999999994e-01
    5.2631578947368418e-01 4.9999999999999994e-01 5.2631578947368418e-01
    4.9999999999999994e-01 5.2631578947368418e-01 4.9999999999999994e-01
    5.2631578947368418e-01 4.9999999999999994e-01 5.2631578947368418e-01
    4.9999999999999994e-01 5.2631578947368418e-01 4.9999999999999994e-01
    5.2631578947368418e-01 4.9999999999999994e-01 5.2631578947368418e-01
    4.9999999999999994e-01 5.2631578947368418e-01 4.9999999999999994e-01
    5.2631578947368418e-01 4.9999999999999994e-01 5.2631578947368418e-01
    4.9999999999999994e-01 5.2631578947368418e-01 4.9999999999999994e-01
    5.2631578947368418e-01 4.9999999999999994e-01 5.2631578947368418e-01
    4.9999999999999994e-01 5.2631578947368418e-01 4.9999999999999994e-01
    5.2631578947368418e-01 4.9999999999999994e-01 5.2631578947368418e-01
    4.9999999999999994e-01 5.2631578947368418e-01 4.9999999999999994e-01
    5.2631578947368418e-01 4.9999999999999994e-01 5.2631578947368418e-01
    4.9999999999999994e-01 5.2631578947368418e-01 4.9999999999999994e-01
    5.2631578947368418e-01 4.9999999999999994e-01 5.2631578947368418e-01
    4.9999999999999994e-01 5.2631578947368418e-01 4.9999999999999994e-01
    5.2631578947368418e-01 4.9999999999999994e-01 5.2631578947368418e-01
    4.9999999999999994e-01 5.2631578947368418e-01 4.9999999999999994e-01
    5.2631578947368418e-01 4.9999999999999994e-01 5.2631578947368418e-01
    4.9999999999999994e-01 5.2631578947368418e-01 4.9999999999999994e-01
    5.2631578947368418e-01 4.9999999999999994e-01 5.2631578947368418e-01
    4.9999999999999994e-01 5.2631578947368418e-01 4.9999999999999994e-01
    5.2631578947368418e-01 4.9999999999999994e-01 5.2631578947368418e-01
    4.9999999999999994e-01 5.2631578947368418e-01 4.9999999999999994e-01
    5.2631578947368418e-01 4.9999999999999994e-01 5.2631578947368418e-01
    4.9999999999999994e-01 5.2631578947368418e-01 4.9999999999999994e-01
    5.2631578947368418e-01 4.9999999999999994e-01 5.2631578947368418e-01
    4.9999999999999994e-01 5.2631578947368418e-01 4.9999999999999994e-01
    5.2631578947368418e-01 4.9999999999999994e-01 5.2631578947368418e-01
    4.9999999999999994e-01 5.2631578947368418e-01 4.9999999999999994e-01
    5.2631578947368418e-01 4.9999999999999994e-01 5.2631578947368418e-01
    4.9999999999999994e-01 5.2631578947368418e-01 4.9999999999999994e-01
    5.2631578947368418e-01 4.9999999999999994e-01 5.2631578947368418e-01
    4.9999999999999994e-01 5.2631578947368418e-01 4.9999999999999994e-01
    5.2631578947368418e-01 4.9999999999999994e-01 5.2631578947368418e-01
    4.9999999999999994e-01 5.2631578947368418e-01 4.9999999999999994e-01
    5.2631578947368418e-01 4.9999999999999994e-01 5.2631578947368418e-01
    4.9999999999999994e-01 5.2631578947368418e-01 4.9999999999999994e-01
    5.2631578947368418e-01 4.9999999999999994e-01 5.2631578947368418e-01
    4.9999999999999994e-01 5.2631578947368418e-01 4.9999999999999994e-01
    5.2631578947368418e-01 4.9999999999999994e-01 5.2631578947368418e-01
    4.9999999999999994e-01</output_scale>
  <inv_output_scale>
    1.8999999999999999e+00 -9.4999999999999996e-01
    1.8999999999999999e+00 -9.4999999999999996e-01
    1.8999999999999999e+00 -9.4999999999999996e-01
    1.8999999999999999e+00 -9.4999999999999996e-01
    1.8999999999999999e+00 -9.4999999999999996e-01
    1.8999999999999999e+00 -9.4999999999999996e-01
    1.8999999999999999e+00 -9.4999999999999996e-01
    1.8999999999999999e+00 -9.4999999999999996e-01
    1.8999999999999999e+00 -9.4999999999999996e-01
    1.8999999999999999e+00 -9.4999999999999996e-01
    1.8999999999999999e+00 -9.4999999999999996e-01
    1.8999999999999999e+00 -9.4999999999999996e-01
    1.8999999999999999e+00 -9.4999999999999996e-01
    1.8999999999999999e+00 -9.4999999999999996e-01
    1.8999999999999999e+00 -9.4999999999999996e-01
    1.8999999999999999e+00 -9.4999999999999996e-01
    1.8999999999999999e+00 -9.4999999999999996e-01
    1.8999999999999999e+00 -9.4999999999999996e-01
    1.8999999999999999e+00 -9.4999999999999996e-01
    1.8999999999999999e+00 -9.4999999999999996e-01
    1.8999999999999999e+00 -9.4999999999999996e-01
    1.8999999999999999e+00 -9.4999999999999996e-01
    1.8999999999999999e+00 -9.4999999999999996e-01
    1.8999999999999999e+00 -9.4999999999999996e-01
    1.8999999999999999e+00 -9.4999999999999996e-01
    1.8999999999999999e+00 -9.4999999999999996e-01
    1.8999999999999999e+00 -9.4999999999999996e-01
    1.8999999999999999e+00 -9.4999999999999996e-01
    1.8999999999999999e+00 -9.4999999999999996e-01
    1.8999999999999999e+00 -9.4999999999999996e-01
    1.8999999999999999e+00 -9.4999999999999996e-01
    1.8999999999999999e+00 -9.4999999999999996e-01
    1.8999999999999999e+00 -9.4999999999999996e-01
    1.8999999999999999e+00 -9.4999999999999996e-01
    1.8999999999999999e+00 -9.4999999999999996e-01
    1.8999999999999999e+00 -9.4999999999999996e-01
    1.8999999999999999e+00 -9.4999999999999996e-01
    1.8999999999999999e+00 -9.4999999999999996e-01
    1.8999999999999999e+00 -9.4999999999999996e-01
    1.8999999999999999e+00 -9.4999999999999996e-01
    1.8999999999999999e+00 -9.4999999999999996e-01
    1.8999999999999999e+00 -9.4999999999999996e-01
    1.8999999999999999e+00 -9.4999999999999996e-01
    1.8999999999999999e+00 -9.4999999999999996e-01
    1.8999999999999999e+00 -9.4999999999999996e-01
    1.8999999999999999e+00 -9.4999999999999996e-01
    1.8999999999999999e+00 -9.4999999999999996e-01
    1.8999999999999999e+00 -9.4999999999999996e-01
    1.8999999999999999e+00 -9.4999999999999996e-01
    1.8999999999999999e+00 -9.4999999999999996e-01
    1.8999999999999999e+00 -9.4999999999999996e-01
    1.8999999999999999e+00 -9.4999999999999996e-01
    1.8999999999999999e+00 -9.4999999999999996e-01
    1.8999999999999999e+00 -9.4999999999999996e-01
    1.8999999999999999e+00 -9.4999999999999996e-01
    1.8999999999999999e+00 -9.4999999999999996e-01
    1.8999999999999999e+00 -9.4999999999999996e-01
    1.8999999999999999e+00 -9.4999999999999996e-01
    1.8999999999999999e+00 -9.4999999999999996e-01
    1.8999999999999999e+00 -9.4999999999999996e-01
    1.8999999999999999e+00 -9.4999999999999996e-01
    1.8999999999999999e+00 -9.4999999999999996e-01
    1.8999999999999999e+00 -9.4999999999999996e-01
    1.8999999999999999e+00 -9.4999999999999996e-01
    1.8999999999999999e+00 -9.4999999999999996e-01</inv_output_scale>
  <weights>
    <_>
      -8.1498347255177983e-01 -9.8289491032938436e-02
      3.1032111531554640e-01 7.3037819825486405e-01
      1.1300520319298968e+00 7.0591451837557606e-01
      -7.8410903812280519e-01 1.0338195602139395e+00
      -2.6964786642718358e-01 9.0759668019778539e-01
      -1.4617915946639182e-01 -1.3728385074870881e+00
      -1.3690721228620178e-01 -4.0179073158287970e-01
      -4.9085023263441840e-01 -1.1174233812346130e+00
      -8.2484517722430262e-01 1.1273581239238317e+00
      3.1905534501991503e-02 -2.3294690276439811e-01
      4.6638128452870303e-01 -2.9852329100164698e-01
      -1.4848343785760193e-01 2.0419136951268671e-01
      4.3346408280051008e-01 2.7181109395998182e-01
      -2.3747469812413846e-01 -5.2366888760235131e-01
      -3.2103263574242413e-01 -1.0872713506085070e+00
      2.8255132233310898e-01 -4.3460200268346502e-02
      -3.4868244049485808e-01 -6.0116679951874263e-01
      -5.7093666949897030e-02 2.6493511922244012e-01
      1.9122548706170706e-01 3.8025784488465392e-01
      -3.4165190184674632e-01 4.1193198663428904e-01
      1.9677345112908132e-01 -1.0055921470012312e-01
      2.0642208116741600e-01 -8.4937863703715599e-01
      -3.4321589741569430e-01 -1.1440879547863715e-01
      -2.0075682508823203e-02 1.2841960315384596e-02
      5.8960035782112630e-01 5.5432563027272219e-01
      8.1696108428556041e-02 -2.6503904137632656e-01
      1.1484651742525900e-01 2.6093725206428342e-01
      -6.7764241517479951e-02 -4.0921887459159895e-01
      -6.1368907012386398e-01 -8.0003127479773739e-01
      -4.6058474114678721e-01 6.1748390115213514e-01
      6.4725533933149393e-01 3.6885925264244407e-01
      1.1033321453108823e-01 8.5411937826154513e-02
      -2.4970138167621581e-01 1.1503637136499454e+00
      9.5651058650118359e-02 3.2258251157467688e-01
      2.6234582153689939e-01 4.8321918910708944e-02
      1.7485311369297332e-01 1.6632292026948395e-01
      8.7990170507771907e-03 -3.2213676210954817e-01
      -6.3807570820703230e-01 6.8953757470694252e-02
      -5.9739282350143208e-01 5.8844724064943954e-01
      5.5787461180511394e-02 -7.5706677594211080e-01
      3.3706698543724656e-02 -3.1239602837358965e-02
      3.2684089946033628e-03 -6.1887135961092121e-01
      1.0803295039086482e+00 2.4501283542040656e-01
      1.5555037644488207e-01 -3.9550869560904300e-01
      -2.7939817518651122e-01 -3.9349909264164717e-01
      -3.0182826696913656e-01 3.7972548824444466e-02
      -9.5761964516454162e-02 1.6298789021379247e-02
      1.5738564111680758e-01 -1.3502840506975447e-01
      -4.4015974685554021e-01 -5.6178011730187694e-01
      -2.2889192391679467e-01 -7.9418719994625520e-01
      -2.7792793126431375e-01 2.7537564342983278e-01
      -3.7091615446386766e-01 -5.4007285997180821e-01
      2.9932270030153099e-02 -4.0109848727455250e-01
      -2.1420274561615760e-01 1.6212682785914020e-01
      3.8338286480603945e-01 -1.4733168926236486e+00
      3.1597548761768435e-01 -2.7042308820781191e-01
      2.0497426271750646e-01 -3.7179177891178000e-01
      2.2165672718713506e-01 -6.8720380838465722e-01
      -5.1624805393182749e-01 3.4086698644238189e-01
      -2.3903831128831360e-01 -1.0396185569576217e+00
      -3.8037206887736749e-02 -1.2539881102229149e+00
      -3.5381358092899960e-02 2.0368012419211745e-01
      7.6101507817564829e-01 1.0669547280547960e+00
      -3.3152862271374567e-01 -7.4776490508644566e-01
      -8.2392619779056805e-02 -9.2819039045821172e-01
      -2.9082075623027159e-01 -3.1545555518221446e-01
      -5.5071431868347709e-01 1.6788616044305158e+00
      -2.2574099101752908e-02 6.1848063555489385e-01
      -4.2456150908872847e-01 -6.8225154163247415e-01
      5.7810758663663764e-01 -6.8985361414787194e-01
      9.1486154597335861e-02 -9.5445421866192526e-01
      -3.7137490062282158e-01 -4.4946930686774650e-01
      -1.2523513977234351e+00 6.4847298040862544e-01
      -1.2047349707548616e+00 -6.4556485616546477e-01
      7.6736777102371678e-01 4.3971445098214218e-01
      -2.3596296969924138e-01 -1.5620783156956963e-01
      -8.5176254655219927e-02 2.5262752493204499e-01
      7.2654129826184444e-01 6.2972501811069315e-01
      -7.4726801169578405e-01 1.9213840147787631e+00
      1.3834752747343932e+00 4.1199009992589952e-01
      1.3374599318775111e+00 -7.5588536895656155e-01
      1.3130429723131687e-01 -8.5951978548306551e-01
      -3.3870947137583379e-01 -1.1060174905447326e+00
      -1.0678129658280671e+00 -4.8858419763902872e-01
      -2.6982829933831531e-01 -1.0688780448224768e+00
      -1.6934032077980579e-01 -6.8362426764380768e-01
      4.0595675232871825e-01 1.9801081513865090e-01
      1.8892824877957375e+00 -1.7629210159827088e-01
      1.9457045352889879e-01 -1.2173953970222526e+00
      -2.3375160191170533e-01 -9.2275704984599505e-01
      1.1122518687921008e+00 -1.1314969061625444e+00
      -5.8488087728695359e-01 6.3434547049114876e-01
      -2.0396231563736120e-01 7.8140520399681379e-01
      8.3396349821801566e-02 -1.4171167310112920e-01
      2.9357736501784271e-01 -3.7150676834737978e-01
      -1.0197232006623447e+00 -2.1516577923872909e-01
      -3.6065685155102856e-01 -1.2194863475234328e+00
      -5.2702406627026521e-01 5.7789780826463766e-01
      -2.0322699480281474e+00 1.1479622084591230e+00
      1.9183696828202906e-01 -6.5343172101817459e-01
      2.5058258838277203e-01 -5.8768166219517681e-01
      -3.1726112418818103e-01 -1.2449286245263744e+00
      -2.4368363093229059e-01 -4.6791185660418028e-01
      -8.9126825055982239e-02 -4.7664563000375715e-01
      1.0722202885920995e+00 -1.4596761178161934e+00
      -7.5216104422355945e-01 -3.9892357917654619e-01
      -5.4478776172637439e-04 2.1305274782588601e-01
      1.9655084806556826e+00 -7.7422309024003544e-01
      -1.3862927817519718e-01 -3.4847225899637363e-01
      -3.7414195825856150e-01 -1.1381869124178169e-01
      6.0204706784480821e-01 -2.7480513597967049e-01
      -4.4270308784778317e-01 5.2167463139286729e-01
      -1.7375563798523186e-01 5.0901126785644812e-01
      -7.8583172106157673e-01 1.3580977641573224e-02
      -7.5577468575213791e-01 -5.6618883768246075e-01
      -8.5236733336446524e-01 6.9121712602666763e-01
      -3.6448508416461095e-01 -7.2009794682518413e-01
      -1.4341721249567443e-01 -1.9606512925191280e-01
      -5.3916549033684424e-01 -3.8287039482965829e-01
      -5.5072542088402765e-01 -1.2664833691318365e+00
      2.4244880334943245e-01 9.9884008721767792e-01
      1.8423064401346151e-01 -1.0473546532438156e+00
      -7.4187145810730692e-01 -4.4133810681280022e-01
      -7.5073893488264509e-01 -3.5193175507424446e-01
      -7.4609002646925038e-01 6.2635971380103725e-02
      -1.3629283080898491e+00 8.9474318756393179e-01
      -7.9279363624423643e-02 8.4095959780230267e-01
      6.0484709133765291e-01 1.1008412397053939e+00
      -2.2489014689982964e-01 1.1425272343247123e-01
      5.7132525688499858e-01 -1.0055203594733546e+00
      -9.2671491275160911e-01 4.2815560144941694e-01
      -9.5231188552243229e-01 -6.9667786820728572e-01
      -1.5080500470681406e+00 6.8870190310268897e-01
      -2.0657274164267045e+00 -8.2700947215356424e-01
      6.7197944212201566e-01 7.8697135869811619e-01
      -2.6520309807602671e-01 -2.9259563800970789e-01
      -9.3787882705600445e-01 1.6537820039305781e-01
      6.7401134658964201e-01 -1.1459530089109091e+00
      -5.4407642990984595e-01 1.2484656693128831e+00
      1.3280647671872223e-01 1.4232364617514151e-01
      6.5817478415235842e-01 -3.4051027981078896e-01
      8.4209580545344845e-02 -1.4303453580833012e-01
      6.5429624381118123e-01 -2.0775795953105661e-01
      -1.4867350402304233e-01 2.3031150802595257e-01
      -4.2721366105710523e-01 -2.5114583676541524e-01
      -1.6677175742724881e-02 2.4715060388703530e-01
      -4.8420052867994900e-01 8.9987354045727483e-02
      1.3713371709628248e+00 -8.0779978156696797e-01
      -3.3240790619142263e-01 -4.3038017320588712e-01
      -1.1284601741964354e-01 -2.6525615165366989e-01
      9.7335284797414059e-02 -1.2907870187318510e-01
      -2.8585678609185627e-01 5.6089684640257953e-01
      2.6996235551307329e-01 -2.9981607139278477e-01
      8.9332338047910187e-02 1.1737322426231729e+00
      -2.7669933886323550e-01 -9.0734039392000942e-01
      8.0058888239108672e-02 -4.0832335366395139e-01
      -1.9350641002754168e-01 -3.6137525472688914e-01
      -1.2015427654245361e+00 4.0423120367729032e-01
      -1.2166539508063772e+00 -5.5075172385841975e-01
      -2.2524866948470931e-01 -4.8088104139073518e-01
      3.0355939684849870e-01 -1.8180150756467287e-01
      -4.0502469399812335e-02 3.1185538077205649e-01
      -8.2326705609785600e-01 1.3214108766030572e-01
      2.9788592053362445e-01 -1.6190136593371457e-01
      -4.0437025763176920e-01 -5.9827125236675646e-02
      -2.5202767346248076e-02 -6.4176761521607492e-02
      -2.5596563732778599e-01 2.4609230342028493e-01
      1.6655697466646316e-01 3.2679329330300461e-01
      6.0049007127996645e-01 -2.1116607020899600e-01
      3.6890628539722953e-01 -3.6833779280083151e-01
      -5.9115637857987013e-01 3.8734237108355279e-01
      5.3870781551765012e-01 -2.1486385606114411e-01
      8.3329687313081754e-02 1.0591200249534367e+00
      -4.0922041636362971e-01 -2.3271861817109557e-01
      -2.0945811133272341e-01 1.3741836154848233e-01
      -6.5922250406164629e-01 4.0017150813993724e-01
      8.7471873356728236e-02 -9.5357905788973213e-02
      -6.1728384745817488e-02 -1.2092307728488248e-01
      -2.7944466456813283e-01 -5.1322700089159168e-01
      2.0178101290853323e-01 2.4015346202924345e-01
      -9.1469194316539826e-01 1.1276660504085018e-02
      1.6194023551243611e-01 2.2495631072880448e-01
      1.7798622156262978e+00 2.4421264077505278e-01
      -1.8828525563704243e-01 2.2874425568589234e+00
      2.4833735776991550e-01 2.3596674394151124e-01
      2.5630417823640639e-01 -1.8015844544435067e-01
      -4.2831784498115988e-01 -6.8829867652908119e-02
      3.9439223124841988e-01 4.2227290125421868e-01
      -4.4943690564958005e-02 6.1084613108670105e-01
      8.6886627168683409e-02 -6.3945808149357575e-02
      -1.6342778752349552e-01 -1.0510929244070408e-01
      2.8805766732717408e-01 1.4565429418306813e-01
      2.6951934807915016e-02 -8.6709774104447079e-02
      4.1039674886421862e-01 -2.6576217078997849e-01
      -6.0659726911788791e-03 1.2276025298082324e-01
      4.7953020289352649e-01 5.7839784175235898e-01
      -1.4229283841360099e-01 -2.9849874902990171e-02
      3.9987473893260586e-02 -2.0524031297790560e-01
      3.9918346219843986e-01 1.6776200397117039e-01
      -3.0001470478844612e-02 1.2217028311593614e+00
      6.6700136245618447e-01 -4.0780557676536816e-01
      6.9109244007019302e-02 -1.8083752782050249e+00
      5.3305795195411443e-01 -2.0316648506199075e-01
      4.3658122293266916e-01 3.4120828438344231e-01
      -4.5860749051722777e-01 -1.0894760223571629e+00
      2.9233466459407842e-01 -7.0768250427460350e-02
      -7.6320319932184788e-01 -1.0814592915636440e-01
      1.0912684933774328e+00 -3.9364847631290312e-01
      5.4681219810670478e-01 1.3218979193687003e-01
      -1.0863209057943441e+00 7.2581577174496914e-01
      2.2358761089791676e-01 7.6680410834089929e-01
      2.6895457523708427e-01 -4.9985147342742314e-01
      3.6538314029886804e-02 -1.0266876128020559e+00
      -5.0692680760805915e-02 4.8188625553025749e-01
      -2.7321679799409415e-02 -3.0143192558796017e-01
      6.8013713945043641e-01 6.6445310669117341e-01
      4.8222290246517691e-01 1.7933593561451988e-01
      8.2594492725084823e-01 -1.0750871351335449e+00
      1.0005005471182673e+00 -2.1996202438020235e-01
      9.3389474774156223e-01 -3.0618843738738672e-03
      8.1258155710096591e-01 -2.7002820951558848e-01
      4.9793449440340182e-01 5.7313273338754400e-01
      -1.5932121098358656e-01 -2.9037676433182202e-01
      -1.0041390538718599e-01 -1.9286413960259313e-01
      -2.4437008611785987e-01 8.2765879097536049e-02
      4.0527873982705998e-01 8.0536063288256476e-01
      -5.7761176360425104e-01 9.9314588588937580e-01
      2.4868166544225412e-01 -1.8274090034351023e-01
      9.8380234474945552e-02 -6.0039728182592567e-01
      -2.8223787661211241e-01 -1.4951404406215715e-01
      -4.9883436139960169e-01 3.2589719151044305e-01
      1.0203127175324709e+00 -3.2771873963728784e-02
      -4.2973960289826491e-01 -2.4522541076302293e-01
      -2.6141357219220629e-01 9.3995702652568836e-01
      -7.2722288209438724e-01 3.5959262393980174e-02
      -2.0375503262980935e-01 -9.0449568397949109e-01
      3.0259134247934388e-01 6.7795430304673443e-01
      -3.2260748803230554e-01 -6.0705379333737908e-01
      1.9314187723752535e-01 -1.4941299832703889e+00
      -5.8656391777468467e-02 -3.2746227389562582e-01
      7.1750685708108253e-01 -1.2929252923962625e-01
      -1.4736546046232946e-03 5.7469106045057250e-01
      4.4302413441037844e-02 -1.0672329557733757e+00
      -1.3182831781009335e-01 -6.8111412970102980e-02
      -3.7378697871489835e-01 3.5711042837387269e-01
      8.3910875828584019e-01 -1.1015660734802857e-01
      -1.4843787169758267e+00 3.7932065701714290e-01
      -1.2278207749669197e+00 -4.0420129105151742e-01
      -1.1294634995864033e-02 6.1681364633820646e-01
      2.4465903522161794e-02 -7.2724042505233821e-01
      8.9215880645158049e-02 -2.4974766449727581e-03
      5.7525203538447922e-01 -1.4833462196882666e-01
      -1.2385250497121662e-01 1.6975738786506850e-01
      -4.8186583017317602e-01 -5.1359108882846782e-01
      -1.0931428303084696e-02 1.4572965967865911e-01
      -3.8613023806820229e-01 -2.0127440898303817e-01
      6.1728277030547385e-01 6.5903498555724904e-01
      1.9510367880866650e-01 -2.1969620358544939e-01
      3.5261826537325441e-01 5.9151387348198547e-01
      1.0344529035532506e-01 -6.4481945285052822e-01
      1.2069058570075570e+00 -4.4061598877300534e-01
      2.8377712126132448e-01 -5.2253985746190890e-02
      -9.2513637764546949e-02 -2.6861316244432637e-01
      -5.8356109130147005e-01 -9.1952626524106718e-01
      4.1183523903020414e-01 6.8307080533067011e-01
      2.7466235436154024e-01 -3.3145759867123537e-01
      -1.5454907397979758e+00 -3.2007293843744006e-01
      3.9203153847681804e-01 9.7932322900556912e-01
      8.2611592986245996e-01 -4.3158202041729860e-01
      -6.8292688648086664e-01 -6.3041038577280295e-01
      -1.1916291276250601e+00 -3.3497723915802402e-01
      -1.8191250771004325e-01 9.6236429399986445e-02
      -5.2844121137639644e-01 -2.9756676334160387e-01
      -2.2905499841556709e-01 7.2184056850309064e-01
      1.0121221203189490e+00 4.1911876384449775e-01
      -4.4267617831738310e-01 9.2761522686510334e-02
      7.6920087638407253e-01 9.6534438677201162e-01
      6.9934453954319709e-01 5.9364391320582655e-01
      -1.2840651511091985e-02 3.7862919037279852e-01
      -5.2972418843028601e-01 6.0560146614039900e-01
      5.4018601049433757e-01 4.8589482438197162e-01
      7.4489356947417884e-01 -4.1589590506266233e-01
      -4.2941915036662470e-01 1.7887086425227325e-01
      -2.8468848440768657e-01 -1.1306686890837996e+00
      -1.8040863649357788e-01 -6.8130970590686890e-01
      4.0595226694952836e-02 3.2527398060801471e-01
      -7.2614339903152825e-01 -4.1364288889142115e-01
      6.4734857721066907e-01 -2.4889807288353685e-02
      1.4818856453960591e-01 -1.8216878646266765e-01
      9.5318130188086519e-02 -8.7217223247117159e-01
      1.7804925612769820e-01 4.4778059707284788e-02
      -2.8775087865800236e-01 3.4796841612710311e-01
      -3.6527392770519740e-01 1.8320859042329116e-01
      7.6389953959193579e-01 3.7523407501073397e-01
      5.6796906607514552e-01 5.5681284126371877e-01
      -7.4402279403407101e-01 3.5897657527026183e-01
      -5.4364929328914324e-01 1.1902040668811074e-01
      -3.7677037980444306e-01 4.8534261738398338e-01
      -7.7492292145514619e-01 8.5666796583575344e-01
      -1.4377770233356327e-01 6.1858665794058465e-01
      -9.0506295278592941e-01 9.3741047998882998e-02
      -4.1012008451971788e-01 3.1216239757848335e-01
      -4.9377996629688947e-01 -8.9423791584193252e-02
      -5.1411518274126256e-01 -5.1754543029356859e-01
      -5.5633348707775210e-01 2.9943140237214450e-01
      -7.1445389095764822e-01 5.8555378254930102e-01
      -3.6477149997200653e-01 -1.1837670106354088e+00
      -5.3722788080231187e-01 -4.2971910977949662e-01
      -3.9857148918224561e-01 2.7679840181379461e-01
      -1.1554663808511977e-01 -5.2472200544337200e-01
      -1.5769167646373136e-01 4.4816403790010062e-02
      -7.6429430723070824e-01 -1.7198981489914941e-01
      -8.2728798458856823e-01 6.2034932287035260e-01
      4.8115301148912465e-01 -1.7072019252131354e-01
      1.0711067502475857e+00 9.7402350064695808e-01
      -3.2751846031245163e-01 6.3215789448027804e-01
      -5.0609830947838752e-01 1.4238892334205138e+00
      5.0782317622521556e-01 7.7442178242027349e-01
      -5.4555729774751827e-01 5.3592538935303025e-01
      -2.4827718627591103e-01 4.1418092585671605e-02
      -4.7676566219236816e-01 -6.5275771597259724e-02
      -1.6217635806655670e-02 1.1385491132663099e+00
      -6.2382249535956469e-01 2.2455765927418442e-01
      -7.7677064566861720e-01 2.2126510207141165e-01
      1.8931470366089803e-01 8.8261654221998509e-01
      -3.5847592591429106e-01 7.3188317823331361e-01
      1.0698500247783513e+00 1.5471684774432738e-02
      4.5989633240152616e-01 3.3032771919649362e-01
      -1.4779904767406746e-01 -4.9237359390610497e-01
      -1.4823164983632311e-01 -3.2245684464597614e-02
      6.2347501739183298e-01 6.7842864805800729e-01
      -8.2145439770147388e-01 -8.7660145305141424e-01
      1.2255766615154149e+00 1.0217444492937364e+00
      -7.0379920876988009e-02 -1.1071692368255486e+00
      6.2341243176471517e-01 1.2921531044645738e+00
      -4.5937771998137694e-01 7.0905868409994666e-01
      1.2415529514061913e-01 1.2287493848267652e+00
      7.0644712676508803e-01 -2.5464054369225769e-01
      -6.7936804322720579e-01 4.5441729780539175e-01
      5.4602531440058599e-01 9.7787192681894586e-01
      -4.6259340202843408e-01 1.0549206711060370e-01
      6.2057085199045431e-02 -1.4081417450984629e-01
      1.5972023716311867e-01 9.7762699401314310e-02
      -8.3234545765117474e-01 -8.1877161453367031e-01
      -1.4137650057265205e-01 5.4310279096036018e-01
      -7.7288023450380072e-01 7.7433358071030800e-02
      8.0491346518125717e-01 -5.2484523185583290e-02
      -1.4566192185151294e+00 -3.8290787170727876e-02
      -9.4900024270025266e-02 -1.3419171345979584e+00
      -4.9794081016588132e-01 -7.2999660806670986e-03
      -4.4542278546320480e-01 1.6686175437092721e-01
      -1.5647957162090439e-02 -2.7653499938088028e-01
      3.2432675406862577e-01 6.0878542935294065e-02
      -1.4011447742440533e+00 -7.7284083576343809e-01
      1.7230544177309123e-01 -1.6919263947557284e-01
      7.5695273171989019e-01 5.0682299960139765e-01
      -9.2723119574285628e-01 -1.1390212530732191e+00
      4.5059244055770659e-01 -3.5610002789146727e-01
      -1.6619598778117425e-01 -1.1182472277286415e+00
      4.2188830910457542e-01 3.5326511253929599e-01
      -2.1609426847837571e-01 1.2567981652722950e+00
      1.2925242027463960e-01 -8.0699831223961641e-02
      -7.0558920045026728e-03 -8.4076201767380299e-01
      -1.3921200209544151e+00 -5.1442152380696637e-01
      -6.4442115944545686e-01 2.4045991268391947e-02
      -8.5879532510167933e-01 5.6471350637957007e-01
      -2.9024097451469622e-01 3.6673180735574645e-01
      -9.4704820161894920e-01 -5.2418997870688400e-01
      2.2174945160911314e-01 -8.3208768032790892e-01
      6.7243936888112255e-01 -7.7706443989050134e-01
      -8.4350163861997396e-01 4.4107304778299494e-01
      -7.5061109623612954e-01 -1.7188427259511554e-01
      5.9059803716709547e-01 9.6886570117658510e-01
      -3.9322563050905135e-01 1.3295875546539037e-02
      2.1593474457284342e-01 -2.7429828856962885e-01
      1.1121998567944431e+00 -1.5030353868136159e+00
      -2.9314777600737801e-01 9.3736536751350052e-01
      -5.0806416887780337e-01 -1.8876500747426059e-01
      -2.0543432376789852e-01 -1.6130083972752838e+00
      -2.0567016096803781e-01 -2.1774579342349804e-01
      -1.4920542504123975e+00 5.3759979387838430e-01
      8.9700609830695721e-02 6.0767960992821690e-01
      -4.8903833233729738e-01 -4.0924560967083573e-01
      -8.4626648872090049e-01 1.5227015310347338e+00
      -7.4827748919793338e-02 5.8451327801070763e-01
      -1.0723649002559714e-01 -7.5276301866081752e-02
      3.9073738849115858e-01 -3.0884906790636368e-01
      4.8495563765865746e-01 -2.0017979723441593e-02
      4.5208294851048125e-01 1.2220058778274435e-01
      -5.8216464817130775e-01 -1.1019638178059399e+00
      -4.8312201681429645e-01 2.5291764401202210e-01
      -1.1632442766179781e-01 3.4698397995291808e-01
      -8.5886455580082832e-01 7.3482777465174520e-01
      8.4438871742579830e-02 1.1517559843583534e-01
      5.9460609920363916e-01 -6.7639311506092281e-01
      2.7599323901816131e-01 -3.7103777201364668e-01
      -1.3948461151706149e-01 1.2034477706103155e+00
      -7.9419225196248555e-01 -1.6191025991413724e-01
      9.5280591762250857e-02 -8.8708360984726653e-01
      -2.8493733518983246e-02 -9.6034460054768755e-01
      -5.6112733325837022e-02 -1.7740368892013361e-04
      1.2316383648806445e-01 1.1331458878409222e+00
      -5.1800752574251735e-02 1.0098048216057438e+00
      -1.1796037746084856e-01 -6.7156769045277809e-01
      8.5465587532216780e-02 2.9243090474022015e-01
      6.1627308575332851e-01 -5.0712045618848922e-01
      5.8698545937650240e-02 -5.7504197080750508e-01
      -3.9172281131285391e-01 -5.5119460775705020e-01
      5.9647988535964765e-02 7.6200530404508682e-01
      -4.1563099653223162e-01 -2.5889428237648388e-01
      7.1228623174373096e-01 -1.6114135758364750e-01
      -4.2501903601089280e-01 5.8407768807633882e-03
      3.3100745425630018e-01 9.6787712891489774e-01
      -5.4618940762140966e-01 -1.4071213536503868e-01
      -5.4293238644724984e-01 -5.7229187794834580e-01
      3.8947210140894145e-01 1.5720457956503117e-01
      -1.4642450523844922e-01 -1.0652964251900712e-01
      -9.0677557227145794e-02 -5.6915428160671808e-03
      4.9215998138901962e-01 -3.2472677367686012e-02
      -4.8374832303933779e-01 2.0956142763477756e-01
      4.8615726610629850e-01 -4.0241047548272502e-01
      -2.1924442296390242e-01 -1.9267150269620376e-01
      3.2410644089127977e-01 7.4448450266914920e-02
      1.4106038883513224e-02 -2.2188649041807168e-01
      6.3966315878073621e-01 -1.4696235533206559e-01
      -3.9593478520835806e-01 -2.7860451437039191e-01
      -4.2010174364054570e-01 4.4301479050889347e-01
      1.3268783387556755e-02 -3.9182784077768434e-01
      2.0286293659853175e-01 3.3884230603892861e-02
      -3.1050295026753566e-01 -1.8089697969584061e-02
      -7.8253341126762233e-01 1.8045315539777379e-01
      -6.5975441757603825e-01 5.1914421346879536e-01
      1.3435330192387046e-01 8.5956076227617839e-01
      -1.6548465697851972e-01 -3.4618581919777502e-01
      -5.1557943066787815e-01 1.0746127498137628e-01
      -1.9456612212602825e-01 1.4747357243945031e-01
      -2.1528878699871834e-01 6.7842380937030133e-01
      -1.8962041977747166e+00 1.2609379776947136e-01
      3.2345341883937545e-01 -1.6127955580861022e+00
      -4.3932653107551839e-01 -6.6020684516523875e-01
      5.7850343464214149e-01 -4.0589044529902818e-01
      3.4004252233457682e-01 -9.6561764303004582e-01
      1.6517833521880673e-01 -5.2995182207036258e-02
      4.5958978808680706e-01 -2.3809323431737761e-01
      1.2659579548452564e+00 8.1840474386102272e-02
      3.6601721766063794e-01 -6.4105456911442893e-01
      -4.8846150476260630e-01 6.5606387213917572e-01
      3.7380052593155361e-01 -1.3933175053264674e-01
      -1.4962857000315610e-01 -2.0732546334919882e-01
      -7.4225039791586500e-01 -3.8189993067381295e-01
      -2.0741744887998634e+00 -8.0732817439867444e-01
      -1.6759159957946082e-01 6.5269395725663526e-01
      1.5249482170053255e-01 -1.5182296436845122e+00
      1.9614063865658712e-01 -1.0193078347749274e-01
      7.0681588644090665e-01 9.0886307975428660e-01
      9.9343459349540408e-01 4.4827923024450544e-01
      6.8139396851946654e-01 7.3061957852636708e-02
      -2.7811376890818571e+00 5.3651129219144655e-01
      5.8132128324669152e-01 -3.2382127241143248e+00
      1.3241938415060410e+00 -5.5029208873398827e-01
      -1.2286779449690493e+00 -1.0250432849086605e-01
      -2.1892836917259042e-03 -8.9912186051723753e-01
      7.5644814776268543e-01 1.8530616023300031e-01
      9.9023297552846590e-01 -1.1830574157509542e-01
      2.1789069477322073e-01 -3.3344810555125298e-01
      2.2358347939093257e-01 8.8595408968713901e-02
      -6.5304630946749931e-01 5.1451346206461235e-01
      1.4824657128590721e+00 6.9523782942385065e-02
      7.4186715996105723e-01 2.0203657812063286e-01
      -1.1019753644638459e+00 -1.8431911747506183e-01
      -2.6822226921718739e-01 -1.9312180068598703e-01
      6.9314620697595941e-01 4.4923099555365820e-01
      2.6291960055126858e-02 -1.8052612041800551e+00
      -6.5063661112228466e-01 1.0306754022718949e+00
      -5.7548923967847687e-01 3.9819139559960065e-01
      -3.0151958748081704e-02 -1.8170002479145331e-01
      7.6280005305081422e-01 3.6999271060111788e-01
      -1.4304146837080653e+00 -3.4864646084977757e-01
      9.8947387460344383e-01 -1.2859616844366191e+00
      3.8813523847773479e-01 4.9482951584811302e-01
      -1.5449169071143536e+00 -4.1147949334913203e-01
      -1.5197760379659694e-01 -1.1509420123241410e+00
      -7.5666454450786028e-02 1.1585139125761135e+00
      -3.4428323557707075e-01 1.0468841768861055e+00
      1.2202079774381009e+00 -5.8149763400817056e-01
      -8.3945784133462287e-01 1.4492391608399288e-02
      6.4705488336194106e-01 4.5021012113081399e-01
      2.5218884694880028e+00 -1.4229256277087454e-01
      3.1272016009553244e-01 6.9658558402238979e-01
      2.4820139326600626e-01 8.7888023106370972e-01
      1.9160413492963564e+00 2.2601276170676980e+00
      -1.6568696163856128e-01 -8.4729375696260056e-01
      -6.8329650546607290e-01 -3.6399943170601085e-01
      -1.6719775126679153e+00 2.0022628029990854e+00
      -3.4320776665082420e+00 1.4038686618820650e-01
      -7.6099574167273654e-01 -3.1377063000537241e-02
      -1.8207800143069131e+00 -1.9087234088623312e-01
      5.8705439499963208e-01 -1.8254421982581772e+00
      2.7526969972896825e-01 1.1344812851094903e+00
      4.9922224320034922e-03 -7.9642392506268989e-01
      5.0963392130711860e-01 5.7400498239204545e-01
      4.7177173712726728e-01 -2.0899329893066314e+00
      4.7783629785910903e-01 -1.0478490931653535e+00
      -8.6240063163730518e-01 7.8402718056734488e-01
      -7.9595863257234570e-02 -3.8591644811083431e-01
      1.5919229479193411e-01 -7.1321738579667629e-02
      8.3010935783740580e-01 -1.1584926149527635e+00
      9.4647907393060293e-01 -5.3074550295270562e-01
      2.5521082084148433e-01 4.9351977822830428e-01
      1.6016142506000055e+00 2.3920071912336624e-01
      1.2912500426374447e+00 1.9189948924425129e+00
      -7.7962165683119922e-01 -3.4729583622512161e-01
      -2.4585586014679434e-01 4.0469753603949839e-02
      -6.2679309251268600e-01 -4.5201276245552091e-01
      -7.3575598034484180e-01 -5.2491014645741307e-01
      4.0745795638532606e-01 3.0645192349653662e-02
      7.2817734011068724e-01 3.2442348334816157e-01
      -3.6835562576470554e-01 3.2103463670367394e-01
      5.7612501143449502e-01 1.5551690140219316e+00
      -7.2888426571288345e-01 2.9688518608088743e-01
      8.4606292148279305e-01 1.5702325645672015e+00
      -1.1832891935610206e-01 3.7114916509381896e-02
      7.7393958740193480e-01 -2.0831841475654587e+00
      9.1155693625737955e-01 9.5592647956091115e-01
      -1.7233965688285738e-01 -7.0212306472386909e-01
      1.8032639785381999e-02 -2.5312326511790145e-01
      -2.6853094789853033e-01 -6.6671975010138951e-01
      2.8953041394353224e-01 -3.1603086065122993e-01
      -3.8759723894513681e-01 3.9358313789821575e-01
      -1.3388805138215509e+00 1.8397610640978598e-01
      -2.3475513233626197e-01 -4.2288462071065952e-01
      5.7147392098647665e-01 -9.5932099705684851e-02
      3.0854357534582544e-01 1.1503694801722905e-01
      1.0829281968835207e+00 -7.0723358785028584e-02
      9.3318698952833368e-01 -4.5037216753868223e-02
      4.7791282748492214e-01 2.1692841065305277e-01
      2.1218523045146513e+00 -6.2641603164311854e-01
      4.1043435232711106e-01 1.0354032503355537e+00
      -3.5218028009639073e-02 7.2033718063507224e-02
      7.9707282076126940e-01 4.2368750480277528e-01
      6.1961249408650798e-01 1.0276861441994003e+00
      -3.7200969268324857e-01 1.0310115801054139e-01
      2.4587265156757238e-01 -6.8487373841888466e-01
      3.1244248365895455e-01 9.5169691877998275e-01
      -1.2115733548881985e-01 -8.9567823830107096e-01
      7.1454772118313151e-02 1.2934088088345919e-01
      -3.3727449170629187e-01 -9.6154033013159682e-02
      -1.7097496816866492e-01 7.7766666465643230e-02
      -2.6217606963787971e-01 3.9375069633195353e-01
      -1.0331472798348380e+00 3.8757373550975738e-01
      -1.5735971757201933e-01 -6.7348606096093566e-01
      6.8398291025623104e-01 -2.9040384693712717e-01
      2.4690010576095545e-02 -1.2444873897043847e-01
      4.9452322457392950e-01 -6.1429352711223117e-01
      1.5088778457679826e+00 -1.5116404812620612e-01
      8.1874267238391241e-01 2.7734028158747531e-01
      1.1668569510969756e-01 -9.3077525664465000e-01
      -6.9317639217077853e-01 1.8588409696375552e+00
      5.6064609224520764e-02 -9.8146662350216018e-01
      2.0122031620010183e+00 5.2109794464327697e-01
      -5.0805171049397102e-01 3.4369920888448902e-01
      -5.6532164986489164e-02 -3.7153256448282990e-01
      4.0899965572392649e-01 1.4161790374228869e-01
      -2.0644577963110602e-02 2.1958111646195896e-01
      1.0125506978466845e-02 -5.9673439042228471e-01
      -1.5114673183310396e+00 -1.2458388055933813e+00
      -4.8727181305704687e-01 1.0718592665428509e-01
      -1.8375092412096378e-01 2.9177088362195708e-01
      -1.1119561843503660e+00 3.7189147795477145e-01
      -6.7548848659953986e-01 6.0835468734866183e-01
      -2.9538656274043518e-01 -5.0931470284194624e-01
      -5.8863075655338458e-02 6.5859632410007283e-03
      4.5339795283289053e-01 9.6093788814811287e-01
      -1.3686645112502238e-01 -5.4552359326515076e-01
      -1.1390640421957323e+00 2.3261813683175819e-01
      3.2542821198019728e-01 1.4802363647533809e-01
      2.4688311247653142e-02 -1.5809413290557695e-01
      -6.1773427401442149e-01 4.4322088828769435e-01
      -4.6462786180979415e-01 -5.0273466218643914e-01
      1.1453407782053131e+00 4.1731884645763551e-02
      -2.4150712005450836e-01 -1.1006592098269039e-01
      1.4075374125460252e-01 2.8321586270319571e-01
      1.4248972528746346e+00 2.3342034436869488e-01
      2.4156806287305094e-01 3.0995716890944225e+00
      6.2948983498056399e-01 1.5229743629393697e-01
      -3.8097170888492460e-01 -6.5764452308394875e-04
      5.8818927014058962e-02 -1.4256831504607381e-01
      7.6037356074114804e-01 4.3435051980604761e-01
      -2.0549946012826173e-01 -1.3534244864394857e-01
      9.3482009972833613e-01 -2.6111361480162038e-01
      3.7020154724192983e-01 -1.9066102759564377e-01
      9.4551200917831768e-01 3.6562773494011641e-01
      -7.1994585910058084e-01 -1.4602044650214793e-01
      3.6094923333814749e-01 -1.5310070624723837e-01
      1.4140544612439473e-01 1.2760384991766147e+00
      8.3029345170915392e-01 2.3130232292240793e-01
      -9.6922595438454551e-02 5.2239068270132638e-01
      -9.7980869413715990e-02 -9.4186563350480104e-02
      -1.5045704312650218e-01 1.2324760501838121e+00
      5.8485955759839148e-01 3.4798156470533953e-01
      -3.3484841983113967e-02 -2.7283356316154633e-01
      2.0520633641615627e-01 2.6385612648507312e-01
      -1.3556901942874683e-01 5.8271709246173387e-01
      5.9951101945140479e-02 -2.9391134504643190e-01
      -5.0685903531835885e-01 -1.8533437594908969e-02
      1.1320415257523717e-01 6.3068924358973391e-02
      8.1129439229098876e-02 -6.8277780754599859e-01
      -5.5025842052138041e-01 -5.9327931694721292e-01
      2.5938925406678193e-01 9.7446894425129760e-01
      6.7365613792455814e-02 -4.9647151547230245e-01
      4.5941819361364361e-01 -3.8842571481334226e-01
      -2.9200314202960381e-01 1.2897619727528911e-01
      -1.8081376967546284e-01 -9.9290850526774846e-02
      -4.9969752533502598e-01 -2.9629620806140117e-01
      -1.7232464461277572e-01 8.3023003951935653e-02
      4.9412408915449901e-01 7.4267319340078658e-02
      -1.4223945541589236e-01 -4.3258887463115389e-02
      -1.4605806929039231e-01 1.9785044528392268e-01
      4.2594749830015660e-01 1.2408349393328008e-01
      -2.5002735720222730e-01 2.2157837438190242e-01
      -1.3669968714299213e-01 -2.2900060846579937e-01
      1.2364077091947046e+00 -6.7835547283611186e-01
      5.2033136897894117e-01 -5.0411756737408309e-01
      -2.8105115081854809e-01 7.4144542170181708e-03
      -2.9993889720475481e-01 6.7863120684095765e-02
      -3.4394293250650038e-01 -6.8674176086115910e-02
      2.9111026131695505e-01 6.1563358806450674e-01
      5.2384017656173093e-02 -7.0288010912932364e-01
      -2.4922950708224265e-01 4.9080016130913157e-01
      -6.4897174033651728e-01 4.9804067743695185e-01
      -5.4568492663708938e-02 8.1393012330187775e-01
      3.3758439603712004e-01 -3.1824321099577740e-01
      -7.6057355229238899e-01 4.3460318362947514e-01
      5.9840630013090235e-01 3.2970713040849581e-01
      8.6973802324920843e-02 2.6774987701346709e-01
      -1.2830626154138236e-01 -2.0075312023111108e-02
      5.3172249469219258e-02 -1.2789247273098095e-01
      -7.9191983261801580e-01 2.7814295021942875e-01
      -1.8528545986410244e-01 -5.9180823708254104e-01
      1.1771044450676988e+00 3.5884529223823047e-01
      -5.7782795574967594e-01 -6.5864915813586644e-01
      1.3420061855130033e-01 -3.3120791522616072e-02
      4.0129783654748619e-01 -7.1252650247532689e-02
      6.0935824411788464e-01 3.5153574102641076e-02
      -5.6746751350209135e-01 -4.6423882296119540e-01
      -4.0637643172546151e-01 -4.6457856826526428e-01
      1.0729003466337776e+00 1.3429486098565897e+00
      2.5852738520983787e-01 -1.1190911235926425e-01
      -3.7015501339963830e-01 8.7950041761191555e-01
      -5.2103559509944053e-01 -8.4907574152205612e-01
      4.3674363556280482e-01 6.9963110002311801e-01
      7.5059360938206110e-01 -4.4745978852249235e-01
      -1.3411973299071660e+00 -8.1510283101360725e-01
      -3.0607178598789769e-01 4.8670023550008899e-02
      2.8414015530518746e-03 8.8979781305490480e-01
      7.3709990268639058e-02 2.8274569179676957e-02
      9.6609963003312083e-01 3.1227887547701294e-01
      -3.0870992562670296e-01 6.0304566603340148e-01
      1.5142107644617300e-01 -5.2741932724795082e-01
      3.3349074463825734e-01 -2.3139731300381591e-01
      -8.9936238401759261e-01 -9.7034223494179206e-01
      -1.4175023805546036e-01 -7.7064764562280264e-01
      -5.2966182877354433e-02 -1.5019643535404970e+00
      1.2360248302509693e+00 -2.3216144672034703e-01
      -7.6205677341299427e-01 -1.0359585065861330e+00
      2.8880642878321122e-01 3.8183581170221512e-02
      2.9102288745575100e-01 1.9084152518490227e+00
      -1.0087983093920029e-01 -9.6312950517375540e-01
      -8.2784187283942190e-01 7.7207932437745175e-01
      -9.6084935956602335e-01 5.8547820309904360e-02
      4.9769559019429997e-02 2.3444782384311894e-01
      1.7232974201653148e+00 5.4021469921958234e-02
      -4.1994624449181372e-01 -6.6207627592245033e-01
      -7.4032960826739835e-01 5.5530745853880348e-01
      -4.0918037818093089e-01 1.8650471295256339e+00
      -2.9586736464687952e-01 -2.3307792496404275e-01
      1.6415228938116747e-01 -2.5832609890532504e-01
      3.1390774571612134e-01 6.9203521496013265e-01
      1.3859302132086158e+00 6.1241378688727555e-01
      1.1460963139799468e-01 5.5934424977034547e-01
      -7.6111205395992465e-01 -1.0573765752661968e+00
      -2.4919069448715678e-01 -1.2324273958754830e+00
      5.3380099000699377e-01 -4.9628479425327271e-01
      1.0537456775461479e-01 3.0762258219947597e-01
      1.4681838353690513e-01 -9.9348465702978150e-01
      -5.2196811225426309e-01 -3.7988794038662910e-01
      7.8482592157428899e-01 1.0533543857683367e+00
      6.3731250375676518e-01 -3.3152624848569079e-01
      -8.8553514478084372e-01 -2.6180609576046194e-02
      -9.3135517523462918e-01 5.1905717528357376e-01
      1.2530674879323497e-01 9.0564431409152446e-01
      -4.9049626941561092e-01 -2.5872144004840869e-01
      2.1984390984411567e-01 9.6435862069672765e-02
      -7.3991721179089753e-02 2.0398564003173295e-01
      -1.5158077560670688e-01 -7.8723966067612905e-01
      1.6625841496056840e-01 8.5368292022713108e-02
      -4.0233342212015988e-01 -3.6726534856853493e-01
      1.8803731118959843e-01 4.1478882463907474e-01
      -9.1353586647664531e-01 -8.5517672762905683e-01
      3.0738810216185858e-01 6.2592823967396483e-01
      -5.1689225713189257e-01 1.4961948947830456e-02
      6.7784475106673972e-02 -1.1189829253887484e+00
      -8.6603074973438499e-02 -9.6334583207618407e-01
      -1.8619251658954766e-01 9.0843490379447597e-02
      -6.0945583596765684e-01 -4.5667049313387047e-02
      -7.9997298401299530e-02 2.5649959607416045e-01
      -4.1221376324919867e-01 -4.1668485615428968e-01
      1.2351033922313538e-01 -9.5060256287429334e-01
      -3.6132010947391030e-01 3.4747137230171515e-01
      -4.5888815431002435e-02 1.6492384276236499e-01
      -3.5204790343056092e-01 5.6149170312685259e-01
      3.1467533893295291e-01 6.0096914512876709e-01
      -3.0819067414244039e-01 -6.7719279363173979e-01
      1.4795329336190299e+00 -8.7941959755751775e-01
      -1.4327046158469952e+00 -6.5097317584599235e-01
      6.4193585837361367e-01 -8.9951795879113128e-01
      -2.8097655955425443e-01 1.2275766315342788e-01
      -1.5192870820442448e+00 7.7495140146134345e-02
      -4.8635273875229146e-01 -1.7785465113931284e-01
      -2.9221019851276547e-01 -3.2774628496973940e-01
      1.0780155063149557e+00 7.1284758632440182e-01
      -1.7653625059051573e-01 5.3776069756417122e-01
      1.7819754221384632e+00 1.0327960343426876e+00
      5.0554990568378411e-01 -6.0346782705989743e-01
      -5.6332032645934349e-01 -6.0657942615929261e-01
      4.8581374456364124e-01 -1.0629577916973998e-02
      -1.1886339067176301e+00 -7.0843696490327446e-01
      1.5811641485949364e+00 -8.0224429220707905e-01
      5.7830347826299167e-01 8.4396882273029050e-02
      8.7940110994975917e-01 1.0306558582863516e-01
      -4.6676883864283014e-01 1.2872181255642923e+00
      1.3004426382714882e+00 2.2117006346519594e-01
      1.7797426648188415e+00 2.1748218160989310e-01
      6.5409517029246034e-01 -1.2190969001071525e+00
      -1.2850142456050586e+00 6.0103253377657706e-01
      -3.7714991835522577e-01 -7.1286364016774939e-01
      -4.4111237815488985e-01 -8.5352476979286418e-01
      2.4538451200655664e-01 -1.9409374816425700e+00
      1.2240403552560082e+00 -5.0082553148030129e-01
      -8.9944290149157635e-01 6.3500831468388128e-02
      3.8357683044889956e-01 5.0762002500251369e-02
      -1.7073527522539653e-01 1.3946321320183520e-02
      1.2122474309230007e+00 5.2525936453593269e-01
      1.0775080310141816e-01 2.9495417237707955e-01
      6.9106748481557081e-02 -4.2185079435987516e-01
      -1.1560824891069985e-01 -4.5221820926435291e-01
      -1.2289603172878757e-01 -4.3433552894878563e-01
      1.3084313154713021e+00 5.8196436977881183e-01
      -5.1608508383141127e-02 3.8492770243746166e-01
      5.4572826915499550e-01 3.8790578107523843e-01
      -1.0650247922651598e-01 1.9085600184778191e+00
      6.2329149524801220e-01 -1.0088018550111871e-01
      4.8332195121384475e-01 1.0194524100882216e+00
      2.1099524651100836e+00 -3.6911879615187981e-01
      1.0735988050593342e-02 2.3040807108939185e-01
      -4.1743068024164837e-01 -1.8388943551503897e-01
      -1.0326870158677891e-01 -3.2914044467589842e-01
      7.9755765397598077e-01 -1.3110922332076429e+00
      -6.2859584639766014e-02 1.9136144970967819e-01
      -5.9273755479568846e-01 3.0760556290588509e-01
      -5.9942827067585236e-01 -2.0209917421859780e-01
      5.7127148323464261e-01 -4.4591488064209983e-01
      -6.3842395753896622e-02 -7.2199257024656432e-03
      -6.2053884823689148e-02 -2.1484365321524357e-01
      1.5940351586561533e-01 -2.2247397230804145e-01
      -5.0985006373438757e-01 -6.0234530050438628e-01
      -4.9690201489288854e-01 6.7793743686621366e-01
      -1.0947856088739570e-01 -2.2051077075424200e-01
      -1.1634242251470028e+00 7.7734997412109774e-01
      6.4801855887875792e-01 -2.3711239147664875e-01
      2.0219393126015106e-01 7.9212359636577889e-01
      -2.5680471813728278e-01 2.3853124836674786e-01
      5.9350071583915115e-02 4.3484918712407450e-01
      -1.6076698216296401e-01 -8.6190882485221898e-01
      2.0832222840728268e-01 -7.0333792899669245e-01
      -3.6619357826879873e-01 -1.5617749436119580e-01
      -4.7525111540304144e-01 4.2937416731420625e-01
      -1.3332333756507264e-01 -5.9840815968855876e-01
      4.4686041273664018e-01 8.0582341938942281e-01
      7.2562102277988261e-01 6.1427737956560280e-01
      -2.1099659217141492e-01 -8.2305867118712170e-02
      1.4294763659077006e-01 1.3436972320309730e-02
      -3.5224600340098070e-02 3.2722147199757667e-01
      1.4288884449437181e-01 2.9447941644826470e+00
      2.0616465671658848e-01 1.4572202866726763e-01
      9.1389751956102959e-03 -1.0354951097518883e-01
      7.5190078465720095e-02 -6.5311036115209234e-02
      3.3695898881885955e-01 2.9361285322124919e-01
      -2.2142785172457544e-01 -1.4013849391623437e-01
      1.0677116942080730e-01 -5.4273825392440811e-01
      -8.1265226884894001e-02 -1.8068906210540828e-01
      7.8045009265817133e-01 3.7209603162515448e-01
      -5.5807443852564642e-01 -1.4266239132450911e-01
      -1.5042182686764369e-01 -9.1717465187298786e-02
      6.1445803514960706e-02 7.4513771344509228e-01
      7.4551302025403665e-01 -3.2567840089132952e-02
      -8.5612221199223376e-02 5.2916755985482167e-01
      -4.7288380806073442e-02 -1.6381288506707270e-01
      6.6467183410752403e-02 3.1601205737169263e-01
      6.3656136151719100e-01 3.3913952912608014e-01
      -6.1261184124748326e-02 -4.9295733573668933e-02
      1.6904176611330199e-01 2.9984593700962531e-01
      -4.8026941166812970e-02 -4.9615434558135975e-02
      2.3526239394427259e-02 4.1629173724706514e-01
      -5.1205518857046717e-01 3.2261487825910712e-01
      -3.1485487794907030e-01 3.7908385426809049e-02
      7.8129471238409770e-02 -2.3828102237041241e-02
      -4.7033048906348629e-01 -1.5354638339440468e-01
      -2.3504434693764559e-01 2.0095985643565156e-01
      2.1943878402256703e-01 -9.9069906199456026e-01
      4.5349120546809646e-01 -4.1622777395071481e-01
      -2.6398976063162904e-01 2.8087143835644823e-01
      -2.3665037114099896e-01 -1.1815313057838649e-01
      -3.0676552000099561e-01 -1.3946150879467989e-02
      2.7782616108260627e-01 -9.4562664188266532e-01
      1.7680314351306975e-01 -3.4381937424213421e-01
      -1.5977366946479341e-01 1.6874008971044813e-01
      -4.4825174315986072e-01 -7.1485907422754036e-01
      5.3231964023147704e-01 2.3335389351012070e-01
      -4.1459277279341988e-01 2.8451112759837849e-01
      4.7592608687210214e-02 9.0325071124671719e-01
      4.0485010007133437e-01 8.0523304460797129e-01
      6.1311168887672618e-01 -1.3627696387529031e+00
      -2.1918072002717379e-01 3.2529944748218555e-02
      -6.3657520746296214e-01 -1.9140827360271218e-02
      2.8804146320067769e-01 -6.4508135044414244e-02
      -1.9859512557067074e-01 2.7479826728378311e-02
      6.6376178655596985e-01 -1.2361673412982667e-01
      8.2634201325715750e-02 1.8843881715123886e-01
      -9.5455713371985315e-02 -1.2374889600722390e+00
      -1.9980747733804832e-01 6.9355449908973088e-01
      -2.2067414558245190e-02 -3.1073789128375523e-01
      -1.6261072164529097e-01 7.1970191373450598e-01
      -7.7639118194007883e-01 7.5040529136544254e-01
      3.4383517957768911e-01 -4.4798440668408346e-01
      -2.1926377505576432e-02 -4.6414736186774391e-01
      5.7286388815978539e-01 -3.2653116946620858e-01
      -1.8350936190350600e-01 -8.7690682838967499e-02
      3.7220022217686016e-01 7.6392332849418310e-01
      3.1477438688149167e-01 2.3331136954426310e-01
      9.8165521134257132e-05 2.6336777119133159e-01
      1.2092955048513153e-01 1.3913033096712790e+00
      1.2694851765735279e-01 -1.5163045332005076e+00
      3.5611423454285990e-01 2.9586838955562045e-01
      -6.6563018996745138e-01 1.0516359487472413e-01
      2.3064109663758353e-01 -1.1464264894114737e-01
      -2.9413946504393079e-01 1.5383126918046264e-01
      5.9837838470791091e-02 -5.3339665544255288e-01
      7.0182231893693131e-02 -3.0133566820310948e-02
      4.2292819715439273e-01 -1.7243028890809240e+00
      7.9713523750182858e-01 -4.7966798710143366e-01
      5.7713945924248344e-01 -4.0010184355198386e-01
      -1.2457182041119774e+00 3.4576585512127733e-01
      -4.5232823878118944e-01 3.1930471339459543e-01
      1.3529239881417425e+00 3.4963782180294917e-01
      -1.9604649817249511e+00 -3.0316086492734923e-01
      7.9087188376110729e-01 1.8494854158983909e-01
      6.1528573485285998e-01 8.5551596718339273e-01
      4.1173384821704372e-02 1.7462513624041305e+00
      -5.7998285795973137e-01 4.7945773523701718e-02
      -7.7900638751955867e-02 -8.9629474612617621e-01
      4.0519195990406121e-01 -9.1117964515811811e-01
      1.0345166665463001e+00 -1.0046881931777756e+00
      4.5208448293993919e-01 -8.4052566803207951e-01
      -1.4022257459461189e+00 4.9280853296803812e-01
      1.7653984663677716e-01 2.5283192671382796e-03
      -6.7904602694895499e-01 -1.8026812582277542e-02
      5.1694425023472179e-01 -1.2228327461499779e+00
      1.7220955397559942e-01 -1.9411084442819004e-01
      -7.4075644325856047e-02 -9.6329982037414741e-01
      -1.9614026596312570e-01 -2.4595823612541451e-01
      5.6298919525976676e-01 2.5746774191755117e-01
      -9.6318739391232322e-01 -1.6339638985024025e+00
      4.2295425810945517e-02 4.3916093612530793e-01
      1.2139295314651306e+00 1.4125964819027217e+00
      -9.4116469831265548e-01 -5.8411823360279169e-01
      -8.7393972817758159e-01 -5.2796149785561342e-01
      -1.1005154634861090e+00 5.6651066358380653e-01
      1.0967796402334071e+00 9.1574515421324920e-01
      1.0279597206758055e+00 -1.8467892026414873e-01
      -9.4335295550288967e-02 -2.1168230106229751e+00
      2.7591000963586376e-01 1.1509365340503981e+00
      -5.3714544028141586e-01 -2.8718154400409550e+00
      -1.7139693263949138e+00 -5.6745829899708333e-01
      8.7645445641580666e-01 2.1372484903926665e+00
      2.2589796902854109e-01 -3.2886454224713174e-01
      -2.9212919383535312e-02 -1.1155287977273529e+00
      -1.2860978393589606e+00 9.1185044635552792e-01
      -2.5792232381354259e-02 -1.1145334729821539e-01
      -6.5417195971279707e-01 1.1020738322227699e+00
      1.1426802515933968e-01 -1.2855475584953493e+00
      4.2949508031208200e-01 3.5521930075874053e-01
      7.4855765674919228e-01 6.2115864394214970e-01
      1.6412975045986231e+00 1.2732888869657994e+00
      2.2642688370877417e-02 -1.8019542000991856e-01
      -1.2940834494746349e+00 -1.0903572396331238e+00
      -2.2653815379273388e+00 -2.5305725762396412e+00
      -3.3589134081680733e-01 1.7049683983758039e+00
      -1.0091819174402703e+00 2.6377203914384459e+00
      1.2441116694148248e-01 -6.7107880996930269e-01
      8.7220929163553651e-01 -6.7428187817212204e-01
      -4.7810333420508153e-02 7.3657435130968163e-01
      9.0120362538642707e-01 -1.6303539868805508e-01
      -1.0101853075887628e+00 -4.4107760010230851e-01
      -2.7300239017688221e-01 1.1689850332601468e+00
      2.5634479986082487e-01 -8.5390316899676766e-01
      -2.5906873482940695e-01 -1.0668283357273164e-01
      -1.1724151784860266e+00 -5.2938206336658256e-01
      1.4587400731216330e-01 7.1049705664910823e-01
      -4.5605610903283589e-01 1.9235671422107494e+00
      9.7649137131469971e-02 -2.0810298222584356e+00
      5.2902082136090434e-01 -2.8242758353105141e-01
      1.4161459837531156e+00 -6.1233310652945061e-01
      -2.1593772661444652e-01 9.3377610784170328e-01
      -1.7246276420978437e+00 -8.1615859441716820e-01
      -1.2570867989622062e-01 9.6018649482869423e-02
      5.8309038813944836e-01 -2.1332422661533065e-01
      8.3811564773392466e-01 8.4363114074182968e-02
      -5.2106880270544365e-01 3.7274142529589334e+00
      3.6771539286948801e-01 -7.6010039291139408e-01
      7.0849214183805478e-02 5.0619230049846564e-01
      1.4780147644956779e-01 -2.6883616764914225e-01
      4.6192290831476357e-01 1.7528232027223307e+00
      -6.4510822172867660e-02 -8.8295526291141890e-01
      1.0646613586997258e+00 1.1619192111942409e+00
      6.1563866997439942e-01 -1.9046219133789685e-01
      -1.5629282433241147e+00 1.5407966988070474e+00
      -3.2833658084977224e-01 -2.2271568539320277e-01
      -3.6534863203666612e-01 5.6422521439182272e-01
      5.9031951730096588e-01 -7.2326021317939648e-01
      -4.9571585969059764e-02 -1.7267932882037879e-01
      -1.7863892592681707e-01 -1.1232141400146427e+00
      -3.5498305229733823e-01 4.0304509419485735e-01
      -5.7151234043445809e-01 -1.6318791235425023e-01
      -1.6040852023955310e+00 -5.3125755114762341e-01
      1.4560484138178453e-01 -6.0081010864137072e-02
      8.2895116582605199e-01 2.3044977227582952e-01
      4.6159565899943211e-01 -2.1268758389378206e+00
      1.7790772301573350e+00 -1.6937245621222460e-01
      -2.3780605193470494e-01 -1.8814710082756203e+00
      -7.8980931890927197e-01 1.5051761983948947e-01
      3.7133036371999006e-01 6.6260428657799839e-02
      -2.3578480812839181e-01 1.3550410418403283e+00
      -3.7928322849116947e-01 -7.9610702440171532e-01
      1.4709162160898224e+00 1.8301951487561570e+00
      6.0027940379831091e-01 -5.9364833988402887e-01
      -3.0932358162360907e-01 -1.8117291522076934e-01
      6.5467009271691676e-02 -1.1149053789902286e+00
      -5.1489709076898460e-01 -2.7497833050429576e-01
      -5.2005980960286757e-01 -1.3863664775444400e+00
      6.4483856237933179e-01 8.5711158626752870e-01
      2.5091538014079932e-02 -2.7910088436418834e-01
      -1.7330620808325278e-01 -3.0017215089027371e-01
      -9.7924178398216665e-03 -5.8647644105971464e-01
      -1.8528791175837725e-01 1.4559539214581638e-01
      -2.5185914343584859e-01 -8.4289257811553716e-03
      1.1243856091042363e+00 1.0242838805905092e+00
      3.0011178281659828e-01 -1.4854262959640787e+00
      6.7308240386551443e-01 -1.2148923394519453e+00
      -2.6392372301486486e+00 -3.6804260521997106e-01
      -8.2570766098597914e-01 3.0669759654905336e-02
      5.3926395112305525e-01 -6.1820453420907716e-02
      -5.9200985936278490e-02 3.3846006795453520e-01
      -9.4656766000829728e-02 -3.8278987756607658e-01
      2.0075442627229498e-01 1.0934663435093659e+00
      5.9645966844871845e-01 -4.9772579692091500e-02
      -7.5836540746514236e-01 7.8836798596674829e-01
      4.1592642018891629e-01 -9.4880052184344810e-01
      -3.8038644383713743e-01 -1.9823161274855039e-01
      -1.5220448560559574e-01 -1.3237746439200480e+00
      4.7274215217440202e-01 5.3920339830743048e-02
      5.9233057770250723e-02 2.0540872688866491e-01
      -1.3486586379383519e-01 8.6593891077724994e-01
      -4.5791943096133442e-01 -8.7842702131719283e-02
      2.4651163205042601e-01 -1.9226492111635810e-01
      5.2708026401654826e-02 4.2202645017082591e-01
      5.6063853438205080e-01 5.3167066209830749e-01
      2.1147517139521790e-01 5.1887086463264587e-01
      6.6830874073566149e-01 -4.6178246310633048e-01
      -4.5948967120877737e-01 1.2926653064057383e+00
      -2.8129749755256495e-01 2.4786261135381019e-01
      1.4649037061633174e-01 1.4279260555894849e-01
      -1.5500793208100172e-01 6.1385328261174632e-01
      5.5507029527461733e-02 2.2589902304252276e+00
      6.6014046282836344e-02 1.6730020882804209e-01
      1.0140600128468908e+00 -8.4583192929256187e-02
      7.4980249467606980e-02 -1.2223888251073182e-01
      8.4133122107819064e-02 -1.1549274149948090e-02
      -1.4650277689831770e-01 -1.8050299473880449e-01
      -4.0995206738763834e-01 -1.9321473385856457e-02
      -5.8609422242059096e-02 -1.1658808935521080e-01
      8.2953730180123153e-01 2.7663239937970191e-01
      1.1560241900426839e-01 -6.8834919096395331e-02
      1.5231673645201949e-02 1.1562919130717256e-01
      -3.5956729193445086e-02 -5.6370779341510552e-02
      1.0072791174655715e+00 3.3504080550480188e-02
      -1.2209420337886089e-01 -4.1797916006011726e-01
      5.8924733935424335e-02 -5.0521275918848263e-01
      2.7872603940965263e-01 1.3361877432542613e-01
      -2.9980861865026909e-01 4.4304699203192183e-01
      -1.7004975265198449e-02 -3.4121684446989831e-01
      1.9100589776933297e-01 1.5380728045983147e-01
      1.8700120080836050e-02 4.5183370721824567e-01
      -4.9655141108716916e-01 -2.6327016131699782e-01
      -3.9013576057800392e-01 1.8787899386931906e-01
      2.5043519832496913e-01 -7.4449543621932512e-02
      8.2401616717862655e-02 -6.7682750173533446e-01
      -4.4153552784842010e-01 -1.1333321253667537e+00
      -1.5694577080677571e-01 2.7718562964955795e-01
      9.0217370412760036e-03 3.5031312388940583e-01
      8.0943514475232944e-02 -4.6284080400645983e-01
      -2.8587346069781933e-01 -1.4115406859529414e-01
      -6.3979043946630487e-01 2.6498341264474951e-01
      -8.2412278456916760e-02 -3.3942930375885910e-01
      -2.1132816761878909e-01 -3.1785507544393948e-01
      2.9852992862434946e-01 1.4913770210095964e-01
      -1.6273504926296090e-01 -1.3677520042702812e-01
      -2.7332486084338664e-02 3.5584802344988747e-01
      4.8487238624021461e-01 1.5859496458850328e-01
      -1.8692333949279644e-01 1.5091332078130495e-01
      -1.3978681990906880e-01 3.2233793789079990e-01
      3.3999836390028737e-01 -5.7891548029434459e-01
      -2.4638032230179899e-01 4.5196719353612086e-01
      5.8614504541699841e-01 -1.9882491784440220e-01
      2.1169568747848005e-01 -3.4270173029929552e-01
      4.6884984055732215e-01 -1.8368140426916010e-01
      -1.1848815964652648e+00 4.6526773751756796e-02
      -3.3188455515648990e-01 4.4111364196817560e-01
      9.5214069025964010e-01 2.5636880326524430e-03
      2.8351393254505414e-01 -2.3524762148676812e-01
      -6.0285658817282939e-01 -9.7817401466531750e-01
      -1.8653183192525455e-01 -2.5913927528336093e-02
      4.4379514394476505e-01 7.7006003452796415e-02
      3.3446628853395310e-01 -2.6528826126536242e-01
      5.7187802454128592e-02 -1.0335195985874022e-01
      -1.8689171288110687e-01 2.9596826212211541e-01
      -3.7814058394693284e-01 -7.7837688743113276e-01
      3.0675942635881226e-01 2.1862551562583285e-01
      3.9027261736346242e-01 1.9827591590305402e+00
      -1.4783254877794698e+00 2.8380850854105238e-01
      1.2066780934788908e+00 3.3746061193358323e-01
      1.9677116422984586e-02 7.4895226292917491e-02
      5.9858067453811303e-01 7.3515679332800865e-01
      4.3314053412611481e-01 -5.2956691731145124e-02
      4.2277919120974689e-01 -8.2422469406783372e-01
      6.5460661835243239e-01 -1.6609959277451306e-01
      -1.3161138242213355e+00 1.5389960072303072e-01
      1.2265125055185613e-01 2.7997845020499162e-01
      1.6091477258279225e+00 -2.3908932135436148e-01
      7.8442788841009714e-01 -5.3343668482088513e-01
      -7.1611750241787564e-01 -1.9782257006310594e-01
      -3.8208200977203610e-01 2.6623744846619352e-01
      4.3422815317678726e-01 -2.5206716489899739e-01
      -6.7339635756517147e-01 9.5064826219678600e-02
      1.0222832403944957e+00 -6.7897213501034226e-01
      -6.8478039320694095e-01 1.9299266935052081e-01
      -1.5890981759740477e-01 -1.5917581210972201e-01
      2.7710804824975843e-01 1.0883906578608999e+00
      2.6761471059747954e-01 7.7178157482948651e-01
      -1.0738320221584932e+00 4.0876323762863903e-01
      4.3183135085614233e-01 1.0057320566740851e+00
      -1.6996136753789551e-01 5.6330505274418526e-02
      1.3509238186683359e+00 -1.5136011959676026e+00
      -3.3020592352273970e-01 -3.9815979921169026e-01
      6.8521108507194961e-01 2.2661963590502191e-03
      3.2875919030491141e-01 -6.2551369707889903e-01
      -8.2181227306808269e-01 -1.1610470527594330e+00
      -7.7901763836140969e-01 1.2629575894218273e-01
      7.7980608254997841e-01 -7.0368945813681277e-02
      4.0784052864435733e-01 6.5092112964425297e-01
      -7.6494210203020463e-01 -1.2899865001425095e-01
      -3.6844997787203598e-01 -1.6358251855963254e-01
      -4.7448462101804223e-01 -1.6356768619824203e-02
      -1.2306632169133760e+00 -8.5238991492784277e-01
      1.2626114614949568e+00 -1.0917356135595595e-01
      -7.1948547260249718e-01 2.8656057127960005e-01
      2.4399888183455715e-01 5.3483882311397757e-01
      -3.1809920975793637e-01 1.3179300878561100e+00
      7.8389919270719810e-01 -1.4182961305754432e-01
      -6.5895584572119481e-01 -5.3790139333269357e-02
      2.9591842335763580e-01 -4.8176172097565301e-01
      4.0213367271126188e-01 -3.6509230592847619e-01
      3.5026667610698219e-02 -1.7089698827250490e+00
      -1.4603323819273151e+00 -2.3482518609363051e-01
      9.7400902760422836e-01 9.1951021930543653e-01
      -2.7813495046119829e-01 -1.2720416131588044e+00
      2.2858496341199397e-01 -4.6125150930828546e-01
      -1.5655205628187261e+00 3.1609158400111459e-01
      -3.7285670301226381e-01 1.0520341143585326e+00
      -9.6921920820377905e-01 1.7382076405526290e+00
      -4.2249030769041501e-01 -2.2505800181419739e+00
      7.4351562129150173e-01 -3.6287073254163565e-01
      2.0613484895857197e+00 9.6203934051167261e-01
      -1.8034479741421081e-01 7.9304374193926519e-01
      -4.2792660706637176e-01 4.6098685485151253e-01
      -1.6127770456822739e+00 -8.4203066985550371e-02
      -1.8475457184601576e-01 -8.6101144959759346e-02
      -4.6954009615459140e-02 5.0171721142569325e-01
      -6.3358715630828200e-01 6.6970329482908664e-01
      5.9980602637646274e-01 7.0121426194665237e-01
      1.1924760727575214e+00 -5.0105859449405432e-01
      1.1970960315409868e-01 -3.3978030920577933e-02
      7.1997673661419070e-01 3.4296421549824080e-01
      -2.0953899070415702e-01 -8.0289441186325416e-01
      8.1778527884567542e-01 2.1028391336583180e-01
      -5.1730795573597610e-01 -9.4017478958866685e-01
      -7.3182091512454672e-01 -3.1383090273712805e-01
      8.5821997482718793e-01 -1.4774930885471669e+00
      4.0679564830665010e-01 -2.3010942335924092e-01
      -1.8774692846905328e+00 1.6656334798277597e+00
      3.1119700228847830e-01 -1.2966830394474202e+00
      -7.1736020168234305e-01 -1.0038644307820827e-01
      5.9953656543999712e-01 -1.2035915237240709e+00
      3.0141527309527988e-01 5.4994317371615331e-01
      -7.8055404375275106e-01 -3.2129153357611689e-01
      -2.9808092129623009e-01 -7.3265912993726556e-01
      2.3766466957545967e-01 3.2301677332826118e-01
      5.5336045519920141e-01 -1.2520431290114151e+00
      -6.9228169007988660e-01 9.3195576177758888e-01
      -1.1047164329380015e+00 -3.7197587672406574e-03
      -7.4412093934521994e-01 -1.1912532302193268e+00
      2.6051856761360925e-01 -1.2837670300390478e+00
      -9.1491493346366826e-01 7.7265571127474708e-01
      -6.9550557385225231e-01 -1.0256283233634447e+00
      3.3407933805917081e+00 1.6208218919287776e+00
      -6.6484390914898983e-01 5.3379361706626063e-02
      -3.3027541691026624e-01 1.6275275588612439e+00
      -9.5768506826195032e-01 5.1272820746973458e-01
      8.4691271078585806e-01 -1.1683464768988010e+00
      -8.7264234145520136e-01 5.2143540945803579e-01
      -7.1677266542646834e-01 3.5328805064074242e-01
      -2.3743517865531327e+00 2.9905056291857118e-01
      -2.3549142175400410e+00 6.3584662055254870e-02
      -1.0992300653383285e+00 3.9933655525921297e-01
      5.1489646415582802e-01 -1.9558815514698985e-01
      1.8988136741388186e-02 4.3156192588414038e-01
      1.0232106204378522e+00 2.9721504587619028e+00
      2.3750515568738715e+00 -6.6647134537140207e-01
      6.8485865350765285e-01 6.4031145715016713e-01
      2.0299119616608244e-01 -9.3321576284449537e-01
      -8.1380165291037376e-01 -7.5814533290417763e-01
      1.1300779920352724e+00 -1.0162134653376522e+00
      9.2966260712366064e-02 1.0453687562947067e+00
      -4.9887894215483751e-02 -1.0535357668981380e+00
      2.6011467991650488e+00 1.0427878283344638e+00
      5.2856848664114178e-02 4.8609261732967612e-01
      -4.3771451097658520e-01 1.2410611283250357e+00
      -1.5321116028963877e+00 7.0348986277399361e-01
      3.3337337864049427e-01 -1.5820245165741711e-01
      -1.2517349927518653e+00 3.9546141406417368e-01
      9.2004040716998872e-02 -2.3803869394865959e-01
      -5.9197483931104666e-01 2.0269792829393518e-01
      -7.8456799497676422e-01 -7.7661876875070923e-01
      -1.0210832782603552e+00 1.4884653355038338e+00
      -5.8501672361105916e-01 4.3517812329013493e-02
      -2.7961352343634682e-01 5.7947633316774438e-01
      1.9006777707457996e+00 1.2155354951195194e+00
      2.4541692334933578e+00 7.3327544945472090e-01
      1.8593140725813989e-01 1.9692484536540191e+00
      7.0821959652255251e-01 -4.6397056525692487e-01
      -7.7048399588667549e-01 9.8690969765999864e-02
      1.0296818685500615e+00 3.5609210853158563e-01
      3.6554798631180402e-01 6.3675545547139190e-01
      -6.1634693038527055e-01 -5.7010047224064941e-01
      9.0995261502996050e-01 5.1772598468889841e-01
      -4.6810368775486622e-01 -1.5170770799023661e-01
      -7.6255826433236740e-01 9.2361867618361237e-01
      -8.7722583307426494e-01 -1.4757895276210423e-01
      1.8973209762015757e-02 -1.7125810364927524e-01
      1.7584580080730550e-01 -3.3891231042889852e-01
      -9.8235350798223442e-01 -8.8386690169257842e-01
      -5.4687583160301667e-01 2.7360214022885349e-01
      -4.9395977499958399e-01 4.8694043744650833e-01
      2.2500598989293481e-02 7.0033795544018762e-01
      -1.0608444232637961e+00 -3.6787124766017676e-01
      -6.8084245968420465e-01 5.1877361268800215e-01
      -1.7659313190815545e-01 5.8567396359577317e-01
      6.8706990180549898e-01 -6.8801513875349496e-02
      1.9384121720372713e-01 6.0047852759347764e-01
      1.6245234392198701e-01 1.3571406979351923e+00
      -2.1431545416029590e-01 1.3631232425236861e-01
      1.5723264679349042e-01 -1.9436191610481639e-02
      -1.9034446172703906e-01 2.1796243456865805e-02
      -9.7368899711013313e-01 1.1587375682945891e+00
      6.3531007557357244e-01 -1.1283696643658790e-01
      6.6981948214442588e-01 -3.3905005358225421e-01
      8.3472643810711511e-02 -1.4548519222981796e-01
      2.3609407642515834e-01 3.0797694463723441e-01
      -4.0464836422735399e-02 -8.2469909667472627e-02
      3.8740982680781699e-01 -3.3354362773071723e-02
      -1.3566427082628374e-01 -1.5371006637538415e-01
      4.2620150532358980e-01 1.5001615019449130e-01
      8.8964110202737770e-02 1.0202816126111350e-01
      -8.3281192767716838e-02 3.2547291561149366e-01
      -3.4100989675108245e-01 1.8426060037731581e-01
      7.0048739367143964e-01 -5.8359415376889483e-02
      -8.0563855940421952e-02 -4.3584774996894454e-01
      9.4728758991337786e-02 -1.7353222508159796e-01
      -2.4209619778146454e-01 1.9089570432429753e-01
      -2.7273847427334186e-01 3.5198648741308980e-01
      -4.1958625185598619e-02 -9.7079215493216658e-02
      1.7776976829026350e-01 6.7043957012914213e-02
      4.9898142767439868e-02 4.4554326970361063e-01
      -2.7800848693764235e-01 5.1931594463971287e-01
      -3.1880417657865417e-01 1.7335360070599151e-01
      2.3074272496914339e-01 1.5644050121539115e-02
      6.7922122215435463e-02 -2.7658101223201187e-01
      -5.4686569844996136e-01 -9.9119194487244058e-02
      -2.1561551699844525e-01 -3.7262502196053406e-02
      5.7361705645400918e-01 -1.1854750001185003e-01
      4.8631953898547568e-03 -3.0492197727524700e-01
      -3.3586149119636144e-02 4.2391053625200195e-02
      -3.7347472667324483e-01 2.7422280651482334e-01
      -3.2547748520077018e-02 1.4501749299815259e-02
      -3.9190190105020123e-01 5.6357990759606735e-02
      -9.4184200137411259e-02 3.5988707823927080e-01
      -1.3926180116354428e-01 -1.3690835150134439e-01
      9.6303829729959753e-03 -2.1014120321176960e-01
      3.2944918401376783e-01 1.5577246543230866e-01
      -1.5314182227359541e-01 1.8750936282827951e-01
      -4.4439460151418192e-01 -6.4089326196199381e-01
      1.0454637225141650e+00 -4.9048453519979412e-01
      2.0671339990394672e-01 -1.4248481540850516e-01
      1.1146365747659708e+00 1.8169668780321721e-01
      -3.4803686475725704e-01 9.9504836281048548e-01
      7.9412709847925256e-02 2.0100617703298249e-01
      -6.0114406970557610e-01 -1.9428787409747181e-01
      1.0922167194809770e-01 8.8819485374818807e-01
      1.4002113683717871e-01 7.6609325218049662e-01
      1.9706319757225685e-01 -6.7116029261662313e-01
      1.5912076501267627e-01 -6.7532225095559950e-02
      4.6226328042592446e-01 2.4879107155331193e-01
      4.5827653807103191e-01 4.9488959737939725e-01
      -1.3803879780867910e-02 -4.5949772740545913e-01
      -3.1856472129373042e-01 1.0340574189411218e+00
      4.1561055294747401e-01 -4.4045226328899595e-01
      -7.8276253421961109e-02 -3.6865134614247042e-01
      -6.6378586856911970e-01 5.6954524376860427e-01
      -1.9596174135823524e-01 -1.3944789734863228e-01
      -2.3764676904427415e-01 4.1451087321541036e-01
      1.2090034051831027e+00 4.7631802332173750e-01
      -4.5186744203462620e-01 -2.4019049048071524e+00
      4.3430350082682029e-01 -7.7625103970143960e-01
      1.1691030524593533e+00 9.8719317892743852e-02
      -7.7564906829223856e-01 2.0820072350487737e-01
      4.3956245695069684e-01 9.9480146056133090e-01
      -6.0331300191982717e-01 -5.8290616704485065e-01
      6.5088530510079168e-01 3.5199744249254961e-01
      2.4816095239009178e-01 1.5563233175844537e-01
      -1.5382464805832202e-01 4.6973812347256651e-02
      1.0225454531923635e+00 -2.4262681128176466e-01
      8.1208245844785043e-01 9.1888090388763899e-01
      -1.6200542600723672e-01 5.4457474396084582e-01
      2.1558325101827805e-01 -1.6206349493134069e+00
      -8.8122966422968477e-02 2.1716919770268643e+00
      2.6651916032329143e-01 -6.2465098570969235e-01
      -7.0359978610427032e-02 -4.6538646826143820e-01
      -6.2530582097588006e-01 1.5978415673221487e+00
      -5.5940057087003070e-01 -1.1950959902932325e-01
      -2.4634906502808096e-01 2.3007170189019694e+00
      6.1019285979519045e-01 1.0535421150517521e+00
      3.1898501860186040e-01 -1.4852708697841122e+00
      1.2586010874909356e-01 -1.3998641669773235e-01
      1.9092614407552816e-01 -1.1636232792962344e+00
      -9.9606554201373909e-01 8.2013793376201727e-01
      1.0898462133994530e-01 -8.7973187812003173e-01
      -4.6039627270010969e-01 -1.6564706947594376e+00
      2.8876504380001855e-01 -1.7564819579198057e-01
      -7.7500330023263830e-01 2.1063418856669075e-01
      1.2565971576679594e-01 -4.4497503627043405e-01
      6.0752395493949518e-01 8.1922805982216229e-01
      -9.0448860007356013e-01 3.5665728374182171e-01
      -1.6755294791210491e+00 -8.3927371010584417e-01
      5.6247333743546657e-01 -1.9836628916403913e+00
      1.4346141941120714e+00 9.0716664375076828e-01
      3.6378501719685841e-01 4.6106026672224565e-01
      -7.2037607045515495e-01 6.5422212377495992e-01
      -1.2048639373146470e+00 1.8823690327693006e+00
      -8.9296089061089656e-01 -1.1222346530598732e+00
      -1.9650490917184922e+00 2.9716034692483362e+00
      -8.5642509338058381e-01 1.0258339008370838e+00
      4.2137834761549413e-02 -8.7904779139149430e-02
      -1.4958380381991649e+00 4.7003059665601271e-01
      -9.2871313219785845e-01 -5.6657182403414141e-01
      -1.8064258512106750e+00 3.9277153469682369e-01
      -7.1880322729469293e-01 -1.6989824494154517e+00
      -6.3433197982149370e-01 -4.9958201014986631e-01
      -1.4743574786048044e-01 1.2901840350238661e-01
      -3.9766568775980926e-01 8.2020772571485778e-01
      -8.5665321397269323e-01 1.1792513801886169e+00
      -3.9922113945423515e-01 -6.1647050716927765e-01
      -1.3579725496870165e+00 -3.2203576970844416e-01
      1.3810221235812261e+00 -2.1691363650069220e-01
      1.4595400880583194e+00 1.1292840432558031e+00
      1.6624853557236736e+00 -6.3713272775765450e-01
      -3.5291568581760341e-01 5.6967840613468956e-01
      8.7015683607961991e-01 -1.9949940960033646e-01
      -3.7352830985370911e-01 8.3849377736300190e-01
      -6.0253194444140468e-01 -1.4135291085026012e+00
      1.2000383430161737e-01 2.8821906286898263e-01
      -6.0549814634900945e-01 -8.9884823342391595e-01
      4.1096237979213973e-01 7.0831510939784847e-01
      1.6279720788238036e-01 1.6222536005565977e+00
      8.9116489873793267e-02 -1.0889495291851210e-01
      3.3218471871213751e-01 -1.7699963834751007e+00
      -6.2902289247275339e-02 -1.3649881811592488e+00
      6.9357840458946429e-01 -7.9174146322785210e-01
      -1.3089346200504299e+00 -2.3870305570574946e+00
      -1.5491354582432013e-01 7.8521127012715597e-01
      -2.2558115873040654e+00 -4.9521705502190644e-01
      -1.5876791509044155e+00 3.7061449218495662e-01
      -1.3035313142238283e+00 3.0687778610040267e-01
      7.5428981991231792e-01 -1.1673401836505730e+00
      2.6529802856922291e-01 2.5418517226206550e-01
      3.2328674576414049e+00 -1.2021628077381983e+00
      9.3905843195604383e-02 6.4985180010303523e-01
      2.6695808096523227e-01 -8.8164691139096488e-02
      -9.2668994708418295e-01 -5.0267507223267882e-01
      -5.7831454702741369e-01 6.3611969216998587e-01
      5.1135057165970121e-01 -1.0463966724214335e+00
      5.3844782088705456e-01 -7.6332763126352532e-01
      -4.7258562997038506e-01 -2.7296169064596104e-01
      -4.5366118431779534e-01 1.4862964643467269e+00
      -6.5377912800473727e-03 -3.2235989656849201e-01
      3.3314589670793981e-01 -5.5430623576585569e-01
      3.0275195222959833e-01 1.7010774565655185e-01
      5.9138918996567813e-01 -1.5517842788676836e-01
      -1.2372664817539498e+00 -2.6634088781226073e-01
      -2.3406389408451025e-01 -2.4295759990051080e-01
      -1.0618503757751330e+00 -3.9833638828355872e-01
      -2.7212488651859412e-01 1.6275337854658258e+00
      6.1660385445120258e-01 1.5241140043673823e-01
      -6.7354476849775025e-01 -4.2357702020355428e-04
      -2.8914284198032103e-01 1.3824592152746775e+00
      2.8567010944883459e-01 7.3641585823577072e-01
      2.5901029166393079e+00 8.4691589928183530e-01
      -7.4140474018968516e-01 -4.3503293795318210e-01
      9.9916290250804318e-01 8.2106682477987469e-01
      -2.1902517759303689e-02 1.3460168363725655e+00
      4.9272848407550962e-01 5.7082920445190621e-01
      -5.4781030447014623e-01 -5.1313805386505962e-01
      -6.4264228243206900e-01 -6.0823929064953908e-01
      -1.0092555818713940e+00 3.9482360108582054e-01
      4.2097761797442951e-01 -2.2819922952490912e-01
      1.3988577646531847e-01 -1.6687661401652600e+00
      -6.1308675528788859e-01 1.6425208044561084e+00
      -4.6099930011862972e-01 5.2543343439534096e-01
      -8.9881891027452099e-01 1.5153501051854730e+00
      1.7608142107232130e-01 1.4429714082285244e-01
      5.2845058893012598e-01 -5.6208257241671744e-01
      6.3308146469556514e-01 4.4344870388685764e-01
      1.1661019331385312e+00 8.2752004971686643e-01
      -4.4801367242749862e-01 4.5980856942015785e-01
      -7.3760573612946767e-01 -2.1128107189612613e-01
      -1.0557303833312786e+00 1.7546549663797111e+00
      9.5042437786954381e-01 9.6822008509329083e-01
      6.3685845797678123e-02 -2.3763670045429078e-01
      5.6559751264691049e-01 5.0085288352478652e-01
      7.1029341376027955e-01 1.6351250366217811e+00
      2.8293083071367914e-01 8.1717254276341800e-01
      -1.3022332897223833e-02 -1.3543417583181727e+00
      6.5673711069690677e-01 -2.1484774358392831e-02
      -2.3314091738979134e-01 6.0409052144727338e-01
      4.8938187282879592e-01 -6.3824492842306169e-01
      -9.2552185341989515e-03 -2.9800233261091763e-01
      2.8006868904381277e-01 6.6301498927742264e-01
      -6.0530875544266005e-01 -2.4243530142382666e-01
      3.8173275821659150e-02 1.1057794732883039e-01
      7.9603765204729882e-01 -4.2644988541855505e-01
      3.9454007453317247e-01 -4.9768098346267392e-01
      -3.3811496241197786e-01 -3.6560679013788872e-02
      1.8735992306843219e-01 4.0445115361973888e-01
      -3.7269801724564944e-01 3.8759940324517850e-01
      7.1547919515746239e-01 -3.6886600418244980e-01
      -2.6769318467423614e-01 -2.5853779095699775e-01
      2.8697847306397728e-01 1.1129460576327795e-01
      -2.0362213714193803e-01 6.0029322061825141e-01
      1.0732312997955398e+00 -2.0757701175229831e-01
      5.4437925478837190e-01 7.8740291122727102e-01
      -3.8971443245545462e-01 1.5497180906426118e+00
      -2.2516873216984074e-01 -5.1573052923438598e-02
      1.5186646204712123e-01 7.0868477170728431e-02
      3.3628901669554794e+00 -1.4250782053023489e-01
      4.8430313918341607e-02 9.6603395595440023e-01
      2.3962246334875167e-01 2.2235045382939586e-01
      1.9673210670204910e-01 -1.7176056200739476e-01
      -8.7069405914813036e-01 -1.9188877823054884e-01
      5.4650320844096123e-01 5.1034097346248686e-01
      5.6300717465395655e-01 1.2384213439999947e+00
      3.0053334305998258e-01 -3.4441221855803589e-02
      5.7835843176297624e-04 -1.4414185336912724e-01
      8.6131454966202126e-01 1.9751099404073677e-01
      8.9880578629296393e-01 -7.3553969709148945e-02
      7.6360564199443348e-01 -4.7931135335831110e-01
      -2.5984217314463953e-01 -1.5186481185055036e-03
      7.7796696882244121e-01 -5.7739054511863432e-02
      -7.8346103786217744e-02 -3.8703641959556651e-01
      7.5835846384787978e-02 -2.1087790171720644e-01
      3.1111235256409375e-01 1.6280204908251183e-01
      -2.3150614038563483e-01 3.3046774048613908e-01
      -3.3057917966726004e-02 1.1184541220491939e-01
      2.3686496936862309e-01 5.0334096375786605e-02
      -4.2220376415229605e-02 1.7163922533024460e+00
      7.1379162767319912e-02 6.6800530583834639e-01
      -4.0964677646105013e-01 1.7792737813314308e-01
      -2.6367508333905632e-01 -9.5595421807070091e-02
      -9.2942090173617320e-02 -1.3736734431500996e-01
      -6.1887532134219636e-01 2.7504448010819357e-02
      -9.5296258626456319e-03 -2.5721658273265596e-01
      2.6722417981883134e-01 -3.7634150095679070e-01
      1.0691413841260560e-02 -4.1006436236519295e-01
      -1.8849522603882191e-01 5.4150106775837725e-01
      -2.6411601909634863e-01 2.1208162660657168e-01
      1.0894311429630923e-02 -7.1330618341483287e-01
      -1.1698806719526471e+00 -2.7218896475702514e-01
      3.3451249247824810e-01 2.9684102235020948e-01
      -1.5035722997072470e-01 -4.3890042305992594e-01
      -2.7979897475764244e-02 -2.0947160942392723e-01
      5.3279007290650082e-01 2.2064982150392887e-01
      -3.6553116785374518e-01 2.1992895705847709e-01
      -8.6244327315224645e-01 3.2829471773626234e-01
      1.3024407434351123e-01 1.1280181192894378e+00
      1.0920333298512708e+00 9.5867192847908167e-01
      3.5356321761054821e-01 -1.3687247607236844e-01
      -5.0773110105314845e-01 1.1418755081165715e+00
      -4.1376897469219137e-01 3.7372471735518814e-01
      -8.4624513047465266e-01 -5.2880946928101791e-01
      -3.7333959462633570e-02 -7.2496302197995122e-01
      -4.0246038540680062e-01 -3.3263135996031756e-01
      -5.4498884661003583e-02 -2.7780230826437385e-01
      5.2794974708198494e-01 -3.5844637554044378e-01
      -1.3815886893397435e+00 -1.8100045225689160e-01
      4.2731903017281847e-01 1.4404145615706083e+00
      5.7092472450894682e-01 -4.4455062484491104e-01
      4.8579662481316975e-02 7.8032556153583421e-01
      6.2037062830383671e-01 -6.4383889487547885e-01
      -2.6779334523897275e-01 -5.3607794192643210e-01
      -6.6099514338826371e-01 -6.4437607896558635e-01
      9.7234310048443365e-02 -2.2525095024639737e-02
      -3.8914486439896950e-01 4.2918750653557540e-02
      -3.0693590655361624e-01 3.8820444314687363e-01
      -3.5979720819278554e-01 -6.1216172018992643e-01
      5.7006697575247911e-01 1.1223584113608263e+00
      -5.0820670734378837e-01 4.9205731076671616e-01
      4.5993846235288335e-02 1.2190101440211814e+00
      -2.2454450546762397e-01 5.2369146799198529e-01
      7.5129990926874862e-02 -1.3319603314120378e+00
      -2.9634235543944804e-02 -8.6196780991247191e-01
      -6.7306762986559587e-01 -1.6964559379495098e-01
      1.3772054004504145e-01 -2.3064751389796800e-01
      1.0625634776492439e+00 -3.7298526721497978e-02
      -1.5526969414919969e-01 -6.3498550422081013e-01
      -5.7201340466680484e-01 2.7636510758411381e-01
      6.1341270663176917e-01 -9.2419124538903807e-01
      1.2566573914408330e-01 2.7211884390546062e+00
      7.3098776206726168e-01 -5.6718559874072871e-01
      -4.0599744519525705e-01 -3.9775497414992651e-02
      -2.1312629271180369e-01 3.8881235377664181e-01
      -3.0798380404305107e-02 7.9006008938956218e-01
      -4.6298716969763526e-01 1.3386043601096367e+00
      6.4552957098515040e-01 1.5227632156517892e+00
      -1.3556128764102060e-01 1.4401974884121425e+00
      -1.1853211291837420e+00 3.1132462809808048e-01
      -1.5893899671844935e-01 -6.3741083313087910e-01
      1.2196960743777900e+00 1.4719948623489809e+00
      4.4778162558397572e-01 -8.8674576614102152e-01
      3.1857764361449326e-01 -1.0796050710400302e+00
      5.1376505817166163e-01 -4.3147502948005972e-01
      -5.1771035918837227e-01 3.3331932344301940e-01
      -5.8570639085964528e-02 3.5285441053302996e-01
      3.6188970900952477e-01 3.7263757868305980e-01
      -1.5336642403228924e+00 -1.0229137852533590e+00
      -1.2131440426653231e+00 -1.1213689678115677e+00
      9.5307058502658515e-01 5.8672987309758763e-02
      1.0417893067390378e+00 4.9712417199465891e-01
      1.6525262907420777e+00 1.1844181209148019e+00
      8.1310261051862276e-01 1.1155248898054149e+00
      8.0018169919536419e-01 1.6885869872574195e+00
      -1.3461113731704548e+00 8.7469603596205991e-01
      5.3450237046068216e-02 2.1969632705643898e+00
      -7.6983196888733346e-03 2.2256277231751131e-01
      -8.0808945069660590e-02 1.3195546581314050e+00
      -1.1900839546110886e+00 2.3875536640605929e-01
      -6.0372039079490425e-01 -1.0810894919020884e-01
      1.3749277813524655e-01 6.6583258775060417e-01
      1.0114011768669915e+00 -7.8593089252770720e-01
      -7.9513425535415505e-01 1.5567417833930786e-01
      4.8123192506909857e-01 -8.8956681693357201e-02
      -7.2351510427346200e-01 6.6748183058345045e-01
      9.0194237882863348e-01 9.6851823243939095e-01
      -1.1871489801379993e+00 1.8670972991656472e+00
      -1.2370285649097419e+00 -4.0808850637420663e-01
      -2.1531332611335288e-01 8.8446469232893388e-01
      2.9096516105051490e-01 2.4393217213600797e+00
      1.4157588882457617e+00 -1.3228065632383388e+00
      -4.1058771846633907e-01 2.0561450650530655e+00
      2.5448847514950840e-01 5.2046048403280249e-03
      1.2658964894304732e+00 4.8220026764542434e-01
      -3.9579741767683918e-01 -9.9896197843814052e-02
      -5.5356095680846884e-01 2.9212035480271975e-01
      1.6463230742786223e+00 4.5544081565631278e-01
      1.0916061938588216e-01 3.9240576014587975e-01
      -2.9129113296921755e-01 2.9526270082519590e-01
      -3.6781206153509677e-01 -2.1355138648329663e-01
      1.0005015847549523e+00 -4.2859510974206627e-01
      7.3786064808861329e-01 -8.8504707854988796e-01
      -2.8985703354260162e-01 -9.4034815003098338e-01
      -4.3550936257134149e-01 -7.0028539096431253e-01
      5.0163767084215616e-01 1.0878050843164873e+00
      1.3150319722460593e+00 8.8606636340883593e-01
      -1.0639660023794877e+00 8.8012602107358473e-01
      -1.2347053790188891e+00 7.9561337153485834e-01
      1.4766245202800063e+00 6.3547856157409699e-01
      3.8679064889049514e-02 6.4483399898415561e-01
      3.5722477782632853e+00 -8.8946702751977380e-01
      -1.3456739384197713e-01 2.0978304288395235e+00
      -4.8055214258371121e-01 -1.7619039262362973e-01
      2.6677374180775382e-01 4.9322299180022172e-01
      8.2171072429801970e-02 4.8989793045713836e-01
      -7.3317741627133870e-01 -1.7182947894806377e+00
      3.1752322854491094e-01 -3.5256787945486556e-01
      -1.1006743093576216e-01 -1.0515587234200749e+00
      -1.6500524121716853e+00 -1.6210027829162246e+00
      4.9424534659509295e-01 -7.2989059563314029e-01
      -1.4605473767460311e+00 -3.6466476515461627e-01
      -6.9737133844670196e-01 3.8604718936366883e-01
      -2.4271338566098458e-01 -9.7150913540286832e-01
      -4.3212711224560207e-01 4.6086427971348520e-01
      1.5399949493202464e-01 4.9060139529723823e-01
      5.5379750283246161e-02 -4.1344937222508121e-02
      -1.1635452071463370e+00 -1.7258333894689915e+00
      -2.4990458697468809e-02 5.5334999530140927e-01
      5.4039280798675726e-01 8.9103458857075446e-01
      7.3202011979272244e-02 -1.3981432175318778e+00
      1.3101293031941035e+00 -6.8124244964154679e-01
      -2.6637864162055003e-01 1.4419029525449076e-01
      -1.2270746535869115e+00 6.1226710061326250e-01
      -4.0173961332140053e-02 7.5244387410448776e-01
      -1.5914221648314256e-01 3.9256819547700961e-01
      5.3069955942194280e-01 -5.3669422715222612e-02
      -5.0449889645183488e-01 -7.2248809730193453e-01
      -2.6421850677666120e-01 -9.1205620066771298e-02
      -2.9048290892698381e-02 -1.0334972740445154e+00
      4.7608764015637441e-02 2.5383057632034567e-01
      -2.5042675249050483e+00 -8.1289543736333980e-01
      -1.2851721201784998e+00 9.3282787629605979e-01
      -3.5264738479897265e-02 -3.8734056738827516e-01
      -4.9010510924421276e-02 8.1753421810748150e-01
      6.9626161688692467e-01 4.5375393213113269e-01
      -2.1555872002975032e-01 -4.7763868796478426e-01
      -1.1671651592251959e+00 -6.4502650596669420e-01
      9.9831635248611925e-02 1.6058883615062269e-01
      -3.9423885180113659e-02 1.2394624308413156e-01
      6.9735016379958981e-01 -6.4596181935231356e-01
      -6.0411892875036073e-02 8.6023628216135628e-01
      3.1374064553841163e-01 -1.9311325430416984e-01
      -1.1042955542914064e+00 7.0964055211912491e-01
      -2.1231044747529396e-01 1.3811951166842992e-01
      9.4752838712302348e-02 1.3945473944088309e+00
      -5.2523723709096326e-01 -7.0424172325228651e-01
      -1.8576724097460115e-01 -5.7772763522871118e-01
      3.3585759025090683e-01 -2.8865968336588460e-01
      3.3744805953483215e-01 3.3462737043620627e-02
      6.1139390645600433e-01 5.0774465033167304e-01
      -9.9562781290116442e-01 2.3987377756355239e-03
      -6.6414633833854131e-01 2.2463835320913095e-01
      -3.7226828894435054e-01 -4.3838898080306271e-01
      -1.0588579346745590e+00 1.2075440462397700e+00
      8.3803030499767739e-01 6.8283195491891713e-01
      5.1202240582614647e-02 -8.6516878212826154e-01
      -2.5887775771899918e-01 -1.0981954400528107e+00
      -9.1096037736094604e-01 6.6551229364617970e-01
      -6.5673708065280534e-01 -2.8721577517742014e-01
      1.8940890652813561e-01 -4.0639630431564061e-01
      -1.0128813544519231e+00 4.0947027880963560e-01
      5.5233948063891092e-01 -1.7297489068716421e-01
      -5.3962532247074591e-01 -4.8166060364957258e-01
      6.7901590903869946e-01 -5.0241169565524837e-02
      -4.6758020528829936e-02 5.8551393502651849e-01
      -7.0775088519145568e-01 2.0858911220732576e-01
      -2.1383680178774078e-01 -1.4863120799989407e-01
      1.5220660492268870e-01 3.1363565130014981e-02
      3.1869766282892518e+00 -5.0487651870004015e-02
      -7.2341654543703398e-03 3.1400516563653227e+00
      1.4441771109960405e-01 2.1324277311472939e-01
      1.9179283883316942e-01 5.0610224487852240e-02
      -8.5721972055913609e-01 -4.5655737255527414e-02
      1.8055922495735804e-01 3.3799960351451808e-01
      5.0015857461319491e-01 1.1838714042431464e+00
      3.2511775450513192e-01 1.6929662455217456e-02
      -3.4344618917515467e-02 -6.0237522162547158e-02
      -2.2741468332922907e-01 4.8383404410439340e-01
      7.3600839547111918e-01 -5.7612826250716474e-02
      6.0068002832600809e-01 -4.2087696088557303e-01
      -3.9994772298358072e-01 4.8700284400667225e-02
      -1.2169815581233716e-01 -2.4962947582892744e-02
      -4.0558684041771910e-02 -2.1243958257782675e-01
      4.6865266214494883e-02 -6.2740498241838222e-02
      2.2894192956121623e-01 4.4496260878891664e-02
      -1.8698537555701822e-01 3.2281233508192736e-01
      5.8678186525081596e-02 4.8640591994854843e-01
      2.4439416390193372e-01 2.3577909217649151e-01
      6.5864249494031990e-01 1.2327053559555232e+00
      -3.1710551787434488e-01 3.0400569160211705e-01
      5.9825721307441315e-01 5.7546246026472535e-02
      -3.9879862687469114e-01 -2.6499325791487643e-01
      -3.1736692828893953e-01 -6.0732184598623846e-02
      -3.6918459312382779e-01 -8.9167592979435528e-01
      -6.6024394797903363e-01 7.2216882381338429e-03
      -4.0309183659076467e-03 -6.0190453761578300e-01
      -9.1341529493620274e-02 -1.9507663638192782e-01
      2.1345692123536469e-01 1.9532452092798877e-01
      4.8528030035694397e-01 1.2195746150879899e-01
      3.4012679489667367e-03 -8.7303530295262421e-01
      -9.1300783999787216e-01 2.1740962796520909e-03
      -5.6955285056395528e-02 1.3274759178773357e-01
      -2.3352297154190663e-01 -2.4632805735784077e-01
      5.0477794200688451e-02 -6.4739026294745050e-01
      2.2932122864932614e-01 4.5356555093846768e-01
      -5.5636360454969824e-01 -3.3290106497104573e-02
      -3.2803050104330767e-01 1.1453290013704633e+00
      4.8082561974460530e-01 1.4063409060625733e+00
      -1.1107150889716312e-02 4.4948340050547470e-01
      -7.6095564901978252e-01 -1.1734286929879043e-01
      2.0680865804978057e-01 2.0148160529635575e-01
      1.4501551721763495e-01 -3.0416456434017869e-01
      -3.5995735058936662e-01 1.2035554330964965e-01
      9.1279683740273662e-02 -1.6068059378876567e-01
      -1.1361123178750425e+00 -8.7832550753450700e-02
      1.2335212582250121e+00 5.7353202835652728e-01
      4.0379705986848269e-01 -2.1227734123108258e-02
      7.0279434735506907e-02 3.4180215236768752e-01
