<?xml version="1.0"?>
<opencv_storage>
<ann type_id="opencv-ml-ann-mlp">
  <layer_sizes type_id="opencv-matrix">
    <rows>1</rows>
    <cols>3</cols>
    <dt>i</dt>
    <data>
      140 40 65</data></layer_sizes>
  <activation_function>SIGMOID_SYM</activation_function>
  <f_param1>1.</f_param1>
  <f_param2>1.</f_param2>
  <min_val>-9.4999999999999996e-001</min_val>
  <max_val>9.4999999999999996e-001</max_val>
  <min_val1>-9.7999999999999998e-001</min_val1>
  <max_val1>9.7999999999999998e-001</max_val1>
  <training_params>
    <train_method>BACKPROP</train_method>
    <dw_scale>1.0000000000000001e-001</dw_scale>
    <moment_scale>1.0000000000000001e-001</moment_scale>
    <term_criteria><epsilon>9.9999997764825821e-003</epsilon>
      <iterations>1000</iterations></term_criteria></training_params>
  <input_scale>
    8.1370010771336840e+000 -2.7556628574776902e+000
    7.3694058875892807e+000 -2.7235781719635814e+000
    6.5327734055236490e+000 -2.4573054706038877e+000
    5.1368984664052295e+000 -2.1240987377719178e+000
    3.7838093545068858e+000 -2.1352700326671119e+000
    3.6485043420427825e+000 -2.5934853633672184e+000
    4.0277196896971459e+000 -3.2789635569727098e+000
    4.0478574086820496e+000 -3.3069363385759636e+000
    5.2002824995100241e+000 -4.0828116980618772e+000
    5.6868608135395871e+000 -4.4175321094008639e+000
    5.6192735974173260e+000 -4.4380660593410797e+000
    5.4334763241216208e+000 -4.5028963350365387e+000
    5.3397203478422854e+000 -4.5950409972634167e+000
    5.0147824803657812e+000 -4.1172117876815575e+000
    4.5732735430860432e+000 -3.2724567936548925e+000
    4.6727007418463726e+000 -2.4883172276454597e+000
    4.3787745184196138e+000 -4.1566297929737417e-001
    6.6110849386406780e+000 -3.8289380346732321e-001
    8.3708746014672322e+000 -3.8761298496943941e-001
    8.8908532718370399e+000 -4.0491280893567699e-001
    5.8181958122717994e+000 -4.2960849510861889e+000
    6.1998856221657022e+000 -5.0007189154290064e+000
    6.2190704507811709e+000 -5.0539124546909751e+000
    6.2592568307781598e+000 -4.8495112048545881e+000
    6.4882590093297470e+000 -4.8249079930039374e+000
    6.5624776154013196e+000 -4.8524881018155801e+000
    6.6051896890356980e+000 -4.9038539084394364e+000
    6.6107124272484885e+000 -4.9135514423602844e+000
    5.8364276437724882e+000 -4.4032070650402222e+000
    5.7188653636894307e+000 -4.4496866018507726e+000
    5.7241502231304535e+000 -4.4263189841071489e+000
    5.7202863383266678e+000 -4.2614783049874365e+000
    5.8801149550795211e+000 -4.2269953454153999e+000
    5.9534726529978306e+000 -4.2855813160176028e+000
    5.9270352991340314e+000 -4.3417495461778293e+000
    5.8589480788777317e+000 -4.2687452657217868e+000
    5.4095959249489658e+000 -4.0706457434588375e+000
    5.3079601571856569e+000 -4.1629370182597851e+000
    5.3299130894603284e+000 -4.0800191091223965e+000
    5.4624358383116896e+000 -3.9415578550194414e+000
    3.1219873623299160e-001 -2.6195657417718793e-001
    4.9586636021139267e-002 -2.4177192104680217e-001
    1.3822456803676893e-002 -7.0810018460168922e-001
    1.0796703937248478e-002 -1.4119441297435968e+000
    1.0256848212553422e-002 -1.6350965907771844e+000
    1.1119111210480821e-002 -1.8932244521419226e+000
    1.1294222780507250e-002 -1.5377271105259882e+000
    1.4966811679688677e-002 -6.4663001919792507e-001
    4.9112304402893527e-002 -1.7311293041024803e-001
    2.2419869246420332e-001 -6.6879238909131319e-002
    2.4632763613573325e-001 -2.4503481441550420e-001
    3.8230960235852054e-002 -2.8057269151485348e-001
    1.1807038301267081e-002 -9.4966964779727037e-001
    1.0676963162681333e-002 -1.7172936757437034e+000
    1.1830835075611959e-002 -1.4612185991740081e+000
    1.1749049773815315e-002 -1.6419092708901681e+000
    1.0715561273323638e-002 -1.7962742684898485e+000
    1.2574118630104849e-002 -8.6833934977025606e-001
    3.8467042255695229e-002 -2.1154056174191094e-001
    1.8073712587113699e-001 -7.0073413930143616e-002
    2.7745604598447821e-001 -2.6915911796468117e-001
    3.4947267977618039e-002 -2.8706410199264210e-001
    1.0927497907079867e-002 -9.2523283496717579e-001
    1.0665219073049790e-002 -1.4732978928331650e+000
    1.0056162688329392e-002 -8.7819708990952816e-001
    9.7641901685814499e-003 -9.3570032976003226e-001
    1.0317022807401406e-002 -1.4126595756707070e+000
    1.1425941375463383e-002 -8.3978019373464796e-001
    3.4312477756268674e-002 -2.2982407977442670e-001
    1.7035400418814517e-001 -6.8937959341608124e-002
    2.2765311048321127e-001 -2.0914743837509231e-001
    3.4452613450859870e-002 -2.8704624029893144e-001
    1.0965731386778530e-002 -9.3555971640333202e-001
    1.0567063736640684e-002 -1.5555864423491670e+000
    1.0118291993035823e-002 -1.0904339898287556e+000
    1.0172969853176509e-002 -1.1346493259454329e+000
    1.0234766662779355e-002 -1.3589222991685519e+000
    1.1620516578724245e-002 -7.6960143878193332e-001
    3.5335358990265242e-002 -2.2740694997671312e-001
    1.6615257177041654e-001 -6.7694041812480218e-002
    2.2754110131819627e-001 -1.8908990459232752e-001
    3.7965257225266405e-002 -2.6193386182294748e-001
    1.1421786850815194e-002 -8.5325334334693514e-001
    1.0138108070727802e-002 -1.5923493129111839e+000
    1.0508160265553654e-002 -1.6379211643801239e+000
    1.1544790584407928e-002 -1.9950597277517992e+000
    1.1423330344754771e-002 -1.8599100329584262e+000
    1.2503527248949179e-002 -7.3827429938937594e-001
    3.9413990041068055e-002 -2.0320358102462036e-001
    1.6708576163583372e-001 -6.5932902156554424e-002
    2.3698492118977141e-001 -2.1864628576510217e-001
    3.8396692045702563e-002 -2.5704881773083327e-001
    1.1449464366549936e-002 -8.1603671094090113e-001
    1.0306176528020908e-002 -1.4751524944713192e+000
    1.1163131651364835e-002 -1.3682357386886959e+000
    1.0873029071113895e-002 -1.5975688662416632e+000
    1.1117319835436807e-002 -1.8599684520334561e+000
    1.2074023686295097e-002 -8.2941085803102821e-001
    3.9462595633939279e-002 -2.1584493675648772e-001
    1.7977426342317346e-001 -6.5125108487730843e-002
    2.1240500619384392e-001 -2.0244973677135691e-001
    3.4805491483813698e-002 -2.7416174763815465e-001
    1.0969663325640075e-002 -8.7656018306501704e-001
    1.0005564583314426e-002 -1.2983792384748798e+000
    1.1186042445901864e-002 -8.4154728580407190e-001
    1.0357213177059430e-002 -1.0023893709416898e+000
    1.0540851436146146e-002 -1.5690166077697603e+000
    1.1243587166655616e-002 -8.8942840234038267e-001
    3.5100056262030256e-002 -2.4433160731209308e-001
    1.9635658078265911e-001 -6.4457588675083805e-002
    2.0928055005454665e-001 -1.8517995210795021e-001
    3.2070631467761242e-002 -2.9245808912078353e-001
    1.0968213717635920e-002 -1.0344171488488185e+000
    1.0825136049206131e-002 -1.6209884808641852e+000
    1.0830843555780789e-002 -9.1149817400992306e-001
    9.6651217427884788e-003 -9.7813733505198464e-001
    1.0335472392981212e-002 -1.5228926875198177e+000
    1.1152684024143324e-002 -9.2189804035334666e-001
    3.4787950677962219e-002 -2.5143030628530855e-001
    1.9349105243005768e-001 -6.3764901935939908e-002
    2.3918168761680472e-001 -2.1263027239802237e-001
    3.4880048511473583e-002 -2.7948527580928517e-001
    1.1712646514212350e-002 -1.0232918816486758e+000
    1.0756614202660567e-002 -1.8148356507926549e+000
    1.2448349409531205e-002 -1.5598459457382519e+000
    1.2589180688088723e-002 -1.6589207309977652e+000
    9.9764912742069198e-003 -1.5979878080370762e+000
    1.2641954841562036e-002 -8.7754577779728560e-001
    4.0397491653057914e-002 -2.2312304327332483e-001
    1.7514882805332532e-001 -6.0403150697506493e-002
    2.4002913025174785e-001 -2.2652328025222926e-001
    4.6548355354352949e-002 -2.3552286061723721e-001
    1.4112356794468043e-002 -6.8777629307661836e-001
    1.1278793175915569e-002 -1.4141855559366125e+000
    1.0026012396432478e-002 -1.5177024642251264e+000
    1.0013285811662737e-002 -1.4255182804580318e+000
    1.1152617015289574e-002 -1.2979063938681477e+000
    1.4765582881859656e-002 -6.1497400160518656e-001
    4.8841206615742504e-002 -1.8388925918171720e-001
    2.1591178164837693e-001 -5.9874474295753981e-002</input_scale>
  <output_scale>
    5.2631578947368418e-001 4.9999999999999994e-001
    5.2631578947368418e-001 4.9999999999999994e-001
    5.2631578947368418e-001 4.9999999999999994e-001
    5.2631578947368418e-001 4.9999999999999994e-001
    5.2631578947368418e-001 4.9999999999999994e-001
    5.2631578947368418e-001 4.9999999999999994e-001
    5.2631578947368418e-001 4.9999999999999994e-001
    5.2631578947368418e-001 4.9999999999999994e-001
    5.2631578947368418e-001 4.9999999999999994e-001
    5.2631578947368418e-001 4.9999999999999994e-001
    5.2631578947368418e-001 4.9999999999999994e-001
    5.2631578947368418e-001 4.9999999999999994e-001
    5.2631578947368418e-001 4.9999999999999994e-001
    5.2631578947368418e-001 4.9999999999999994e-001
    5.2631578947368418e-001 4.9999999999999994e-001
    5.2631578947368418e-001 4.9999999999999994e-001
    5.2631578947368418e-001 4.9999999999999994e-001
    5.2631578947368418e-001 4.9999999999999994e-001
    5.2631578947368418e-001 4.9999999999999994e-001
    5.2631578947368418e-001 4.9999999999999994e-001
    5.2631578947368418e-001 4.9999999999999994e-001
    5.2631578947368418e-001 4.9999999999999994e-001
    5.2631578947368418e-001 4.9999999999999994e-001
    5.2631578947368418e-001 4.9999999999999994e-001
    5.2631578947368418e-001 4.9999999999999994e-001
    5.2631578947368418e-001 4.9999999999999994e-001
    5.2631578947368418e-001 4.9999999999999994e-001
    5.2631578947368418e-001 4.9999999999999994e-001
    5.2631578947368418e-001 4.9999999999999994e-001
    5.2631578947368418e-001 4.9999999999999994e-001
    5.2631578947368418e-001 4.9999999999999994e-001
    5.2631578947368418e-001 4.9999999999999994e-001
    5.2631578947368418e-001 4.9999999999999994e-001
    5.2631578947368418e-001 4.9999999999999994e-001
    5.2631578947368418e-001 4.9999999999999994e-001
    5.2631578947368418e-001 4.9999999999999994e-001
    5.2631578947368418e-001 4.9999999999999994e-001
    5.2631578947368418e-001 4.9999999999999994e-001
    5.2631578947368418e-001 4.9999999999999994e-001
    5.2631578947368418e-001 4.9999999999999994e-001
    5.2631578947368418e-001 4.9999999999999994e-001
    5.2631578947368418e-001 4.9999999999999994e-001
    5.2631578947368418e-001 4.9999999999999994e-001
    5.2631578947368418e-001 4.9999999999999994e-001
    5.2631578947368418e-001 4.9999999999999994e-001
    5.2631578947368418e-001 4.9999999999999994e-001
    5.2631578947368418e-001 4.9999999999999994e-001
    5.2631578947368418e-001 4.9999999999999994e-001
    5.2631578947368418e-001 4.9999999999999994e-001
    5.2631578947368418e-001 4.9999999999999994e-001
    5.2631578947368418e-001 4.9999999999999994e-001
    5.2631578947368418e-001 4.9999999999999994e-001
    5.2631578947368418e-001 4.9999999999999994e-001
    5.2631578947368418e-001 4.9999999999999994e-001
    5.2631578947368418e-001 4.9999999999999994e-001
    5.2631578947368418e-001 4.9999999999999994e-001
    5.2631578947368418e-001 4.9999999999999994e-001
    5.2631578947368418e-001 4.9999999999999994e-001
    5.2631578947368418e-001 4.9999999999999994e-001
    5.2631578947368418e-001 4.9999999999999994e-001
    5.2631578947368418e-001 4.9999999999999994e-001
    5.2631578947368418e-001 4.9999999999999994e-001
    5.2631578947368418e-001 4.9999999999999994e-001
    5.2631578947368418e-001 4.9999999999999994e-001
    5.2631578947368418e-001 4.9999999999999994e-001</output_scale>
  <inv_output_scale>
    1.8999999999999999e+000 -9.4999999999999996e-001
    1.8999999999999999e+000 -9.4999999999999996e-001
    1.8999999999999999e+000 -9.4999999999999996e-001
    1.8999999999999999e+000 -9.4999999999999996e-001
    1.8999999999999999e+000 -9.4999999999999996e-001
    1.8999999999999999e+000 -9.4999999999999996e-001
    1.8999999999999999e+000 -9.4999999999999996e-001
    1.8999999999999999e+000 -9.4999999999999996e-001
    1.8999999999999999e+000 -9.4999999999999996e-001
    1.8999999999999999e+000 -9.4999999999999996e-001
    1.8999999999999999e+000 -9.4999999999999996e-001
    1.8999999999999999e+000 -9.4999999999999996e-001
    1.8999999999999999e+000 -9.4999999999999996e-001
    1.8999999999999999e+000 -9.4999999999999996e-001
    1.8999999999999999e+000 -9.4999999999999996e-001
    1.8999999999999999e+000 -9.4999999999999996e-001
    1.8999999999999999e+000 -9.4999999999999996e-001
    1.8999999999999999e+000 -9.4999999999999996e-001
    1.8999999999999999e+000 -9.4999999999999996e-001
    1.8999999999999999e+000 -9.4999999999999996e-001
    1.8999999999999999e+000 -9.4999999999999996e-001
    1.8999999999999999e+000 -9.4999999999999996e-001
    1.8999999999999999e+000 -9.4999999999999996e-001
    1.8999999999999999e+000 -9.4999999999999996e-001
    1.8999999999999999e+000 -9.4999999999999996e-001
    1.8999999999999999e+000 -9.4999999999999996e-001
    1.8999999999999999e+000 -9.4999999999999996e-001
    1.8999999999999999e+000 -9.4999999999999996e-001
    1.8999999999999999e+000 -9.4999999999999996e-001
    1.8999999999999999e+000 -9.4999999999999996e-001
    1.8999999999999999e+000 -9.4999999999999996e-001
    1.8999999999999999e+000 -9.4999999999999996e-001
    1.8999999999999999e+000 -9.4999999999999996e-001
    1.8999999999999999e+000 -9.4999999999999996e-001
    1.8999999999999999e+000 -9.4999999999999996e-001
    1.8999999999999999e+000 -9.4999999999999996e-001
    1.8999999999999999e+000 -9.4999999999999996e-001
    1.8999999999999999e+000 -9.4999999999999996e-001
    1.8999999999999999e+000 -9.4999999999999996e-001
    1.8999999999999999e+000 -9.4999999999999996e-001
    1.8999999999999999e+000 -9.4999999999999996e-001
    1.8999999999999999e+000 -9.4999999999999996e-001
    1.8999999999999999e+000 -9.4999999999999996e-001
    1.8999999999999999e+000 -9.4999999999999996e-001
    1.8999999999999999e+000 -9.4999999999999996e-001
    1.8999999999999999e+000 -9.4999999999999996e-001
    1.8999999999999999e+000 -9.4999999999999996e-001
    1.8999999999999999e+000 -9.4999999999999996e-001
    1.8999999999999999e+000 -9.4999999999999996e-001
    1.8999999999999999e+000 -9.4999999999999996e-001
    1.8999999999999999e+000 -9.4999999999999996e-001
    1.8999999999999999e+000 -9.4999999999999996e-001
    1.8999999999999999e+000 -9.4999999999999996e-001
    1.8999999999999999e+000 -9.4999999999999996e-001
    1.8999999999999999e+000 -9.4999999999999996e-001
    1.8999999999999999e+000 -9.4999999999999996e-001
    1.8999999999999999e+000 -9.4999999999999996e-001
    1.8999999999999999e+000 -9.4999999999999996e-001
    1.8999999999999999e+000 -9.4999999999999996e-001
    1.8999999999999999e+000 -9.4999999999999996e-001
    1.8999999999999999e+000 -9.4999999999999996e-001
    1.8999999999999999e+000 -9.4999999999999996e-001
    1.8999999999999999e+000 -9.4999999999999996e-001
    1.8999999999999999e+000 -9.4999999999999996e-001
    1.8999999999999999e+000 -9.4999999999999996e-001</inv_output_scale>
  <weights>
    <_>
      1.0207058810920644e-001 3.0255302458795080e-001
      -4.8718184593158970e-001 -7.6227514147773776e-002
      5.6549558110015101e-002 -2.1289516647156348e-001
      -4.0075460418699971e-001 -2.0508321173352612e-001
      -1.9596719266324725e-001 -9.9426880127399375e-001
      5.3286405062824826e-001 -4.9508391649511441e-001
      -9.2931335052927611e-002 -1.5613822132995883e-001
      -2.3785454819406976e-001 4.5542582642260937e-002
      -4.5203149135702603e-001 -2.6148662141841927e-001
      1.5391847782457890e-001 -1.0986647241838791e-001
      1.5446725324340962e-001 -1.8780176354978909e-001
      -2.0719569905423826e-001 -1.3267008430932281e-001
      -2.3367570560757223e-001 8.1091011735666158e-002
      -9.7263294329800876e-001 6.8700833875981382e-001
      2.4149190877728398e-002 3.9106228412055050e-001
      -5.7688624914415632e-001 -3.4150372814362472e-002
      1.1979449357387004e-001 2.2746551189279518e-001
      5.1740636648983884e-001 -4.2955869211789760e-002
      -6.9337734465561496e-001 1.4931723194636956e-001
      3.4701946887998847e-001 -3.2535306548962900e-001
      -6.5713005896268610e+000 4.1209704152999610e-001
      -5.4506222355433942e-001 -5.3363424007909832e-001
      4.2439424707317308e-001 -6.6356003573922281e-002
      2.6501711688122997e-001 -3.5843385550903084e-001
      1.8791169379850062e-001 2.8873805336946395e-001
      -3.0812197184463980e-001 -1.9505685004385903e-001
      -6.3866602543637430e-001 4.9088514974495880e-002
      -5.1727693498464711e-001 -2.7370603387957104e-001
      -2.1370071001600807e-001 2.7152676873645376e-001
      -3.2961194636453084e-002 -1.6959637674403030e-001
      2.3709837605956383e-001 -1.9158118574707089e-001
      -1.1610428331296734e-001 -2.1238693421546963e-002
      -3.5852474691387237e-001 -4.6379232612917215e-001
      -2.2045078869716039e-001 4.7505098968810744e-001
      -2.3280414741328248e-002 3.9474335254033266e-001
      -3.2924400955561761e-001 8.2240019660120046e-003
      -2.3603580664621363e-001 -2.6016225691837741e-001
      -2.8010965921909070e-001 3.3662916219572742e-001
      -1.5542026385874191e-001 1.0165024127058273e-001
      3.4474112901966519e-001 -1.3607069398432708e-001
      -1.8037435696538523e+001 3.3297222069577898e-001
      -2.1215326513487198e-001 1.5408429323597200e-001
      5.3958366103948441e-001 1.8387942409914723e-001
      -3.1619902771448560e-001 -3.2086211784756402e-001
      4.8606534472618146e-002 -1.9649969832026498e-001
      6.4366621001075208e-002 4.9542953783344373e-001
      3.7710495132027698e-002 -3.8619112506561776e-002
      3.8525733964341183e-002 -1.7146782862390617e-001
      -2.6685999016283174e-001 3.8760958917023823e-002
      2.3944054773886622e-001 2.1255236044753142e-001
      -5.5288960052780445e-001 4.3217339004679539e-001
      -2.8956377617776397e-001 -3.1200647766670242e-001
      3.7241314472452569e-001 4.8163356004138007e-002
      1.7400422098293379e-002 4.4264333604881528e-001
      1.1138543685969196e-001 8.3915831028990417e-002
      -1.8843128972132631e-001 -9.4065407028465463e-003
      1.6225427719071492e-001 -6.0204380982506089e-001
      1.8349558014026490e-001 1.7424042449545704e-001
      -4.7108122715899294e-002 -2.2596372330555084e-001
      2.9947969782345896e-001 -7.3949240527305837e-001
      -2.4213971031709708e+001 4.2178511251878792e-001
      -6.4250694901531280e-001 -2.1373140194882932e-002
      -2.7332627424408290e-001 3.7010311242482291e-001
      -4.3595109831881912e-001 -6.6023248769863441e-001
      1.0100132310987986e-001 3.7890456704753533e-001
      -1.1757978433417580e-001 2.9033350387697621e-001
      -3.7826581130167047e-001 2.4243808024878583e-001
      3.6107919818263931e-002 -4.3242854201690528e-001
      -7.5493052719154108e-001 -1.7633593905451908e-001
      1.7816904729865565e-001 -2.9855431863175769e-001
      -1.3694191143071285e-001 1.3411353416123592e-001
      -1.3741382142494282e-001 1.5084712859887930e-001
      7.1379222548922472e-001 -5.2164232347307354e-002
      3.5272872864742337e-002 1.6693903573823532e-001
      1.7651723716262407e-001 1.7698508585567096e-001
      -2.4223607750004639e-001 -1.2751251588905624e-002
      2.5557366900082568e-001 -3.4847736898967779e-001
      6.5670622339550389e-001 4.2029629667618790e-001
      1.2689489748786856e-001 1.3604884734142014e-001
      -1.2460702178605833e-001 -3.6701306181452349e-002
      -1.8323766277652481e+001 1.9562171360836447e-001
      -2.6495223451958144e-001 -5.2819638509183997e-001
      -6.7438984002521796e-001 -2.0297341268724126e-001
      1.2527730676183904e-001 -1.9271404532486469e-001
      3.2464782970347261e-001 -5.2966977425293260e-001
      -7.1218636890791462e-003 -3.3040871610260092e-001
      -3.6060908173265582e-001 -2.3063491249385024e-001
      -3.5838066776176555e-002 -3.6884295034590858e-001
      -1.3714352056680787e-001 9.3581769863298536e-001
      -2.4944418886138447e-001 -6.2095856170417685e-001
      -1.6745770035078977e-001 5.1084972260533734e-001
      -7.5635424413428887e-001 -1.5961791169358908e-001
      3.0605292132898095e-002 -4.5504844159488650e-001
      -8.4781688165333413e-001 -6.3784377437003992e-002
      4.0832802869517071e-001 2.9131110971288782e-001
      2.0039420470032082e-001 2.4017232169264310e-001
      -1.8327628634921805e-001 -3.1205075510679647e-001
      3.9514326191338978e-001 5.6568173249274856e-001
      -4.3816486575348057e-001 -5.0111526799169678e-002
      -1.8909380525065733e-001 6.5175247058695610e-002
      -8.4921701844997877e+000 3.1520236741251950e-001
      -1.8448796557692032e-001 -3.4124546385866966e-001
      -4.4166060178404976e-001 -4.7829790372639147e-001
      1.7281003023019079e-001 2.9006541030241421e-002
      3.3678014015221475e-001 -8.7738741960054059e-002
      1.4461178131404687e-001 7.7526635706028646e-001
      4.7441114494893033e-001 6.5216665029917114e-003
      -5.7318573770482562e-001 -2.2487145350058749e-001
      -2.3651531511678150e-001 2.3072120445892907e-001
      1.2852968279419894e-001 -3.3738585895949280e-001
      3.0613397750221838e-001 3.2685945152824275e-001
      -9.9294582086248928e-001 -2.5281536425572892e-001
      -8.4947649971368744e-001 5.6706023875597179e-002
      1.1386628119346706e-001 6.0471093406692877e-001
      -1.2185746612353415e-001 2.4131739559626247e-001
      -9.8310365284331913e-001 -1.3894620623069287e-001
      3.6794173075005418e-002 4.4824526843546086e-001
      1.8778428443549552e-001 4.2146780994127403e-001
      -4.2773412220479634e-001 -8.7059565056477273e-002
      -4.5435645766413796e-001 -7.1790035715464728e-001
      -1.1740491445139818e-001 5.3110993510121629e-001
      -5.8739022011975457e-002 -3.3841819150855823e-001
      -3.6827861384194849e-001 -4.3863248111393333e-001
      -2.6753811743486445e-002 -6.1939086431105750e-001
      2.1764248436668045e-002 3.9434972314401634e-001
      1.8316647684327131e-001 5.6649691183958728e-001
      6.6968184224702454e-001 5.9055983581262561e-001
      -2.4582227992808037e-001 -3.3483256833396025e-001
      3.3680449383622102e-001 8.3757582042638745e-001
      -1.8213077264995733e-001 -1.7840965950434426e-001
      5.1937808311585221e-001 1.2135872165698676e+000
      -6.6761061906682706e-001 -4.3641366449354163e-001
      -6.5702265963760498e-001 -4.5857636577470751e-001
      1.0687739661285172e+000 9.7531910964990276e-001
      -6.3360685426785768e-001 -6.2932644710438509e-002
      -5.4411517029917145e-001 6.3954145980109900e-001
      -1.3558722090217032e+000 -4.7996984877196008e-001
      9.3093736899810453e-001 3.6433950070152882e-001
      -5.9387834054124300e-001 -6.0277542342363644e-001
      -6.2572694119582906e-001 2.1930717315815404e-001
      4.1403061784583078e-001 2.6638286633264341e-001
      -8.1080816975463554e-001 -7.0844658217759859e-001
      -1.5206830313855227e-001 -5.2155236703395536e-001
      -3.7532004545834824e-001 2.8373266581914874e-001
      1.4593816787745909e-001 5.6941555619319247e-002
      3.3418890526866774e-001 -3.3426929460965440e-002
      -6.9498801615767092e-001 7.8432584645494019e-001
      2.2007177656191942e-001 -5.8459963093771140e-002
      -8.5264058423970401e-001 5.1244564199834053e-001
      -1.0946348028458042e-001 2.3582815492389878e-001
      4.6364095689330601e-002 -3.1233019216503143e-002
      -9.9967345690892395e-001 -2.9371837497885167e-001
      3.2972312046916225e-001 8.8708603361662891e-002
      -3.7918267298070595e-002 1.5565158845261889e-001
      8.0559771012079548e-002 -2.5963010785703514e-002
      -3.5236615354210099e-001 6.0978353787553019e-001
      -2.7962748802677639e-001 -7.6289471223277361e-001
      2.0544114821190451e-001 1.9936612484706986e-001
      -7.8343089494808482e-001 -1.7648103816891800e-001
      -2.5458549167478944e-001 -1.6536157575721449e+000
      3.2908884758789956e+000 -2.2513150297142226e-001
      -4.4663881832827584e-001 2.8906895922163262e-001
      -1.2992545060586377e-001 -7.9657285084769672e-002
      5.2687115725147404e-001 3.5698342403796718e-001
      3.1590643865592316e-001 1.7233588036567327e-001
      8.3129024694571463e-001 3.5766402600597669e-001
      -5.2227115330543650e-001 1.6450029521407625e-001
      -2.4690616364373856e-002 -5.2350738536272079e-001
      3.0553296953130110e-001 1.8586745168243471e-001
      -4.3056038307807937e-001 5.5117400749684891e-003
      -8.3316518103251924e-001 1.4881170790907194e-001
      -6.6949123896669305e-001 -7.1008378369897193e-002
      4.4085109541599271e-001 -4.1098160990170429e-001
      -6.3480575154020813e-001 7.4558966157064654e-001
      1.5229216312027949e-001 4.7596868678130011e-001
      -1.4475487964368114e-001 -1.7150617502542861e-001
      -6.5832586868345699e-001 -2.4603144793262255e-001
      -3.4677993308195454e-001 5.2309252341748180e-001
      -3.7243521308323235e-001 -7.2651566617875241e-001
      3.7934827591179010e-001 -7.8670160746122308e-001
      4.6150520005815956e+000 -1.8755224252758049e-001
      -4.9105836301776884e-001 2.7207540567846655e-001
      1.5036875747399334e-001 -3.9375456803423754e-002
      4.2495971423622320e-001 1.6457993170700910e-001
      -7.4966053065398730e-001 -5.3785450656001832e-001
      2.8806798162130676e-001 -8.6888178582857822e-001
      6.8414659127187472e-001 -1.2043781527070614e+000
      -6.8060924601811013e-002 6.1950149597046179e-002
      -6.6513210860852090e-001 -1.3079502810885782e-001
      -3.4133448338357802e-001 5.0667000815633156e-001
      -6.8718272963404936e-001 -1.7818989231053201e-001
      -1.4270587760414819e+000 4.4281344734889438e-001
      8.5539428497724657e-001 -7.7236037217860110e-001
      -1.0618649062170362e+000 -2.5525047849027704e-001
      -1.0602292205007371e-001 6.7065119208602331e-001
      1.1296375410384534e+000 -9.4381432148457156e-001
      -5.6496912651953124e-001 1.1655743088688739e+000
      6.9172211653559346e-001 -2.3514216911988869e-001
      -9.2827359662538811e-001 3.5950150730523894e-001
      8.0506489947541726e-002 -4.8836764095803752e-002
      8.9728370789268688e+000 -2.5882187997855899e-001
      8.2710431265585943e-002 8.3077064993540783e-002
      -3.7761344714954986e-002 4.5380332329527806e-001
      1.4056507645264166e-001 1.7729410577310534e-001
      -5.7621304224717351e-001 -6.0502319410461758e-001
      -2.6558822295007900e-001 -1.0821851842798684e+000
      3.7440932373431568e-001 -1.5701884824525583e+000
      4.7825259194371736e-002 4.0914738858896327e-001
      -6.1235174303991358e-001 -4.6332401770329490e-001
      1.1111245116755833e-001 1.1377181401838733e-001
      -7.3863715918390871e-001 -1.0537750804086041e+000
      -8.1648902932836054e-001 -7.5804994298455358e-002
      1.2619980407100022e+000 -8.1538915548905799e-001
      -6.8278583679306348e-001 -5.1614745908052462e-001
      1.3657474986630017e-001 -1.2628265422939697e-001
      1.0668768706749270e+000 -5.0336827191286937e-001
      3.4698252918462597e-001 1.5226441200039360e+000
      1.7746560387676708e-001 -6.9597333367436554e-001
      -8.1849185098077404e-001 8.2809086351181893e-001
      1.6323067051033058e-001 8.9333460431356693e-001
      1.5096671484486199e+001 -4.6534445704725841e-001
      -5.3344665971411442e-001 -2.5023586604468059e-002
      1.3755236169044549e-001 -7.3469133320994162e-001
      3.3559978694124987e-001 3.0832360734659414e-001
      1.0883512911117825e-001 1.0369012439015350e-001
      6.5288493828105965e-001 -6.4837278464393508e-002
      -4.5389581177504135e-001 -1.2716409764284206e-001
      2.2998945624079470e-001 -7.9399656088172521e-001
      -6.2741921076442919e-001 4.1319055491982742e-001
      5.2912226601823376e-001 6.7352916785418915e-001
      -8.8207727316703910e-001 -1.1413593696764190e+000
      -5.1889089423278571e-002 -2.8582664448548029e-001
      5.2430321956409554e-001 -7.5244616358015037e-001
      3.9518595427948461e-001 -1.4442893657103534e-001
      7.2392137944953827e-001 -2.6526305187457760e-001
      -8.1411574298458944e-001 -1.3125605960488404e-001
      -1.1037291228275166e-002 1.6451893176424048e-001
      4.0049200012765068e-001 8.8305988615463715e-001
      -1.0375114184927787e+000 -5.1815320032369150e-001
      4.5123692309296232e-001 -1.0484604554449324e+000
      8.2646798569578941e+000 -5.7511212780371457e-001
      -1.1499100952983536e+000 2.6070095371291974e-003
      3.8845754437306715e-002 -6.0408220270632151e-001
      5.2016151278453181e-002 9.4009440294762076e-002
      -6.5617329535259994e-001 -3.1891339223626758e-001
      1.0858012707504150e+000 -2.6049468209631485e-002
      -4.0263260414932240e-003 -3.3769166747379387e-001
      -1.3467678399115518e-001 -6.4968651204464734e-001
      3.9400407062024911e-002 4.5368236486573432e-001
      -4.8861899054430685e-001 4.9300365672994045e-001
      -9.2805281016228447e-001 -2.8212004206866709e-001
      -8.5029208694040875e-002 2.7470985998587227e-001
      -1.3690551166193626e-001 -8.5920853631811256e-001
      8.3068623775647432e-001 -3.3192446756606536e-001
      -2.3693186713309419e-001 -3.0165707055119462e-001
      2.8800028214559120e-001 3.1422442219863334e-001
      -8.8736003953259705e-003 -4.6965533862120346e-001
      5.7193602537237986e-001 5.6288212557127226e-001
      -1.1697594643358626e+000 -4.0437356395079416e-001
      2.9091462975347054e-001 -1.0591056390168538e+000
      4.7589625531207496e+000 4.1434851753401486e-001
      -3.7159267716075373e-001 -4.5195310974896830e-001
      -4.9910894961361453e-002 -3.6655342655314926e-001
      2.0948391602172753e-001 -1.3819756344341898e+000
      -5.9698205366555968e-001 -9.5043806732642311e-001
      5.7735273013701061e-001 3.5850462814157502e-001
      3.9014545129054368e-001 -5.9120660612329379e-001
      -2.3352848299782272e-001 -3.2692145560875202e-001
      2.5077379586022774e-001 2.4091091746581073e-001
      -1.4487979405945584e-001 2.6209119080607307e-001
      8.7600180495430155e-002 1.0989921629189785e+000
      -5.5108648648290226e-001 -1.3576270799848114e+000
      4.3464094659781871e-001 1.4301051858075089e-001
      3.8513590803911618e-001 5.2707349901759452e-002
      -7.0256826981410292e-001 -5.2001547014614302e-001
      -3.6703671631849816e-001 4.6657293154139046e-001
      -2.8511718164948002e-001 -2.5384917776427773e-001
      1.0210555280235669e+000 -6.5381418134640323e-002
      -9.8777755290844316e-001 1.4974709756369649e+000
      -3.5966595974012278e-001 6.1016169534860998e-001
      -1.0658283443354399e+001 1.3754767575076969e+000
      -1.9071622820419534e-001 3.1957618817352790e-001
      -5.5323420599227437e-002 -3.5324655213669381e-001
      3.4527980619539100e-001 5.8934052638596780e-002
      1.6594504747642420e-002 -9.4407838022984880e-001
      3.9836788910994743e-002 7.3832679280510771e-001
      1.7811579219540780e-001 -8.2329604304490878e-001
      -9.2666679718572467e-002 1.1130919165327580e+000
      7.3834491101103683e-001 -1.4390723507465211e-001
      -1.7295946870834644e-001 4.3572349195945720e-001
      7.1439120494203603e-002 -4.9545228838579891e-001
      1.7451714234783947e-001 -3.7160848853750267e-001
      9.2891356552473603e-001 1.4243298656175984e-001
      3.5435440393319317e-001 -3.7191579721047213e-001
      -3.9154955798560975e-001 -5.3230260626819903e-001
      5.0720676738172810e-001 -8.0890179026688377e-003
      -9.7031181151712692e-002 -3.4645172023888110e-001
      8.4326713338028392e-001 -4.2229033540295219e-001
      -2.3030304770372823e-002 -5.0025484953384491e-001
      4.6643491595835912e-001 -3.0207934141437316e-002
      -1.9114494249365745e+001 -1.0985811318109251e-001
      1.3275958532819906e-001 -1.7703853423110369e-001
      -2.8346980232842772e-001 -8.5569859247165453e-002
      -4.7351982939431769e-002 -2.4299302395079134e-001
      -1.7508486884484334e-001 -1.6717293767560187e-002
      -2.5975896814529244e-002 6.1482014828568143e-001
      -8.2472777917168436e-002 1.9068227114386316e-001
      -9.4134872275029452e-002 -8.2050471089325797e-002
      -3.7233456738100529e-001 -4.9153724318096736e-001
      8.7627938919957793e-002 1.5683647427294978e-001
      -1.9900967321244087e-001 6.5293823501839932e-002
      -9.7118293201213102e-001 1.1212111695210808e-001
      7.5623122137272472e-002 3.6288509173609436e-002
      4.4781826656768009e-001 -1.2555882231998100e-001
      5.9847782896615920e-001 -3.4151629340293016e-001
      -7.4583846692696787e-001 2.4345871594443350e-001
      -1.6701887646157354e-001 -4.9492838188546012e-001
      5.7976069199192556e-002 2.7108811328713767e-001
      -3.1376249895151287e-001 -3.3609692052794715e-001
      2.5178961688642604e-001 -3.2729504949114080e-001
      -3.2657667347491831e+001 -1.6152703101827198e-001
      1.3455759178404925e-001 -1.6886889574688032e-002
      5.3873580442204372e-001 -2.4815922612761224e-001
      -9.5265443005283779e-002 -2.8352262288188451e-001
      1.0926244399133168e-001 -2.0817476569760179e-001
      -2.1253942699147541e-001 -3.2779929105861561e-001
      -3.6329325144273850e-001 4.5581216676912167e-001
      4.0907177347119822e-001 -5.5417718224801314e-002
      6.2358975372867886e-001 -2.5614924915839169e-002
      5.2878970594700014e-001 -4.1272067771470089e-001
      6.0009553983328157e-001 -1.0390912566740207e-002
      -2.0820518738565741e-001 -3.6014547561937109e-002
      -2.0371115818302984e-001 -2.8595747364660323e-001
      -1.2558046125532080e-001 -9.2082600632165792e-002
      -1.3896801343234400e-001 -3.4268148517405445e-001
      -2.9282782477848923e-001 3.5541287803646998e-001
      -8.7517715291699028e-001 -4.4636436651751371e-001
      6.2806535627552107e-001 -1.8982740873875173e-001
      1.5520987427994064e-002 -4.5654588711734906e-001
      -2.1413832146826139e-001 2.1614546120374950e-001
      -3.8318000595539530e+001 9.8947606233369212e-001
      -3.7335103499003164e-001 6.4793636725250470e-001
      -2.8496041157493179e-001 5.4147521391618403e-001
      -6.1491217766150996e-001 -1.9081346095979795e-001
      1.5972523005349076e-001 -1.8489076641885233e-001
      -8.0250702121190964e-001 -8.2655943499713710e-002
      -4.4838999041002400e-002 -4.4445738064787182e-001
      4.8110722062008815e-001 1.9402169261392060e-001
      -3.1525665138302666e-001 -1.7144027329651262e-001
      4.9402468942597916e-001 -8.7766845931039450e-002
      -6.1850246841479384e-001 2.4507529964554686e-002
      -1.2545357204385852e+000 6.7240298611086963e-002
      -3.7043127354748330e-002 4.5871398083940806e-001
      6.5127871412395288e-002 6.7856258012466253e-002
      5.9385688071568310e-001 -2.6591782872281083e-001
      -1.6650121854527650e-001 1.6379420995172794e-001
      -1.7254468135436726e-001 -6.7246135200396806e-001
      -3.4756870583403882e-001 2.3297550598843025e-001
      2.0121994821765823e-002 -3.5837895288900162e-001
      2.4743063949345423e-001 -4.1663542748914517e-001
      -3.3641578530786902e+001 6.0563514647134209e-001
      5.5922578931671973e-001 -9.3684509036210548e-002
      -3.6934426117446706e-001 1.9567415239446007e-001
      1.9881913425298693e-002 2.7534366049737084e-002
      3.7706327609949225e-001 -1.8327135921654494e-001
      -4.2682481867730870e-001 -4.9760896884620631e-001
      -6.5823096475990384e-001 -6.3936520192652987e-002
      5.0996229608167720e-001 3.9617448347419475e-002
      -7.9046185391995072e-001 -4.7587842605353187e-001
      7.5661885472234203e-001 3.9858618522019051e-001
      -3.1711488060484611e-001 1.2423796439214780e-002
      -5.4181324381481777e-001 3.5875645938711809e-001
      -1.5126302819163850e-001 4.4041545286805689e-001
      -5.6672000931834954e-001 -1.3895683514569868e-001
      -1.3011402740924927e-001 -1.0107641811690404e-001
      4.1530656512774106e-001 1.1721231670247927e-001
      1.2499698577340465e-002 1.3446591101872667e-002
      -4.8355054009964642e-002 2.5723554394491005e-001
      -5.7727276920747794e-001 -6.5764106135970135e-001
      5.3452177599460282e-001 -9.4450827052219938e-002
      -3.4706383047769819e+001 -3.3508001192263942e-001
      -7.1309123685105114e-001 -2.0368865664581928e-003
      -5.0234017652887619e-001 -2.6115593100856976e-001
      -1.9716202996462007e-001 -1.3983384377655989e-001
      1.6076273719427983e-001 3.8999425307628524e-002
      -7.1930173665620367e-001 -2.1117159705755703e-001
      -1.2422243707902296e-001 -8.4532700297946725e-002
      5.8890979815938160e-001 1.2030581852032156e-001
      1.0382074672660696e-001 -3.1406568504477939e-001
      4.3709333654528565e-001 -9.1016090798104088e-001
      -7.9133443514631019e-001 1.5832239561979686e-001
      -5.6496312601525234e-001 1.5617401640615855e-001
      7.8215661602506995e-002 -4.8689751730364050e-002
      -3.1303853500862561e-001 7.5101072972237859e-001
      9.3150273899855018e-001 -6.1191401116218647e-001
      1.5392462266065546e-001 -1.2557206960372569e-002
      4.2658801148076397e-001 1.7537317398697575e-002
      2.5697600914131247e-001 2.4366107485182995e-001
      -4.3898747867964827e-001 -4.4218229715205898e-001
      1.2462133942264216e-001 3.6101944656362417e-001
      2.6732456816915517e+000 -2.1123242394825606e-001
      4.7251408242597208e-002 5.7748754483669329e-001
      -2.7220109308298487e-002 7.0712245958087816e-001
      1.1367299711503991e+000 2.5953199433692514e-001
      2.6280125074727706e-001 -2.1312072785435665e-001
      -6.1681554234054314e-001 -5.7615489478617776e-001
      6.5630254257518639e-001 3.0453208940746745e-001
      5.5661816788134505e-002 -7.0510776253097873e-001
      2.1854926228786453e-001 3.4548286938191827e-002
      -1.7043656506501406e-001 1.0628880977395729e-001
      -1.5985725632888301e-001 7.6532357759268449e-002
      6.8013152259368659e-002 2.9267782575178257e-003
      2.8437570299136244e-001 -5.9898344703791062e-001
      -1.2765343716128777e-001 -4.6092213455722836e-001
      1.1955220408268559e-001 6.6333696447374690e-001
      7.1797284962486430e-001 1.3620655674454901e-001
      -1.3412964433251098e-001 -1.6302197548815411e-002
      -1.5126718563903044e-001 1.7566731119665016e-001
      1.7316900046881370e-001 -4.5132398595276846e-001
      7.9285871980282890e-002 -3.6939269787425155e-001
      5.4788256322969611e+000 -4.5731079900783755e-001
      6.3063649978612091e-001 -1.9512767231531693e-002
      -2.0473291825059931e-001 3.1998779499388480e-001
      5.6170756113477105e-001 8.8151044271482876e-002
      9.1003022875260131e-001 -3.6447695360785404e-001
      -4.5300078127802262e-001 -1.1149501216164692e+000
      -1.5063616626311979e-001 -1.4117742836077880e+000
      -1.6424704276405055e-001 -2.3933324502721134e-001
      5.5281464785093937e-001 -4.1897764201480459e-001
      -1.0492575350866984e-001 -6.7632044841257743e-003
      -6.2794110286830218e-001 -3.9226076438654067e-001
      4.5550830046267393e-001 1.3077170743484812e-001
      -5.6773610748635232e-002 -5.5581551163727416e-001
      -3.0255617418812081e-001 -3.3669421063973920e-001
      8.7730332691030599e-001 2.4564130651014660e-001
      2.3517901741339378e-001 -1.8560764756859338e-001
      5.1427116142259588e-002 6.8788009593287835e-001
      -4.4497869198735433e-002 -3.0997506880712372e-001
      5.8043308077561154e-002 -7.9368775531930946e-001
      2.0028676233617584e-001 -7.2870825218811930e-001
      1.4931621514592512e+000 -4.6936822568805175e-001
      4.8987978237607854e-001 4.6622089007222850e-001
      -8.3158384276036251e-002 8.9027065673441555e-002
      2.6624921222971759e-001 -2.7713539433617551e-001
      5.4703578084560500e-002 5.1367841361524585e-002
      2.1647464752726503e-001 2.1545964107565669e-002
      4.3697927089192914e-002 -9.9935386356510489e-002
      -3.5257806648012263e-001 1.3856717345807204e-001
      -1.2893045446126306e-001 2.6442749378281418e-002
      1.6020029038573846e-001 -3.4771980907329125e-001
      -1.1162151928236103e-001 1.2040705001172812e-001
      -2.0784450444434951e-001 -6.8960182988028279e-002
      3.6508516228382437e-001 -4.6668315774204133e-001
      2.3765376163180016e-001 5.0489829854256230e-001
      6.5819760354789991e-001 -1.7334839670720473e-001
      2.3256089323433632e-001 -3.9729425534694679e-001
      -4.9502327778535682e-001 5.5631956686177619e-001
      5.4158813710955982e-002 -1.4331880338513439e+000
      1.0487179168603231e-002 -1.7624501466637535e-001
      2.4295695713578883e-001 -1.1884027275610239e-001
      1.1003238334453794e+001 -9.0584156672364124e-001
      1.6572661732832988e-001 2.1803051882231411e-001
      -5.0246766641656093e-001 -4.5707479365172160e-001
      8.1005103755614105e-001 -1.2082374678065498e-001
      2.2220008243526548e-001 1.1597413843902962e-002
      1.8375532254586577e-001 2.6918639840872549e-001
      3.5058087274584604e-001 -1.2459638742921599e-001
      -3.2193245488119838e-002 -2.9560759500391520e-001
      1.3967359147662395e-001 -3.5002776906532440e-001
      -3.2929891685200663e-001 -3.6430714071648790e-001
      7.5840676320718059e-001 4.7144300235464403e-003
      -2.3518701080338083e-003 -2.8245371559830479e-001
      3.9584334875314270e-001 -1.0580614744145869e-001
      2.0725297246687557e-001 4.8095811878231087e-001
      2.3003526209606215e-001 2.6465515800142797e-001
      -3.1754261121191146e-001 -6.4689578454991026e-001
      4.6617598952613898e-001 2.0082418697282961e-001
      -1.7320070891155695e-001 -1.3258741957614020e-001
      9.7281786647996207e-002 1.5662769275008209e-001
      2.7276040483721947e-001 -2.0846744998880165e-001
      1.1402169293027274e+001 -3.1946585558655810e-001
      -3.0212298668969501e-001 7.0469160605388173e-002
      8.4112343012819335e-002 -1.0040539383498590e+000
      2.1798420881731140e-001 -6.8320536419435074e-001
      1.1052516702272770e-001 3.9942493795685868e-001
      3.6450669429375158e-002 -2.4837644775216650e-001
      -3.0282284031405249e-001 1.6891500235318860e-001
      -2.2248785896625592e-001 -2.5071633667935067e-001
      3.4890365373028842e-001 -3.0016496794328629e-001
      -1.1704588803388415e-001 -3.2280265365690050e-002
      7.9327116144208265e-001 -1.2764910853080888e-001
      4.7578589005903178e-002 -6.4619783922575624e-001
      8.8977272671594865e-001 8.7478567964109646e-002
      3.4482076802659944e-001 5.8368097001135037e-003
      -2.9052120420187849e-001 3.2769496496972650e-001
      -4.7790385253904366e-001 -5.7069447911594839e-001
      -9.5358416933320773e-003 2.2899254509542086e-001
      3.3367244969492993e-001 -4.1014584896853201e-001
      1.6257247685592921e-001 2.8550390564655526e-001
      2.1164145810934665e-001 -6.9890224874131535e-001
      1.1899604520232885e+000 4.1938472598551775e-002
      1.6149997048755402e-001 -6.6262565690545272e-001
      -1.1546092392946244e-001 2.2153349893045959e-001
      -7.5198650898801622e-001 1.4358064488219166e-001
      -1.1785715539226872e-001 4.5482575798122554e-001
      4.2024917130207190e-001 1.5326671370708462e+000
      4.2199394504413734e-002 1.0174595024803352e-002
      2.3617923845883546e-002 6.3121760602854948e-001
      -2.0958771312751731e-001 5.2291368835627083e-001
      7.9029450359215492e-001 3.3361056807711453e-001
      1.2120231397291711e-001 1.8588921618255641e-001
      5.8449883420838088e-002 -4.1323814190387792e-001
      1.8312281400294247e-001 -5.5322412919356634e-001
      1.5223883751757644e-001 5.0235830210518528e-002
      -9.5340358817639803e-001 6.9423431072359965e-001
      -5.3895270092069003e-001 -8.2598426132239977e-001
      -2.9398193662804206e-001 2.0042274917376285e-001
      6.1384683698628692e-002 -1.8583767046648084e-001
      2.1607632657684064e-001 -1.4018355464488449e-001
      -3.5765648286315455e-001 -1.2333248992378316e+000
      2.8801543236449727e+000 3.2620360876582749e-001
      3.4874608839545701e-001 -2.1472172964572964e-001
      2.5927158049706156e-001 -7.3109116560655030e-001
      -2.5781628723605776e-001 -4.2566476393165681e-001
      -2.5411667357903189e-001 4.5731405317978363e-001
      1.6947890246751188e-001 1.0926235144521170e+000
      3.1082635098885936e-001 -2.3869963956722018e-001
      8.5844605556611261e-002 8.3033326497062160e-002
      5.7158752448342905e-002 1.1589851564185512e-001
      2.2991771395435148e-002 2.2042078199334789e-001
      -3.8456991128825835e-001 5.8431697729659539e-002
      3.1657999966979711e-001 -3.8366199364874043e-001
      7.3907470430606734e-002 -4.9002090864093317e-001
      -6.5812688914671305e-002 3.0493548915348445e-001
      -7.2786369831864442e-002 -3.3432144614310211e-001
      -1.1767831248879799e+000 8.5272579841631529e-002
      -3.1953407335680195e-002 6.9952941407077995e-001
      1.4487533446341250e-001 2.2459171479694447e-002
      3.4219025588462249e-001 2.8842339645620396e-001
      -1.7572899722508334e-001 -1.4520945231982594e+000
      1.1631966595570313e+001 1.9306971150330465e-001
      4.3642585042048593e-001 6.3131849112945027e-001
      2.9831290275082872e-001 -4.3302760713820149e-001
      3.9582302317007484e-001 -2.2959297231907552e-001
      -2.2584960948615274e-001 6.4249044980037162e-001
      -1.0734964152970715e-001 -9.8289005712526190e-002
      -1.3557457378293340e-002 -3.1585967952623006e-001
      -1.3516676475986106e-001 -3.2108595681835606e-001
      6.3536104960616779e-001 -2.0990622734554615e-001
      2.8123567922067311e-001 -5.7916461391873020e-001
      4.1869979041472627e-001 -4.6139839100229840e-001
      2.6697125175094277e-001 5.5282559189042546e-001
      -5.4607117248296244e-001 -2.2950251552207709e-001
      5.0754221236575925e-001 2.4876383589495404e-001
      2.4653304284507649e-001 -8.8404232459400034e-001
      7.6272076935590627e-001 -8.2008689024986300e-002
      6.5619123072778685e-001 -8.5872441174888389e-002
      -6.0374247708804452e-001 -1.6243378133572753e-001
      -5.7960586515341916e-001 -3.6793786025881642e-001
      -4.3235013087093949e-001 -3.2767669267022059e-001
      3.7699913201716209e+000 -1.9423450791178917e-001
      1.6738261592473563e-001 -6.2976486451419025e-002
      4.9976834723694402e-001 -5.9012688574976524e-001
      6.5682466017740271e-001 -9.9449223796609110e-001
      2.7559099005062493e-001 7.7394704990976093e-001
      -5.0836121483018837e-001 -8.5528745572055609e-001
      -1.2999926434783388e-001 4.2281642021847488e-001
      1.8478670992855692e-001 -6.1119973081124457e-001
      1.2846604960209299e-001 1.8314930356542863e-001
      2.7935333303028359e-001 -1.1065179615762568e+000
      -7.2413994432971697e-003 -1.8497209408839371e-001
      -5.0668456881902413e-001 5.6194711959771571e-001
      -5.1300297312252852e-001 -1.1429849494923412e-001
      6.4326216417182913e-001 -5.3030916634917408e-002
      -5.4901967040190389e-002 -2.9582649105881775e-001
      2.1874898192877609e-001 6.0685571547721118e-001
      -8.7226311592768821e-002 -9.9937264270644854e-001
      1.7443061994799894e-001 4.8433853555148537e-001
      -5.0361225945885768e-001 5.2360043107028897e-001
      -3.2682931942115373e-001 7.1869448734936836e-002
      3.2612172787763489e+000 1.7953982107503899e-001
      5.5596644807664675e-001 7.5823715369858136e-001
      2.3309152163868888e-001 3.7490259183756935e-001
      -2.6465678835296273e-002 2.7889433656087431e-001
      1.2900308977271154e-002 2.5593526387356225e-001
      6.7301384531964631e-002 -5.7961276227124015e-001
      3.7740287934886857e-001 8.4514971202396039e-001
      8.5498400353740414e-002 -3.8510639157788568e-001
      3.9717907195630890e-003 5.4807775553586924e-001
      -2.1938489061633684e-001 4.9766478498685129e-001
      1.5183935938027327e-002 -2.2889706158873779e-001
      -6.5958383018047717e-001 1.7958433597253587e-001
      -9.5869063190674078e-002 4.1383606304213499e-001
      7.4662699556803991e-002 1.2274613205908542e+000
      5.1990216862837757e-001 7.7528522898851673e-003
      1.8080513590025926e-001 4.3447024909429410e-001
      3.9402839135346929e-001 -7.1160746274160369e-001
      -2.2316112071685351e-001 1.2368299266507257e-001
      -3.3202854045704494e-001 5.8935517250759240e-001
      -2.0124395882762769e-001 1.3100204244562866e-001
      2.3861748413885224e+000 -1.0402914404737293e+000
      8.5431939575389582e-001 -2.6760485627892477e-001
      -1.5919687196197064e-002 5.9489033168422401e-001
      2.1070142663144692e-001 -1.4068788316201751e-002
      -1.6557116584678039e-002 -2.7541624169538670e-001
      1.1800497770286043e+000 -3.1437262203006711e-001
      4.5811439949434130e-001 8.7596758207748571e-001
      2.0437353360134650e-001 -6.7880125464094318e-002
      -3.4450941995753170e-001 -7.4180956233185394e-002
      8.3175193635186773e-002 3.8329966007070976e-001
      -1.8448084630219083e-001 -3.0254797277252687e-001
      -1.9787271660612840e-001 -1.5854302609181820e-001
      1.6900011032817960e-001 2.3773092025938497e-001
      6.8610833139691219e-001 5.8045081951997446e-001
      1.3313779597974981e-001 -3.8685181204247486e-002
      -2.0329585774389611e-001 4.7934355719134125e-001
      -3.7490193636621616e-001 4.2165145398212561e-001
      1.4374018646920092e-001 4.3951241474949698e-001
      -6.4688780320570682e-002 3.0831630385076020e-001
      -3.5206522451595784e-001 -2.7158720201792996e-001
      -3.0758611364277106e+000 1.4299578358617332e-001
      3.1850972538936845e-001 -1.2769601267592370e-001
      2.8026386160810480e-002 -3.3197689747155518e-001
      -4.1228923762391144e-002 -2.7486327023785910e-003
      1.6826479677510639e-001 -4.8578301624539066e-001
      -1.5912873784821535e-001 -2.4816018545167279e-001
      1.8078618194722210e-001 9.1391723511374989e-001
      -1.1143301217903465e-001 1.0615617971867408e+000
      1.7787654462463814e-001 6.9791198854383785e-001
      2.3308341675069025e-001 1.2286983176311740e-001
      -4.3670056424023329e-002 3.4404500343123895e-001
      -1.2215305042522098e+000 -2.4263609377240658e-001
      2.9212024705817674e-001 4.1809617241686520e-001
      4.9527455198411574e-001 3.6322206561018561e-001
      -6.4158600831340562e-001 2.4564805921831659e-001
      -5.2336072596936145e-001 -3.4366638035289854e-001
      1.6782696300063724e-001 -7.0755060180204665e-001
      -4.5857979965857931e-001 -4.1821679122097083e-001
      -1.9437238581363117e-001 -1.4016318860279403e-001
      -6.4019188573668484e-001 1.7909262719858690e-001
      -1.1249729773672079e+000 -7.0819735495640662e-002
      -7.6063600854265490e-001 -8.5740382899464052e-001
      -4.0581654656213467e-001 3.3835709543573472e-001
      -6.0273334089631370e-001 2.7546350754140675e-001
      7.5677997097636521e-002 1.5007746663998342e-001
      -3.6632356758348854e-002 -3.1292227721518745e-001
      3.0592321878348305e-001 8.4623658717782624e-001
      2.8898084330312861e-002 1.7713640861464758e-001
      -2.6335638288349017e-001 9.1294742681110508e-001
      3.2831080498334206e-002 -4.5196813392909746e-001
      4.4762166135988268e-002 -1.6297006887905023e-002
      -4.4834318470127865e-001 -7.4532959627515449e-001
      -2.5041278194254005e-002 1.8459968776598601e-001
      -3.0670198122967413e-001 -4.6158394384285184e-001
      -3.6776000198206987e-001 -2.1578565162508803e-001
      -4.2033439172894360e-001 8.8987271159509052e-002
      4.8906789456286970e-001 6.5099236125616822e-001
      -3.3461714533751508e-001 -2.4151255654844828e-002
      7.5838694605748669e-001 3.3168121643609638e-001
      -6.1832091148095658e-001 2.0987291415262860e-001
      -8.3398187048990968e-001 -2.7637505845178922e-001
      -7.1148350536409710e-001 -9.0516617352743564e-002
      2.6070378169869035e-001 -3.8504433781587936e-003
      -2.8757953447364260e-001 -4.7801562160594291e-001
      1.3890893266248447e-001 1.2548478673693170e-001
      -9.1821817967370795e-002 -6.8678001181051418e-001
      -9.6391546284294652e-002 1.9702089062420880e-001
      1.1059777202132265e-001 -3.2611371081915080e-001
      4.5256463121933363e-002 3.6416515347274375e-001
      -1.2900149136026184e-001 -2.2035767897989941e-001
      1.8852285705754174e-001 5.6161481623413956e-001
      -5.9870009430000504e-001 -4.7801562127282156e-002
      -4.2556009848195642e-001 -6.4723042670526720e-001
      -6.9276612754601351e-004 -5.9476688410787737e-001
      -6.5403986923045743e-001 -6.8654219952248963e-001
      5.2359713549333914e-002 2.7411536213971310e-001
      -1.0317546847781578e+000 -2.5365992310086686e-002
      3.3102830944205780e-001 -3.8062389145719210e-002
      -3.3980233723462386e-002 2.4288415821725082e-001
      -4.3592707007733927e-001 -8.5043344492150919e-001
      1.0326586411913811e-001 -4.4300754904820894e-001
      -7.2927707257874175e-001 1.2990514142677723e-001
      2.9760511983127458e-001 -1.0072388630940039e-001
      -6.4041622830841263e-002 -1.4376919145939926e-001
      2.4892776814876577e-001 6.3627787337833674e-001
      -1.3517135070744102e-001 -3.6781206478909957e-002
      -5.1828958335803610e-001 1.3401338801131115e-002
      1.5435082800204125e-001 -1.3196051526839744e-001
      -1.1866966091507108e-001 -3.9036489432071897e-001
      -1.6172652269057403e-001 4.5295463281086767e-001
      -3.8035377424177458e-001 4.7037464537514384e-001
      -1.3321020368321840e-001 -7.3933202979449414e-002
      -1.0255932348539776e+000 3.4764071780614719e-001
      7.7384705825267330e-001 -1.2428366481108890e+000
      -3.5402464745274859e-001 -6.1241097512679032e-002
      -7.0005837578749797e-001 -2.2986711868796877e-001
      -8.6438460164586661e-001 -2.0470888390100556e-001
      3.5789271925154426e-001 2.9328977765371317e-001
      -5.6873401797697128e-002 3.0893787325392724e-001
      -2.3719465832039283e-001 1.3973320284398283e-001
      -4.8911655383330128e+000 1.0965993967224782e-001
      -2.9140739662466852e-001 7.6035506446163817e-002
      2.8936988635746652e-001 2.0860050869730168e-001
      -1.5276831918187078e-001 6.8338577669141054e-001
      8.4183874137996495e-002 9.4335085074807090e-002
      -2.6449043976804695e-002 6.3704058543050834e-001
      -7.1305204179461834e-001 -5.0948876154414763e-002
      2.8116176114344082e-001 3.7287520955978298e-001
      6.9983117769665948e-001 1.1611949647508977e+000
      -5.3147779061880351e-001 8.9399258735146647e-001
      1.0476754993466858e-001 3.8479222370587263e-001
      7.2639551998542695e-001 -2.4198940673210209e-001
      -1.8211017878564451e-001 1.5751252545794026e-001
      2.1076813155951990e-001 -1.0152514276033107e+000
      8.6891770821434522e-001 1.4598731518617955e-001
      2.8954448165508662e-001 -6.6029880320521359e-003
      -3.2307693444661938e-002 2.6545822207420727e-001
      2.5678921040426761e-001 -1.0048986577072694e+000
      -6.1877010607016480e-003 2.8907760982655295e-001
      6.6712860330272183e-001 4.4970861819385000e-001
      -4.9819716334498301e+000 2.0707832581651617e-001
      -5.6760619513864896e-001 5.7699358945653190e-001
      -3.9837121248732810e-001 3.7627286686197287e-001
      -4.3124387518300838e-001 -2.9413601530133782e-001
      -1.0645752732409819e-001 6.1380996161278711e-001
      -6.9069662035695722e-001 1.3363805265598896e-001
      -2.6718821815905142e-001 4.9206973574752777e-001
      1.2626864479345062e-001 3.4627606520041182e-001
      -4.9921168008568528e-001 1.0324700707241203e+000
      -3.3111200599619051e-001 3.3129555030493435e-001
      1.1347203813809058e-002 -1.0943317334781507e-002
      4.2613656655744825e-001 -2.6341609590681281e-001
      -7.3669031365025284e-002 1.4700718036127675e-001
      -1.0500133333083062e+000 -1.0156166510098530e+000
      3.5916196557710467e-001 -7.4235342930428905e-001
      -7.7546542817456576e-001 2.4455995369839011e-002
      1.1578710096311193e-001 7.1831505718545174e-001
      3.6252592115677751e-001 -1.3223657049647863e-001
      2.6939176792254799e-001 5.6859264597152182e-001
      7.2892230384440468e-002 1.3326499356261328e+000
      -2.1053536311867806e+000 6.3471435289832689e-001
      -9.5091911793061645e-001 -2.1496201877598244e-002
      -8.0589432807368766e-001 -2.5218291803168091e-001
      -4.6963151361076905e-001 -3.6524794013548117e-001
      1.5274665406510496e-001 3.6551749333946371e-001
      2.1200586003056746e-001 -4.7132377714659951e-001
      -3.6957050528650343e-001 -4.3872717938873962e-001
      3.2264983885673872e-002 -5.0271180750551803e-001
      -1.2711903947621531e-001 -6.2043057787041123e-001
      1.0430842568434835e-001 2.5901501718677505e-001
      -6.4486274038998592e-002 3.6052128682111451e-001
      3.7969774384000771e-001 -6.9014912479406487e-001
      -3.8664415200422986e-001 -6.2553514566646998e-002
      -1.3189379957981557e+000 3.3859290356643129e-001
      -5.5835994317531512e-001 -1.4223344004886074e-001
      4.9813479080325956e-001 1.0121479893271106e-001
      -4.3704580124186926e-001 -2.0385910225713424e-001
      4.9282343313693311e-001 -1.6677906380132004e-001
      1.6510193168429124e-001 4.4357467120674759e-001
      -2.5452266711530241e-001 5.5553516802949143e-001
      1.3735105360515771e+000 -3.9325234654777841e-001
      -4.2179981006241650e-003 -4.1247660203705988e-002
      -8.1059834963407473e-001 -5.7687344031329268e-001
      -8.2582185720884116e-001 9.2534942574256443e-002
      -3.6821292821997342e-001 2.1954736790039125e-001
      1.6077793787078284e-001 -7.9192477356882329e-001
      -2.9053512229357398e-001 -4.8298260613208815e-001
      1.6521553189857852e-001 -2.0651535686957756e-001
      4.0447134996839262e-001 -9.2002596748458329e-002
      -1.0399854054791327e-001 -1.6545918530105222e-001
      5.8906693123195120e-001 8.2148264011428596e-001
      4.8004073911459312e-002 -6.0728005241207594e-001
      3.1807521809603573e-001 -2.1820980118744332e-001
      -1.5170971713105281e+000 7.9842894796771013e-001
      -4.7298513751172838e-001 -4.0760521139680939e-001
      5.3827531713013077e-001 2.4008261203431336e-001
      -3.8793019042430926e-001 3.8068320528140337e-001
      5.1172979078494896e-001 2.0378614582851518e-001
      -2.1088428485378721e-001 1.3519713217583668e-001
      -7.9998443032719677e-002 -3.2774156200756921e-001
      4.2682651071269078e+000 -4.5813604425512788e-001
      -5.6772508116751186e-001 -3.4578982247782786e-001
      -1.4348929333098873e-001 2.4316974984399728e-001
      -2.9814479322466836e-001 2.2320684775423721e-001
      1.9679997112649804e-002 3.5974264052631222e-001
      -6.6406831207202899e-001 -3.5699656366030413e-001
      -6.4240161332634893e-001 8.4742141087664291e-001
      2.8568749966566764e-001 1.9990979489344571e-001
      8.1117908702683691e-002 2.4794446281880766e-002
      1.0161581447682612e-001 2.2384442547953620e-001
      -6.6306530593264815e-002 3.7497309486677821e-001
      4.4515763150466886e-001 7.4339227365455868e-002
      -4.4796889573807286e-001 7.5328834397529798e-002
      -8.9050767270919251e-001 6.0193851580108260e-001
      -3.5523761571294377e-001 -2.5180665118788037e-001
      2.8262348582366797e-001 3.3049138810887935e-001
      3.2781995732178182e-001 8.0751737687172559e-002
      8.0768053865756029e-002 -1.4777686840292784e-001
      -4.5751143311490078e-001 2.1365998778346870e-001
      4.9696698278229645e-001 -2.9352425879463928e-001
      -1.7913216758035597e+000 9.2506295119005127e-002
      -1.2177583667241054e-001 -1.7818752689464482e-001
      -3.5265204600534378e-001 -3.2259135163303204e-001
      -3.4201969894615841e-001 6.5231041099602011e-002
      -1.4610593723692150e-001 4.0730923890806031e-001
      3.9294138231442705e-002 3.1826096587212593e-001
      6.3035128890763514e-001 -6.8969386122444154e-001
      3.4951550463089283e+000 8.3986933594602131e-002
      -8.7111659517297102e-002 2.7062275140325864e-001
      -3.1691871570803616e-002 7.3876457655487027e-001
      -3.5375496262764722e-001 -1.3043846205523625e-002
      -2.1070628797123844e-001 -1.0910017375075874e-001
      2.6251312310068931e-001 -8.8870604032362577e-002
      4.6746982626294720e-001 -4.3944615929159303e-001
      9.9436123659860848e-002 5.8414572067171499e-003
      -7.3408982488757790e-001 -1.6286040226698684e-001
      6.2583631898480108e-001 1.2908512617828107e+000
      -1.5841678222995800e-001 4.9585697396796122e-002
      -6.9575482584620887e-002 -2.3159160183155780e-001
      -1.7479102823125728e-001 -9.5420728741780342e-002
      -3.0508422950221867e+001 -4.1491260908034200e-001
      -4.3909735279919831e-001 4.9880778586970304e-001
      -6.0291536684062272e-002 2.3563660324883165e-001
      -3.1563281755940575e-001 4.9986907445333878e-001
      -4.6689029473132915e-001 -2.4393530433718538e-001
      -3.7563483668583553e-001 3.0891542132609051e-001
      -2.7997051454979627e-001 -4.7105766658812276e-001
      6.8236878503655407e-001 5.0331611836141252e-003
      7.2706648677902430e-001 5.7275911241987842e-001
      -2.9820355514597702e-001 5.5804516180270514e-001
      -1.2962874388701591e+000 4.1175720650626135e-001
      2.3567339449211086e-001 2.9588533135748868e-001
      -4.0142500742674153e-001 -3.5906668223924182e-001
      9.3287199346068175e-002 -5.4087386197853726e-001
      -1.1345702019194596e-002 4.9915473000113919e-001
      1.8790698726826141e+000 -3.0219317673233470e-001
      -4.9767230728836925e-001 4.7094167989073171e-001
      -3.2964360439646817e-001 2.9693846369229143e-001
      6.7128274934194643e-001 2.4568106897470851e-001
      -2.0110407226764354e-001 -3.6984427113128049e-001
      -2.1859701685746121e+001 -9.4618560516547642e-002
      7.4202873849204667e-002 7.1448530581413672e-001
      -4.3803184380000769e-002 3.6712412935229255e-002
      7.1588542880901151e-001 -6.9062134404055509e-002
      3.1012457096675672e-001 -1.7030529327906088e+000
      -1.0214514032169184e+000 4.9926227345750022e-002
      -8.9376365858893336e-001 -6.9018428344724669e-001
      6.0364624342271467e-002 8.5760105646119089e-001
      1.8705157406457573e+000 -1.0842534804058750e+000
      -3.8576413437639867e-001 -1.0349560385084824e+000
      -9.6568363878574714e-001 4.8722288449312579e-001
      1.5062364498998715e+000 6.2167121574111184e-001
      -7.8416851318109784e-002 -3.8968178351216898e-001
      2.6190765328665944e-001 -8.2171291201435705e-003
      -1.2111533856831123e+000 -2.0936168019470536e-001
      4.2371895418440824e+000 -2.5718615975288911e-001
      -4.1416564291988797e-002 8.3112509114700350e-001
      -5.8885115953892675e-001 -1.7480114289987898e+000
      1.5855313313783745e+000 -8.3901461083488260e-001
      1.3973972084005715e+000 1.2258706073591916e-001
      -3.0840444827970970e+000 -5.3364646055017013e-002
      2.5695760165793174e-001 -6.9764634649518298e-001
      -5.3451049434436848e-001 -3.6168934100792516e-001
      3.5732769698855060e-001 -3.7203830544444955e-001
      -5.8466785172722213e-001 -2.0520278422856637e+000
      -3.1413477264958367e-001 1.9053682499174474e-001
      -1.6135924070018601e+000 1.9779118271080354e-001
      2.4519783295523626e-001 1.8747883092653045e-001
      1.7254075992523008e+000 -1.6502498430713255e+000
      -1.4462813777852582e-001 -2.7552679630470872e-001
      -1.3656036327493164e+000 1.0896874710548250e+000
      -1.6302031081851787e-001 3.6142155417934535e-001
      -4.1646006771228444e-001 -9.3050063730997293e-002
      8.8429989014356225e-001 2.7449812642850857e-001
      3.1309842920749947e-001 7.2542564327698145e-001
      3.2168038943925814e+000 5.2786387233434051e-001
      -1.4985938295683904e-001 -4.0036226954472554e-001
      -6.3868320326877587e-002 -1.8183412204294176e+000
      -1.8143656630183988e-001 -1.6220799351874038e+000
      3.7036466976843396e-001 -1.6798662907897718e-001
      1.2825849287272566e+001 5.2034913340495252e-002
      -1.2131251631626763e+000 -3.1837434201715209e+000
      9.5509224924390790e-001 -3.2132637186129499e-002
      -1.1369898403964360e+000 -5.0395827654748715e-001
      -3.9654488329907055e-002 1.9422092688671033e-001
      -2.0646214903442048e-001 -7.3886287966343722e-001
      -1.6450683156682879e+000 1.7553254151432502e+000
      -1.1258111702664225e-001 -4.3592299746012891e-001
      1.2626007158833930e-001 3.8821917727568912e-002
      6.3111759313825333e-001 5.4389454453414554e-001
      -1.2183665553139449e+000 1.2623925704807801e+000
      -1.5862496084113986e+000 -9.9593180777227863e-001
      3.3425175507888466e-001 1.2888155279837868e-001
      2.7095666801663998e-001 -4.6935028390933392e-001
      2.6989974460403294e+000 1.8196300289002634e+000
      -5.6853757604581512e-001 7.8155438616424211e-001
      -1.4446691459232526e-002 -7.7747291089893267e-001
      1.8469620843357035e-001 -1.2208933279194130e-001
      -2.8459791429414940e+000 6.2266365538211343e-001
      4.3403224204617152e-001 1.0585451807983493e+000
      1.5940275526561766e+001 1.4435096585632603e+000
      -3.7472990868103395e-001 -1.0661748462310241e+000
      -5.6949588307665877e-001 2.5833698356272881e-002
      2.4656022776866959e-001 1.2612203967712363e+000
      1.6086612861639585e-001 4.1554271393367551e-002
      -9.0688178697677369e-002 -7.8284499958565212e-001
      3.0534391068333799e-001 3.2718333423337537e-001
      -1.1261712449316694e-001 -1.2967327194644098e+000
      2.0448339079046898e-001 -7.5254011683565236e-001
      -1.8690263523238052e-001 3.5050786951525198e-001
      -9.4116187387225769e-001 -5.8007808221874690e-001
      -9.1815751101806942e-001 -1.8746982936139067e+000
      1.8083678542231349e-001 6.2230420233079708e-001
      -1.1562899304448178e-002 2.8856295099099660e-001
      1.4121511051833338e+000 1.4413793175328831e+000
      -5.6395187820993120e-001 1.4278455265524326e+000
      -4.2215243101791572e-001 -1.7589015992056656e+000
      2.5961237266110820e-001 1.0714101080812497e+000
      -1.5316568179262615e+000 8.0124915640286953e-001
      8.2781524683217533e-002 1.1987885526151991e+000
      -7.2301164747730038e+000 -3.2347262898517742e-001
      8.6400707917747310e-001 1.4757511906671126e+000
      -3.8195644139766799e-001 -6.4604875328884273e-002
      1.7318908617772681e+000 2.2791679868047859e-001
      6.8884550659199295e-001 4.3980191471390168e-001
      8.1927611040614204e-002 -1.5600312940867229e+000
      1.0328510747257102e+000 -6.3272862427815002e-001
      1.9652489904493231e-001 -6.0586024964721963e-001
      9.6263164272975400e-005 -1.6717186129683697e+000
      -5.3490119818098214e-001 -4.2579900987893987e-001
      1.8157203230683552e-002 -3.5739280560886927e-001
      1.3951973208181705e+000 5.7470056275450254e-001
      -1.0340672687526467e+000 -9.0713200686572004e-001
      -9.0128344656331372e-001 -8.4725540420264159e-002
      8.0772350573322349e-001 6.9749688090031037e-001
      3.6916282630117116e-003 1.6177239061908213e-001
      3.0874285854192396e-001 -3.2888058203709947e-001
      -5.3923552552798604e-001 -3.4596965351753756e-001
      9.9172160068712822e-001 -1.4346385874688408e+000
      2.1644313640667451e-001 -1.6316614056448284e-001
      -2.3925419498947868e+001 -1.0590361642990416e+000
      8.8046952498483411e-001 1.3767691951539855e+000
      1.9437973846325440e-001 8.3484177156939687e-001
      6.5438369381912287e-001 5.1383925016944088e-001
      5.3898297386518002e-001 6.2853815882937514e-001
      6.2848270766523578e-002 -1.2435069913836534e+000
      8.8128838166020407e-001 -1.8377295772051785e-001
      2.1118472754150683e-001 2.8669060725386625e-002
      -8.6817366662546436e-001 -8.3056040988248336e-001
      -1.7652587828260227e-001 -6.6956925981591142e-002
      -9.4894585336179360e-001 1.3852507934571061e+000
      1.1762293345304742e+000 7.8520881171980228e-001
      -1.1225903536379798e-001 -1.0081676363573835e+000
      -7.0889888942315793e-001 4.3251665119956040e-001
      -4.4518630124838399e-001 -4.0967894117372933e-001
      1.0418878488020096e-001 -1.9343892360879672e-001
      -4.9732681285424551e-001 1.0859424765162362e+000
      -1.1349094466282497e+000 9.9502432620053233e-002
      1.0967474833189164e+000 -1.0769176798629516e+000
      6.9480376464760363e-001 1.3742555302340226e-001
      -2.5463630175800795e+001 -4.5628617615913014e-001
      6.2010998673590265e-002 9.1303775324596359e-001
      1.4088552973382507e-001 9.4588525369705606e-002
      3.6559449840840275e-001 5.1211211053100190e-002
      2.8618224240298967e-001 3.0001290840567524e-001
      3.0353823096564853e-001 -4.2062628569394833e-001
      1.1155510282294182e-001 -6.4647510408143660e-001
      8.2963936645804134e-002 7.1498310234677731e-001
      -3.6229366504928806e-001 -4.3337847688695974e-001
      5.9325591905526165e-001 -6.4126322393670643e-001
      -1.2221380393809715e-001 5.0833304527376326e-002
      1.4961235369159467e+000 2.4238966548289664e-001
      -8.2932436181494007e-001 5.1662477078519775e-001
      -5.4005734188134680e-001 -3.4056500633704495e-001
      3.1054447343997627e-001 -6.1948390879843163e-002
      7.6557373728493916e-001 -1.0887281786376828e-001
      5.5101084373697307e-001 2.2413674948721765e-001
      -4.2235133236078498e-001 6.1366190432415806e-002
      3.3302908855604935e-001 -7.4117085831607765e-001
      3.4112329732180813e-001 -5.1668788792759524e-001
      -7.4227548683947431e+000 -4.3138265506670720e-001
      -3.7000968755871005e-001 -1.5333160267021522e+000
      3.8903319569297345e-001 -2.8852661182019734e-001
      7.9375524372132666e-001 -2.2550394097060855e-001
      3.6382685111665680e-001 -6.4677307477531853e-001
      2.8307594384455324e-002 -1.8068953419896852e-002
      -5.6709483607971893e-002 -5.2163293682751688e-002
      1.3511519844170919e-001 2.2068194169596356e-001
      2.0603062613797229e-001 -4.6020176603954904e-001
      1.4728709442274229e-001 1.7587944165148056e-001
      1.2208699793777604e+000 1.9455211510834118e-002
      8.5433580182243374e-001 3.0834982269560629e-001
      -1.9724273272168050e-001 1.6526236453446383e+000
      4.0797702483036086e-001 4.8082983214410158e-001
      2.5454437856516593e-001 -2.6797000474814703e-001
      7.2487343279702032e-001 -1.8394132495972509e-001
      -8.3914388520869121e-001 1.5359639735708061e-001
      2.3669713312132215e-001 -5.1525369003294919e-001
      9.7461943489381940e-003 -2.2085579745928127e-001
      -4.3359598476215799e-001 -1.3328486040993990e+000
      -6.1348243320982148e+000 1.9739754633344481e-001
      -2.9535921772500534e-001 -1.4320779817893254e-002
      1.1209693028290518e-001 -4.0358635648991054e-001
      8.8611730108748912e-002 -8.5408737315909311e-001
      -6.2588135519950538e-001 6.0740188273556228e-001
      1.2675409665200046e-001 5.1924964168291310e-001
      5.6413230956439586e-001 -1.7356866600077818e+000
      2.8928730851107805e+000 -7.6105033653811743e-003
      -3.1624676516027561e-001 2.0401514277215241e-001
      -4.2053521418903478e-002 6.0387817652982656e-001
      -2.3390068519436602e-001 2.7685503455445509e-001
      -3.9137888863241210e-001 -3.6095115863279115e-001
      1.4917933129046498e-001 3.2367264123973938e-001
      1.9815042740588279e-001 -9.3972166586833550e-001
      -3.4014113037117176e-002 -2.2962646737250342e-001
      -2.8206464989047653e-002 -1.2182446970834132e-001
      -2.8615197964208350e-001 -8.7494279842482564e-002
      -1.4886987298640320e-002 5.6217160100004782e-001
      -4.7297666899913898e-001 1.1831857665453771e-001
      -4.1877765303427722e-001 -2.5927967336933205e-001
      -3.6852686316042089e+001 2.3774577344661665e-001
      2.0535816667371007e-001 -6.4041583723973594e-001
      -3.4757913667535967e-001 2.2271316759021503e-001
      -4.0674249113373244e-002 -4.7652979645910515e-001
      -3.0931526220884042e-001 -1.0028189433792962e+000
      6.4951623793386218e-003 -1.7541894444970682e-001
      -2.8846218653632033e-001 3.6408466669581008e-001
      -2.4083792246709538e-002 4.8753441848271978e-001
      4.8223578794438110e-001 -6.5934391421158656e-001
      -5.9669919287941353e-001 8.5431374779060432e-001
      2.5538324298889542e-001 5.8076277759235739e-001
      -3.6280116213968322e-001 5.0432785898858579e-001
      9.2972073670487279e-002 5.0915068887757375e-001
      2.9065810103239165e-001 -4.0453777723261980e-001
      -4.7509832859372492e-002 7.2163248019580947e-002
      2.0273100831947646e-001 -6.9376631505341002e-001
      2.5893528974398838e-001 9.7114717438909248e-001
      -3.0378442904551473e-001 1.4855304214217610e-001
      -2.5936858861244371e-002 4.5445052853781598e-001
      1.6964140738343189e-001 -2.6582857568489149e-001
      -1.1625003248619782e+001 2.8214579130126767e-002
      2.4983856238308721e-001 -1.4754555596438992e-001
      3.9243897442566489e-001 4.6996484340568556e-001
      1.1961019810437835e-001 -2.5450698173409303e-001
      -1.2195357137288022e-001 -8.5865847832325526e-001
      -4.8794659700019000e-001 -7.3325277354121809e-001
      4.6191239491344832e-001 -1.1088583880646065e-001
      2.1320670931309643e-001 -5.7263837044230226e-001
      2.4818397863493366e-001 -6.5503254944511757e-001
      -3.3581933269632436e-002 -6.7995456849267821e-001
      -3.0157351752168132e-001 5.8842251627104281e-001
      -7.4308964395796362e-001 5.6590507105296806e-001
      6.1568346314328204e-001 3.9993604633842411e-001
      -1.1014797740255865e-001 7.7237040561109294e-001
      6.3667625557678842e-001 4.8419989213964759e-001
      1.6697430666427850e+000 -8.1446296762932302e-002
      -5.4419646775290298e-001 8.9297994010152804e-001
      6.2946358240562061e-001 -2.2963883398157012e-001
      6.6390324166973258e-001 6.3431500714249156e-001
      3.2999972792720206e-001 5.1508461576673970e-001
      1.1485205735670764e+001 -2.9040334996186495e-001
      -4.7522880032850950e-001 -2.1628486214203624e-001
      -1.2463658809258253e-001 -2.9359802189957457e-001
      1.0237658404718128e+000 -1.0748309628838169e+000
      -1.5825928661604600e-002 9.8272294870186538e-001
      -5.0243759189429160e-001 -1.5604256547044559e-001
      5.1761253841968946e-001 7.5789123807205838e-001
      1.9470168900043119e-002 -2.0878930911432594e-001
      8.5871573674709351e-002 -6.9780777763243396e-001
      2.8016901247196513e-001 -4.6425039808925578e-001
      4.3472135864149947e-001 1.3769006686871026e+000
      -5.7908068849477312e-001 1.8429127269747740e+000
      3.4774804122421893e-001 -2.8578093088049611e-001
      3.8076371332206115e-002 5.8969478155927380e-001
      6.1714323356973555e-001 -4.4486452837456719e-001
      3.5845480059084295e-001 5.0081642619854827e-001
      -2.9622973912097772e-001 2.2497472637102930e-003
      1.4336057226077309e-001 6.3436079476677765e-001
      -1.8540791959021066e-001 -1.1328466208726924e-001
      9.6785177720474325e-001 -3.0829798160071831e-001
      6.7900354293809373e-001 6.6702137103246206e-001
      -6.1517372001290804e-001 1.3475227315696357e-002
      -5.2163920377743722e-001 1.0999147385795942e-001
      2.7624399952197626e-001 -2.3523293677816320e-001
      -5.0878582681811869e-002 -5.4626531387481758e-001
      -4.1734010757181739e-001 -8.5917712889861431e-001
      2.7381855468416372e-001 -2.6454028890927167e-001
      1.8793398353599317e-001 -9.8865185729253258e-001
      8.0588796767400517e-001 -5.2959359152558150e-001
      -1.2461237963018604e-001 -2.4458778278675855e-001
      -7.7953028270241606e-003 9.2118640332233948e-001
      -5.3777841893027584e-003 1.3769856811595318e+000
      -9.4978969083840648e-001 1.8655503202716077e-002
      -1.9461005973125771e+000 -3.2773231803729808e-001
      3.8478877182879140e-001 8.6231618286906730e-001
      5.5941662904208045e-001 -1.4857468720901110e-001
      -2.3920674053265883e-001 5.8945156727848314e-001
      -4.9256013921829978e-001 1.6907490739025557e-001
      -4.5766991891595488e-001 -4.2532290230295078e-001
      -1.8571198872615599e-001 1.3629145283316064e+000
      2.2263162725030559e+000 -4.6879158210935690e-001
      -1.7086006421334193e-001 3.4378069606453643e-001
      -4.7979650872082158e-001 -3.2996029874946381e-001
      1.9999320821499361e-001 1.8495328767885322e+000
      2.1988072383553402e-002 -2.0889396457855489e+000
      3.6613388410455067e-001 -4.9839651483942093e-001
      -5.3625224574779889e-002 -3.8482818761540860e-001
      2.3476693110462904e-001 -7.8614094376663357e-001
      4.0292958890610614e-001 -4.6154540654124832e-002
      -7.1011814152716413e-001 -6.6964277032086988e-002
      4.3794270296463572e-002 -1.9374392282027081e-001
      -7.2193602526431111e-001 -9.8143074667818475e-001
      -4.5408668859080931e-001 7.0941765673834922e-001
      1.5453094651927074e-001 8.2551217185705947e-002
      7.5514269431906489e-001 1.2912394498384341e+000
      2.6993280903358943e+000 -4.3132727247404484e-001
      5.0105680375269990e-001 -2.0583168393382328e-001
      -1.9174943316353851e-001 -6.9730336861666631e-001
      -1.2277634823568458e-001 -2.3751831508161739e-001
      -3.7612894615209030e-002 6.8900021681264778e-001
      2.4129997885222996e+000 -3.0695418586605863e-002
      -2.5965462157264063e-001 6.5466727087345356e-001
      -2.4784354990530116e-001 -1.2926677830850655e+000
      1.2307714067693882e+000 -4.3391900059779487e-001
      3.7000330815825283e-001 1.5774569378080333e-001
      -7.4505131607354624e-001 1.6369005979166549e+000
      -1.5166762041882602e+000 -9.0971872670056531e-001
      2.4954469103710142e-001 1.2770603612037088e+000
      6.1242461378143143e-001 -1.0110915517930570e+000
      -4.2925709799465644e-001 -3.3751709515866946e-001
      5.7997351544023787e-002 -1.0995133926147704e+000
      -3.3983008063304238e-001 -1.5576817598646873e+000
      8.6949896027736806e-001 -3.0235831499754751e-001
      3.2164731887768383e-001 1.4686466892336236e-001
      9.7765660983571612e-001 -7.0541175676401013e-001
      -1.4906124358436634e+000 -8.7339569566520703e-001
      -2.2600435706562683e-001 -8.2395831153188515e-001
      -2.6983603551362317e-001 -1.7735504609105162e+000
      9.7024592626485318e-001 -6.5302181789700953e-001
      3.4281337522692634e-001 -4.0147705992289706e-001
      -1.8154363535326997e+001 -1.3521897692186149e+000
      -2.3515211361370850e-001 -1.5353499627765677e-001
      -1.1416149218728307e-001 -9.1119249572871841e-001
      9.9816482204892720e-001 -9.7293798215433047e-001
      3.7503576552663359e-001 -5.8510805301329860e-001
      -4.8826236074231427e-001 3.3213578317129622e-001
      -8.9471582137952121e-001 -7.8568787514851735e-001
      9.2152698186061227e-002 1.2094262266956872e+000
      5.7164403783370710e-001 -1.2359254030837243e+000
      -3.2704797023393600e-001 2.5371858315544316e-001
      2.4884452253084371e-002 -4.3811901656199775e-001
      4.5533364307329049e-001 -1.0091788004993139e+000
      7.5669359135436398e-001 -2.5072678168802015e-001
      -4.5436543230885690e-001 4.0276958238297372e-001
      9.4522153086608607e-001 1.5950986386459645e-001
      -1.2243858886002947e+000 -1.1422811194718352e+000
      -7.7795966224838753e-001 -5.7337410439927872e-001
      -1.1145913431190853e+000 -1.9172428510761947e+000
      8.4173669316846744e-001 -9.3742519218099951e-001
      3.7911137882369161e-001 9.5031851258868572e-001
      -2.8560371818802160e+001 -1.5023731133589763e-001
      -2.9048533585685343e-001 -9.9823383088809253e-002
      9.9396581925070920e-002 -3.6547920202602330e-001
      9.9440606163634163e-002 -1.5474201304560900e-001
      4.2938165741714979e-001 -4.9834207174172640e-001
      -5.8181682414116676e-001 1.0287523189526981e+000
      -1.3654286919806177e-001 1.8630187247251670e-001
      6.5861128163068883e-001 6.3383739803342709e-001
      2.5173506242769278e-001 1.0742726282286522e-001
      5.7196132754134277e-001 1.4163999696577662e-001
      -3.5717420284163837e-001 4.0817611059622816e-001
      4.1389849178485238e-001 -7.7276336223900599e-001
      8.5249081881655503e-002 7.4318245265966454e-001
      3.1980412985096301e-001 1.1084224275639185e-001
      2.7569547535077576e-001 3.3226618015268866e-001
      -1.1076373104470250e+000 -4.2584912074192904e-001
      -1.9270874859446857e-001 -7.2060823514146644e-001
      1.0631616594648055e-001 -7.7464076199148779e-001
      3.2289074649580024e-001 -7.7029699934789764e-001
      4.5739885197556153e-002 -6.4944924587717090e-001
      -1.3896588752406714e+001 -3.5313169194231558e-001
      -1.1226790132617803e+000 -9.3548473176731772e-001
      1.9986874874090060e-001 -3.3951905804667110e-001
      7.1709070159240873e-001 -2.7825145257834671e-001
      3.2225443199313158e-001 -1.0349332168924294e-002
      -1.7732857792326170e-001 -5.2070560967131418e-002
      -3.1297861744825423e-001 -1.0839249294074813e+000
      8.3010859028751827e-001 -2.5161037094725669e-001
      -4.0646227412091324e-001 -7.5777475093670310e-001
      2.5534117614059593e-001 4.8601695476554502e-001
      3.8372611665596934e-001 8.3003603487401198e-002
      5.8030462146744055e-001 -6.9114854842413753e-002
      -1.3858990251352948e-001 1.2773085920456007e+000
      3.8743439095480653e-001 7.2817131609112318e-001
      2.8518611401328514e-001 -1.9902610491464226e-001
      5.5023444914363739e-001 -3.2640318788007266e-001
      -8.1857514592546021e-001 2.9765603923834322e-001
      -3.8095609788139931e-002 -3.9662376693392443e-001
      1.7259231693634117e-001 -3.0486521293133373e-001
      -1.0282476745146047e+000 -2.7865186127714372e+000
      2.4804123087084435e+000 6.3528305980659761e-001
      -4.9201102115151923e-001 6.1379857685526396e-001
      2.6378580634967752e-001 -7.3924460651620991e-002
      1.1729420836552014e+000 -4.4961214426842960e-001
      -6.8528191116790615e-001 -6.8462165036086253e-001
      -2.0935865439305845e-001 1.4989000614586055e-002
      6.1226025867057376e-001 -9.9133845366502849e-001
      3.6301488190021884e+000 5.4437735643477776e-003
      -2.3954029051129680e-001 -8.2156757188988150e-001
      3.4745090112930660e-001 4.0462259379374410e-001
      -4.6152602920910379e-001 3.2377173524192859e-001
      -4.7717913943479096e-001 -3.4934226083356240e-001
      -8.8590343878730760e-001 5.8238009985040343e-003
      -5.2304367059267491e-002 -7.5977410304430693e-001
      1.6051867408642770e-001 -7.3589458918151152e-003
      -1.1845682159935812e-001 -1.8735230861946500e-001
      3.1447635005855651e-001 5.3657434846712893e-001
      7.4343125061009607e-001 5.1856875102062316e-001
      -3.6626855483912718e-001 -3.0454820627880053e-001
      6.7437423079420966e-002 -9.7735167867688333e-001
      -2.9630087423373975e+001 5.6341200897181831e-001
      1.0183398345485299e-001 -6.3611936760261045e-001
      2.7861048207685563e-001 -4.7542507975725390e-001
      9.5833518086427782e-001 6.1008494863942719e-002
      2.2827379497488309e-001 -2.2978523674127155e-001
      4.2433444968384998e-001 -1.1330137509731586e+000
      3.0844519664916420e-001 -3.4199208152418364e-001
      -1.4875171459637142e-002 -1.8156527770795877e-001
      -9.5424261785088371e-001 -8.7553636535506407e-001
      -6.8447275030867327e-001 -1.0987702807288352e-001
      3.6058096122652650e-001 -2.2294105288117230e-001
      2.7647789244402754e-002 -1.3591327521896909e-001
      6.2482730631660266e-001 -1.8396469731314766e-001
      4.9653872951807027e-001 1.0081598055237451e-001
      7.1709395030889800e-001 3.6728876164235624e-001
      -8.7881057023270248e-001 4.5237600594104699e-001
      -5.4056894698153912e-001 -5.0764190032840140e-001
      -1.4802424744949893e-002 7.4077618684859592e-001
      -7.2655612675660741e-001 3.2576703374017196e-001
      -1.5279934917386865e-002 -5.6781529969937783e-001
      -9.9413108481082570e+000 -1.0701457900910513e-001
      4.9399083207327839e-002 -6.6363910321085684e-001
      4.3710771634575174e-001 -5.7788756623323079e-001
      2.2365711553526288e-001 -8.9168083763880090e-001
      4.6910339462529468e-002 2.0645217972639620e+000
      -1.5983097032720961e-001 -7.1371064924115735e-001
      1.1406122031567114e+000 1.7318831608387717e+000
      4.5638477665964031e-002 2.0242587057753544e-001
      -1.0714609160918842e+000 -1.0049798549424886e+000
      -1.2477068849918843e-001 -3.9020231855215831e-001
      1.6017385214931598e-001 -4.9158124776797280e-001
      2.0294569985640155e-002 -3.9050925988193846e-002
      1.4050300955134798e+000 -4.3085988531666786e-001
      2.9148276131320555e-001 8.0077255207741493e-001
      2.2919113911353700e-001 6.5612869369067095e-001
      -7.7316474516984490e-001 4.3532888470114450e-001
      -4.6213745940419820e-001 1.0893004533249637e-001
      4.4091048825573173e-002 1.1235941209657738e+000
      -6.2798359322237274e-001 3.5017051467730709e-001
      2.1298973778260840e-002 -1.3379753701197239e-001
      3.2219662435234722e+000 1.4144257579550462e-001
      -8.3457913039710019e-001 -5.6393577983843302e-001
      -1.2093036991407156e+000 -8.4073111917967314e-001
      1.0348709172438566e+000 2.1068093242576452e-001
      5.4211757676377026e-001 6.3934510917425313e-001
      -1.1082659453675919e-001 1.9525119083391889e+000
      1.1172948575906720e+000 1.4505944848050207e+000
      6.8726277782517456e-002 5.7903598948710111e-001
      5.2054236877399052e-001 -3.2550249995609115e-001
      -2.9943089830182457e-001 -4.5705310994817050e-001
      3.1439126982652532e-001 -6.2771948627714869e-001
      -9.0849704855604035e-002 4.2022047407027313e-001
      5.1024409135761506e-001 -5.3683470486735840e-001
      -1.1411081417980180e+000 8.7341412468813762e-001
      -9.1466890707409154e-001 1.8352479847235693e-002
      8.7132632990057768e-001 8.9484019712540452e-001
      -7.2982804031788695e-001 -6.8841163875411296e-002
      4.4637470346138136e-001 1.2073948444232797e-003
      -1.1968560454858061e-001 -3.2703909820331944e-001
      7.7908833552316492e-001 -1.1345234706517620e+000
      -5.3000194802139555e+000 -6.4933180660765411e-001
      -1.1138435145001697e+000 -8.8585976387183152e-001
      5.9194579748906107e-001 -9.7852365139723707e-001
      -9.8065806392559007e-001 -1.0733692756289352e+000
      5.9253245226169760e-001 1.5110471193625821e+000
      9.8302291574588951e-001 7.1129935266478275e-002
      2.2431956620679769e+000 4.5829238864601760e-002
      3.1841877670484492e-002 -5.6468641877851189e-001
      -1.1128945642500851e+000 -7.9081504361855889e-002
      -1.8473771854359916e-001 7.1373657829891080e-001
      7.2630769657359429e-001 -5.6716511645938855e-002
      8.7852256539561080e-001 -1.5257829971700007e-001
      -9.9068316054900185e-001 9.6741585318901244e-002
      -3.7066401543347283e+000 1.4811916937150638e-001
      -2.1242413516955709e+000 2.4139739234234368e+000
      4.5818468442597499e-001 -1.2838200420162234e+000
      4.2557367594219353e-001 8.4186958293386335e-002
      1.8474523629165918e+000 7.2372114616006022e-001
      -3.1001502534962130e-002 -7.4514311067535435e-002
      -3.6143916647461992e-002 -5.5991901176246683e-001
      -1.3614988403203268e+000 4.7925572645679693e-001
      2.8674105723014826e-001 -1.0942929454914103e+000
      8.8402435222397477e-002 1.3076493125777175e-001
      -1.0198428904403023e+000 4.4466544511125944e-001
      -4.9222405493781788e-003 2.2023547597677862e+000
      6.5641842589038346e-001 1.3315763198342447e+000
      5.9499857062894435e-001 -1.1366054710372009e+000
      -1.7458728631207712e-001 -7.3706799767464604e-001
      -1.7827299736752678e+000 -3.0544755580948496e-001
      2.7031844586293324e-001 -5.7397051572910696e-001
      -8.3919410463492217e-001 3.0156900244073409e-001
      -2.3266780948041993e-001 -2.1882634367274711e+000
      -1.6424616777006760e+000 4.3352496943579971e-001
      -2.8620161390271720e-001 1.2076221557593134e+000
      -5.4267343106554611e-001 1.4605444009646327e+000
      1.5594659253089721e-001 -2.9507292977142874e+000
      2.0675836961902663e+000 7.1587916847684530e-001
      -4.3529437241569391e-001 -1.1270794347788086e-001
      2.6714747956436086e-001 -6.1085214990585501e-001
      2.0085608216402073e-001 3.9798926412560831e-001
      5.5056425453141582e+000 1.2845889997381619e+000
      -2.7765925407706882e-001 -1.7268599621947698e+000
      1.2508439580376181e+000 -7.7810821505848815e-001
      1.2082763973029563e-001 -2.2968467151536245e-001
      -6.4683751725670791e-001 -3.2632847771109391e-001
      -4.6988124693330879e-001 3.1987138838987330e+000
      -1.6792447018000893e+000 2.2513817490942864e-001
      3.6592166118682663e-002 5.9620186136242703e-001
      5.0999544757989179e-001 -5.8257721588838607e-001
      1.7853639247090272e-001 -1.6807033130706894e+000
      -1.8886344293903451e-001 -6.8382834128804726e-001
      -2.3723479633444206e-001 -2.3989559530296267e+000
      1.0201383501552996e+000 7.5835847734358530e-002
      2.6204192845640129e+000 2.7562634746005857e-002
      -2.4193399569558668e-001 3.9324720972213500e-001
      -6.4718255564506666e-001 -2.9481907222326242e-001
      1.6843563024353473e-002 4.6688243363080334e-001
      3.4880902876929093e-001 -8.5200854681542149e-001
      8.2477453264114087e-001 -4.9385890594730530e-001
      -2.2972508308847209e-001 -1.4172453968005292e+000
      -1.0399389789162090e+001 6.7516232942602283e-001
      4.7283642676538962e-001 -1.8498399401238035e+000
      9.3450641741931251e-001 -8.3393728343482665e-001
      1.3163451128584688e-001 1.2249767057229768e-001
      -5.0623356733087578e-002 -3.5470136897098786e-001
      -6.5291551940918191e-001 1.3870931907136834e+000
      -1.0282084824298858e+000 -1.0042792327093059e-001
      1.3572678037061736e-001 1.2007482760229351e+000
      5.9475665796551380e-001 -6.1884382738509613e-001
      -3.1957711278018948e-002 -6.8677829348575092e-001
      1.5055984093294805e-001 -5.9276213409890921e-001
      -3.6195665646742636e-001 -1.6045438849927109e+000
      1.9241477719654532e+000 1.5454243229118933e-001
      6.2904607315739725e-001 -1.4377844788520486e+000
      -2.2587982314855010e-001 2.4128073236745171e-001
      1.1892141112207455e+000 7.4552615806026146e-001
      -3.3994966961695455e-001 -5.8355740554553337e-002
      1.1702157786079355e+000 -1.1200376780911840e+000
      5.3353404835431051e-001 4.0661958893065880e-001
      -8.4544536862996256e-001 2.2022555118528642e-001
      -2.8762653033152816e+001 5.4749257799475604e-001
      -2.1571592032879061e-002 -1.5287236390781016e+000
      6.1008334884728477e-001 -4.5416004060568721e-001
      -5.5612066565590618e-002 -8.3877059415892252e-001
      1.0140854995811375e+000 3.9955533837487289e-002
      4.9100276669622095e-001 9.3863130897709524e-001
      3.1583880281611376e-001 3.4196729564914624e-001
      2.1338059355358097e-001 2.8067076871866004e-001
      -1.8117312195151916e-001 -3.2902552503109528e-002
      6.8153780001996722e-001 6.8495269656084590e-001
      -8.4608139069371910e-002 8.6728802865254848e-002
      -4.2594608908409887e-001 -8.7206981185061350e-001
      4.9567009377648857e-001 7.4452287157368624e-001
      6.1182386369376740e-001 -8.2355758154169822e-001
      1.4133446807899863e-001 2.7264987298039337e-002
      5.1276310640825917e-001 5.4158308106058473e-001
      4.6466623660030160e-001 -3.1223970687105052e-001
      3.6862641497741466e-001 7.0356110881533618e-001
      1.2520620203587260e-001 -2.7180305535922655e-001
      -1.3391759898970246e-001 -1.0782221025968652e+000
      -2.9679802432545511e+001 -2.4703702630472060e-001
      -1.7762759690195027e+000 -1.2858970058773902e+000
      3.7905309504424234e-001 -6.0563725651780120e-001
      9.0473778251119452e-001 -1.8965007757534347e-001
      1.9776799584660890e-001 1.8026076577431921e-001
      -1.6803915969202263e-001 5.4765428863338084e-001
      -2.3770464863514362e-001 -1.0592685291570330e+000
      9.7572034925805406e-001 -4.4236467798919037e-002
      -7.6143841335310902e-001 -8.8244209251268557e-001
      1.8962390175379060e-001 2.0964525179844617e-001
      -1.9790763620002982e-001 -4.6537321865232580e-002
      -4.3506506920071691e-001 2.0781001699612289e-002
      -3.9600739667882906e-003 1.1654011712447288e+000
      1.5776441146870029e-001 -7.1085391965885780e-001
      8.1092118042098149e-001 -1.1154369875591763e-001
      -1.2509931233309651e-001 -4.2052382321474735e-001
      1.9018157127942195e-001 6.5002133723994071e-001
      -4.2932572722808665e-001 -4.0916170341787844e-001
      4.9793604613916626e-001 -2.5791209206099014e-001
      -1.4243738808084923e+000 -4.0404453640994626e+000
      3.5910819469025190e+000 1.0533166287710385e+000
      -2.1054912594094086e-001 6.0850488752772755e-002
      7.4998654095257494e-002 -5.1077211174514754e-002
      4.5071700206049409e-001 -5.1350144277441467e-001
      -3.7515918761963185e-001 -8.9938266340994652e-002
      -2.0395962925148378e-001 4.0531459221568056e-001
      3.5549065156740811e-001 -1.2230989368502128e+000
      2.7598276037782852e+000 1.7211861616018473e-001
      3.8484203363989539e-001 5.9381708721977244e-001
      -8.2013114785596239e-002 4.3330419919277885e-001
      -2.4754392526990979e-001 1.3235346129950568e-001
      -1.6358985766668574e-001 -3.7011534264881196e-001
      1.7844141612570702e-001 2.0659829009275321e-001
      2.0562255251454181e-001 -1.8156450742714929e-002
      1.5296021085471664e-001 -3.0282381802070601e-001
      3.5117528086756727e-001 -7.9000429414457715e-002
      1.9155071617111874e-001 7.3734918930924565e-001
      -8.0300279864044477e-002 -1.6076321100844618e-001
      -1.5746606098324184e-001 -6.2679099529300578e-002
      1.3168943628889696e-002 -5.9821746043436904e-003
      -3.3618433291135247e+001 -1.1989396055545562e-001
      -4.7268818888364608e-002 -6.1167183824749775e-002
      6.6755579309746005e-001 -1.5324073444883418e-001
      5.5912085210041806e-001 1.1694466424184100e-001
      -1.0404888128346731e-001 5.5770396697284419e-001
      1.4784249388761811e-001 6.1566382890292970e-001
      1.0550047912916702e+000 -5.7404161902973228e-001
      -9.4676817900780322e-002 -3.1789741680936234e-001
      -3.9343002890155754e-001 1.9588939319967916e-002
      -1.6238998303084579e-001 -9.1268061891656527e-001
      -1.7548593149359795e-001 -6.9154428886377395e-001
      -7.2823087439144660e-002 -5.0863508176095718e-001
      -1.5892726833568854e-001 -3.5458946976299871e-001
      6.7797878821067900e-002 3.5742721064218036e-001
      1.5074179718193687e-001 -5.4088451897357637e-001
      -5.4948939076954895e-001 4.2413677962245783e-001
      3.2562567347693483e-001 5.5191571624310563e-002
      -1.9363997519493931e-001 -1.4118940721095470e-002
      -3.2582031121918126e-001 1.8900889841012061e-001
      -1.6272432760546865e-001 -3.3860416496256035e-001
      -1.2685040633335189e+001 3.8831267218576265e-001
      3.5385131513993912e-001 7.0285492793647611e-002
      2.2081383809267360e-001 -3.3368272424440287e-001
      -4.7479279279427322e-001 1.0729228032484606e-002
      2.1220503584718969e-001 8.5039833925204444e-001
      -1.3202942021278344e-001 7.0437121044616613e-001
      1.0897748160745040e+000 7.0485579688319489e-001
      2.2267985130173936e-003 8.5123001078851557e-001
      -4.8822588787824661e-001 -4.2920556793407949e-001
      -3.1906604969611417e-002 -2.4517812940704173e-001
      -3.1845804800715266e-001 -6.8931268661529807e-002
      1.2174421985086521e+000 4.1118317494674184e-001
      -7.3568597761230337e-001 -1.5027157044215262e+000
      5.1834205727349725e-001 1.8907169592366355e-001
      2.5608688326733303e-001 -6.4023863596058861e-001
      -3.9049879724570929e-001 8.9131350061314252e-001
      -2.9210955886377765e-001 -1.0910876313859022e-001
      -5.8116166026894657e-002 9.0037794309963293e-001
      -2.4343742221524844e-001 5.6334447614357477e-002
      3.0484119105111362e-001 -9.7396212411937733e-001
      2.2196872322099082e+000 4.2664386440074659e-001
      4.1676956678394239e-001 -3.1773333596083718e-002
      -2.4055183171416528e-001 6.1188178465022391e-001
      1.0617120108361875e+000 -2.2536775729841929e-001
      9.6165369434297099e-002 2.4538155095559158e-001
      4.5588298395911037e-001 4.9526571739477487e-001
      1.6358631243630710e+000 1.2757503026077157e+000
      2.7452549752829325e-001 8.1616145996995071e-001
      -9.1857125604120038e-001 -2.8222536523780950e-001
      -5.7860918889416441e-002 6.6265836525787214e-001
      4.8522154735701643e-002 -1.4389620728899808e+000
      -8.6679512484015314e-002 -2.0838487464076302e-001
      -1.2617775228456487e+000 -1.0310162432178482e+000
      1.0063531694495163e-001 1.6556438451962552e-001
      -2.3363737324152606e-001 3.4616883579706720e-001
      9.6305533299934565e-001 1.4697471269430724e+000
      -1.2168918196540639e+000 2.4387029781544176e-001
      4.5641075242266610e-001 4.7111902968005309e-001
      1.1672179959683072e-001 -3.4383150268302226e-001
      2.2975120297748497e-001 -9.1865800698374489e-001
      -3.0053621608217736e-002 -7.0890519419963971e-001
      -4.1576513557724004e-001 -1.1132816852201519e+000
      1.4401351870271784e+000 -1.2783387019310688e+000
      3.2986243591165421e-001 -6.9242200327011394e-001
      6.7110359703844375e-003 2.6104819537649759e+000
      9.3138503216125129e-003 -1.6103562444325650e-001
      2.8120135969630944e-001 -2.6893601139944456e-001
      3.8142547010595287e-002 1.9287697972692159e-002
      -1.2670802377219257e+000 -5.7621362696812062e-001
      5.7775195195184781e-001 1.5606317857193834e+000
      -2.4292583071081350e-001 -6.8316149591047537e-001
      -1.7386570414683640e+000 4.3841224195045964e-001
      -9.2484442013744317e-001 -2.6699861259929369e-001
      -1.2880658424369036e+000 -1.0012788550319398e+000
      -1.2736106980495272e+000 1.3294161507918365e+000
      9.2344884975195751e-001 -1.3702093872387939e+000
      3.5592267170259945e-001 -1.6838437153630736e+000
      9.6931084050904304e-001 -5.8442405106230799e-001
      2.1850699139324945e+000 6.9278709708120234e-001
      -6.9087013905290984e-001 -9.1994954529364084e-002
      -1.1920840558624346e+000 -8.2055501559539668e-001
      2.4695450527557825e-001 -1.1088197229697916e+000
      1.4946203409016401e+000 -2.1761239671547691e-002
      5.0634052217582626e-001 1.3175554017343281e+000
      -2.6550532845192576e-001 2.4948572526434654e+000
      -5.3275596161972649e-001 -8.4727349724179779e-002
      -1.5079405530906553e+000 -4.5826818684393816e-001
      2.8885947786177962e-001 -7.0329422154559718e-001
      -1.0981738096348734e+000 -4.5398035016847038e-001
      1.2444206939646636e-001 -2.6805364245347729e-001
      -1.5840433433998691e+000 -2.8981733847018593e-001
      1.3536705435306987e-001 -2.1832053246929062e-001
      -1.3086470023921133e+000 -5.9888116988494156e-001
      7.2055937682570914e-001 4.8187161292517472e-001
      -5.7795370633670681e-003 -1.1079730949006131e-001
      4.4047174780075476e-001 -1.9961293406048317e+000
      1.0607385233203677e+000 1.9334875898744702e-001
      -1.9151846095963829e-001 -8.4246079627389281e-001
      3.9186093400719485e-001 -2.8646093203159062e-001
      2.2792964069487320e-001 2.8217473179641639e-001
      8.2014559770625368e+000 1.0614919243910290e+000
      -8.0262563545511978e-001 -3.5444584100640499e+000
      1.2531579303373912e+000 1.1149565677285314e+000
      7.9004870644932612e-001 -1.3131678864256568e+000
      -6.8433427960783000e-002 -1.1873071169776692e+000
      -6.8632985074386033e-001 1.0464264056840962e+000
      -4.7360665768347088e-001 -5.2196455344687198e-002
      -2.4579905478051675e-001 -1.5885817974365102e+000
      3.2713243056613900e-001 3.7876135414779764e-002
      5.5655152028430876e-001 1.6793106135180463e-001
      -7.7404173072256766e-001 -1.4776825681885367e-001
      -5.0935533677677614e-001 -4.4349060750854929e-002
      -2.1558810356063431e+000 2.2389561656226503e-001
      1.8803170664642666e+000 8.8466179896424246e-001
      -5.6812883195182573e-001 -1.2851508214301530e+000
      1.6190292917013536e+000 1.3777953392261180e+000
      1.6018347873109933e+000 1.5538338672776248e+000
      5.3685109047552815e-001 1.2612609758622688e+000
      -4.6233153267815624e-001 1.4486318399744735e+000
      -1.2672773610580068e+000 -3.9532113922532275e-001
      -4.1788887358119942e+000 1.2107827598885872e+000
