<?xml version="1.0"?>
<opencv_storage>
<ann type_id="opencv-ml-ann-mlp">
  <layer_sizes type_id="opencv-matrix">
    <rows>1</rows>
    <cols>3</cols>
    <dt>i</dt>
    <data>
      120 40 65</data></layer_sizes>
  <activation_function>SIGMOID_SYM</activation_function>
  <f_param1>1.</f_param1>
  <f_param2>1.</f_param2>
  <min_val>-9.4999999999999996e-001</min_val>
  <max_val>9.4999999999999996e-001</max_val>
  <min_val1>-9.7999999999999998e-001</min_val1>
  <max_val1>9.7999999999999998e-001</max_val1>
  <training_params>
    <train_method>BACKPROP</train_method>
    <dw_scale>1.0000000000000001e-001</dw_scale>
    <moment_scale>1.0000000000000001e-001</moment_scale>
    <term_criteria><epsilon>9.9999997764825821e-003</epsilon>
      <iterations>1000</iterations></term_criteria></training_params>
  <input_scale>
    3.1601359102253447e+001 -5.8167467064597266e-002
    4.4390826127482361e+000 -4.1287049160002659e-001
    2.9807910679502205e+000 -1.8499381492262361e+000
    3.8305171222416767e+000 -3.2262052534763117e+000
    4.2032614729216782e+000 -3.0856525791488334e+000
    4.2964155705321527e+000 -3.4641286163813438e+000
    3.9985312189791955e+000 -3.3221925273212767e+000
    3.0074717496679026e+000 -1.3962103126661169e+000
    6.7531368504474072e+000 -2.8358183231368794e-001
    4.8335065306088417e+001 -3.4053550590629499e-002
    4.5023760505545143e+000 -3.3736612841804470e+000
    4.5165216119930056e+000 -3.6775337743639254e+000
    4.5175436283344652e+000 -3.0461868325652435e+000
    4.4108010474391630e+000 -3.1361285370056589e+000
    4.6851152856635290e+000 -3.6582662045642262e+000
    4.5693783178357288e+000 -3.5089554026811141e+000
    4.2386921691737731e+000 -2.8464513788553392e+000
    4.5317564081023392e+000 -3.2353624489813857e+000
    4.4018124320001153e+000 -3.5899738801756098e+000
    4.2964997267626259e+000 -2.9832563204813702e+000
    3.2856596833192353e-001 -3.2403430051531089e-002
    4.4396360170593605e-002 -2.3051101736810467e-001
    1.2995217747791811e-002 -7.8488783575755761e-001
    1.0881577999710781e-002 -1.4835058627612538e+000
    1.0289406528976920e-002 -1.6791851804028328e+000
    1.1409219112322047e-002 -1.9497447515825310e+000
    1.1326794238553647e-002 -1.4791904330269066e+000
    1.6260696597349709e-002 -5.9148904093497512e-001
    6.6165493355983068e-002 -1.3958714389252891e-001
    4.4412582772610520e-001 -2.5450637875919249e-002
    2.9849421639634477e-001 -3.5194118520550356e-002
    3.5324436457805017e-002 -2.7615189709559168e-001
    1.1471144710332969e-002 -1.0592579355760725e+000
    1.0966752766716284e-002 -1.7509739934605157e+000
    1.1514805330779488e-002 -1.4046326779813210e+000
    1.2113556303591261e-002 -1.7584498447310246e+000
    1.0627335588241362e-002 -1.7664050801133713e+000
    1.3544868358227748e-002 -7.9267651242823545e-001
    5.2323439995554548e-002 -1.6961850415744306e-001
    4.4987916756984647e-001 -2.7674734585036328e-002
    2.9337797821423300e-001 -3.5020586194741840e-002
    3.1533268190562250e-002 -2.9013454851814402e-001
    1.0552580317275361e-002 -1.0136537142469466e+000
    1.1116040336015126e-002 -1.4695946676597456e+000
    9.8389273176495047e-003 -8.6358833780000355e-001
    1.0000119853209165e-002 -9.8859539542136909e-001
    1.0127713444253460e-002 -1.4056624702796685e+000
    1.2165980437449450e-002 -7.7357400718298130e-001
    4.6300560258209736e-002 -1.8711235812880808e-001
    5.2035195220491570e-001 -2.5976314958111868e-002
    2.5825165570718395e-001 -3.5602983659375594e-002
    3.1763684732511253e-002 -2.9180098804799121e-001
    1.0594570432459779e-002 -1.0317182259206155e+000
    1.0899710891783666e-002 -1.5597216221293040e+000
    9.8848604765441016e-003 -1.0606878773087864e+000
    1.0404770435674643e-002 -1.1871851956814647e+000
    1.0015205511521340e-002 -1.3298629456850781e+000
    1.2444758687930792e-002 -7.1579311285461766e-001
    4.8545777553235567e-002 -1.7938177342202533e-001
    4.5964220364214148e-001 -2.9790065926275738e-002
    2.7192336374673437e-001 -3.3305882524087387e-002
    3.5710470563278203e-002 -2.6074135418053790e-001
    1.0996525307793754e-002 -9.3767759191149425e-001
    1.0193500311355736e-002 -1.6104044639028370e+000
    1.0654269878392275e-002 -1.6736592678747784e+000
    1.1547183034056257e-002 -2.0255764612521623e+000
    1.1249195591278738e-002 -1.7624913696229347e+000
    1.3485531846534123e-002 -6.7622790417878309e-001
    5.5766470906910164e-002 -1.6156825581805523e-001
    4.3450906519288768e-001 -2.6702711378569381e-002
    2.7188854555885400e-001 -3.8412180090854814e-002
    3.5237641575137389e-002 -2.5255578554053981e-001
    1.1107129824372015e-002 -8.9700342648100817e-001
    1.0448709910989239e-002 -1.4957641329035161e+000
    1.1076537267872107e-002 -1.3693171474524501e+000
    1.1159150844076369e-002 -1.6852354016531625e+000
    1.0894506397581759e-002 -1.7854803484694424e+000
    1.2884393868877761e-002 -7.5694123423888615e-001
    5.6548971552900659e-002 -1.7295302443214755e-001
    4.1685447984853125e-001 -2.3633456107609273e-002
    2.1604924803942549e-001 -4.4116976927860228e-002
    3.2158485085581091e-002 -2.7553733861591162e-001
    1.0598451903608091e-002 -9.5446672218727435e-001
    1.0319079063737505e-002 -1.2883010623980866e+000
    1.0919285065532816e-002 -8.2755466286849177e-001
    1.0525662808313279e-002 -1.0557080492186990e+000
    1.0432298076124199e-002 -1.5705383548761409e+000
    1.1844670820562961e-002 -8.1669966702398444e-001
    4.8322819907856598e-002 -1.9607516477685644e-001
    4.0973777305552461e-001 -2.3630061975922784e-002
    2.1295606652591040e-001 -4.6825381892643424e-002
    2.9379854956791445e-002 -3.0122509413223947e-001
    1.0732263017951969e-002 -1.1445932964995238e+000
    1.1012441678989560e-002 -1.5671760993903681e+000
    1.0692069074948938e-002 -9.1240294464472715e-001
    9.8387693158656555e-003 -1.0221380116760073e+000
    1.0170394237344480e-002 -1.5203907679210686e+000
    1.1712590883683668e-002 -8.5173752186720197e-001
    4.8218638414286627e-002 -2.0311799808044273e-001
    3.8815994052205671e-001 -2.2575150940895891e-002
    2.3523893934430462e-001 -4.7461243346287756e-002
    3.2672847509984324e-002 -2.8604792860291289e-001
    1.1321360643461028e-002 -1.1426870528964685e+000
    1.1001740028321600e-002 -1.8173288654094319e+000
    1.1979922232717218e-002 -1.4759818369949185e+000
    1.2903559199083243e-002 -1.7476802332092640e+000
    9.9226311543747468e-003 -1.5631292956337635e+000
    1.3442395093426297e-002 -8.0977017575707588e-001
    5.6400916539032446e-002 -1.8029981753616486e-001
    3.4636328143610828e-001 -2.4054767135011059e-002
    2.6242845499742129e-001 -4.1912319463459753e-002
    4.3516576562405852e-002 -2.2441338659077381e-001
    1.3296860511518894e-002 -7.5042868292303277e-001
    1.1196579633925995e-002 -1.4321857551895869e+000
    9.8902232081864196e-003 -1.4889928409812918e+000
    1.0099586045485182e-002 -1.4026448833856422e+000
    1.1210879075410324e-002 -1.2193565376203843e+000
    1.6130004469527007e-002 -5.6506597007570281e-001
    7.0016654755094165e-002 -1.4597699111426107e-001
    3.4080351176205298e-001 -2.3543853003456853e-002</input_scale>
  <output_scale>
    5.2631578947368418e-001 4.9999999999999994e-001
    5.2631578947368418e-001 4.9999999999999994e-001
    5.2631578947368418e-001 4.9999999999999994e-001
    5.2631578947368418e-001 4.9999999999999994e-001
    5.2631578947368418e-001 4.9999999999999994e-001
    5.2631578947368418e-001 4.9999999999999994e-001
    5.2631578947368418e-001 4.9999999999999994e-001
    5.2631578947368418e-001 4.9999999999999994e-001
    5.2631578947368418e-001 4.9999999999999994e-001
    5.2631578947368418e-001 4.9999999999999994e-001
    5.2631578947368418e-001 4.9999999999999994e-001
    5.2631578947368418e-001 4.9999999999999994e-001
    5.2631578947368418e-001 4.9999999999999994e-001
    5.2631578947368418e-001 4.9999999999999994e-001
    5.2631578947368418e-001 4.9999999999999994e-001
    5.2631578947368418e-001 4.9999999999999994e-001
    5.2631578947368418e-001 4.9999999999999994e-001
    5.2631578947368418e-001 4.9999999999999994e-001
    5.2631578947368418e-001 4.9999999999999994e-001
    5.2631578947368418e-001 4.9999999999999994e-001
    5.2631578947368418e-001 4.9999999999999994e-001
    5.2631578947368418e-001 4.9999999999999994e-001
    5.2631578947368418e-001 4.9999999999999994e-001
    5.2631578947368418e-001 4.9999999999999994e-001
    5.2631578947368418e-001 4.9999999999999994e-001
    5.2631578947368418e-001 4.9999999999999994e-001
    5.2631578947368418e-001 4.9999999999999994e-001
    5.2631578947368418e-001 4.9999999999999994e-001
    5.2631578947368418e-001 4.9999999999999994e-001
    5.2631578947368418e-001 4.9999999999999994e-001
    5.2631578947368418e-001 4.9999999999999994e-001
    5.2631578947368418e-001 4.9999999999999994e-001
    5.2631578947368418e-001 4.9999999999999994e-001
    5.2631578947368418e-001 4.9999999999999994e-001
    5.2631578947368418e-001 4.9999999999999994e-001
    5.2631578947368418e-001 4.9999999999999994e-001
    5.2631578947368418e-001 4.9999999999999994e-001
    5.2631578947368418e-001 4.9999999999999994e-001
    5.2631578947368418e-001 4.9999999999999994e-001
    5.2631578947368418e-001 4.9999999999999994e-001
    5.2631578947368418e-001 4.9999999999999994e-001
    5.2631578947368418e-001 4.9999999999999994e-001
    5.2631578947368418e-001 4.9999999999999994e-001
    5.2631578947368418e-001 4.9999999999999994e-001
    5.2631578947368418e-001 4.9999999999999994e-001
    5.2631578947368418e-001 4.9999999999999994e-001
    5.2631578947368418e-001 4.9999999999999994e-001
    5.2631578947368418e-001 4.9999999999999994e-001
    5.2631578947368418e-001 4.9999999999999994e-001
    5.2631578947368418e-001 4.9999999999999994e-001
    5.2631578947368418e-001 4.9999999999999994e-001
    5.2631578947368418e-001 4.9999999999999994e-001
    5.2631578947368418e-001 4.9999999999999994e-001
    5.2631578947368418e-001 4.9999999999999994e-001
    5.2631578947368418e-001 4.9999999999999994e-001
    5.2631578947368418e-001 4.9999999999999994e-001
    5.2631578947368418e-001 4.9999999999999994e-001
    5.2631578947368418e-001 4.9999999999999994e-001
    5.2631578947368418e-001 4.9999999999999994e-001
    5.2631578947368418e-001 4.9999999999999994e-001
    5.2631578947368418e-001 4.9999999999999994e-001
    5.2631578947368418e-001 4.9999999999999994e-001
    5.2631578947368418e-001 4.9999999999999994e-001
    5.2631578947368418e-001 4.9999999999999994e-001
    5.2631578947368418e-001 4.9999999999999994e-001</output_scale>
  <inv_output_scale>
    1.8999999999999999e+000 -9.4999999999999996e-001
    1.8999999999999999e+000 -9.4999999999999996e-001
    1.8999999999999999e+000 -9.4999999999999996e-001
    1.8999999999999999e+000 -9.4999999999999996e-001
    1.8999999999999999e+000 -9.4999999999999996e-001
    1.8999999999999999e+000 -9.4999999999999996e-001
    1.8999999999999999e+000 -9.4999999999999996e-001
    1.8999999999999999e+000 -9.4999999999999996e-001
    1.8999999999999999e+000 -9.4999999999999996e-001
    1.8999999999999999e+000 -9.4999999999999996e-001
    1.8999999999999999e+000 -9.4999999999999996e-001
    1.8999999999999999e+000 -9.4999999999999996e-001
    1.8999999999999999e+000 -9.4999999999999996e-001
    1.8999999999999999e+000 -9.4999999999999996e-001
    1.8999999999999999e+000 -9.4999999999999996e-001
    1.8999999999999999e+000 -9.4999999999999996e-001
    1.8999999999999999e+000 -9.4999999999999996e-001
    1.8999999999999999e+000 -9.4999999999999996e-001
    1.8999999999999999e+000 -9.4999999999999996e-001
    1.8999999999999999e+000 -9.4999999999999996e-001
    1.8999999999999999e+000 -9.4999999999999996e-001
    1.8999999999999999e+000 -9.4999999999999996e-001
    1.8999999999999999e+000 -9.4999999999999996e-001
    1.8999999999999999e+000 -9.4999999999999996e-001
    1.8999999999999999e+000 -9.4999999999999996e-001
    1.8999999999999999e+000 -9.4999999999999996e-001
    1.8999999999999999e+000 -9.4999999999999996e-001
    1.8999999999999999e+000 -9.4999999999999996e-001
    1.8999999999999999e+000 -9.4999999999999996e-001
    1.8999999999999999e+000 -9.4999999999999996e-001
    1.8999999999999999e+000 -9.4999999999999996e-001
    1.8999999999999999e+000 -9.4999999999999996e-001
    1.8999999999999999e+000 -9.4999999999999996e-001
    1.8999999999999999e+000 -9.4999999999999996e-001
    1.8999999999999999e+000 -9.4999999999999996e-001
    1.8999999999999999e+000 -9.4999999999999996e-001
    1.8999999999999999e+000 -9.4999999999999996e-001
    1.8999999999999999e+000 -9.4999999999999996e-001
    1.8999999999999999e+000 -9.4999999999999996e-001
    1.8999999999999999e+000 -9.4999999999999996e-001
    1.8999999999999999e+000 -9.4999999999999996e-001
    1.8999999999999999e+000 -9.4999999999999996e-001
    1.8999999999999999e+000 -9.4999999999999996e-001
    1.8999999999999999e+000 -9.4999999999999996e-001
    1.8999999999999999e+000 -9.4999999999999996e-001
    1.8999999999999999e+000 -9.4999999999999996e-001
    1.8999999999999999e+000 -9.4999999999999996e-001
    1.8999999999999999e+000 -9.4999999999999996e-001
    1.8999999999999999e+000 -9.4999999999999996e-001
    1.8999999999999999e+000 -9.4999999999999996e-001
    1.8999999999999999e+000 -9.4999999999999996e-001
    1.8999999999999999e+000 -9.4999999999999996e-001
    1.8999999999999999e+000 -9.4999999999999996e-001
    1.8999999999999999e+000 -9.4999999999999996e-001
    1.8999999999999999e+000 -9.4999999999999996e-001
    1.8999999999999999e+000 -9.4999999999999996e-001
    1.8999999999999999e+000 -9.4999999999999996e-001
    1.8999999999999999e+000 -9.4999999999999996e-001
    1.8999999999999999e+000 -9.4999999999999996e-001
    1.8999999999999999e+000 -9.4999999999999996e-001
    1.8999999999999999e+000 -9.4999999999999996e-001
    1.8999999999999999e+000 -9.4999999999999996e-001
    1.8999999999999999e+000 -9.4999999999999996e-001
    1.8999999999999999e+000 -9.4999999999999996e-001
    1.8999999999999999e+000 -9.4999999999999996e-001</inv_output_scale>
  <weights>
    <_>
      -6.0248544313845883e+001 -2.0620896089723562e-001
      -3.3735230960206986e-001 2.2023916310694336e+000
      1.8344822108976961e+000 2.0405774616838213e+000
      -7.5518778857354874e-001 -4.1005679302132703e-001
      -9.5439827352191542e-001 2.7082762170443386e-001
      1.0092303150128354e+000 -1.1781844694544086e+000
      -2.7056243191586954e-001 -1.4693025996775162e+000
      4.6443398378205863e-001 -2.0023000921940678e-001
      -2.5846282860201457e-002 1.1638562673039077e+000
      7.2430088964059711e-002 -9.5311889563410657e-001
      -3.3025761722918878e-001 1.3434830556341115e-001
      9.3783324672616863e-001 2.0923800405563995e+000
      -6.4878710997826394e-001 4.9417324623537529e-001
      2.1557990663127971e-001 1.1633224335390697e+000
      -3.6590033843660125e-001 2.1901153183948963e-001
      -1.6600785673597225e+000 -1.5143514245203141e-001
      -8.0439350931835907e-001 8.0280973299519283e-003
      4.5784829605544014e-001 4.9084192957963679e-001
      -2.9012413525737568e-001 -5.9966914207154298e-001
      7.0769734087264988e-002 2.0870342226093941e-001
      -3.6205328327891145e+001 1.0104321110633771e-001
      3.4215558274169600e-001 5.5427160356634209e-001
      -1.1408561364452002e-001 -1.8470031419563357e-001
      -2.9878446737766817e-001 6.3917594921756482e-001
      4.5323982259003431e-001 -4.2787210129046832e-001
      2.3470646391259148e-001 -4.4349267954303268e-001
      2.3964553572573002e-001 -7.1793358020403486e-001
      4.7737277190434568e-001 1.2456566498908572e+000
      -4.9440397669502284e-002 3.6521800173475333e-001
      -1.5420538639900855e-001 -6.8377697485541367e-001
      8.2877856623588864e-001 7.6175699432805033e-001
      1.1342975542479399e+000 -6.3563301686973073e-001
      -2.0058308030041330e-001 -3.9031326390686921e-001
      6.1540839273136463e-003 -2.3593301851922654e-001
      1.5621972509930343e-001 3.6685078283659978e-001
      -4.9343863015296896e-001 -1.9250452925399783e-001
      2.8144921000044082e-001 4.7810369336129876e-001
      3.3865896205501400e-001 9.7265946198468692e-002
      -4.6147065450479430e-001 7.9412151252188712e-001
      -4.3415842072931232e-001 3.2593872421671716e-001
      1.1101609191717694e+001 1.6167958341369068e-001
      3.2895127632707999e-001 7.4764745872530414e-001
      4.7958310323794162e-001 6.1826177869305492e-002
      -2.8131157744386620e-001 6.0498964766745178e-001
      2.0638748089525150e-001 -1.5776572765928820e-001
      -5.7096337320141424e-002 -1.0329142649420973e-001
      1.9722019262401144e-001 2.6428638475700489e-001
      -5.5276255120112117e-001 4.2963240619701393e-001
      -2.7075893099071896e-001 -7.0555144754962884e-001
      -2.3069750799278527e-001 -1.6919878204394115e-001
      -1.0097290543204708e-001 1.0944635007976546e+000
      3.9870284216573365e-001 1.4006802092914840e-002
      -2.8074094077636064e-001 -3.3146175320632143e-001
      -9.3246219298729582e-001 -1.7446534771312761e-001
      -9.4436934194548705e-001 -1.5977763845048079e-001
      3.6257302911629991e-001 -4.9826648691194020e-002
      3.5250686023728856e-001 2.9842782233586768e-001
      -7.3277455590212293e-001 -8.0222683233532532e-001
      -7.8230090657659535e-001 3.0684740607306094e-001
      -3.1331091379587489e-001 6.9909868396729330e-002
      2.7700311380232417e+001 -3.4927444934860641e-001
      -3.9798643892405144e-001 4.3377608831885717e-001
      1.6673516320411736e+000 -1.1563700821011134e+000
      2.2141205512386221e-002 3.4934191392579556e-002
      5.4167324939384323e-002 4.1556930082898585e-001
      -6.8466128957047390e-001 -7.4115084633791395e-001
      -2.8653412431242586e-001 -9.7035427875965488e-002
      1.7784709647730992e-001 1.2875407351882076e+000
      1.2885831151017912e+000 4.8576376541436667e-001
      -3.7538569568237823e-001 3.5015409236941619e-001
      3.7084538572657155e-001 2.1199140155262834e+000
      7.5823359407982432e-002 -1.2918428696374564e+000
      8.4962650960149333e-001 1.5827960048380108e-001
      2.6286146227181856e-001 -1.0800262120106534e+000
      -3.3149526560002052e-001 9.1968764496090027e-001
      2.4396023350448456e-001 -2.0178732334116778e+000
      -8.1533498215461098e-001 1.3037530533231108e+000
      1.2246605120740925e+000 -1.6140898051114831e+000
      -6.8488580564860024e-001 6.9500537678757052e-002
      -2.8462287148209235e-003 -2.3686643698365970e-001
      2.7066806311560829e+000 -1.2068172498086214e+000
      2.8498231236897570e-001 -2.0531876842752944e-001
      6.6776391319009931e-001 -5.7821350054356258e-001
      -2.2695663883625805e-001 -6.1108498492331575e-002
      2.0509801721726548e+000 4.6729575313405242e-001
      -3.1783368176651916e-001 -5.8965134932905588e-002
      5.1327005884299437e-001 1.5556298382905825e-001
      5.3129223316757172e-002 4.1840734575767341e-001
      6.3582791467703992e-001 -6.7587736991293590e-001
      -8.6127703481546392e-001 9.2161168127814541e-001
      4.1147411243220489e-001 8.8902223881804110e-001
      9.6118227196750949e-001 -1.6776060507908641e+000
      8.0336619604183024e-001 7.6207055459686146e-002
      -5.0583299432109563e-001 -3.5577738413022177e-002
      8.3066764727125397e-001 2.8762288144494214e-001
      -4.1034117385627544e-001 5.2967239069775729e-001
      7.9379731226542571e-001 5.4604022652447648e-001
      1.0217533879220582e+000 5.2720514783875419e-002
      -2.4071842444531413e+000 1.5790873765715066e+000
      7.6930523413120555e-001 2.5382379989235226e-001
      2.8608311449928974e+000 -1.6330404916469093e-001
      -6.3338201587082066e-001 -5.9486320412212725e-002
      6.8818447944204741e-001 -3.4955994849374877e-001
      1.9145429072047732e-001 -1.1833222295884598e+000
      1.2668299869433177e+000 9.1138332691941409e-002
      -7.8443239645898999e-001 4.9591933274153754e-001
      1.1038470074681274e-001 -2.2463717710064043e-001
      2.8321060056308345e-001 1.9563600192943606e-001
      2.4198133829384566e-001 -7.6017834809072371e-001
      -4.4671591530196569e-001 7.5186934462461985e-001
      9.8246767593056350e-001 -2.3683861640781556e-001
      -2.2846589851891783e-002 -1.8353624505993622e+000
      1.9346574203467310e+000 -3.8103269499073311e-001
      2.2831698150525522e-003 -1.1633442486570718e-001
      9.5470118783457580e-001 -5.2427308939714179e-001
      6.5186526660966204e-001 1.7501193901688346e+000
      5.7302816503671949e-001 1.2637643763859026e+000
      8.2415532251059831e-001 -1.2344728030297412e+000
      -2.0783384229428274e+000 1.2311335482840700e+000
      -6.7237780950039128e-002 -9.8146158550725237e-003
      1.1123123384120548e+001 -4.0384279615577345e-001
      -1.4689889381907681e-001 1.2950114094520850e+000
      -3.7872518451873571e-001 -1.4339326309473366e-001
      -2.8749309665897588e-001 4.3574461359277128e-001
      -5.8488840289719013e-001 3.0732444064337844e-001
      -2.9846202335732575e-001 -1.5924539673118343e+000
      -6.3936618591356797e-001 -1.0127602625515797e-002
      -5.7427459121192304e-001 1.0908694275258453e+000
      1.4237883231009685e-001 5.6501152882736305e-001
      4.2730844641713744e-001 6.0038700885506939e-002
      -1.8579903737457421e-001 5.1164453113967567e-001
      3.4352183753463322e-001 -6.2642292941797340e-001
      2.2874021779782363e+000 1.6550530177603151e+000
      1.3399532263841749e+000 -1.6237135132599498e+000
      8.9807086450786144e-001 7.0766613872908879e-001
      1.5711164723293267e+000 -1.2290802493954702e+000
      -3.1214189610332665e-001 9.4698949088773199e-001
      2.1668672918841434e+000 -4.8745375782774664e-001
      -1.0809137264187281e+000 -6.9205768837966933e-002
      -1.0187094829556931e+000 1.5592280729685656e-001
      -1.1643085820150263e+001 -7.4557161802929886e-002
      2.8878872784031157e-001 9.7184297740775116e-001
      3.1753734526315724e-001 -1.6986995102030109e-001
      -2.2020162789802211e-001 -5.1372692637238282e-001
      5.8585930471747416e-001 1.3592860610258434e-001
      -2.4324447788044959e-001 -3.7589449935739531e-002
      3.1684059677960730e-001 -2.5236747086583899e-001
      2.2485020994725390e-003 3.6009017649032388e-001
      2.6997553639689176e-001 -9.0039315425565203e-001
      1.0131199092155703e-001 -3.8169977200184069e-001
      6.6855107751819354e-001 3.0165694645792451e-001
      1.0733951087251643e-001 -2.2650982398531300e-001
      -1.6404305654042989e-001 -3.3868205209764346e-001
      -7.4268446282076350e-001 -1.5622951710739283e-001
      2.3206396057968575e-002 -2.0313658632878603e-001
      4.4266351762042572e-001 7.9679993013718897e-001
      4.4075085361287336e-001 4.5663952271062463e-001
      -3.6237240642831164e-001 -4.0484654089553762e-001
      -1.3228555056860687e+000 -2.3011694743624372e-001
      2.9722955622355152e-001 3.4185043531791781e-001
      -5.2742730958403243e+001 4.7710268082581407e-002
      5.0334510645676622e-001 -3.8270097170966833e-001
      7.2719656226246310e-001 -1.9359090283664110e-001
      3.6353264930068227e-002 -8.5958624766912251e-001
      1.1649359950116561e-001 1.9168360295181913e-001
      1.2135940587204380e-001 1.3739660507779750e-001
      2.1622157388609212e-001 -1.6667941871016654e+000
      4.2169111253858060e-001 5.0685471422973050e-001
      -3.0014186230964340e-001 5.6618330760250934e-001
      -4.4918825410914098e-001 -1.1689320272524804e+000
      1.5801899173857947e-001 -8.3731834972569197e-001
      5.0210316508673947e-001 -4.9872951392105003e-001
      5.0416193770096662e-001 2.1111401672742250e-001
      -5.4929554819099315e-002 -8.6053330985293969e-002
      -3.3748226875908775e-002 3.5251808276212426e-001
      2.9541421418433139e-001 2.9849382552171816e-001
      -2.2485393578109727e-001 -6.4634728994227050e-002
      -2.0925994102563056e-001 -6.3364661939608180e-001
      -7.6192380195553591e-002 -1.4145266565094225e-001
      -1.0673308526036381e-002 6.4845629048782127e-001
      -6.6476708984848571e+001 -6.0167484817614225e-001
      -1.0376779163674028e-001 3.4227976037804780e-001
      5.4846255437294722e-001 3.6284275279303979e-001
      -1.8757576721084465e-001 1.0023140539595758e-001
      -7.5635012627930334e-002 -6.0081780270014519e-002
      1.1548732247871853e+000 -4.6707213544422349e-001
      2.6548832077994140e-002 1.1111004838313231e-001
      3.4413582756639367e-002 -8.2856012019331765e-002
      -2.8889210547844724e-001 2.9913415497219855e+000
      -2.8455961977092231e-001 1.0435018875124097e-001
      2.8435001108881897e-001 2.0624196059805577e-001
      2.7275946770985565e-001 2.1741675356660004e-001
      -2.8421726257280022e-001 1.3736501349784366e-001
      -9.3411448472156067e-001 8.7116920845178913e-002
      5.6295036199394366e-001 8.2951689746612225e-002
      1.1446286819133985e-003 1.4880850041816779e-001
      -4.1013854974672831e-001 1.1881617530322364e+000
      -6.3476793929100206e-001 1.0055293584907450e-001
      -2.4777337176027198e-001 -1.0143270859604501e+000
      7.2543259164263441e-001 1.9837122615462457e-001
      1.5467883473830039e+001 4.4655662994185386e-001
      1.2840141932577721e-002 6.7000486899078993e-001
      -3.8363430618947369e-002 9.6614002433850932e-002
      -9.1370694851211506e-002 1.1402402271537018e-002
      5.7862969100149586e-001 -8.0351402030952990e-001
      4.0127878369097764e-001 -2.0694598287206856e-001
      -2.4017823241794337e-001 1.7577333824762756e-001
      2.8141105251646076e-001 -5.4405745605903909e-002
      -8.7519607451286707e-001 -6.8300722561902991e-002
      7.5370374236733684e-001 1.5404678462450925e+000
      -1.3746238189514373e-001 5.2829906218949430e-001
      5.7111341982853880e-001 6.6914752599835858e-001
      -2.4185022041968979e-001 -3.7494514718590527e-001
      -2.8395351281387576e-001 8.2830959747187238e-002
      -6.5191832086854873e-001 -2.4657032059384437e-001
      6.6942928880598984e-001 -9.5952992711018026e-001
      1.0544934489384155e+000 -3.9321963639248092e-001
      1.1608765302997956e-001 -1.8963992863423138e-001
      1.2868950298948920e-001 4.7238189454547541e-001
      -2.9920583576127024e-001 5.8989034706413757e-001
      1.8509288391468736e+001 -3.9009743375803813e-001
      -3.7235486935599638e-001 -1.1730509865583163e+000
      9.2266501998526027e-002 8.3221924307073303e-001
      8.9815099568587548e-002 2.2233256495933348e-001
      1.0238789895303057e-002 2.8684046418826287e-001
      4.9298580497114997e-002 2.3090822657791080e-001
      -1.6919095078723098e-001 3.1665753304850164e-001
      -3.3303830239864241e-001 1.4973763021345474e+000
      -8.3645645039594596e-001 -2.0944647884277797e-002
      -2.9510680927256761e-001 1.2018485329308219e+000
      -3.9643477760814749e-001 7.3390968267290191e-002
      4.6208111376380212e-001 5.3092247602684239e-001
      -3.1243200656974363e-001 -6.6462974976511391e-001
      1.4591897955427818e-001 -8.4992347122724254e-001
      -1.1303482771430602e+000 8.8634432194709234e-001
      3.0228721152278332e-001 -5.5969778206382770e-001
      -3.8179363136100708e-001 -1.2576750762573459e+000
      -2.8885757119983702e-001 -3.2383705433109639e-001
      6.9415499487551835e-001 -3.2438449690682575e-002
      -3.7206488251996567e-001 2.5236678805207374e-001
      1.0093687676241128e+001 2.4267769283112942e-001
      8.1013631977791989e-001 -7.2665784568958003e-001
      2.3410132177366300e-001 7.0832836276839575e-002
      -1.7574605985621011e-001 1.8865865810035019e+000
      -4.4209660816621810e-002 1.0772350955934564e+000
      -1.3195277761854080e-002 -8.1829074064634988e-001
      1.0769828834783616e-002 -6.1375509279803075e-001
      5.3088808024079016e-003 1.4335957395383925e+000
      9.9961442032149045e-002 2.5925149792895258e-001
      3.2183563568558626e-001 7.6943937432716103e-001
      -4.8324813510718745e-001 -3.6233993399487968e-001
      3.7154267031087496e-001 5.5867212660126031e-001
      5.1478207352983141e-002 5.5978616437038130e-002
      3.1291191583360045e-001 -7.6373597827411088e-001
      -6.4977113330906805e-002 1.0685666441746451e+000
      -5.7668067119903765e-001 -1.0015783020561240e+000
      -4.0879192652550667e-001 -1.8345577781404501e+000
      -6.9240325330411789e-001 -1.2677685848550246e-001
      1.3444982694045229e+000 1.4944919676110857e-001
      -8.6279632063491896e-001 4.4014423586179974e-001
      4.0154861597921263e+000 -1.1955820620716318e+000
      -3.9350616816523815e-001 7.9355951031086480e-001
      5.8352350483522941e-001 7.6140393280256646e-001
      1.0977384395611288e-001 1.7541309109757808e-001
      -1.9532362491386487e-001 -4.9630492830500106e-001
      -1.0499915663513515e+000 -4.5319665775046769e-001
      4.1851044887577578e-002 -1.0115594840011435e-001
      1.2865138478085228e-001 1.3348422828116631e+000
      3.2854956340798258e-001 -4.4823729347843827e-001
      7.5064132995525268e-001 2.1930735352903744e-001
      -8.9602761472177228e-001 -5.1352476966832061e-001
      8.8289188496917770e-001 -2.7912457048532541e-001
      -2.1903418701357058e-001 -2.3307390945172778e-002
      -1.6369217647374867e-001 2.5060463512092435e-001
      -6.6543730496571707e-001 1.0291033364630939e+000
      8.9092706988163395e-001 -5.6713773029669423e-001
      -8.8934590840205296e-001 -2.9035511303946260e-001
      5.2522092146750687e-001 -8.7825069408077105e-001
      2.5603120675653507e-001 -5.0816933934530428e-001
      -2.1281856225184731e-001 -7.4337131107517207e-001
      6.7215018498926629e+000 -1.0246164355929990e+000
      -2.4918223809592699e-001 1.7944584327221926e+000
      4.8595092399189349e-001 5.0714978310504766e-001
      1.1242228243603955e-001 -1.0870410551911982e+000
      -9.2812347845358778e-001 -3.9768069818327434e-001
      -1.0837869917544604e-001 -2.8840169785750719e-001
      6.3976809310164445e-002 5.1659410698424846e-001
      1.3835855486434881e-001 8.6037246039671511e-001
      6.7246397956465226e-002 -5.2575575761559901e-001
      -6.0603315213862630e-001 4.0853835852009096e-001
      -8.3313726786548881e-001 -1.5147729758588708e+000
      1.2070486808684004e-001 -7.2166318064175627e-001
      -4.1586816800845244e-001 -4.6234563732804762e-001
      1.3222090004244007e+000 4.2016698795024920e-001
      -4.3082137817768990e-001 4.9560301866850710e-002
      1.6371710526138559e+000 -6.6838016406723688e-001
      -7.0798227634737976e-001 1.4838594601699071e+000
      4.0170825748921979e-001 7.1960315874918102e-001
      5.0844688563792140e-001 -2.1567248079805140e-001
      5.2266411297641827e-002 -2.2341017525989207e-001
      1.0398920791096128e+001 1.2682854058273121e-001
      -2.3088805100912577e-001 7.0383453977684640e-002
      -6.5301560135373826e-001 -1.1054071605955931e+000
      1.1393335402510947e-002 -6.6569099762350969e-001
      -1.1315541025918454e+000 -1.0246650097817098e+000
      -5.8402884429623481e-001 4.6630949794051859e-003
      -5.8029081838364660e-001 -4.5144416889060762e-002
      7.0717131414270828e-002 9.8062771663385095e-001
      9.3693145236786013e-001 -3.6251794688751393e-001
      -3.3090825132884732e-001 2.3347719896931204e-001
      -1.5711964929676547e-001 -5.6090895931752793e-001
      1.4481772856070363e-001 7.3800547975315767e-002
      4.4764319991226814e-001 3.2164093359653084e-001
      1.4171340949920215e+000 4.4317001280913931e-001
      -1.0149821677391010e-001 -8.2674111644699261e-002
      -4.5735140717407208e-001 -1.6226609681222284e+000
      -2.1097834276148736e-001 3.1303438174305603e-001
      -1.9285570695436632e-001 5.4889178929290205e-001
      2.4517565128096908e-001 -1.7681805470947537e-001
      3.3721356105679590e-001 1.7730114273270195e-001
      4.6130392212905305e+000 -9.9560534933849532e-001
      1.5063938678125499e-001 -1.3820415493207354e+000
      2.8177140074000040e-001 -1.6476407203698653e+000
      -1.4415536561061443e-001 -9.4511286553548554e-002
      4.6903331243793406e-001 -7.6625085551911243e-001
      9.8644290073964122e-002 7.4826174479190444e-001
      1.9892581736628312e-001 -6.9068672093815708e-001
      -2.3256796103962789e-003 1.2975430949397209e+000
      -7.9112401800547946e-002 1.9490547609638187e-001
      -1.1407799196309394e+000 1.0781997495946644e-001
      3.0957331712938300e-002 1.5649807163276017e-001
      -1.0632502761110008e-001 -4.7331642195867635e-001
      -4.1870957287848243e-001 2.5198506997668163e-001
      9.0623187132847738e-001 -1.7191934138800846e-001
      -4.8484632188346666e-001 1.9430435483416117e+000
      -1.0583408088134416e-001 -8.0243053685102861e-001
      -7.1998116669369316e-001 5.1759764749607717e-001
      -1.3995644019959771e-001 1.9364168127469028e-001
      -6.5287565682080340e-001 -8.6894080559471276e-001
      7.4030657758891083e-001 -5.7403477813287151e-001
      6.9537984474882730e+000 -9.0830586791425041e-002
      -4.9824654828514120e-001 -1.5014560661788285e+000
      -8.7319447785931970e-001 -5.6270129393390345e-001
      -4.3283137793457116e-001 1.5859102677817388e-001
      -8.5588224918131270e-002 1.7420677437505064e-001
      -2.5379460729111125e-001 -8.5017022296823841e-003
      9.0957372211136178e-001 -1.7429201408606536e+000
      -9.7499790322741087e-002 6.9138348606516054e-001
      -8.6088367839085841e-002 1.5402449709966028e+000
      9.1676929427951553e-002 -6.5636402564220664e-001
      -8.6882161698194060e-001 2.0390688035607768e-001
      6.0995206002696978e-001 1.6127158496286847e-002
      -6.3799947485697850e-001 1.6617805730769927e-001
      2.2799343406105457e-001 1.6138555623585490e-001
      2.6109321612327163e-001 9.8638476764182381e-001
      3.6625773380789273e-001 -2.7864223540093763e-001
      -4.6231776069295805e-001 6.7525423894284520e-001
      -1.0055139977241057e+000 9.2158638432232945e-002
      -7.8567356830546620e-001 4.8111885526085663e-001
      1.0983743110619584e+000 -1.0602655899353672e+000
      1.1150614006971697e+001 4.3538805143235171e-001
      1.2343106203122959e-002 -7.4307229384832729e-001
      -6.3240468769802982e-001 6.3221765928586013e-002
      -4.0264765029683480e-001 -4.3804359930218756e-001
      -1.3543463697606639e-001 2.5286730775800775e-001
      -5.4608950553206159e-001 2.0901266551687525e-001
      2.9259930210915397e-001 -1.2765225931442119e+000
      -2.6404879383266217e-001 2.3712486611136638e-001
      2.7644627372397579e-001 9.2199583853518630e-001
      -6.6956038885561830e-001 -1.2510597048759886e+000
      -9.0938542084623664e-001 -8.8842207278023322e-001
      8.0279185940818532e-001 -2.2657822877500872e-002
      7.6774057658148964e-001 8.8255451821026498e-001
      -2.6765301902777988e-001 -4.8034782247007466e-003
      5.6029030173025227e-002 8.4771274783414519e-001
      1.5667220813382330e+000 1.3999560938279620e-002
      -7.4633981141286998e-001 -3.4052246194216679e-001
      -1.3167412127019213e+000 -4.4940583297601783e-001
      -2.6728760936780666e-001 3.6106176595841627e-001
      -3.5049557648376872e-001 -7.8377799053555008e-001
      1.2640194013229866e+001 -5.8187246002007342e-001
      -1.2190324790948297e+000 -2.6107993043792072e-001
      7.5260039613376059e-002 -5.4468868725763064e-001
      -3.6097936429368094e-001 1.9205421296568190e-001
      5.8236016075850039e-001 3.0409782054257279e-002
      4.8421390961647998e-001 5.1718359277270351e-002
      -5.6768854197393159e-001 8.1791962060407364e-001
      9.2369284281294733e-002 8.2581182090603569e-002
      8.3230514250512022e-001 -6.9257960339773036e-002
      -1.1433461004213965e+000 -2.9719120847194447e-001
      1.2460417605321598e-002 -1.0586400155000932e+000
      5.6212408820287796e-001 5.5465844194539971e-001
      6.3932054078257661e-001 4.1079776282345865e-001
      -2.7484777313225078e-001 -7.5148876399772224e-001
      3.7558800750298149e-001 5.8097682952214470e-003
      6.5837353136175025e-001 1.8215712539937789e+000
      4.0354824033841696e-001 -1.6886820946205344e-001
      -2.6300945685430865e-001 -9.1854300330716204e-002
      2.9757094434941733e-002 -3.9657694923201681e-001
      -2.0175973210800549e-001 -6.4102749771195244e-001
      -3.0251246460109250e+001 -2.5260322396703538e-001
      -2.4307635257315985e-001 6.5665531301245827e-001
      2.0691586298800374e-001 3.0435615826225720e-001
      -5.8792498266687265e-001 2.0150134699954039e-001
      2.9536226806287813e-001 -6.4942595310662821e-001
      -9.3857647336395039e-002 1.9384944641541269e-001
      -5.6336710488497109e-002 1.1013536943049688e-001
      2.1188711688870496e-001 -3.0130061840876476e-001
      -5.6247794917403693e-001 1.4760262428664822e-001
      6.3326381688624603e-002 9.6686045131340284e-002
      -3.9989718496944576e-001 -3.9497101226480308e-001
      5.7606652303711070e-001 5.1842826086033411e-001
      -8.4370696882690355e-001 3.1627347655012472e-001
      3.7661304026604819e-001 -9.0156787173451797e-002
      -4.1765555852433245e-001 4.9274422544597613e-001
      -3.4174459423686382e-001 -1.1040206336570883e-001
      -4.4167983410197686e-001 1.9817164471457693e-001
      -3.8684403132962175e-001 2.6872456744551068e-003
      -4.8651800646752785e-001 -2.9664144802100676e+000
      1.5852511348208653e-001 6.2359387156865363e-002
      -3.2165912203483941e+001 1.0750704301660055e-001
      -6.2416901660806134e-001 3.9924311912748994e-001
      -2.8271135285015225e-001 -3.9130484842582226e-002
      2.6817596856579429e-001 -1.1458456297738167e+000
      -2.0331804763372252e-001 -4.3236652221623978e-001
      -9.6540196284183824e-002 5.9402353004810482e-001
      4.3252670813130117e-001 3.2520189036455704e-001
      5.7095111856091108e-001 -5.0757347377861450e-001
      6.0680151017836159e-001 -1.6766961436265754e-001
      -8.0816145572014941e-003 5.6890656787081417e-001
      -1.6919414870775720e-001 4.2721991217490263e-001
      -2.3920729643931060e+000 1.6681143956506955e-001
      -5.6330815082329533e-001 -3.4609953946627386e-001
      -3.5675299693198848e-001 1.5189000803085703e-001
      -2.5159089590309103e-001 -3.6040408079193342e-001
      4.8118731349296101e-001 8.2280087618416309e-001
      -4.8792920291790033e-002 -1.1964043894654968e+000
      -1.6113551682202647e+000 -4.9054071624658396e-001
      -5.9059416219845118e-002 -5.3277646189503959e-002
      5.1754281503533317e-001 -2.6570136585677034e-001
      -6.9467840637623253e+000 8.4000886859888602e-001
      -4.2330641468780367e-001 -5.7063330033262871e-001
      8.3366949200627338e-001 -6.0516466548056469e-001
      5.7491921142404745e-001 -1.6105584340301538e+000
      4.2524714443600226e-001 -7.9304868240409510e-001
      8.6557994125781509e-002 -1.7857867612568523e-001
      1.2513751557706848e-001 -2.7488786651793168e-001
      -2.9220476554568575e-001 -7.8527027942044914e-001
      1.0485241936424310e+000 -7.3053543349064998e-001
      2.2946285905528227e-001 1.1726598401413536e-001
      -3.7560116007660876e-001 2.3715794014495786e-001
      -3.7500914482534242e-001 1.8193674078672517e-001
      -1.3544096874627026e-002 3.9064941621410137e-002
      -8.8733799505145608e-002 1.6532981423307547e+000
      -9.4011254949267420e-001 8.1018092885152451e-002
      1.5174938702294376e+000 2.3706156039714488e+000
      6.2623457975053043e-001 -1.5884896989912565e+000
      -2.0511658420502124e+000 -7.0041497621474336e-001
      3.8839627240704594e-001 7.9237049298118242e-002
      6.3840418014677036e-001 1.5273007389009767e+000
      1.2148464539266630e+001 1.1734175775174218e+000
      -8.1064807586474241e-001 4.5753576433196785e-001
      8.9524150465297610e-003 -1.4374839016703134e-001
      3.0009120725090771e-001 -2.6672314109915263e+000
      1.3519376920731716e+000 -2.3418735401981541e-001
      2.0825739316722816e-001 1.9935424886680592e-001
      -5.2393968781114397e-001 4.5311054366810655e-001
      -4.1928157234751018e-001 -5.3098483265552776e-001
      -6.1545556006072522e-001 4.1184901392955237e-001
      6.9931440117364774e-001 1.3030476712554478e-001
      4.6237784099445467e-001 1.3770232812637153e+000
      -1.0826110538214072e-001 -4.6673956391843474e-001
      -3.8519167832198303e-001 4.1334265244311541e-001
      1.5852805532085049e-001 2.9027933187082200e-001
      -2.3689927152238519e-001 1.1193892062160475e+000
      6.2620605099556448e-001 1.4298137320864264e+000
      2.8240238073730917e-001 -8.6913721341825656e-001
      -7.0905612725292888e-002 -5.3600370651765283e-001
      1.4217380149761989e+000 -6.9174697996134427e-001
      -1.3516691366342752e+000 1.0573718062684601e+000
      5.0155724037700731e+000 8.2203243000243553e-001
      7.9261286134375064e-001 1.4561948087062571e+000
      -7.6116837136781879e-001 1.0928579891702126e+000
      -1.2830216351119064e-001 -1.0096330851400832e+000
      2.3062261192249798e+000 1.0272386044809130e+000
      9.2681954803335220e-001 -2.5881084692090495e-001
      -3.7570992430136763e-001 -5.1977217238317852e-001
      -4.0820769557267494e-001 -7.8710760828320132e-003
      -2.1680754159026159e+000 -1.3383124367843251e+000
      2.0934383867885069e+000 3.8874654925799151e-001
      1.2895604732505417e-001 -3.4807280247242153e-002
      3.1555055547925576e-001 4.9153333523108989e-001
      1.3579441842148235e-001 2.2968755369964851e+000
      1.4550419954030986e+000 -9.6660712925220349e-001
      7.5266439215352754e-002 -9.9083687409478149e-002
      -2.9692011013784643e+000 7.3380578282141484e-001
      7.2903298724579646e-001 -5.3497110431171524e-001
      1.9006006284183441e+000 -7.5754038354752096e-001
      -7.8474159976039992e-001 -2.2062880997770917e+000
      -4.8142616529458027e-001 -1.6803375102823676e-001
      3.6963725762748370e+000 1.0414972077478206e-001
      1.0572712773688504e+000 2.1529797309831085e+000
      -9.5223782218717234e-001 -7.1862389680884631e-001
      -9.4342851002709935e-002 8.9692800752447199e-001
      -9.2458089149107470e-001 8.4587902874806897e-001
      1.2541821617845703e+000 -3.8113848538100215e-001
      -1.3950371692108623e-001 -8.3940697026015740e-002
      3.0577572911101225e-001 -3.4164190498824254e-001
      -2.2354275906312279e-002 -3.2786640953797280e-001
      2.6456071074006982e+000 1.5007513919037658e+000
      2.4267199260026236e-002 1.3133724337587471e+000
      -2.7093944626352706e-001 -2.8509086696920649e-001
      1.8406721238831141e+000 -2.9034678786619764e-002
      -9.6344870694352491e-001 -9.2972938962699259e-001
      -3.6166506300751283e-001 5.8245039965037737e-001
      -9.5939957399626208e-001 1.0096607800493182e-001
      3.7792736235067237e-001 3.5429613757592349e-001
      -3.3689597282385020e-001 3.0711530937850545e-001
      -1.7234236499749571e+000 -6.9417377411958281e-001
      -1.0369616450165648e+000 -3.6693559840778772e-001
      -7.0584582869382553e+000 7.3985797971301770e-001
      -4.1431684662119955e-001 -6.6960174644306003e-001
      5.8831232524541699e-001 9.8265998647144026e-002
      9.4417011575215509e-002 4.5724469698597275e-001
      -1.3671593239528586e+000 -7.4224943957205536e-001
      -8.3796375767843434e-001 6.9965535718650468e-002
      -3.2803043190699216e-001 2.8399429344695082e-001
      2.1936251828637079e-001 3.0603125386592767e-002
      -1.2996092182866954e+000 -1.3705610275681820e-001
      6.3813246264764673e-002 6.2634787807274339e-001
      7.4783521790406859e-001 -5.9814917497539344e-001
      -6.4064755730520495e-001 1.3345201626431797e+000
      2.4088169496715531e-001 1.2691242669238659e-001
      -2.1799850095967743e+000 1.4227051788528691e+000
      9.4512680966441098e-001 3.2096862482524291e-001
      1.2426762844636836e+000 9.3518060772281711e-002
      1.5320911212364674e+000 3.5736190148272007e-001
      -6.7241557944051134e-001 1.3859093210082909e+000
      1.0168665588803144e-001 1.6943699346519345e+000
      -7.4474133678575438e-001 4.7925891965123918e-001
      -2.3289385129738498e+001 4.6919142087318783e-001
      2.3862407658228831e-002 -1.3769257387280500e+000
      -1.5920043975229847e-001 -2.9078545673042060e-002
      3.1778920533669314e-001 2.3676263308459147e-001
      5.1819655838816747e-001 -7.2474680764344890e-001
      -5.9089964840671183e-001 -3.6029753065327386e-001
      2.7046431513706670e-001 -7.1769189472287331e-001
      1.9726486021660455e-001 -8.0615257606130253e-001
      -1.1330677159551450e+000 -3.5285951001851834e-001
      5.8989696106938683e-001 1.5722322232525573e-001
      -2.1320193879727983e-001 6.4992269861255544e-002
      -1.1772202116534989e+000 -1.8389445929733680e-001
      1.9033088116854033e-002 -2.2637317916247890e-001
      -3.5963864208889827e-002 2.4084680855096083e+000
      -1.2912358629876214e-001 -7.3185321239327406e-001
      7.7474390365078638e-001 2.7946371010230742e-001
      8.7872224547199673e-001 1.0185763737884881e+000
      -2.7988138954836378e-001 1.0984432414543956e+000
      -5.0644726050971833e-001 1.4575413593894531e+000
      2.5513306829470905e-001 8.2570829784307387e-001
      -5.1287699763456054e+001 -9.7232397810965557e-002
      5.7391452392976827e-001 -3.1270378601476398e-002
      -4.1519035588707009e-002 -8.3287492830632293e-001
      -2.4200104772258851e-001 -4.9347416105204156e-001
      7.8454540326870673e-002 -9.9636150729141733e-003
      -3.8782998681562791e-001 1.8946265583291133e-001
      6.1539495954208490e-002 -2.1996467165080595e+000
      8.6832739557240424e-001 -7.2568718333911653e-001
      -6.1281051780228683e-002 1.9856625759691493e+000
      -9.4714987676209048e-002 -1.3360803864240092e+000
      8.5486750348065466e-001 -2.3029791388242957e-001
      -2.6415770908758138e+000 -4.3384735938015556e-001
      -3.0242064076867381e-001 1.3494532565819531e-001
      -1.0296739889684696e+000 1.3472602165860315e+000
      -6.2146701550957119e-002 -6.1683206733853854e-003
      1.3248813757468219e+000 -5.4904054482712727e-001
      6.6936466187174515e-001 -2.8612421221585027e-001
      -4.4363538728324631e-001 8.8326735247153754e-001
      -1.8250177342553359e-001 -3.6031287033704695e-001
      -4.8018005979047085e-001 1.0273867540522474e+000
      -4.1622958449961544e+001 -3.8016232567824321e-001
      -3.7480771969851862e-002 2.0872985070811809e-001
      4.9314767161489786e-001 5.0759132556176689e-001
      -2.4575481651031167e-001 6.7442821001170630e-003
      3.1546313180919400e-001 4.2157833379250326e-001
      -1.8595366471020627e-002 -7.4834410590470224e-001
      -2.8984036904904886e-001 8.3097142679865760e-002
      -2.7543415690909463e-002 -4.5383113474216592e-002
      -3.1101077704246377e-001 4.5840826770719403e+000
      -1.3760580313329664e+000 7.6890385219618718e-002
      -7.6159226455004281e-001 -2.5582913682703790e-001
      -1.2211563398313912e+000 8.7750657100990159e-001
      -2.9228696874285259e-001 4.7863397735623958e-001
      -6.8522381075112193e-001 1.9647284981989474e-001
      2.0863130981318276e+000 4.1389142906051907e-001
      -1.4920231530144751e-001 3.7861345988317718e-001
      -8.7881925638984326e-001 3.3970406897564936e-001
      -1.4091306251822056e+000 3.0779579286024317e-001
      -4.6251550615169656e-001 -8.4531689567916263e-002
      9.7316019084257604e-002 -1.2376130621456580e-001
      -4.1816619419686546e+001 4.9643507637581341e-001
      1.6269537308339055e-001 6.0621183564742087e-001
      2.1974329006615942e+000 4.4031648481220192e-001
      -4.6809760056457500e-001 -1.0011812804450817e-002
      -7.2519734128897129e-001 -4.4478344420282825e-004
      -3.0189836453462177e-001 -7.1763453112685283e-002
      2.5831390510509722e-001 1.1794206436298214e-001
      1.4595711540198267e-001 -1.8976012474089068e-001
      1.1296268973821670e-001 1.3739163647309258e+000
      1.0756168475902450e+000 9.7177750983126754e-002
      -3.7446446942935091e-001 2.2953094765742776e-001
      6.2705158833718599e-001 5.3124119173067796e-001
      5.2420014185542471e-002 2.7209102217973402e-001
      2.0039956184979408e-002 1.5105881381751707e+000
      -7.2334529497360911e-001 -2.0878034371667083e-002
      -1.9038097590682759e+000 -7.0731224242212554e-001
      5.8480856762166807e-002 6.8732327822014561e-001
      7.1397891368800503e-001 -9.8261028122662977e-002
      -8.7108673105388867e-001 -2.6705527425742686e+000
      1.0106705279809997e-001 4.1887440375559165e-002
      -3.7770838942363241e+001 -2.2981302251245653e-001
      -3.3877799539523468e-002 1.0853750931208768e-001
      9.0751937531109699e-003 -2.8367836241101274e-001
      -2.2887471226144704e-001 2.4802427420116352e-001
      8.1844217267028396e-001 -2.5915805394929109e-001
      -8.7414661012772543e-001 -4.3080261760413158e-001
      3.4502673136764073e-001 4.2292169023211340e-001
      -4.8601218963281118e-001 -3.4229247348469560e-001
      4.4101919689303971e-002 6.7837190858366991e-001
      -1.3047150604915447e-001 -3.7972913002679604e-002
      2.0016235419467379e-001 2.4352673892910515e-001
      1.2412869180457958e-001 -2.5700920579712433e-001
      1.0985929666223158e+000 3.3300758019574356e-001
      7.2643590730581276e-001 -4.0079299576369305e-002
      -5.0497160247380224e-001 -2.8990924460320516e-001
      7.2494798834527052e-001 -2.9864998028154538e-001
      7.4742949799130032e-001 -7.9659024076988183e-001
      -3.8599235113253083e-001 -2.9215791903263694e-001
      -6.5705569076854542e-001 -2.3707539790211640e-001
      -4.9954230534712207e-002 3.6639215431046285e-001
      6.6052949027225214e+000 1.1693766756915455e-001
      -7.2618362687290583e-001 3.7723194831698020e-001
      5.2799133037502188e-001 -5.9255501502935592e-001
      4.6237875486398805e-001 -2.3492272133568597e+000
      -6.1049485855579588e-001 -1.3965766963815401e-001
      3.9067265616508756e-001 2.8472104594901004e-001
      -3.7977591876646677e-001 1.9128251268425872e-001
      -5.1531634981790952e-001 6.7498698999843898e-001
      -1.1533821104279895e+000 1.4706333020131065e-001
      -2.0634451820860467e-001 2.1931233499863256e-001
      1.3980887938360444e-002 8.2293112892041231e-001
      -7.0678596638136193e-001 6.3201388952551307e-001
      2.9165487179561350e-001 1.5836629078653252e-002
      6.9751066563997610e-001 -9.4709507498280776e-001
      4.2213806137565402e-001 -1.5055226091663362e-001
      -3.7976193906158479e-001 -1.0275596753679335e+000
      1.1564009550508456e+000 -1.2814470850339301e+000
      8.8533384335785937e-003 3.2315970588474097e-001
      4.1477494644665130e-001 4.6419190438582342e-001
      -1.9089027366234834e-001 2.4725957175943244e-001
      2.4880488617475272e+001 -1.9146242520039300e-001
      -3.4220857353074635e-001 8.9547469179131223e-001
      -6.6239353515711820e-003 1.7752389737206362e-001
      3.3268546563765372e-001 -4.0888355462298570e-001
      5.1922310563552165e-001 -5.4676472113709207e-001
      -1.4301666286707707e-001 -4.3052633095800158e-001
      -2.2471292559367984e-001 1.4619783701861810e+000
      2.0468998278077580e-001 6.8401498141381756e-001
      -7.3247351244787262e-001 1.7590013763387622e+000
      -4.8743723158832786e-001 5.3013411577599223e-001
      4.7000091354240059e-001 1.0832820099690446e+000
      3.1940810287583193e-001 1.4639659236968146e+000
      1.1132145084868825e+000 9.6226811619780250e-001
      -3.9125863174563102e-001 -1.3871348846017326e+000
      -3.2837873101231074e-001 5.5135860792318511e-002
      -8.1581993934544139e-001 -6.7004422933676588e-001
      1.6233984210205656e+000 3.4187942028699686e-001
      1.4471368044780992e+000 4.6425741158528086e-002
      1.6039333755053229e+000 1.0872089959872202e+000
      -1.2678033982825025e+000 6.9097566638492980e-001
      -3.1218924746958918e+000 1.3105409764143698e+000
      5.1429994050592442e-001 -3.4640463877900252e-001
      6.2480031821690352e-001 4.7763962084466499e-001
      3.0105289306188698e-001 -1.9102853240553532e+000
      1.2761480575453230e+000 -2.0708330598842326e-001
      6.4200117639420085e-001 7.6865003234769624e-001
      5.6351828817492067e-001 -1.1614388954730036e-001
      -4.6325216932768636e-003 9.5699917418728730e-001
      -1.0838969238671905e+000 -1.1173362186483025e-001
      8.6935700396424220e-001 5.1072446382817459e-002
      4.0827906252591600e-001 3.0937982085555277e-001
      1.1794109619380018e+000 -2.9679362046005819e-001
      -3.3566271802801456e-001 1.0513375844603605e+000
      -8.4739974096854812e-002 1.4448611557822917e+000
      -8.8062840229663125e-002 2.6032761353303618e-001
      3.1058182647876808e-002 2.0250126753393567e+000
      3.0242309077475876e-001 5.8674446930565571e-001
      -3.8197097078061992e-001 9.5753454254068737e-001
      -8.2250490666599496e-001 4.2121238650405574e-001
      1.1949737817148436e+000 3.2800760102304116e-001
      1.0915586778238282e+001 8.3135773713024863e-001
      4.9863891456725962e-001 4.1724230605003054e-001
      -3.7018388534168684e-001 1.4049451027807860e+000
      1.8602499980696827e-001 2.8332997210670513e-001
      3.2812293377963897e-001 -6.6895064530275405e-001
      1.6150265651431253e-001 4.4767526677600405e-001
      -3.5423520726654184e-001 -8.2078795602975452e-001
      -1.0214864536342386e-001 1.2911988209471253e-001
      -4.2314375331291376e-001 -5.6624026027000163e-001
      8.9542076005543247e-001 3.9024603062797331e-001
      -4.5600051127103475e-001 7.5675406104467213e-001
      8.3275390907289648e-001 -1.6706891645102813e+000
      -5.8924930134283116e-001 -3.5829711344188891e-001
      -1.7605347103189195e+000 4.1365611388590129e-002
      3.2648230880987211e-001 -7.6038924194187563e-001
      2.9800923215422609e-001 5.5831634553162535e-001
      -2.7122241470361197e-001 -7.6926026984388263e-001
      -5.0754453508835451e-001 6.0685523706171363e-001
      -6.6093565675110366e-001 -9.7920750541095802e-001
      8.9427786849490334e-002 6.5245250841672031e-001
      3.3573790120437526e+000 3.9444376547019339e-001
      1.7939029555630093e+000 3.2917900519743959e-001
      -1.7288777512078085e-001 1.0566362411934840e+000
      -3.1769382947579677e-001 5.0890456222947378e-001
      -1.1613398679279956e+000 -7.9765834915967826e-001
      1.4292534763514190e-002 2.9455244045597868e-002
      -1.3174250888146093e+000 1.0885021446974148e-001
      -1.0231759586722271e-001 8.7542342523751160e-001
      2.1739502366142266e-001 -4.6941310276892240e-001
      -9.1099001859703779e-002 3.5363252334034606e-001
      -3.5706376655634459e-001 1.3103119675328052e+000
      -1.8266017857005170e+000 -3.5015130236732100e-001
      -2.1220493060779408e+000 -2.2561325076654510e+000
      -4.9755101251944789e-001 -1.0433615531136169e+000
      -5.4517964437025013e-001 8.1048557018190359e-001
      1.4556942588047350e-001 1.5891645590792761e-001
      7.5945991947745706e-001 -3.2748580946576172e-001
      -1.2133243739998338e+000 -3.7304256666068641e-001
      2.6092683796004174e-001 -7.2080975804797054e-001
      -1.2589933723419993e+000 -5.8700869733523162e-002
      -2.7105618088717680e+001 3.3893086111579296e-001
      8.4364762655053138e-001 -4.6248000174163378e-001
      6.9214239647193276e-001 1.0034871336508957e+000
      -5.8866794706922632e-001 -1.0005873136384711e+000
      -8.1125305175042417e-001 5.5256568687726680e-002
      4.3332701148812380e-001 -1.2711234316234059e+000
      -1.4555460190310245e+000 -2.6920605102601541e-001
      -1.9649154602174659e-001 4.5712790596874403e-001
      -7.4564166211974625e-001 -7.5116096880610383e-001
      2.3672310712182097e-002 -1.1007258157080653e-001
      9.6873730716058382e-001 1.1299635027055831e-001
      -1.5815304486461139e+000 -2.9181097745897755e-001
      -2.0776518634886783e+000 -1.3864404714248628e+000
      4.7044355804196392e-001 1.7325352414386344e-001
      -3.5880266642232628e-001 5.9127898976921245e-001
      -4.5264008825915913e-002 5.0433824221347900e-001
      7.9304095341444703e-001 -6.1373886523738555e-002
      -1.3702468844925939e+000 9.1238980656261426e-001
      -7.3369045012494816e-001 -9.9442672937289678e-001
      -5.1729444527406987e-001 -7.1456367154949352e-001
      -5.5512473644388358e+001 -5.5828658669824160e-001
      2.1025114090342198e-001 9.1822543243030175e-001
      -4.6988043892777587e-001 7.3062099929566998e-002
      -4.9488567916312487e-001 9.9324927561385591e-003
      4.8444344078497442e-001 -7.3777399053105999e-002
      -2.5762522837682735e-002 1.0069250394615674e-001
      -7.8895162038360644e-001 -3.2683546727031088e+000
      4.1069545105025484e-001 -1.8382455033905842e-001
      -4.1189537059019871e-001 1.2130779973741281e+000
      2.9838750868994644e-002 -2.1705754873696814e+000
      2.9013397773122079e-001 -2.3235804358273321e-001
      -1.6223465682245257e+000 7.8413189924494342e-001
      -3.2015273583799975e-001 2.4731468404875995e-001
      -2.7885166625886432e-001 -1.7908721133360772e-001
      -2.8547496241077003e-001 1.5217114373400789e-001
      -3.7802194314325921e-001 -4.0849057179670412e-001
      -6.2220748415808780e-001 1.5583226462414110e-001
      9.5633769069695701e-002 -4.1711154951581042e-001
      -2.4310965294746634e-001 -8.1224038183122671e-001
      -6.4611460791936304e-001 7.1258720809731529e-002
      -4.6130733948740904e+001 -3.8143634835095291e-001
      -2.4467317457942372e-001 2.4606418446984257e-001
      4.8227828919761428e-001 4.9351609902347432e-001
      -3.6090032974169584e-001 1.2459232967205615e-001
      4.2266844981575225e-001 3.6351262513705779e-001
      1.8955670978310424e-001 1.3256158273073129e-001
      -1.4766304946035634e-002 1.0621789578891010e-001
      -7.3972848047237208e-002 -7.3624199439682625e-002
      -3.0606436290493755e-001 4.6380022456223964e+000
      -1.3556383914583270e+000 8.2871479132045053e-002
      -2.2674264097732599e-001 -1.9693836783033378e-001
      -9.2133665047780700e-001 8.6410370729080899e-001
      -3.7885973834547254e-001 4.9610864326231519e-001
      -7.4492216486251650e-001 1.4270714379856222e-001
      1.8577131045023543e+000 5.9773633637163731e-002
      7.6453449471555815e-002 -6.9052838356320492e-002
      8.9462410537428080e-002 3.3880192128610814e-001
      -1.3988199004438342e+000 1.8147479903252017e-001
      -5.2493930304628578e-001 -1.9887186280541391e+000
      1.8716155230231651e-001 -1.1113601019145668e-001
      -4.0839545927932889e+001 1.6407713183272832e-001
      -2.2582196290062490e-001 5.5816135097490049e-001
      2.1649255542865644e+000 5.4468840849357747e-001
      -4.9002910856898479e-001 -6.9897332394399936e-001
      -7.8272841397870496e-001 -3.0815426844750604e-001
      -5.2902249251469990e-001 -1.4104722946312678e-001
      -4.8444826241430311e-001 2.6577332730328564e-002
      1.4252158198674617e-001 -1.8798970301136195e-001
      -1.3867096833477205e-001 1.3350216374383854e+000
      1.1281079214200593e+000 6.5515790660608170e-002
      -1.9290955045364566e-001 -5.1296166435420076e-001
      6.6345366881983281e-001 5.0874090741982858e-001
      -3.3315219215779224e-001 7.6296078773899567e-001
      2.1773597287356436e-001 1.4508580049820248e+000
      -8.6953850157132884e-001 2.7225836725742497e-001
      -1.8802806888687704e+000 -9.1078607813215451e-001
      -5.9945395970508630e-001 -3.3526827415669652e-001
      -1.4918160414572693e-001 2.0307128616803699e-001
      -4.2137507206897007e-001 -2.6413309928172533e+000
      2.9862364831524761e-002 8.0487658160083991e-002
      -4.1947083617776926e+001 4.6400217218569460e-003
      2.5409343142917018e-001 1.9498400186265794e-001
      1.0273698653369620e-001 4.8503421030074739e-002
      -3.2270387792560756e-001 -2.0244122819957713e-001
      -3.3518198608810545e-001 1.0291219636416087e+000
      2.0738103293222874e-002 -1.2597740368261006e+000
      -2.3479565568084761e-002 -2.0625048819014030e-001
      1.2313882313713699e-002 1.1324249412537899e+000
      -7.4546627492490913e-001 1.3116725770327693e+000
      -4.5234173236763590e-002 -2.8548377923118862e-001
      1.4131810750768029e-001 -1.2591424185310890e-001
      -9.8306820644251655e-002 8.2580997279424292e-002
      2.6508973900958660e-001 1.5440820354805126e-001
      -4.8944675096103551e-001 -1.1406249394835692e+000
      1.1803394020858572e-001 8.2034213809928269e-001
      -1.5771068150872428e-001 -1.2501189668740955e+000
      8.0121896424016992e-001 2.1208056391928204e-001
      -6.9229212611706193e-003 1.5713394933762631e-001
      3.6195003307284551e-001 4.2038815538101032e-001
      -9.9055996479826636e-001 8.3704458886324351e-001
      6.1080584824758066e+000 -9.4310329699146822e-001
      -3.8664910259151003e-001 -3.9871097427109520e-001
      -1.6992927353985676e-001 1.8344053564614857e-001
      -3.2562643937129193e-001 3.3861452263659969e-001
      -3.4920169287987074e-001 1.2756968612908517e+000
      3.5411776996206616e-002 -1.0082056450253267e+000
      -2.4309992060551883e-001 6.8467307042915393e-001
      3.4523029826877660e-001 1.0728198535505624e+000
      5.0322515879826313e-001 4.3787372524798024e-001
      4.8141685637196874e-001 1.0492944527825996e+000
      4.5652429504015081e-003 2.6233199549151653e-001
      -6.7896958950339725e-001 -1.0519027775445858e-001
      1.2387535158618990e+000 1.4127549054334074e-001
      6.0263220727252216e-002 -1.3217963124199088e+000
      6.3752246656630640e-001 1.4572833915933370e+000
      -1.3134879196568008e+000 -1.4898991072638221e+000
      1.4452254440364969e+000 -4.7958924332906361e-001
      1.2509029559295852e+000 2.0866316947837549e-001
      7.4156909287419370e-001 1.8678301894087124e+000
      -7.3479913588487211e-001 7.0314976841813714e-001
      1.9566136530647345e+001 -1.2853718026069982e+000
      3.2452844291890270e-001 4.2624871581275653e-001
      5.8526477999066386e-002 1.3436287964973062e+000
      -2.3902911386068523e-001 -6.6417368432864887e-002
      -1.3928388618394513e-001 6.1666681251887845e-002
      -7.6889156424895089e-001 -1.4991725401999425e+000
      -1.6707387150709221e+000 1.2219376785143141e+000
      -6.9793855212542362e-003 1.0424419092704358e+000
      1.1227095005937950e+000 4.0784734102999604e-001
      5.0368167892397364e-001 -1.0252692808680575e-001
      -6.2831591743829115e-002 1.1348141290642253e+000
      4.7333177563518669e-001 4.4716405004325599e-001
      3.7121550769500057e-002 1.3724388028520851e+000
      -7.9538679443660262e-002 -4.1347429672876209e-003
      -1.1213431500995685e+000 -6.6097294474494650e-001
      3.4043002334597222e-001 6.5633013256905026e-001
      4.5321084024638619e-001 -1.5555097898579000e+000
      1.9751121778382094e-001 5.3737263142283453e-001
      7.9599576756749502e-001 1.2879632927755291e+000
      -9.3420658185371497e-001 7.9240838713443984e-001
      -1.3439861475787080e+001 -8.1675427639655296e-002
      1.8756136621415955e+000 -1.5785029942572673e+000
      -1.5461610088728256e-001 1.3865541687071632e+000
      6.9008619006986560e-001 2.3826730861809935e+000
      1.5070134254438807e+000 4.8075159690140656e-001
      -2.1645457750718258e+000 8.5574509969404111e-001
      7.5068362455989657e-001 1.1259810641919703e-001
      1.8556938324151029e-001 5.7029996073070666e-001
      2.0514182479463332e+000 1.1736299704644650e+000
      -7.1025512918466538e-001 -3.8395966829129530e-001
      1.5811270067898657e+000 -6.0331502207145860e-001
      7.8692027370304740e-001 4.5134440897710787e-001
      -2.4430425683107571e-001 1.4653473393835919e+000
      -3.9504655045893861e-001 -1.0759559136482860e-002
      2.0167708393183262e-001 -1.1435924346591033e+000
      5.4833088923411122e-001 8.7199629272367718e-001
      -6.0195215027317095e-001 -1.1815009571051813e+000
      -1.4815211372483072e-002 2.5955277357477660e+000
      -3.3511706792096080e-001 1.4804048825262759e-004
      1.5349468469673160e+000 -4.0331829243291456e-001
      1.9135297629570289e-001 6.3592013635182176e-001
      2.9311093506789865e+000 -6.0596381574368674e-001
      5.5416131970071181e-001 6.8405563071824160e-001
      -1.5438982048263514e-001 2.8208069874283557e+000
      1.6115124266537539e-001 2.9712746992814931e-001
      -7.7087732167772283e-001 2.0103948506041620e+000
      -3.2993410630149400e-001 -1.5708909280915775e+000
      -1.8867060346541584e-001 5.3382711579078868e-001
      2.5744415534438925e-001 -6.6611858213004227e-001
      8.0449818859775180e-001 -6.8919502791214071e-001
      1.8807950683497573e-001 8.2424664969697869e-001
      2.5755248458008401e-001 4.6088199894393317e-001
      2.3285503570547450e-001 3.8838094041192894e-001
      -3.8422725014493597e-001 1.2851017337287860e+000
      -3.9319560603707576e-001 1.9996136568259831e-001
      4.5516183566703966e-001 -2.6669068027669340e-001
      -7.6378570029238169e-001 -1.6605742631150737e+000
      1.4181510482429343e+000 -6.1766489211713338e-001
      8.8903530452580504e-001 -1.5623765452023510e+000
      2.9374614798794818e-001 -4.3218785329016757e-001
      1.0617656712996879e+000 1.1946360634080819e-001
      4.4251689331903343e-001 7.5859105471220073e-002
      4.9038291324558936e-001 1.0305695777193591e+000
      2.1898806425376935e-002 1.7722859134692925e+000
      -3.7245348544405860e-001 8.6112881469288707e-002
      7.9996717519689331e-001 -1.6395495381205316e-001
      -7.1817204937397572e-001 -1.5194550144032973e-001
      3.2249242928667404e-002 1.5963002246143140e-001
      1.0019625789443156e+000 -7.1801840510825854e-001
      7.8736729624594409e-002 1.2426479998159070e+000
      -1.5955829101890775e+000 2.6548502516583152e+000
      -6.5794461877333876e-001 3.7895596987379587e-001
      -1.0467111640201261e+000 -5.7611072292382404e-001
      1.6021171150083495e+000 -5.2074708908371969e-001
      -1.5806973036883931e-001 9.9141618888193550e-001
      -8.1587121082474434e-001 -9.9093824459427038e-001
      -1.7752111579749499e-001 -2.8557627905457004e+000
      -1.0054287103769639e+000 -2.7548165556414319e+000
      2.2645292186011945e+000 -7.9820795018552371e-001
      -6.7113290129156356e-001 5.6772440806826940e-001
      -2.2932265054136597e+001 -3.4524996091339361e-001
      -8.0413449362133271e-001 8.3259976070084271e-002
      -1.2475191280986775e+000 -4.6223221490081495e-001
      1.1476097658420557e-001 4.4352433121974910e-001
      6.2149243123138109e-001 1.3901719933374146e+000
      3.4300529312664496e-001 -4.3050626561595184e-001
      4.9843263232469326e-001 3.0230525281324022e-001
      4.1406091579022175e-001 6.0818449291876608e-001
      1.2062855003463728e+000 -1.6210992535930743e-001
      -7.2333361918065511e-002 -1.1666335822588426e-001
      -1.7445289052947801e+000 -2.7087183506436957e-001
      -5.1085695669117404e-001 -2.1794026094567495e-001
      -3.7914007988089338e-001 -1.1348988220709944e+000
      -4.8540262177346466e-001 -8.8698584120091495e-001
      1.0620671035131025e-001 9.7479324037371595e-001
      -2.1966333448143645e+000 -1.0317580193162814e+000
      6.1808730381245347e-001 -2.8178291330931442e+000
      -1.5378780725883807e+000 -3.1933518837353719e-001
      2.5381654118739638e-001 2.4505345475225249e-001
      -4.4850861231634198e-001 4.3878642121229695e-002
      -5.1210504667165885e+001 -2.7077827805400488e-002
      -7.4246563302379864e-001 6.3711324853747953e-001
      -4.1705101770602304e-001 -1.0459879786131627e+000
      1.3279070460973491e-001 4.0619164335111524e-001
      1.8447321005941680e-001 4.6411639459894161e-001
      4.3504442766301672e-002 -9.1324601397619873e-002
      1.0842012373383596e-001 -2.7207210071946357e+000
      4.7533882875571565e-001 -1.9977658419328667e-001
      -3.3217976575168756e-001 1.0865326965881275e+000
      -6.9156486038840814e-001 -1.7974270804444474e+000
      -1.1982354360998515e+000 4.2213352047660441e-001
      7.4014942812854501e-001 -2.4277693453688104e-001
      3.6927144487878732e-001 5.5458387441867252e-001
      -6.5345216585448207e-001 -8.3736967319725197e-001
      -6.8497967967038531e-001 1.2581014634948935e+000
      -9.4298867524897956e-001 -3.4774226515777390e-001
      4.5101110586399498e-002 -6.5888809663672077e-001
      -7.8108168220473395e-001 2.5436647483764517e-003
      3.6091425788976822e-001 -2.8510561961262193e-001
      8.9558995841426625e-002 2.0075671419731832e-002
      -5.6328423020351288e+001 -5.1489404058199384e-001
      -8.6547623961328063e-002 -2.4121115920742460e-002
      6.1727998411671692e-001 -1.2826322646898530e-001
      -2.3154742669998116e-001 5.2890339629835859e-001
      8.9713477444557863e-002 -2.4081193665850520e-001
      3.7000119803163922e-001 1.2366339052436669e-001
      -9.6350782837789570e-002 8.5634432455458806e-002
      4.4024263266339420e-001 -9.2615910728474388e-002
      -7.0768617342705242e-001 5.4219196769991607e+000
      3.2789647138616990e-001 8.9151101454359394e-002
      -7.5297739551142454e-002 2.7688320403127303e-001
      7.4972474274172252e-001 -5.8541722952222389e-002
      -4.7812746698366571e-001 -3.8959918640328134e-002
      -9.3910293960206104e-001 -4.4736573493016724e-001
      -7.3412176846299171e-001 7.8571289568653419e-002
      6.7913607574962245e-002 3.8460223138432104e-001
      2.3782618807110650e-001 9.6630969131011463e-002
      -2.0746838493521147e-001 -2.5191846568883774e-001
      -6.3820176746662338e-001 -2.6593918170618496e+000
      2.5443473494512403e-001 6.9394203999282464e-002
      -4.0116360730825001e+001 -7.9460933096413069e-002
      -5.4782102285586533e-002 4.9675711594271699e-001
      1.8344027237567544e+000 4.7908089664378756e-001
      -4.3946233976657184e-001 -1.2750210817895383e-001
      -7.5569326075058441e-001 -7.3084249614411845e-001
      -6.1054776633548258e-001 -9.7090840371662168e-001
      3.9732228530571980e-003 1.0367027607901591e-001
      7.3939324843378923e-002 -8.9829042816387247e-002
      2.0147903380082124e-002 1.1626817836038448e+000
      -2.6946730033627186e-001 9.5313940275682282e-002
      -5.3646143665093937e-001 -2.4563281463887493e-001
      5.1091583557726261e-001 4.3249701405887875e-001
      -1.3129404942177056e-001 3.5971540908724331e-001
      -1.9562293090365640e-001 1.3464512502097106e+000
      -6.7382241602779525e-001 3.8306634771759074e-001
      -1.6679855730555728e+000 -3.4229497341738124e-001
      -1.4575315064627680e-002 1.3882759637056391e-001
      3.7040300514363811e-001 1.2921055974435580e-001
      -5.1532166536158641e-001 -2.3136452611160072e+000
      -3.0845548373702372e-002 3.7731261498227947e-002
      -4.4339535527779745e+001 -5.2589602537139779e-001
      -3.3849734370348489e-001 9.4168439828596642e-002
      6.6944572712174821e-001 8.3309025019033733e-001
      -2.4745054301860936e-001 2.7879079620760450e-001
      -7.6945804220524749e-001 7.3666368336706622e-001
      -9.6254176746810291e-002 1.1634268282418898e-001
      -8.3502828366107507e-001 3.5310533384212295e-001
      4.2756239983514760e-001 8.7134030672836604e-001
      3.3946707288082401e-001 1.5619142743234668e-001
      9.4297254485538651e-001 -3.1291856519144445e-001
      -1.3732234354083200e-001 -3.2413734253032683e-001
      3.9057486985338041e-001 8.3716018309670445e-002
      -8.5923517908924285e-001 -1.3359368128562385e-001
      -1.9881940155094543e-001 -2.8275835451146386e-001
      -8.9216073736466794e-003 1.4191588410765457e-001
      2.4114841095418321e-001 -5.5322598759076025e-001
      4.5258876785544522e-001 1.2295005992146184e+000
      4.9321124302242997e-001 -5.5168643957957897e-001
      6.9116024587800040e-001 1.4619235697609739e-001
      -4.4713235548017649e-001 -6.0259766465595122e-001
      -6.1406054680837185e-001 -6.4001877300980659e-001
      2.3319162190335971e-001 -9.8015156794411140e-001
      2.3811147456953768e-001 3.3825567256975381e-001
      -2.2917953499392527e-001 -1.4952988717835405e-001
      -1.0464456494554459e+000 1.2265956618143618e-001
      -4.6989154955598617e-001 3.7010038530519485e-001
      -7.2481925053581919e-001 2.3666530398972269e-001
      2.3046891315749943e-001 1.1131124397121823e+000
      3.4649918136061669e-001 -2.6376393172201157e-001
      8.6501257715108415e-001 8.1965936656587379e-001
      -2.7388953854527842e-001 7.5806701645037139e-002
      2.0835437493379655e-001 8.8044985215047256e-001
      -2.4425293985414726e-001 5.3900713358048968e-001
      -7.5826231209375150e-001 -3.6845459800956321e-001
      1.6751469162582400e-001 6.8732293843905656e-001
      -1.7429274423856347e-001 -9.1917143385534505e-001
      -1.7222413778256732e-001 1.5282445695463263e+000
      6.5023957186243797e-001 -1.0126068347358439e+000
      4.9950593482523553e-001 8.6146795573446433e-001
      -3.1904929234927504e-001 -6.6623073824908241e-001
      1.6077759348072938e+001 -4.8183520478183883e-001
      -5.7697743614762383e-002 -2.3567755345061839e-001
      -2.3144688270887015e-001 8.5876671975543994e-001
      -1.7184027905048577e-001 2.4615891530144746e-001
      -2.0357533135614809e+000 -1.5409881056066024e+000
      -9.8244574985485458e-002 -8.8836754876954616e-001
      5.7040133558330347e-002 5.9538331078526174e-001
      -2.0281394593355517e-001 9.5877532770502716e-001
      1.1585315096247693e+000 4.7653526033030907e-001
      1.6484788162047501e+000 2.1005819499638104e-001
      -3.4731603203538375e-001 -4.6576265115891374e-001
      -5.2509125297141734e-001 9.6507752225667398e-001
      1.6278228708815884e-001 1.0045209145099694e+000
      1.6805554407668219e-001 8.9689762128692807e-001
      1.0472897428875461e+000 1.4065888782229974e+000
      -4.8212263871717792e-001 -7.2352972545648631e-001
      2.1886210184353588e-002 5.4710686533349054e-002
      -3.2576314117765881e-001 -1.1320906187751877e-002
      4.9722351920857782e-001 1.0130912216407064e+000
      -6.7511386500658610e-001 2.6090164666282883e-001
      -6.8584116370067152e+000 -8.4405411285244858e-001
      1.0490331857126753e+000 -9.9921112917476373e-001
      -1.3791928439106209e+000 -3.5366892082945928e-001
      -4.3382423056040187e-001 4.7090330934891927e-001
      1.1208503304355564e+000 -5.6220119026853443e-001
      -7.6724974832796355e-001 -3.9900097965043693e-002
      3.9760473087513333e+000 3.0694290360411247e-001
      1.0637324548864362e-001 -3.6160967431620222e-001
      -3.0128801891165818e-001 1.5222603284306295e+000
      -1.3915185847561469e+000 -8.9038129409434874e-001
      1.3862181225560015e+000 -2.5627632391543104e-001
      -5.7547625102362310e-001 -1.0473129061394839e+000
      8.3807000417246436e-001 4.4087656918482254e-001
      6.0800976860782320e-002 9.6515660055251762e-001
      1.4083894189000734e+000 1.2275049756357921e+000
      1.8456188442754080e+000 1.3331815722958743e-001
      4.2618255722420073e-001 -1.7889376749327546e+000
      6.3125041804827431e-001 2.2459715625900003e+000
      1.1212320309279435e+000 -2.4728938459143543e-001
      8.0348032374928469e-001 -3.6748383697758696e-001
      -2.6458666456686686e+000 -2.6330984887177750e-001
      1.0192825639932384e+000 -2.5115200667223814e-001
      1.3919707551134455e-001 1.1888698255735086e-001
      -1.0955371267410596e-001 3.8360640187794909e-001
      9.2152849354587940e-001 4.8993191172637623e-001
      -7.4057812804746437e-001 4.8132048206997979e-001
      -8.4227271925763436e-001 -9.2692161753667912e-001
      -2.3999762452801351e-001 -9.2243908724692159e-001
      -6.0003531642140828e-001 -3.1235510618884854e-001
      8.9668634250042711e-001 -1.8055138327848505e-001
      6.0172178076223914e-001 3.1241877547024170e-002
      -3.9223279522397142e-001 -1.4733257672375530e+000
      -2.5919338794227614e-001 -2.4383958319298804e-001
      -1.3160851714546822e-002 9.2438698832546573e-001
      9.0639302626667084e-001 6.4806423515310616e-002
      9.2986392174789800e-001 3.6937482595194043e-001
      -2.3303734944654191e-002 -1.6315595510811507e+000
      9.2795083042646320e-001 -5.8043976427961530e-001
      -5.5831453791595842e-001 -1.2754435593268167e+000
      6.5000806472117367e-001 6.9058911625109076e-001
      -1.8689607676339506e+000 -8.9825369058557802e-001
      -3.3264061712365480e+000 1.3982170069739248e+000
      1.8197056612074913e-001 -8.6355912248891531e-001
      1.8759490965179801e-001 1.1791108067079072e+000
      -2.8343178028250265e-001 -5.2040557959376699e-001
      -4.1712582905367168e-001 8.0900704821091896e-001
      -8.0056677653278319e-001 5.1262498549830027e-001
      -2.2755285973774894e-001 -5.6000495774292325e-001
      5.1749680251955088e-001 2.7559796339852621e-001
      4.7524034381767216e-001 8.5893679078641916e-001
      -1.5686023472374448e+000 1.2727213816006361e-001
      8.7583951283251726e-001 1.0400819081729489e+000
      4.0279078576273969e-001 1.2427372394403859e+000
      8.9317494214020698e-001 2.1061829734249780e+000
      3.8588836762534662e-001 2.1210698962703239e-001
      -5.6172018633217535e-001 -2.5672199739361887e+000
      -1.4743269547055713e+000 -1.8743580151961545e+000
      1.2730667378760117e+000 -3.7163586344605659e+000
      -6.8160927198408139e-001 1.1130141229522875e-001
      1.3627324942596913e-001 -2.5928976949639554e-001
      -2.2863096601746999e+001 -3.1201140013974793e-001
      -2.4210768515079706e+000 1.8076782255287736e+000
      4.0553103517683603e-001 -1.1042008441492759e+000
      1.1992925589145281e-001 3.2472446518421638e-001
      2.5541306679713716e-001 3.3957800056016163e-001
      -6.5655819874283794e-001 3.9560928172346843e-001
      -1.1395828496423581e-001 5.4637451922679203e-001
      -9.2362400046710577e-002 7.0703277266149522e-001
      1.9497438624256180e-001 1.5973472705781830e-001
      1.7712331275497620e-001 -4.8164962490017815e-001
      -1.6074212378820845e+000 1.5261947484581655e+000
      1.3252324058656992e-001 1.1755965028477890e+000
      1.2716345339056914e+000 5.7901272738548903e-001
      2.3254093311074769e-001 1.3836036508777643e+000
      -8.7468336989064352e-002 9.2028997861095896e-001
      -7.3752120892299133e-001 -2.4702221735866248e+000
      -1.2104096959934314e+000 -2.0891316283025945e+000
      2.1526221751079260e+000 -2.1572340720374572e+000
      1.5638504397553294e+000 -8.7868854265582541e-001
      -9.9237630291083220e-002 -5.8867134514952169e-001
      -5.5908551653804139e+001 6.2827311736780156e-001
      -1.9107343089694581e-001 6.7536410010526771e-001
      3.9138968800927210e-001 5.6040204429447482e-001
      1.9752230156765034e-002 5.9831827174622887e-001
      -6.4544576970423717e-001 1.1070098802444870e+000
      -5.7679116784994333e-001 -3.0410781206128978e-001
      3.0816974598202829e-001 -2.5923186773857361e+000
      -6.3409953599570495e-002 6.7760959297026802e-001
      -2.5976763008905668e-001 8.2994143361533246e-001
      -5.4116529836347224e-002 -1.6835200387390097e+000
      -4.9968693973899947e-001 8.4445680282669422e-001
      7.0741675981017871e-001 2.5486656800242385e-001
      5.4738898915676060e-001 4.5628318297098502e-001
      -4.0641375319388501e-001 -4.9905400330748867e-001
      2.5073794746919642e-001 2.3027080995948891e-002
      7.4286434112649388e-002 -2.9461614359571048e-001
      -3.5601786167105465e-001 -1.9391609190702163e-002
      5.5711647660146357e-001 5.7709245509246977e-002
      7.8482376667776910e-001 -6.1386576577651275e-001
      -6.7763373702045926e-001 6.9150738269636858e-002
      -5.5167983918751396e+001 -1.2055031877694512e-001
      -4.6272743150329844e-002 -4.4847269052097821e-002
      4.9708908251393041e-001 -1.6393305704668845e-001
      -1.8253175550392250e-001 -4.8162784538993336e-001
      1.6823328888201849e-001 8.9621645695265290e-002
      2.3340996338311779e-001 -5.8329303545627309e-001
      -1.9895830429035973e-002 8.3697854690720719e-002
      -2.2297603599426036e-001 -8.2745699157094260e-002
      -1.0158186557059180e-001 4.7565498412238263e+000
      8.7161731825196875e-003 9.2002774607201937e-002
      -1.0384118725065353e-001 -3.7933727600309186e-003
      3.8868791960013915e-001 -6.6844386696197397e-002
      -4.8595641591362099e-001 -6.2341505685890877e-002
      -6.9054321219619286e-001 -8.8677944879259418e-001
      -4.2257984510935453e-001 1.0378868354071238e-001
      -2.4994989077687952e-002 -1.6304791821212378e-001
      -5.7132357557214675e-001 4.3145228537588939e-002
      -1.3373556386578819e-001 2.2146643616295414e-001
      1.2000287242858459e-001 -1.6041776258030633e+000
      2.6282239936380852e-001 7.4892429940559668e-002
      -3.3413196630850088e+001 5.3158399907129249e-002
      -7.6124024007321656e-002 5.1139641093039978e-001
      1.0262018928781671e+000 4.3494255770781298e-001
      -4.2151483828130754e-001 -1.5455835416400471e-001
      -3.9206397570495383e-001 -2.5385797489426931e-001
      -1.2803477265978472e-001 -9.4495651343069220e-001
      -3.2957283000865212e-001 9.8521122816817880e-002
      -5.4784516553047398e-002 -9.5805167496895126e-003
      -2.7818651413179352e-001 6.5943368585186812e-001
      1.4688459443162130e-001 1.0514574736699166e-001
      -1.0128767359743365e-001 9.0072711299106456e-001
      5.4746178201375295e-001 4.5203698605506709e-001
      1.2553144034716227e-001 -1.3637298412558297e-003
      4.3514760781004740e-002 8.0541461049917451e-001
      -5.9694083917777474e-001 1.8249210242098915e-001
      -1.1330303594497486e+000 -3.9886371606518628e-001
      -1.9581744734510645e-001 1.8490875102333444e-002
      -1.4085890715225841e-001 3.0102079563015222e-001
      -4.4409352957475645e-001 -1.5893860001931015e+000
      -1.5850043956285359e-001 4.6202562021327796e-002
      -4.2654227917970779e+001 -3.2904804038077395e-001
      4.0732244982351717e-001 -1.1124762809422536e-001
      5.2408963061926739e-001 9.7880018266746172e-001
      2.4306979214231778e-001 -8.5789568355650569e-001
      2.1742817713603649e-002 -2.4379474224455444e-001
      -5.2934995569066301e-001 -4.9604099616262221e-001
      7.1155538021558953e-002 -3.5224699923496633e-001
      6.2620633923444913e-001 6.9310772371357743e-001
      8.5728945024908887e-001 1.3552582105044775e-002
      8.0707999894429028e-001 -6.5494181715608291e-001
      -1.3468890521909677e-001 2.8023159111811202e-001
      3.5100594501979454e-001 -3.8122334083348747e-001
      7.8903819236316022e-002 -2.0438804737273983e-001
      -2.5860542477740950e-001 -3.8659698397416890e-002
      -7.3346616373057782e-001 -1.1926778286498735e-001
      -7.2986202285484622e-002 4.7789727439085256e-001
      -5.4472929632064161e-002 7.4659717347623544e-001
      -5.0872947837285554e-001 -4.2562324357558956e-001
      1.1153777768232802e+000 2.1397443237564973e-001
      -6.6398408022198885e-001 1.2489460645662835e-001
      -6.8053992737857243e+000 -5.2600481276333066e-001
      1.1950704647564608e-001 5.9196671231486908e-001
      -4.5581083127748107e-001 1.5897761891226587e+000
      4.7660353341923445e-001 -1.1347921921114299e+000
      -2.5700181336963318e-001 -7.9910901719574823e-001
      -1.7779154898606364e-001 -1.2581225707279728e+000
      2.6790726855849334e-001 7.3310526581485724e-001
      3.5797650526628616e-001 1.1155681959257004e+000
      1.2421902775627316e-001 1.0222314496016347e+000
      5.7499213136056215e-001 7.7910581294351433e-001
      -3.2421999240383770e-001 -3.3577957712931406e-001
      -2.5565282135159084e-001 -4.2512939804042826e-001
      6.9428621257161716e-001 -3.4715188726761981e-001
      -1.0319640956562859e-001 1.9427486707959036e+000
      -2.7304189047225544e+000 -1.6381494821065712e-001
      3.7912349628405929e-002 5.2997078761916250e-001
      -7.2633257115604100e-001 3.3694259218667204e+000
      -3.0050711774271449e-001 9.4136827359825892e-001
      1.2270172087573383e+000 8.6047496927187261e-001
      -2.0911957831047814e-001 1.3574618658726789e+000
      5.7902823107170205e+000 -1.6387984125614883e+000
      -7.6098807708628391e-001 9.2169624104280279e-001
      -1.3852155869966876e+000 4.2495400967966623e-001
      1.4212250454566405e-001 -1.2459302788086841e+000
      -2.2713416980968528e+000 -1.1622225119778280e-001
      2.0392761665965170e-001 -6.6614447429570334e-001
      -2.3422977977854406e-001 -4.7997458746327870e-001
      -4.2985321325814363e-001 1.0229575417256849e+000
      5.9370280266231745e-001 1.9697204795530002e-001
      1.2622615458702979e-001 -6.5971501027051671e-001
      -2.8719951126991472e-001 -9.1714727991676870e-001
      -9.5997044828405775e-001 -1.3253318080201566e+000
      1.5938297255406775e+000 -1.5664247511981064e+000
      1.5223228884553277e+000 1.6111007524198033e+000
      1.5133001499171889e-001 5.8710130826396589e-001
      -1.3040742563517871e+000 4.1179121944526852e-002
      -2.1321467193847929e-001 2.1445332345759152e+000
      -1.4404019422631886e+000 1.3955154290310934e+000
      -4.6185697983173452e-001 1.1944298739362706e+000
      -1.5268189888913938e-001 6.5039346337040027e-001
      -6.7282293802173276e+000 -1.9845976346841616e+000
      2.2830561413054615e-001 -4.5910383181112241e-001
      2.5144079706095803e-002 -1.4235047924283919e+000
      6.6445184554444855e-002 -3.3790448668161305e-001
      1.0509309514387115e+000 -6.9947002348388165e-001
      5.3746084028797436e-001 1.4106336107741451e+000
      1.8595717663774407e+000 -5.6121705886292439e-001
      -1.0156539739904588e-001 1.3409904141716891e-001
      -9.3979534698812495e-001 -8.9767429084516159e-001
      -4.8910295439291301e-001 -3.5236478173482177e-001
      1.5775974511358151e+000 -2.9022261055396972e+000
      1.2600870721162605e-001 -5.8377864730880635e-001
      7.5267807101791595e-001 -1.4739356948859896e+000
      2.7951824317877194e-001 1.2633369605538136e+000
      1.3603514373171406e+000 -1.4036589319094728e-001
      8.3645894849292501e-001 -9.9095520596678044e-001
      1.4332210090806652e+000 -1.0788179623362093e+000
      4.8361054693304617e-001 8.2704748003282957e-001
      -5.9716545877458574e-002 -1.6358250420902859e-001
      -2.3687852794744552e-001 -4.4446334639899876e-001
      1.8637549519390659e+000 -6.7046458195470038e-001
      1.1920295703354293e-001 1.7069602443737928e+000
      1.0810048761331053e+000 -2.3760554490588217e+000
      -7.1692739500763047e-001 -4.3679615411839484e-001
      9.4756834218680575e-001 4.9297457301434272e-001
      2.5495894101542810e-001 1.6810410595853968e+000
      -1.5340420280865625e+000 9.9162713420527671e-001
      3.8281586380328342e-001 -7.0459510509634771e-001
      -7.2290033833814693e-001 -4.7208596761621752e-001
      -1.6146430250539409e-001 8.4532050106902445e-001
      1.3303625621956422e-002 -1.5614349195613955e+000
      4.1856407071882767e-001 -1.1467955467890576e+000
      -9.6184140934660456e-001 -8.7376821524592441e-001
      7.3896701577776414e-001 6.8992474350958555e-001
      4.5938842584608475e-001 -1.5848002590679149e+000
      1.7585502034325089e+000 7.4255699518798590e-001
      1.1654640730100199e+000 -1.7516910643978711e+000
      -1.1857127581577940e+000 -4.1201138966359901e-001
      -1.4049234295756012e+000 3.4115456679643419e-001
      7.1548775392714192e-001 -1.0533172234136909e-001
      -5.7636072644549632e+000 2.8523252464351811e-001
      -6.5046704181949999e-001 3.5414553102978061e+000
      2.4563723300256293e-001 -1.3573374570688042e+000
      2.3090231755467951e-002 -1.5207665910110060e+000
      -5.5321826893280657e-001 8.7541132463419657e-001
      5.7612339426484316e-001 -9.3087435556663822e-001
      -4.5785116961921823e-001 -3.2170074720489772e-001
      -2.4114707009373637e-001 -9.9872068627258570e-001
      -7.2762220088346008e-001 5.2584690567631154e-001
      -1.0546488193750438e+000 8.0976740025609617e-001
      -3.6637261483229572e-001 -1.6979932804056788e+000
      5.2346233067175063e-001 -3.3775677001564995e-002
      -1.0081048828769399e+000 -1.2635623772972365e-001
      -1.3717730518261004e-001 -1.0197114125347870e-001
      -1.1889084691457268e+000 -1.2996758936985202e+000
      -1.1034147167142494e+000 -1.3775949025927121e+000
      -4.2688868520979334e-001 1.5312102691779834e+000
      1.1247285302200698e-001 -7.3906431425814867e-001
      -3.6639051467748895e-001 5.4164310511817804e-001
      5.9104013415203793e-001 -2.0080396418475832e-001
      -1.6523130430949106e+001 6.6933092507455794e-001
      -7.1358648037220507e-001 1.3938718863357582e+000
      6.6730831846124092e-002 7.1613420612585821e-001
      7.4264957624307504e-001 -1.0610651626786634e+000
      2.4286765473193583e-001 -1.2185338850659899e-001
      -2.2589280987255994e-001 -5.8173321174568260e-001
      2.7755079441083280e-001 9.7061616306731735e-001
      -1.3291524632957119e-001 4.3113339251088817e-001
      -2.1230935814275220e-001 6.1013629929207780e-001
      1.1037422258295394e-001 -4.6024101819179697e-001
      -5.6074451938283099e-001 -2.5333255849654579e-001
      -3.3717977195302389e-002 -9.7020833398174678e-003
      -4.5037105808188937e-001 3.4925042977151771e-001
      2.2064068320259844e-001 -8.6626293344291005e-001
      -1.3049407642337627e+000 -1.0590176874769976e+000
      3.9367975336630258e-002 -1.7692060332011972e+000
      -9.4439058176285040e-001 1.8684002353646243e+000
      9.2151897729152432e-001 -7.8130865849691492e-002
      1.1006507701724801e+000 1.1851208560024952e-001
      -3.6427174498617704e-001 1.0341422665310915e+000
      -5.2597801019291516e+001 7.3040566155922179e-002
      2.5638406726557417e-002 7.7466789539731828e-001
      4.2524682563531374e-001 1.1153109475424077e+000
      9.2775266750663288e-001 1.4706219213124952e-001
      -8.5099519196824547e-001 7.6145392936508227e-001
      -7.8554762099053710e-001 2.7444447509114667e-001
      1.0283723868994343e-001 -3.0983193870804850e+000
      4.5368518869446239e-001 1.6310920283375743e+000
      -5.0171539667692437e-002 1.9561965959034817e+000
      -4.1779101713201774e-002 -2.0726641921425206e+000
      -5.3500860912165782e-001 5.8396018378806824e-001
      7.2500214118253647e-001 -1.3477286783734230e-001
      -4.3500349802852889e-001 -4.6789025515699423e-001
      1.3029114631068203e-001 -1.2823042299787760e-001
      -8.8831302405330181e-001 -1.1324809146480503e+000
      5.1832550226032370e-001 -5.2357561542835451e-001
      -9.2098248214784073e-002 9.8927441933210103e-001
      -7.6996047714557680e-001 6.3327244719170928e-001
      2.7886780599893957e-001 -8.5289513907784409e-001
      -1.5718273137430183e+000 5.5182830945451600e-001
      -8.6894117228010913e+001 -6.5239372689247521e-001
      -5.2240340176762524e-002 -2.2393648839696426e-002
      4.7609176316652579e-001 -5.3874457125766752e-002
      -2.5444885829262143e-001 4.2301179927779452e-002
      1.5230084525335599e-002 -1.7061741961489982e-001
      4.7361399815368499e-001 2.0611818497326242e-001
      2.7037403845425745e-002 7.8361367755585568e-002
      -1.6701765382877973e-001 1.1708526026005420e-002
      -3.2066325044053184e-002 4.4686528418438467e+000
      5.0026968040476905e-001 7.9362919567170148e-002
      -4.3871552595367014e-002 9.4972898725558574e-001
      3.8124847038746451e-001 -7.2087061343667005e-002
      -1.4365025259908895e-001 2.2267846940822879e-002
      -1.7583374543106525e+000 -4.7828339770771333e-001
      -3.6834797771509770e-001 9.8725752673796782e-002
      -1.2670579281708508e-001 -1.0943988350326100e-001
      -2.6287056629067490e-001 2.4814165423704915e-001
      -2.4354355016592627e-001 1.0319174103235622e-001
      5.6147548022329838e-002 -3.3742294725070637e-001
      7.0331813249439090e-001 1.1748145866827990e-001
      -2.4869545880536087e+001 -2.6031140152954257e-001
      -8.1855701870246067e-001 5.5674185894995476e-001
      -2.5450727764400166e-001 4.3578953659694591e-001
      -4.1258595101529355e-001 -5.8067554427437318e-001
      -5.0331038975725151e-001 1.3383821844281940e-001
      4.7039799730449736e-002 -1.4853627089626065e+000
      -2.9384749019006556e-001 6.7084516561539520e-002
      1.3394420844180210e-001 -1.7014185649917277e-001
      3.4207123351482582e-001 -1.3011118321015855e-001
      8.8711072573947658e-001 6.6095662299702942e-002
      -2.0870215502342157e-001 8.2376369202757682e-001
      4.0727831141463583e-001 3.9439336138237835e-001
      -2.0014666453286846e-004 3.0351088483803396e-001
      4.1092794365746155e-001 -1.8646667798258812e-001
      -8.2229027739077798e-001 1.6929136880363563e-001
      -2.6129809778271906e-001 1.5444090458184689e-002
      -3.6722374018848569e-001 -1.0011800659800077e-001
      -5.3297089432509204e-001 4.2223496973791796e-002
      -8.0218855812885093e-001 1.3325068319046499e-001
      -2.5752844413783665e-001 3.3379165142775319e-001
      -4.0139449013178009e+001 2.9098599564314342e-001
      3.9307371575850841e-001 -1.8285132898254566e-001
      -3.6086849315664846e-003 1.1933696152828382e-001
      -1.2169565381003575e-001 -4.9937436313727840e-001
      -1.3957040817296189e-002 2.5729040661013725e-001
      -2.0000459300216436e-001 4.2502125642497057e-001
      -1.0719319618665264e-001 -4.5568957474101929e-001
      1.4794530515474207e+000 1.0961222808027713e+000
      7.3282140511088423e-001 1.7399508967306421e-001
      -2.8447846733168453e-001 -3.3526736044913619e-001
      -1.4430645626479552e-001 2.0178887748146918e-001
      1.1859591378032086e+000 -2.3100987713736140e-001
      -8.5423582608127768e-001 4.9383466694093026e-001
      -1.7207840232476765e-001 7.0171562041761587e-002
      -1.3504718169151093e+000 -2.3451770940493571e-001
      -5.3888876574647715e-001 1.5824113000863829e-001
      -8.0458833025936127e-001 -3.0768337431302395e-001
      -1.2335482056093554e-001 5.9266243288506149e-001
      -4.8519211834251263e-001 -6.9548622590948461e-001
      -7.9621881240798098e-001 3.8525641497054264e-001
      -6.9636095417820298e+000 -3.3274952767487370e-001
      4.1211923547718810e-001 8.0249089476937285e-001
      -2.0660162573315082e-002 1.1156751531875400e+000
      3.1564234974788724e-001 1.5691687321871214e-001
      3.4736986843834861e-001 -5.3534941447803963e-001
      -1.1895562880524532e-001 -7.1810730222594066e-001
      -3.4863086447487807e-001 -1.3235940487120759e-001
      2.5693794260631042e-001 9.9410112583286692e-001
      1.4010836320560669e+000 -3.9380907464589839e-002
      -7.6646698414118264e-001 -2.8506733307815352e-001
      -2.0301464535343222e-001 -1.4956625103299817e-001
      -2.5737843721029352e-001 -1.2282983712859772e+000
      -1.0210268301143981e+000 3.2380165603060429e-001
      1.3502057386136073e+000 1.3070966133071953e+000
      -2.3104142740996116e+000 -3.2985816279200048e-001
      -8.8009569188556525e-001 -5.9774690248026585e-001
      -7.3263239119936896e-001 1.1941840648553963e+000
      -2.2408397539266445e-001 1.1960798617674662e+000
      2.3389119742871714e-001 -1.1407712622942772e+000
      -3.0859813391269425e-001 6.0269966250898654e-001
      1.6367269973446630e+000 -4.3562859483409749e-001
      -2.7948941122986043e-001 1.6504944475533216e+000
      -3.9211353682037597e-001 -1.7587585203154419e+000
      -4.8180294978392130e-002 -6.7315114948394517e-001
      -7.9785828485101096e-001 -2.8041465247907460e-001
      -1.2232940305462068e+000 -8.6771184471493767e-001
      -8.6351242636621961e-001 -2.4879198598965535e-001
      -3.2223090555731512e-002 4.3495048090080057e-001
      8.5037871070587145e-001 -6.3793523139881425e-001
      -4.7645943104505212e-001 -3.4004515072476249e-001
      4.2545690671482911e-001 -2.1639896393903255e+000
      8.9658973761763391e-002 -6.2316604731297309e-001
      9.3049825055739707e-002 8.6699095751224531e-001
      -6.3120200658575309e-001 1.5620878301271932e+000
      -2.4651571264523667e-001 4.6561765093909846e-001
      -5.3275224586797976e-001 -1.4322941526608768e+000
      -1.3092748484693135e+000 2.1993527895436699e-001
      5.6240627581852209e-001 4.6515152275956899e-003
      4.1722775104642473e-001 -1.1030393770185685e+000
      6.8207866199152456e-001 7.3432153014893886e-001
      -1.0336875341461798e+001 -9.3774052936711139e-001
      -6.2870481226590591e-001 2.3690020618676375e-001
      1.4332581086134344e-001 -2.9493237888033859e+000
      -3.3906198581793612e-001 -1.8634514705515592e-001
      1.8447991034460226e-001 1.4720915066748985e+000
      -4.3867486180009757e-001 -6.4432870021049216e-001
      1.6493239147565578e-001 6.4793558502191428e-002
      -4.0788431036783995e-001 1.4735098090657130e+000
      8.6981416332635930e-001 -1.4378607044497134e+000
      1.4432690910976447e-002 -5.3550523271601536e-001
      1.3959991993359662e+000 -8.8885316912016610e-001
      -2.2166719678145014e-001 4.9043816126709044e-001
      2.4065698946744404e-001 -5.6159087406429009e-001
      -1.9688483027449575e+000 -4.8860389912430302e-001
      1.5703970416904747e+000 -4.8864835555064240e-001
      -5.8028237407257266e-001 -1.5972924340052390e+000
      1.2537809477500652e+000 -7.2157931203856285e-001
      -2.6210272750043066e-002 -7.0442026462346563e-001
      4.6104199223230774e-001 -8.8344802081558857e-002
      -1.7057118128298876e-001 -6.9556532103382451e-001
      -9.1588319122477930e+000 -3.5276556979937057e-001
      4.7881634254197158e-001 5.4233952336015223e-001
      -4.4240126637762611e-002 -9.6330037104063837e-001
      -4.3709957017843809e-001 -1.2001331024756054e-001
      -1.3394500855171974e+000 2.9838992123609759e-001
      -3.0266523704665332e-001 -2.9478392350969085e-001
      -6.4648792630743812e-001 1.2549814833809227e+000
      -8.2900235215373277e-002 9.0346006188184602e-001
      8.0491262752725468e-001 -2.3253839476027074e-001
      1.9910085505382757e-001 5.0200360926185006e-001
      -3.4776240552662839e-002 -5.6232866837718276e-001
      -9.3217152460041919e-001 1.0748885664332573e+000
      1.8251751367285734e-003 -5.1590790571223655e-001
      -5.7922962036403025e-001 -6.9794165554236887e-001
      1.0289941280718169e+000 -1.6952716408128718e+000
      1.7448074911552907e-002 -9.3462802164057579e-001
      1.0908966353211509e+000 -6.5057347597170112e-001
      -8.1582249925571659e-001 -9.0053822485423851e-001
      6.9224743729708563e-002 1.3235750440050948e+000
      3.4793584056950411e-001 -7.4008892791107328e-001
      -1.6100654833959249e+000 -7.7147093998913285e-002
      -1.5581310582072841e-001 -8.7415321439343663e-001
      9.4667083366530858e-001 7.2614595470340759e-001
      -3.4354924428832084e-001 -9.5898455674622363e-001
      -1.1025456642802656e+000 -1.0254512615855895e+000
      1.0628849191092338e+000 6.4878282654984787e-001
      2.1204921379852831e-001 5.2592102745145242e-001
      -7.1135879165207749e-002 6.2919605012331858e-001
      1.8809683602608842e+000 7.6918974170409549e-001
      4.7114163702068063e-001 6.3908112851534971e-001
      3.1109288716709066e-001 -9.3199724595926436e-001
      1.4683800114059236e+000 -4.0383363261830896e-001
      1.2269668440472112e+000 1.9119167357644337e-002
      2.8722066832957571e-001 5.8782509670494909e-001
      1.4846914992695406e-002 -6.8971801549271083e-001
      1.3340823045563963e+000 -5.4854735096187017e-003
      -4.5930441003256106e-001 1.2877267172935782e+000
      8.0669579666487701e-001 -1.3086634704201972e-001
      -4.5550251938358338e-001 1.1539842916779215e+000
      -2.9841041015866718e-003 -5.9294221600887909e-001
      -7.2107292885663137e+000 -1.4036501015021019e-001
      8.1544197062535584e-001 1.8824369738130720e-001
      5.4037971266659893e-002 3.8018825618410024e-001
      -2.0465629638663346e-001 4.4061762395056058e-003
      2.9461395800711787e-001 -4.5237389996975530e-001
      3.7220623253247637e-001 4.4899789797704592e-001
      1.0273482804384262e-001 5.3378242776988778e-002
      4.9826409299935148e-001 5.1668675089192750e-001
      1.2748780840174923e+000 9.8303322916742930e-001
      1.1606618980924126e-001 -8.4836727029113623e-001
      -1.2492123559943309e-001 -1.3755241487548999e+000
      7.9499535091721807e-001 3.7990972149063018e-001
      4.2709175919089126e-001 -5.8027914846176198e-002
      1.0937756194181174e+000 -6.8065435655560613e-001
      -3.4228565057385030e-001 -1.0744445794651802e+000
      1.4449549430866071e+000 -9.8872858477463313e-002
      -5.3958498699691460e-001 4.0456237042448884e-001
      5.8997591943380123e-001 -4.7875369242475103e-002
      7.6767962871232068e-002 4.7390640546499435e-001
      -2.5150754580899615e-001 5.1137629442359644e-001
      -4.1443933690565522e+001 8.2634767101499793e-003
