<?xml version="1.0"?>
<opencv_storage>
<ann type_id="opencv-ml-ann-mlp">
  <layer_sizes type_id="opencv-matrix">
    <rows>1</rows>
    <cols>3</cols>
    <dt>i</dt>
    <data>
      120 40 65</data></layer_sizes>
  <activation_function>SIGMOID_SYM</activation_function>
  <f_param1>1.</f_param1>
  <f_param2>1.</f_param2>
  <min_val>-9.4999999999999996e-001</min_val>
  <max_val>9.4999999999999996e-001</max_val>
  <min_val1>-9.7999999999999998e-001</min_val1>
  <max_val1>9.7999999999999998e-001</max_val1>
  <training_params>
    <train_method>BACKPROP</train_method>
    <dw_scale>1.0000000000000001e-001</dw_scale>
    <moment_scale>1.0000000000000001e-001</moment_scale>
    <term_criteria><epsilon>9.9999997764825821e-003</epsilon>
      <iterations>1000</iterations></term_criteria></training_params>
  <input_scale>
    3.1649372437122143e+001 -5.7906944343833436e-002
    4.4358001573634365e+000 -4.1388532692770297e-001
    2.9821808411580220e+000 -1.8520030571268304e+000
    3.8343143364363872e+000 -3.2303172621975671e+000
    4.2033140988203961e+000 -3.0868687431890907e+000
    4.2982396096564957e+000 -3.4661140261905996e+000
    4.0010071991949214e+000 -3.3251469419055608e+000
    3.0070670703780498e+000 -1.3965076795134346e+000
    6.7553516846356603e+000 -2.8342295871606027e-001
    4.8391013718087457e+001 -3.4014087513186179e-002
    4.5052004156736150e+000 -3.3755337050518666e+000
    4.5193722941586509e+000 -3.6804017965989768e+000
    4.5174174064540749e+000 -3.0479358097850415e+000
    4.4130395036843959e+000 -3.1386168807540429e+000
    4.6876554442226848e+000 -3.6614772510383804e+000
    4.5711594901365391e+000 -3.5119585974019074e+000
    4.2381806758354914e+000 -2.8465550028558626e+000
    4.5318145153374747e+000 -3.2351934790771706e+000
    4.4020536223467994e+000 -3.5892124257163949e+000
    4.2959515388644691e+000 -2.9822969700008266e+000
    3.2915594112957153e-001 -3.2105931422891719e-002
    4.4433131923413048e-002 -2.3066325261337797e-001
    1.2994014050958557e-002 -7.8520586344441323e-001
    1.0885290184592831e-002 -1.4843097921923685e+000
    1.0291400560790174e-002 -1.6799163695118238e+000
    1.1409967820763490e-002 -1.9501631611110821e+000
    1.1325024390814115e-002 -1.4788079492921402e+000
    1.6269437999302062e-002 -5.9142537389523264e-001
    6.6202039002158458e-002 -1.3957892149091225e-001
    4.4464017195989969e-001 -2.5421159368627971e-002
    2.9883969969125723e-001 -3.5153330479999328e-002
    3.5299265335435939e-002 -2.7700380622822246e-001
    1.1464626413745271e-002 -1.0604151195757947e+000
    1.0970577383594967e-002 -1.7517034315285034e+000
    1.1514206444875252e-002 -1.4051306871913811e+000
    1.2112141413721970e-002 -1.7587678893544358e+000
    1.0628889571554067e-002 -1.7668464485179820e+000
    1.3545062441534444e-002 -7.9311354841387571e-001
    5.2414222862484282e-002 -1.6946222894671079e-001
    4.5040011320969814e-001 -2.7642676212577676e-002
    2.9371754401081857e-001 -3.4979999761639131e-002
    3.1451882721330558e-002 -2.9141632397717965e-001
    1.0546079741897177e-002 -1.0151211759841670e+000
    1.1116950024004519e-002 -1.4694071014497616e+000
    9.8380468238167783e-003 -8.6390079119700591e-001
    9.9998944520853783e-003 -9.8875356769887002e-001
    1.0133179774455024e-002 -1.4074433898079577e+000
    1.2161422196651329e-002 -7.7422069090877255e-001
    4.6253844947522882e-002 -1.8716416715583434e-001
    5.2095455798372825e-001 -2.5946226767577307e-002
    2.5855093424603320e-001 -3.5546030779806566e-002
    3.1674490426828815e-002 -2.9316260586721277e-001
    1.0587096737118631e-002 -1.0327253903781288e+000
    1.0903279303616075e-002 -1.5597637613045829e+000
    9.8838584703418060e-003 -1.0602604666485744e+000
    1.0403473633093647e-002 -1.1865977537897874e+000
    1.0018117718859947e-002 -1.3314135785375683e+000
    1.2445700151326063e-002 -7.1660074207888524e-001
    4.8566193373658077e-002 -1.7937910511646654e-001
    4.6017438985370113e-001 -2.9755552972761237e-002
    2.7223859828905639e-001 -3.3250768885036967e-002
    3.5745474498042933e-002 -2.6117875801650903e-001
    1.0991373652836839e-002 -9.3903031368529177e-001
    1.0198367389057238e-002 -1.6121027026130061e+000
    1.0658047779399974e-002 -1.6746055235972126e+000
    1.1549556510055561e-002 -2.0261757437756174e+000
    1.1251322780725765e-002 -1.7638668032935807e+000
    1.3488456750388631e-002 -6.7670595428551039e-001
    5.5792875783622381e-002 -1.6155950921780909e-001
    4.3501223934673655e-001 -2.6671780627262769e-002
    2.7220316031843822e-001 -3.8367651981075529e-002
    3.5282705433896520e-002 -2.5283289397415876e-001
    1.1106909988131582e-002 -8.9817869753877944e-001
    1.0453560431820890e-002 -1.4978639675418284e+000
    1.1078447722126041e-002 -1.3713261978961151e+000
    1.1163119185727828e-002 -1.6869421062088858e+000
    1.0900044483945440e-002 -1.7873099731599889e+000
    1.2888876917897755e-002 -7.5730391859017909e-001
    5.6554240179875113e-002 -1.7298559205530845e-001
    4.1733728406723131e-001 -2.3606084808722470e-002
    2.1630946970318354e-001 -4.3988896055079947e-002
    3.2161925941929743e-002 -2.7601997742442552e-001
    1.0597326320291461e-002 -9.5439556973659478e-001
    1.0318964246577422e-002 -1.2873686971866523e+000
    1.0918451802433723e-002 -8.2807455713629485e-001
    1.0523010284934266e-002 -1.0564887047734028e+000
    1.0439812698517348e-002 -1.5717206667141213e+000
    1.1844300648605532e-002 -8.1658606771997733e-001
    4.8355763712824296e-002 -1.9607284706644221e-001
    4.1021233472317814e-001 -2.3602694612360163e-002
    2.1350092445124771e-001 -4.6420591890855185e-002
    2.9415504159080005e-002 -3.0165936224511963e-001
    1.0729911426444088e-002 -1.1441068579589224e+000
    1.1009712155447941e-002 -1.5657253263015707e+000
    1.0690360530532673e-002 -9.1310740727063966e-001
    9.8375873478017111e-003 -1.0229479595369066e+000
    1.0174031767970671e-002 -1.5201622733087192e+000
    1.1710069907562034e-002 -8.5169226422666722e-001
    4.8266861968594213e-002 -2.0302410449576000e-001
    3.8860953247875196e-001 -2.2549006603278774e-002
    2.3552429104910144e-001 -4.7322830033002604e-002
    3.2695328694204710e-002 -2.8606620973489472e-001
    1.1322318074934223e-002 -1.1421843346517166e+000
    1.1005601665989342e-002 -1.8174601272395836e+000
    1.1974080871734559e-002 -1.4765877487841590e+000
    1.2903749803896743e-002 -1.7473298845508538e+000
    9.9212127066221848e-003 -1.5620479441678568e+000
    1.3441996854405919e-002 -8.0970925730317755e-001
    5.6532314151929483e-002 -1.7995752852479158e-001
    3.4676443412082919e-001 -2.4026907332531881e-002
    2.6273241380097589e-001 -4.1847783396453536e-002
    4.3565291458566968e-002 -2.2415541402810887e-001
    1.3298256982695008e-002 -7.5048434750397364e-001
    1.1197717904979579e-002 -1.4332410764236811e+000
    9.8938236040015375e-003 -1.4887969618666077e+000
    1.0097953470457846e-002 -1.4013295977246707e+000
    1.1214792774311585e-002 -1.2192188185248134e+000
    1.6139681490873657e-002 -5.6485544076005378e-001
    7.0268236438798301e-002 -1.4560636207511096e-001
    3.4119823480503297e-001 -2.3516585594209528e-002</input_scale>
  <output_scale>
    5.2631578947368418e-001 4.9999999999999994e-001
    5.2631578947368418e-001 4.9999999999999994e-001
    5.2631578947368418e-001 4.9999999999999994e-001
    5.2631578947368418e-001 4.9999999999999994e-001
    5.2631578947368418e-001 4.9999999999999994e-001
    5.2631578947368418e-001 4.9999999999999994e-001
    5.2631578947368418e-001 4.9999999999999994e-001
    5.2631578947368418e-001 4.9999999999999994e-001
    5.2631578947368418e-001 4.9999999999999994e-001
    5.2631578947368418e-001 4.9999999999999994e-001
    5.2631578947368418e-001 4.9999999999999994e-001
    5.2631578947368418e-001 4.9999999999999994e-001
    5.2631578947368418e-001 4.9999999999999994e-001
    5.2631578947368418e-001 4.9999999999999994e-001
    5.2631578947368418e-001 4.9999999999999994e-001
    5.2631578947368418e-001 4.9999999999999994e-001
    5.2631578947368418e-001 4.9999999999999994e-001
    5.2631578947368418e-001 4.9999999999999994e-001
    5.2631578947368418e-001 4.9999999999999994e-001
    5.2631578947368418e-001 4.9999999999999994e-001
    5.2631578947368418e-001 4.9999999999999994e-001
    5.2631578947368418e-001 4.9999999999999994e-001
    5.2631578947368418e-001 4.9999999999999994e-001
    5.2631578947368418e-001 4.9999999999999994e-001
    5.2631578947368418e-001 4.9999999999999994e-001
    5.2631578947368418e-001 4.9999999999999994e-001
    5.2631578947368418e-001 4.9999999999999994e-001
    5.2631578947368418e-001 4.9999999999999994e-001
    5.2631578947368418e-001 4.9999999999999994e-001
    5.2631578947368418e-001 4.9999999999999994e-001
    5.2631578947368418e-001 4.9999999999999994e-001
    5.2631578947368418e-001 4.9999999999999994e-001
    5.2631578947368418e-001 4.9999999999999994e-001
    5.2631578947368418e-001 4.9999999999999994e-001
    5.2631578947368418e-001 4.9999999999999994e-001
    5.2631578947368418e-001 4.9999999999999994e-001
    5.2631578947368418e-001 4.9999999999999994e-001
    5.2631578947368418e-001 4.9999999999999994e-001
    5.2631578947368418e-001 4.9999999999999994e-001
    5.2631578947368418e-001 4.9999999999999994e-001
    5.2631578947368418e-001 4.9999999999999994e-001
    5.2631578947368418e-001 4.9999999999999994e-001
    5.2631578947368418e-001 4.9999999999999994e-001
    5.2631578947368418e-001 4.9999999999999994e-001
    5.2631578947368418e-001 4.9999999999999994e-001
    5.2631578947368418e-001 4.9999999999999994e-001
    5.2631578947368418e-001 4.9999999999999994e-001
    5.2631578947368418e-001 4.9999999999999994e-001
    5.2631578947368418e-001 4.9999999999999994e-001
    5.2631578947368418e-001 4.9999999999999994e-001
    5.2631578947368418e-001 4.9999999999999994e-001
    5.2631578947368418e-001 4.9999999999999994e-001
    5.2631578947368418e-001 4.9999999999999994e-001
    5.2631578947368418e-001 4.9999999999999994e-001
    5.2631578947368418e-001 4.9999999999999994e-001
    5.2631578947368418e-001 4.9999999999999994e-001
    5.2631578947368418e-001 4.9999999999999994e-001
    5.2631578947368418e-001 4.9999999999999994e-001
    5.2631578947368418e-001 4.9999999999999994e-001
    5.2631578947368418e-001 4.9999999999999994e-001
    5.2631578947368418e-001 4.9999999999999994e-001
    5.2631578947368418e-001 4.9999999999999994e-001
    5.2631578947368418e-001 4.9999999999999994e-001
    5.2631578947368418e-001 4.9999999999999994e-001
    5.2631578947368418e-001 4.9999999999999994e-001</output_scale>
  <inv_output_scale>
    1.8999999999999999e+000 -9.4999999999999996e-001
    1.8999999999999999e+000 -9.4999999999999996e-001
    1.8999999999999999e+000 -9.4999999999999996e-001
    1.8999999999999999e+000 -9.4999999999999996e-001
    1.8999999999999999e+000 -9.4999999999999996e-001
    1.8999999999999999e+000 -9.4999999999999996e-001
    1.8999999999999999e+000 -9.4999999999999996e-001
    1.8999999999999999e+000 -9.4999999999999996e-001
    1.8999999999999999e+000 -9.4999999999999996e-001
    1.8999999999999999e+000 -9.4999999999999996e-001
    1.8999999999999999e+000 -9.4999999999999996e-001
    1.8999999999999999e+000 -9.4999999999999996e-001
    1.8999999999999999e+000 -9.4999999999999996e-001
    1.8999999999999999e+000 -9.4999999999999996e-001
    1.8999999999999999e+000 -9.4999999999999996e-001
    1.8999999999999999e+000 -9.4999999999999996e-001
    1.8999999999999999e+000 -9.4999999999999996e-001
    1.8999999999999999e+000 -9.4999999999999996e-001
    1.8999999999999999e+000 -9.4999999999999996e-001
    1.8999999999999999e+000 -9.4999999999999996e-001
    1.8999999999999999e+000 -9.4999999999999996e-001
    1.8999999999999999e+000 -9.4999999999999996e-001
    1.8999999999999999e+000 -9.4999999999999996e-001
    1.8999999999999999e+000 -9.4999999999999996e-001
    1.8999999999999999e+000 -9.4999999999999996e-001
    1.8999999999999999e+000 -9.4999999999999996e-001
    1.8999999999999999e+000 -9.4999999999999996e-001
    1.8999999999999999e+000 -9.4999999999999996e-001
    1.8999999999999999e+000 -9.4999999999999996e-001
    1.8999999999999999e+000 -9.4999999999999996e-001
    1.8999999999999999e+000 -9.4999999999999996e-001
    1.8999999999999999e+000 -9.4999999999999996e-001
    1.8999999999999999e+000 -9.4999999999999996e-001
    1.8999999999999999e+000 -9.4999999999999996e-001
    1.8999999999999999e+000 -9.4999999999999996e-001
    1.8999999999999999e+000 -9.4999999999999996e-001
    1.8999999999999999e+000 -9.4999999999999996e-001
    1.8999999999999999e+000 -9.4999999999999996e-001
    1.8999999999999999e+000 -9.4999999999999996e-001
    1.8999999999999999e+000 -9.4999999999999996e-001
    1.8999999999999999e+000 -9.4999999999999996e-001
    1.8999999999999999e+000 -9.4999999999999996e-001
    1.8999999999999999e+000 -9.4999999999999996e-001
    1.8999999999999999e+000 -9.4999999999999996e-001
    1.8999999999999999e+000 -9.4999999999999996e-001
    1.8999999999999999e+000 -9.4999999999999996e-001
    1.8999999999999999e+000 -9.4999999999999996e-001
    1.8999999999999999e+000 -9.4999999999999996e-001
    1.8999999999999999e+000 -9.4999999999999996e-001
    1.8999999999999999e+000 -9.4999999999999996e-001
    1.8999999999999999e+000 -9.4999999999999996e-001
    1.8999999999999999e+000 -9.4999999999999996e-001
    1.8999999999999999e+000 -9.4999999999999996e-001
    1.8999999999999999e+000 -9.4999999999999996e-001
    1.8999999999999999e+000 -9.4999999999999996e-001
    1.8999999999999999e+000 -9.4999999999999996e-001
    1.8999999999999999e+000 -9.4999999999999996e-001
    1.8999999999999999e+000 -9.4999999999999996e-001
    1.8999999999999999e+000 -9.4999999999999996e-001
    1.8999999999999999e+000 -9.4999999999999996e-001
    1.8999999999999999e+000 -9.4999999999999996e-001
    1.8999999999999999e+000 -9.4999999999999996e-001
    1.8999999999999999e+000 -9.4999999999999996e-001
    1.8999999999999999e+000 -9.4999999999999996e-001
    1.8999999999999999e+000 -9.4999999999999996e-001</inv_output_scale>
  <weights>
    <_>
      -1.3300854728762831e+001 -1.4942820138547633e-001
      -6.5497757748912888e-001 9.7348930484922810e-002
      4.1699432073213732e-001 3.5748491135278360e-001
      8.3023795809724799e-001 -5.3497500007364873e-001
      -6.2490436082281475e-001 9.1191090347673906e-002
      -5.1184316070403642e-002 -1.0343647089235823e+000
      -4.9414247812563905e-001 -1.0069194672970605e+000
      2.8774630397222434e-001 -1.1803960968242402e-001
      2.1061931625216632e-001 4.5150385020708211e-001
      3.3497840444691390e-001 -1.1691381608567154e-001
      2.5811819141051262e-001 1.0115516386647019e+000
      -1.2858468709307549e+000 -3.0051535541142260e-001
      6.2738805347893734e-001 4.6317705245472784e-001
      1.5776493517723530e-001 2.6831542063929942e-001
      -2.3362905451476848e-001 -2.6896183921409345e-001
      -1.9160342003858102e-001 -4.4554871154362108e-001
      -5.7090424029265807e-001 1.1576017945115816e-001
      -3.5949663089666251e-001 1.0742152796213367e+000
      -4.4421392791395836e-001 3.8008102092808543e-001
      2.0519874358316453e-001 5.0974744446666453e-001
      -2.4932452776616785e+001 -6.6475282668497393e-002
      -2.5486961333851649e-001 -6.0977929456239277e-001
      4.2005496313337093e-001 1.3872686822631730e-001
      -4.2563219080776749e-001 2.7722505386682367e-001
      -2.5192904761655815e-001 -3.4306450721130269e-002
      1.3309980368282068e-001 2.2795253688405979e-002
      -6.8729214132934632e-002 -1.1547178275351389e-001
      5.1911142438772317e-001 3.5325898639033909e-001
      -2.4057109050191602e-001 -2.0457586020944332e-001
      -5.7153205770304505e-001 1.5163900197198982e-001
      -3.0553279448159870e-001 -9.2074245005596533e-001
      6.5802031736688948e-001 -6.5045170381700301e-001
      -4.8104285530159807e-001 9.9509562839787097e-002
      -1.0262123382561410e-001 -4.3115081069667371e-001
      -4.4538265918953401e-001 -2.7718881837447329e-001
      -5.3298771919612131e-001 3.3530960395399011e-002
      2.1952473752229906e-001 -1.4455492075584173e-001
      -5.2791896816825244e-002 1.2451495905431798e-001
      7.6148098770885797e-001 1.8941604928181560e-002
      -1.7458152082416523e-001 -8.6946265569409459e-002
      -8.7498884700220536e+000 -1.9496969499480629e-001
      -1.1138048184017113e-002 9.1235592512259212e-001
      -7.8625818323224142e-002 1.8378037539209949e-001
      -3.0417505859003380e-001 8.2659279217326664e-001
      5.0207301081809796e-001 4.7858159671913691e-001
      1.2216174541455260e-001 -1.8910151780044226e-001
      -1.3183548432626221e-001 -7.0399045476624766e-001
      8.0331498848903851e-002 4.9319616407728278e-001
      -2.1129017404131370e-001 3.3331637670109615e-001
      -2.0983127349371161e-001 2.8131447101790591e-001
      3.7894614032833152e-001 -5.9461698414395181e-001
      8.6264912059453150e-002 -5.6404469790322165e-001
      -4.7945106400306015e-001 4.8161428309591631e-001
      -1.1248439311992948e-002 1.1514204014115230e-001
      -7.3761605385658946e-001 8.9660758587541550e-002
      -3.9227263939716855e-001 -6.1046996931133091e-001
      1.7826990816189520e-001 2.9532928984208340e-001
      7.2650202494346394e-002 -7.8377596641293090e-001
      -2.7569304877319789e-001 -2.2519075896981189e-001
      -1.2400478949254681e-001 -1.1466148982955913e+000
      7.0357081608609651e+000 1.0596977125823243e-002
      -1.7793341097165402e-001 2.7121158159573894e-001
      6.8218409704536420e-001 -4.9476008606536725e-001
      1.6187148072329416e-001 4.8169095981706755e-001
      -1.0118276819454544e+000 -6.3198551729923769e-001
      1.1639173476917946e+000 -1.1272640963106693e+000
      6.4499587101154954e-001 -7.1467096441506073e-001
      5.3529768293074798e-001 9.3428414500930679e-001
      -1.1233156307875407e-001 -2.5007927635587068e-001
      5.3743312874469840e-001 -8.6106776792003703e-001
      -4.5940887410247583e-001 -3.5145633795119723e-002
      7.9024551952300376e-002 3.3191395892995906e-001
      -1.4419828418120062e-001 -5.0617696225846331e-001
      1.0279759406172351e+000 -4.7759714432246664e-001
      -2.3123620158544339e-001 -9.6184722802545963e-001
      -8.7256688832638363e-001 -8.8205162504146506e-001
      -6.6185506619588289e-003 -8.4982485742265923e-001
      -3.3242535858709776e-001 -1.3990660738130001e+000
      3.0138437038259164e-001 3.2926351690041811e-001
      -1.1231979027953998e+000 -3.9450342562876606e-001
      -1.0790665292990389e+000 -9.8698904447927630e-002
      -8.9218446820029509e-002 2.0543965649753948e-001
      8.2860241542243140e-001 -5.2286279452676654e-001
      -7.0265909583917829e-001 7.7773997315661081e-001
      -3.2837909232785201e-001 1.4883578551139929e-002
      -3.0856098601999538e-001 -1.9399218136082848e+000
      1.2584880851428033e+000 9.4622119108245173e-001
      -2.9935428569487715e-001 5.2926578839471738e-001
      6.7565813659638840e-001 -4.5299397587575169e-001
      -1.5689127391964075e+000 -4.0752024723109020e-001
      -1.1024216245881900e-001 -6.3881168574375269e-001
      8.0268634427096319e-001 1.0317907888977260e+000
      3.1866595424579569e-001 1.4935920415900374e+000
      1.4373608687097605e+000 -1.1436556033002767e+000
      -8.0001370048404441e-001 2.5617763006900614e-003
      6.5161795142336498e-002 -6.3836029537046113e-001
      2.6628086753161001e-002 1.3667904755350255e-001
      -8.2527792309021342e-001 -5.4070636745009304e-001
      -3.9144661588281326e-001 1.0416846182451757e-001
      -7.5815972371071294e-001 8.5919782505513531e-001
      -2.1195578033251139e+000 2.0586397177587490e-001
      -7.8887082617235860e-001 3.6531120232896097e-001
      1.2338528024684352e+000 -2.7944115817604903e-001
      -9.5017746492980415e-001 6.6195977894505309e-001
      4.6886980904308755e-002 -3.8481314231886371e-001
      9.6039382726975764e-002 -8.8889973623238894e-001
      2.5472010274994444e-001 6.2259771258999652e-001
      3.8025052556594369e-001 -1.0559546041218003e-001
      -4.2559472189971770e-001 3.0208323128268705e-001
      -1.1888961923453873e+000 -1.3038907191419813e-001
      -5.6448033321605573e-001 -1.1855498952254503e-001
      5.8007712811428125e-001 5.9495233403183045e-001
      5.7851397487147416e-001 6.5144689606081885e-001
      -6.5100804384512309e-002 -7.2871882720356673e-001
      -8.3001614932657874e-001 -8.5389247526572065e-001
      -4.7738108140377783e-001 -8.9369683730168925e-001
      3.6162923606517133e-001 -1.6165883740240178e-001
      -2.8528689770949933e-001 3.1580491583269488e-001
      -5.7429710816550372e-001 -3.2099672129724016e-001
      2.7288027735175036e-001 1.2753864601151002e+000
      -8.4477703344061652e+000 1.2113366025048160e+000
      2.2370088310190747e-001 3.1284947850455408e-001
      -1.9247665049458110e-001 1.2476421481922013e-001
      6.9878751284551155e-001 4.9172279926106832e-001
      -9.5718466783733391e-001 -8.8802964647169658e-001
      1.9938089472143941e+000 -7.5485728447196321e-001
      -4.9603214920567884e-001 -3.7575256845449106e-001
      1.3142372813890191e-001 1.0230742795382679e+000
      -1.7763152780690192e+000 -8.8454762219180444e-002
      8.4676190344560365e-001 -1.0669345842124907e+000
      -3.2351701122826071e-001 1.9255551598070719e-001
      -5.8728494999078762e-001 5.4191960409134854e-001
      -8.3146182011302738e-001 -2.6487297675989013e-001
      2.1197326107923087e+000 2.4810000028075399e-001
      5.5908045934496275e-001 -8.1165201591463054e-001
      -1.1381765755913236e+000 -1.1977072766162025e+000
      9.2534589959349856e-001 -1.4577953463456936e+000
      5.8538166415857640e-001 -6.2662854581447824e-001
      -2.5969814718929074e-001 -5.7431878419819460e-001
      -1.1273702784681596e+000 8.7011731684421267e-001
      -2.2315429043549678e+001 -8.7687461282482337e-002
      -6.4553118498651973e-001 3.7467079475496412e-001
      -1.8714184928290767e-001 7.1261948881466530e-002
      -1.3636127692436451e-001 7.2672862256112014e-001
      3.0744212004352439e-001 1.3608325103311511e-001
      5.5821688625472862e-002 8.2509287714383109e-002
      7.5885605790633170e-001 3.5066388181602837e-001
      1.8815942411085274e-001 5.1984989054526332e-001
      1.6288753518949908e-001 5.6345187848859590e-001
      -5.9110380625417858e-001 2.2461914775170450e-001
      -1.4840317188064686e-001 -6.6753877384257776e-001
      4.3787422765795686e-001 -2.1109025136681187e-001
      3.0369675290146131e-001 9.5496294991137187e-001
      6.9169110475274685e-003 -3.3318639406122130e-001
      -9.3587053852154067e-001 3.6300506213178091e-001
      1.0459487298966379e+000 -7.7317475528862123e-001
      5.5134232035894581e-001 2.1732822024858223e-001
      -4.6147721463067187e-001 3.7504693830317387e-001
      -9.7067558492863149e-001 -3.4990979267253125e-001
      2.1141437059326737e-001 -6.7954233974465053e-002
      -3.5084035198019436e+001 3.6115684599403641e-001
      1.7161901842475702e-001 8.1523435663864963e-001
      -8.1327914419905190e-001 -7.7030864052876485e-002
      2.2545846525281757e-001 -1.2844231252427452e-001
      -4.7310726973506734e-001 1.4244229530822022e-001
      -2.5515997314962857e-001 -1.0566826907212704e-001
      6.4588062958450210e-001 -8.0647795942627909e-001
      3.0637753772298715e-001 -4.7897706442061311e-001
      -1.8216571052438113e-001 3.5558086717336046e-001
      -2.1264453019711929e-001 -7.5065401675917931e-001
      -3.4920249996336211e-001 2.0344158998660400e-001
      -2.7192018050991718e-001 -4.6024056072125541e-001
      2.2853292125883376e-001 5.0451073050724793e-001
      -1.3139570386751312e-001 -3.0096009218334369e-001
      -2.6264140404848407e-001 -5.6011054643640701e-001
      3.3488413261292677e-001 -1.0341837552392617e-002
      -6.3251600794763574e-001 -8.4007217486144548e-001
      -3.2065558724798199e-001 4.7715894065393621e-001
      2.5495375166323381e-001 3.3800460432236007e-001
      -1.5947878825532372e-001 2.0587744090764251e-001
      -1.6032191513070249e+001 4.2547672400879211e-001
      -8.5506400945101785e-002 1.8676533216963143e-001
      1.3529209959328994e-001 6.2841089918256066e-001
      1.1734592752235569e-002 -8.0822376984070632e-002
      8.6956971311336717e-001 3.3641437957266318e-002
      4.2653662282077121e-001 -1.3278711110662750e-001
      -1.1915747318008565e+000 -3.5133851419830049e+000
      1.8698651108831729e-001 -1.5493260326743297e-001
      5.9429740599884417e-001 5.4853520647455556e-001
      -9.3694578921782748e-002 -2.5798969115938275e-001
      2.7664023450411812e-001 1.3809415318277465e+000
      -6.3903867992784646e-001 4.2359247363174389e-002
      2.5992185764073866e-001 1.1104322325088636e-001
      -8.3946911825499085e-002 -5.0983284642394289e-001
      -6.4486926232198913e-002 -1.2884345977495751e-001
      7.3046450594522350e-001 -6.7955706659340127e-003
      -1.9403129795475299e-001 4.1050424723242229e-001
      -4.3067469308123313e-001 5.8745866111020351e-001
      -1.4551084361846597e-001 1.5859927054829470e-001
      -1.9920533108640195e-001 4.0278395132382661e-001
      7.3917058821898705e+000 4.1481903142503479e-001
      -2.5554379418247447e-001 -2.3089833905112783e-001
      -1.4317171250335128e-001 2.9788266843026944e-002
      -7.6536284706672886e-001 -1.0502464630423308e-001
      -1.8612491366086789e-001 -3.2709906560454644e-001
      -1.1636850748967087e-001 6.5095940016425102e-001
      3.2447835740371400e-001 -4.2916729574709218e-002
      1.4146792345676390e-002 -3.9896448116202510e-001
      -8.5556901342126968e-001 -1.2173458276227267e-001
      8.7808283839836010e-001 7.2781961961454950e-002
      2.7581986366219252e-001 -2.3266907689755048e-001
      1.5300150651587150e+000 2.7383661540961118e-001
      2.2669382466303286e-002 -1.0429297047360642e-001
      -4.0530901538752540e-001 5.7852233651175144e-001
      -4.2574574184129899e-001 5.2011605273960412e-002
      1.2577941936336203e+000 -5.8385959519862196e-001
      3.6008948728489731e-001 -6.0252888588676867e-001
      -6.5616529142412039e-001 -3.1291956198621884e-001
      -2.4634027161207397e-001 9.2669783352326263e-001
      -2.3995439698205650e-002 -1.1106866921917863e-001
      1.1044565515355142e+001 4.7871287110727007e-001
      7.0289281176696194e-001 1.6726127257319257e-001
      2.3238836483788944e-001 9.5575172621407423e-001
      -9.3329217795864361e-001 -8.5692867084535529e-001
      2.2510408036520632e-001 -5.0105245374650687e-001
      -6.8668968372245912e-002 -3.7748379545895487e-002
      1.3645734895710446e-001 -3.7947089011207419e-001
      7.6242787166491507e-002 5.8128563872600125e-001
      -1.6510485685184936e-001 -3.7743954020427717e-001
      3.9449768666996327e-001 -5.4201988396191458e-001
      -1.3772653732709744e-001 -4.4256752295573459e-001
      -3.3233954852011127e-001 3.1436062773684559e-001
      -5.5751899020010341e-002 -9.6318014216744685e-001
      3.3270608560211284e-001 -2.5749042539615907e-001
      -1.4356761280822916e-001 5.0715777211405888e-001
      3.8246902479169259e-001 2.3255737451030387e-001
      1.5141299542037207e-001 -6.6005308745247571e-002
      -5.1392926366478360e-002 2.0843339385122725e-001
      -2.8180989870717543e-001 4.9820197043306580e-001
      4.3460354477800922e-001 -5.5644578285498747e-001
      2.5087780132105459e+000 3.4029347138370492e-001
      1.3849355794639073e+000 1.6807781604136629e-001
      -6.3592016407697649e-001 9.5023426244565146e-001
      -6.2629342254155007e-001 -4.2288651293114493e-001
      -8.3785740905877171e-001 4.6958571106757580e-001
      -5.2019043006317298e-003 -4.4285289153008789e-001
      -1.3574287168853418e-002 -1.5937839184473415e-001
      7.1256926623555150e-001 5.5243367430988288e-001
      1.3560691267965122e-001 3.2066926796078352e-002
      1.0307364309729896e+000 -2.3875009751822701e-001
      -8.5825745637864093e-001 -1.3938748726919690e+000
      -1.0816068355171544e+000 -2.6691957378910119e-001
      4.1782139530820911e-001 -1.0202041531834669e+000
      -5.1929181247893963e-001 -1.1485795106569396e+000
      -7.0210381357995710e-001 3.6773149410137101e-001
      -5.5547418693257344e-001 -2.1697438888957180e-001
      4.7333767734273774e-001 -1.2357942328283420e+000
      2.3153146760799548e-001 2.7415585250621111e-001
      -1.2503405483607610e-001 -1.4309548614194970e-001
      -5.8093267947821525e-001 -4.5888085691751479e-001
      -5.0978577448587115e-001 5.4069244254524040e-001
      -5.0932948297334701e-001 -4.5860910259788154e-002
      6.2483030440482601e-001 1.3702682312931846e+000
      -4.5357475213581844e-001 4.7544537134454015e-002
      -2.1993443767349127e-001 1.4426399392054276e-001
      7.4026280789870336e-002 1.0989982512455234e+000
      4.3779765921901015e-001 -8.6240245939070381e-001
      2.6643861824432519e-001 -2.6046905426834555e-001
      -7.2484789406867103e-002 6.1170408158102735e-002
      6.4039960119051698e-001 -1.9328906539856808e-001
      -2.4423220378273139e-001 1.2051708961765163e-001
      -4.1144864135958542e-001 1.1752597530018448e-001
      -8.7322294366489875e-002 -9.6151292392817933e-001
      9.2789954225440641e-001 5.1966206124611491e-001
      1.3520343782214314e-001 -1.1376736274261504e-002
      -5.8975788947589980e-001 4.9700289399967790e-001
      -2.0431592971877155e-001 -8.3903583070440491e-001
      5.5440121003804566e-001 2.1358186685310900e-002
      -6.5506613057554897e-001 -7.5687305098047497e-001
      -6.5159425527889792e-001 -4.0417232161661926e-001
      -4.4969382372643132e+000 2.1856231497447762e+000
      -4.5864172438448636e-001 -2.1297194938070796e-001
      5.9987628199337628e-001 -3.7045704876037433e-001
      -2.9371570702869587e-001 -6.2753770142633072e-002
      -3.9518661213361950e-001 -9.0203563744584450e-002
      3.1597909848521372e-001 9.4999602041154152e-001
      -1.9856972238837478e-001 -9.5691406400661028e-001
      7.3840847521838426e-001 -7.7353874735358985e-002
      -2.2425916163215537e-001 -1.2808690704892285e+000
      -4.8357353049782598e-001 3.2994812545495178e-001
      4.3361694610120533e-001 -4.6239114571703871e-001
      6.7031700498425850e-001 4.9106215414545024e-001
      -4.5546485970163209e-001 -8.5599089892371794e-001
      1.7112558708192176e+000 1.3011550085581497e-001
      1.4664319887014324e-001 1.1152705469468781e-001
      8.5996740811550265e-001 8.6985053345154428e-001
      1.7887479762780617e-001 -7.2323938303120394e-002
      6.1369097322377852e-001 5.1447395038769539e-001
      -1.3905693028959898e-001 -5.3227335457187630e-001
      -9.8808761841548987e-001 3.1542138263580455e-001
      -2.5409276727859947e-001 4.4645247413600675e-001
      -4.1466592193296936e-001 1.7996558937784751e-001
      3.8095871302196932e-001 -1.0835014337586027e-002
      -6.3064423688515878e-002 -5.4028673821036188e-001
      2.1009527914813791e-002 1.8280717164602250e-001
      8.9925112112131167e-002 3.2080044011386694e-001
      -3.1053545306487657e-001 5.4564596446981128e-001
      -1.1541468977681142e-001 -2.0374454842201406e-001
      -4.9435690858822595e-001 -8.1420257389925521e-001
      4.2446686896117258e-001 3.8115910930337926e-001
      2.0743582772336365e-002 -1.0577365298400645e+000
      -8.4973615182050399e-001 -3.8637380285735928e-001
      -3.8555979593659562e-001 2.1313838398172743e-002
      2.0521230774434776e-001 1.0682069394112237e+000
      -7.3880088922334042e-001 -8.2731683148013449e-002
      -2.4219050880001797e-001 1.5682924729781553e+000
      -9.5027500986273039e-001 -7.0054979564559972e-002
      4.1605710012291264e-001 -7.2455799832843393e-001
      -5.7710041547010837e-001 -1.0223735860923433e-001
      -8.2344921540939264e-001 4.8179633781318648e-001
      1.4998777594652204e+000 -9.9944897609736427e-001
      -4.3862523870353809e-001 -1.9964218383353140e-002
      4.9950362291894140e-001 -4.0178198152395928e-001
      -4.4723072522287299e-001 2.4751408205881742e-001
      4.5917118027271187e-001 -5.9204839485585491e-002
      7.6224318277887360e-001 3.0890654141367369e-001
      -3.0456630372837362e-001 6.8561833942995798e-001
      -1.6726308402592822e+000 9.1485090481491693e-001
      -1.1183965046664823e+000 1.8815044990318922e-001
      1.8852315299205036e-001 -1.0889221919100687e+000
      -1.8401701878440535e-001 4.3021361068344954e-001
      -1.1046488927793523e+000 -6.3762495428231614e-001
      2.9947173409902422e-001 -4.9645076302507152e-001
      1.0253724898106571e-002 3.2756435760612862e-001
      -4.6379235899050281e-001 -3.4281514332773327e-001
      -5.9980486939104360e-001 -2.3261678529083441e-002
      -1.2361805406233484e+000 7.3725004270434757e-001
      9.0198367473986818e-001 -4.8592611809837727e-001
      -5.8192389341957662e-001 -1.3715603990500133e-002
      4.1316474950399508e-002 1.6236883587925675e+000
      -1.8430791878260220e+000 -1.0027886696560506e+000
      -1.3389461345347117e-001 1.7442929205198626e-001
      -3.1173993101864864e-002 1.3290497865495898e-001
      5.0732526692677848e-001 2.8375871512757833e-001
      3.4218112916694254e-001 -1.0331565296400406e-001
      4.1200845424726157e-001 8.4715276793370042e-001
      2.4229474417029124e-002 8.5171520286085067e-001
      -3.9088461636505062e-001 6.7291488084709306e-001
      -1.5928270267133342e+000 4.6257777309378523e-002
      8.4014318744238692e-001 -1.5972715243090829e+000
      -4.7784235359454148e-002 9.6652788117361799e-001
      3.6363417723223651e-001 -7.4112237810419246e-001
      -2.1196679319851497e+000 -7.8304202500987952e-001
      8.3284541119258204e-002 9.3287050303769770e-001
      2.3858085050469602e-001 -6.6206707154011746e-001
      -3.7206144630017551e-001 -4.8737454114872508e-001
      -2.2485244925944717e-001 9.5796299589141687e-001
      1.6129109015169141e-001 -8.6806726646619392e-001
      1.8965823668105289e-001 7.1036570760931772e-001
      4.0003162245666557e-001 1.1997122401797338e+000
      2.6100093067439136e+000 -4.2649060913967596e-001
      -7.8285448303234484e-001 2.4057261282438347e-001
      -7.1661496763839838e-001 -1.8122101321757450e-001
      1.2469652935428246e+000 1.0235915082358114e+000
      8.6779723605160819e-001 -9.0233838142440057e-002
      -1.5953326526852538e-001 4.2689601797173189e-002
      -6.8373444143315087e-001 6.6976686349700532e-001
      7.3342368899063282e-001 1.0192482062667396e+000
      -5.7309116935756721e-001 1.2115527053277272e-001
      -6.2467067466320125e-001 -1.3111101752208816e+000
      -1.5606707214847139e-002 5.2361871281337913e-001
      1.8067018741323992e-001 -1.0119317497740594e+000
      -1.2215766520233176e+000 -4.5237259996419770e-003
      -4.0962207722227412e-001 5.4886292873167242e-001
      -9.7881775905815727e-001 -7.4280905438759537e-001
      -1.3203423818980284e-001 5.8395097334228829e-001
      -1.8117923345593828e-001 -9.1414264901392606e-001
      1.8879994073930695e-001 -7.3730794420468004e-001
      -7.0449845056737970e-001 3.0875007257863396e-001
      -1.8728761766572119e-001 -3.4247314947235558e-001
      1.0977788471930959e+001 5.3328616015084641e-003
      -2.0929102820107420e-001 -6.1836929633984135e-002
      -7.7705574707610292e-001 8.4095241726016415e-002
      7.6458473158558393e-001 2.5700988138436193e-001
      1.3412136630586990e-001 1.5027435029695840e-001
      4.1776718167484467e-001 2.5428306012282603e-002
      -9.6731769069329787e-001 -8.4741016685422110e-002
      4.6971528618828923e-001 -5.3263925023100456e-002
      -5.9558325417944602e-001 -4.7302967923613970e-001
      -5.0744281757411625e-001 -7.8168164489228620e-001
      2.3611021786551370e-001 8.4858934263811359e-001
      -1.3496952361382150e-001 -6.1637582075314123e-001
      4.5381516055332211e-001 1.9975699709566505e-001
      -2.2557312404699703e-001 2.2661801340299279e-001
      8.4404526089727971e-001 -3.4895995055954011e-002
      3.2577485464021827e-001 3.8922638550250654e-001
      3.5454046771624304e-001 -2.3269682468903516e+000
      8.2416424153286913e-002 -7.1744390388366486e-001
      -9.9193337627760081e-001 5.6745864586122030e-001
      -3.6079274832597652e-001 8.3225637071458891e-001
      -2.5827435023550560e+000 8.0751707198485601e-001
      -1.9403991084900121e+000 2.9547320871567517e-001
      5.7050254028372638e-001 3.1027955089826573e+000
      6.4556804530664469e-001 -8.7314690817936425e-001
      -7.6246774675476514e-001 4.3474266973472475e-001
      3.3144764739185728e-001 6.2484866085993485e-001
      -3.3748886495372399e-001 1.6278072123178994e-001
      1.3265307235644079e+000 -4.8266526621437550e-001
      8.6404328399777053e-001 -6.0002956725304209e-002
      3.8366201914363046e-001 -1.4300403987785997e+000
      -2.0234988061284140e-001 9.2757176680289277e-001
      -6.7041221122074726e+000 -3.3906994493701453e-001
      -6.9220672884503442e-001 6.0437531988489612e-001
      -4.3926930480790916e-001 -3.3732015606089560e-001
      -1.8784729390897051e-001 -1.0620246708041052e+000
      -5.4591187774759087e-001 -4.1212799377679597e-002
      -2.1677401013830595e+000 3.2994364021290662e-001
      -1.4466904262239910e-001 6.0627763040294269e+000
      -6.2735841189710329e-001 2.4553985327476388e-001
      5.7032028497058340e-001 1.0077968300347358e-001
      -3.0108864460723410e+001 -7.5597881485444196e-001
      -8.2399862382589351e-001 -1.5905463515502729e+000
      1.8454623078751756e-001 3.7057889533504512e-001
      -1.1732494437330690e-001 -4.2481996763847313e-002
      5.1461137647797028e-001 1.1459625216215415e-001
      -2.6698458832516964e-001 2.6826637290405764e-001
      1.1079509021918379e+000 6.0902110304249424e-001
      -4.4752759984234375e-001 -2.4357680591420372e-001
      -9.5544407573842458e-002 -7.1754663719866343e-002
      4.2731300967123670e-001 -1.5915317011339161e-001
      4.7025286907963432e-001 1.3363462992350177e+000
      3.8402864042281520e-001 -8.2283692066127831e-002
      1.0163235536133995e-001 2.0189157440461483e-001
      -2.8135963300989913e-001 3.1131858631415710e-001
      3.1706190424778052e-001 2.2653328780154380e-001
      2.8950259282570301e-001 1.4293975952169274e-001
      -1.2764230466117379e-001 -8.9543009235328763e-002
      -5.4186260864130709e-001 -7.7417845973678567e-001
      -6.4541556464071670e-001 2.9099739119165707e-001
      2.6762664902984696e-002 -6.0580988750169418e-001
      -2.3723017486930534e+001 -4.5761816264176625e-001
      -1.1026792935395968e-001 -5.2040382726184731e-001
      -1.6352150172057126e-001 5.4744039545560574e-001
      -8.9965892574928652e-001 1.8260149770220882e-001
      2.6761534303113088e-001 2.6476420062230815e-002
      -1.1719938233371279e+000 -7.0083499996336873e-001
      1.5807971182650544e+000 1.6719063621326186e-001
      2.6868792064403507e-001 -1.4026459723170603e+000
      2.1679763997248866e-001 1.1177104258300208e-001
      1.3398428414739061e-001 8.8510387950593683e-002
      7.8602339902054369e-002 1.6991734807921921e+000
      6.6745631224728330e-001 2.8015722827797068e-001
      -3.8767806013316176e-002 2.4307315463480750e-001
      -1.4405162685956381e+000 3.4869442593167166e-001
      7.9485804625865675e-001 -2.0696172548294385e-003
      2.5499917050501235e+000 -4.0375432894894664e-001
      -1.3099389953610328e+000 -9.4005143831250237e-001
      -2.0263188476354772e+000 -9.1193484879682241e-001
      -9.7529587970146203e-001 -5.5218696282373136e-001
      -1.0216903841111991e-001 -5.4317830692883751e-001
      4.9919703173247019e+000 4.9926964860771522e-001
      -5.5044287145820914e-001 2.5804096907117807e-001
      -4.8968221753374175e-001 2.1740946150471346e-001
      -2.5117437872921689e-001 -2.6189395319224806e-001
      3.6368232177951398e-001 3.2972767174344542e-001
      1.2325729704761666e-001 -3.5273303112647958e-001
      1.2390575415999228e+000 -4.9773224800584875e-001
      4.6538794251741439e-001 -6.3471897886900319e-001
      -1.2850006966549940e-001 3.8031828295477382e-001
      -2.0861718763131012e-001 3.7725614574121974e-001
      -3.0539700199787639e-001 6.1679772935101729e-001
      3.5924886079270635e-001 2.0469585165402601e-001
      -1.3744053917723131e-002 -1.4868276349475791e+000
      7.2163955204408703e-001 -6.7688112840389766e-002
      1.2798238026012474e+000 -3.7204897754632188e-001
      1.9018224466830773e+000 -5.9149476727114703e-001
      1.0538626582575354e+000 -4.0186127894259349e-001
      -1.8442886066531758e+000 -1.9280022483772316e-001
      -6.6364001152022878e-001 -2.9675912156650347e-001
      -3.4244370879703022e-002 -5.9901511017126208e-001
      1.6667226619997727e+001 1.7404298997401544e+000
      -2.1221241554365089e+000 -2.4449103105831174e-001
      5.3639727242184498e-001 -4.8187753837444242e-001
      -2.7292505975745753e-002 -3.1565972651589287e-002
      -3.7334763214885841e-001 -1.1737094942573817e-001
      2.7989520813671280e+000 1.3806504644273871e+000
      4.2927164453289823e-001 4.8708658392460596e-001
      -1.2738845694942840e+000 1.3094969193688131e+000
      1.5534517203049476e+000 6.0337883965104366e-001
      6.0367555553299934e-001 1.2730555792042650e+000
      -9.7763171519326911e-002 -8.5462787792720918e-001
      1.4988987641229503e+000 -1.2358771653784109e-001
      6.8281133929354654e-001 3.4158361099974124e-002
      1.6890767999512004e+000 -5.9834472019206875e-001
      1.3224333276596134e-001 -8.7430622529680802e-001
      -5.2480698981799645e-001 -1.2920654382633359e+000
      2.5999429233596651e+000 3.5023750543236913e-002
      -4.0173411743469634e-001 5.1930744151547492e-001
      1.5187676847912124e+000 9.3002070700773265e-001
      7.3715743141941126e-001 1.3219398242934073e+000
      1.5764823554237571e+001 -1.0710517123519689e+000
      1.1951602760909941e-001 7.3714055944131240e-001
      -8.6211574581076655e-001 -2.7734974710622229e-001
      1.5491953135177052e+000 3.7363774233892699e-001
      5.6766141675827519e-001 8.1481168537548609e-001
      6.2409143720951776e-001 -1.8838737359509408e-001
      -2.9927004155011439e-001 3.2669593136827678e-002
      -2.1297456459941319e-001 6.9873922287417412e-001
      -1.3358671147820905e-001 -1.0089706480393550e-001
      2.0399652737324985e+000 1.4869256434494627e+000
      5.8951543679476304e-001 -1.4242151518958153e+000
      5.7053247466515378e-001 -2.4821793051501889e-001
      9.9548563607314078e-001 1.6388465759826982e+000
      2.3195977556737075e+000 -2.6192742685354325e-001
      -3.9187503263708323e-001 1.2090268303270110e-001
      -4.0886363557140259e-001 -4.8543824463744251e-001
      1.7598546260136332e+000 -4.0015880845633589e-001
      -3.3251722862276678e-001 1.0278190433942172e-001
      -9.9838181956566560e-002 -7.1674630027818309e-001
      -4.9425867260199280e-001 -1.0789556319068707e+000
      -6.4128393972190469e+000 2.6631948633890051e-001
      -3.0207686721686661e-001 3.7208904617052424e-001
      -1.1112663867761980e+000 -1.2631092386970324e+000
      2.4353403323289338e-001 1.2394709862343135e-001
      -4.8323988849407695e-001 -7.7056991011874654e-001
      -1.5802502017896642e+000 -1.2227218018878849e+000
      -1.8090499996058758e+000 -1.3957765897567251e-001
      2.5345147879959795e-001 -1.5042793384859188e+000
      -7.5049314929728439e-001 2.6341217488186530e-001
      -1.5377681834002579e-001 5.2984882394382184e-002
      -7.0545701587769738e-001 3.8477475375752046e-001
      3.9904216892523997e-001 5.1836643573867314e-001
      6.4348156175457349e-001 6.7010925603243165e-001
      -2.7109711918786084e-001 -1.5855602241522779e-001
      -1.6254630125462288e-001 -2.2192370996245928e-001
      8.1739834673336975e-001 -1.1529285492364763e+000
      -1.5145034970118785e+000 2.8053301566904287e-001
      -3.7499205162593269e-001 7.5914013987297102e-001
      3.9678654555994614e-001 -4.1797029400256236e-001
      -5.2387482694280718e-001 -2.3732781860010790e-001
      -2.6964992920118892e+001 1.1136736186843803e+000
      -4.3281831340039550e-001 -4.5790702931325350e-001
      -1.6412596255536749e-001 -3.9784675322970170e-001
      -1.1493996156963358e-001 1.8895878971404714e-001
      -5.1115870739543226e-002 -3.3504048667937542e-001
      -1.4538040805607424e+000 -1.0205954929519314e+000
      -5.0988976546286136e-001 1.3188202723394626e-001
      2.3528043122461102e-002 -1.2487927947934723e+000
      -2.3449802463599984e-001 -4.5146402987950968e-001
      1.3523127312951333e-001 -4.6497319384789570e-002
      -6.3538572863378140e-001 3.5908149450011784e-001
      9.3430608473356574e-002 7.3114653123028650e-001
      -2.4587763168601787e-002 -9.9847457241382401e-002
      -4.9054845993316004e-001 5.3053788313262962e-001
      -7.0225497946546922e-001 -1.0414182724997935e-001
      -2.4005453362751397e-001 -6.8441932968628427e-001
      -1.2730912312385592e+000 3.2670797707720439e-002
      3.0403487385394895e-001 6.4095257982143339e-001
      4.1723161877601900e-001 7.5628750743627871e-001
      -3.3239456488101216e-001 9.8078317064143206e-001
      -2.8398272645561285e+001 5.2305654917996314e-001
      -1.0235485735029084e+000 -3.1608339357391690e-001
      -2.7529316956948585e-001 -1.4926863912611563e-002
      6.1754579123862186e-001 3.9081569959900905e-002
      -1.7908739459555720e-001 2.1900186978675668e-001
      -3.6565482287314016e-001 -6.7515427130179509e-002
      -8.3173191962625848e-001 -1.7572594569408495e-001
      1.9934242735898308e-001 -1.0684015032359164e+000
      -2.6433996356895845e-001 -3.9790871713474374e-001
      -4.4129712380133274e-002 -4.4356476415366369e-001
      1.8489782304807076e-001 6.4941753972887317e-001
      -9.2400574497096655e-001 3.4502167773123871e-001
      -8.8433723939875711e-002 -7.0984577947501501e-002
      -4.8956836019227684e-001 2.9367088480533710e-001
      -3.1286120175847143e-002 -2.0917708738379734e-001
      -5.0223786579829643e-001 -3.7894693621226966e-001
      -6.4458198551248647e-001 -1.9670226385614198e-001
      -8.5354202603489110e-002 1.0725019061618006e+000
      -1.3874873080227670e+000 8.5870492029731327e-001
      -4.6791627851231959e-001 3.7961849041400576e-002
      -5.0576209619802626e+000 1.0643317953621163e-001
      1.8173404239410780e-002 1.5599362641643463e-001
      6.0887339141015200e-003 3.3218855173736933e-002
      1.7776383450293479e-001 -1.9483445549399273e-001
      5.2802034212390059e-001 2.4775568191476558e-002
      1.7556237375174644e-001 -1.3280742963162795e-001
      -1.9440037261663945e+000 5.4782695619000774e-002
      -7.7009217407458877e-002 1.1733889802457430e-001
      8.0003851357414524e-001 -6.6882973450155337e-003
      -4.7673303213261908e-001 1.1741162094752454e-001
      1.5366757393435296e-001 -3.7679732012906985e-003
      1.1367743436744972e-003 6.1590616144431794e-002
      -1.5860694396611527e-001 -9.5823996579965341e-003
      1.6390446337034789e-001 -4.6161625050626032e-001
      7.5178273915467816e-002 -6.8124347568357349e-002
      3.4571942859793786e-001 -4.5114161169904353e-004
      6.1460704286483779e-002 2.6479590951384835e-001
      -5.8161001098619525e-001 -2.1297417386309001e-002
      -1.3187587836718592e-001 1.1163903861242847e-001
      -1.9289870339861037e-001 5.7493377854146221e-001
      -3.8945533153017817e+000 8.4923523298447567e-001
      -1.6715171312714814e+000 4.2584487536790638e-001
      4.4415185643047767e-001 2.7683479914004181e+000
      4.1872608761863667e-001 -5.9615361542342357e-002
      -5.9990745303114235e-001 3.7797182486611081e-001
      3.1624676067522561e-001 2.9959453679536258e-001
      -9.3377425731719244e-001 1.2071051765145355e-001
      1.1998743109119370e+000 -1.2196296347927911e-001
      8.2863816128202517e-001 9.5755218512588849e-002
      -6.8729460165036138e-001 -1.0846591370390337e+000
      -2.3644070897171632e-001 8.9547466737048453e-001
      -6.0679244232926060e+000 4.8680576015919602e-002
      -3.6970312283729012e-001 5.9750951358745008e-001
      6.2755132750538511e-002 -4.5733490347992067e-001
      -1.9912703994593275e-001 -6.7919412577929328e-001
      -2.0976670762953806e-001 -7.6609804873600029e-002
      -2.0045987382008223e+000 -6.8075396610693284e-001
      1.0299136294716840e-001 5.4838414297110090e+000
      -3.3009284037853526e-001 1.8845468422503234e-001
      2.0572136494249332e-001 2.7272470192471743e-001
      -3.2811752381018231e+001 4.1567982680855153e-001
      -5.1287868020388494e-001 -2.6875300074730962e-001
      -6.3231939046809216e-001 -9.5919792013927974e-001
      -4.7162061126667826e-001 3.9349619017546733e-001
      -7.8678772576341333e-003 7.0591338387526170e-001
      4.7503198286483900e-001 -7.7823527456018982e-001
      8.4603156731667284e-001 1.0011504934411161e-001
      4.4387213780970403e-001 4.0319191988152286e-001
      -6.0877563152837910e-001 -2.0817059310631014e-001
      2.6215687122228182e-001 7.1055904016674420e-001
      2.7573044646147939e-002 2.1111294279774845e-001
      4.0231655103965530e-001 -6.7051067840646295e-002
      -3.9471715875476356e-002 2.3317176787049412e-001
      2.0178747892244869e-002 5.8513862576872566e-001
      -1.2997279998850006e-001 4.5124035419080943e-002
      -1.8351469656228410e-003 -1.4628398370343965e-001
      -7.7444389312941564e-001 -2.8364679739579601e-001
      5.0976863988559562e-001 3.1033845389024508e-002
      -1.0848972630839016e+000 -2.3816993254276120e-001
      4.2044482262304467e-001 -1.8157539651205623e-001
      -1.0020924565357745e+001 7.5570516833652845e-001
      2.0980097097852482e-001 5.0472247862787345e-001
      -5.6644658023967120e-001 1.3318125692102237e-001
      -6.3487407394176132e-001 -7.1917906937180254e-001
      -5.4273616831468086e-001 6.3874501648860649e-001
      9.4706884193054752e-001 -5.9713736238872195e-001
      1.2609198120082490e-001 -2.9058922159191541e-001
      -1.7038744466795044e-001 9.4598628299116061e-001
      1.9755009290696604e-001 -6.4459782438209912e-001
      6.0154468552821805e-001 1.3689590166865984e+000
      -8.3173244788135470e-001 2.9454689382626142e-001
      -3.5164326045639166e-001 1.8711301449281767e-001
      8.2358918710744933e-001 2.6423145922443492e-001
      -8.3376553104943585e-001 -1.9457450603550150e-001
      1.4500700158417814e+000 -1.6631579350730979e-001
      8.6451384632651129e-001 1.8071306405532814e-001
      -1.2220136458350894e-001 2.0832648838866144e-001
      -4.4331110192669199e-001 1.1907916229089113e-001
      2.1601730626215232e-001 1.0684223744050385e-001
      5.5061894318578629e-002 -4.1613996150097277e-001
      1.1468242341294950e+001 1.1814315168927671e-001
      1.6935370764978548e+000 -2.5015550574396472e-002
      -1.0657853525063621e+000 2.2936613983058632e-001
      -8.2294966759940402e-001 -8.1198390418964150e-001
      -1.4772387307181570e-001 -6.0717814557070593e-001
      2.3207244566972163e-001 -8.1682973450210505e-001
      -3.2712404015443830e-001 1.7455112388489952e-001
      4.6035477254941382e-001 1.0279966027905827e+000
      1.1039205713704316e+000 -3.3239280960342732e-001
      1.0092340861139026e+000 1.8738291916684908e+000
      -7.7590622044174273e-001 -4.0439744237413150e-001
      2.2600343487349731e-001 9.7382893228996592e-001
      -6.2714834681116924e-002 -4.2054239253016157e-001
      9.9277517863965181e-001 -1.4441651424944482e-001
      4.4673745240484741e-001 -1.7557835729540108e-001
      2.1837934355548745e+000 -1.6892774091436252e-001
      2.1482078172115011e-002 -3.8464210668842591e-001
      -7.8438908666899909e-001 3.6903448249101345e-001
      9.9158325244508860e-001 1.0124079382118483e+000
      -4.9262773853291192e-001 -1.0822401145692988e+000
      -2.1617714252098321e+000 9.3299143278265739e-001
      -1.8947112457839579e+000 -3.9718079504622150e-001
      4.7886885734544021e-001 -1.3066349545028157e+000
      -8.2620705243155679e-002 5.1294521360033551e-001
      4.2752293140645314e-001 -3.0436935942034702e-002
      -1.5631324999677690e-001 2.3117506475971258e-002
      1.1786621853725768e-001 4.9815928402653353e-001
      -7.5546536458440250e-001 -1.6785870650535797e-001
      3.4744512083724055e-001 -2.2132940563137365e-001
      -5.7817691858981635e-001 9.8653725524416136e-001
      4.2723683318778377e-001 1.1750426775731457e-001
      9.4237641022378082e-001 -2.2998198586912408e-001
      5.0241412037332311e-001 -4.3161944604070840e-001
      -6.6152276110630036e-003 -1.7277876577728007e-001
      -7.5173496758996228e-001 -6.6183201014752158e-001
      1.2070901994586971e+000 -4.3538581539151960e-001
      -1.5481970628119801e+000 1.7975622332100560e+000
      2.1661207929423679e-001 -2.4148225352705707e-002
      4.4435630414944749e-001 1.0284582177850443e+000
      -1.3463598843661265e-001 -1.7683609214586873e-001
      4.1542237139461182e+000 3.4557529961129113e-001
      -8.4805492552478889e-001 1.8546853252161163e-001
      1.2536710735563437e+000 -5.6428919318542758e-001
      5.7492300432829456e-002 2.0660173149917693e-001
      1.1644785157605204e+000 1.0702623865469467e+000
      8.1398014116077541e-002 4.3809489826810966e-001
      -5.7325536110488395e-001 -9.7742600127852797e-003
      -2.6675508696843652e-003 -5.7401557659662837e-002
      -5.6293048549249147e-001 5.9030839368722765e-001
      1.1378509320069416e-001 8.1449890712809425e-001
      5.1736930700690142e-001 1.1088457368432676e+000
      6.6402165378841915e-001 1.3437478870310823e-001
      3.5945491471651450e-002 1.5542522331078987e+000
      -2.0977909808190626e-001 5.2166789305539210e-002
      -7.5562864451166722e-001 2.6205217662436409e-001
      1.1483757935905605e+000 3.7613174436099420e-002
      -1.1912279314612757e-001 1.4229636024872738e-001
      2.5823792341606200e-001 5.9256962987165929e-001
      -8.9589413629071213e-001 6.7007440412799701e-001
      8.9752757721779897e-001 -9.5416714043582251e-001
      -4.5721695392003685e+000 -4.5593341145360455e-001
      1.5289501690948717e+000 -2.5921152562136263e-001
      1.4083332619571209e+000 2.6062710432174319e-001
      -8.5895652418016732e-001 9.9339296858680537e-001
      6.6455915744736638e-001 -5.0070422092071676e-001
      2.1932267175967149e-001 8.5488243509466821e-001
      -2.5885022658471485e-001 -9.7769460659956142e-001
      8.7703071468139097e-003 8.5691345444634104e-001
      -9.7180329701584056e-001 9.9078479876512637e-001
      8.0076652447891539e-001 -2.3368208110623326e-001
      8.4945361927376173e-001 -6.9950161569273428e-001
      -1.4087552500628003e-001 -5.4745382957581568e-001
      4.3468792780392906e-001 -1.5631326385520078e-001
      -5.6650449891886090e-001 -1.5404406182501578e+000
      5.3101722469117840e-001 2.0375672955042864e-001
      1.6547030670783220e+000 -1.1032132234257923e+000
      1.7160692479961532e+000 -8.2129528053170198e-001
      -7.5211809729949775e-001 1.1662465452441111e+000
      6.5639491118734600e-002 -1.6582599953532153e+000
      5.1817168327524754e-001 -5.7760670192421948e-001
      -2.5352077476532209e+001 -4.5016043521207588e-001
      -1.2627844463878829e-002 7.0282115740700105e-002
      1.0700490220800583e+000 -1.1528366965444867e-001
      -9.3796945362609885e-001 1.0794863164146873e+000
      1.1038089629191797e-001 -5.9513469231339655e-002
      -1.5979347030033297e-001 6.3679565483788747e-001
      -1.4989889186790051e-001 -3.5248525518953439e-001
      -2.1670275750912851e-001 8.2987705290526737e-001
      9.6006314794549394e-002 5.5583666935550780e-001
      3.3688230180111478e-001 -5.4762200540941927e-002
      1.3128957376420596e+000 -7.5086057327852521e-002
      9.7069064160950805e-002 -7.3605725575534098e-001
      1.4581399590494719e+000 -4.5107890593038846e-001
      -1.7238895721784928e+000 4.2993193957028125e-001
      4.9615631734055365e-002 -1.5401650006020062e-001
      -7.3648311106289249e-002 3.4055294657395041e-001
      7.8895647551205220e-002 1.2133793219207174e+000
      5.2979686080633559e-001 1.5550559561486104e+000
      -1.7333562479328407e-001 -1.8239938988762292e+000
      1.2035068382615337e+000 5.7719622111639513e-001
      -3.3963472887876655e+001 2.0604347055430197e-001
      -5.1298935431614545e-001 7.6841703976790710e-001
      8.3221883561027588e-001 2.2881141168223265e-001
      -3.3357368788849912e-001 1.7860542978615931e-001
      -1.1925195969359068e-001 5.3886473308776583e-001
      3.4623750484377064e-001 -2.4129132051860189e-001
      -1.4318375254812221e-001 -2.6620540196438974e-001
      4.8436006962241523e-001 1.9429487997638287e-001
      -3.7245536102083204e-001 -1.5041884676787945e-001
      3.2991849779050364e-001 -3.1305671622749365e-001
      3.2745710106289333e-001 1.2994507657599614e+000
      -1.0864909365896911e+000 -6.3311123175705986e-001
      3.2727847915551200e-001 1.0984311257900405e-001
      -8.7621757521328314e-001 -4.9520025133103218e-001
      6.7617883573177462e-001 -5.0904904099717641e-001
      -1.7932902990374189e-001 -1.3394854224261840e-001
      9.9190351572538948e-001 8.2480407917119714e-001
      -3.9819057554934825e-002 1.3510929596347128e+000
      -4.2397905090778820e-001 7.5974365728942150e-001
      5.6047845404113017e-001 -2.0754713155575727e-001
      -3.2296619303244514e+000 8.2915067012210630e-001
      -1.2784552810554708e+000 1.6392130713022379e-001
      4.9385501530838039e-002 2.1645997430578645e+000
      4.7088846308858928e-001 1.2951612487499953e-001
      2.1194636609522427e-001 3.8569767003925093e-001
      3.8237041562023544e-001 -1.9086971937856298e-001
      -2.2958344094674792e+000 8.5349511301977793e-002
      8.9815502583490336e-001 4.8214597982612607e-002
      5.2320702855745062e-002 -2.1477845697860562e-003
      -5.5765891033963233e-001 -9.8350212274157534e-001
      6.9903256169881092e-002 7.2021565004973043e-001
      -4.6466266438610226e+000 3.1692621561331069e-001
      -4.8513321124786452e-001 3.7504770462809034e-001
      3.0794433399406962e-001 -5.6627114472149831e-001
      2.7096860128858802e-001 -9.2947476895539793e-001
      2.5397530325772805e-001 -8.0521431445414651e-003
      -1.5068191461325486e+000 -2.0831961346134398e-001
      -4.0711819163398011e-001 4.2080931993124615e+000
      -1.3280153150623616e-001 1.4413725325601012e-001
      -2.6534076390564354e-001 8.2873341298709724e-001
      -3.8647969633899146e+000 9.8164948574424249e-001
      -2.6448904560813979e-001 1.9680118901663859e-001
      2.6305584843812224e-001 5.1688140559775908e-001
      1.3138517827654257e+000 -1.7491871017201188e-001
      -7.6495068184749382e-001 3.8983051326828122e-001
      -9.5422236496568102e-001 -4.6571937653361525e-002
      -8.4213426695665769e-002 3.9033043105182491e-002
      1.9076714467479533e-001 1.3671312786051878e-001
      3.7449252197085131e-001 6.0542436611223854e-002
      -2.7837933043008523e-001 -1.4910244542882106e-001
      2.0431541107252379e-001 9.0041896482240952e-002
      -1.3386307841223175e+000 -2.4172073736020949e-001
      -6.3292106210503671e-002 3.4752456049116248e-001
      2.4520076879072328e-001 -1.6614741376818171e-001
      -1.6248618557179914e-001 -8.2044714676028407e-001
      8.1981779253789355e-002 -2.9678274111591987e-002
      -3.7595892617661603e-001 1.0674826712608501e-001
      -9.7540719737023066e-002 1.1880077452926450e+000
      -3.5242776524714403e-001 1.7760153972809517e-001
      2.0622416341538383e-001 -8.1880858748049720e-002
      -2.4707301008324031e+001 4.7967050974325459e-001
      1.8782459711256258e-001 6.5417594579544502e-001
      -3.3667941290544201e-001 -6.9345635533885341e-001
      2.8788649752406492e-001 1.1577595719861596e-001
      -5.0142465588137097e-001 4.0383901113490567e-001
      -2.9967370314821240e-001 -7.1713367964380847e-001
      -3.2873223303096699e-001 -3.9880023559492876e-004
      -3.6540875197663997e-002 7.3831214936582579e-001
      -3.1328698626715468e-001 1.5778689746458342e-002
      8.5493017239759928e-001 -2.7341667530193764e-001
      9.1882690278550588e-002 -1.7976546748439199e+000
      1.0064947381533593e-001 -6.9306784499307095e-001
      4.6033472118276625e-001 -7.4907983206769535e-001
      5.0291192134112983e-001 -2.6228022066927864e-001
      7.3434114585879939e-001 -2.0425346757770360e-001
      -1.3083772314875630e-001 -4.7745904739842221e-001
      -4.3996311114973874e-001 -4.2959192770328342e-001
      4.0239267990266819e-001 6.2228009473767709e-001
      2.8072005677192186e-001 -3.4461897728276586e-001
      -3.5391372831490936e-001 -1.8938083251641785e-001
      -1.7962642683031045e+000 4.8089899152740961e-001
      1.5991454699783172e+000 5.5188584652160332e-002
      2.6951182151593089e-001 -1.5555558013552627e-002
      -1.5022106129512811e-001 -8.0542753497218778e-001
      -1.9110796482766277e+000 4.6637080555956872e-001
      1.4401989555103759e-001 -1.5085751342189568e+000
      -1.5579187472895387e-001 -3.9975335972472664e-001
      2.7028833420469411e-001 1.4052851725580624e+000
      3.1067762830822843e-001 -1.1051432471728083e-001
      8.5781288376612908e-001 7.1170816781828891e-002
      -5.6242711048521843e-001 -2.1690742515572663e+000
      -3.6117044022920974e-001 2.7337256618967354e-001
      4.1983099676501073e-001 -2.6717927131866859e-001
      1.0054771471476496e+000 -1.2273981199344994e-001
      1.7110374204512724e+000 5.4906018811013746e-001
      -4.3280317404467578e-001 1.7997860036645791e-001
      -1.8959074422324818e-001 -1.0365513530645778e+000
      -1.7199297926334040e-001 6.2282904114742021e-001
      3.5766647158435338e-001 -5.9837894232040523e-001
      -1.4919713213690411e+000 -3.6999928460323167e-001
      4.1245326585529725e+000 -2.7523282936738430e-001
      1.3311658397576158e+000 -3.3117240681691706e-001
      5.7094785375958923e-001 9.8394817933448253e-001
      -6.0724132396904262e-001 -3.7563913628653456e-001
      -4.6625120673335557e-001 -6.7244174899005568e-002
      4.5368745097952884e-001 -1.6398738272809821e+000
      1.1874120833259694e-001 -8.7924110706289682e-001
      7.2975296477298379e-001 8.3770277976356344e-001
      1.3237659831105562e+000 1.2551141240015490e-001
      1.1012099022634698e+000 6.3462254554831854e-001
      -3.8765793031994844e-001 -1.3501131532638014e-001
      4.7095401831313072e-001 -7.1271317748222707e-001
      7.6529234246296818e-002 9.0200064144278636e-001
      7.3157184089155036e-001 1.1070585519242748e+000
      3.1455295071456396e-001 -4.7223242612133026e-001
      6.9547008741372263e-001 -4.1969347421560366e-001
      -6.2360263554248252e-001 -1.6056297101318124e+000
      -1.0739040473479251e+000 4.3176618768744873e-001
      -2.4061762086675803e-001 1.0753307362081821e-001
      -7.4765967964695967e-001 -1.8673292830799088e-001
      -7.0381232327691290e+000 -1.6669195528387057e-001
      4.9451794231762913e-001 -2.3019748331846449e-001
      1.7269857210577799e+000 9.9687786086530528e-001
      4.0978561632728261e-001 -1.6975426554079914e-001
      7.2470273006295916e-001 7.8111759080644039e-001
      1.4102819209697315e-001 -1.2194141286151741e+000
      -1.4085440531352855e+000 9.7072470349639928e-001
      7.0717750194758344e-001 -1.9767191238039480e-001
      1.8201918976729927e+000 -2.8261680818139062e-001
      -1.2825532335753839e-001 -7.7896599332319538e-001
      -1.2831553148099375e+000 1.1882480751436288e+000
      -2.7214711383000301e-001 -1.2638833054665799e+000
      -1.7078065600847647e-001 -1.4493688640119631e-001
      -2.7964176131957941e-001 9.2133037354872138e-001
      -2.5522688811503103e+000 3.2389571851785431e-001
      -5.2186971962262740e-001 6.6873926301305120e-001
      -8.9434574846646286e-001 1.5718019284261422e+000
      6.9930098973403509e-001 -1.7754033011578960e-001
      4.0134835176798245e-001 3.2915200778249304e-001
      -1.0658968207419000e+000 2.5685897109550124e+000
      3.3408144688190228e-001 1.9507488989164531e-001
      6.9133286612662315e-001 -6.1728788434033965e-001
      4.5973684513737900e-001 4.1222271150484913e-001
      -3.5435743245681983e-001 1.3143253893716984e+000
      -7.4079529009559103e-003 3.5485657475803156e-001
      7.1376066299915164e-001 5.9718453573380326e-001
      -1.6087236574243089e+000 -2.7860604239484910e-001
      -5.1464065342172005e-001 -1.6438785427267120e+000
      1.7284583107913600e+000 1.3015289911455270e+000
      -1.0033640257438450e+000 -7.3451072365665615e-001
      -2.7076848210818572e+000 1.5854699804800234e+000
      -1.4373786436026847e-001 -5.1402427644147386e-001
      -3.2146884161798345e-001 3.7670193804896657e-001
      5.8771612323556555e-001 -1.1752291220881725e+000
      -3.0674450956315011e+000 -5.1705235068353728e-001
      -5.8405577044888535e-001 -2.6150612780698768e-001
      1.3697488295930246e-001 3.8973554000517679e-001
      1.6217324069230186e+000 -3.6138478601580309e-001
      2.4459421598617237e-001 8.8518556128055537e-002
      1.9195783425725150e+000 -1.2795217988116208e+000
      -1.0321796276836279e+001 1.1044667720677723e-001
      1.0986622107986308e+000 -2.3619013889029053e-002
      1.6255722445278029e+000 1.4472961024930422e+000
      -1.1878715624898371e+000 -4.7305942346726088e-001
      -5.4690874872535111e-001 1.1835369782094285e-001
      1.0992891842085275e+000 1.0349720414646578e-001
      8.5195081874801426e-001 4.2851422230709160e-002
      2.8030202079784050e-001 2.0716572381782236e-001
      9.5382455130006788e-002 1.2047476713663166e+000
      2.0980348475054117e-001 -9.5293968241058180e-001
      -1.1528017942186479e+000 -1.1455178302909882e-001
      -7.0445706636339600e-001 -6.6668448860577956e-001
      5.0278147252793819e-003 -9.4178272006211217e-001
      -4.8944762096307642e-001 -1.3275742976879572e+000
      -1.5036388493370206e-001 8.0536723025449464e-001
      -9.0058985542158043e-001 -1.3261448303179171e+000
      3.4981148162543816e+000 -1.4974521485471441e+000
      -9.0573174570550119e-001 -5.4216550634913996e-001
      -4.0707941254658098e-001 -9.0796530601004111e-001
      3.3656874651495655e-001 -2.1761485537231007e+000
      -2.3681493893600905e+001 -6.0358899572951974e-001
      4.2163107470630634e-001 8.2322215585194913e-001
      1.5746549698704861e+000 9.9087593816556230e-001
      -3.6720006363228880e-001 -6.5556680490529340e-001
      -1.5851823760645839e-001 8.6233541996235900e-003
      7.6562159175507530e-002 -1.3419310270961382e-001
      1.7088085182173347e+000 1.0845434205532234e+000
      3.1015147088740058e-001 7.2966263845174084e-001
      -4.5428564794855103e-001 -2.7014597112457739e-001
      1.8947636321336021e+000 -1.1346414904395470e-001
      3.2743685524124620e-002 -1.1313019081605316e+000
      -5.3613784908376261e-001 -8.6910098442499562e-001
      1.8416164763650381e-002 -2.6753027994555406e-001
      -1.4768420426538766e+000 -7.3149680253201665e-001
      3.1327050530640671e-001 1.5694200084993101e-002
      -2.5310091709045496e-001 5.9483402751258585e-001
      2.4433697273789408e+000 3.4233701337445022e-001
      -6.4737425662666770e-001 -4.4905162343968763e-001
      -2.7182325539414753e-001 -9.8454340252502215e-001
      -3.7613002767979326e-001 -6.4658553993812684e-001
      -3.0008278094510342e+001 -2.7043126446507115e-001
      -1.6009767067418712e-001 1.5417623907924063e+000
      6.4811287635404821e-002 -3.0332003510798161e-001
      1.6353001465168376e-001 -5.2984598424610141e-001
      -7.4311433502944657e-001 5.6839563711053853e-001
      9.4931733833250520e-001 1.0714705119705184e-001
      8.9463804648653156e-001 -8.4113714180213350e-001
      6.9779432329473290e-001 2.4422556437867532e-001
      8.6607487228693547e-002 5.3085665540957683e-001
      9.8849426437203425e-001 -3.0566383928501234e-001
      -8.1967333271742729e-002 -5.8358738544716043e-002
      -4.7947018393384977e-001 -7.8628886707644574e-001
      -5.0657248889082218e-001 5.1565197453102130e-001
      -6.3827074651405713e-001 -6.3804728912885877e-001
      2.0248944412186744e-002 -1.0415279264592481e+000
      2.0607724738737249e-002 -6.0889141148686743e-001
      7.8001711619080538e-001 -7.2075678755381067e-001
      -2.2426198150931487e-001 6.7877096283234728e-001
      1.9736956264760305e-001 9.4910504912409865e-001
      8.4565472408939052e-002 -1.3063324874728925e+000
      1.7772520879318559e+000 1.0148163241958625e+000
      1.5533111556793316e-001 1.5124611606842944e-001
      9.3741621725980009e-002 2.2022557212840521e-002
      2.8246193648527457e-001 1.1336471039970376e-001
      -7.6081067014051373e-001 4.6572019359070460e-001
      2.6583864156742193e-001 -2.7308491163161416e-002
      -3.2199042006255438e-002 6.6023946838067268e-002
      -6.2241193726559500e-002 -1.4183953144929445e-001
      5.2739908163127458e-002 -5.1334247022854079e-003
      5.7219548514470120e-001 1.2814242536256579e-001
      3.0317546278290131e-001 -1.3958721907588295e-002
      -4.4491838835199506e-003 -1.3229333125605550e-002
      -1.7869587753886718e-001 1.6434670693622191e-001
      2.1163142517470127e-001 -2.3814660818117220e-001
      -1.1615623839757798e-001 -9.2667438262962498e-001
      -1.0339014428782368e-001 -1.4669044737211230e-002
      5.3546930080791630e-002 4.5183082555291310e-001
      -5.3805160142639585e-001 -1.2763363929601985e-003
      -9.0581652652146932e-002 1.3958323910765261e-001
      -4.4458462540571037e-001 1.0818413037953203e-001
      -4.6806025182532327e+000 8.7989518168393965e-001
      2.6543249844151107e-001 5.5832893659050498e-001
      3.1308145983942215e-001 -8.8880111708851670e-002
      9.3686249135372324e-001 -1.3292913196278591e-001
      -7.7398423017704221e-001 2.9572445477816783e-001
      3.3984269191589356e-001 3.9903899621251401e-004
      -4.9972452590539934e-001 8.1699434070940255e-002
      -1.1273696755385092e-001 3.6300175485131612e-002
      7.1998700851376962e-001 3.1378681141480957e-001
      -1.8464663323518515e-001 1.6235444680733854e-001
      -3.3870237744058757e-001 -1.1687738910166255e-001
      6.7811505581788084e-002 4.3442621430992063e-004
      -8.1134636159865092e-001 2.1226689282150454e-001
      -3.8995103045393187e-001 -7.4810306188663567e-001
      -2.5505659290592098e-001 -6.9487343859473194e-001
      -1.1742323524431536e-001 -6.1561634123696765e-002
      2.3036227240676058e-001 1.3107444296592941e-001
      9.1520562747990003e-002 1.7367233307032475e-002
      -1.5103342475213688e-001 1.7752803502820549e-001
      2.7731678496754238e-002 -3.0283215625283599e-001
      -2.3607838923556397e+001 -4.1343293689809957e-001
      3.9609513605366664e-001 4.1433467531390966e-001
      6.9767325442983352e-001 2.4463821826084620e-001
      7.8926866156257533e-002 1.5509154648479045e-001
      -5.2599754346084571e-001 4.1033829875760303e-001
      -1.7588050915646522e-001 5.1356978353141691e-001
      5.1198555159125847e-001 -6.6113383715642482e-001
      1.3949404132887833e-001 -4.0337532417540456e-001
      5.2265229679908587e-001 6.6708119593504267e-001
      -6.2624091079014191e-002 -2.0781698570100725e-002
      -1.7343303853198985e-001 -2.3240034109384752e-001
      -6.8110522213929470e-001 1.0201873506489362e-001
      -3.0570105175835666e-001 -4.0623339287496019e-001
      4.6178654181918521e-001 -1.3087679036864883e+000
      7.9564398448493034e-001 -4.3694709511180724e-001
      -6.5236707856832776e-001 1.1732926111380144e-001
      3.7080678304738718e-001 -4.3696887606460760e-002
      9.0559806593332670e-001 9.3795409702505647e-002
      1.4024900675289995e-001 5.0801738352165970e-001
      -1.7641709989152926e-001 -5.1379705928943512e-003
      -4.6826695671757568e+000 -6.3099216699696503e-001
      1.3443115702881969e+000 -3.6810574946699348e-001
      4.3797004000763617e-001 2.9523683567211928e-001
      7.5415132085096270e-001 4.3472118014627525e-001
      -1.0545576967347550e+000 -6.0636710768770796e-001
      -4.2653308762848902e-001 9.5960354289635563e-001
      4.6140570029364847e-001 -1.1714509159302393e+000
      9.1031211462451389e-001 -1.3479559011653802e-001
      -1.5658295584039131e-001 3.4320252846856858e-002
      6.7114380377284488e-001 -6.0552484821324921e-002
      7.1382531040819375e-001 -2.5921860067240846e-002
      7.3519837467644830e-003 5.1941267926788903e-001
      -5.4581976884459105e-001 -5.8976157106912608e-001
      7.1305637390446275e-001 -5.3167424388167772e-001
      1.0012080610977017e+000 2.6963845509049338e-002
      -8.8861672685906035e-001 -2.5902621175397361e-001
      1.5256628398234573e-001 -9.2020912492520557e-001
      -4.6587232816770846e-001 -2.5682198637812648e-001
      9.3006432770778313e-001 -3.5735670123405908e-002
      -1.4857865029220751e+000 -3.8016713624944493e-001
      2.5352290491350962e+000 -3.4020858320403874e-001
      2.5200861827222154e-001 -2.1549862639364945e-001
      -3.7228358096782888e-001 -2.5342946386009763e-001
      2.8309573922944081e-001 -2.0195900821959425e-001
      -1.2265670755539553e+000 -6.3092993177787371e-001
      1.3586858558452583e-001 -6.9442353506182064e-001
      9.0281507699203722e-001 -1.0991541544462178e+000
      1.1453519683646369e+000 -5.5393632422173357e-002
      -5.0820365159632896e-001 -4.9390510837137525e-001
      1.8752833675540379e+000 6.6294962332505251e-003
      -2.7618852941279531e-001 1.0015122662137319e+000
      -3.0598539082968768e-001 1.5453602277410738e-001
      2.1953075337426139e-001 -4.0593314163730504e-001
      1.4863843718585259e+000 1.6370343262361520e-001
      7.1420754994358782e-001 -4.4987504302957376e-001
      -9.6052634686458460e-001 -1.2527550086647204e-001
      -3.6339958434332642e-001 -3.7087211732992104e-001
      -1.1072661729141582e+000 7.9780810251287737e-001
      -2.8347378031492770e-001 -1.2967965259096019e+000
      -7.0605582973509329e-001 -1.5301553801800938e-001
      -2.6918658739704155e+000 -4.2638378378579606e-001
      -1.4671337016138446e+000 -1.6511288718520895e-001
      5.0290386028439316e-001 -2.4719238204847974e-001
      -5.8574641877002021e-001 1.1361545211609543e+000
      9.6610833914137817e-001 1.1533259419783912e+000
      -1.2203616471206524e-001 -5.3088143821519262e-001
      1.4082861720107325e+000 1.0113499275744222e+000
      2.3888562428900403e-001 -1.1909164355838797e+000
      -9.3149096108600088e-002 -9.9785987461475723e-001
      -3.3778086785448497e-001 -9.5858291650823679e-001
      -3.1171791034901597e+000 9.0133773002393647e-001
      4.8719013298926028e-001 -9.6431211414658036e-001
      1.9496659687699466e-001 -2.0561040970493885e+000
      1.8112508485205858e+000 -4.7668164619634590e-001
      -1.4962170943557098e+000 4.2688977948499229e-001
      -5.8576119015853556e-001 1.6411926084660855e+000
      -1.2774378069505590e+000 -6.5115515613928243e-001
      1.0624708575281021e+000 2.1792064663183930e+000
      1.1434000772883743e+000 4.9449052458335180e-001
      -7.5222637849517704e-001 1.4469289694517087e+000
      -3.7374092528693454e+000 -2.4890156053041854e-001
      -1.2679960334287772e+000 -3.1652250732022463e-002
      1.0752738551572474e+000 1.3219905350566680e-001
      2.2958474627969536e-001 2.8276767439031419e-001
      9.8940464243342602e-002 -5.0749811902419090e-002
      -4.4524863827640071e-001 7.0838967382567697e-001
      1.7783828892327189e-001 1.1264307962251023e+000
      -5.0281034193716723e-001 -1.3579393347520734e+000
      1.0339717331059621e+000 3.8022368604743761e-001
      -1.4568395102930294e+000 -7.4547248291241308e-001
      -1.6614062251088524e+000 -1.0141114375415641e+000
      8.4120647354973954e-001 2.0294416700462906e-001
      -1.0806742819605444e+000 -6.2879565678911986e-001
      -6.7913747329031049e-002 -1.7448327641161367e+000
      -1.3635975178810154e+000 7.1517770726345395e-002
      -5.3239527147975585e-001 -5.3287958112803369e-001
      -2.3273598229843859e-001 1.1776886828137804e-001
      1.6666653408217276e+000 7.6298876906001944e-001
      2.7991113351657448e-001 -1.8129309801013729e-001
      8.4790035799479835e-001 3.7688648444611395e-001
      -1.9800899638596327e+001 -6.5753905803346147e-001
      -1.4215895470318554e+000 1.3160033448357361e-001
      -5.1734201770293912e-002 2.8214977371297385e+000
      -1.3738460492236479e+000 -5.8211182168573172e-001
      1.7071224038353602e-001 7.3368937964384776e-002
      1.9546346931184693e+000 -2.4684272157500639e-001
      4.3079258904700612e-001 7.1578473077695748e-001
      8.0051254010269368e-001 -9.2905137858350095e-001
      1.3789853364897293e+000 4.4297193555373071e-001
      3.9119685398587711e-001 2.1534694590645001e-001
      -9.2013146044128380e-001 4.9059950890926812e-001
      -1.0842049936158573e+000 7.1986220812820312e-001
      -5.9360033791923686e-002 -1.7920384379232228e+000
      5.1315637922128743e-001 -2.5183059963171944e-001
      6.8771061030953151e-001 -2.9163407928324386e-001
      -2.0885275577773355e+000 -6.5688397427335998e-001
      1.7493748491858794e+000 -1.6903671797225603e+000
      5.9440501151718628e-001 -2.6392876044666997e+000
      -2.2240156125323293e-001 -3.1689289339084402e-002
      -9.5988115552093065e-002 -5.8914577069744700e-001
      -2.3623440512453907e+001 -1.2685407715701588e-001
      -1.0956161625634897e+000 4.1097377020497378e-001
      1.0996248909742578e-002 1.9419669756800855e+000
      -1.5109773528064403e+000 1.2124919106517272e-001
      1.6447414861793336e-001 -4.2218609818792502e-001
      2.7678271766934111e+000 1.0320737494328767e-001
      3.9678400450679235e-001 -1.6631268639669164e-001
      3.1384552262232834e-001 -9.1963259181003709e-001
      1.2543299013762865e+000 2.1559895220512032e-001
      -5.1788986650110813e-001 2.7301919668591434e-001
      -1.4676823092345876e+000 -2.7996913056071898e-001
      -6.4303378073944373e-001 1.0357952799297874e+000
      2.3028740761869804e-001 -2.0912637557029972e+000
      1.5869017169709115e-001 -3.4337597258842995e-001
      1.4020215473717419e+000 5.1457203631197962e-002
      -1.2993787831329566e+000 -7.7984215736649132e-001
      5.8167539221302311e-001 -1.0424713837398740e+000
      2.2973269451282421e-001 -1.2926737566189526e+000
      6.5287479442715957e-002 2.7198529326859516e-001
      -3.3198843213182161e-001 -7.2695784044815548e-001
      -2.8674776355243530e+001 -6.1297344251063046e-001
      -7.9286961706581938e-001 1.5093783700018724e+000
      2.8403304143150310e-001 1.4443729541333801e+000
      1.9319392827646972e-001 2.7434881698782326e-001
      2.0581730124857739e-001 5.2521275103619647e-001
      1.5165169222491587e-001 9.0303222084109624e-003
      7.0532384811213567e-001 -1.5022018131193049e+000
      2.2246105216162831e-001 -2.8032515353966164e-001
      1.0227238692480112e+000 7.6134491558029171e-001
      -8.5852118019259016e-001 -4.3596728437608701e-001
      -4.9061275443545099e-001 3.9881472266029816e-001
      -8.0296899057079285e-001 3.6196134234506250e-001
      4.1984662331655181e-002 -2.0829770156414766e+000
      -3.4299322395333026e-001 -5.3157295742226174e-001
      1.5177396745520241e-001 -5.6837383302010258e-001
      -1.0683911166191848e+000 -3.7548838411962365e-001
      3.1320526699131418e-001 -6.5303177478037933e-002
      2.6711520130483352e-001 1.1852478886706961e+000
      1.1383302257772112e+000 1.0060298341975267e+000
      5.3236814283366363e-001 -5.6141649314167719e-001
      -5.4909481775803446e+000 7.4659343447263349e-001
      3.4800359197598690e-001 1.5926623707714144e-001
      2.1945034915859193e-001 -8.0471354555988646e-003
      3.3451400501585576e-001 -1.8951120094274587e-001
      -3.7371469491273801e-001 2.3217379263819646e-001
      1.5930288354052813e-001 -1.0019844127909161e-001
      -2.5444968913881422e-001 5.1690373860195808e-002
      -1.1081075270990064e-001 -6.6066755528945559e-002
      8.3970720126622678e-001 7.7541724121990463e-001
      4.4623908034791965e-001 1.5778292226736126e-001
      -2.7223115088803235e-001 -1.6055265136195873e-002
      9.2224481656499324e-002 1.0363555610633210e-001
      -2.7677659567728141e-001 -2.0131147114718635e-003
      -2.7834200018074401e-001 -6.5832543813025257e-001
      -6.2056029346528908e-002 -4.6922150139220942e-001
      3.8573002621121476e-002 -1.1844715284899728e-003
      2.9322333711019749e-001 4.9340102012576820e-001
      2.2783317024458569e-001 -5.8728728481421466e-002
      -1.4145501772225388e-003 1.6296903746484914e-001
      -6.5575179257597163e-002 -4.8963877163360904e-002
      -6.6690841881726710e+000 6.3695289561686952e-001
      -6.7343440979670502e-002 2.8386405720493152e-001
      3.4426028927706692e-001 -2.9260862587895243e-004
      6.3791254860824154e-001 -1.6027689843891024e-001
      -6.2031799561344403e-001 1.8197564186687434e-001
      2.5291058281791906e-001 -1.3402630447593519e-001
      -6.4863524714415755e-001 9.7248682472502679e-002
      -1.1445356632978174e-001 -2.9346883657317378e-002
      7.6129504165142381e-001 3.0184674895053848e-001
      4.3189920439996813e-003 1.6896586558677748e-001
      -2.8804399844945344e-001 -1.0571160386430437e-001
      5.6495634848252894e-002 -1.1874196268588903e-002
      -1.0542905279531034e-001 1.7433934441341933e-001
      -7.3228767683229751e-002 -2.6566895362540205e-001
      -3.2621832945166268e-002 -5.6606916852008293e-001
      1.1725824669964026e-001 -9.6615441897899036e-003
      1.1097785910181883e-001 4.4610493340747093e-001
      1.4195064180740707e-001 2.0513514715815565e-001
      -1.5482906662935653e-001 2.2422595983437674e-001
      8.3465931073970212e-002 2.6837274791657546e-002
      -2.0066769168432664e+001 -9.7909422918525946e-002
      5.1298271085410474e-001 9.7079156714505999e-001
      6.9356369206906701e-002 1.0168370629855161e+000
      -1.5775891018762270e-001 -5.0937145718659016e-001
      4.2313080174872247e-001 3.6093650416124196e-002
      -2.9837392537813195e-001 -4.9751436268625909e-002
      3.7873031927326889e-001 -6.6463625685041872e-001
      5.7930904914274772e-001 -3.0686417788690773e-001
      2.8533975454689876e-002 5.0357027428548265e-002
      2.9310289664219835e-001 -1.6202473648058005e-001
      3.3028617351707018e-001 6.7364261646241452e-001
      -5.1474773956201654e-002 -3.9125596735885265e-001
      -3.6213292123589494e-002 1.7183863200671182e-001
      7.0093171600098314e-001 6.9137133773622172e-001
      -1.8235447403817623e-001 -4.3204950987763557e-001
      4.1959223098322307e-001 4.2510906075525901e-001
      -4.6886542000738540e-001 -1.7593011350053530e-002
      -2.6698171801209081e-001 -4.3598438658467124e-002
      2.1478824272293295e-001 6.3398671547009766e-001
      9.9254883415301004e-002 1.0375450315432068e-001
      -8.5083139610602654e+000 8.0837380832956351e-001
      1.4042263191795832e+000 1.0461657824204310e-001
      -2.6053805086162601e-002 4.3875011435833167e-001
      1.2069536774431039e-001 3.0345425467378256e-001
      5.7885994263922891e-001 -7.7648200693432001e-001
      -7.9463782628792357e-001 -3.8608891624640163e-001
      7.6948758316875143e-001 -4.5954398751799996e-001
      1.1489812061950941e+000 -4.1425139812131773e-001
      -9.7552707503052205e-001 1.4247059121656361e-001
      1.1077539662890883e+000 2.4838807027557699e-001
      1.4525512690026370e+000 4.8045913644112448e-001
      -1.5715556114600793e-001 1.3568349850147432e+000
      -1.5640659359195985e-001 -8.6746748522619876e-002
      1.0379173421380627e+000 2.2254074122505627e+000
      -2.1308938266545277e-001 -7.2475449106148296e-002
      1.0219164772531975e+000 -7.4961413563679066e-002
      -1.6493841813640284e+000 3.7407460417774224e-001
      4.7293833807976898e-001 1.0491441736667966e+000
      1.4989724093587461e-001 3.8527160922606096e-001
      -7.7509082026177645e-001 -8.8835204880421625e-002
      -3.1047875133231653e+000 7.5938343935855779e-001
      -5.7143199747649653e-001 -8.6061729362648054e-002
      4.1024034547016197e-001 -1.3237302517389247e+000
      -6.7493826867411205e-002 9.9549031132289290e-001
      -1.4510961452176718e+000 2.0063227340384154e-001
      -1.4463823266226079e+000 -1.4986923813318556e-001
      9.9819112351288131e-001 -1.2761162610711785e+000
      8.5621846514855238e-001 -2.0009009565370917e-001
      -1.9787699546520954e+000 -1.2322306183817278e+000
      1.7003367658272888e+000 4.5868668532024942e-001
      1.3839826280152578e+000 -5.6956623701939137e-002
      -7.8021090326849274e-001 8.2350750611172630e-001
      -4.6707066836943123e-001 2.8099392931376588e-001
      1.0954634074727652e+000 1.5841534995791977e+000
      6.2220506394295738e-001 -1.0262475521537495e-001
      1.4811885305979747e-001 6.6075431235944793e-001
      -7.2528691556808800e-001 -6.5767743117838562e-001
      -4.1374359990137349e-001 1.8604853944250153e+000
      -2.6360865208199102e-001 -3.8199865235504654e-001
      -3.1956200525696649e-001 7.5454905978500131e-001
      -4.3391887941930340e+000 5.7662427871420424e-002
      -2.6181990010825813e+000 -6.6935658629395392e-002
      -6.2617265586926429e-001 -2.0817181109007405e+000
      -1.0578162472791228e+000 -1.9973166861687197e-001
      -6.6346488526121083e-001 1.5666761903129911e+000
      -1.3268031848173849e+000 1.5069534425805282e+000
      -4.5627510985180426e-002 3.3485619936160216e-001
      1.4679123713281383e-001 -1.9345173863067060e+000
      -9.0747198927615025e-001 -1.9508252205667582e+000
      -6.6724853594903832e-001 -1.0844047058100101e+000
      -3.3605309350352958e-001 7.2381656345963963e-001
      1.0494930413309409e+000 -8.0724761999998196e-001
      7.3536169753500066e-002 -2.9430484987006300e-001
      -7.4120864655334476e-002 -6.2867031804940088e-001
      -2.9151368134380695e-001 6.2821842816846585e-001
      6.5883890336580098e-001 1.3763539455631735e+000
      -6.8589521360917588e-002 -6.8519362047519419e-002
      6.4204098384568031e-002 7.2256970592334047e-001
      1.6242801836095530e-001 3.9080633483737459e-001
      -1.7386555354215851e+000 8.6594675399359822e-001
      -1.2085677701059687e+001 -1.0196766508916955e+000
      -1.2479101370394017e+000 3.1109407359508434e-001
      4.3104909567204464e-001 -2.9108922042785355e+000
      -2.2669191181883988e+000 -1.5048006807806413e-001
      -1.4122708874658704e-001 -2.8957213599572068e-001
      -9.4898943310483863e-001 5.2839897066447417e-001
      -1.0231943508061838e+000 8.6719780555391246e-001
      1.9300615488515610e-001 -2.4589108593772657e+000
      2.2100298019067666e-001 -2.9937515265323650e-001
      -1.1005511403227197e+000 9.1690971039818131e-002
      -5.6386793925964351e-001 -3.8660403736521193e-001
      2.6510805885633526e-001 -4.4968623313227002e-001
      6.4579206804830624e-001 1.6590303956596393e+000
      9.9690343210075499e-002 -5.1965443525651156e-001
      3.9071177295214515e-001 2.8413232997888893e-001
      2.2835040786898921e+000 1.4278282716529600e+000
      8.6595604291999195e-001 1.1581218989461282e-001
      7.2995237193797868e-001 -1.0457352932176027e+000
      -1.5552017687690590e-002 4.9832923605014956e-001
      1.0690170312849328e+000 -6.2970159506953949e-001
      -2.6093911795759297e+001 -1.6791240328181575e-002
      -3.0030789288637055e-001 -3.0282233201890899e-002
      -1.2815712598492672e+000 4.6946459159421729e-002
      -1.1765516277501760e+000 -6.9633317711183218e-001
      -7.8614849680507512e-002 -6.7072191705286099e-001
      1.9044277657294879e+000 8.1236794038880185e-003
      -5.4048576554375860e-001 1.0825191834536432e-001
      4.7514113308606926e-001 -4.4599249740924868e-001
      3.7129550676774085e-002 -3.7043307188254732e-001
      5.2914063342057582e-001 1.2122764433316475e+000
      1.4297464344636872e+000 -3.0543454260660754e+000
      2.1483404636588060e-001 1.4077700220960789e+000
      -5.5328601286822920e-001 -6.3741251070451754e-002
      -4.5913108169686612e-001 2.6207815190107420e-001
      5.8415687477073008e-001 2.1779384252810385e-001
      1.1258028801812119e+000 -4.0032290710020341e-001
      -1.3889813414024674e-001 1.7918503091580470e-001
      1.1150685799109088e+000 -5.7809012825870854e-001
      -7.5263296724249737e-002 2.4868368346315012e-001
      -1.8915563220535075e-001 -3.2260348968159391e-001
      -2.8533603506191479e+001 1.3496399957298271e+000
      1.7773809713708479e+000 -2.6231753113783418e-001
      -1.2409700026130854e+000 1.4973344323343354e+000
      1.5088361077560339e-001 -5.5491847175290265e-001
      4.5420876486430763e-002 -1.8777005527067567e-001
      1.1689411027902221e+000 7.5121156803552480e-001
      -3.6873676959446605e-001 -4.5891554890348091e-001
      3.6581343269163341e-001 7.6715396555720905e-001
      4.6672017422142976e-002 -1.9499669421404398e-001
      -4.1172092066720839e-001 5.2714084343073384e-002
      -2.0139008686313506e-001 -1.9554158956308565e+000
      4.1079691135841147e-003 9.7364001169047321e-001
      -1.0342748201880221e+000 2.5823512126493448e-001
      9.5718458395093398e-001 5.6040951120930349e-001
      8.1306107689525209e-001 1.8017501233954264e-001
      1.1384839194485883e+000 -8.3634922694850933e-001
      -1.4997139263853335e-001 -1.3592253262954437e-001
      9.5842156978965232e-001 -6.0286439999835506e-001
      7.5602597158608331e-001 2.8752745661894430e-001
      -5.5739851751325165e-001 -2.3399324531408791e-001
      -3.2549138841646645e+001 1.9457003259791830e-001
      1.0673664638997920e+000 1.0610537125146708e+000
      7.8532720152550611e-002 1.4065034256374689e+000
      -2.0353306467763670e-002 -4.0015828959903427e-001
      1.0597196900571519e+000 7.0567325773566836e-001
      -6.7614353545166017e-001 4.4111562318441511e-001
      -2.7575601063375127e-001 -1.3310298985126638e+000
      -2.0348609652279318e-002 5.2433671680608140e-001
      2.8634139327855634e-001 8.2313706758404748e-001
      4.7548830386588636e-001 -3.3658000927098508e-001
      -4.5829534815748402e-001 -1.2760528636633436e-001
      -2.3272996569667861e-001 -7.0813894423168289e-001
      -1.2319591869499271e+000 -8.8385302682514433e-001
      1.0177032749541586e+000 9.1348281334495607e-001
      -6.5526006962126926e-001 -1.1614132921202516e-001
      3.6225095045574174e-001 -5.2555073632376303e-001
      1.1719452823623791e-002 7.0953542674639569e-001
      4.6267590082505300e-001 2.4728698252266970e-001
      6.7121523729657706e-001 9.0739730829099463e-001
      5.1914070397893364e-001 -7.2359226482348482e-001
      -1.4211611318988195e+001 1.6585688449688146e-001
      2.0221099927438649e-001 1.5553368411854449e-001
      5.4385109588712392e-002 6.5493560113006022e-001
      -1.3724251543354916e-002 -1.7988771035384696e-001
      1.9046921409932052e+000 -7.1069179491998216e-002
      2.7776865383958571e-001 -1.6695887939768742e-002
      -1.9963648331786576e-001 -6.7857401107476232e+000
      -1.0071111117693869e-001 -1.3562993496663947e-001
      8.0362014272718996e-001 7.6487113510283078e-001
      -1.2048260283075300e-001 -3.8490059945324184e-001
      1.4830192111335350e-001 -5.3952160953378604e-002
      4.1828217507886558e-003 3.0782963239826218e-002
      1.5584523574663967e-001 1.4291986023334269e-001
      6.0104600187734858e-001 -2.0403262312946752e-001
      -1.9474972916741110e-002 5.3392457588328987e-002
      9.6499533428574968e-001 -2.1697371334539390e-003
      -1.0718461728836216e-001 1.5157994427281288e-001
      -8.1100466130654816e-002 5.4703810181798214e-002
      -4.3946888079059991e-002 1.4699698128175770e-001
      -1.4201417103622424e-001 -2.8710458453102705e-001
      -1.1589565336399469e+001 -8.6388835284269910e-002
      -7.2649366981003105e-001 2.7750139849866606e-001
      2.7368239508906117e-001 -8.0027651817158638e-002
      -8.7893395400492291e-002 -1.3034214840634806e-001
      -2.1262701062571843e-001 -7.1912792553037591e-002
      3.6875424037516452e-001 -7.3148633837293420e-001
      -7.2517924950052226e-001 7.2328837278482938e-002
      1.8577207208636506e-001 -8.2505773465870152e-002
      7.6622621844013217e-001 3.7450435457572911e-001
      4.2200568527859939e-001 1.8733167461478972e-001
      4.6669014871751507e-001 3.1072012648971320e-001
      7.7550658783565374e-002 -6.4886002139676380e-002
      2.6688261198479996e-001 2.0644242607160063e-001
      1.6156237929574038e-001 -5.0669897930291918e-001
      -3.2707812019437794e-003 -4.6215161067422135e-002
      4.3866032278980188e-001 -1.0993835460677475e+000
      2.9732645329484286e-002 3.0739062058143424e-001
      1.6239482014729467e-002 -4.3367175383913015e-001
      -3.9962796056959671e-001 2.1226119595639997e-001
      1.3902974290081072e-001 -4.6044303157755495e-001
      -1.6684991101616511e+001 -7.0600597078553373e-002
      -2.8625316583208205e-001 9.1222559766127309e-001
      -4.0768665275828044e-002 2.3540739760175100e-001
      -1.9021567158052347e-001 -1.6241253745913484e-002
      8.4309845842636588e-001 2.7407610384057285e-001
      8.4612627668395368e-001 -2.4963432962281096e-001
      -3.5162000495213558e-001 3.0460256552743422e-002
      5.4340445933854720e-001 -3.0469826580766152e-001
      -5.2956401074832404e-001 4.7733275229444400e-001
      -1.7393767648104387e-002 -3.0122296369991913e-001
      6.7605956528518496e-001 -6.8852893508592239e-001
      -4.6258571858510372e-001 -1.0206071785383994e+000
      -4.0544993674686608e-001 3.4226065599228134e-001
      -9.5344766700707539e-001 1.5819390971542928e+000
      -3.9392973887425003e-001 2.0908493871657097e-001
      -5.2742637001589021e-001 5.2264898344749644e-001
      -1.3100563828018388e+000 7.3963432095289661e-001
      -7.4045091449372891e-001 -1.5577350997904552e-001
      1.6755813053125981e-001 3.2098194344703362e-001
      5.1729616831666625e-001 -4.1115005499012947e-001
      -7.5257486617535916e+000 8.6208797624043321e-001
      8.8193573841473361e-002 2.3829717926065028e-001
      6.8876428364694497e-001 -9.8057020838550224e-002
      -2.5603431929878190e-001 2.2664822641459292e-001
      1.3079505650276320e+000 2.9457079083214666e-001
      2.1085254031306682e+000 1.7677309038916175e-001
      -6.7934280921060575e-001 1.6575927749184732e-001
      -3.4422921538000606e-001 9.6987699621021405e-003
      -5.9259353871180320e-001 5.6824825642147425e-001
      4.2049840418238710e-001 -1.4131414814348053e-001
      7.5653769399469484e-001 -2.3915375322807106e+000
      -1.0792110315002135e+000 -2.2180475197214300e-001
      -4.0569702410518083e-001 7.3992266519146443e-001
      4.2471542085379593e-001 2.2121707321034534e+000
      -5.3621949027143723e-001 -5.7126545596031131e-001
      -2.6209238930936890e-001 9.3710401583198211e-002
      -7.9347386531380926e-001 4.6920622930287348e-001
      1.0324265681879701e+000 -3.0068917532561279e-001
      1.0968340236176672e-002 -3.1999337541966649e-001
      2.7541321383365136e-001 3.8352785990348010e-001
      -5.7891475654446962e+000 4.5789629701422108e-001
      -2.1294211312182534e+000 -6.0006960565827015e-002
      -1.3030105207231306e+000 -2.4484109409095642e-001
      7.8842981774527265e-001 8.5915201169591560e-001
      -1.0205818793929619e-001 7.8822817236616161e-001
      1.2063049610857108e+000 3.9699710678030570e-001
      -1.1160680145873170e+000 -1.2929379159223757e+000
      -1.1223446611031045e+000 -1.1753237135817423e+000
      -1.2449856068235661e+000 -1.4802996680228357e-002
      -1.9375238877828926e-001 -4.8468706064564770e-001
      7.0190751292036924e-001 -9.2834969023536706e-001
      -9.8145255897670214e-001 1.3817227532274783e+000
      2.4502246607273756e-003 -2.3373898044246552e-001
      -1.2016384784521752e+000 1.2213022054953065e-001
      1.2774921371966411e-001 1.6651391571038868e-001
      -4.6785206044065913e-001 -1.6296502920634404e-001
      -6.5057031663167841e-001 3.8498522874754915e-001
      1.0847040038914773e+000 -7.4702422327233808e-001
      2.7431184130470870e-001 3.6376118494403031e-002
      -6.1811624185960756e-001 9.9023058690550314e-001
      -1.0607834312931843e+001 -4.6714688589027459e-001
      -1.3314110782614037e+000 -6.3821681238444866e-002
      -2.2348859947447011e+000 2.7043649879218281e-002
      -1.1441274611518144e+000 4.3914167093219880e-001
      -2.1578039706217713e+000 1.4213437386007934e+000
      -5.1248257227238192e-001 1.1251770209020209e+000
      -6.1452080494952599e-001 -3.1808999988243525e-001
      -1.7236045036678113e-001 -1.7523897271578498e-001
      -2.2278712203577225e-001 -1.1563726962262475e+000
      -4.8213689275800098e-001 -1.0776966027823214e+000
      6.9914761364182865e-001 -5.8213614912418066e-001
      1.5605824094905035e-001 -4.6728600352830701e-001
      -9.0258588010821461e-001 -1.0713821426107498e-001
      -1.2481651099022024e+000 -1.5583472920334607e+000
      1.4596675132577067e-001 3.3947955336622687e-001
      -8.7500923772284545e-001 3.1221736137557254e-001
      9.0035289995297252e-001 -8.2967184732239185e-001
      -4.3354663440576507e-001 -1.5288825176616622e-001
      4.3266985399135105e-001 -2.1250136559137228e-001
      -8.3865563516727659e-001 2.0675812054158182e+000
      -1.5247184162349047e+001 -2.2270260926873666e+000
      6.7925783023216268e-001 -7.2586732723558742e-002
      -3.3682069644784596e-001 -9.0100480677481065e-001
      -8.0803934944700240e-001 5.6054156817809853e-001
      -1.3464714642790467e+000 2.8040885657312775e-001
      -1.1954127200910738e+000 -7.5722816247600522e-002
      -2.6202954561240549e-001 -6.7774974003337496e-001
      1.0735029266285325e+000 -5.3271560369228721e-001
      3.9081154065856705e-001 -8.0546098549170753e-001
      -3.9958672940256755e-002 4.1482793758038172e-001
      1.6106152886610512e+000 1.3949529483726006e-001
      3.7241984157890005e-002 -8.1311525502084075e-003
      8.9069720130223495e-001 1.5463867952682603e-001
      -8.2387239095572273e-001 -8.1710816706407330e-001
      6.4877955403845722e-001 2.5645591175006508e-002
      -4.8273142858280027e-001 5.7856889750864937e-001
      1.9811945452482114e+000 -9.3286687235311000e-002
      7.5022214085850847e-001 -1.2107541772415200e+000
      5.6413397868545001e-001 -1.2213213746224358e+000
      -5.0604312271635776e-001 -4.3322252185791194e-001
      -1.4566650623663996e+001 -4.6021963620689205e-001
      6.4750607829121218e-002 -2.5326047194730689e-001
      -5.6846679380451270e-001 -1.7486611079887907e-001
      1.0918568686892984e+000 -3.4578575681899482e-001
      -2.8109036061512710e-001 -8.6349035436807253e-001
      -1.6902051242883094e+000 -6.2597760181503392e-001
      -3.4639580276200971e-001 -3.0021859856394628e-001
      3.3343721566095086e-001 -1.1544568296971591e+000
      -8.4374207735779555e-002 -8.1839631003855912e-002
      -6.2441937332058939e-002 -1.2700810289058978e-001
      8.7995126083828779e-001 8.7215588129450283e-001
      4.6010544068559356e-001 -1.8075622907000509e-002
      1.9441123617772374e-001 -4.3945780243690236e-001
      1.7104492819167911e+000 3.4280724657993539e-001
      -9.8373476801031742e-002 7.7577856469483966e-002
      -5.5356722507278733e-001 1.4195516716842431e+000
      -7.0800649239404168e-001 -2.8986916496334603e-001
      1.5995561008859411e+000 -3.3408305785809655e-001
      1.7020174721412282e-001 7.5989345237334460e-001
      -1.6322651367147627e+000 -6.1783621951173195e-001
      -1.9656538672880718e+001 1.0353451212950655e+000
      8.7530617156729251e-001 -3.5623138172624874e-001
      -6.8765054070732323e-001 7.8601463919988679e-001
      5.4149085888948179e-001 -1.3713032464234478e+000
      2.4032389223680622e-001 -1.2471673916400858e-001
      -1.3716846622309244e+000 3.6857297368578390e-001
      -3.5048034676456696e-001 3.1796219858982172e-001
      2.6598081731377948e-001 -3.6527852436582808e-001
      -1.2565556898126282e-001 2.5568440597122166e-001
      -6.3622159769922904e-001 2.1098816766582204e-001
      2.4505498623774782e-002 -9.6254168064013623e-001
      -4.8037711040978537e-001 -1.1170747446818958e+000
      2.0802121315313679e-001 6.5874267061588543e-001
      2.6375033714434619e+000 1.5579935937028286e+000
      -2.9183441394102339e-001 -8.7910251135861317e-002
      2.4479358652897171e-001 1.1738796780665617e+000
      1.0730955450240930e-001 -2.8876594037757525e-001
      9.4358411671823983e-001 -7.4749269205772217e-001
      -4.4843593492721262e-001 2.9319214835746515e-001
      -1.1065001215085835e+000 1.7008020666306486e-001
