<?xml version="1.0"?>
<opencv_storage>
<opencv_ml_ann_mlp>
  <format>3</format>
  <layer_sizes>
    120 40 65</layer_sizes>
  <activation_function>SIGMOID_SYM</activation_function>
  <f_param1>1.</f_param1>
  <f_param2>1.</f_param2>
  <min_val>-9.4999999999999996e-001</min_val>
  <max_val>9.4999999999999996e-001</max_val>
  <min_val1>-9.7999999999999998e-001</min_val1>
  <max_val1>9.7999999999999998e-001</max_val1>
  <training_params>
    <train_method>BACKPROP</train_method>
    <dw_scale>1.0000000000000001e-001</dw_scale>
    <moment_scale>1.0000000000000001e-001</moment_scale>
    <term_criteria>
      <epsilon>1.0000000000000000e-002</epsilon>
      <iterations>1000</iterations></term_criteria></training_params>
  <input_scale>
    3.1649372437122143e+001 -5.7906944343833436e-002
    4.4358001573634365e+000 -4.1388532692770297e-001
    2.9821808411580220e+000 -1.8520030571268304e+000
    3.8343143364363872e+000 -3.2303172621975671e+000
    4.2033140988203961e+000 -3.0868687431890907e+000
    4.2982396096564957e+000 -3.4661140261905996e+000
    4.0010071991949214e+000 -3.3251469419055608e+000
    3.0070670703780498e+000 -1.3965076795134346e+000
    6.7553516846356603e+000 -2.8342295871606027e-001
    4.8391013718087457e+001 -3.4014087513186179e-002
    4.5052004156736150e+000 -3.3755337050518666e+000
    4.5193722941586509e+000 -3.6804017965989768e+000
    4.5174174064540749e+000 -3.0479358097850415e+000
    4.4130395036843959e+000 -3.1386168807540429e+000
    4.6876554442226848e+000 -3.6614772510383804e+000
    4.5711594901365391e+000 -3.5119585974019074e+000
    4.2381806758354914e+000 -2.8465550028558626e+000
    4.5318145153374747e+000 -3.2351934790771706e+000
    4.4020536223467994e+000 -3.5892124257163949e+000
    4.2959515388644691e+000 -2.9822969700008266e+000
    3.2915594112957153e-001 -3.2105931422891719e-002
    4.4433131923413048e-002 -2.3066325261337797e-001
    1.2994014050958557e-002 -7.8520586344441323e-001
    1.0885290184592831e-002 -1.4843097921923685e+000
    1.0291400560790174e-002 -1.6799163695118238e+000
    1.1409967820763490e-002 -1.9501631611110821e+000
    1.1325024390814115e-002 -1.4788079492921402e+000
    1.6269437999302062e-002 -5.9142537389523264e-001
    6.6202039002158458e-002 -1.3957892149091225e-001
    4.4464017195989969e-001 -2.5421159368627971e-002
    2.9883969969125723e-001 -3.5153330479999328e-002
    3.5299265335435939e-002 -2.7700380622822246e-001
    1.1464626413745271e-002 -1.0604151195757947e+000
    1.0970577383594967e-002 -1.7517034315285034e+000
    1.1514206444875252e-002 -1.4051306871913811e+000
    1.2112141413721970e-002 -1.7587678893544358e+000
    1.0628889571554067e-002 -1.7668464485179820e+000
    1.3545062441534444e-002 -7.9311354841387571e-001
    5.2414222862484282e-002 -1.6946222894671079e-001
    4.5040011320969814e-001 -2.7642676212577676e-002
    2.9371754401081857e-001 -3.4979999761639131e-002
    3.1451882721330558e-002 -2.9141632397717965e-001
    1.0546079741897177e-002 -1.0151211759841670e+000
    1.1116950024004519e-002 -1.4694071014497616e+000
    9.8380468238167783e-003 -8.6390079119700591e-001
    9.9998944520853783e-003 -9.8875356769887002e-001
    1.0133179774455024e-002 -1.4074433898079577e+000
    1.2161422196651329e-002 -7.7422069090877255e-001
    4.6253844947522882e-002 -1.8716416715583434e-001
    5.2095455798372825e-001 -2.5946226767577307e-002
    2.5855093424603320e-001 -3.5546030779806566e-002
    3.1674490426828815e-002 -2.9316260586721277e-001
    1.0587096737118631e-002 -1.0327253903781288e+000
    1.0903279303616075e-002 -1.5597637613045829e+000
    9.8838584703418060e-003 -1.0602604666485744e+000
    1.0403473633093647e-002 -1.1865977537897874e+000
    1.0018117718859947e-002 -1.3314135785375683e+000
    1.2445700151326063e-002 -7.1660074207888524e-001
    4.8566193373658077e-002 -1.7937910511646654e-001
    4.6017438985370113e-001 -2.9755552972761237e-002
    2.7223859828905639e-001 -3.3250768885036967e-002
    3.5745474498042933e-002 -2.6117875801650903e-001
    1.0991373652836839e-002 -9.3903031368529177e-001
    1.0198367389057238e-002 -1.6121027026130061e+000
    1.0658047779399974e-002 -1.6746055235972126e+000
    1.1549556510055561e-002 -2.0261757437756174e+000
    1.1251322780725765e-002 -1.7638668032935807e+000
    1.3488456750388631e-002 -6.7670595428551039e-001
    5.5792875783622381e-002 -1.6155950921780909e-001
    4.3501223934673655e-001 -2.6671780627262769e-002
    2.7220316031843822e-001 -3.8367651981075529e-002
    3.5282705433896520e-002 -2.5283289397415876e-001
    1.1106909988131582e-002 -8.9817869753877944e-001
    1.0453560431820890e-002 -1.4978639675418284e+000
    1.1078447722126041e-002 -1.3713261978961151e+000
    1.1163119185727828e-002 -1.6869421062088858e+000
    1.0900044483945440e-002 -1.7873099731599889e+000
    1.2888876917897755e-002 -7.5730391859017909e-001
    5.6554240179875113e-002 -1.7298559205530845e-001
    4.1733728406723131e-001 -2.3606084808722470e-002
    2.1630946970318354e-001 -4.3988896055079947e-002
    3.2161925941929743e-002 -2.7601997742442552e-001
    1.0597326320291461e-002 -9.5439556973659478e-001
    1.0318964246577422e-002 -1.2873686971866523e+000
    1.0918451802433723e-002 -8.2807455713629485e-001
    1.0523010284934266e-002 -1.0564887047734028e+000
    1.0439812698517348e-002 -1.5717206667141213e+000
    1.1844300648605532e-002 -8.1658606771997733e-001
    4.8355763712824296e-002 -1.9607284706644221e-001
    4.1021233472317814e-001 -2.3602694612360163e-002
    2.1350092445124771e-001 -4.6420591890855185e-002
    2.9415504159080005e-002 -3.0165936224511963e-001
    1.0729911426444088e-002 -1.1441068579589224e+000
    1.1009712155447941e-002 -1.5657253263015707e+000
    1.0690360530532673e-002 -9.1310740727063966e-001
    9.8375873478017111e-003 -1.0229479595369066e+000
    1.0174031767970671e-002 -1.5201622733087192e+000
    1.1710069907562034e-002 -8.5169226422666722e-001
    4.8266861968594213e-002 -2.0302410449576000e-001
    3.8860953247875196e-001 -2.2549006603278774e-002
    2.3552429104910144e-001 -4.7322830033002604e-002
    3.2695328694204710e-002 -2.8606620973489472e-001
    1.1322318074934223e-002 -1.1421843346517166e+000
    1.1005601665989342e-002 -1.8174601272395836e+000
    1.1974080871734559e-002 -1.4765877487841590e+000
    1.2903749803896743e-002 -1.7473298845508538e+000
    9.9212127066221848e-003 -1.5620479441678568e+000
    1.3441996854405919e-002 -8.0970925730317755e-001
    5.6532314151929483e-002 -1.7995752852479158e-001
    3.4676443412082919e-001 -2.4026907332531881e-002
    2.6273241380097589e-001 -4.1847783396453536e-002
    4.3565291458566968e-002 -2.2415541402810887e-001
    1.3298256982695008e-002 -7.5048434750397364e-001
    1.1197717904979579e-002 -1.4332410764236811e+000
    9.8938236040015375e-003 -1.4887969618666077e+000
    1.0097953470457846e-002 -1.4013295977246707e+000
    1.1214792774311585e-002 -1.2192188185248134e+000
    1.6139681490873657e-002 -5.6485544076005378e-001
    7.0268236438798301e-002 -1.4560636207511096e-001
    3.4119823480503297e-001 -2.3516585594209528e-002</input_scale>
  <output_scale>
    5.2631578947368418e-001 4.9999999999999994e-001
    5.2631578947368418e-001 4.9999999999999994e-001
    5.2631578947368418e-001 4.9999999999999994e-001
    5.2631578947368418e-001 4.9999999999999994e-001
    5.2631578947368418e-001 4.9999999999999994e-001
    5.2631578947368418e-001 4.9999999999999994e-001
    5.2631578947368418e-001 4.9999999999999994e-001
    5.2631578947368418e-001 4.9999999999999994e-001
    5.2631578947368418e-001 4.9999999999999994e-001
    5.2631578947368418e-001 4.9999999999999994e-001
    5.2631578947368418e-001 4.9999999999999994e-001
    5.2631578947368418e-001 4.9999999999999994e-001
    5.2631578947368418e-001 4.9999999999999994e-001
    5.2631578947368418e-001 4.9999999999999994e-001
    5.2631578947368418e-001 4.9999999999999994e-001
    5.2631578947368418e-001 4.9999999999999994e-001
    5.2631578947368418e-001 4.9999999999999994e-001
    5.2631578947368418e-001 4.9999999999999994e-001
    5.2631578947368418e-001 4.9999999999999994e-001
    5.2631578947368418e-001 4.9999999999999994e-001
    5.2631578947368418e-001 4.9999999999999994e-001
    5.2631578947368418e-001 4.9999999999999994e-001
    5.2631578947368418e-001 4.9999999999999994e-001
    5.2631578947368418e-001 4.9999999999999994e-001
    5.2631578947368418e-001 4.9999999999999994e-001
    5.2631578947368418e-001 4.9999999999999994e-001
    5.2631578947368418e-001 4.9999999999999994e-001
    5.2631578947368418e-001 4.9999999999999994e-001
    5.2631578947368418e-001 4.9999999999999994e-001
    5.2631578947368418e-001 4.9999999999999994e-001
    5.2631578947368418e-001 4.9999999999999994e-001
    5.2631578947368418e-001 4.9999999999999994e-001
    5.2631578947368418e-001 4.9999999999999994e-001
    5.2631578947368418e-001 4.9999999999999994e-001
    5.2631578947368418e-001 4.9999999999999994e-001
    5.2631578947368418e-001 4.9999999999999994e-001
    5.2631578947368418e-001 4.9999999999999994e-001
    5.2631578947368418e-001 4.9999999999999994e-001
    5.2631578947368418e-001 4.9999999999999994e-001
    5.2631578947368418e-001 4.9999999999999994e-001
    5.2631578947368418e-001 4.9999999999999994e-001
    5.2631578947368418e-001 4.9999999999999994e-001
    5.2631578947368418e-001 4.9999999999999994e-001
    5.2631578947368418e-001 4.9999999999999994e-001
    5.2631578947368418e-001 4.9999999999999994e-001
    5.2631578947368418e-001 4.9999999999999994e-001
    5.2631578947368418e-001 4.9999999999999994e-001
    5.2631578947368418e-001 4.9999999999999994e-001
    5.2631578947368418e-001 4.9999999999999994e-001
    5.2631578947368418e-001 4.9999999999999994e-001
    5.2631578947368418e-001 4.9999999999999994e-001
    5.2631578947368418e-001 4.9999999999999994e-001
    5.2631578947368418e-001 4.9999999999999994e-001
    5.2631578947368418e-001 4.9999999999999994e-001
    5.2631578947368418e-001 4.9999999999999994e-001
    5.2631578947368418e-001 4.9999999999999994e-001
    5.2631578947368418e-001 4.9999999999999994e-001
    5.2631578947368418e-001 4.9999999999999994e-001
    5.2631578947368418e-001 4.9999999999999994e-001
    5.2631578947368418e-001 4.9999999999999994e-001
    5.2631578947368418e-001 4.9999999999999994e-001
    5.2631578947368418e-001 4.9999999999999994e-001
    5.2631578947368418e-001 4.9999999999999994e-001
    5.2631578947368418e-001 4.9999999999999994e-001
    5.2631578947368418e-001 4.9999999999999994e-001</output_scale>
  <inv_output_scale>
    1.8999999999999999e+000 -9.4999999999999996e-001
    1.8999999999999999e+000 -9.4999999999999996e-001
    1.8999999999999999e+000 -9.4999999999999996e-001
    1.8999999999999999e+000 -9.4999999999999996e-001
    1.8999999999999999e+000 -9.4999999999999996e-001
    1.8999999999999999e+000 -9.4999999999999996e-001
    1.8999999999999999e+000 -9.4999999999999996e-001
    1.8999999999999999e+000 -9.4999999999999996e-001
    1.8999999999999999e+000 -9.4999999999999996e-001
    1.8999999999999999e+000 -9.4999999999999996e-001
    1.8999999999999999e+000 -9.4999999999999996e-001
    1.8999999999999999e+000 -9.4999999999999996e-001
    1.8999999999999999e+000 -9.4999999999999996e-001
    1.8999999999999999e+000 -9.4999999999999996e-001
    1.8999999999999999e+000 -9.4999999999999996e-001
    1.8999999999999999e+000 -9.4999999999999996e-001
    1.8999999999999999e+000 -9.4999999999999996e-001
    1.8999999999999999e+000 -9.4999999999999996e-001
    1.8999999999999999e+000 -9.4999999999999996e-001
    1.8999999999999999e+000 -9.4999999999999996e-001
    1.8999999999999999e+000 -9.4999999999999996e-001
    1.8999999999999999e+000 -9.4999999999999996e-001
    1.8999999999999999e+000 -9.4999999999999996e-001
    1.8999999999999999e+000 -9.4999999999999996e-001
    1.8999999999999999e+000 -9.4999999999999996e-001
    1.8999999999999999e+000 -9.4999999999999996e-001
    1.8999999999999999e+000 -9.4999999999999996e-001
    1.8999999999999999e+000 -9.4999999999999996e-001
    1.8999999999999999e+000 -9.4999999999999996e-001
    1.8999999999999999e+000 -9.4999999999999996e-001
    1.8999999999999999e+000 -9.4999999999999996e-001
    1.8999999999999999e+000 -9.4999999999999996e-001
    1.8999999999999999e+000 -9.4999999999999996e-001
    1.8999999999999999e+000 -9.4999999999999996e-001
    1.8999999999999999e+000 -9.4999999999999996e-001
    1.8999999999999999e+000 -9.4999999999999996e-001
    1.8999999999999999e+000 -9.4999999999999996e-001
    1.8999999999999999e+000 -9.4999999999999996e-001
    1.8999999999999999e+000 -9.4999999999999996e-001
    1.8999999999999999e+000 -9.4999999999999996e-001
    1.8999999999999999e+000 -9.4999999999999996e-001
    1.8999999999999999e+000 -9.4999999999999996e-001
    1.8999999999999999e+000 -9.4999999999999996e-001
    1.8999999999999999e+000 -9.4999999999999996e-001
    1.8999999999999999e+000 -9.4999999999999996e-001
    1.8999999999999999e+000 -9.4999999999999996e-001
    1.8999999999999999e+000 -9.4999999999999996e-001
    1.8999999999999999e+000 -9.4999999999999996e-001
    1.8999999999999999e+000 -9.4999999999999996e-001
    1.8999999999999999e+000 -9.4999999999999996e-001
    1.8999999999999999e+000 -9.4999999999999996e-001
    1.8999999999999999e+000 -9.4999999999999996e-001
    1.8999999999999999e+000 -9.4999999999999996e-001
    1.8999999999999999e+000 -9.4999999999999996e-001
    1.8999999999999999e+000 -9.4999999999999996e-001
    1.8999999999999999e+000 -9.4999999999999996e-001
    1.8999999999999999e+000 -9.4999999999999996e-001
    1.8999999999999999e+000 -9.4999999999999996e-001
    1.8999999999999999e+000 -9.4999999999999996e-001
    1.8999999999999999e+000 -9.4999999999999996e-001
    1.8999999999999999e+000 -9.4999999999999996e-001
    1.8999999999999999e+000 -9.4999999999999996e-001
    1.8999999999999999e+000 -9.4999999999999996e-001
    1.8999999999999999e+000 -9.4999999999999996e-001
    1.8999999999999999e+000 -9.4999999999999996e-001</inv_output_scale>
  <weights>
    <_>
      -9.0582469431159940e-001 -6.8239869384611196e-001
      4.0871462959116794e-001 9.8408461896402111e-001
      5.7249694321115785e-001 2.8725631417868830e-001
      -3.4320330510016056e-001 5.7427143019063354e-001
      -2.0107181473175970e-001 7.9410204587950839e-001
      -7.2395723419326141e-001 -1.1438017323272653e+000
      -6.9185587220788836e-001 1.9757780541137399e-001
      -4.7058082134169860e-001 3.0851752391381587e-001
      -1.0549776495331946e-001 8.3133168219563722e-002
      -4.4111607838251599e-001 -3.8340379354005677e-001
      -7.4322527689177024e-003 -6.7051885385534818e-002
      -1.4838583966357833e-003 -5.0562602181329330e-001
      -3.3141238951736851e-001 3.6946841869974112e-001
      3.3971234362800906e-001 -8.4457366107610746e-002
      -8.2271087938142706e-001 4.2943146867510362e-001
      -5.9322889136113321e-001 3.2035705568245404e-001
      3.9361017829986390e-002 6.1825585825162821e-001
      -7.1302439249512506e-001 5.8545520498808301e-001
      4.3643932854859367e-002 7.3979041921419153e-001
      5.5473206650004614e-001 1.1129344057753006e+000
      6.0130740071974143e-001 -2.6929656900340287e-001
      -4.1608920480222322e-001 1.9007381863163161e-001
      1.2275151415578896e-001 1.7712678196319653e-001
      -2.2306039598680996e-001 2.8926205001322225e-001
      3.0664209529654797e-002 -4.0477843612321332e-003
      2.4027616811775629e-001 -9.6471388221452112e-002
      -3.2039664907260512e-001 6.1993288677320024e-001
      3.2285143858737303e-001 -4.8541712059816289e-001
      -7.4076300035889986e-001 -2.4809718960061033e-001
      -5.9839716410330013e-001 2.3862276261427265e-001
      1.6499642622829547e-001 -1.3938101107503736e-001
      -1.1449991815222067e-001 6.9507081795925618e-001
      4.1250891637683035e-001 1.0790020310012802e+000
      2.1998229060816951e-001 4.9498921629976378e-001
      -5.1614652743141953e-001 1.9130966862949092e-001
      -4.7638942112216108e-002 -5.8490942772968554e-002
      -6.0359030188282325e-001 -5.4062789718166615e-001
      -2.2812478981523365e-001 -2.7512267790578232e-001
      -2.0059109272357095e-001 1.7854757574352769e+000
      1.8096974427306245e-001 -1.0513684036100594e-001
      5.2642279487892907e-001 1.8167751118752862e-001
      5.3382944550343259e-001 -6.9058010602802555e-001
      7.0657978799839993e-001 -6.4919949527792148e-002
      6.8918778071259512e-002 -4.5973653606792936e-001
      -1.6296252561645116e-001 -3.7280677664413425e-001
      -4.2415407166616653e-002 -2.7604478020150248e-002
      -4.3343547505617874e-001 2.9509899512463422e-001
      -3.0471258538375606e-001 -1.1958801593331886e-001
      -1.8587557742185980e-002 -3.0758517506564020e-001
      -9.5615865902678832e-001 -8.0704696407399645e-001
      2.4243739620282423e-001 -5.6882327603198241e-003
      -3.5091790958591418e-001 -5.0120874983762931e-001
      -3.9578920885930347e-002 1.0721343290922863e-001
      -1.0288256495873076e-001 -6.0894081697777491e-002
      5.8696360609480736e-001 -1.1295510039956489e+000
      9.4728335364401028e-001 2.4178041358376176e-001
      4.4111015330494235e-001 -3.9997498142967325e-001
      -5.7531601825031850e-002 -4.9044750567503070e-001
      -7.8175332974984668e-001 5.0404372895373284e-001
      -2.2390475921882749e-001 -1.5802761936333520e+000
      3.8243792796181741e-001 -1.7958113691768893e+000
      -1.8851566886706894e-001 3.3095975055831622e-001
      7.8271641952616089e-001 7.9764145467451097e-001
      2.8967540593002633e-001 -1.1963582617274309e+000
      -2.5118993300454528e-001 -1.3313077739659547e+000
      -2.9305070348917200e-001 1.6034028312344062e-001
      -1.6348596835747403e-001 1.3016922060836666e+000
      1.2913891044825815e-001 6.6359684280097486e-001
      -2.9847907176752841e-001 -5.0440360727064004e-001
      5.2184094483085919e-001 -5.9790508005288945e-001
      6.0066911611711737e-001 -9.4320925843737868e-001
      -7.2869359715742454e-001 -5.0798904018821867e-001
      -1.4878186720090401e+000 8.8408169069012377e-001
      -1.2063206139304066e+000 -5.9951414778458934e-001
      2.8614846669085164e-001 2.1508683768140688e-001
      -5.5804415778930050e-001 1.6806015277419251e-001
      5.2204166711957906e-002 7.6262033314855371e-001
      1.4721726662937376e-001 3.9561868789636978e-001
      -8.6916377273849155e-001 2.0587052303296169e+000
      1.2251164943520911e+000 8.2831558546410733e-001
      1.1445067744126576e+000 -9.9886547170029949e-001
      4.8000084627967449e-001 -7.7323755297892982e-001
      -7.8839309458965312e-001 -1.1069394949269853e+000
      -1.4923462694928886e+000 -9.0643211927858486e-002
      -4.0854358312422706e-001 -7.7986114570432985e-001
      -5.5734023215103113e-003 -5.2485577591768806e-001
      -4.4460357093867015e-001 1.0477042917658802e-001
      1.0731984276756790e+000 -8.4032489778305175e-001
      3.5542305307976485e-001 -1.4545345825336360e+000
      -9.6070723216285747e-001 -8.5272114238976271e-001
      9.6292199106428478e-001 -1.3587005018397584e+000
      -9.3666308832582046e-001 5.3689009074213045e-001
      7.8415287984323123e-002 1.2626472157038637e+000
      -3.5714173751830380e-001 -6.3056595585878361e-001
      3.5061627330987011e-001 -5.8838114721980839e-001
      -8.3579638197239026e-001 2.4274819973122605e-001
      6.6790060746370769e-002 -2.4544369671789315e-001
      -1.1478554054576737e+000 1.0892325461794670e+000
      -2.5712635900747816e+000 2.0024069566751215e+000
      -2.2653646693376434e-001 -6.8978330968412804e-001
      3.2500086611051617e-002 -1.3023247965890437e+000
      3.5979586738092889e-001 -5.3668773122439306e-001
      -8.6690689972352775e-001 -5.1283191113866899e-001
      -5.6344515637453962e-001 -1.0196045999713804e-001
      1.3907223339848820e+000 -1.3874931188711506e+000
      -6.5030498278725679e-001 -4.9813906009218667e-001
      3.9802870226480619e-001 1.9507900020992737e-002
      1.3521491059744242e+000 -9.0361767388274972e-001
      -3.3737348220046903e-001 2.5731599435416891e-001
      -3.1071778009693091e-001 -8.3518064799881650e-002
      6.7451645146957506e-001 -2.3445611354032755e-001
      -5.1174868025638542e-001 6.3188157844970050e-001
      3.2522627563014196e-002 8.3746502548491986e-001
      -5.3448089544637745e-001 1.2204999213736840e-001
      -9.5756326267171366e-001 -1.1329087353556413e+000
      -9.6837173194429171e-001 5.7901942461685552e-001
      -1.4941322501999310e-002 3.2084699128785310e-001
      -4.6052179168986701e-001 -5.4943006792643401e-001
      -9.0394197087165251e-001 -3.2293659574734496e-001
      -1.0483851955326775e+000 -1.1690831163749118e+000
      -3.8127480503263750e-001 1.6839472189338125e+000
      2.4700443838948946e-001 -7.4711163609123155e-001
      -6.2939912883208338e-001 -5.6052508112391775e-001
      -7.9975381366681542e-001 -6.5966263675340520e-001
      -1.9370301374324086e-001 -1.2594020732123343e-001
      -1.9509611053760880e+000 8.5786455293578145e-001
      -5.0587512345526109e-001 1.2321814920228882e+000
      -1.5561379248012711e-001 7.7743254098488390e-001
      -5.5721840667297895e-001 3.1670307930523556e-001
      -1.4788688055590032e-001 -1.7307250081760024e+000
      -7.3243998997524251e-001 5.4980880139930821e-001
      -1.4724501794031875e+000 -4.7546662875987733e-001
      -1.1771327793133914e+000 7.2924445201235921e-001
      -1.3991001608901339e+000 -4.3533487699522488e-001
      5.6697895396351239e-001 7.6778824601134443e-001
      -3.9806823786614204e-001 -3.0547920753623786e-001
      -4.6592011938610567e-001 -4.0704541074641004e-001
      1.1020291603784371e+000 -1.3143760349897646e+000
      -1.9880717195857309e-001 1.0821932984087801e+000
      4.1496279549182036e-001 -7.4894764303085781e-001
      6.0110886656505347e-001 -4.7154549023188347e-001
      5.3875941819200934e-001 1.6171549161876034e-001
      1.1016719725977944e+000 -3.9811275085354492e-001
      -4.0565820697539601e-001 -6.8053623016588738e-002
      -4.9520890620074770e-001 -2.7253830563693775e-002
      6.6488622514885565e-001 -2.7700811101187939e-001
      -6.7251906179416976e-001 1.9076133527590441e-001
      1.2958084265710430e+000 -5.2647977752239272e-001
      -4.7319457481876209e-001 4.4646001541830166e-001
      -5.9033497614443242e-001 -2.7071108959023989e-002
      2.8910135512019192e-001 -1.8191108162790195e-001
      2.6695340365254866e-001 -2.9064222366137304e-001
      1.4164664116761516e-001 6.0651084251984255e-001
      8.0277765139557355e-001 1.0056367149073759e+000
      -2.9652979636036425e-001 -6.4735184137570834e-001
      2.5650162907292373e-001 -3.6842133653514991e-002
      -2.1756851434778135e-001 -4.4374318737912138e-001
      -1.9876686313864464e+000 3.9503763547212256e-001
      -1.1538335814689280e+000 -6.5139870070134698e-001
      -3.6437202069549540e-001 -1.8824520321287726e-002
      3.2241821822691519e-001 -3.8502773993174333e-001
      -7.0931897474029459e-001 1.3851512458771650e-001
      -7.2924177458568492e-003 9.4653228980673210e-001
      3.0669146149323750e-001 5.6820250596034694e-001
      3.5279836098839923e-001 3.0592998560373189e-002
      -1.1435455822334217e-001 -3.5041159528103794e-001
      -6.2532319184101315e-001 2.5756277371192815e-001
      6.7831951145213598e-001 1.9751365278976696e-001
      -5.0904707497872237e-002 -7.6886620690492158e-001
      -2.6008217871580969e-001 -2.3353631194923263e-001
      -9.2518612227121641e-002 2.9273029207535484e-001
      1.4258726187516121e-001 6.8227900603895775e-001
      -3.4810234443570381e-001 1.2004639373895516e+000
      -1.9453085958893176e-001 7.6070007978383836e-001
      2.3952344108595180e-001 -2.9719682042521865e-002
      -7.0067181313833371e-001 3.6987843202480469e-002
      -1.1094343245424858e+000 -3.7992918651587049e-002
      -1.7021345366899792e-002 1.5573781942285647e-001
      -6.8178321429717614e-001 -9.9864249821274353e-001
      -8.5736415104457631e-001 2.4860710773201145e-001
      -1.3793661989854495e+000 -8.9427823075782065e-002
      2.4584157428245490e-001 1.2376264089637976e+000
      9.0288199843610722e-002 7.4910128720422653e-001
      -2.9384074031158791e-001 -1.1832410104028185e-001
      3.5972367316000281e-001 -1.0379644048888345e-001
      3.5618415556784805e-001 -2.8757862494109093e-001
      -2.3539288283213011e-001 7.2516063490233054e-002
      -7.2735784837428527e-002 3.1717085028459813e-001
      -1.6741765455893370e-001 6.7094899117693652e-001
      1.8053911737759026e-001 2.6123909891382874e-002
      1.4254644665553481e-001 5.7315386637729199e-002
      8.9465676238350711e-001 -1.5569274393697236e-001
      -1.5443950149451272e-001 1.6315289659765192e-001
      -4.4731952191577945e-001 -2.1816055912969706e-001
      -7.8831356874146064e-001 3.4995821458990101e-001
      -2.4969021151213328e-001 2.0227782002169830e-002
      -1.4615859297698666e-001 1.2396016888382999e+000
      1.8705261398123788e-001 -1.2093295305398233e-001
      4.4023081739680592e-001 -3.1944487390597437e-001
      -9.4631123305309817e-002 1.3524508755414002e+000
      6.6067152015021044e-002 -5.8824990208404504e-001
      -4.7684566262902928e-001 -1.7155240716168954e+000
      6.3057665430162724e-002 -3.8979998672165939e-001
      4.0299009803734848e-001 1.5069168496468119e-002
      -6.4487140135659082e-001 -1.5414288935215670e+000
      3.2503874007260863e-001 1.3690134132442705e-001
      -1.0819899906191817e+000 -2.0037824540102819e-001
      1.2797313724657347e+000 -1.4356466321009695e-001
      3.6551927921897243e-001 3.4968412722057945e-001
      -1.5044950568711233e+000 6.1129704812350238e-001
      3.1799827509839984e-001 -4.9349496938317894e-001
      1.7946134587689094e-001 -2.0215399274709936e-001
      5.4733404653661277e-001 -9.0033226368622032e-001
      7.5061661441586741e-002 4.9958061502823620e-001
      -4.4631492869443168e-001 -4.5866498784154430e-001
      6.9180620423678341e-001 -1.4149971858672000e-001
      1.0886741344628863e-001 4.6318256003758085e-001
      7.2692608823120453e-001 -6.3832456629986711e-001
      5.6249884063529321e-001 -7.2079781097969875e-001
      1.1413564012087936e+000 -3.4457812554093020e-001
      2.2241880034645181e-001 1.4110439381528941e-001
      5.6179818861882769e-001 4.8952685733513501e-001
      3.7154803536765324e-001 5.1939632097275912e-001
      -6.4559621582382898e-001 5.0884082274802955e-001
      -3.4050335135271731e-001 -5.8022237520145362e-002
      5.4055862964555579e-001 8.7596555306654089e-001
      -7.9937607577871472e-001 7.2746381548041772e-001
      9.3106849635880312e-002 -2.0024844598445246e-001
      -5.1095835016065938e-001 -7.4062031713285514e-001
      -3.9858852646905857e-001 -9.0201894808244781e-002
      -4.1357456146345811e-001 -6.6880798800552965e-001
      8.8646547542751131e-001 1.6086793793145002e-001
      -4.1800740296495770e-001 -2.7497841239728593e-001
      3.8159918452497982e-001 9.1684403413492310e-001
      -1.8885219495881692e-001 1.5026545097793231e+000
      -7.7613544872150397e-001 -1.0730415121816674e+000
      4.3295477630919393e-001 3.8756855883179522e-002
      -1.9956125322284815e-001 -7.0137439922249312e-001
      -1.9759390117143991e-001 -2.4412679665950390e+000
      -5.3295342833412107e-001 -2.5268559776505761e-001
      8.1160797157813347e-001 9.2252519707134162e-002
      -1.4912438020213423e-001 8.0626997026628655e-001
      1.8883158371904959e-001 -7.7578383558906494e-001
      -2.5711411025030068e-001 -3.2554561720628716e-001
      -2.5918622515872436e-001 -2.1661939298399471e-001
      8.6518688657886944e-001 -1.8127543387836700e-001
      -1.5521043058186053e+000 2.3526271377728056e-001
      -5.8904676084482976e-001 -4.0606524445072462e-001
      -2.7479702010694501e-001 4.5331406269290614e-001
      9.0835415145365095e-001 -2.1802840454585862e-002
      1.2272971203765937e-001 -1.0141480454272285e+000
      6.4278743410615302e-001 -3.2464715892893167e-002
      9.0538838116407255e-002 1.8590298142014497e-001
      3.7149596311046551e-001 -7.1715803854958493e-001
      -6.0318514235422238e-001 6.1493232177371648e-001
      -4.5923257093979197e-001 -2.9127843967290806e-001
      4.6267803049457812e-001 6.1490472736808521e-001
      1.9811452023377856e+000 2.0597775184673386e-001
      3.3305528855320549e-001 -2.8910612379583041e-002
      3.3323810309021856e-001 -9.3713985127275001e-001
      1.6951046162687107e+000 -9.8987482968561039e-002
      2.1306410864696462e-001 -3.5837403319981898e-001
      6.4921615628894591e-002 -3.4584946715702714e-001
      -3.3682148858804900e-001 5.8367942178968048e-002
      1.3449562383035368e-001 1.0580106099327402e+000
      -5.0636364719422365e-002 -7.3051577007725729e-002
      -1.9108166767764221e+000 1.3205669979194101e-001
      3.4072328185478606e-001 5.6032370680602994e-001
      2.3738298074554538e-002 -7.2410615871700712e-001
      -5.3693936404091236e-001 -2.9148430028516731e-001
      -8.2883445056116778e-001 -7.2647639096223193e-001
      -4.4153078814578584e-001 8.7513625573217582e-002
      4.9993304712899717e-001 -1.5026719603846742e-001
      -6.6422524435367458e-001 4.0162413489951593e-001
      1.3507476691383324e+000 8.1607613367974474e-001
      -2.6176505553472013e-001 -1.7196606358947775e-001
      -3.9000747149431703e-001 4.2283982883879478e-001
      7.2748983936415867e-001 8.9430663411119826e-001
      -1.9190795996156276e-001 3.1376695247252651e-001
      -2.6362230639064888e-001 6.0875783705144459e-001
      8.0771959002635063e-001 7.6662899152025787e-001
      5.5737064138119030e-001 5.2655971218657993e-001
      -8.5376004706637709e-001 6.8655640049367739e-001
      -6.8665198042508713e-001 -3.3947773502448758e-001
      4.8060426965227243e-001 -6.1337602516871914e-001
      -1.6450855474206860e-001 7.1218090491892139e-001
      -7.1635836756075344e-001 -2.1591392440199628e-001
      3.2904625515449754e-001 -2.4356395019541269e-001
      2.1940152359170889e-001 -6.5067830368028415e-003
      5.0279499959697112e-002 -7.5710478854560503e-001
      3.8088265558220913e-001 -2.6034992706420867e-001
      -9.7822378930002440e-001 -1.1123298718962757e-001
      3.0424502070633609e-002 5.0666715431633680e-001
      4.7878540243265338e-001 1.0888692836796021e-001
      1.1447958981181028e+000 9.0929283630368951e-001
      -4.3680407151201817e-001 2.1930758397004937e-001
      -6.8299736591837579e-001 -1.6278831486850831e-002
      -2.5237848646694860e-001 2.8324991027593183e-001
      -9.6373051940858478e-001 3.1613037013227441e-001
      -3.0286202905520559e-001 3.3739434386744416e-001
      -4.3483253816788764e-001 -6.8906082640611474e-002
      -1.8546258418957612e-001 8.1340866604628825e-001
      -5.4637352943167938e-001 -4.6628040860516373e-001
      -1.2218302394133527e+000 -6.6006793567680133e-001
      -2.6146891465392391e-001 3.6292254282094638e-001
      -1.0711666438973679e+000 6.8474860437985952e-001
      -2.3656299257345975e-001 -1.7498361910691218e+000
      -9.4367369467852469e-001 -2.5311761708053820e-001
      1.1580460733323373e-002 7.6793816012651547e-002
      4.7005845093573784e-001 -6.0672215383839059e-002
      -4.7248670761759426e-002 -2.9557306442165615e-001
      -2.9487349592230017e-001 1.6293904669462198e-001
      -1.3644890516312074e+000 2.6313212579860479e-001
      5.3844962050087386e-001 -2.1555809404453574e-001
      1.3357577911308867e+000 9.6258135921433552e-001
      -2.6184961697573522e-001 2.6360425367398871e-001
      -3.0169233803846662e-001 1.1959731586329843e+000
      3.2072807170321160e-001 7.8675297295608260e-001
      -3.3365647128567272e-001 8.2638315996291489e-001
      -4.7580935337615447e-002 5.2728492568498653e-001
      7.8438711524918409e-002 1.5317344354595806e-002
      -1.0608763204125410e-002 1.1886946753537520e+000
      -1.2041718897491740e+000 8.5617381767207879e-001
      -7.8403145816592790e-001 5.2023298820916331e-001
      -2.2520908581402438e-001 8.9909043030998281e-001
      -7.7718014953039605e-001 6.8934589406326663e-001
      6.1803059315383113e-001 2.0038857076807742e-001
      9.2354872014376743e-001 -1.8893354968511109e-002
      -5.0822543615386528e-001 -8.6424246089434542e-001
      -1.5923369956543504e-002 6.3125185886437296e-001
      7.1426106864125372e-001 7.0623746928092812e-001
      -1.0655286912257900e+000 -1.1059823316243451e+000
      3.5964779511858130e-001 1.0578208685071879e+000
      4.5251071505373014e-001 -7.9256661199539169e-001
      -1.2885082003459473e-002 1.1664600931276645e+000
      -6.1828735377227761e-001 5.2831081870481233e-001
      -7.7839338957195442e-002 9.7817199801226828e-001
      -7.9284239650120103e-002 -4.8116800027154755e-001
      -3.4761142957903002e-001 9.6960524310571750e-001
      -1.6035903082362944e-002 6.6361028323782922e-001
      -5.2258440678286500e-001 3.4450590417281207e-001
      -3.2086553112398691e-001 1.2368913176597655e-001
      5.4855547827097040e-001 5.4730093530890223e-001
      -6.4367012350942121e-001 -4.0356688199915997e-001
      1.4079566777124275e-001 3.4303903095115307e-001
      -9.4161216659035107e-001 3.0412014783405861e-001
      1.0170340512628730e-001 -4.3440010552058889e-001
      -9.6356715833753037e-001 5.0719683384141134e-001
      -5.7172368304660208e-002 -2.0819513734463535e+000
      -1.3680886731207316e+000 -3.2591670224413632e-001
      -2.5526280535724372e-001 5.5640009576026794e-001
      -5.8294505027783261e-001 2.1985545848744983e-001
      2.3541262579437970e-002 1.6216774454441860e-001
      -1.3840904781213417e+000 -6.3857266115934364e-001
      -4.0036878069687615e-001 3.7272021845779513e-001
      1.1400010699313994e+000 5.3021501722406061e-001
      -1.0842740701572566e+000 -1.4726664213329765e+000
      -6.4029307184627071e-001 -7.8262807893636654e-001
      -7.9855787917541232e-001 -2.9609655825721076e-001
      6.5344170448966998e-001 9.5554982844031811e-001
      -3.2507184630938979e-001 9.5812465239142963e-001
      5.8204337865231748e-001 6.2686236532318373e-001
      -1.6934442945041103e-001 -3.2007590445276479e-001
      -1.6511675253340514e+000 -1.1908856305976729e+000
      -7.6694860704223478e-001 2.7694148016650466e-001
      -9.8417248492140430e-001 6.3672077636686153e-001
      -5.4684697191624043e-001 -4.1279168590024388e-002
      -1.0612414231688170e+000 -3.0595041139868145e-001
      -4.9178767604100637e-001 -1.1466735718149486e+000
      3.9574549100673095e-002 -8.3576144864099988e-001
      -3.3210365066229808e-001 -3.0310889448553969e-002
      -7.7285192205825448e-001 -6.8897195122355603e-001
      4.3828646490206352e-001 1.0826648586352623e+000
      1.4279890314800139e-001 -2.3310429216586842e-001
      -1.0762165372905601e-001 -1.0271814870929569e-001
      9.5297799139046391e-001 -1.6564706295591030e+000
      -2.3443365425286697e-001 9.2794470660656247e-001
      -5.2431262767624709e-001 1.1407072804604867e-001
      -4.1502256738824778e-001 -1.2597811851176477e+000
      -1.3902200718681584e-001 -2.5316172467894321e-001
      -1.3165024033352168e+000 3.7204505947299404e-001
      6.7437870160800648e-002 1.2010109538778204e+000
      -5.8534720074096092e-001 7.3882532753702476e-002
      -8.6547337810452729e-001 1.1452758215390197e+000
      -3.5979747304746462e-001 7.9288489133038109e-001
      -1.5640827422929057e-001 1.0763504336620225e-001
      -1.9419580924571286e-001 3.0846604454098286e-001
      9.2834297175334202e-002 -1.8087187569780416e-001
      -3.0194098099356476e-001 3.0372277855302321e-001
      -2.2100646461049106e-001 -1.3523505533769897e+000
      -2.0459229364985254e-001 3.7927299550122295e-001
      -2.5362426733769605e-001 -9.9770633740560749e-002
      -1.0080418342824649e+000 8.4542315982011818e-001
      2.6234099133198002e-001 5.5884703115659806e-001
      -4.0758432312728694e-002 -5.8520520282011623e-001
      1.4814458526353874e-001 -6.5615598529451158e-001
      1.5031570345006748e-001 1.2806771482963002e+000
      -1.0176143611014223e+000 8.0864040649014424e-001
      3.8765051943874268e-001 -8.6881027212839945e-001
      5.4981189655731610e-001 -1.8984395786075989e-001
      -2.7528047523560584e-001 -7.6220043919400859e-001
      3.1351734850039314e-001 1.8940921989891968e-001
      1.5022444270429386e-001 1.5413308810013513e+000
      -5.5122367361842839e-001 2.9703225827309593e-001
      -6.7617056398643116e-001 3.7547882716341230e-001
      -1.3019154047138426e-001 -2.6051057481044654e-001
      -2.1308262749800960e-001 -4.4032673202522368e-002
      -1.3814156983655287e-001 1.5941135329158216e+000
      -2.3330385392015437e-001 3.7884286201704159e-001
      -6.5512042608404919e-001 -4.5809167494200637e-001
      -4.3620713881693619e-002 -5.8997711687892321e-002
      -3.3872183513192611e-001 -8.5230020887259828e-001
      -8.2521355129372709e-001 9.3424503518825741e-001
      -8.6269711453543430e-001 1.3812269550554671e-001
      -6.0455584510532401e-001 -6.8594636316429880e-001
      -6.9536251105164748e-001 1.6360318024705744e-001
      -8.0280028491462152e-002 7.7714623271252992e-001
      -7.9292393138073802e-001 2.8119604274256649e-001
      6.4607748231545348e-001 1.2890865414369719e+000
      2.2164719098487193e-001 1.9419348654543622e-001
      5.1621126459234312e-001 -1.7509846317754745e-002
      -3.5716632571227092e-001 -4.5253030526169430e-001
      1.5871079782695152e-001 4.4900492520562957e-001
      2.0302496800405531e-001 -5.8021323684516024e-001
      -7.1540557886180120e-002 3.3293265732870198e-001
      -1.3573098614407736e-001 3.1315032340100517e-002
      -1.7237926908215132e-001 1.0135631837098396e+000
      1.2747860328198890e-001 1.9574552073368418e-001
      -3.5603884665292312e-001 -2.9712861576115751e-001
      -7.6497305949468464e-001 8.8125768283966266e-001
      -1.4011741989758568e+000 -1.2175085776039800e-001
      -2.7099525700889254e-001 3.1096573389965187e-001
      1.5746201323129672e-001 6.7104181093754944e-001
      -2.9140149151680705e-001 3.4206834509439704e-003
      2.4387904627877050e-003 -2.9648432713984024e-001
      -2.1479528811209339e-001 1.0376979861788985e-001
      -5.1871867735858501e-001 4.6876166938720037e-001
      -1.7672076334926226e+000 1.4911522992409482e-001
      -4.8183237786014958e-002 -1.6914770320496233e+000
      -2.5414351117688078e-001 -1.0352958934806732e-001
      4.6706175070725919e-001 -6.9464073895499101e-001
      -4.6633405173122588e-001 -1.3880708052499722e+000
      -1.2564184002818679e-001 1.0790168378867601e-001
      8.4083856626058984e-001 -1.7967268899525084e-002
      3.6032867906721427e-001 3.8006077082180462e-001
      6.0387653695216570e-001 -8.4317341724380501e-001
      -3.7818704538716225e-001 3.8614609099384661e-001
      2.3651974581522475e-001 -2.4554260714761275e-001
      -5.4469693314615164e-001 -6.9923056667828831e-002
      -9.8868961914415887e-001 -5.4846510268046003e-002
      -2.4114478073111525e+000 -1.5750319334878553e+000
      1.3726320279387766e-001 6.7231188260595931e-001
      8.0629371069418831e-001 -8.1026161472465563e-001
      -3.2241639537071681e-001 -1.6890166302845050e-001
      1.9159402623330543e-001 5.3110447170612363e-001
      5.6435099209590267e-001 -2.6177758480848179e-001
      -8.6188635751904358e-002 -3.2447323470367656e-001
      -2.3640310647602982e+000 1.2525972198893343e+000
      7.8363069598169821e-001 -4.3333762043012820e+000
      1.0084747722787464e+000 -4.9201214038274860e-001
      -1.0849176863639149e+000 1.1966825547124112e-001
      -6.7945166902397358e-001 -1.5143452366124253e+000
      1.2412111225495512e+000 3.5200302192136756e-001
      1.0932914234719879e+000 7.3907639526234215e-001
      8.5007618885908881e-002 1.2498774104955845e-001
      3.6338412012958549e-001 1.2226498288960226e-001
      -7.3473982419838768e-001 8.5789258836084514e-001
      1.3095410310087281e+000 -3.1596040507670969e-001
      1.7409151517670346e-001 8.4535354587252287e-001
      -1.0479477889084761e+000 -5.7876922270934161e-001
      -1.4279134827554663e+000 -9.4607686900719401e-001
      6.2954361147799132e-001 6.7377646329065788e-002
      -1.4795092496974535e-001 -1.1557839697784833e+000
      -7.4363084533333934e-001 1.0802597491070058e+000
      -1.2290544270985406e+000 7.9988092080349804e-001
      -3.4067025001999367e-002 -1.0997705260236186e-001
      -2.2115030535329588e-001 2.2861822190282377e-001
      -1.1116033157065157e+000 -5.8577427975783125e-001
      3.7299755599519840e-001 -1.7596304855837770e+000
      6.9972530425676346e-002 6.3823362429128339e-001
      -1.2283815341838287e+000 -1.0605344901834222e+000
      1.7809022486575388e-002 -1.6358642996121640e+000
      -5.3567510794671824e-001 5.6498821618232986e-001
      -2.5657574991612758e-001 7.9101878119817559e-001
      1.5810944742871005e+000 4.3138799185828824e-001
      -5.3513920582114027e-001 3.1618888502962200e-001
      1.1379935473266924e+000 1.0690720732119057e+000
      2.4175890740906465e+000 -7.8218123775409443e-001
      1.0393668498648219e+000 1.2148714878572744e-001
      4.8287381944523533e-001 8.3046190601833048e-001
      9.8952709669253647e-001 2.4957526993429027e+000
      -8.0649736282496581e-002 -1.8146843464455005e+000
      -1.8582905581222031e+000 -6.5360493787184426e-001
      -6.2757849699570389e-001 2.1635138073123605e+000
      -2.8474460739489733e+000 -6.7671372071795799e-001
      -4.0293848918606262e-001 -2.2105073302833476e-002
      -5.9264003284392330e-001 -9.2521520180193706e-001
      1.7494282236044623e-001 -1.9480253086165218e+000
      -1.1898624930926924e-001 1.9116384748575237e+000
      -2.1544188991138499e-001 -6.0064310952504663e-001
      4.8094106413063287e-001 8.3955971235500837e-001
      3.7517527358807042e-002 -1.4589768080632937e+000
      4.6493903065038567e-001 -3.9196810926976405e-001
      -6.0506661678606288e-001 1.1914622359413342e-001
      -1.4812795708919859e+000 9.6056421814432996e-002
      -4.3130954131626648e-001 1.8550286815475867e-001
      5.0295713689850940e-001 -9.1723136307223796e-001
      2.9529340677004473e-001 6.2969817495562311e-002
      -5.4751302724938733e-001 5.9528524936130478e-001
      2.4460825354180035e-001 -3.7798165073099571e-001
      2.1532096258815363e+000 2.3828552632977291e+000
      -1.3890874746058260e-001 3.0775397073069585e-002
      -7.8236753610702858e-001 4.9794498320790248e-001
      -8.7983341756788713e-001 3.8319599604918014e-001
      -9.6989743072345769e-001 -7.5255443785289666e-001
      7.5231561092961641e-001 2.0094332904440881e-001
      1.1053498858666126e-001 8.2007724295319523e-002
      -9.1676408375162455e-001 1.8692831143526745e-003
      4.2777239888627899e-001 2.3915981116044720e+000
      -1.5568786014658374e-004 2.9035197513441796e-001
      4.1057723934038454e-001 1.3717181969608654e+000
      -1.6606289576908295e-001 -1.3579929359356618e-001
      9.5698017091009790e-001 -1.2260733882702497e+000
      8.9386970783727671e-001 1.4057603574816755e+000
      2.5249658879069053e-001 -1.0046488108450120e+000
      2.7420732913600737e-001 7.0971417353153432e-002
      -1.0359504871965814e+000 1.0593487247737933e-001
      4.4378159149749036e-001 -2.8191925000202439e-001
      -4.5194705012321845e-001 6.2036826687356916e-001
      -1.2643644554964888e+000 2.8885231437837372e-001
      -4.2719774608796196e-001 2.9455692923711152e-001
      3.5330396156985427e-001 2.4674237807441390e-001
      9.6673841395852544e-001 -1.2995559182101974e+000
      1.0799232933714760e+000 5.7480050924691650e-001
      1.0129824428581538e+000 8.0704756563143507e-002
      -9.5638269957972394e-002 1.2456748122153230e-001
      1.5237223017953410e+000 -7.5465398591831845e-001
      -3.4486451863360246e-002 1.6529231518402390e+000
      2.4624925200045486e-001 -3.4639353477255241e-001
      1.1780487547285032e+000 1.5693210778446631e-001
      7.1019376271981538e-001 7.8982525585740315e-001
      -3.9640529098071292e-001 1.6230877192182758e-001
      7.7086905334611999e-001 -1.0035645610701813e-001
      1.8447514241521187e-001 4.1545598035404729e-001
      9.0011300783001624e-001 -1.0862760366617508e+000
      7.3074723381087836e-001 -7.8838323638097785e-002
      -4.0936940174392072e-001 -1.5671213218542496e-001
      8.0250891539998079e-002 5.0302467098421699e-001
      7.4124024777296094e-001 3.2963694916885972e-001
      -6.8018007889380383e-001 4.5378376554201072e-001
      -6.0884333690347903e-001 -8.3815967735470143e-001
      4.3767098479677374e-001 -2.7819929477315292e-002
      4.0692617650633817e-001 -2.4045574465307690e-001
      1.1800159374864885e+000 3.2521673201116985e-002
      1.1566298288910921e+000 3.0976366300596986e-001
      -2.2308204789937298e-002 -3.1940078585480883e-002
      7.3214701286900746e-002 -1.1539257272050769e+000
      1.2451707689163236e-001 2.3316299001434686e+000
      -1.1747130619344281e-001 -1.1609075979760723e+000
      2.2863778058440847e+000 -2.7127768094885285e-001
      1.4247424925135080e-002 3.5116703520253834e-001
      -1.7173529577702509e-001 4.6645756396685722e-001
      9.3956181107239933e-001 2.4609790146829175e-001
      -2.6738481568444267e-001 6.9271763356876026e-001
      -4.5717093902793221e-001 -2.7317630533204318e-001
      -6.0395975170249194e-001 -6.5102983075030374e-001
      1.9899187963834003e-001 9.7064322937358852e-002
      -1.4240981724187809e-001 7.3049830006706051e-001
      -1.1655246214311745e+000 7.1660434950468854e-001
      -5.1561701092973622e-001 7.0598258541338402e-002
      -8.3573406723214221e-003 5.7518700207869233e-001
      -1.4086178518394143e-001 -4.4342536025365437e-001
      3.3240369900561306e-001 1.1866782812131509e+000
      5.8318199980793806e-001 3.3078350221254588e-001
      -6.5671533380355929e-001 2.5422197105558758e-001
      -5.2960258134303417e-001 1.7006428631630663e-001
      -1.1988878720065526e+000 -4.7526056782692211e-001
      -3.2255974287877963e-003 5.6025017279608935e-001
      -6.3591537492002759e-001 -2.5676584513716536e+000
      2.5072425090889733e-001 4.6242449431007826e-001
      -3.9155605187945108e-001 3.1411474272229029e-001
      3.3420889822977851e-001 3.5957878438539709e-001
      1.4310806273586163e+000 3.0672960696177948e-001
      -1.1570058038004168e-001 -6.9177691411206677e-001
      1.9213562255675172e+000 -4.6478811445323404e-001
      1.2674066666806402e-001 -5.4375223965733514e-002
      1.5469917137756065e-002 2.2011047615762436e-001
      1.0631718931878831e+000 -1.9114602842604925e-002
      -1.0589587977869919e-001 1.0270712953945174e+000
      8.2732293660935063e-001 1.2169871472263412e-001
      2.5275809641494446e-001 2.2483650313992173e-001
      6.7831622785871615e-001 -4.8628540574202281e-002
      -9.8905769455883019e-001 -1.4421903984140549e-001
      -4.2347980420196379e-001 -3.0611421181998488e-001
      6.1176329092900585e-002 -1.6400971989581925e-001
      -2.4169683287469657e-001 2.0461331745475672e-001
      -8.0627891823635639e-002 5.8976400222058034e-001
      1.1817034584386524e-001 2.9835573245346786e-001
      2.3404569159963218e-001 -2.7862886065401454e-001
      5.5507949473325702e-001 3.9143105848693033e-001
      -2.9111738741286514e-001 -5.8432167327591378e-001
      8.4461226224992780e-001 1.5651298680144787e-001
      -2.8265516948123527e-003 1.5272061860485813e+000
      3.0820673092328752e-002 5.8784165526677201e-001
      -9.9190437040888191e-001 -2.7014060993479738e-001
      -4.0632585145347944e-001 2.0142534837261511e-001
      1.9130359232689212e-001 2.5891909000005559e-001
      -9.6750867586546752e-001 1.4359200179688909e+000
      -1.4199730917801684e-001 1.9238566535452511e-001
      -4.0609644446244297e-001 -4.4465823062422116e-001
      -8.9504543050880736e-001 -2.5936587149701373e-001
      -3.0517457200215553e-001 -7.7681520941894333e-001
      -8.3597863441981690e-001 2.8599739560547360e-001
      -3.0713895286132820e-001 2.0360886098874253e-001
      -5.9823483826276014e-001 -3.9218568103575069e-001
      1.8039962221033382e-001 4.3683735134957169e-001
      -1.1821314318512106e-001 7.3490529053550890e-001
      -1.1271328632657975e+000 5.4147967497374061e-001
      6.8256367314947530e-001 6.8651553143330957e-001
      -1.8623847056094059e-002 1.7333703704827108e-001
      -2.9804206059659877e-002 -4.7155381517982858e-001
      -1.2148695088330927e-001 -9.3279701291189551e-002
      1.3686008391033324e+000 -1.1134516131256011e+000
      1.5395478112378637e-002 -5.4490882493585191e-001
      -2.7314161203518728e-001 5.3084344222319124e-001
      -3.2044911652998131e-001 -4.6671399307015060e-001
      7.8407967755674790e-001 5.0784530746220713e-001
      4.2387754922419379e-001 -4.0750891205816910e-002
      -2.3508559148190786e-001 -1.2968239175685034e-001
      -1.9134878517451784e-001 4.5118264786736340e-001
      -1.0098464031990761e+000 5.1855925312957352e-001
      1.0941709545603182e+000 -7.8438816898583241e-001
      -8.5960304513429453e-001 1.8067963427640144e-001
      5.8018585360796945e-002 -5.4886332488281764e-001
      -7.9510588801257664e-001 2.4966374825248461e-001
      6.4571292756259713e-001 2.1218246817440811e-001
      -6.1380278929439425e-001 -1.1285482374322152e-001
      -2.3477669486314820e-001 -9.2234627122099330e-002
      -6.0569698977228054e-002 -1.0924354303619841e+000
      4.8808349167696635e-001 2.4937468447977498e-001
      -6.7911221279479683e-001 -6.1638290619947489e-001
      1.7135709437852895e-001 1.9493870867444615e-001
      7.7080941073092435e-001 -1.6410518723753037e-001
      3.2724387575699670e-001 1.8301238040818635e-001
      -6.4598877497287766e-002 -4.2879025573472523e-001
      -5.0938733794165234e-002 -2.9682690596063710e-001
      8.5621814636168789e-002 1.4756631078416615e+000
      5.6333435871965132e-001 1.2873652182798850e-001
      -4.1703329867232253e-001 4.1178648580289662e-001
      -3.3523448279671136e-001 -5.9751140928134028e-001
      -2.0684288290411076e-001 4.0426522785481933e-001
      7.6104495248822879e-001 -6.8414613246412082e-001
      -1.4285148545831672e+000 -5.6816118423078288e-001
      -4.4954780128576621e-001 -3.3372356340615911e-001
      -8.7879541793824775e-002 6.3960270027897403e-001
      6.2348423830246469e-001 2.6881332305987182e-001
      1.1031224082369318e+000 2.0104523084113146e-001
      -2.3813980502390061e-001 4.7675294373030486e-001
      2.6567064566577731e-001 -1.5964992829129991e+000
      2.5111797181852108e-001 -6.5351819457689664e-001
      -1.2390687003684078e+000 -1.2113905359760289e+000
      2.2014795312233029e-001 -4.6161631965887295e-002
      -6.8854081643813639e-002 -1.9500645341691674e+000
      1.3651905182609219e+000 -2.1246508897833868e-001
      -8.4019137742596506e-001 -1.4283912343488658e+000
      -2.5921621459029898e-001 -1.0987188642411490e-001
      6.5724538493783446e-001 1.3881768482532240e+000
      1.4249780817210986e-001 -1.0855624498398144e+000
      -8.4388860859999004e-001 7.2049860402338173e-001
      -3.8315397672123597e-001 -9.5781026830824900e-002
      1.1313377741094037e-001 -4.1514654171604609e-001
      2.5059358898892952e+000 4.1651733891562537e-001
      -2.4734992923404985e-002 -8.1835980222577587e-001
      -7.3203788549121718e-001 7.4755136726698790e-001
      -7.0955904828654248e-001 1.4939215036939884e+000
      -7.5319360299615856e-001 -6.9822083646839783e-001
      3.0545426180213092e-001 3.3669177775206871e-001
      5.3711537454300434e-002 6.9973268534145205e-001
      8.3579852310476399e-001 3.9206961975476434e-001
      5.9500554737664024e-001 2.8114546427641540e-001
      -2.6658976153946656e-001 -1.4253528600484260e+000
      -1.2423499213089200e-002 -1.6015353552102400e+000
      9.1457931039920126e-001 -7.4494212935764248e-001
      -3.3813171753251736e-001 5.2593808632545824e-001
      5.9668083427925556e-001 -5.4428302859516198e-001
      -6.5222548682485601e-002 -3.3966294109716522e-001
      1.3464910087012147e+000 1.2913629858422675e+000
      8.4135202386504759e-001 -5.8556695219863208e-001
      2.6121070903859050e-002 -3.0689058096683175e-001
      -1.2706903390722040e+000 2.1596934922106556e-001
      3.4657351217354104e-001 1.1676658074892161e+000
      -9.5261773063953462e-002 -4.9295232678151094e-003
      -3.1702627284453597e-002 -5.2079432908914003e-001
      4.3982570896877493e-001 -1.8385742309830147e-001
      -4.0345053120562618e-001 -5.3581120734466969e-002
      4.5138124726672380e-001 -9.7304386298472184e-002
      -3.6512968575223231e-001 -8.7093116807810234e-001
      -6.5168355019729632e-002 3.3019679876033337e-001
      -1.0211024965434667e+000 -5.1101089751585305e-001
      3.6181118790471739e-001 4.6422686673435209e-001
      -7.3482827755322189e-001 -1.0311948027570131e-001
      3.1538759448910131e-002 -5.9628883363059393e-001
      3.8768102807947583e-002 4.2702600648390293e-001
      -4.6713167108398124e-001 -3.6689100140491054e-001
      -8.7547613728352747e-001 -5.7292030593827681e-001
      -3.0726867897489302e-001 8.8235060161175147e-002
      -3.2950623740205048e-002 -7.3581414727291072e-001
      8.9969107972152490e-002 -1.0751751473823998e+000
      -4.0785873159277469e-001 5.8830219895376690e-001
      1.6665819442153476e-001 1.0886101601472188e-001
      -2.8859435147797213e-001 2.3084617681541150e-001
      4.7129189199772303e-001 8.4950621150521988e-002
      -7.0576142922902785e-001 4.4573002691254654e-001
      5.4702274298065756e-001 -1.0771325986280367e+000
      -1.5304757498430492e+000 -4.2981960942860614e-001
      9.0070456723016890e-001 -9.7240210050738485e-001
      -4.3746803068377388e-001 1.4877341119146339e-001
      -8.8952925017792628e-001 2.6964459261955542e-001
      -5.7622916107224009e-001 -4.4069725717978897e-001
      -6.5280852958191604e-001 -2.6061957147805837e-002
      1.3474247191518489e+000 3.3828886446185369e-001
      3.1748254570752492e-003 1.3727144393830533e+000
      1.5339621656746973e+000 5.0677280359116927e-001
      5.7081953425790000e-001 -2.0070440093436812e-002
      -1.1287677996074035e+000 -8.1674455232927834e-001
      4.5825588291323893e-001 6.0736521155930423e-001
      -7.7759184865352127e-001 3.3641068814537428e-001
      1.2787390373975891e+000 -9.8029737790920923e-001
      4.0486739684177597e-001 5.3698052526180950e-001
      6.7060238884216394e-001 -1.6638709609890914e-001
      2.6752754894405023e-001 7.3784515043326782e-001
      8.5936160329817302e-001 7.4935120822649678e-002
      1.3403497859223303e+000 -1.8319771196802649e-002
      -2.0022588435049338e-001 -8.9273106160173832e-001
      -4.1310387284790989e-001 -1.7914368590479640e-001
      -4.4180232713650863e-001 -2.3706864889750659e-001
      -4.2153174242617114e-001 -1.2309038116449604e+000
      5.8351392374107880e-001 -2.2442126369877036e+000
      1.8499051523616079e+000 -8.1737155322379351e-001
      -1.0799986373907151e+000 1.9970710472289080e-001
      1.1517491817292229e+000 1.4266309878888131e-001
      1.2610752516761328e-001 5.2007847085136738e-001
      1.4117624178797883e+000 8.2509305766997865e-001
      -6.4941855130409315e-002 3.5106499474129571e-001
      -2.6059876265046905e-001 -2.6254353322505097e-001
      2.6575408391032406e-002 7.0978601919411105e-002
      9.5649902485202931e-001 -1.2113355074647926e-001
      1.4124967006353679e+000 -1.8402028423761860e-001
      -2.8383309573454852e-002 1.9073878062564140e-001
      6.6685996652549806e-001 5.9562077620754017e-001
      6.7018948509098264e-001 1.9741630805197135e+000
      2.9419114308039557e-001 3.6864255986830652e-001
      -1.1480158826593506e-001 3.1791471904222901e-001
      1.1492025186158554e+000 -5.0873968878317861e-002
      -2.0105395204867221e-001 3.5174504165730497e-001
      -6.4849613987062771e-001 2.7130000048300662e-001
      -3.1368630783878543e-001 -9.0567410495319400e-001
      2.1490262169654089e+000 -1.8139868160789685e+000
      6.0386744901477696e-001 -5.1929533374232228e-001
      -1.1745909154003109e+000 4.2545267949576504e-001
      -7.2781056749359796e-001 -4.1387871879327504e-001
      4.9445204512793833e-001 7.8810466493235684e-002
      3.4584908772276479e-001 4.2977689060751895e-001
      -2.9531879084282242e-001 -5.4323202978029939e-001
      1.3007268431279592e-001 5.0370861914700304e-001
      2.5452019522780655e-002 -6.3632864254310739e-001
      -3.3846547308476838e-001 3.1626451090619534e-001
      4.6419641560899991e-002 3.9980786441235350e-001
      -6.8004756595672089e-001 2.8323471312747794e-001
      7.4672733812558401e-001 -2.8327082299429651e-001
      3.1008676950521891e-001 6.9439272869967528e-001
      -7.9132327195421193e-001 -2.2664532626776729e-001
      -2.4239953325120445e-001 3.8712188096808847e-001
      -4.1955427580511984e-001 -8.4061071679862842e-001
      6.4883852510404225e-002 -1.4958313391812628e-001
      -3.6921203649108336e-001 -4.8096456480613052e-002
      -5.1883956607684056e-001 4.2717934877683758e-002
      8.5067432386136044e-001 -9.3086498818513763e-001
      4.2396081344329789e-002 5.0388044729327883e-002
      -2.9424092164473115e-001 1.2243059991358199e-001
      -3.6236507357188802e-001 -5.2490895634064194e-001
      3.6643845267068220e-001 3.6020098089189312e-001
      5.3467299512191313e-001 7.9009933282839029e-001
      1.4651689192402251e-001 -7.8087072289940584e-001
      5.2061585831812321e-002 -4.9832804718613566e-001
      9.7523178358093293e-002 5.5597897366123868e-002
      -1.5054229365123795e-001 3.0034569496192387e-001
      -3.2878535647787671e-001 1.1436722633613270e+000
      -9.9551086939381403e-002 1.0524706358637197e+000
      -1.6014109128484177e-001 -3.9596137822882799e-001
      -3.0659663348388749e-001 3.2356465163604625e-001
      4.9991332754260709e-001 -4.5490956618673070e-002
      -4.2399942512704836e-001 -1.4550483043997289e-001
      -8.7342451116859410e-001 -4.1605425010981117e-001
      -1.0286121424875043e-001 -4.0832755011607763e-001
      1.9028915324580988e-002 2.8119994071561383e-001
      -1.1426283905878440e-001 1.1031966283905790e+000
      -3.3643363050961594e-001 4.6389386543296002e-001
      2.6302074509883555e-001 -1.7949036110018973e-001
      -1.5620739526094665e-001 3.8313526209909660e-001
      -2.6973861597306636e-001 -1.1123662274805733e-001
      2.9944472211402562e-001 1.4940461855964593e-001
      9.0111395086316978e-002 4.5147992844681417e-001
      1.0569498429500428e-002 3.1347564423418500e-001
      -7.4810530968426858e-001 1.5736966488761500e-001
      -2.7220103346501440e-001 1.0251452349626809e-001
      -1.4293042701388634e-001 1.9404721963159346e-001
      -9.0031739478979789e-001 3.9233021585737993e-001
      -1.9846269007374556e-001 4.5217225945625678e-001
      -3.6810996176123328e-001 -3.1222987526905088e-001
      -1.8274080102075910e-001 -4.5039239696789291e-001
      -2.7967773703064053e-001 -7.5156119829773360e-001
      -8.8948834528614307e-001 3.0105123355488933e-001
      -6.5394794520220101e-001 -8.6510079164376863e-002
      -1.4607414701541044e-001 2.6127540049959674e-001
      -2.6679171137691204e-001 4.3388804630841848e-001
      -2.0737748825319852e-001 6.7867213118982339e-001
      -1.0175856860871895e+000 5.2046132166685821e-001
      5.8338665563798142e-001 4.4165522254725276e-001
      1.1102973781530212e-001 1.8923848315935940e-001
      -5.6631876117490632e-001 7.6386524718059334e-001
      -1.1113368526191574e+000 1.0441713584345063e+000
      5.7390273609348819e-001 -1.3123177019833854e+000
      1.4020662413503432e-001 -4.3967804921664860e-001
      9.7974719758822132e-002 -3.6627306280068606e-001
      2.1497405144815543e-001 1.2988012947869823e-002
      2.4336761170532115e-001 3.7348461979332781e-001
      1.2531705469839418e+000 -1.8253410913179627e-001
      -7.3465802453986861e-001 -3.6866816935665198e-001
      6.3354335277549456e-001 -1.1681511115556829e+000
      1.8853701377907200e-001 2.7428068620356877e-001
      4.6357593155672722e-001 -4.4526824268625181e-001
      9.3715865071375928e-002 6.2725853212941496e-001
      -7.8015397398032371e-001 8.4994958015504829e-001
      4.1865068592431731e-001 -3.9197939424416012e-001
      -2.7070412658331411e-001 2.5023954545290111e-001
      4.9589420817484120e-001 -5.4649085023351729e-001
      1.0173588283512796e+000 -2.8293958160484450e-001
      1.9049334784815825e-001 -6.2488409292935830e-002
      4.6265543728955699e-001 4.0017189628108907e-001
      2.0413821423986939e-001 4.0953232677428714e-001
      -5.6720886481453341e-002 1.4226029408384551e+000
      4.8876873297591672e-001 -2.4815706432775260e+000
      2.2825824555311786e-001 -2.4224201358822719e-002
      -9.7276436382694773e-002 -3.8923944690013990e-001
      8.3704319384420056e-001 -5.9401901916849931e-001
      -4.6344391952179564e-001 2.2066223433294524e-001
      1.4553308022680929e+000 -7.5215664335241406e-001
      -2.2219246570139853e-001 1.5082685196582301e-002
      5.4185896737699213e-001 -1.0683560935251168e+000
      1.3526082549200098e+000 -5.7162047894841206e-001
      8.5446673146771324e-001 -1.0197567292781540e+000
      -6.5741030684731494e-001 2.0249409310460675e-001
      1.3124935554879116e-001 -2.9624331600622750e-001
      9.0731034780393949e-001 9.6002327406099219e-001
      -2.3900645034871424e+000 2.5989259101499573e-001
      6.6766476092484017e-001 5.8515124146586395e-001
      1.1978065345829401e+000 3.0451669667957498e-001
      -2.6610310595591663e-001 8.5183162360108922e-001
      -5.7268316488560789e-001 9.1674593258441628e-002
      -4.9361626408445429e-002 -5.7994882999939790e-001
      9.0420977350459106e-002 -3.5631502047956487e-001
      1.5253706750924663e+000 -1.4929958408303501e+000
      6.6109848237738933e-001 -4.3293284918247227e-001
      -2.4214209664372821e+000 -2.2075542073518284e-001
      3.6655143856938827e-001 -1.8928645533314772e-001
      -1.2352822113017154e+000 8.8108400901197514e-001
      3.8658067128799162e-001 -5.6546047288354240e-001
      2.3017759804074461e-001 4.2976330747257385e-001
      8.4755814196121715e-002 -1.3710119155895302e+000
      -5.8949305710652156e-002 -2.7369032057265030e-001
      7.0587067473214982e-001 1.0836159654767884e-001
      -1.4885689932081583e+000 -1.2670577590901355e+000
      8.6331079586602999e-001 -7.9348250594494782e-002
      1.2095884421058205e+000 9.4536073657726638e-001
      -1.0925452697624414e+000 -1.0037665156266746e+000
      -3.9208533850937377e-001 1.2722279945132908e-001
      -7.5453511603025614e-001 8.3628309809459223e-001
      5.9639307936591857e-001 1.6136319618093217e-001
      7.6817304170170908e-001 -2.4336434548963851e-001
      -4.1804823620514459e-001 -1.3540148906355729e+000
      2.0345962448831845e-001 1.3316025273769032e+000
      -1.3509009601087599e-001 -2.5473846946003036e+000
      -2.2322423870848889e+000 -9.4934604204724526e-001
      4.9190980533581924e-001 1.7072306353566238e+000
      2.9205594220011322e-001 -6.0536473967996929e-001
      -7.7441350606058545e-001 -1.3327930269914998e-001
      -2.5059050139042975e+000 9.2641379891396439e-002
      4.7504413952730384e-001 5.1851603777007683e-002
      -5.7690494616261141e-002 5.4979543702646816e-001
      -1.1028553167690305e+000 3.6292927136492331e-001
      4.0001123139631956e-001 1.5449943794491458e-001
      4.3637245136086217e-001 3.7394323977378990e-001
      3.1385477458423523e+000 4.7296771309280938e-001
      3.0168762607907851e-001 -1.8301406330261913e-001
      -1.8132433102494443e+000 -4.4813249083684986e-001
      -1.8769468345883626e+000 -2.0703438082867391e+000
      -2.4816985782766218e-001 1.2095345922888867e+000
      -8.5383897155688426e-001 3.2046383215909375e+000
      -2.8118702192790168e-001 -7.6153469911964577e-001
      1.8961824296976071e+000 -1.5763474259359149e+000
      -1.5831102795562679e-001 1.1137888084630898e+000
      1.8143320472368077e-001 6.9757320411574586e-001
      -1.1238176368574302e+000 -4.7904932567467873e-001
      -3.2471703893332349e-001 1.5185911237734109e+000
      7.2443240442377643e-001 -5.3998862213843446e-001
      -2.7733540970182452e-001 4.0919819797371093e-001
      -7.6397673237104757e-001 -5.1127884340575402e-001
      2.7563276673681958e-001 1.0199062545498419e+000
      -2.6148727875448352e-001 2.0881266953844664e+000
      -2.1689446218498884e-001 -1.6736214653366992e+000
      -2.2984148045315728e-001 -3.7193100270644169e-001
      1.0178786988151736e+000 -5.8877138124120654e-001
      -2.3509532362880009e-001 1.2875963270398307e+000
      -1.6696663067122515e+000 -1.5882489286444217e+000
      -1.5987509824226664e+000 -2.3305273548191088e-001
      6.6008038864570528e-001 -2.9784121310429107e-001
      1.6347202739063016e+000 6.0913379392140510e-001
      -7.3934992156162582e-001 4.0888211093695528e+000
      8.1742871470965905e-001 -9.4985604076810415e-001
      5.6891274997168895e-001 1.4845310687449237e-001
      -1.2387974064256065e-001 -4.4614616523425799e-002
      1.2809370449960370e-002 1.3816684796421430e+000
      -1.3010122471730862e-001 -1.0336839761364169e+000
      7.4770791937530512e-001 1.2098238130599579e+000
      1.1090490081775564e+000 -2.3021477982593194e-001
      -7.0469111117399952e-001 1.1292428411518174e+000
      5.2690660936741196e-001 3.5677563069332174e-002
      1.3108187070396082e-001 4.6159358855862964e-001
      1.6105185135761213e+000 -1.0077568974472575e+000
      -9.0162238326389810e-001 -1.3046852183361459e+000
      -1.9402021292493002e-001 -1.6553600013054737e+000
      6.6855593318678352e-002 3.2941893067844041e-001
      -1.0307182566060860e+000 8.5434808465413584e-002
      -1.8098503912370443e+000 -9.4984471324854547e-001
      -3.4116103192039832e-001 -2.8607940432005474e-001
      8.6988383271429159e-001 1.6358001054202342e-001
      1.4024272900175636e+000 -2.6774550938713171e+000
      2.2240401506417555e+000 1.0029707354113773e-001
      -4.7911087130802527e-001 -1.0737141143603159e+000
      -2.9675816951635331e-001 6.4949527835451371e-001
      -2.0635899629463103e-001 -8.7136074034443434e-001
      -6.6390740644536328e-001 6.6745613549661276e-001
      4.2971890449719427e-002 -1.0488296125931715e+000
      1.0607212368093415e+000 2.2719263681254374e+000
      9.5930853019313500e-001 -4.0081786427898808e-001
      2.7837594850555852e-002 -3.4379844601150467e-001
      -3.5432098952334373e-001 -1.0593198025560744e+000
      -7.0107064649682149e-001 -9.9326812764732964e-001
      4.7724887715548447e-001 -8.1063469759782680e-001
      -4.6246998396593471e-002 8.4379341855319234e-001
      -2.0112226180457912e-001 -5.9066986837251967e-001
      7.0245313823910124e-002 -9.5690641667859302e-002
      -1.0454290622224205e+000 5.2628993156524723e-002
      4.4213992508503303e-001 -1.8587846768432423e-001
      -1.3290705648703391e-001 2.7935937622719770e-001
      1.0687899819659537e+000 1.0969330821177516e+000
      3.7528853995569333e-001 -1.9474519652583193e+000
      8.9872184275740452e-001 -1.0531329682036807e+000
      -2.1260283726318585e+000 1.2850046072411265e-002
      -9.4452537788174351e-001 -4.0989156551009887e-001
      7.1627848775309799e-001 -8.8382577153963346e-002
      -1.5256528896739499e-001 3.0208464677788688e-001
      2.6973117185015764e-002 -5.0362490465534449e-001
      -2.1430486524132972e-001 3.4687260636175149e-001
      6.1911780630663960e-001 -1.3695601498737728e+000
      -2.7022956526490099e-001 -9.0045580699209982e-002
      3.4806521737875618e-001 -4.8659384397555133e-001
      -8.0790030715003491e-001 -3.9975723214214143e-001
      -5.2816513018413384e-002 -1.6571228843724404e+000
      2.8806816006163521e-001 5.5423109899294509e-001
      -4.7830008117527395e-001 -2.1716398379846180e-001
      1.6838350119159565e-001 1.0223787451933142e+000
      -1.0512025436628110e+000 -3.9171353752062388e-001
      -3.2151386589412356e-001 -2.8305895712155132e-001
      8.1864464364839251e-001 8.2962837610787143e-001
      9.0808607201557812e-001 8.8067003955289780e-001
      4.9723126460353800e-001 -1.3529376332980356e-001
      6.1569178801994175e-002 -4.4908494479346646e-002
      2.6735647690030723e-001 8.5641096107865267e-001
      -4.5836033565790701e-001 -4.4225043318834395e-002
      2.4533640133843018e-001 3.2415505280062090e-001
      2.3811818660897197e-002 3.1271547615658252e-001
      -3.0545004970232531e-001 -6.2491560335792717e-001
      -5.0963988724992015e-001 -4.1876817900455454e-001
      7.5407921023488300e-001 -2.8800104561541449e-002
      -1.9249115484806920e-001 1.0658883686296565e-001
      -5.1094024135052213e-003 -2.0013728451674445e-001
      -1.8079193562596926e-001 1.2729153553527830e+000
      -3.1064684044196433e-001 3.7120270955995863e-002
      1.0925406737339712e-001 1.8563919559620515e-001
      1.4883418950890673e-001 -5.2471455295636216e-001
      -2.8230045592122068e-004 -1.1233666817543307e-001
      -1.3115732444009514e+000 -2.2350249663778649e-001
      -5.7543778669153922e-001 -5.2464242002558703e-001
      -3.0233210098017601e-002 1.1617489710564932e-003
      -9.9634437217112057e-002 1.3333110379251625e+000
      -7.1878023043040684e-001 -3.2448950870063353e-001
      2.9082688561140041e-001 -4.3864501290692498e-002
      -6.3361436855457898e-001 4.9398126147935301e-001
      -1.9515036362770580e-001 1.6158236103024790e-001
      8.2233008925414297e-001 1.3899153517832280e-001
      1.1872499584578798e-001 4.4898278022865984e-001
      -6.3847415771778951e-002 5.3942673861553803e-001
      -2.7112844123413632e-001 1.2617435948508474e-001
      -5.3793589291823696e-001 1.7876688032903315e-001
      -4.7681007435019407e-001 2.6260676982709442e-002
      -4.7733268724249805e-001 -2.2734049974722065e-001
      -3.8977624641961220e-003 2.5445405009781247e-001
      -5.6230989496575057e-001 -4.2863364452393651e-002
      -5.1795759249315254e-001 -3.0999182098388989e-001
      6.0891103201011945e-002 -4.4418874060831320e-001
      -7.9948534603774546e-001 3.0794438975934713e-001
      -3.7236119381655597e-001 3.1712074598221382e-002
      -5.2595642345422675e-002 -2.7304372984319780e-001
      3.8484416180344722e-001 4.2249580906221335e-001
      -1.3343695279420215e-001 6.3462588890935978e-001
      -5.7375216523099615e-001 5.4739602955822730e-001
      8.4528329595939411e-001 7.3379669092238153e-001
      1.0870000795030074e-001 1.3767736016368101e-001
      1.3156026665186721e-001 -4.5325658796044846e-002
      -6.6968452383834443e-001 -6.3536557083848477e-001
      -1.0069490126371508e-001 8.2397037888532743e-001
      8.7925146506877316e-001 2.9101860025362619e-001
      -5.9822277011271807e-001 -6.8746726195819585e-001
      8.8750639524981967e-002 -4.8906513119937273e-001
      -7.6354713489358783e-001 1.7261980023212478e-001
      -5.9504381811963505e-002 8.0381515001007031e-001
      7.0778906413563991e-001 7.9412659821599718e-001
      -1.1639247925794590e-002 -6.2410179170110203e-001
      1.2550501334051151e-001 -1.7996123973166436e-002
      -4.1165202741647372e-001 -8.8901083958789096e-002
      2.1076047112530549e-001 -2.1738845153659418e-002
      -1.7485832003890373e-001 4.5040485206037195e-001
      3.3532583552573147e-001 -2.3071504521943226e-001
      -3.9336819520663968e-001 3.1613396140292416e-001
      -2.8715427863344312e-001 -5.8439391036328420e-002
      1.1046773734740883e-001 1.0109148458186623e-001
      -1.3210151313522134e-001 6.0715614479155389e-001
      -1.7703735712806077e+000 4.6661585458087773e-001
      8.3161891827736012e-001 6.8860433661454545e-001
      -3.9674537811367117e-001 -3.3982506398115375e-001
      6.6531135205516645e-001 2.6347326768632473e-001
      6.0698934706648833e-001 -7.5413429476998750e-002
      -1.0202724212747121e+000 -3.7158182993974526e-001
      3.5118938928130472e-001 -7.2033241696184289e-002
      -1.4504568628308667e+000 -7.7415713287479218e-002
      -2.1979503465266040e-001 5.4982612382476448e-001
      1.2723583699556829e+000 -5.8232995813046706e-001
      4.9439067167504014e-001 -1.0979125426813019e+000
      -2.2620220147736614e-001 5.2219290128541263e-001
      -5.2683043184143319e-001 -2.1925711355229124e-001
      1.9825918532070003e-001 -8.8280762425004500e-001
      -8.9188226668616688e-001 9.3570210849654278e-001
      1.4790656374300377e+000 -5.1558141468674235e-001
      -8.3182730274181282e-001 1.6994355128331531e-001
      -1.1588527022711776e+000 -1.5154904976834921e-001
      5.1383833099280218e-001 6.0362281992976319e-001
      -1.7797377545131887e-001 3.6633762004918546e-001
      -1.6321900859662091e+000 8.3597108482770932e-001
      1.2292200519103071e+000 8.4986959842895127e-001
      -4.3720243546351406e-001 3.1327560942056278e-002
      1.7153045462798594e-001 -2.1844335816825029e+000
      4.7691597326667640e-002 -2.6729944435942599e-001
      5.6803869971626453e-001 9.0838483284108817e-001
      -3.2792678531434316e-001 -3.0959303597063464e-001
      -1.7156502032578567e+000 -1.0195740122156389e+000
      -4.3187933488154057e-002 2.9422785584736509e-002
      7.6411051971162836e-001 -1.3574832791164562e-001
      6.1546213352381995e-001 9.2943100548241009e-001
      -6.9372660877214232e-001 7.8800943637301768e-001
      -8.6530996493106072e-001 -2.8408445635326157e-001
      -7.8526927968859872e-001 1.9473942109895434e-001
      -1.6636888869105213e+000 -5.1642887859186271e-001
      2.1160338550380779e+000 4.1807911078060400e-001
      -1.2484681828908573e+000 -4.4334612588531974e-001
      -8.8089798523496146e-002 5.6096702137254351e-001
      -6.2283344191558576e-001 8.0760407999868478e-001
      9.7084694537658933e-001 -7.6292410724440807e-001
      -8.3155051353345766e-001 4.2403022942446250e-001
      5.7572271138307196e-001 -1.9530562664624224e-001
      4.9377459880865832e-001 2.8738530141773683e-001
      -9.2293083923418187e-002 -1.9039901639812471e+000
      -2.1646053342096847e+000 -1.4249877936430747e-002
      5.8497644569462537e-001 1.0250002001109157e+000
      -4.4310398714880850e-001 -5.5708472851091073e-001
      -4.4833833081902419e-001 3.1866924794241269e-001
      -1.4620360490062170e+000 -6.4823521282618601e-001
      -5.5879310192359510e-001 3.4060848523084492e-001
      -5.0476271635338488e-001 2.0759775009641959e+000
      -1.0436833090402526e+000 -1.4841594200951096e+000
      4.5888720458696936e-001 -4.8164683452729007e-001
      2.6212402798840495e+000 6.2320128734525426e-001
      1.4536189847426302e+000 5.4345205975479693e-001
      -6.4431068894536492e-001 -7.4868958330512811e-003
      -2.1972700786152610e+000 2.2310605827167090e-001
      7.1835264542257382e-001 -1.6170340226194849e-001
      -1.1116247140588476e+000 1.0325718281439648e-001
      -3.8232740170441559e-001 1.1533971376787491e+000
      3.2301712280495687e-001 1.4059287585794737e+000
      1.0322290217906216e+000 -6.1187994013880376e-001
      1.3112776779241492e-001 -5.1169122092741648e-001
      4.9346753804684340e-001 8.2549884737957369e-001
      -2.9529834061027438e-001 5.0521092637041576e-001
      9.0561607695970292e-001 3.0166662154188589e-001
      -5.8680019811578898e-001 -9.1255281815411970e-001
      -7.5416284030795289e-001 -3.5488912598649158e-001
      1.0291459330968502e+000 -1.3796619421329317e+000
      -8.0706686861459820e-002 -3.3585315106687254e-002
      -5.7363997979841885e-001 1.7621657102311479e+000
      1.7052761509919223e-001 -1.4162293188748079e+000
      -5.9545238908520581e-001 -6.9331483023512097e-001
      1.5872475677333173e+000 -1.1339317001267066e+000
      6.4335758566466650e-001 7.9557836011656280e-001
      -7.5310548478194972e-001 -9.5064368870406990e-001
      -4.5475559062623067e-001 -2.9568907886034029e-001
      7.0827647676967396e-003 -1.8602885962055971e-001
      1.1722765679741545e+000 -1.6692572842044016e+000
      -5.4464232854353944e-001 1.3075226179172355e+000
      -1.2573868944489772e+000 2.4586968299337658e-001
      -1.1084657634467290e+000 -1.0512426784087390e+000
      3.0952615948197298e-001 -2.4723646233274112e+000
      -9.1156280138712942e-001 -2.2010541514261422e-001
      -4.3241487068888118e-001 -1.1143826155261074e+000
      3.3852689897151840e+000 1.8233480728382319e+000
      -1.0728478018600620e+000 -5.2017138385394390e-001
      -5.9733077674699453e-001 1.6354159876002239e+000
      -3.2891405631456366e-001 1.2799283510164159e+000
      3.3992153024625843e-001 -5.8449018759992255e-001
      -5.2484504328971315e-001 6.4674510795347673e-001
      -1.9757567400984350e+000 -1.6666828759559549e+000
      -2.4174827876453731e+000 6.5772348570384898e-001
      -1.3105758931897371e+000 1.6706538253753983e-001
      -8.8795100052857667e-001 6.3591819003406613e-001
      1.1300727678003666e+000 -1.6192471278356870e+000
      5.7956332899193963e-001 5.3644115773878243e-001
      1.1164012279904874e+000 3.0065580025940180e+000
      2.2922994966507355e+000 -5.1796498289913440e-001
      1.2390987985235875e+000 8.3655412925639894e-001
      -1.7674277358528850e-001 -1.3454406023467829e+000
      -5.1226701555194920e-001 -6.6245012148367000e-001
      2.0667862024042263e-001 -1.8146675860045576e+000
      -3.4417954858326211e-001 4.3663321901943108e-001
      4.6105065949479468e-001 -1.5794878680080102e-001
      2.9664122042615131e+000 2.1849940381343376e+000
      -3.2858860463849565e-001 -3.4376806026753970e-001
      -4.0067396715988651e-001 1.1312573795757832e+000
      1.0144103766453846e-001 1.0872929580302655e+000
      -1.5182313380220840e-002 -2.5600769398681728e-001
      -7.8711200690497551e-001 6.7242029650061852e-001
      -9.4474787245984082e-001 -6.8916380783912179e-001
      -5.5122518192234404e-001 1.5869680361758895e-001
      -7.1450880296508512e-001 -3.1241165732724419e-001
      -1.0418273973034813e+000 2.0845661394183028e+000
      -2.4656684372404447e-001 -7.8524820145086521e-002
      -2.5258636616404873e-001 7.8495730410735187e-001
      1.1058006300624372e+000 1.9963309400643292e+000
      1.3281077561407939e+000 8.2336014128417190e-001
      6.5063501430351001e-001 1.4481126877228563e+000
      7.0107524757346973e-001 -4.5566821926516882e-001
      -6.1683989058760302e-001 -5.0137686042529460e-002
      8.7273285070129791e-001 -1.2893830610269069e-001
      1.1284521775933680e+000 -3.8961021177754640e-001
      1.6306208850189038e-001 1.3045492279281740e-001
      1.0716366985736396e+000 9.5520834830289991e-001
      -8.3458917530504717e-001 -1.3459559173349762e+000
      -2.0301995006613577e-001 1.3252133342317249e-001
      -1.8286766897340656e-001 2.4625816360023989e-001
      6.8380299707282122e-001 -7.8255249555883100e-001
      2.7696190380057267e-001 -3.8041672723075237e-001
      -1.0939908250433457e+000 -3.2946512422892482e-001
      -1.6792756977443410e-001 5.2543273012026159e-001
      -1.3556128817234736e-001 6.7275843903437638e-001
      9.4770295812051500e-002 1.2351043488761215e+000
      -6.0463932795753506e-001 -4.8150942757966142e-001
      -1.3592206864163634e+000 1.1848333412450647e+000
      -2.9852814412014883e-001 4.9424634070108264e-001
      3.5763611660193534e-001 3.4251208904653280e-001
      -2.1039058083746429e-001 6.2739295020349861e-001
      3.8013392804296781e-001 9.6128199154362970e-001
      -3.6845332508575085e-001 7.5111814063807028e-002
      2.2579482030300507e-001 1.6448718201451668e-001
      -8.9831955670160446e-002 -4.1697767298957933e-001
      -4.5020749311584535e-001 2.0556020647438600e-002
      1.8205871490680578e-001 -4.2695517401337718e-001
      -7.4013253060603468e-002 -2.3953955843851285e-001
      -8.9357362665634169e-002 9.0895826190690292e-003
      -1.1767951143437216e-001 -1.8435449358152481e-001
      -6.7827950518406593e-002 1.1459128577370028e+000
      1.3953258475391023e-001 5.2914916919803510e-002
      -2.1574570923688766e-001 2.0494405224414217e-001
      6.5509326073194840e-001 -2.7779841133389143e-002
      -3.0223158947449064e-001 2.9551298585812019e-001
      -8.0771165239924325e-001 3.6876005875915008e-001
      3.9632512957756894e-001 7.0250799932045846e-002
      -3.5882534581489101e-001 -2.3933463172348912e-001
      -1.1459138461878639e-001 1.5384851027959987e+000
      -1.2763454268468352e-001 -2.3632604517122147e-001
      -2.1095851362263884e-001 3.7672589270126478e-001
      2.3184858190532251e-001 3.9692280412946102e-001
      -2.4227232386719735e-001 8.8633156246216663e-002
      3.9820573696324468e-001 1.6739673065415780e-001
      6.6489426673549970e-002 2.6798419084640357e-001
      4.3073365706704614e-002 3.0780148755908360e-001
      4.1366964181950527e-001 1.1628148862657606e-001
      -6.2469546963267342e-001 2.7815008651796030e-001
      -1.4781518062138266e+000 -4.5269784427760321e-002
      -1.7530999169891998e-001 4.4023514855796214e-001
      -4.5121338913979937e-002 1.7518761856748921e-001
      -6.3819025483658265e-001 -4.0832405790979881e-001
      2.7956096175547084e-002 -1.3838557597539852e-001
      3.3942207655249357e-002 -7.0524639105197395e-001
      -5.7381073408992478e-001 5.7071328652289066e-001
      -1.5677053706227689e-001 -5.5652231521587148e-001
      -3.4376804792357962e-001 4.3170937705225826e-001
      -3.4242884025050552e-001 2.2271517458114123e-001
      -1.0316493130593019e-001 7.4867958817605540e-001
      -4.0975565943862341e-001 4.5597377446473986e-001
      5.0971192604663607e-001 6.1228561946581639e-001
      2.1481249060790469e-001 1.1292759085663866e-001
      2.2488448089921362e-001 -9.8841394147515149e-001
      -2.8265342798917792e-001 -4.2341114801141139e-001
      1.1170120716801925e-001 -5.2655000279942177e-001
      4.6821741658583482e-001 1.7320346511673423e-001
      1.9688901963342434e-001 5.0234047198194443e-001
      -3.9807490774922495e-002 -4.4436145322945536e-001
      3.0335892027315330e-002 -2.2414934930891034e-001
      3.4939148678192500e-001 9.4072717654653207e-002
      3.2508211059008135e-001 3.8423563170318653e-001
      -4.0856999406663069e-001 -6.7144411482396893e-001
      -8.5129460186975127e-003 -3.5733621541411126e-001
      8.5175880202793952e-001 6.1162956896577847e-001
      7.2657276194022247e-001 4.0619327628737600e-001
      1.2506730645011068e-002 -4.5576899877530985e-001
      -2.0285959793735408e-003 5.8337209401922152e-001
      8.7003284207213898e-004 -7.5578601410106583e-001
      -1.3166238316381265e-001 -4.6307489705650584e-001
      -8.1425577138506977e-001 2.5507080610604038e-001
      -1.9328697730566796e-001 -2.9786065849016757e-001
      -1.7629066366095317e-001 6.3535388208714072e-001
      4.8838693009806505e-001 4.3125467570393861e-001
      2.9821797170911701e-001 -2.7142347386836700e+000
      4.3135547301782989e-001 -9.3571699847326750e-001
      9.5068560802337854e-001 1.0890991553949740e-001
      -8.1955681381193812e-001 -4.4930970535966280e-001
      -3.2999072081899605e-001 5.8668904941789879e-001
      -1.9571009053030450e-001 -5.3586116632534397e-001
      8.1509445801971059e-001 9.4521068234971795e-001
      1.2027698180129497e-001 8.4221335907058237e-001
      -4.9949248242305080e-002 4.9874246979181142e-001
      1.1501117167630694e+000 5.0789552290882230e-002
      4.3678920929793502e-001 2.1421026314707499e+000
      -1.6163635230282605e-001 7.2461383239678642e-002
      -2.2228944183733254e-001 -2.7373802848937118e-001
      -2.0716358213099115e-001 2.6999719521121719e+000
      6.2947319400688995e-001 -1.0175548570117059e+000
      -4.1339612795457864e-001 -8.3977979498773414e-001
      -1.3269823236523237e+000 1.0607710159800519e+000
      -2.3740125540299126e-001 -1.6643831003329673e-001
      2.6337366723331884e-001 1.9703840033943041e+000
      1.4220399648007629e+000 9.9180201794895839e-001
      -1.8832141590155305e-001 -5.4599881510668058e-001
      9.2018632606646528e-002 4.2706312384497215e-002
      4.8559128298827731e-001 -8.7454228738748030e-001
      -2.2893102023116471e-001 5.8403512499153754e-001
      -6.7506459214444509e-002 -5.4418338343638195e-001
      -9.4539890008658964e-002 -1.5267144683688139e+000
      6.6907113235793281e-001 5.2042363629259070e-001
      -8.3970214110317232e-001 6.9078814948283473e-001
      1.0082682578465174e+000 -6.0186133889596960e-001
      1.5893012533963589e+000 9.3081175969667695e-001
      -1.5908612732393845e+000 2.9388538221295246e-001
      -9.8801563773004097e-001 -2.4324963309665557e-001
      4.0638362633542607e-001 -1.6484953431998512e+000
      1.1844715483265849e+000 8.2874727604402343e-001
      3.7853019415462291e-001 5.6876099489267595e-001
      2.1258117852685812e-001 -6.5966189790748503e-002
      -1.6383527429258378e+000 1.8650119401658523e+000
      -1.5878759174712467e+000 -9.1802853892058212e-001
      -2.0281871580797897e+000 2.0988336696336440e+000
      -8.0791700221685736e-001 8.5120907529859857e-001
      -6.3409125763474194e-001 4.1402843036166570e-001
      -1.7509810850970360e+000 1.0954623962806673e+000
      -9.9979088189656451e-001 6.9852549496314165e-001
      -1.2556526483437702e+000 -2.6019109304352034e-001
      -7.0666395242659308e-001 -1.0492920447126968e+000
      -1.0466338848489651e+000 -7.8331893158786126e-001
      -1.5355451441998216e-001 -9.0750916647006319e-001
      -9.2155510877908542e-001 4.7105477213050889e-001
      -1.1544244980366829e+000 4.4223933589790754e-001
      -2.8786503350029224e-001 -4.2696117571556003e-001
      -1.2817598422694449e+000 -1.5366892685429938e+000
      1.4188830419993821e+000 1.0785125798125890e-001
      1.4411649784344960e+000 1.1862476914615119e+000
      8.9109305838016972e-001 -8.3699442937945601e-001
      -4.0761076158362997e-001 1.0461324892599480e+000
      1.7661304382787107e-001 -7.4867720319010733e-001
      -1.3200976409250097e-002 7.3261151483448306e-001
      -1.6553337229276899e+000 -1.5466177571554320e+000
      -6.1598006777915526e-001 -1.4933318476120561e-001
      3.2564373943178723e-002 -1.4466516215800806e-001
      -9.3090966634289202e-002 -7.8970361733987325e-003
      1.9259013811415160e-001 1.6172270517931731e+000
      2.2002805322474647e-001 -1.3304345248752247e-001
      3.2695317123753381e-001 -1.7443411766110213e+000
      2.6765092925900380e-001 -8.0138110946866137e-001
      4.2676901332757544e-001 -9.4642121995349815e-001
      -9.1514893744936321e-001 -2.2486847361431885e+000
      3.4084415812511693e-001 5.2704380805771311e-001
      -2.1815886433297460e+000 -3.4803193873744509e-001
      -1.4548202540192550e+000 -5.0300456381345682e-001
      -1.0895380893527569e+000 -5.1707854165736999e-001
      -1.5362379259857270e-001 -9.8531453742328134e-001
      7.1122618868547949e-001 1.3398175822420297e-001
      4.0748982386956056e+000 -8.2332731158950678e-001
      1.0519752916038581e+000 4.1499584357524111e-001
      -3.2806832129159989e-002 1.6397405980705065e-001
      -1.2124166487389242e-001 -4.8906278090211273e-002
      1.2274993464744607e-001 1.0497042031157446e+000
      1.3904910465277262e-001 -7.4951158435546095e-001
      3.9115564981664193e-002 -9.0924769877722733e-001
      1.3587642543917508e-001 -2.0835057087561787e-001
      -4.7006741563267440e-001 6.2437303804189781e-001
      1.2889226831844364e-001 -4.0523561437111116e-001
      5.8313036018588860e-001 -7.7262869573695558e-001
      4.8010838637404057e-001 -6.8211947945516188e-002
      2.4010146510438363e-001 5.0191488008035823e-001
      -9.0126560069845441e-001 3.3368949105696077e-001
      1.8282322683811075e-001 -2.2428609245551023e-001
      -8.2984451863258457e-001 -5.5029156302442672e-001
      -5.2087775501154177e-001 -8.4363559172569463e-002
      9.2255968263838550e-001 1.8412565886412843e-001
      -1.1224282238155925e+000 -6.9034447116578940e-002
      4.5269909871210774e-002 1.7335512934475692e+000
      3.0326276031720539e-001 1.2604009843866633e+000
      3.1339933938484803e+000 5.7072315324384360e-001
      -1.7926157682011215e-001 -1.7640318103684283e-001
      1.1215559739664318e+000 6.8644191183049985e-001
      1.0275112064661651e+000 5.6696268348871270e-001
      8.0864456700841814e-001 4.5516507877812223e-001
      -7.7978034540285890e-001 -1.4741619324760860e-001
      -8.5582867988503342e-002 7.1630998220745160e-002
      -8.8695652087846555e-001 3.1965463118491450e-001
      2.4125072377297355e-001 -5.1093254066641791e-001
      5.3795370096877571e-001 -2.1475407455137900e+000
      -8.5847776859812341e-001 5.1276851150011715e-001
      -3.0887977097392350e-001 9.3637596445240678e-001
      -5.5529725730663149e-001 2.0156352050649238e+000
      1.2973036746818875e-001 2.1540357302504023e-001
      9.9308617467119928e-002 1.0664661455144740e-001
      -1.7514539864708228e-001 8.5951267762910799e-001
      1.4693803514303634e+000 1.3492797904362128e+000
      1.6312536257319635e-001 4.0790481798332900e-001
      -4.6543014673434580e-001 -7.9445633549875758e-002
      -1.6687976726155165e+000 1.7922623707386356e+000
      1.2431853894200005e+000 3.8206740244294601e-001
      1.8328468296097464e-001 9.7653222181746952e-003
      5.7933961870090933e-001 3.5529489051378482e-001
      5.5427678664227853e-001 4.1128749823836114e-001
      8.7609602926433872e-001 2.1621501104085453e-001
      -7.0768787500356978e-002 -1.1996935099200252e+000
      -2.0238134748280265e-001 2.4310762876678355e-001
      3.8419885581470581e-001 -1.0742872622857607e+000
      -4.8526306597257547e-002 -5.6597238097172853e-001
      1.3076383544575107e-001 -3.7840771525335343e-001
      2.4698529794706545e-001 -5.9821296329066374e-002
      -7.5224162605751627e-002 -9.4723832431531277e-002
      -6.1801572966893636e-001 -3.6798227668502514e-001
      5.3375677511821706e-001 4.6832036947254380e-001
      -2.1681177804140691e-002 -5.1464308634408762e-001
      -6.9812909721422145e-001 5.8112696810836462e-001
      5.9957611128735844e-001 2.0522214855320202e+000
      -5.8315073677384532e-001 4.4413653578539142e-001
      -2.6614017248414429e-001 -2.3200893047607957e-001
      -2.8277461576134599e-001 5.3489861913712089e-001
      7.7885930379583901e-001 2.2628126009986244e-001
      -9.2370335886014343e-001 -9.9628120500829514e-003
      5.0471014906181788e-001 2.1938199357014065e-001
      2.2307255623981825e-001 -1.1703459720805810e-001
      -8.0389771438315313e-002 1.1184986005911075e+000
      -3.7134085175000114e-001 -1.0963885748906904e-001
      2.1784924333462949e-001 3.0189404988922991e-001
      -1.8209761765226690e-001 -1.7916882370952306e-001
      -1.7377699062924715e-001 8.5697520716411346e-002
      -1.4164186458463202e-001 -3.0325859040136166e-001
      1.8280553954985632e-001 -8.4554520763441193e-002
      5.5651780997986462e-002 3.9709255752919122e-002
      -2.4199289589537099e-001 -2.3330352018466460e-001
      -2.3517910386494667e-001 1.0657074081227349e+000
      3.5839356709093045e-001 6.6194619189576476e-002
      9.8717835604489074e-002 1.8110142092599668e-001
      1.0921474065426424e+000 -7.0419840159533412e-002
      -2.5249439867895823e-001 5.0211738597628164e-001
      -5.4267898277320881e-001 -3.2028896330311601e-001
      -1.3758923200355004e+000 1.9333291740236669e-001
      -9.5556730697087977e-002 -1.4569799714517029e-001
      -1.0167312557342870e-001 1.2780522922961084e+000
      2.5917645689236507e-001 -3.6612170621256192e-002
      3.0046065647115539e-001 -3.4500512924809358e-002
      3.0033745786963467e-002 3.7296146752746689e-001
      -2.4674967494010905e-001 -3.1862620835361455e-001
      1.4322861960782290e-001 3.0882657553899757e-002
      -1.5824423850027985e-001 6.8145851212693642e-001
      -6.5067670324419111e-002 1.7951388541900495e-001
      1.5278858800620204e-001 1.6511723860605307e-001
      -4.2191271152767862e-001 2.3189203780963671e-001
      -9.4708854354401761e-001 2.1873974554025782e-001
      -5.7105391442344222e-002 1.5407487044426485e-001
      -2.5274211118689294e-001 1.3786795902720628e-001
      -7.7498695874723322e-001 -5.2410992106388887e-001
      -2.9778174595967918e-002 -1.3165621539488404e-001
      -4.5853979826566621e-001 -6.5691504086631103e-001
      -2.6458401116796287e-001 5.4682657489910302e-001
      3.0408670123159248e-001 -6.9230319053575773e-001
      -3.9061176125853880e-001 2.1486741909514659e-001
      1.8983362831575756e-001 -1.0786554506720693e-001
      -8.7208446892623720e-002 5.5729530624764767e-001
      -8.7895552118928424e-002 3.7969624805834984e-001
      5.9257514334766448e-001 8.5337541069309708e-001
      3.4278908494409371e-001 1.6163535519364122e-001
      -3.1497195631981678e-001 -2.6896727213808641e-001
      -2.3329890178582352e-001 -2.3856575875827760e-001
      7.4448122482270584e-001 8.1826687904029960e-001
      -1.1197282288289598e-001 2.4515133132721362e-001
      8.1297269917853826e-002 2.5750130528628814e-002
      1.2763608107786593e-002 4.3379167489142118e-001
      -8.0842080808061142e-002 -8.4997749005456491e-001
      -8.4774896486445900e-002 -4.0600937999261810e-001
      -9.9775636647025101e-001 -5.3141100669712733e-002
      2.8280823004119843e-001 -1.1825960232875396e-001
      6.3438343660489660e-001 -5.1878732497477809e-001
      -6.0637292013983468e-001 1.9319170065495980e-002
      8.7046399710900391e-002 1.5659570172370629e+000
      8.9054382048943181e-001 -5.1555000194507494e-001
      3.4781748127139905e-001 5.3799212423148979e-001
      9.5377846541728972e-001 -7.9981585131429900e-001
      -3.0563275043604138e-001 1.0603346987521658e-002
      -1.4589407740917920e-001 1.1716301209563852e-001
      8.9319569166290869e-001 -1.5998430832666899e-001
      -1.4718195000395540e-001 6.3558368312352265e-001
      2.6110663226223424e-001 6.4111312972633117e-001
      -5.5929144370563244e-001 -3.7044983704885112e-002
      2.3811304896550906e-001 8.2264824403710290e-001
      -4.2437495152077037e-001 -2.5877473648935218e-001
      7.0403102040317433e-001 8.9144833194072437e-001
      -3.9841263842135022e-001 7.4038377937369360e-001
      3.8307396909322844e-001 -5.2622256136153356e-001
      6.8883494663525028e-003 -7.2538301674732264e-001
      -1.1696612300769813e+000 5.1398056986366014e-001
      1.1170439465849815e+000 -7.4022423715080121e-004
      1.3347483693786426e+000 -3.5178301808061296e-001
      -1.9190864759025292e-001 -6.9923661847795679e-002
      -9.4736283617516426e-001 -2.9721821196295545e-001
      4.0192240327050760e-001 -7.7623168592531611e-001
      1.0219047321176389e-001 3.1353376830202970e+000
      8.5636707203082318e-001 -4.5104200795120508e-001
      -4.2287580026080424e-001 -2.7590366432669283e-001
      -3.1009392925176588e-002 3.6912428078645709e-001
      6.1020227182202613e-001 2.1010739533044003e+000
      -4.1499040234057588e-001 1.2226224340282095e+000
      8.0258563610134204e-001 1.6613691363094580e+000
      1.9283165476074796e-001 7.1754605066479638e-001
      -7.8085342011113001e-001 -9.6007804828841539e-002
      1.9348289557870998e-001 -5.8853651612845703e-001
      1.1947943062165594e+000 1.0504104085820867e+000
      -1.3405651234154617e-001 -4.9954041509213476e-001
      2.4180741264006955e-001 -1.0679991089265699e+000
      4.0808213151394773e-001 8.6974769764100957e-001
      -5.1628592841386078e-001 5.9992785748120225e-001
      1.6533258911274840e-001 -1.3523849724924777e-001
      1.3571123503960886e-001 -5.4464592599668438e-001
      -1.7145449996405384e+000 -1.1005836928767831e+000
      -5.8802258937233665e-001 -1.1441951598957691e+000
      2.0747566754513675e+000 1.3535902105237476e+000
      5.7588496103655018e-001 7.8442656211967265e-001
      1.9540417164747206e+000 1.6521470072119202e+000
      7.5057723310888980e-001 1.5476428863449329e-001
      4.5968129181728878e-001 1.2575437644370788e+000
      -8.5277404349362607e-001 1.1586292231915989e+000
      6.2849960481530232e-001 1.9963994809115888e+000
      2.2162056334280711e-001 2.7569272947368406e-001
      -2.8387958856572187e-001 1.6480039691466251e+000
      -1.6341882261667728e+000 -1.9391200072117232e-001
      -3.9579779029015227e-001 2.0298322662895699e-001
      -3.1181053805942233e-001 7.2580488230407536e-001
      2.2888979019572944e-002 -5.2980799208150853e-001
      -4.4081424621870641e-001 -3.1477004100891387e-001
      -8.2640568944795226e-002 9.7803943314880115e-001
      -4.2346682235768873e-001 6.6841235221028594e-001
      -4.7142147762910552e-001 5.0832142134647051e-001
      -6.8623564331097764e-001 1.1504199969916207e+000
      -1.5805367500079057e+000 -1.5821124316104451e+000
      -9.6298381836965000e-002 7.4468305518219013e-001
      9.0516936568812856e-001 1.9206047127115415e+000
      1.6495933451960789e+000 -1.0032274804828021e+000
      1.5397258050061360e-001 2.2853343559036245e+000
      4.2729106689174112e-001 -2.1163493317720972e-001
      1.4948670199300809e+000 5.4917586113655803e-001
      -9.3550878042055241e-001 -1.3218549313252559e+000
      -1.3533933982349218e+000 1.4719047583771879e-002
      1.7044956112734655e+000 6.1877967676958645e-001
      7.0747037390522527e-001 8.4104264659558192e-001
      6.0003735921041947e-002 -5.3476086982979808e-002
      -4.9902876339655566e-001 -6.7569970925212497e-001
      -2.1998999038240305e-001 -7.0468327677291331e-001
      1.6220231905187693e-001 -7.5425543185269761e-001
      -1.0370849658724970e+000 -7.3730304508920208e-001
      -1.6527068251805415e+000 -4.0865614190412375e-001
      1.0744411464336403e+000 1.1932955330315635e+000
      2.3113911580930846e-001 8.4378497313231315e-001
      -4.0468533665277640e-001 1.5054906552362022e+000
      -1.4516037582284291e+000 7.5589091489301907e-001
      8.9022054931267039e-002 1.7927653233403237e-001
      2.4799640859133584e-001 1.1235482963768033e+000
      3.6049542423960328e+000 -1.0491224208012191e+000
      8.0556523775680422e-001 1.6973692146536754e+000
      -3.2685256082884290e-001 1.1611777652003705e-001
      1.1186524319461031e+000 2.2879347116001603e-001
      4.9946797076081142e-002 -2.4059011335474961e-001
      -1.1435837035449947e+000 -1.2954185307698471e+000
      -4.4172026000604675e-001 -9.2773804478077815e-002
      -7.2048105855732097e-002 -9.9074214450745557e-001
      -1.2153220483265066e+000 -3.1352146536126746e-001
      -2.5895573327530074e-002 -2.5723751479717299e-001
      -2.2039905185630984e+000 -8.6924581628607767e-001
      -6.9106304592163725e-001 -3.3003144423442304e-001
      -7.6884409013895350e-001 -1.0955434455792230e+000
      -8.5628692506232240e-001 5.1242951659533686e-001
      3.0670366374870117e-001 7.4234405117674818e-002
      -3.9196209486574740e-001 -6.4179544905725394e-001
      -4.7417497839247430e-001 -5.3622952328286211e-001
      -1.6682045565458728e-001 2.4794471210406792e+000
      3.1554306557406625e-002 7.4288445956466198e-001
      -4.8513867831282913e-002 -1.5033573637992241e+000
      2.1170524067969554e+000 -1.2036676141344180e+000
      -7.6894154511741486e-001 -6.2447858137868011e-002
      -1.2241512148884004e+000 4.6981855719523608e-001
      1.9781274341702543e-002 2.5842303234317393e-001
      -1.0845412055843697e+000 4.0116695374956229e-001
      4.2355628375258314e-001 1.1968160348988145e-001
      -3.7513168194082541e-001 -6.3819661723063270e-001
      -2.9868083798628536e-001 2.6516966907085510e-001
      -3.7774642149717613e-001 -6.4856133000016569e-001
      1.2748381110977675e-001 -1.0722210034610622e+000
      -2.3382371807441125e+000 -1.0334530627461651e+000
      -1.9645266412467106e+000 3.2944978003575182e-001
      -4.5522046973567665e-001 -1.4498521755313426e-001
      -6.6458613156013180e-001 1.0764050056618322e+000
      1.4608898088891276e-001 1.7867550145396788e-001
      -6.4293263548958049e-002 -5.9769183309273588e-001
      -5.4096518432779761e-001 -9.0849882074482347e-001
      3.5425206304869150e-001 7.6953676927027392e-001
      -2.0502334308364117e-001 1.2542995737658533e-001
      9.3477504071633277e-001 -1.2877571877956533e+000
      2.9547407361139771e-001 5.7428266378005999e-001
      -5.2925451794243272e-001 -6.3109866120888247e-001
      -1.1707435956884753e+000 9.6306721174205523e-001
      1.0244821726143341e-002 2.7951457099026417e-001
      -1.4316004827941353e-001 1.3716170537785928e+000
      -4.5094266378649536e-002 -1.0637500913352860e+000
      2.8104734048111296e-001 -9.6270450858899714e-001
      -2.4955224273892038e-001 6.1017993492598854e-001
