<?xml version="1.0"?>
<opencv_storage>
<opencv_ml_ann_mlp>
  <format>3</format>
  <layer_sizes>
    640 48 31</layer_sizes>
  <activation_function>SIGMOID_SYM</activation_function>
  <f_param1>1.</f_param1>
  <f_param2>1.</f_param2>
  <min_val>-9.4999999999999996e-01</min_val>
  <max_val>9.4999999999999996e-01</max_val>
  <min_val1>-9.7999999999999998e-01</min_val1>
  <max_val1>9.7999999999999998e-01</max_val1>
  <training_params>
    <train_method>BACKPROP</train_method>
    <dw_scale>1.0000000000000001e-01</dw_scale>
    <moment_scale>1.0000000000000001e-01</moment_scale>
    <term_criteria>
      <iterations>30000</iterations></term_criteria></training_params>
  <input_scale>
    9.8257187836040867e+00 9.9851779308743194e-01 9.0499824168727194e+00
    8.9045946387188324e-01 8.6438462044084776e+00 7.5195838323803388e-01
    8.2013534662634608e+00 5.9401314893707513e-01 7.8881263438111864e+00
    4.6683269677650274e-01 7.6865917540319915e+00 3.8306460871470072e-01
    7.5356342114306791e+00 3.3427792263937922e-01 7.3300010391430437e+00
    2.9790481928698692e-01 7.1272142199281596e+00 2.6542208525605526e-01
    6.9830386940790810e+00 2.4623361085139545e-01 6.9923126679985339e+00
    2.5858750861108687e-01 7.2538228526120694e+00 3.1746581173812910e-01
    7.5174457033740234e+00 4.1017549144820548e-01 7.8268808296442467e+00
    5.3368524939539219e-01 8.3167346709547196e+00 7.0104605428260391e-01
    9.1540169854577602e+00 9.3124360618787472e-01 1.0274704777543572e+01
    1.2032879064708870e+00 1.1475655912443452e+01 1.4415368051435933e+00
    1.2521109315726191e+01 1.5386090292680585e+00 1.3839644540000210e+01
    1.5021831347526116e+00 8.8701527254900778e+00 8.0416708200696196e-01
    8.1552883185646330e+00 6.4329074052153745e-01 7.8043547569460738e+00
    4.5661375134673787e-01 7.5315285575678850e+00 2.7430344598672213e-01
    7.4226734010951363e+00 1.3591191848850481e-01 7.3718388974329905e+00
    4.9499000347120362e-02 7.2929110495258316e+00 3.4720665719859571e-03
    7.1348685062158204e+00 -3.0457210398284258e-02
    6.9889754412997300e+00 -6.4500042483363135e-02
    6.9451857023544985e+00 -9.0126003930349252e-02
    7.0177943414511494e+00 -9.2488908674242712e-02
    7.2051289012331949e+00 -5.2490463236545146e-02
    7.3194139168574619e+00 3.7842279049801211e-02 7.4247221446981184e+00
    1.7700330210424339e-01 7.6991678921947164e+00 3.6826576416548396e-01
    8.3471832777020580e+00 6.2824769473376940e-01 9.3325547030341660e+00
    9.4296241042775031e-01 1.0528568078687536e+01 1.2464350542138898e+00
    1.1780775794317304e+01 1.4277557874851463e+00 1.3343399651194023e+01
    1.4564414777963208e+00 8.6470621059872048e+00 6.9381238904675402e-01
    8.0248178542772557e+00 4.9777460332273643e-01 7.7837765829064152e+00
    2.6757841827662021e-01 7.6657058935607933e+00 4.5474559668807375e-02
    7.6418755417818618e+00 -1.2032891965294341e-01
    7.5935245394280741e+00 -2.1267562674811966e-01
    7.5009544636722483e+00 -2.5205684700715414e-01
    7.3314153390508512e+00 -2.8087564671599285e-01
    7.1705538667387918e+00 -3.1665269245129557e-01
    7.1665485525276988e+00 -3.5425016422093752e-01
    7.2830823896740648e+00 -3.7551855751861513e-01
    7.4290480868845474e+00 -3.5152236100013212e-01
    7.4639914645716363e+00 -2.6350602147303298e-01
    7.3845210502628476e+00 -1.0932277451284653e-01
    7.4339738270938396e+00 1.0063212309725096e-01 7.9130064446494019e+00
    3.8011312166273464e-01 8.8254828368129417e+00 7.2722257580159333e-01
    1.0068138948024208e+01 1.0838143994821692e+00 1.1450439082267120e+01
    1.3297280909941873e+00 1.3096030390900957e+01 1.4059199203411439e+00
    8.5901565031193936e+00 6.4119857271674263e-01 8.0510197546564921e+00
    4.3265617903100512e-01 7.9170202443265811e+00 1.7857565566897235e-01
    7.9112589970044143e+00 -7.5788991265286570e-02
    7.8805651004711335e+00 -2.6346886012103748e-01
    7.8075199672053897e+00 -3.5726699646153842e-01
    7.7340101844120781e+00 -3.9066227708750345e-01
    7.5739849249460480e+00 -4.1730409712749034e-01
    7.3679262673820221e+00 -4.5580106920620928e-01
    7.2925984826517913e+00 -4.9643657237193467e-01
    7.3780749989268148e+00 -5.2281283000431522e-01
    7.5156202628441218e+00 -5.1127178741610046e-01
    7.5442591071126639e+00 -4.3772296779042358e-01
    7.3654513234324916e+00 -2.8351371644637607e-01
    7.2310579721211790e+00 -6.4114657428266275e-02
    7.5414895874894672e+00 2.1970242682753183e-01 8.4077100275386840e+00
    5.7741585639097848e-01 9.7020702237654621e+00 9.6184098993514244e-01
    1.1182061539894022e+01 1.2496499552052178e+00 1.2930373108820058e+01
    1.3660028198094634e+00 8.4466581462776418e+00 6.0228024201869312e-01
    8.0148576532344347e+00 4.0287952715503500e-01 7.9589119163205195e+00
    1.5659438419218330e-01 8.0439474719690569e+00
    -9.7092094657220906e-02 8.0750768571279075e+00
    -2.8911967904438185e-01 8.0637428945110248e+00
    -3.8731446511058670e-01 7.9750972522828292e+00
    -4.2295699264481790e-01 7.7746409684353388e+00
    -4.5313622657032476e-01 7.5682743181389300e+00
    -4.9991728267800323e-01 7.4456104227684135e+00
    -5.3873700542975411e-01 7.4390030391292576e+00
    -5.5524484683784192e-01 7.5205326628605595e+00
    -5.4350145163889874e-01 7.5155633108085276e+00
    -4.8493166094639478e-01 7.3473370489418022e+00
    -3.5194040301194862e-01 7.1963397356633170e+00
    -1.4186650779197774e-01 7.4125938522626447e+00
    1.4078736898850763e-01 8.1745871507305363e+00 4.9686538107181744e-01
    9.4428298002435263e+00 8.8730081152671514e-01 1.0972961578004176e+01
    1.1950858374134232e+00 1.2827096178900408e+01 1.3403540829559628e+00
    8.2224767007718107e+00 5.6025702425401969e-01 7.9112767848337997e+00
    3.7318377690469312e-01 7.8781710576650426e+00 1.4506746065965373e-01
    7.9406423067494218e+00 -8.6719998083120614e-02
    8.0536032288099140e+00 -2.6511117760642833e-01
    8.1647395956589435e+00 -3.6883441810236350e-01
    8.1454194048222170e+00 -4.2249929060874752e-01
    7.9900150617894434e+00 -4.7232931470306516e-01
    7.7638791476683542e+00 -5.2512694914595015e-01
    7.6713984056844122e+00 -5.6492345684271594e-01
    7.6190699113265232e+00 -5.6827358093626912e-01
    7.6367530592750317e+00 -5.4534291880736896e-01
    7.5881852306891746e+00 -4.8923037290307753e-01
    7.4411396105309713e+00 -3.7596413983824289e-01
    7.2866784417900199e+00 -1.8435645022829275e-01
    7.4484800674014719e+00 8.9955294242490838e-02 8.1636760425353749e+00
    4.5011295125816869e-01 9.4597938428134167e+00 8.5977551333807278e-01
    1.1052610620087005e+01 1.1943375698267753e+00 1.2909400520154536e+01
    1.3479670877815313e+00 7.9943322325222708e+00 5.1728693874572818e-01
    7.7593864797169498e+00 3.3753631805578349e-01 7.7536172764665254e+00
    1.2207598663086219e-01 7.8103780267647238e+00
    -9.2807395191560796e-02 7.9277080962797184e+00
    -2.5656172792429238e-01 8.0428180414001353e+00
    -3.5817419657354355e-01 8.0588175094069925e+00
    -4.3058933841614383e-01 7.9756639907602791e+00
    -5.0521596065927965e-01 7.7731096918142430e+00
    -5.6447047179978305e-01 7.7538879192540584e+00
    -6.0302831393504364e-01 7.7108903061442815e+00
    -5.9402801190285304e-01 7.6758146530594091e+00
    -5.5327775702973825e-01 7.6024230144194966e+00
    -4.9215482597028187e-01 7.5004488586804188e+00
    -3.9120266426650352e-01 7.3624926868389950e+00
    -2.1508195843309888e-01 7.4896516397511874e+00
    4.8616963821499722e-02 8.1538476490026426e+00 4.1142028729047919e-01
    9.5355765105319747e+00 8.4685313736930912e-01 1.1395398571039092e+01
    1.2318533417166542e+00 1.3131598147088692e+01 1.3763938165181402e+00
    7.9157115455797333e+00 4.9226475271169584e-01 7.7431064314709692e+00
    3.1648123645547982e-01 7.7559737044052257e+00 1.0615210152668057e-01
    7.7889481292417857e+00 -1.0338282260822933e-01
    7.8630947419792392e+00 -2.5783248082969396e-01
    7.9626775742403257e+00 -3.5713609055612466e-01
    7.9869567540417687e+00 -4.4013262350312049e-01
    7.9186740093922916e+00 -5.2833947598739039e-01
    7.7229438596507576e+00 -5.9356540466697505e-01
    7.7229438570646423e+00 -6.2744693056216094e-01
    7.7812011083236685e+00 -6.1236675874626645e-01
    7.7748558629667954e+00 -5.6179197848853601e-01
    7.6424225562470971e+00 -4.9301080951104803e-01
    7.4932612652933264e+00 -3.9334878076102314e-01
    7.3397960773205870e+00 -2.2666239797579224e-01
    7.4298355825120908e+00 2.6316015797143502e-02 8.0003075034855975e+00
    3.8006348403643048e-01 9.3711033510864787e+00 8.1738694597315220e-01
    1.1508025099881097e+01 1.2431347440350606e+00 1.3313061607377920e+01
    1.3997847912992798e+00 7.9493583268402110e+00 4.8330981719345806e-01
    7.8010603802585923e+00 3.0431979370268564e-01 7.7642140378835753e+00
    9.1119801304041528e-02 7.7326787151994747e+00
    -1.1559345562522756e-01 7.7568147229621482e+00
    -2.6708422818670463e-01 7.8510342775142314e+00
    -3.6574961512279514e-01 7.9314423855649210e+00
    -4.4908921731619911e-01 7.8154433880821683e+00
    -5.2779741799677082e-01 7.5842112280303393e+00
    -5.8737253155902625e-01 7.5755918166924943e+00
    -6.1941814443278576e-01 7.6470952874227018e+00
    -6.0073777953552643e-01 7.7132560335686371e+00
    -5.5075587643063895e-01 7.5863759457216862e+00
    -4.7876876243504091e-01 7.4252100293453172e+00
    -3.7838752821661142e-01 7.2870124382880865e+00
    -2.2048970908081533e-01 7.3344041064081109e+00
    2.0223676324426888e-02 7.8723343369101055e+00 3.6031478695150454e-01
    9.1891308024586884e+00 7.8752453548223844e-01 1.1299531288164815e+01
    1.2145224901001139e+00 1.3232966270748600e+01 1.3913752183765531e+00
    7.9922725177792922e+00 4.7440491548204822e-01 7.7878814191617591e+00
    2.8149101109205799e-01 7.7034930216601634e+00 6.0859600665125926e-02
    7.6920829053405715e+00 -1.4865703409840658e-01
    7.7111555906966442e+00 -3.0249740066145236e-01
    7.8298141151034732e+00 -4.0566590231529309e-01
    7.9682671582259648e+00 -4.8716957722833415e-01
    7.7963684154115906e+00 -5.4414783194480598e-01
    7.4645310403215648e+00 -5.7911469496250834e-01
    7.4612427834775410e+00 -6.0959141300481656e-01
    7.5732639830171671e+00 -6.0748863425133781e-01
    7.7363826730938561e+00 -5.7814600634099722e-01
    7.6589700507557792e+00 -5.0727119748442484e-01
    7.4908117742834586e+00 -3.9291583426374921e-01
    7.2810138852002906e+00 -2.2491484562634584e-01
    7.2534068784032639e+00 8.9593419623931938e-03 7.8136763643362617e+00
    3.4004610445358346e-01 9.1394370050422751e+00 7.6618820815173050e-01
    1.1180728404041453e+01 1.1925721473147741e+00 1.3178277037587767e+01
    1.3804999442340675e+00 7.9414715211162736e+00 4.5419630837084779e-01
    7.7496210537606371e+00 2.4984688048302484e-01 7.6931935222374852e+00
    1.3389139697001895e-02 7.7776631216973113e+00
    -2.1217814703853968e-01 7.8485813312601067e+00
    -3.7572271194996237e-01 8.0120081952468585e+00
    -4.8185130066892590e-01 8.1130653854033792e+00
    -5.5318717416471519e-01 7.8659001923574543e+00
    -5.8680006367239324e-01 7.4434508423944408e+00
    -5.9208936784837873e-01 7.3965109758436212e+00
    -6.0875739521238448e-01 7.5160384783737344e+00
    -6.2266344305591859e-01 7.7821972240057464e+00
    -6.2639279732788133e-01 7.7676693685605720e+00
    -5.7103164687272745e-01 7.5743806200874824e+00
    -4.4307560336406349e-01 7.3507072155726130e+00
    -2.5364996203598777e-01 7.3066653743937042e+00
    -7.8440155772411552e-03 7.8923605934804053e+00
    3.3219437143066877e-01 9.2472032019036892e+00 7.6896533335966444e-01
    1.1251862998487230e+01 1.1994555178498087e+00 1.3150371918212654e+01
    1.3769842101441028e+00 7.7995581013211357e+00 4.3703511221570079e-01
    7.6939364355459006e+00 2.3078787114864854e-01 7.6642023442153464e+00
    -2.2472650232316507e-02 7.7897495544303492e+00
    -2.6758591611694754e-01 7.8534011951827134e+00
    -4.4393931336005216e-01 7.9575230287803524e+00
    -5.4723684255615623e-01 8.0315605813791677e+00
    -6.0344291218216906e-01 7.7947911221294470e+00
    -6.1890498210991751e-01 7.3952402150485446e+00
    -6.0930519506424907e-01 7.3192209880487589e+00
    -6.1112247641701789e-01 7.4826226989177851e+00
    -6.2558669399830669e-01 7.7794493571983905e+00
    -6.4509814618838512e-01 7.7551952981234527e+00
    -6.0290940947825056e-01 7.5865856107084406e+00
    -4.8171664451202995e-01 7.3971004226783164e+00
    -2.8421700653256032e-01 7.3542161598317435e+00
    -2.2047154660578144e-02 7.9296462820416886e+00
    3.3302984720862228e-01 9.3824041050587219e+00 7.9068351308410889e-01
    1.1440178735373472e+01 1.2300355191665924e+00 1.3202399571412135e+01
    1.3863874496230071e+00 7.6050090489962319e+00 4.4038266865403519e-01
    7.5844147391159282e+00 2.4739829919321402e-01 7.5494690425121513e+00
    -9.0651441840917096e-03 7.6779595046387712e+00
    -2.6236203451301265e-01 7.7395542141419300e+00
    -4.5360564625336403e-01 7.7681631838280492e+00
    -5.6397237578425197e-01 7.8248105838317086e+00
    -6.2331981342204390e-01 7.7118556479056917e+00
    -6.4826409765282345e-01 7.3373807176342076e+00
    -6.3676054139581673e-01 7.2612144282557676e+00
    -6.2926809658811333e-01 7.4839652221488748e+00
    -6.2998257285735582e-01 7.8148336718764524e+00
    -6.3670901627219123e-01 7.7953465139389424e+00
    -5.9267343823531227e-01 7.6595560278644097e+00
    -4.8203152415912071e-01 7.5013463919419792e+00
    -2.9310731431180775e-01 7.3857779361614302e+00
    -2.4629282779817963e-02 7.8738333778720389e+00
    3.3651356816392447e-01 9.3371274746231272e+00 7.9971321661217853e-01
    1.1540971145502594e+01 1.2486517609789449e+00 1.3254479457839535e+01
    1.3912352314071168e+00 7.4270019418931081e+00 4.5995543488373775e-01
    7.4337357144636869e+00 2.9319015918483032e-01 7.3990547427579196e+00
    5.0003763556606837e-02 7.5253430602198952e+00
    -1.9890001385535749e-01 7.5971705947773343e+00
    -4.0568375136318047e-01 7.6139421253139252e+00
    -5.4099012479127406e-01 7.7049157663742740e+00
    -6.2858906747571397e-01 7.7205842981117350e+00
    -6.8534798670393660e-01 7.4364921671001412e+00
    -6.9199214103624695e-01 7.3355946325170027e+00
    -6.8019160666939593e-01 7.4993761436470470e+00
    -6.5258230515677429e-01 7.7983979498814273e+00
    -6.2865444713751306e-01 7.8101773047769285e+00
    -5.6911852171443866e-01 7.7360120255540190e+00
    -4.6207014161617277e-01 7.5869694271765162e+00
    -2.8023827310902655e-01 7.4230574060354257e+00
    -1.4247955455972391e-02 7.8099686308263889e+00
    3.4707985205636205e-01 9.2040564864101277e+00 8.0514841098354584e-01
    1.1432130791431705e+01 1.2471799762265046e+00 1.3232680974045476e+01
    1.3880797380571814e+00 7.3254842920550782e+00 4.7468861513480920e-01
    7.3269183762107435e+00 3.2776160601799315e-01 7.2311366974771012e+00
    9.8378667621712407e-02 7.3167807854744922e+00
    -1.3735541276809726e-01 7.4479944363419097e+00
    -3.5381364266767790e-01 7.5443639586218509e+00
    -5.2206112443840635e-01 7.7187034762307416e+00
    -6.4897563584489204e-01 7.8192377557616703e+00
    -7.3791110890956879e-01 7.5563582394249913e+00
    -7.5866381705356323e-01 7.4268071387699983e+00
    -7.5055617923518247e-01 7.5783336055433246e+00
    -7.1179565948125190e-01 7.9168721813474034e+00
    -6.6752881833080979e-01 7.9265621108891562e+00
    -5.8335662004416011e-01 7.8297137845667173e+00
    -4.5929983910527344e-01 7.6430141801881861e+00
    -2.6764264186635922e-01 7.4168962909020308e+00
    1.8829505822541871e-03 7.7142656515881081e+00 3.6159051575520157e-01
    9.1194398337486255e+00 8.2209361655736513e-01 1.1335560763683622e+01
    1.2556804576365508e+00 1.3137142839168703e+01 1.3838431311628314e+00
    7.1997165230764359e+00 4.7283181104152677e-01 7.1651395577455466e+00
    3.2925677332644310e-01 6.9703234998065868e+00 9.8658229064644498e-02
    6.9914029760305860e+00 -1.3013993467131704e-01
    7.1454180643688288e+00 -3.4489561421320730e-01
    7.3119938631192793e+00 -5.2774721891098941e-01
    7.5331976921843653e+00 -6.7565671986387121e-01
    7.6908140268630039e+00 -7.7516184663132193e-01
    7.4691508887870848e+00 -7.9806181518230657e-01
    7.3338028814419030e+00 -7.9760042030086220e-01
    7.4050929168536088e+00 -7.6625579863068749e-01
    7.6988423080651973e+00 -7.1597028095707904e-01
    7.7140490179695673e+00 -6.1671020255187670e-01
    7.6051239095392900e+00 -4.7283017625255347e-01
    7.5126331502875843e+00 -2.6816931962003537e-01
    7.3581514059656730e+00 8.6249726634510231e-03 7.6373211307832252e+00
    3.7098641968132867e-01 9.0540065796983704e+00 8.3370717409093531e-01
    1.1259973943835830e+01 1.2638910063641358e+00 1.3016833832839707e+01
    1.3769691481188902e+00 7.1246292717890425e+00 4.6799512429913792e-01
    7.1035660933070508e+00 3.2420161797429664e-01 6.9050618374038484e+00
    8.0861076915388228e-02 6.9411173558529091e+00
    -1.6325672335076899e-01 7.1288272880720012e+00
    -3.8995915053484098e-01 7.2806930742877469e+00
    -5.7588930621830592e-01 7.4851318800402709e+00
    -7.2023971915375928e-01 7.6596075405689454e+00
    -8.1051753737478061e-01 7.5146627903213545e+00
    -8.3025994543836623e-01 7.4364492919279686e+00
    -8.4396900296386390e-01 7.4345159331424728e+00
    -8.2797954374155669e-01 7.6185200101150095e+00
    -7.8244243860179674e-01 7.5755807360607692e+00
    -6.7726371268029872e-01 7.4100478278425266e+00
    -5.1672089859824355e-01 7.3483014308035877e+00
    -2.9234640367430342e-01 7.2925706586014059e+00
    2.1878703581656527e-03 7.6654510368090722e+00 3.8088215780630114e-01
    9.0920346508316143e+00 8.4914230849380334e-01 1.1227998751506695e+01
    1.2690451235694069e+00 1.2847881421413176e+01 1.3623333835619311e+00
    7.2544534426529204e+00 4.8151359216555090e-01 7.2030339958961980e+00
    3.3395480716528692e-01 7.0580683521953471e+00 7.9456134525442701e-02
    7.1659419500405450e+00 -1.9156580466378600e-01
    7.4253957725338253e+00 -4.4470450748613455e-01
    7.5588445896000414e+00 -6.3145213465335293e-01
    7.6619041576821951e+00 -7.5055511385284546e-01
    7.7423864087462544e+00 -8.1130730081045177e-01
    7.6348854087503746e+00 -8.2292737592395226e-01
    7.6212006480108005e+00 -8.4338853754115073e-01
    7.6513581184119257e+00 -8.4604742836391034e-01
    7.8000647948290585e+00 -8.2113902194387600e-01
    7.6707337320038116e+00 -7.2927759213214238e-01
    7.4581176456955642e+00 -5.7115692664641815e-01
    7.3052540804712258e+00 -3.2922104412726200e-01
    7.2807183489418863e+00 -1.1302385981586054e-02
    7.8131206063039746e+00 3.9085878536729046e-01 9.3595102265330521e+00
    8.7969390923165258e-01 1.1424816292801127e+01 1.2945502763034056e+00
    1.2923400087939772e+01 1.3731077932135622e+00 7.3888774219149465e+00
    4.9834864068486479e-01 7.2737340365683858e+00 3.4565714660471814e-01
    7.1580393730924623e+00 8.8269648938525791e-02 7.3202816029484676e+00
    -1.9449536598870984e-01 7.6770840604830690e+00
    -4.6374104241020669e-01 7.8508959177075477e+00
    -6.4739888975847149e-01 7.8991211842617686e+00
    -7.3749141629305381e-01 7.8322768141312018e+00
    -7.5202626682127982e-01 7.6254899073603877e+00
    -7.3198338184920064e-01 7.5710607638223957e+00
    -7.3181403319106308e-01 7.6332083465740954e+00
    -7.4276092733833421e-01 7.7815166459106706e+00
    -7.4796400075751024e-01 7.6081975179569374e+00
    -6.9466595150293331e-01 7.3440361286474127e+00
    -5.6550586347596699e-01 7.1669983746071830e+00
    -3.3688507944825830e-01 7.2330765771119019e+00
    -1.7860058792964453e-02 7.8653069938350173e+00
    3.9255331137264987e-01 9.5149400365021553e+00 8.9523997530935484e-01
    1.1590690914289249e+01 1.3129541730361816e+00 1.3049177740870203e+01
    1.3854053042733148e+00 7.5279048563288020e+00 5.0979318425600140e-01
    7.3470768731879854e+00 3.4670781932629663e-01 7.2254979058486661e+00
    8.9802216488708994e-02 7.3927936278378450e+00
    -1.8901709188449264e-01 7.7626464232444263e+00
    -4.5060142297702471e-01 8.0018137697468230e+00
    -6.2895260318989021e-01 8.1087370202091407e+00
    -7.0454981046356413e-01 7.9914395482749532e+00
    -6.8411164756454601e-01 7.7159031870889354e+00
    -6.3113663334820203e-01 7.6064559725183791e+00
    -6.1051239221739351e-01 7.6243328772238836e+00
    -6.1973341691786388e-01 7.7756283721896171e+00
    -6.4215055231833862e-01 7.6287832607835497e+00
    -6.2295176368209115e-01 7.3256594680567009e+00
    -5.2146669244434407e-01 7.1499314941940364e+00
    -3.1369094306448986e-01 7.2649857121748020e+00
    -5.3425997156258849e-03 7.9325374631828955e+00
    4.0120765812944031e-01 9.7041079996850588e+00 9.1277025143056278e-01
    1.1898845168062394e+01 1.3450835254044891e+00 1.3216721028121848e+01
    1.4010592546778295e+00 7.6424587730819464e+00 5.1026299973943778e-01
    7.4265900784819019e+00 3.3710949693450859e-01 7.3068966740318837e+00
    7.9201258070107236e-02 7.4578962628754351e+00
    -1.9570926152916229e-01 7.7865496145673925e+00
    -4.4345846497601527e-01 7.9995029992504767e+00
    -6.1119719340299183e-01 8.0685153749839316e+00
    -6.7249917157206784e-01 7.9481526634001458e+00
    -6.3433363676047916e-01 7.7628918987327848e+00
    -5.7382486739876959e-01 7.7085302431634517e+00
    -5.5255804704195610e-01 7.7363602411228207e+00
    -5.7244137310588039e-01 7.9163919595314507e+00
    -6.0942689495923241e-01 7.7936794419384086e+00
    -5.9875635536381966e-01 7.4517334912261948e+00
    -4.9737664007393168e-01 7.2527443014773674e+00
    -2.9234042680584810e-01 7.3120563947753583e+00
    5.2162804568548563e-03 7.9395816794007672e+00 3.9737509927524511e-01
    9.8334014404830778e+00 9.1534762980471784e-01 1.2262785112649665e+01
    1.3794170329480089e+00 1.3412607677789987e+01 1.4219226240604854e+00
    7.7271162564411098e+00 5.1302119520883316e-01 7.5082865655318729e+00
    3.4151685481045196e-01 7.4077940628518322e+00 8.6571690533473938e-02
    7.5415776912649921e+00 -1.8988486040540906e-01
    7.8056781170754883e+00 -4.2945441100689552e-01
    7.9820564713928999e+00 -5.8700324847105578e-01
    8.0743752526759849e+00 -6.4382480025280364e-01
    7.9586108196530869e+00 -6.0676928021487686e-01
    7.8875723728534295e+00 -5.6005621347103152e-01
    7.9669020859497524e+00 -5.5639552886387478e-01
    8.0116928152002878e+00 -5.9041540418309291e-01
    8.1508171317651499e+00 -6.3295440706626172e-01
    7.9968838954965520e+00 -6.1601259493220106e-01
    7.6041542283589720e+00 -4.9865650413257617e-01
    7.3754560719223878e+00 -2.8221260886767974e-01
    7.3647861218698614e+00 1.1442364929488360e-02 7.8837938042411233e+00
    3.8463324018336664e-01 9.7121314323464496e+00 8.8692092145252910e-01
    1.2335479318761051e+01 1.3747875308973270e+00 1.3572071165546918e+01
    1.4368708768556568e+00 7.7695009326604509e+00 5.2248652353994629e-01
    7.5602131140322291e+00 3.5872897926499214e-01 7.4794290581009779e+00
    1.1549258195369684e-01 7.5950455976558739e+00
    -1.5544938108161668e-01 7.8260193360550643e+00
    -3.8938112732480817e-01 7.9526087763129834e+00
    -5.3565815485693602e-01 8.0227255385936207e+00
    -5.8626120333621179e-01 7.9329354457135723e+00
    -5.6168560034828230e-01 7.8572556176575068e+00
    -5.3090418197028111e-01 7.9738702987630585e+00
    -5.4393235817239416e-01 8.0102086545387063e+00
    -5.8158983746997028e-01 8.0940847886367333e+00
    -6.2184037623906596e-01 8.0356961217837242e+00
    -6.1205351250325746e-01 7.7436968154278665e+00
    -4.9279170863690264e-01 7.5392941413601324e+00
    -2.6553478718148688e-01 7.5146962932719603e+00
    3.0813316941010169e-02 7.9657131057391357e+00 3.9631949193107230e-01
    9.6492203165443069e+00 8.7866917881129236e-01 1.2162938868369455e+01
    1.3496944000935795e+00 1.3549683570107417e+01 1.4306847434254368e+00
    7.8168172027217935e+00 5.2904649039871532e-01 7.5641944278552451e+00
    3.6486548228311733e-01 7.4625115256365504e+00 1.3449456725937009e-01
    7.5387326900336875e+00 -1.1774096237414569e-01
    7.8113875379799467e+00 -3.3850041364127409e-01
    7.9894189289064084e+00 -4.8236046519576342e-01
    8.0882058519780120e+00 -5.3408281048805828e-01
    7.9951248922596632e+00 -5.1635191113717971e-01
    7.8152528029976747e+00 -4.9303230243577700e-01
    7.8822066366224677e+00 -5.0747926108469377e-01
    7.9464924190260886e+00 -5.4643737740691722e-01
    8.0416418865974730e+00 -5.9425768848964133e-01
    8.0510984285896541e+00 -5.9771244026939541e-01
    7.8618056350110921e+00 -4.8438964012858216e-01
    7.7279682178707931e+00 -2.5152669119471172e-01
    7.7503241810264987e+00 5.5149628429511724e-02 8.1800741084065525e+00
    4.2681935812550098e-01 9.7102910937957088e+00 8.9506476644398458e-01
    1.1947443656604607e+01 1.3262884043851328e+00 1.3472444159540863e+01
    1.4169540384886343e+00 7.8637721462231225e+00 5.2943959764901738e-01
    7.5243300144865035e+00 3.5843882105236913e-01 7.3968997707999531e+00
    1.3812293345633966e-01 7.4426899870909171e+00
    -9.5014823581794930e-02 7.7235098618780285e+00
    -2.9954322782188292e-01 7.9346293972656223e+00
    -4.3958253478573173e-01 8.1270789569014745e+00
    -4.9930002884418434e-01 8.1079348064780277e+00
    -4.9122895969442715e-01 7.8940488555235930e+00
    -4.6836695944065015e-01 7.8069167224711515e+00
    -4.7189738471111131e-01 7.8265276294997657e+00
    -5.1367861244810353e-01 7.9163279655184517e+00
    -5.6831746542841299e-01 7.9609661018830566e+00
    -5.8439557856395918e-01 7.7894706662867907e+00
    -4.7750210666630821e-01 7.6873157575331712e+00
    -2.4808648543820375e-01 7.7732917658304688e+00
    5.9134816924367360e-02 8.2167118818661891e+00 4.3216020367365776e-01
    9.6534274230226682e+00 8.8845301589197923e-01 1.1748760823327347e+01
    1.2984488500818321e+00 1.3413151358107731e+01 1.4074200566101802e+00
    7.9477261913653789e+00 5.3685156145029544e-01 7.5256934636292421e+00
    3.6064699956880675e-01 7.3661246527171702e+00 1.5029859203584811e-01
    7.3885115809433115e+00 -6.9890501686584186e-02
    7.6242571237303789e+00 -2.6220261607948048e-01
    7.7842534490876121e+00 -3.9201654054324658e-01
    7.9951765414815670e+00 -4.5208646584538253e-01
    8.0635295630526169e+00 -4.5403660081026043e-01
    7.9234622075139107e+00 -4.3729831006333619e-01
    7.8596963762485590e+00 -4.4283392883078082e-01
    7.8802181952475916e+00 -4.8965954979465048e-01
    7.9419835983404843e+00 -5.5116721469489238e-01
    7.9470647846744598e+00 -5.7333553483427602e-01
    7.7502313126814579e+00 -4.7535842123916178e-01
    7.6040255796303979e+00 -2.5590625213309814e-01
    7.6738640595720362e+00 4.2562162276659779e-02 8.1371599209572736e+00
    4.0902503404848822e-01 9.5525168671217795e+00 8.5660950454020390e-01
    1.1674974013821579e+01 1.2728431404224878e+00 1.3442372823956813e+01
    1.4050910152188598e+00 8.0839597601118545e+00 5.6215766777434184e-01
    7.5908743949527784e+00 3.8732959507891279e-01 7.4136815363288058e+00
    1.8957206911079585e-01 7.3621432603251833e+00
    -1.8677317262834829e-02 7.4010535235883896e+00
    -1.9586020956704306e-01 7.4451380504034432e+00
    -3.1024300464838805e-01 7.6393747402273382e+00
    -3.6475371369880660e-01 7.7754378418660082e+00
    -3.7431131306799392e-01 7.7975180672892659e+00
    -3.7220453312799956e-01 7.8462816058403000e+00
    -3.8169912175369830e-01 7.9305493689860853e+00
    -4.2547021461713630e-01 7.8725513866576540e+00
    -4.8145625666361191e-01 7.7581890030664473e+00
    -5.0294120517889140e-01 7.5711625055235361e+00
    -4.2763961553846380e-01 7.4808130572638527e+00
    -2.4207807887168370e-01 7.5628331203455801e+00
    3.3030657806276655e-02 8.0533553509425992e+00 3.8576422742966204e-01
    9.4608495714672802e+00 8.2343300081632365e-01 1.1693444814813855e+01
    1.2566086177119602e+00 1.3517169561557994e+01 1.4076366356173242e+00
    8.3056427511118560e+00 6.1894006245351563e-01 7.7497447965896447e+00
    4.4697598875164146e-01 7.5370900025468170e+00 2.5567706032137399e-01
    7.3815638228100395e+00 5.7444478929710316e-02 7.2379023759459731e+00
    -1.0294664951625589e-01 7.1950181115712928e+00
    -2.0105709337998978e-01 7.3037383488099605e+00
    -2.4784147091984512e-01 7.3983854632506292e+00
    -2.6399629245158074e-01 7.4865012990543010e+00
    -2.7528618147853795e-01 7.5712077398946143e+00
    -2.8775785400625364e-01 7.6891679233396797e+00
    -3.1921422026129692e-01 7.6292004958931194e+00
    -3.6926432556602506e-01 7.5230350937490584e+00
    -3.9758811091390445e-01 7.3873394290602432e+00
    -3.4785856078013255e-01 7.3674838533265570e+00
    -1.9836788972324371e-01 7.5159908633580335e+00
    4.7732636350175710e-02 8.0366815120339758e+00 3.8095114953206632e-01
    9.5021194322130960e+00 8.1197329898548298e-01 1.1823889478774271e+01
    1.2584534405942023e+00 1.3620557763648087e+01 1.4152350527404376e+00
    8.7124353804807555e+00 7.1590296642713613e-01 8.1048669399666675e+00
    5.5257273621228420e-01 7.7894229227059251e+00 3.6147217210232802e-01
    7.5049266633544400e+00 1.6857235925408603e-01 7.2586435605062105e+00
    2.4068511721926998e-02 7.1229638346292452e+00
    -5.9398230585116771e-02 7.0778907234208770e+00
    -1.0569402897096181e-01 7.0484627244015741e+00
    -1.3668049520733819e-01 7.0318330869844141e+00
    -1.5927278847708379e-01 7.0866119518350867e+00
    -1.6646827067241987e-01 7.1818737715432626e+00
    -1.7942672024161316e-01 7.2037684223365863e+00
    -2.2121085265120918e-01 7.2269527499484285e+00
    -2.5708034465719165e-01 7.1887839798182078e+00
    -2.2922349642673254e-01 7.2729408016128998e+00
    -1.1283654637555714e-01 7.5161822404199592e+00
    9.9163986105005764e-02 8.0678515760836458e+00 4.0413227981811678e-01
    9.5528407367388830e+00 8.1723651266821062e-01 1.1948488618195608e+01
    1.2669376376098807e+00 1.3732213392303134e+01 1.4260107582782167e+00
    9.3633191042945878e+00 8.4646625767971562e-01 8.7743742684151709e+00
    7.1386043505483932e-01 8.3873526846968627e+00 5.3572708784004219e-01
    7.9654503848242681e+00 3.4728126139088589e-01 7.6217867472804564e+00
    2.1288444943093091e-01 7.4150398425366388e+00 1.3943115418143137e-01
    7.2903270795625241e+00 9.0609924405046074e-02 7.1526771017644846e+00
    4.5157276348673635e-02 6.9964944146635810e+00 9.6167884129985080e-03
    6.9676485485069595e+00 2.0205578061399951e-03 6.9626841890315143e+00
    1.0352186907986664e-03 7.0296454943698112e+00
    -2.6132337004522371e-02 7.1292101413727336e+00
    -5.8187974099013599e-02 7.1639742468489898e+00
    -4.6645719511487348e-02 7.3666564691509917e+00
    3.8384518938274152e-02 7.7344926020576121e+00 2.1283665404331018e-01
    8.3053969578357023e+00 4.7890391395658166e-01 9.7758598896842717e+00
    8.6010181002318520e-01 1.2098831969391947e+01 1.2835978736863409e+00
    1.3808665680861477e+01 1.4304213196724791e+00 1.0451002915895062e+01
    1.0025534299775209e+00 9.9952540220532189e+00 9.2899140877841702e-01
    9.6411994431821686e+00 7.9571584615059510e-01 9.1266780641057235e+00
    6.2875618816644419e-01 8.7114714616043933e+00 5.0559663580932146e-01
    8.4840940859504563e+00 4.4191643288762938e-01 8.2773380105247973e+00
    3.9446406053810457e-01 8.0413935781348815e+00 3.4315999443455797e-01
    7.7274932220522867e+00 2.9390727595514626e-01 7.5995873465798276e+00
    2.8195681602085404e-01 7.5373951793625702e+00 2.8319386521229101e-01
    7.6594977351748463e+00 2.7459458498870032e-01 7.8509261958475030e+00
    2.5885001675123781e-01 7.9508733930612152e+00 2.6015670730161777e-01
    8.1986099713362037e+00 3.1582400924930298e-01 8.6394556492118930e+00
    4.4323686121255251e-01 9.1751282885944327e+00 6.4390870725443128e-01
    1.0544524384137260e+01 9.6223507096499716e-01 1.2481232892616038e+01
    1.3112232929368337e+00 1.3911804517145571e+01 1.4284985548319074e+00
    1.2393442386736051e+01 1.1792141880604536e+00 1.2228899194076183e+01
    1.1749424857849158e+00 1.2126929987904022e+01 1.1301625717092205e+00
    1.1789399150768789e+01 1.0356063950772458e+00 1.1471748552828291e+01
    9.5231522866976270e-01 1.1265698360782192e+01 9.0905929983108857e-01
    1.1077418072314883e+01 8.7728269823779259e-01 1.0706142565184340e+01
    8.2283107239632558e-01 1.0115993778368122e+01 7.5034158880958879e-01
    9.8934047840399071e+00 7.2766475174814482e-01 9.8396871487579354e+00
    7.3314398126514868e-01 1.0076840466054550e+01 7.4992778270441018e-01
    1.0323290142142939e+01 7.5921684719683435e-01 1.0432799639359956e+01
    7.6021017167518157e-01 1.0634133735466385e+01 7.8597404828011985e-01
    1.1032343766825926e+01 8.5727741478403496e-01 1.1430771022039691e+01
    9.6280086403675369e-01 1.2410836849745202e+01 1.1525364273078751e+00
    1.3644564056915224e+01 1.3603293452544276e+00 1.4477731222846614e+01
    1.4343491526309666e+00</input_scale>
  <output_scale>
    5.2631578947368418e-01 4.9999999999999994e-01 5.2631578947368418e-01
    4.9999999999999994e-01 5.2631578947368418e-01 4.9999999999999994e-01
    5.2631578947368418e-01 4.9999999999999994e-01 5.2631578947368418e-01
    4.9999999999999994e-01 5.2631578947368418e-01 4.9999999999999994e-01
    5.2631578947368418e-01 4.9999999999999994e-01 5.2631578947368418e-01
    4.9999999999999994e-01 5.2631578947368418e-01 4.9999999999999994e-01
    5.2631578947368418e-01 4.9999999999999994e-01 5.2631578947368418e-01
    4.9999999999999994e-01 5.2631578947368418e-01 4.9999999999999994e-01
    5.2631578947368418e-01 4.9999999999999994e-01 5.2631578947368418e-01
    4.9999999999999994e-01 5.2631578947368418e-01 4.9999999999999994e-01
    5.2631578947368418e-01 4.9999999999999994e-01 5.2631578947368418e-01
    4.9999999999999994e-01 5.2631578947368418e-01 4.9999999999999994e-01
    5.2631578947368418e-01 4.9999999999999994e-01 5.2631578947368418e-01
    4.9999999999999994e-01 5.2631578947368418e-01 4.9999999999999994e-01
    5.2631578947368418e-01 4.9999999999999994e-01 5.2631578947368418e-01
    4.9999999999999994e-01 5.2631578947368418e-01 4.9999999999999994e-01
    5.2631578947368418e-01 4.9999999999999994e-01 5.2631578947368418e-01
    4.9999999999999994e-01 5.2631578947368418e-01 4.9999999999999994e-01
    5.2631578947368418e-01 4.9999999999999994e-01 5.2631578947368418e-01
    4.9999999999999994e-01 5.2631578947368418e-01 4.9999999999999994e-01
    5.2631578947368418e-01 4.9999999999999994e-01</output_scale>
  <inv_output_scale>
    1.8999999999999999e+00 -9.4999999999999996e-01
    1.8999999999999999e+00 -9.4999999999999996e-01
    1.8999999999999999e+00 -9.4999999999999996e-01
    1.8999999999999999e+00 -9.4999999999999996e-01
    1.8999999999999999e+00 -9.4999999999999996e-01
    1.8999999999999999e+00 -9.4999999999999996e-01
    1.8999999999999999e+00 -9.4999999999999996e-01
    1.8999999999999999e+00 -9.4999999999999996e-01
    1.8999999999999999e+00 -9.4999999999999996e-01
    1.8999999999999999e+00 -9.4999999999999996e-01
    1.8999999999999999e+00 -9.4999999999999996e-01
    1.8999999999999999e+00 -9.4999999999999996e-01
    1.8999999999999999e+00 -9.4999999999999996e-01
    1.8999999999999999e+00 -9.4999999999999996e-01
    1.8999999999999999e+00 -9.4999999999999996e-01
    1.8999999999999999e+00 -9.4999999999999996e-01
    1.8999999999999999e+00 -9.4999999999999996e-01
    1.8999999999999999e+00 -9.4999999999999996e-01
    1.8999999999999999e+00 -9.4999999999999996e-01
    1.8999999999999999e+00 -9.4999999999999996e-01
    1.8999999999999999e+00 -9.4999999999999996e-01
    1.8999999999999999e+00 -9.4999999999999996e-01
    1.8999999999999999e+00 -9.4999999999999996e-01
    1.8999999999999999e+00 -9.4999999999999996e-01
    1.8999999999999999e+00 -9.4999999999999996e-01
    1.8999999999999999e+00 -9.4999999999999996e-01
    1.8999999999999999e+00 -9.4999999999999996e-01
    1.8999999999999999e+00 -9.4999999999999996e-01
    1.8999999999999999e+00 -9.4999999999999996e-01
    1.8999999999999999e+00 -9.4999999999999996e-01
    1.8999999999999999e+00 -9.4999999999999996e-01</inv_output_scale>
  <weights>
    <_>
      5.9097773818070634e+00 -1.5219715075435558e+00
      -1.1185955972814439e-01 -1.0167561988870619e+00
      1.9205967921296807e+00 2.8166563364159475e-01
      -1.2155442977227005e+00 -1.1054141599294904e+00
      -1.1162265340499844e+00 -4.4867555534638021e-01
      -1.7450509110461847e+00 -3.7663281752305799e-01
      -1.0375534350907614e+00 -2.8312186737452882e+00
      8.2970518114287306e-01 -2.6328282780082688e+00
      2.4450835718615577e-01 -8.8332313947729324e-01
      -2.8843493016235886e+00 7.3477157830593587e-01
      2.0211767434422478e-01 8.0234787155371534e-01
      -1.2887064990034136e+00 1.3648621183112604e+00
      1.7814358451722969e+00 -3.6173865254445530e+00
      4.7908551098450936e+00 1.8260905659285696e+00
      -3.3344858581895176e+00 9.9147384327909749e-01
      -6.7068115432731068e-01 -6.6088060200700560e-01
      1.3138578040892701e+00 -1.1144062725812574e+00
      4.9994717976395497e+00 3.9395942050762160e+00
      -8.4119463341115419e-01 1.1296366227704728e+00
      -9.1696052129252981e-01 -3.8142733228549650e+00
      1.4173531206651659e+00 2.5689067955221425e+00
      -2.8879070616062714e+00 -1.3953213744086437e+00
      -4.9863048688009687e-01 -5.1082946009705377e-01
      -1.3565141141033157e+00 -2.5535962895896930e-01
      3.6085279653579971e+00 -2.1520875972217093e+00
      -1.9398870980978619e-01 -2.0432659795008128e+00
      1.4588704921304394e+00 -2.4458804368325158e+00
      -1.4787711891485529e+00 -1.3305579491601711e+00
      1.4254583118667481e+00 -1.9576896908130845e-01
      -1.4169807419153944e+00 -2.9578550363639139e-01
      -1.8414001961854822e+00 -2.9881916503866490e+00
      6.5904745843168377e-01 -3.5238716474924838e+00
      1.0179187131479899e+00 -1.1891108897020843e+00
      -1.6968217424232321e+00 6.9947918929975184e-01
      -1.7897048939324967e-01 1.9112661575757390e+00
      -4.2509784489537344e-01 2.2110679532119981e+00
      2.9058325376455647e+00 -2.4703605401962099e+00
      2.1337721501735496e+00 2.7401017545039843e+00
      -1.0843974939682330e+00 1.0476714685764141e+00
      -6.8970782799839603e-01 -1.9489652100762764e+00
      -9.7467652887389089e-01 -2.0939557618453541e+00
      3.4941486693361581e+00 3.2997821778577303e+00
      -5.2888915337812348e-01 3.1334982809580936e-01
      -3.1780317378750278e-01 -2.9281504203069777e+00
      1.5170979107171616e+00 2.8935547351406781e+00
      -1.6944141049894004e+00 6.8594607197278901e-01
      9.8388143447462093e-02 -8.8755631667970500e-02
      -7.9096730724527475e-01 -7.4652173221077023e-01
      1.2328899626168754e+00 -1.3062687222290714e+00
      6.9711701979952778e-01 -1.6377679202620312e+00
      9.2222255673472098e-01 -3.9582595375881655e+00
      -2.2585494461341442e+00 -4.7350859026299444e-02
      3.0694062187109687e+00 -1.5192634421691644e+00
      -8.3653364476345282e-01 -4.3200200617480428e-01
      6.8706410752879510e-01 -2.1713049279512728e+00
      -7.3038492684376011e-02 -2.3428747692573584e+00
      -6.1193241873849315e-02 3.7773315125158041e-01
      -4.3377403432351337e-02 8.7709175614170617e-02
      -7.0599784480588879e-01 2.0548241102515354e+00
      -1.4918022113742104e+00 2.3323017143656330e+00
      5.3018147044678221e+00 -7.3904652559620188e-01
      1.5637171768901224e+00 3.5187805036582414e+00
      -5.6654972661664005e-01 6.7782806114284155e-01
      8.4364626171290191e-01 -2.8208118077709337e+00
      -2.1743748811048089e+00 -2.5104592977988145e+00
      2.4357341007546194e+00 2.3088061517403586e+00
      3.1882866205201638e-01 -9.0660259437032764e-01
      -1.9465569445829400e-01 -2.4681596779088388e+00
      1.8813023379309646e+00 2.4497105391347311e+00
      -1.5466927530585612e+00 1.5593326308909767e+00
      -2.5988998592802892e-01 1.5662196972071874e-02
      -4.9067313523330774e-01 -2.9548819514230540e+00
      2.9345309749084469e+00 -6.1810128721335900e-01
      -7.2225737681265101e-01 -7.1438607230150064e-01
      -1.2366605579886544e-01 -2.7989996747036030e+00
      -1.7584039984099187e+00 1.4425351797971528e+00
      2.2741313460556984e+00 -2.3634981482557875e+00
      -9.2310774942939566e-01 1.2175786336763342e-01
      3.2982528604893173e+00 -1.0869196407360231e+00
      1.6977157483701633e-01 -1.9018703070149943e+00
      -1.2596536803837510e-01 8.3762257890612657e-01
      -3.9400749423481352e-01 2.4806632862679850e-01
      -1.6603188609643373e+00 1.0252213999549731e+00
      -1.8109978109155742e+00 1.7448936031091598e+00
      4.2649405642343847e+00 7.9051352977042841e-02
      1.1811409390790384e+00 2.8504851519253127e+00
      -5.1018640312334301e-02 -1.8216275291861053e-01
      5.3372018940190347e-01 -2.2419039564373775e+00
      -1.3572405205950757e+00 -3.2705813212405741e+00
      1.1347553749438604e+00 1.0728603947089508e+00
      1.6166309394588536e+00 -1.4011020082719936e+00
      3.5140054963069864e-02 -1.9821214901947959e+00
      7.5023067971604585e-01 2.9726679217596561e+00
      -2.5924078272776052e+00 9.9768286635478931e-01
      1.8862129536172900e-01 1.1675055040149076e-03
      1.5526232082050437e-01 -4.6665646936255909e+00
      3.1640747141857783e+00 -2.6469868456238776e-01
      -1.7673870159117580e+00 -1.4767311907880756e-01
      -2.6134091087530725e-01 -1.2908403907420476e+00
      -1.5957840269913515e+00 2.7985778427296872e+00
      1.9503681051210433e+00 -3.0905239855564184e+00
      -9.1062903582984367e-01 1.5902657216456915e+00
      4.2161505180005614e+00 6.3817170616026120e-01
      1.1819307609317575e-01 -2.4107778995939833e+00
      -1.2003027520634332e-01 -1.3479253011209155e-01
      -1.1490714718390933e+00 4.2838252535305649e-01
      -1.8966782339089916e+00 3.1922358087588254e-01
      -8.4370934419064603e-01 6.8992619243421038e-01
      1.0623525114067454e+00 8.4800714003370214e-01
      -1.2278793181932053e-01 3.3301345207629857e-01
      1.6097651588557121e-01 -1.5968543344233585e-01
      1.3995753780854787e+00 -1.5957033208462712e+00
      2.4632791507825852e-01 -3.3447636283381867e+00
      -3.0305459297760506e-01 -5.4825626021073903e-01
      2.3326415945380736e+00 -4.6892615415443289e-01
      -5.2090627972261927e-01 -8.1268196234002466e-01
      -8.2724723876673112e-01 4.3583863846691102e+00
      -3.0225907604501816e+00 2.6798320272051984e-01
      1.4005359666725852e+00 -5.7562094522251774e-03
      1.4610399005766044e+00 -4.6749324686874738e+00
      1.7018010192200992e+00 -2.1509553630118255e-01
      -1.0948750894272443e+00 -1.0229155117123674e+00
      3.1321434916481827e-01 -9.0748464570525655e-01
      -1.7657263342370968e+00 3.8498009232157573e+00
      1.9722575562808298e+00 -1.7920563160151524e+00
      -1.5013132392618822e+00 2.6679337951969204e+00
      4.6923257898406874e+00 1.7879192785320668e+00
      8.9903634873808402e-01 -2.9537700227961299e+00
      -2.2901023851252414e-01 -9.9343673905824070e-01
      -1.8479977569255286e+00 -1.8766199968484334e-01
      -2.7395377905396701e+00 1.1752000327724983e+00
      -6.2305817840544853e-01 1.1822189502906437e+00
      -1.1063406333735095e+00 2.3427825441995322e+00
      -1.5130589981753975e+00 -2.4751199229429361e+00
      -1.0209145147336294e+00 9.5363924649289411e-01
      3.1046839233993584e+00 -1.8251360519576707e+00
      1.9457137055435649e+00 -3.6272588430084585e+00
      -1.5709192972806545e+00 -1.4320294754967151e+00
      1.8915395299293767e+00 1.1125749935017444e+00
      -1.2052814367948461e+00 5.3602392530661680e-02
      -3.8679095854147028e-01 4.7207442777801818e+00
      -2.8275051937939231e+00 -4.5065316332684069e-01
      1.8198472282611093e+00 6.2230228224821693e-01
      1.9545466727993601e+00 -2.5162351749720648e+00
      -5.3138027924410625e-01 -1.2620916903619810e+00
      -4.9901605918425290e-01 -2.3888636359713362e+00
      1.4367412898331735e+00 -9.5598734995550916e-01
      -3.1618211741861084e+00 4.6317472323604267e+00
      2.5342960508337073e+00 -2.5176379162773954e-01
      -3.1456146214284844e+00 2.3669909605331347e+00
      5.1570562529805475e+00 8.0484955531865499e-01
      2.3857570025069514e+00 -3.5513640333704140e+00
      -6.1280822640014310e-01 -4.2916001630150347e-01
      -2.1934073918025399e-01 -1.6863968116837751e+00
      -3.4543356847740618e+00 3.1262712498891658e+00
      -6.3280036251987271e-01 2.1121434382224544e+00
      -1.2834554499785236e+00 3.1959900861280839e+00
      -1.5882259391622084e+00 -2.4388435894573686e+00
      -3.2972504779758292e+00 2.7377646240711608e+00
      3.0435968401889073e+00 -2.1381206902840981e+00
      3.2533244821253295e+00 -4.1815947196074781e+00
      -2.8175428358233114e+00 -1.3248634573055436e+00
      8.1971258932441682e-01 1.6082023878638725e+00
      -2.5444663046355456e+00 6.0434701547762282e-01
      1.2222430710314254e+00 4.4366069474353687e+00
      -2.2133680537884812e+00 -5.8306916227689287e-01
      1.3121498484542384e+00 1.1547534338638359e+00
      1.4421227263727576e+00 -1.4347280097280068e+00
      -4.0598231474430424e+00 -1.7995796984387076e+00
      1.2657043924148756e-01 -1.7752137124217895e+00
      1.8295341264621066e+00 -1.1516302382002457e+00
      -3.8469986669491556e+00 5.1783188143048431e+00
      3.3249859347909005e+00 -1.1217197612897973e+00
      -3.4803266507494337e+00 1.2679724752291892e+00
      2.6968340062441669e+00 -1.2642942089318854e+00
      2.8673638815680351e+00 -3.1265394126891501e+00
      -7.3451229708259991e-01 8.6507166113063222e-02
      1.3536196316303202e+00 -1.6117721608818427e+00
      -4.0239494845698678e+00 3.5994189036985658e+00
      -1.0029489270565886e+00 2.4523670030101909e+00
      -1.0785457883091552e+00 3.3264264876659313e+00
      -5.5630051019910998e-01 -1.6064362169071189e+00
      -3.7390449310137108e+00 3.7352974940740653e+00
      1.6978299881551122e+00 -2.5120055871249498e+00
      3.5726560182788516e+00 -3.7955757158707666e+00
      -2.5955014211670058e+00 -7.7861080480012157e-01
      5.8405194734760635e-01 1.0050056515031678e+00
      -3.0130782774287432e+00 1.5007346410802205e+00
      1.4865079885216481e+00 3.6154809197780198e+00
      -2.1672641948032978e+00 6.1064409636319517e-01
      4.7760902732524524e-01 1.4043860783987556e+00
      1.0948982179921438e+00 -1.3165400131053380e+00
      -5.1552179197740600e+00 -5.4563676557241803e-01
      8.8109721360373694e-01 -1.1200710325182381e+00
      -1.6094574958888239e-01 -1.8849146698572159e+00
      -1.3033413271077274e+00 5.1489035130775704e+00
      4.1897819418958431e+00 -2.7039398616056327e+00
      -2.4595193995148548e+00 1.2659030031203433e+00
      2.3902288188892770e-01 -7.9056669190447726e-01
      2.1502845386294025e+00 -2.8571063157443288e+00
      3.3932111394668252e-01 -7.8748375644624460e-02
      -4.6630114142066753e-01 -7.7345217750898121e-01
      -3.1560196970864274e+00 2.6431779365566448e+00
      -1.2789924756119952e+00 3.0606148607128087e+00
      -1.6828938483187224e+00 2.6173820429785346e+00
      6.6627648468131317e-01 -1.7246580133111511e+00
      -1.7362731392182429e+00 2.5757426607365241e+00
      -2.4860242566272971e-02 -3.3492868975748058e+00
      2.7482429510027262e+00 -2.2892949761532551e+00
      -5.9297482276761637e-01 -7.1790624860610219e-01
      1.2013412853236201e+00 1.0794177666554627e+00
      -2.8783887184703749e+00 1.1744844129751575e+00
      6.6814294543012454e-01 1.9666394992879155e+00
      -3.0702700646139527e+00 7.5931685178627040e-01
      -1.2432367691937565e+00 1.4033116777567163e+00
      1.3618286858505184e+00 -1.2488308889518671e+00
      -3.7550909045706824e+00 4.2220995572327426e-02
      1.3647187305649937e+00 -1.4930348551105743e+00
      -1.6720899630252450e+00 -2.7385143741610158e+00
      1.0945906699863253e+00 5.2053401119254978e+00
      3.4273114312042101e+00 -3.1952268597812195e+00
      -2.5438996135833034e+00 1.4210714269293954e+00
      -1.5430794379717645e+00 5.2166963968155666e-01
      8.7444384919700313e-01 -2.5453409053661931e+00
      6.5354121766306927e-01 5.5697377370757761e-01
      -2.0444041349308413e+00 -9.2809454515962786e-01
      -8.9303294027717839e-01 1.3616674081846112e+00
      -9.7345808615077078e-01 3.9449384313280635e+00
      -1.4657108773307319e+00 1.2094300629249823e-01
      1.2048336240520305e+00 -2.1206998296773354e+00
      7.7410030853153589e-01 1.3387833469928472e+00
      5.5686376545423155e-01 -4.6419757437748608e+00
      1.7827822782552234e+00 -5.3092644238223996e-01
      9.0762174517920258e-01 -1.3255111775450679e+00
      1.6678803388832444e+00 2.1179074580198689e+00
      -2.5795182732084543e+00 4.6887839982698121e-01
      -3.9303831964242147e-01 -1.4726597220834675e-01
      -2.8319981327929140e+00 -5.2838461706862283e-01
      -2.9168612796241482e+00 4.0688128493516312e-01
      2.0126201457719390e+00 -7.8037007518901036e-01
      -2.3646559722822982e+00 -4.9160066220409226e-01
      1.8518325210902757e+00 -1.5461894564283369e+00
      -1.5933867617020283e+00 -2.5187691795456044e+00
      6.5167943393906402e-01 4.4315609288019751e+00
      6.9003062043217900e-01 -3.1893015274858896e+00
      -2.9780222652667803e+00 1.8657197912699985e+00
      -2.2136329242706894e+00 4.4608956910958103e-01
      1.4834606760478819e-01 -1.0569795953966610e+00
      2.5956743538340293e-01 9.1789037000423179e-01
      -1.7248661307886846e+00 -7.5874863211011623e-01
      9.6454982316720350e-01 9.1254746023714717e-01
      -5.8151885686843741e-01 4.1721172796399610e+00
      -1.1440272707605690e+00 -1.9598905981363837e+00
      5.5678986602278457e-01 -1.7074148834661951e+00
      1.5916606857556750e-01 2.3922398537573364e+00
      2.0749210306459460e+00 -4.4276850902767215e+00
      9.3335283473705358e-02 1.0304711355748204e+00
      8.0103425439785736e-01 -2.6509700709289197e+00
      1.4735513345339986e+00 1.3937920990961954e+00
      -1.5700611421797193e+00 2.0597463018908627e-01
      -1.2816763677706322e+00 -1.0319183317087484e+00
      -1.5436932493204434e+00 -1.0256850618379270e+00
      -3.4210879551790474e+00 -5.1911057607810995e-01
      2.5028511985749318e+00 -7.5027562401062942e-01
      -2.0473157823264181e+00 -7.7853319362004780e-01
      1.7740056167125058e+00 -1.5490826268181396e-01
      -5.5307470396186820e-01 -1.5449767658859743e+00
      -6.3368152090430896e-01 3.1084075347614770e+00
      -2.0953684925153016e+00 -1.6954914344458596e+00
      -1.1763699105966288e+00 2.0970606062347841e+00
      -1.3823245756557496e+00 -4.2149944345833837e-03
      1.2034986455655488e-02 -2.4344470941749091e-01
      -4.8910611607545723e-01 1.0194462329524636e+00
      -1.1420393825611153e+00 3.7928341308570585e-01
      9.3574988956851590e-01 1.1023097854046693e+00
      1.3496881157618448e-01 3.3202383463714646e+00
      -9.7694308236365679e-01 -1.9003128283862525e+00
      -6.2277062213417433e-01 -1.0431799418553220e+00
      -2.1333728221213875e+00 2.8117096606704868e+00
      3.2899376734246117e+00 -3.2160559844214145e+00
      -1.1074158820838091e+00 1.9253863460928002e+00
      -2.3477037224927214e-01 -3.0633102657001499e+00
      1.3876035837185232e+00 -5.3941952951987837e-01
      1.7392369935031706e-02 3.7677059921295303e-01
      -1.7025663119960708e+00 -2.2361617061963268e-02
      2.8255321905730169e-01 -4.0909190542350227e-01
      -1.9750135060903382e+00 -9.2997293538088188e-01
      1.1673596821745105e+00 -1.5212006989984497e+00
      -2.3643211320823041e+00 -1.3264225916557917e-01
      1.6826160500839540e+00 1.3579822761690794e+00
      2.1059179813945544e-01 -4.0940723478634572e-01
      1.6181309800206650e-01 2.2953032098069039e+00
      -3.0781703149961142e+00 -1.2491834821707722e-01
      2.3454914756970275e+00 1.5883441173769270e+00
      -1.4698963309297197e+00 3.3994863051590918e-01
      -4.5180116811913013e-01 -5.0814969298060975e-01
      -1.4264378157702191e+00 2.1659529698511751e-01
      3.0009552845905973e-01 1.2265062636694681e+00
      5.9218231632169460e-01 -2.2818272544608365e-01
      1.0926234045965304e+00 2.0157461526040086e+00
      -6.2635182711190274e-01 -9.5823899144731417e-01
      -1.3502334410199681e+00 -6.8096811850691918e-01
      -2.3765940516186785e+00 1.1296330177904299e+00
      4.4778327823017907e+00 -1.8688504192684492e+00
      -9.8794574569738225e-01 1.5305987395859872e+00
      -9.2943556746435174e-01 -3.4590365178011253e+00
      1.9445960257547792e+00 -6.7712581763320656e-01
      9.7145421832050627e-01 3.7686480899685665e-01
      -8.9238993161594771e-01 5.7604770207198019e-01
      2.0010693286622852e+00 1.3972923116622797e+00
      -4.4542858101315141e-01 -1.7184631680929210e+00
      -4.2412171967028278e-01 -2.0147523105723555e+00
      -3.2440110171037606e+00 -2.4606629478086123e-01
      2.0880373507634706e+00 1.2485123080935869e+00
      1.1451917357928920e+00 1.9952618368371997e-01
      1.9227469394845862e+00 3.0972388086130556e+00
      -3.1629094282582337e+00 1.6285855295124077e-01
      3.1964287175143031e+00 3.1211391313609066e-01
      -2.4212176157015244e+00 8.4758717815754514e-01
      -2.0557085105651831e+00 -3.0927561191985975e-01
      -1.8514456553313019e+00 -9.6111350778874804e-01
      1.0280186163462999e+00 1.5755640106378159e+00
      1.6426559415442556e+00 -1.9643891117563088e+00
      8.3820767851635880e-01 1.2061435582005300e+00
      -5.2305491821194927e-01 -5.3989831352381090e-01
      3.9510456487998440e-02 -7.2297664051789279e-01
      -2.5904252306588300e+00 6.8147990122368329e-02
      3.0467883474950730e+00 2.5348564861337020e-01
      2.4570535426341664e-01 -3.2658977502857560e-02
      -1.8221180235829391e+00 -3.1208621941850052e+00
      2.5165840515749127e+00 7.2051199802049992e-01
      1.2385738155909856e+00 2.8706436952480296e-01
      3.7275625066717605e-01 3.8689325859911772e-01
      2.4485017905170716e+00 2.5182235811181415e+00
      1.0599682135291397e+00 -2.6119537965495914e+00
      -7.9597924071539050e-01 -6.2962660982150753e-01
      -1.7153856615547638e+00 -1.1851806362865174e+00
      3.1444270841280004e+00 -4.6713705360755120e-01
      1.8962784993879171e+00 1.5179370090535263e-01
      1.5441153329046624e+00 3.5685765054524508e+00
      -2.7044136959869700e+00 -5.2690155752734691e-01
      1.1554331910947218e+00 6.1323104974451947e-01
      -3.1824662840262192e+00 4.2731089980395193e-01
      -3.3849047201964977e+00 -1.5879435202688949e-01
      -2.9650923336581245e+00 -1.2988033540666730e+00
      1.1478123603322372e+00 1.0424760527061627e+00
      3.2980236023526022e+00 -1.2146111456255344e+00
      -2.6630679776911753e-01 3.8633243567452585e-01
      -2.1049903673287865e-01 -7.3731673652690388e-01
      1.7895287355094065e+00 -1.4292883447536986e+00
      -2.1306033335006012e+00 -2.6388702573342665e-01
      7.9229016082107506e-01 8.0602577769944828e-01
      1.4624056692002587e+00 -1.9891717968409478e-01
      -2.1431231421057864e+00 -3.8833298085322472e+00
      2.8985598672670982e+00 1.9015157993364002e+00
      1.9822633191955576e+00 5.8415655277025835e-01
      1.1859462649549408e+00 8.3729593261249413e-01
      2.0799978747320562e+00 1.8069286432300402e+00
      1.1081745005824193e+00 -2.3968965364530717e+00
      -1.3742740750041205e+00 7.8162574578013100e-01
      7.9062232021430379e-01 -6.0752111493189720e-01
      2.9003633341758661e+00 -1.3617150670026836e+00
      2.0314326317309535e+00 -1.1791589623662677e+00
      -6.7918459318337443e-01 2.6764962265888190e+00
      -1.4639482023502168e+00 -5.9588118384810951e-01
      -5.4355881263402150e-01 1.1673880927935685e+00
      -2.9554562764328485e+00 1.8993297680513285e-01
      -2.6675424304371553e+00 -8.1760352379169854e-01
      -4.5008923241935550e+00 -4.5996943848561872e-01
      1.1474504065189834e+00 -5.0746753646738407e-01
      3.8858369220332922e+00 -2.0055352984851224e-01
      -6.8744516288174884e-01 -3.5966719940442105e-01
      6.7747382451881011e-01 -7.6149626160339678e-01
      1.7433227665376214e+00 -2.2670882342719731e+00
      -6.3817416800072324e-01 -1.1988247637676384e+00
      -4.0609125595721351e-01 -3.3412449913951342e-01
      2.0370783379964714e+00 2.3303585203092569e-01
      -2.0966832031917058e+00 -4.3905667036205580e+00
      3.2533628270219777e+00 2.2690860366366943e+00
      3.4865226521077526e+00 5.2645153272576806e-01
      6.8666632155651608e-01 1.2353448349012943e+00
      1.6460174830418401e+00 -1.3774333752608439e-01
      6.7272283491713247e-01 -1.4481004677302340e+00
      -2.1072928597676968e+00 1.5177878708992454e+00
      1.7597792111989650e+00 1.2403421411702710e-01
      -3.3096372311656554e-02 -4.5825606961747084e-01
      1.5362701906156260e+00 -2.3192113605279605e+00
      -3.0347527786196946e+00 7.5977961576865438e-01
      8.2602200641903448e-02 8.8324953266442463e-01
      -8.4549060942431009e-01 -8.6863951566421266e-02
      -3.3719716347514059e+00 -1.7642740017913394e-01
      -1.6428618047611510e+00 -1.4789934667540496e+00
      -3.9548322434798067e+00 6.5691854192334198e-01
      9.1169831526990863e-01 -1.2146609892385163e+00
      3.7307224566277308e+00 -5.3911293185503684e-01
      -7.0915334961707610e-01 -2.2738493825965986e-01
      8.1763338494194548e-01 -3.3779942070768970e-01
      1.0187652809244792e+00 -2.5265617749107143e+00
      6.8352581072184865e-02 -2.1351062528321698e+00
      -1.1705818719663721e+00 -3.4680491978091238e-01
      1.2099824758997397e+00 1.4588430494525015e+00
      1.1432174709142652e-02 -3.1800676778896033e+00
      3.2952187777253661e+00 1.9909971799574688e+00
      4.5879201757518624e+00 6.8945134439303196e-02
      -4.4067408561351828e-01 2.8616904835585832e-01
      1.2343129032765796e+00 -1.6198777304062029e+00
      1.6558878525173251e+00 -9.5551059204572519e-01
      -2.0496991288008517e+00 2.3135779732126260e+00
      2.1088995333929685e+00 1.0256336334302121e-01
      -1.5361124042054222e+00 7.0693584778189789e-01
      8.9420360452095238e-01 -1.8996432501575515e+00
      -3.9149167022303293e+00 -6.1502773112565057e-01
      7.5647406275104759e-02 2.2484842971155308e+00
      -1.3119045052524385e+00 -1.7575018887816172e+00
      -2.1983534208249402e+00 -8.9953973324234417e-03
      -8.6276031618676996e-01 -1.6579984225127911e+00
      -2.4037242515031307e+00 4.4533005264190550e-01
      7.7820859469941051e-01 -2.5130496849127598e-01
      3.5182347526894269e+00 -9.8586202453994287e-01
      -7.5964922711039151e-01 -2.8914510205277993e-01
      4.9814774704477080e-02 -1.1289767143106777e-01
      6.8666196880852159e-01 -1.9237319718894710e+00
      3.1985097227839976e-01 -2.1544108940793376e+00
      -2.0471045707898767e+00 1.7831434226801894e+00
      8.5827918555724761e-02 1.2267853698177726e+00
      2.2055427709536946e+00 -1.7825191215427887e+00
      2.1769272045037615e+00 8.5797632448976802e-01
      3.4467832203353965e+00 1.9905330674697588e+00
      4.3644932652534529e-01 -1.1442102517988180e+00
      1.3458394990018632e+00 -2.1683185397443938e+00
      1.0101455000102275e+00 -1.2961769217026591e+00
      -8.6372174706821880e-01 2.0798111643869639e+00
      6.1857008083410392e-01 5.2124786612839191e-01
      -1.7872343832533746e+00 1.5699309558048846e+00
      -4.9726713112905296e-01 -1.1760526019533775e+00
      -3.2184806812690829e+00 6.2430830268645793e-02
      -4.6791041906521835e-02 1.3750644263285250e+00
      -6.6807579798609440e-01 -1.6347522910219940e+00
      -1.0189132162502306e+00 1.0998047242599613e+00
      -9.5082736207296470e-01 -1.7102302751602796e-01
      -1.9440212495738109e+00 -9.9628889581132507e-01
      2.3595965706606351e-01 1.5223224368077445e-01
      2.0352271379947542e+00 -4.4822896140608715e-01
      -6.4888914620417223e-02 1.9965621138019402e-01
      -1.0290787088670688e+00 -6.4322998381624608e-01
      6.5718708339531862e-01 1.0906021034680755e+00
      -6.1853359075464587e-01 -1.0447867538286582e+00
      -1.2404597730305129e+00 2.2457901506219025e+00
      -6.5573109697930509e-01 5.1252522640720288e-01
      1.8315168967808251e+00 -1.2154012416227633e+00
      -9.7235312686793818e-01 -2.6458240159037599e-01
      3.1788437328169300e-01 2.7432264800450992e+00
      1.3203330061978260e+00 -1.1406821412297243e+00
      6.7304342492200053e-01 -4.8040846105530982e-01
      1.8769103724331222e+00 -9.0644139379007871e-01
      8.9377700797398985e-01 3.8942508221005367e-01
      -1.1516467881996788e+00 8.2303156807924649e-01
      -9.3712527921626043e-01 3.1405323269509395e+00
      -1.2224945669790339e+00 -1.9737055417531144e+00
      -2.0214695795547191e+00 1.5843069361689215e+00
      -4.2494915576156989e-01 5.1215505826993149e-02
      -2.0271689929676540e+00 -2.8996462702171022e-01
      1.5439066545386522e+00 1.4594113798176993e+00
      -1.4583294893534309e+00 5.0227233025054252e-01
      -5.7621503792045281e-01 -1.6492022982207202e+00
      -1.3434337011059572e+00 1.3895111432417762e-01
      3.5934005367312358e+00 -4.3244416938628794e-01
      -2.9160040537058490e-01 -5.0884869630986884e-01
      -2.0471425019526759e+00 -1.1586022726510359e+00
      -1.1980847559478389e-01 1.3847413060771918e+00
      -1.5211750062040423e+00 -1.4696596805129944e-01
      -5.2493567764090732e-01 6.7165021475138775e-01
      -8.9938305922388961e-01 8.3182632709066751e-01
      8.0922254949237038e-01 -9.5583072565627114e-01
      -2.6948934144470849e-01 -3.3311793125840550e-01
      -3.4290456217089010e-01 2.6557573113747721e+00
      9.9139833464812355e-01 -1.1310711291803572e+00
      -2.3290971962861967e-01 7.1352835133449111e-01
      2.0820961642191889e+00 -2.4628756020569209e-01
      2.0820908276667569e+00 -1.1881816721947278e+00
      3.7852126640785722e+00 -2.6644824859681266e+00
      -1.0680853699387922e-01 -2.3209192904916636e+00
      1.6804865091663816e+00 9.5598677188543302e-01
      3.0383832536123428e-01 -1.8069109720073382e+00
      -2.6204686277111828e+00 1.5013704179093705e+00
      5.2199079974121476e-01 -1.3546106123029609e+00
      1.6758116184229146e+00 -1.1928366241804833e+00
      -4.3319446129150330e-01 -2.4038737947786251e+00
      -1.0171551965716359e+00 -2.8746481520979739e-01
      -2.1192621700283829e+00 8.5677049465600327e-02
      1.8165528915692821e+00 -3.6185492451069884e-01
      -2.5551734325390091e-01 7.3387495316849294e-01
      2.1063030930548790e-01 -2.3269599385323763e+00
      4.3252950177045886e+00 2.1516497109190240e+00
      -2.9488702395069084e+00 -2.0123568592930532e-01
      -1.8982411686311229e+00 6.9518962782669080e-01
      8.1515214644345735e-01 3.1063943868822874e-01
      3.0636816069155608e+00 1.5203999003045023e+00
      -9.9306853215644231e-01 4.7252901845743628e-01
      1.2212762103413299e+00 -3.3418174519349932e+00
      2.0931059483251122e+00 2.4923939557459005e+00
      -1.1032564264279177e+00 4.6631759411802165e-01
      -3.6583957705772674e-01 -1.0046081582613315e+00
      -1.6264987307716272e+00 -1.4494754513726522e+00
      3.0551442602355094e+00 -2.3677209837946722e+00
      -4.3970684379670522e-01 -2.4000295873927335e+00
      9.5378155503073014e-01 2.2453406129465536e-01
      1.7662648324435948e+00 -8.1364642105958362e-01
      -1.1889288221405880e-01 1.9402717449702067e+00
      1.7278417120128440e+00 -1.1958215990756302e+00
      -3.4842978590141588e-01 -7.7035668103317245e-01
      -1.3055449642660910e+00 -1.9969490463539754e+00
      -9.1006754541943524e-01 -9.1764687404094783e-02
      2.1525747318238217e-01 8.4455777624395867e-01
      1.4207856748024605e+00 -2.9157711743623839e-02
      6.6482221766932370e-01 1.8040175392330249e+00
      5.3285620547273460e-01 -8.8684674952743370e-01
      1.7670253186042775e+00 1.8573987679239343e+00
      -4.6128595437645650e-02 2.3473775599496263e-01
      -2.0908092217965453e+00 -7.9592144783416185e-01
      -1.1958019441730587e+00 -9.1293060478214361e-01
      1.5719179293047778e+00 6.5894708982374361e-01
      -5.2251075595164365e-01 2.0903910965929098e-01
      1.6422323067457889e+00 -2.4640921864174667e+00
      1.0207527172225255e+00 2.9148209907357479e+00
      -4.5282776763699567e-01 1.2539441743400743e+00
      -1.6909902593494058e-01 -6.9139788916404865e-01
      -1.0854430740401293e+00 -1.9881602357800270e+00
      1.5296794216284453e+00 -8.7998915225162699e-01
      3.7184415217898370e-01 -1.9772459663681865e+00
      1.0155738565734234e+00 -8.4072973688517094e-01
      9.1968817608013276e-01 -2.0632401359856317e-01
      8.3719939806777888e-01 -2.2510507071928490e-01
      1.4899385015958126e+00 -1.7313380580212223e+00
      1.0212783907797884e+00 -1.5895118393597563e+00
      -1.7696900804925719e+00 -8.2055162029829998e-01
      -1.6027354554626880e+00 1.0713831917974461e+00
      1.8150007697999559e+00 8.8614471235545045e-01
      8.1134496752152674e-01 8.5732789257038911e-01
      -4.7902817362029167e-03 2.0439331132040328e+00
      2.8192597597273927e+00 -2.4651032177483441e-02
      2.1042178530514333e+00 9.8117010699678620e-01
      8.5016868945691282e-01 8.2652587683280887e-01
      -4.5290677941950092e-01 -1.7261507153512818e+00
      -1.9810558908126477e+00 -1.9841107500201725e+00
      1.4945240421819372e+00 -5.7463150737652813e-01
      3.7415147596595671e-01 4.6276135505768440e-01
      5.6464218571562774e-01 -1.9650054109496655e+00
      1.3084519601235928e-01 1.6996333868174984e+00
      -3.7566795878917875e-01 1.8032775185763070e+00
      -1.1272254620596758e+00 2.4441635749597290e-02
      -9.1226571981497873e-01 -3.2858058673331447e+00
      2.5125430531121418e+00 -4.8304762220063946e-01
      -4.1609670777801910e-01 -8.8536166496544411e-01
      7.7035580683345362e-01 -1.0858577340237838e+00
      4.8822472781163989e-01 -1.3372053413658455e-01
      1.0426699511641820e-02 -1.4141914918888487e+00
      -2.6161887793035705e-02 -1.8015104230728383e+00
      2.5191078721010318e+00 -1.7494117745326168e+00
      -9.3462453972225878e-01 -6.2609020301529683e-01
      -1.6115835424312728e+00 1.5790508274970736e+00
      2.0243350418544503e+00 1.5001825648904159e+00
      -4.6018874027339923e-01 8.1203709463982565e-01
      -3.4639905825135281e-01 2.1262429859734757e+00
      2.9357203173855910e+00 5.3713682965857837e-02
      1.7488764228284661e+00 9.5437054221266771e-01
      1.0479277682136348e+00 9.4802290803439460e-01
      -1.0510417388856177e+00 -1.5141774486130501e+00
      -9.6999947675922049e-01 -2.7430650865504158e+00
      1.6695208045057663e+00 -1.5256505365759792e+00
      1.7252247678676271e+00 5.2079453182275548e-01
      3.9210942795708198e-01 -1.6695872515983061e+00
      -6.4276113476467311e-01 8.7696749715489541e-01
      -8.5762614223334233e-01 1.4898992900884278e+00
      -1.3115301692558416e+00 4.5084833538619795e-01
      -5.3493311939947219e-01 -3.9375261072472667e+00
      1.9099463287299030e+00 -6.2832031633322949e-01
      -9.8577393228799393e-01 -2.8088584405137290e-01
      9.2021920930105761e-01 -8.3405428192640330e-01
      3.9431943315937429e-01 3.6656865595815091e-01
      -2.9720290627938173e-01 -2.1500903524782684e+00
      -4.4756762117147880e-01 -6.6428038189551830e-01
      2.0061825868129910e+00 -3.5608930047411286e-01
      -5.9577013980267046e-01 -1.0670215178041951e+00
      -1.0869237822176316e+00 5.7931685673520517e-01
      1.6142474978547448e+00 1.8533204465470767e+00
      -1.3877322652496895e+00 2.1121883742746964e-01
      -2.8136163355255356e-01 1.3788377544439587e+00
      9.6287245897450224e-01 3.8682247697023520e-01
      6.0466661649450648e-01 5.4765640898929169e-01
      7.0174675488495986e-01 8.0176307941039548e-01
      -4.2901899882468442e-01 -1.3850120974664639e+00
      1.1767066158808111e-01 -2.4788145153859946e+00
      5.3955007930866428e-01 -2.4628193602550188e+00
      2.1837632254320254e+00 7.5756590527860168e-01
      2.9711264796397280e-01 -1.1650217929129587e+00
      -6.0996504601416135e-01 1.6301629500715225e+00
      -3.1664110843832649e-01 2.8852978506646648e-01
      3.6731915525735986e-02 3.4401682878280215e-01
      4.0485280807199525e-01 -3.1238717294451397e+00
      1.0337005112963340e+00 -1.5474016253899345e-01
      -1.1740037872561460e+00 -1.3304291134661186e+00
      6.5842329295357294e-01 -9.7897618115489959e-01
      2.5887820231111430e-01 1.2579632450454445e+00
      -5.0092651764635265e-01 -1.1215215875406097e+00
      -1.6158131720331906e-01 1.2818652541508642e+00
      1.3804721828802209e+00 9.2029896489959817e-01
      -6.4470857126776493e-01 -1.4843863722911042e+00
      -1.4339483734000485e-01 -8.0843782114101170e-01
      6.8498859593561856e-01 1.0739289545771211e+00
      -1.9752274063338195e+00 4.3182351680311720e-01
      -4.5104157179638343e-01 2.4647330136005302e-01
      -2.7480680089523934e-01 1.6861605784968621e+00
      5.9197800371498555e-01 -6.5562813346670212e-01
      1.0060640132475100e-01 6.7283677569753675e-01
      5.7826729029814483e-01 -1.2329860598081350e+00
      6.7568398034186428e-01 -1.6559231979085347e+00
      -8.0255984408696246e-01 -3.1582929357131597e+00
      1.6085345640234539e+00 8.0448083854506347e-01
      -2.7249898794315969e-01 -9.6749436151927592e-01
      4.6917331939379137e-01 1.8184231575388403e+00
      4.3145952458842474e-01 -9.1914386558675865e-01
      4.8978905179941351e-01 8.9001816855667693e-01
      4.2983521136473107e-01 -1.0963431658507277e+00
      -1.8104097900483332e-01 -1.7977932855598414e-01
      -9.5506788466039227e-01 -2.4884961464740596e+00
      1.1747599842683374e+00 -1.4830245470193355e+00
      -1.2072286178903617e+00 1.6348378147612521e+00
      -2.2624551252345057e-01 9.5789512825054357e-01
      -2.6064788943765793e-01 2.0818953226808348e+00
      1.7138254554833610e+00 8.9245990834320887e-01
      4.5084013671602648e-02 -1.6150237111254460e+00
      3.4579321775149335e-01 -1.3694360929653169e+00
      8.5309156487335769e-01 -8.9808676138235910e-01
      -2.3220289999213808e+00 1.2696259100398102e+00
      -4.9550766710231214e-01 -7.1761250228548915e-02
      1.5311040567810172e-01 2.1793934486960103e+00
      7.8901507430056417e-01 -8.1221529799260739e-01
      -5.9170673623715941e-01 2.0475257853890407e+00
      3.5565247940134476e-01 -6.0273887765150680e-01
      8.5490907697805718e-01 -6.0937706652293644e-01
      -1.2401478231251424e+00 -3.0144743479332545e+00
      7.1274988907573045e-01 -4.4537426930698037e-02
      -8.9377108396312599e-01 -1.3085839675469970e+00
      1.1714294125506663e+00 1.3928744055868365e+00
      7.8843932979527231e-01 -9.3420351539385027e-01
      8.0215857732889528e-01 1.0528369642875672e+00
      -1.0298163681603192e-01 -1.1337031043935557e+00
      -3.0328170952793827e+00 -6.2600433164276173e-02
      -6.6320671931894060e-02 -1.4370928966986243e+00
      1.8119166707072363e+00 -1.3800375637643960e+00
      -2.3420393358997189e+00 1.4608000836863428e+00
      7.9085992468948463e-01 1.2208519097787778e+00
      2.1397117077693900e-01 1.3347972745682450e+00
      6.3520039159921349e-01 -6.1792929197438129e-01
      5.2161249026704726e-01 -2.5086210067913012e-01
      5.7731336160735602e-01 -1.4379499197421548e+00
      1.8766329632641721e+00 -9.1181262455683676e-01
      -2.3255592134830727e+00 2.3437938755256593e+00
      -7.5777002489911471e-01 -3.3849594196446675e-01
      3.1776093487020923e-01 1.9440963292065210e+00
      1.1180966738034670e+00 -6.0893280393323146e-01
      -1.2792146801226962e+00 3.0001857703729531e+00
      2.0257925818477501e-01 -2.7851851197206257e-03
      1.5759816094550887e+00 6.2580059087707574e-01
      -8.9972882073135663e-01 -2.3670103188261531e+00
      -2.4753295914599685e-01 -5.9783443479920395e-01
      -1.1408112383665121e+00 -1.4579799835946476e+00
      7.1617542198575723e-01 1.0521109747070596e+00
      -4.9066773258843649e-02 7.2361873098236495e-01
      1.4501724428090164e+00 -8.3725085202268928e-02
      3.2843616617753241e-01 -1.6559102638332883e+00
      -4.3485690983931127e+00 1.0368226482386949e+00
      4.8891487519279653e-01 4.5930271079650353e-01
      5.4024467555007649e-01 -6.7562603608195193e-01
      -7.0854779414720670e-01 1.2147714807249295e+00
      1.8661550449088704e+00 4.7813906077974572e-01
      6.1216481871470196e-01 1.2043897694561652e+00
      -5.6264686727872748e-01 -5.8600839751629474e-01
      4.0691857011130483e-01 6.3950790644443878e-01
      1.1031367891606634e+00 -1.5472238795924780e+00
      -5.1841469152654951e-01 -4.2799172617135361e-01
      -2.9035506451167983e+00 2.7532722357559893e+00
      -9.0498165900442917e-01 -1.6541853152859912e-01
      -8.9231048219200526e-01 2.1948935276601254e+00
      1.4008737586779907e+00 -7.6747073450427072e-01
      -9.5876625785966585e-01 2.1552348663096232e+00
      1.7350522306546937e-01 -1.5341090382091839e-02
      2.1628047962888877e+00 2.1887964264512894e+00
      6.7289057456842349e-01 -2.3624916972349954e+00
      -1.1514351925353323e+00 -1.0577777884352552e-01
      -1.4108372500334032e+00 -1.1140029957204349e+00
      5.6404912288205367e-01 3.4806062558639506e-01
      -2.0278772150042554e+00 1.0293449307026017e+00
      1.5137492650960716e+00 -4.2758552898692148e-01
      7.1099206329411169e-01 -1.4303758037739747e+00
      -3.6816629416317532e+00 9.9904397901671627e-01
      4.2684892590918044e-01 7.2804284303247691e-01
      -7.9631352132313704e-01 -1.3272786696854681e+00
      1.8556412714770527e+00 1.4663859280178964e+00
      1.3524879600820605e+00 6.1789530205251013e-02
      -7.2409520037370068e-01 9.3214642521528712e-01
      -1.5384928317996014e+00 -8.6807207827697797e-01
      -4.1874794225295625e-01 -7.4780324452030811e-02
      1.3879466667674725e+00 -5.2310063910876625e-01
      -2.4675691056839617e+00 -7.2558063304008902e-01
      -2.1345437187856113e+00 2.0065171882377335e+00
      -1.0073931295053018e+00 4.1701057277723264e-01
      -1.5998846328555860e+00 1.0843719322263004e+00
      1.7032756137035647e+00 -5.3104597260040354e-01
      -5.5931130620978564e-01 8.9030037384538596e-01
      7.4532542627740228e-01 -1.4315407322598501e+00
      1.7607928641970620e+00 2.6023215221916596e+00
      1.6723136190721646e+00 -2.8789971730033694e+00
      -2.1877441192317719e+00 1.4436576751333323e+00
      -1.4517273027967164e+00 -1.9510749959395471e-01
      3.2453705295987323e-01 -9.2585917959003539e-01
      -2.6066256074738132e+00 -3.3724224784357065e-01
      1.4341107572005041e+00 -2.0374200904387141e-01
      7.4724086040209881e-01 -3.8917037956183775e-01
      -3.4009008718875795e+00 1.4220620162035819e-01
      7.5555628667014207e-01 -1.0637259786307712e-01
      -8.2590989551286198e-01 -1.7451246350325813e+00
      1.9233524847560379e+00 7.5465879035192007e-01
      -1.9692850404545809e-01 -2.7080647185901091e-01
      -2.0619681487636519e+00 1.0608024169677659e+00
      -1.3071554467712125e+00 -1.2384765861273708e+00
      -9.4105080946410913e-01 -6.6218448564557095e-02
      1.3572018286450946e+00 -4.1269299400395959e-01
      -2.2191716325118196e+00 -6.1856379057731237e-01
      -5.5888955856195832e-01 1.2672010162247136e+00
      -8.6476038893131657e-01 9.3615638113706989e-01
      -2.7154814083453891e+00 -7.2868150511489027e-01
      1.5065233780981160e+00 -3.1971607411238107e-01
      -1.6276143170038133e+00 2.0854701910093842e+00
      1.2158264149182907e+00 -2.0935797302837025e+00
      2.8446947733294987e-02 2.3009043850304591e+00
      4.8409627835900276e-01 -4.2500458812401529e+00
      -2.1350713111210453e+00 1.9872410437662094e+00
      -9.7727371734197921e-01 9.0513026617894909e-01
      -9.0169802149335343e-01 -8.7563198318629831e-01
      -1.7698428259104311e+00 -9.9521318872370168e-01
      1.5752549790138193e+00 -6.8056019771133647e-01
      4.8719781616876440e-01 3.9088812036750875e-01
      -2.4125015026793610e+00 -6.7827377597173644e-01
      6.0120103337836306e-01 1.4343870546239290e-01
      -4.7211672755571327e-01 -1.5213092760346605e+00
      8.6206279909532779e-01 -1.2862470947109267e-01
      -1.7354096338268405e+00 1.3987860199188515e-01
      -4.0274488323097007e-01 2.0168539382763502e+00
      -4.4502985115474136e-01 -1.2564512361944760e+00
      -9.8747925251714341e-01 3.9447311399422208e-01
      5.7775212645003338e-01 -1.1605640827120582e+00
      -1.3557075553199656e+00 4.5681220992027738e-01
      -9.2764931059504752e-01 5.4081718825472858e-01
      -1.5917416720785327e-01 3.9196797077602047e-01
      -2.4899340274131037e+00 -1.1203867505806402e+00
      9.6697482764130527e-01 -5.0041583580349613e-01
      -2.4262592240285508e+00 3.1541184932542987e+00
      1.6207971687991749e+00 -1.7720118575270667e+00
      -1.6430669892428753e+00 2.3079952614214916e+00
      -8.7729154109050000e-01 -4.5017954514476770e+00
      -5.1250163198770327e-01 1.2493123373897128e+00
      3.6099349701786471e-01 1.0799927184668063e+00
      -1.4863948680795847e+00 1.7469168422147055e-01
      -6.3772387761113891e-01 -5.3376252349514608e-01
      1.3986894696753998e+00 -1.3077626175049356e-01
      -5.6232840435204889e-01 7.5104729978652071e-02
      -2.1252204332997295e+00 -8.6252507490948857e-02
      6.4827891634651058e-01 1.1922038216971671e+00
      -5.1021306486624385e-01 -5.5526258550478591e-01
      1.7567490493642473e+00 -6.3167804173155440e-01
      -2.1322081261405335e+00 6.2411003409560328e-01
      2.8414706618758130e+00 1.4074526816307673e+00
      -4.4176653935298416e-01 -2.0250364889739869e-01
      -7.3900125493012681e-01 5.5065997191368021e-01
      4.1229461910677952e-02 -1.8016787851198566e+00
      1.2871400044351375e-02 1.4566334256701357e+00
      -1.2907083268456132e+00 -3.4709738940285895e-01
      1.1972800842115303e+00 6.3467149857251784e-02
      -3.4304431972762844e-01 -4.3457729245975529e-01
      4.6320693726766321e-01 -6.4348107026851342e-01
      -9.6913756567271769e-01 2.0866911151472407e+00
      1.7804525116447945e+00 -8.2055669597811332e-01
      -1.7291780357050948e+00 2.1613487158218847e+00
      -1.0943952707835978e+00 -4.3586574966741871e+00
      1.4309268309138150e+00 1.4058031778101687e+00
      8.4532607600251353e-01 -6.2697542988489563e-02
      -1.1590730979376473e+00 4.1428543673867785e-01
      1.5286581687452654e+00 1.6895143488253221e+00
      3.1822116175496992e-03 -1.0494377099485418e-01
      -9.1083483359791784e-01 -2.8363893339507945e-01
      -2.2109419286024479e+00 1.7967195640983202e-01
      1.3069396888789189e+00 1.3240382527737427e+00
      4.1768534713956251e-01 5.0019839134632782e-01
      2.8250225478154287e+00 1.4617785423272328e-01
      -1.7834073661770253e+00 3.3706394498306799e-02
      3.4443995538723837e+00 -3.3023394488009167e-01
      -1.0186092223943672e+00 3.7717145469097446e-01
      -1.1203246616201212e+00 1.2893588886598839e+00
      3.4532982579529226e-01 -1.9557622785700874e+00
      -2.1863829171539598e-01 1.5751874402754882e+00
      -8.0721836483967346e-01 -1.3239721312546977e+00
      1.7294044116059215e+00 8.0714337784262180e-01
      9.7342921674399507e-01 -2.7151598316976616e-01
      8.0255834086875799e-01 -3.6164741024814756e-01
      -6.8589467217893840e-01 1.1160263297563704e+00
      9.0257590562588519e-01 4.0803788467245550e-01
      -1.0316111909142631e+00 8.0323542086962163e-01
      -8.6708840850997015e-01 -3.5295344192890861e+00
      1.9361871673404887e+00 1.5621600157460520e+00
      3.6550043882091231e-02 -9.7057263316950815e-01
      -4.7721260732299375e-01 -3.7373659281565563e-01
      3.1184241065100031e+00 2.6542091696689503e+00
      -8.2408925995473203e-01 -1.0637025346285147e+00
      1.2624693716398896e-01 1.1983733232384963e+00
      -7.3000227476788893e-01 -7.6635397383871784e-01
      3.1715519422171057e+00 -5.8865153897223320e-02
      1.9852724084853295e+00 6.1899625924731927e-01
      1.9376065106432139e+00 9.4279287528999955e-01
      -1.4916579023455321e+00 -1.1372685359579617e+00
      1.4085725978482044e+00 9.3523002392805893e-02
      -9.2863514780523659e-01 -1.0600829094288815e+00
      -2.0633254074725484e+00 1.2278384481096773e+00
      2.7963946674170226e-01 -1.8231722327867326e+00
      -8.8123160142863566e-01 9.7169320073468146e-01
      -1.0862280384075035e-01 -9.7950526797236526e-01
      8.5896989477581231e-01 1.4771001889800548e+00
      8.8135437354843160e-01 -6.1426446579414651e-01
      1.7017003373969306e+00 -3.1396084967703286e-01
      -1.0611378165030867e+00 9.3092292457410619e-01
      3.3274579669311816e-01 -1.6806513397949296e-01
      2.2934229761471620e-01 1.7813906565789817e-01
      -9.3037100766447534e-01 -4.1956650390367951e+00
      1.4199963652428120e+00 9.8940991660178168e-01
      -2.5538018055528028e-01 -6.9654028772258481e-01
      3.8178717731065875e-01 5.6542343958920209e-02
      3.6408562758154743e+00 1.8544779807279612e+00
      -8.5878408653622362e-01 -1.1037005813675285e+00
      3.0735473376262090e-01 1.8787958259006317e+00
      4.5414606349222186e-01 -6.8174283674139824e-01
      3.9193885595615350e+00 -1.1570315793532102e+00
      2.6652578234147377e+00 -7.3945711846374906e-01
      -1.9630435370183129e-02 1.6199137466403543e-01
      -1.1516500682614161e+00 -2.2609143130887075e+00
      -2.5911795562830447e-01 1.5751142207810549e+00
      -5.5016071792680166e-01 -1.6851370778977584e+00
      -1.9325346663820406e+00 1.5765579941016672e-01
      -1.0973078287207376e+00 -6.4095884407468973e-01
      -6.5989478983453465e-01 -3.6779875206436491e-01
      3.7561054965337992e-01 7.1034279115897228e-02
      -3.5202781404268052e-02 1.9335148662678707e+00
      1.3566648211999865e+00 -8.9124584038457388e-01
      1.9521861848769879e+00 -5.7587700439495382e-01
      -1.0300600343532729e+00 -2.9780990832375059e-01
      3.1921647563136502e-01 -1.4988263450281778e+00
      1.1561827709151777e+00 6.9288907668249189e-01
      -1.3999426325221134e+00 -5.5635120168807033e+00
      1.0528364155593382e+00 6.5290877610671960e-01
      7.6447645110488283e-01 -4.3716915284034980e-01
      2.5197552542302604e-01 6.7825089048743392e-01
      3.3618352710532293e+00 6.9452570809520742e-01
      -7.9182820418377498e-01 -3.4932332981209568e-01
      -4.3536100301796492e-02 1.8896581772848342e+00
      3.6572089574489192e-01 6.0678134141104990e-02
      1.7354223062649390e+00 -1.4214563665321456e+00
      1.4642083053049837e+00 -1.4434399749197555e+00
      -1.8016463559785589e+00 -1.0826436453428661e+00
      -3.4338007835240497e-01 -1.7157049882254218e+00
      -4.4621515052640914e-01 1.4777861989660632e+00
      -2.1169944037507018e+00 -1.4290535690893080e+00
      -1.6610172415737128e+00 -7.2203074563035707e-01
      -1.4971781811394180e+00 1.2877556413702504e+00
      4.5117947856072799e-01 -1.6121294624464233e+00
      1.1052661441289746e+00 -4.5985680373876354e-02
      -8.4983350428903592e-01 2.1661166367492783e+00
      1.4717202906815821e+00 -8.2816811556712677e-01
      2.0342490538005955e+00 -9.3827660270205937e-01
      -1.1671352759745179e+00 -1.1723719456738577e+00
      1.5420490641499948e-01 -1.2980093069880965e+00
      7.2759118278292745e-01 1.5996313547660814e+00
      -3.4485255969543294e-01 -4.8521979942514193e+00
      1.4001067431589427e+00 1.1105969626585606e+00
      2.2083631951996794e+00 -7.6691613583089702e-01
      -4.5817397042613850e-01 1.2077524866732404e-01
      2.4257301647874532e+00 -1.1505388563970320e-01
      -3.9520343823177977e-02 -3.7116545599556038e-02
      2.9833560219078803e-01 2.0820448086416663e+00
      1.5163703347724355e+00 5.4873256022172863e-02
      2.4013742924433218e-01 -8.2697132676138918e-01
      -3.0686464590758672e-01 -7.5518039184032781e-01
      -2.5029232277754878e+00 -1.3061304694430447e+00
      -2.3211063531103754e-01 -1.6348343912027810e-01
      -1.1348009374632921e+00 -7.3431451301568265e-02
      -2.6616779025888810e+00 -6.2548141516676159e-01
      -1.0747132442649812e+00 -7.5047124287242406e-01
      -1.4262994651578804e+00 1.6392311655764658e+00
      1.4061342310567588e+00 -9.8459245311668542e-01
      2.0537958941242174e+00 -1.3436667155265214e+00
      -1.0270274642384056e+00 9.6092215117764379e-01
      1.3001873056653339e+00 -1.0339011017976283e+00
      1.9107395625687547e+00 -8.7920877350511240e-01
      1.9455239130663401e-01 -8.5209452625924897e-01
      -1.3442309604255842e+00 5.8716812621926473e-01
      -6.6716673559790329e-02 2.6284181994560463e-01
      8.4552112951133063e-01 -2.3543601940969445e+00
      1.2914064729105561e+00 7.2899032148456600e-01
      2.8693070240572487e+00 6.1321748461284198e-01
      4.9984624322094473e-01 -4.8687933064892652e-01
      1.9866284961893113e+00 -1.2861916027627684e+00
      -1.0592498351921751e+00 -5.7417167876642083e-01
      1.0747478234025263e+00 2.6557365364025132e+00
      1.7961404749024177e+00 6.8035151792769977e-01
      -2.0318899132975612e+00 -1.5791719632706983e-02
      -1.8304621456982153e+00 -3.9142048690617776e-01
      -2.5894313035678289e+00 -8.0375456332615125e-01
      2.9098607597104104e-01 1.6183259327003982e-01
      -1.3632467725456567e+00 -5.6877326017739493e-01
      -2.2832950343559979e+00 4.2914094704588762e-02
      -9.5892457594258140e-01 7.8504826105880254e-01
      -2.2039961530765422e+00 4.6427333855936820e-01
      1.4154703256505150e+00 -1.0466960064380242e+00
      1.0938841703458457e+00 -1.8408709095352664e+00
      -2.1164432756609922e-01 7.3890878455535691e-01
      9.1085298040829743e-01 -1.6314150975464314e+00
      9.6100983159339870e-01 9.9114614459769679e-01
      7.5529445940443485e-01 -5.8402802233624274e-01
      -1.5964035740449691e+00 1.4812681246835275e+00
      -4.0488959240093952e-01 -1.4596195859247629e+00
      9.9784172664764481e-01 -1.0620706547668997e+00
      -1.2746061360789971e+00 -4.5810403154518464e-01
      2.1836502535027917e+00 1.1117909251922404e+00
      7.2795032729217723e-01 -5.3613420959835123e-01
      1.8205998601460798e+00 -3.9902976788478756e-01
      5.2132365940134517e-01 -8.9258803718540214e-01
      1.8339204566540466e+00 1.2471280773858080e+00
      3.2115681324825290e-01 1.1571259614262137e+00
      -2.3207731024844822e+00 1.2080272516149564e+00
      -1.9761478985943544e+00 -1.4398414840040197e+00
      -1.7780853077238481e+00 6.1982995151195552e-01
      -6.3915269006965492e-01 -2.7595534597191701e-01
      -2.1820421596205635e+00 -2.8690356843127329e-02
      4.6748034226198348e-01 6.8920691098970233e-01
      -1.2648314182528606e+00 1.4493545029082211e+00
      -1.0540689823975504e+00 -5.1215516502446479e-01
      -2.6878555530327275e-01 -5.1390932648046128e-01
      3.1534114506614834e+00 -2.0876613389957561e+00
      1.2127280418989909e-01 -4.1124585976933289e-02
      -6.6267455689513255e-01 -1.7739649115892053e+00
      5.5124295315810541e-02 1.7030719681840023e+00
      1.8584000908249504e-01 5.4570547226516157e-02
      -7.9223558198578981e-01 1.1702091550539073e+00
      -7.5503447157749282e-01 -2.2556394806896427e-01
      1.0993957081818284e+00 -1.0602932406666550e+00
      -8.6099232901042078e-01 -5.3484896807554838e-01
      1.0291246579037228e+00 1.3819706255110762e+00
      6.5357575205932650e-01 -5.8877087709655151e-01
      5.3999576275884165e-01 6.0556994910156980e-01
      1.8827800171305122e+00 -9.2990502532171582e-01
      2.0861481278966720e+00 8.0777577452839344e-01
      9.2102685352701186e-01 -1.3476087026861987e+00
      -9.1717054323012770e-01 -1.7054134699674088e+00
      1.8751200269848045e+00 2.6290789344164778e-01
      6.5579871672689682e-01 -2.1045173833633379e+00
      -1.5338752182050424e+00 1.7310880201326420e+00
      1.4029266742192681e+00 1.1320326186276383e-01
      2.1790701230917242e+00 1.1862837261422757e-01
      -3.3383768485866244e-01 -1.8744921332157531e+00
      -2.5886322352960587e+00 -5.4727342326581818e-01
      -1.2623964365895901e+00 -7.5714391331258957e-01
      2.3273523806797174e+00 -6.0585934527931418e-01
      1.4723252968173064e+00 -1.0811548732298931e-02
      5.6967276702209602e-01 -1.0449761935520208e-01
      1.1222176384286258e+00 2.1969542210540656e+00
      3.7364941285667319e-01 -3.5164364585978053e-01
      -1.7186114321992092e+00 7.9099569420445603e-01
      -1.0814959814195308e+00 1.3749160085344173e-01
      1.2361201280563001e+00 -3.3862193120956863e-01
      -1.0317267055300094e+00 -5.8633379608705050e-01
      2.0887111408750680e+00 -2.3388134009294546e+00
      3.0808850418276204e+00 1.0335490735742532e+00
      -6.7450570630053261e-02 5.5991215256765980e-01
      -1.2011629726320965e+00 -5.9432895555449350e-01
      -5.5649073153529371e-01 -2.3063040481521151e+00
      2.0603039831852876e+00 -7.6240658538849315e-01
      -9.1961098220687953e-01 -9.9580721957418272e-01
      2.6043473080201102e-01 2.2320191210209850e+00
      2.6399500631249664e+00 -4.9325811682631795e-02
      4.6527242140586822e-01 2.1651006873171013e+00
      2.5221086644241542e+00 7.0560043361610369e-02
      -2.1712598355970242e-02 7.0740544926266413e-01
      -1.1108437006901748e+00 -8.5910896945414739e-01
      -2.5259580099302932e+00 5.1957580677349635e-01
      1.1856875266021956e+00 2.0099850185392360e-02
      7.4357192388908078e-01 -7.9861975793766515e-01
      1.3256364930115005e+00 1.5607390473062777e-01
      7.6989437232777527e-02 1.3741306977970715e+00
      -1.0393558344350866e+00 1.5974862568044503e+00
      1.9270480470940299e+00 6.1004848711138360e-01
      -2.8301694886767623e+00 -5.5389903118290056e-02
      -2.0117809949088175e+00 -5.3950581056312752e-01
      1.9697254621501348e-01 -1.0482699518420149e+00
      -9.9504390475869398e-01 -6.5468037026355608e-01
      2.3649997653542418e+00 -7.1682676851501759e-01
      1.5871955444580175e+00 1.2904648214025616e+00
      -2.0845849281429388e-01 1.2914530856696635e-01
      -2.6467463446398085e+00 -2.4169664179535846e-01
      2.2856287925077506e-01 -2.4519776595157978e+00
      9.2980949263493573e-01 3.9725260672563156e-01
      5.8139193167794168e-01 -1.6869788273589923e+00
      2.6281149427868544e-01 1.9322962653182911e+00
      1.7204875090080574e+00 8.6995197182035922e-01
      6.5332130744163264e-01 -4.9753976016966295e-01
      2.2261331700178397e+00 -7.3348305889150434e-01
      7.0604561202621108e-01 -8.0647100478053380e-01
      -1.2172735173430891e+00 -1.0804220322966815e+00
      -2.9470382889419029e+00 1.6614468839182879e+00
      2.3697543929864828e+00 1.1637696492799138e-01
      -2.1095336161381653e-01 -2.8545055691505017e-01
      4.4241469845915843e-01 2.3144518179095946e-03
      1.1518729171318423e+00 2.8388111659998116e-01
      1.2336771328332954e+00 -3.4152324972280257e-01
      1.9585838516810177e+00 1.2862596713015915e+00
      -2.3084317803462207e+00 -6.1375310781750647e-01
      -1.6948081817247298e+00 -8.9787030436776727e-01
      1.0176208740195973e+00 -1.9902113474975718e+00
      -2.5028890841310159e-01 7.0545401554512033e-01
      -9.4231412111661583e-02 -6.4925627489820070e-01
      -2.6125218110348386e-01 8.5743517436721861e-01
      -7.1549879815945772e-01 9.1499110151915131e-01
      -3.9360788896466188e+00 4.5550942636211467e-01
      -2.0647943582531400e-01 -2.6957299410851916e+00
      1.0815262454793535e+00 1.6504708366950227e-01
      1.7184629646443321e+00 -1.3436319814925797e+00
      1.1312256767021138e+00 7.4693778921579468e-01
      9.6013547324898729e-01 -2.8898690975444297e-01
      6.0351938833898622e-01 -1.5812908468438276e+00
      7.2520143846491969e-01 -1.4395174445106045e+00
      1.2786948056403673e+00 -1.4884260779368934e+00
      -3.0146409287837277e-02 -1.5264604469922467e+00
      -3.1940806131624293e+00 1.9779435407802377e+00
      3.2360034320751709e+00 1.1303342899516440e+00
      -1.0623844601163097e+00 -3.6652445953548607e-01
      -1.7794300685518755e-01 -2.2176208659289634e-01
      1.1168716309789488e+00 -1.4559627142809461e+00
      2.1544714272069769e+00 -8.8775064497703371e-01
      2.4235788397177296e+00 1.5029954403702246e+00
      -2.6680856814429048e+00 -7.9771186399267324e-01
      -6.9404002320980562e-01 -1.4173698668676651e+00
      1.9570985023772995e+00 -1.8300956623705036e+00
      1.2430488226656382e+00 1.8971273184803648e+00
      -3.1835141098785785e-01 -1.2456206107189116e+00
      -1.3313888274587611e+00 1.6161943849754951e-01
      -1.1493605718196835e+00 1.9215000878466604e+00
      -3.1698922486837797e+00 1.1773238429116466e+00
      -4.8578626238387884e-01 -3.0846911037317892e+00
      8.6960946005193107e-01 -6.8011183239900375e-01
      2.1524431326493341e+00 -1.1711874827447490e-02
      1.4502832019832184e+00 9.0675325847993524e-02
      1.3712264575266870e+00 -1.0946769508636245e+00
      6.2588426815408116e-01 -1.8364377235354092e+00
      -1.9810620364400916e-01 -1.4569342111813310e+00
      3.7747248061151073e-01 -8.1564673594127846e-01
      5.9555985832426306e-01 -1.4267610034458502e+00
      -2.6639009112318965e+00 9.5171731208763910e-01
      3.0274539710803952e+00 1.8785831830576736e+00
      -1.8122732046231214e+00 -5.8768880010701530e-01
      -6.2191749022782405e-01 -6.1535069034949186e-01
      7.3352062145509667e-01 -2.0274890379024839e+00
      1.1816606801247926e+00 2.6464541513821955e-02
      2.3926696476233853e+00 1.2357765294461347e+00
      -1.3636272746001716e+00 -1.0077000826593756e+00
      -2.5763612566072680e-01 -2.2645439057557004e+00
      1.6847670076216406e+00 -1.1631370674046986e+00
      1.7719925366954750e+00 2.6956846871324185e+00
      1.5042841457559386e-01 -1.5645694159025985e+00
      -9.3106126166353931e-01 9.1374924362151666e-01
      -5.3477759826939024e-02 9.1014876206031825e-01
      -1.2508460439220328e+00 1.7525921566493130e+00
      3.0143502692564100e-01 -2.2989513646336204e+00
      1.3328672320731108e+00 -2.6914590770326569e-01
      1.0357597905000775e+00 -1.4828588553354033e-01
      6.3386276892522631e-01 -5.0267711767869194e-01
      1.5727198767354276e+00 -7.7745825527031331e-01
      1.5547490511870582e-01 -1.4253889617664186e+00
      6.5942099867576531e-01 -3.8340362516818094e-01
      -1.0333299814782912e+00 -4.7312742266183938e-01
      4.9744161463444991e-01 -1.2850927321812491e+00
      -1.1142008475436518e+00 -3.3552426709781757e-01
      9.0275758466670852e-01 1.3391206177938568e+00
      -2.1354203739368254e+00 7.0529005623431465e-02
      -9.9713469104226893e-01 -1.2201670923151602e+00
      7.2154672807460796e-01 -9.0452724948704366e-01
      1.5025372415125162e+00 1.8149465418911873e-01
      2.1072044494890219e+00 -8.1348027249607768e-02
      -2.4502255596627209e-01 -1.1695634704249267e+00
      -7.7227084360346920e-01 -1.8382534567194753e+00
      4.8009210708232014e-01 -1.2671271365196888e+00
      1.7783611965653405e+00 2.2746993364679442e+00
      -9.0483491978810981e-01 -9.2633254360141082e-01
      2.4301453557720265e-01 9.7612810293739727e-01
      1.3440010598438485e+00 -4.4987292858305616e-01
      -8.4113380603232235e-01 2.3523590832613550e+00
      4.3147019904311767e-01 -1.2507412615243916e+00
      1.4890098931550055e+00 6.9745110457086779e-01
      2.1592355968474494e-01 -1.8145169230885567e+00
      3.4772406069125844e-01 -1.6320646711831344e+00
      -3.8591944866399948e-02 -1.0824195458437294e-01
      -1.2042113194517040e-01 -9.0234307292696547e-02
      1.3707264058447641e+00 1.0902737331128620e+00
      -7.1047741207687742e-01 -1.5997108131859877e-02
      2.8696030475563927e-01 -7.4602340422261582e-01
      6.4755358423713372e-01 -1.2611080460375417e+00
      -7.9249852454769854e-01 -3.8081758063897053e-01
      -1.9460321161419791e+00 9.3974864884859888e-01
      -7.8513316489043306e-01 -1.4632608138669438e+00
      1.4628827398166673e+00 1.1625235767717292e-01
      2.0024217030621689e+00 -4.9070529943062907e-01
      1.4736060883063904e+00 6.0137322545050331e-01
      2.7815636246458515e-02 -1.9869331750787084e-01
      -1.0859889815797061e+00 6.9860819787468290e-02
      -3.3806417404123706e-01 -1.8986137217613872e+00
      1.4468512702539225e+00 8.4887887968215081e-01
      -1.4221925330949012e+00 -1.0040048690950025e+00
      4.6090822353808253e-01 -5.7813221780708128e-02
      1.2482417926587630e+00 -9.3911150211457017e-01
      -7.5087783746983730e-02 1.6090329996589832e+00
      1.3746756721057643e-01 -1.6166069116089556e+00
      -1.3174296304327502e+00 1.8267384674519576e+00
      1.8803573731450862e-01 -1.9112044058780835e+00
      7.8403778631321264e-01 -2.0662167883845326e+00
      -1.5350143659018345e+00 2.5168662488002952e-01
      5.6586329351532427e-01 6.6525895552952885e-01
      1.4113249652675937e+00 2.5631281651779747e+00
      -6.8455832985696774e-01 4.7620632758326809e-01
      5.0778283476488861e-01 8.7128134200378182e-01
      1.3156155040459723e+00 -1.4462348077679317e+00
      1.6880067210644215e-01 -2.5197349170070515e-01
      -9.8317362182889767e-01 2.5337088658433711e+00
      -1.1190557800177330e-01 -1.6600926176746518e+00
      7.7397233291781087e-01 -4.2494503094887628e-02
      1.7950722821606615e+00 -8.7404694217976098e-01
      9.7521861368703139e-02 2.4133298706742403e+00
      1.4698635796416195e+00 1.0804882568879912e+00
      2.0197775885786365e-01 2.1286938602926786e+00
      -7.2849079347679191e-01 -1.6906795106877135e+00
      6.6148401278212154e-01 -3.9867101804388111e-01
      -5.1610892171551748e-01 -9.7098717773120513e-01
      5.1072692467143667e-02 -5.6078787340216696e-01
      2.1946134507584500e-01 9.8425089258523238e-02
      1.3490712245178076e+00 -6.6906982233547052e-01
      4.1190354735716117e-01 -1.1010808329776571e+00
      -2.7555932595530956e+00 2.5586927091025706e+00
      2.0477830659328783e-01 -8.9198083162616826e-01
      -5.1574440728724347e-01 -1.1911477859265338e+00
      -1.1055249415025838e+00 3.9596736336571076e-01
      1.4848620324918211e+00 6.8012999475008473e-01
      6.1007277233983648e-01 3.3929876858736838e+00
      -7.3095403096946476e-01 5.4184712182936401e-01
      3.7472608454602446e-01 1.4508605185146226e+00
      1.0586005193731678e+00 -1.6811956215987431e+00
      -1.4008184563125823e+00 2.4839401131152204e-02
      -1.6190672015534151e+00 3.0897767734588615e+00
      -8.1773406240824409e-02 -2.3664348671420514e+00
      -8.0823483170398258e-01 1.3830925165924486e+00
      1.1403712246915345e+00 -1.9683231921419045e-01
      -9.3652375953091227e-01 2.5248753856982602e+00
      2.0713315917083173e+00 1.8972152284340233e+00
      1.8443180375798631e+00 3.8469764952940189e+00
      -1.9239425718120884e-01 -2.2448339539070874e+00
      -1.0745786794486896e+00 -1.1708495807529358e+00
      -1.0661938587527935e+00 -2.2816817883629914e-01
      5.4862327936013533e-01 -1.2724048130632375e+00
      -1.5894862623240271e+00 4.1269936015979225e-01
      1.9308775870876267e+00 -9.2186274721419770e-01
      8.9220427897734289e-01 -1.5775332189280297e-01
      -2.6187945070260530e+00 1.9828258919689528e+00
      8.2512828426824558e-01 -3.5862253829768592e-01
      -1.6753203674750061e+00 -1.0728007754274596e+00
      1.4361512279164528e+00 1.1874546312747338e+00
      8.7759351027291288e-01 5.7030489099860315e-01
      -1.6345915711101116e+00 2.1069285699936056e+00
      -7.5608387860166648e-01 -5.8077796128969450e-01
      -2.8750273030689094e-01 -2.9273574075977038e-01
      5.9674363522906504e-01 -8.5688147067000586e-01
      -2.7524585707282556e+00 -3.3552986020206482e-01
      -1.7161833367992432e+00 2.3247502336225785e+00
      -3.1779394772077074e-01 -2.5359153354689199e+00
      -2.8914259813955340e-01 2.0115971409082434e+00
      7.2125227989620433e-01 1.3288447138034196e+00
      -8.0517460402709340e-01 1.3697228692954593e+00
      2.1042193593878427e+00 1.5360546175709551e+00
      2.2271421110209282e+00 3.9655202270712318e+00
      9.1039845234605643e-01 -3.0070692151048761e+00
      -3.3062768159353406e+00 -6.4706180526467560e-01
      -1.8098743284693442e+00 6.7442835026680414e-01
      7.4254034391291546e-01 -1.7106161052118838e+00
      -1.4316689779539442e+00 -3.4200988727111697e-01
      1.1131612196756437e+00 9.8900147041201159e-01
      7.0925947795959599e-01 3.5418970669848115e-01
      -3.4879588764062772e+00 9.1241653520633315e-01
      1.9502227683361499e+00 -1.0592892384477799e+00
      -8.6516464232197010e-01 -1.6499576387672588e+00
      1.8849021197063456e+00 8.0637580275190535e-01
      2.7397467558091554e-01 8.2332824639313884e-01
      -3.3314884763524746e+00 -4.5214078634043227e-03
      -3.4208757114380328e-01 -1.0276162947024516e+00
      -8.6656911210110943e-01 -8.6127286423786409e-01
      7.8806395058078083e-01 -6.9578072548828696e-01
