<?xml version="1.0"?>
<opencv_storage>
<opencv_ml_ann_mlp>
  <format>3</format>
  <layer_sizes>
    704 64 31</layer_sizes>
  <activation_function>SIGMOID_SYM</activation_function>
  <f_param1>1.</f_param1>
  <f_param2>1.</f_param2>
  <min_val>-9.4999999999999996e-001</min_val>
  <max_val>9.4999999999999996e-001</max_val>
  <min_val1>-9.7999999999999998e-001</min_val1>
  <max_val1>9.7999999999999998e-001</max_val1>
  <training_params>
    <train_method>BACKPROP</train_method>
    <dw_scale>1.0000000000000001e-001</dw_scale>
    <moment_scale>1.0000000000000001e-001</moment_scale>
    <term_criteria>
      <iterations>30000</iterations></term_criteria></training_params>
  <input_scale>
    9.1713742683066322e+000 1.0800091319011007e+000
    1.0517298987445345e+001 1.3623015735097512e+000
    1.0999034827017619e+001 1.4549478111186442e+000
    1.0450004747571082e+001 1.3374611248635457e+000
    9.6055336976367016e+000 1.1527565369356154e+000
    9.1499392147339140e+000 1.0229028316139206e+000
    8.6490335009860964e+000 8.9071638619970983e-001
    8.5503804225990443e+000 8.2873000596673352e-001
    8.6291449491030736e+000 7.9322239565883723e-001
    8.4103460664040046e+000 7.3612743639618783e-001
    7.9695197798444068e+000 6.7708941267804279e-001
    8.2411410367265336e+000 7.3190305795538380e-001
    8.8113559605489726e+000 8.5611106474976684e-001
    9.1624244834057489e+000 9.7414204595951037e-001
    9.4940124520283788e+000 1.0933482859703254e+000
    1.0372579927899258e+001 1.2895310872678571e+000
    1.1574489477828282e+001 1.5309531903777138e+000
    1.2742681445537949e+001 1.8148361251967378e+000
    1.3478119999094927e+001 1.9892777786844864e+000
    1.3663464983979038e+001 2.0329846060978465e+000
    8.9374319012103971e+000 9.9855531207138881e-001
    1.0037816299576601e+001 1.1864934574856241e+000
    9.8640970947202362e+000 1.1193527530865395e+000
    9.2348543945149011e+000 9.3171877958534943e-001
    8.6975166503064614e+000 7.3780839351312955e-001
    8.3640003492043888e+000 5.8333673615983284e-001
    7.9951872568765916e+000 4.4193263502140639e-001
    7.8919539315487270e+000 3.6132610852963259e-001
    7.8433196325231860e+000 3.0609472151908707e-001
    7.6355425218866166e+000 2.5075050471127092e-001
    7.3371588864615758e+000 2.0288536660430392e-001
    7.6599945855457605e+000 2.3105546076910488e-001
    7.8697457853161854e+000 3.0902204903313479e-001
    7.8545690905209549e+000 4.1291958600333667e-001
    8.1108408557727714e+000 5.6026757793844084e-001
    8.8278964316555975e+000 7.7304480479926241e-001
    1.0273513540654756e+001 1.1181869665398037e+000
    1.1966212570291381e+001 1.5578821989403786e+000
    1.3146578298009509e+001 1.8887214198042301e+000
    1.3374186986764686e+001 1.9770542858922400e+000
    8.5813063934569893e+000 8.8258672637879287e-001
    9.2396299882110871e+000 9.4602758842936374e-001
    8.7398049662345620e+000 7.6375455323966779e-001
    8.2753869810270899e+000 5.1651527618238147e-001
    7.9289992607120947e+000 2.6802603772975214e-001
    7.6020872657869081e+000 8.4345603417388740e-002
    7.3078004971376966e+000 -4.4764400126097351e-002
    7.2316020897927427e+000 -1.1350818955403513e-001
    7.1115202860792346e+000 -1.5077324112728116e-001
    6.8283421424479949e+000 -1.9351434051239563e-001
    6.7322743537203360e+000 -2.4442346975540208e-001
    7.0994568172015571e+000 -2.6802442347557826e-001
    7.1812659708667939e+000 -2.2063718418923808e-001
    7.0722549055862141e+000 -1.0699319872921742e-001
    7.2217888698055281e+000 6.1929208320337235e-002
    7.7032051545320082e+000 2.9673981476934758e-001
    8.8606993752064387e+000 6.6519324764085441e-001
    1.0701325287966752e+001 1.2035933938667849e+000
    1.2339482658984846e+001 1.6937750096513724e+000
    1.2597619056485451e+001 1.8241626628994003e+000
    8.1600001188253728e+000 7.6470107438211199e-001
    8.5717450968853282e+000 7.4623002708066388e-001
    8.0301021693420402e+000 5.0125812920807689e-001
    7.7152253866167113e+000 1.9451533693229145e-001
    7.4508145460273010e+000 -1.1427173449163576e-001
    7.1226479927732642e+000 -3.1622297227975865e-001
    6.9523798359327316e+000 -4.2489195094675930e-001
    6.8601554423622009e+000 -4.6279469800169387e-001
    6.7378607923340779e+000 -4.7954133293588702e-001
    6.4910936489387687e+000 -5.0748266521019214e-001
    6.5291873355930283e+000 -5.7869053059114484e-001
    6.9127200100422241e+000 -6.5874502532439894e-001
    7.1040913570367321e+000 -6.6494947107092484e-001
    7.0497554373596696e+000 -5.4974260978757017e-001
    7.0495622333853056e+000 -3.4644425413286489e-001
    7.2561856791227104e+000 -6.8128796085276874e-002
    8.1198681841104747e+000 3.4723481407608536e-001
    9.7388616435577635e+000 9.3063441979081818e-001
    1.1509329173713054e+001 1.5053604508003131e+000
    1.1927394903265947e+001 1.6901581698270274e+000
    8.0631082679785937e+000 7.2103157124655926e-001
    8.4382844760461779e+000 6.6854489649349036e-001
    7.8799679833768366e+000 3.7940143176838098e-001
    7.5003333487150234e+000 2.4973897985135475e-002
    7.3121753009804706e+000 -3.2094790917326055e-001
    7.1031548474989190e+000 -5.4003030030067833e-001
    6.9316430192860681e+000 -6.2849849943520797e-001
    6.8599742875543619e+000 -6.4142463132843308e-001
    6.7465609359651157e+000 -6.4408822912396846e-001
    6.5275556999102564e+000 -6.7247584928260418e-001
    6.5820282724449104e+000 -7.5349124851517890e-001
    6.9421168034850673e+000 -8.6364758972265365e-001
    7.1771940821061007e+000 -9.1584132149950948e-001
    7.2324767610760734e+000 -8.2500290000532217e-001
    7.1904539167695081e+000 -6.0201872958708091e-001
    7.1996985015230237e+000 -2.7346907864287040e-001
    7.7859602721903931e+000 1.8291329903672551e-001
    9.2274916148924877e+000 7.9056606987829070e-001
    1.1017527588123658e+001 1.3988607877887431e+000
    1.1478641630862407e+001 1.6059493798347106e+000
    8.1902796808692671e+000 7.3947353250647152e-001
    8.7361250574764178e+000 6.9872393986250225e-001
    8.0850236014700734e+000 3.9415242283433605e-001
    7.5286193341645875e+000 2.5456759316815739e-002
    7.3559805726009175e+000 -3.2947854321122377e-001
    7.2238962403742377e+000 -5.5320787215926559e-001
    7.0463991351340072e+000 -6.2921964540653297e-001
    7.1018084645888830e+000 -6.4159082028012004e-001
    7.0855095455658086e+000 -6.6011795568275833e-001
    6.8596401511219343e+000 -7.0028704002936581e-001
    6.7707835986150968e+000 -7.7230996500203442e-001
    7.0202716984149500e+000 -8.6929684455765599e-001
    7.2675233492937625e+000 -9.2891104905122235e-001
    7.3363827374213315e+000 -8.5409371448621541e-001
    7.3228890813641305e+000 -6.4744448566516399e-001
    7.2695579885243431e+000 -3.1397321158673031e-001
    7.7555457828506933e+000 1.4832280107256365e-001
    9.1562915847148325e+000 7.6524877613213582e-001
    1.1025698255357236e+001 1.3954279080339562e+000
    1.1512398082928856e+001 1.6090674261385256e+000
    8.2640794446715518e+000 7.5531812905875817e-001
    8.8635304269706694e+000 7.2892001763375025e-001
    8.1919971747935421e+000 4.4608674041478469e-001
    7.7320708301277126e+000 9.6177147417034467e-002
    7.5743876893997193e+000 -2.5397766278434458e-001
    7.4763027219388531e+000 -4.7499561665773349e-001
    7.3756613497044139e+000 -5.5623965353371152e-001
    7.3761080611731922e+000 -5.6620472752186901e-001
    7.3087251720892814e+000 -5.9435769931936822e-001
    7.0876666399238601e+000 -6.4783396040024344e-001
    7.0815706193343813e+000 -7.3370670286717010e-001
    7.4303844638568242e+000 -8.3647905478580209e-001
    7.5757489425091800e+000 -8.7275370541631381e-001
    7.4594844215634089e+000 -7.8209647176676689e-001
    7.4129529487996324e+000 -5.9765692539249216e-001
    7.3584016980638509e+000 -2.8883233743985542e-001
    7.8491681600027334e+000 1.6353172722005052e-001
    9.2679688317767805e+000 7.8066854949905673e-001
    1.1179248327947580e+001 1.4194362834699596e+000
    1.1566105334708979e+001 1.6187713970044602e+000
    8.2904390468372426e+000 7.4830829649679553e-001
    8.7005837611128420e+000 7.1279754222354397e-001
    8.0311409091864103e+000 4.5938812077988561e-001
    7.6060795651334150e+000 1.3934638783386560e-001
    7.4237234124005953e+000 -1.9018431015977758e-001
    7.2789672771850702e+000 -3.9746916761077333e-001
    7.2471609554994467e+000 -4.8439534757612962e-001
    7.3042922620554975e+000 -5.1340152944103967e-001
    7.2943611156656392e+000 -5.6289966475362252e-001
    7.0814438798247892e+000 -6.1524663277354974e-001
    7.1352045756618319e+000 -6.9518966075153754e-001
    7.5412561156972782e+000 -7.9340300054983037e-001
    7.5589209799677555e+000 -8.0346178833996229e-001
    7.3328715744272603e+000 -7.0014354942259527e-001
    7.2568615112378865e+000 -5.3962998125964190e-001
    7.2725410452017023e+000 -2.6580817224659853e-001
    7.6842803695831234e+000 1.5831912899794470e-001
    9.1266250574768577e+000 7.5971612423527324e-001
    1.1073895176816047e+001 1.3956887181819035e+000
    1.1472039665630110e+001 1.6014010573762665e+000
    8.3490027547457206e+000 7.4226683072115329e-001
    8.6137671899230774e+000 6.8977960395769011e-001
    7.9140628871648389e+000 4.4635820852239522e-001
    7.4817910478332630e+000 1.4507011960962921e-001
    7.3521778362373835e+000 -1.5853753304815857e-001
    7.2116148113980598e+000 -3.6058359893136266e-001
    7.3140753679665051e+000 -4.6434135217411199e-001
    7.4594656570652580e+000 -5.3290134720613858e-001
    7.3031839653414643e+000 -6.0044746082483114e-001
    7.1030246802597867e+000 -6.4953109457268920e-001
    7.2237003109103206e+000 -6.9338458352728016e-001
    7.5318066278371401e+000 -7.4568030010410991e-001
    7.4531669310777184e+000 -7.3821273007001287e-001
    7.3263218553135152e+000 -6.5085960102462803e-001
    7.2603802313397550e+000 -5.1025258642985893e-001
    7.1496951981184838e+000 -2.5547142026410824e-001
    7.5525197354896569e+000 1.4740591179554438e-001
    8.8752844766969581e+000 7.1812001520374946e-001
    1.0889695093241512e+001 1.3544303614514981e+000
    1.1418658962187800e+001 1.5948574003276217e+000
    8.3814646670930237e+000 7.4229409324310025e-001
    8.8618138543858862e+000 7.0413753602011653e-001
    8.2179435472979581e+000 4.5574169356347533e-001
    7.7685775732212079e+000 1.4582873746502742e-001
    7.5271268784428420e+000 -1.5075560868123658e-001
    7.3439688481115191e+000 -3.4780680396566693e-001
    7.4392084095503508e+000 -4.6561054485338682e-001
    7.6128038658331869e+000 -5.5874615164733676e-001
    7.4457679212047188e+000 -6.5327302028670409e-001
    7.2280217528581714e+000 -6.9733196245880402e-001
    7.2665888032801842e+000 -7.0581467268380460e-001
    7.4600950790445548e+000 -7.1726174583610358e-001
    7.2815153761928393e+000 -6.9089691151681720e-001
    7.2887312898986281e+000 -6.2378100289727811e-001
    7.2260484604857158e+000 -4.9597904032701018e-001
    7.0292847745515310e+000 -2.5259150575129374e-001
    7.3989815060214559e+000 1.3113651603499132e-001
    8.7379498695500022e+000 6.8662370005801820e-001
    1.0846057532595292e+001 1.3308978930037163e+000
    1.1549227286372634e+001 1.6088964356701472e+000
    8.3799395026141283e+000 7.3576187658980785e-001
    8.9202026343766647e+000 6.9273240509318079e-001
    8.3443050068380025e+000 4.3062103307110317e-001
    7.9428425336861679e+000 9.8738739109369242e-002
    7.5738427360646217e+000 -2.0676673018075822e-001
    7.3673133509189332e+000 -3.9511483409015752e-001
    7.4250668302904881e+000 -5.0787586539240936e-001
    7.6153662164802176e+000 -6.0566744562146313e-001
    7.5521976546243437e+000 -7.1256431538350873e-001
    7.4533945067372143e+000 -7.6039687920241050e-001
    7.5154722971556964e+000 -7.6884337134487490e-001
    7.6790581317977864e+000 -7.7328863805861991e-001
    7.2254489767455574e+000 -7.1749079059795140e-001
    6.9555116102346828e+000 -6.3568517062551333e-001
    6.8747544698464687e+000 -5.0981996448831612e-001
    6.8728732454791368e+000 -2.7391397143729168e-001
    7.3409908803020656e+000 1.0669461419931731e-001
    8.8175506381255353e+000 6.7060924880426132e-001
    1.1021559456499602e+001 1.3410380587463917e+000
    1.1749096338912276e+001 1.6392509267690971e+000
    8.3782784753945432e+000 7.3205764798876105e-001
    8.9096322930690519e+000 6.6299746869546849e-001
    8.2828432254179827e+000 3.6627440275849793e-001
    7.9528539494937993e+000 -3.9378538183036244e-003
    7.7246489375065304e+000 -3.4005728652210160e-001
    7.5597817128253180e+000 -5.3301149625676192e-001
    7.7071791444992783e+000 -6.2895967883509230e-001
    7.9349130296062702e+000 -7.0117350965661185e-001
    7.9010479196398302e+000 -7.9559699725444000e-001
    7.7785654009845526e+000 -8.3031029627536490e-001
    7.7868780089645515e+000 -8.2689608787676971e-001
    8.0301013392501464e+000 -8.4349315595506136e-001
    7.5034693301332185e+000 -7.9806867127203152e-001
    7.1153486970377520e+000 -7.2342124430658472e-001
    6.9725367860235492e+000 -5.9033952534673517e-001
    7.0418936346355183e+000 -3.3118122015083040e-001
    7.6006924823225095e+000 8.4947499059903842e-002
    9.0876424256670720e+000 6.8049447316483880e-001
    1.1238984833718218e+001 1.3742315235799629e+000
    1.1883407611395132e+001 1.6716917712497612e+000
    8.2579474552201511e+000 7.1689947911038732e-001
    8.7309698890965066e+000 6.3257700379354842e-001
    8.0846188934885070e+000 3.1641603678406077e-001
    7.7662833520246348e+000 -7.6542703533821588e-002
    7.7471825157608123e+000 -4.4408213406707048e-001
    7.6159108167268936e+000 -6.4858887474139093e-001
    7.5964209111172281e+000 -7.0570095677321076e-001
    7.6844953844152633e+000 -7.2824446852341873e-001
    7.4233795745315847e+000 -7.5899036785353369e-001
    7.2688278059100790e+000 -7.7630447457057561e-001
    7.4209473880916796e+000 -7.7913386446914989e-001
    8.0822728240033541e+000 -8.3967673335915360e-001
    7.9822237814096564e+000 -8.5490667506877149e-001
    7.7022615343306970e+000 -8.0583019285397817e-001
    7.3774541870590209e+000 -6.5790065471430437e-001
    7.1710763839893703e+000 -3.6650897655274156e-001
    7.6179630998016536e+000 7.0633334893741032e-002
    9.0387075873563081e+000 6.7602755089887356e-001
    1.1137098161288430e+001 1.3686616388060373e+000
    1.1788563022445988e+001 1.6616319727147870e+000
    8.1269113315577410e+000 7.1997086400611898e-001
    8.6357004916489029e+000 6.6126094782263367e-001
    8.0425371445271434e+000 3.5651426988272206e-001
    7.6987759531887443e+000 -3.3960929349247798e-002
    7.7166559288943075e+000 -4.0802860671361374e-001
    7.5710650117570770e+000 -6.2912188734749508e-001
    7.3897905322273925e+000 -6.7134138283691469e-001
    7.3759842212408735e+000 -6.7106196260447493e-001
    6.9905956357917081e+000 -6.7544133241764415e-001
    6.6844858283896107e+000 -6.8384839244554074e-001
    6.8364953095931753e+000 -6.9560890106041751e-001
    7.7238064391696204e+000 -7.7864816955082083e-001
    8.2133992113414962e+000 -8.4411226271168427e-001
    8.1695147393714755e+000 -8.0767729753062389e-001
    7.7488753034844216e+000 -6.5328229331807997e-001
    7.3630482015063716e+000 -3.5086700276155441e-001
    7.6180669229343279e+000 8.9195253624785656e-002
    8.9347404643970645e+000 6.8307071180261569e-001
    1.0948174825083720e+001 1.3478786592810030e+000
    1.1731650577328738e+001 1.6494389729724714e+000
    8.2385557389998834e+000 7.5572444411000195e-001
    8.9568275864508422e+000 7.5361861376352091e-001
    8.3371803648612541e+000 4.6792672633705445e-001
    7.7682171184942126e+000 8.3493780749716834e-002
    7.7116033061678166e+000 -2.8704460068277637e-001
    7.5839073338258141e+000 -5.4169222358626234e-001
    7.4202564258999590e+000 -6.2461469262823133e-001
    7.4407768466153801e+000 -6.5027416212285893e-001
    7.0628365108246740e+000 -6.6676893929287673e-001
    6.7172532208403499e+000 -6.8628509579822350e-001
    6.9422300846692737e+000 -7.2150875615932109e-001
    7.8911503553560722e+000 -7.9845702624856651e-001
    8.2771802242799417e+000 -8.1483181110361980e-001
    8.1845601072219711e+000 -7.3079723619581616e-001
    7.9103065639353396e+000 -5.7200820821104736e-001
    7.6021910025502466e+000 -2.7815763402994564e-001
    7.8184869928242744e+000 1.5255116990902476e-001
    9.0803267644050276e+000 7.3783571770479284e-001
    1.0931665068289744e+001 1.3609071293072537e+000
    1.1623723774912797e+001 1.6351408898026745e+000
    8.1601125963698600e+000 7.5814245158245885e-001
    8.8843745094322184e+000 7.7777950978361188e-001
    8.1630208919189897e+000 5.0800437175556812e-001
    7.3697788435363307e+000 1.4335733680785209e-001
    7.2623306542626676e+000 -2.1141248487109532e-001
    7.3578248309747778e+000 -4.8973320061943926e-001
    7.3817497723757466e+000 -6.2686110055009137e-001
    7.6161220822505813e+000 -7.0989559507044420e-001
    7.4523062218976968e+000 -7.6576709067415061e-001
    7.1394396954866952e+000 -8.0259793571780058e-001
    7.1785605039921032e+000 -8.4160297417550123e-001
    7.8542601885233685e+000 -8.7533575448972423e-001
    7.9776319395480462e+000 -8.1419270161914059e-001
    7.8488038291791087e+000 -6.7214510455883958e-001
    7.8241512914733375e+000 -5.0305235615187605e-001
    7.6795542547753488e+000 -2.1441295912633629e-001
    7.9657436047917196e+000 2.1633532832285918e-001
    9.2177625147049191e+000 7.9973559415275786e-001
    1.1019165198191963e+001 1.4042948576453798e+000
    1.1581359085205687e+001 1.6430846891966795e+000
    8.0598386380355542e+000 7.5175830594725612e-001
    8.6477278906384676e+000 7.5802670428580965e-001
    7.7971430023048640e+000 4.8214071258322011e-001
    6.9947963546965388e+000 1.3019136720143801e-001
    6.8899895129653235e+000 -2.2108344170198321e-001
    7.1014699452720071e+000 -5.1081899706812972e-001
    7.3510825079266757e+000 -6.8876384693748871e-001
    7.5874886834431621e+000 -7.9857520443764629e-001
    7.7869745535748942e+000 -8.9675532977603323e-001
    7.6674527095211067e+000 -9.6788943934872573e-001
    7.6058004414239058e+000 -1.0097263538809778e+000
    7.9521221720255983e+000 -1.0064435240193259e+000
    7.8263939625527188e+000 -8.8503048937347717e-001
    7.5607234529258998e+000 -6.9115083362173491e-001
    7.6498408909345592e+000 -4.9716094792417720e-001
    7.6110198243052833e+000 -1.8980371062630078e-001
    7.9004920724379586e+000 2.4327230312957190e-001
    9.2600935502671184e+000 8.3739573883068297e-001
    1.1228451904561078e+001 1.4575588407381999e+000
    1.1627422075306225e+001 1.6566991671089231e+000
    8.1610479319292093e+000 7.7882388798340707e-001
    8.7355456511738527e+000 7.7598294498206244e-001
    7.8737353986849818e+000 4.8876840621988477e-001
    7.1475825045120773e+000 1.2200182072656680e-001
    7.0793643864900773e+000 -2.6036309512955619e-001
    7.3249537927134147e+000 -5.7913151714870748e-001
    7.6897651765187671e+000 -7.7924727303380559e-001
    7.7586072755200455e+000 -8.6708682505271473e-001
    7.9662888545723423e+000 -9.5483123852003216e-001
    8.0750286724241764e+000 -1.0469982822704098e+000
    8.0300489988166426e+000 -1.1048158870987086e+000
    8.1257000044119803e+000 -1.0997220519087809e+000
    7.8570591745134699e+000 -9.7752957030749010e-001
    7.5316317629289333e+000 -7.7741775158395954e-001
    7.6595437769680599e+000 -5.7349671704165739e-001
    7.5737369506879935e+000 -2.3357132117837073e-001
    7.8947696241810608e+000 2.3514010956768130e-001
    9.3307100815421347e+000 8.5123857125724212e-001
    1.1400348893872021e+001 1.4919068424977564e+000
    1.1684325425471918e+001 1.6676138766912216e+000
    8.1764508373225109e+000 7.9516101300706754e-001
    8.7080874951603295e+000 7.8876627483390804e-001
    7.9521983032158641e+000 5.0461705907814769e-001
    7.3687966762567010e+000 1.2591720745473242e-001
    7.3819138297655362e+000 -2.8810124740701337e-001
    7.6303062105499473e+000 -6.2228975938945008e-001
    7.9328785452344261e+000 -8.0883613283408906e-001
    7.7828002788075210e+000 -8.4780405106105960e-001
    7.9389318312133845e+000 -8.9078347785041756e-001
    8.0041991851322010e+000 -9.4767794361837732e-001
    8.0447695012856038e+000 -1.0243631231184276e+000
    8.2231930013849777e+000 -1.0845037939737538e+000
    8.0059866309026813e+000 -1.0339737704769036e+000
    7.7533766543352449e+000 -8.7869217707564173e-001
    7.8141406355337182e+000 -6.6518282408935092e-001
    7.5685305784598915e+000 -2.7788985432380631e-001
    7.8327739824330296e+000 2.2169866790322476e-001
    9.3392763395791416e+000 8.5733021906465245e-001
    1.1455876693528907e+001 1.5053243592559100e+000
    1.1752697376749678e+001 1.6761545279093129e+000
    8.1491240010641768e+000 8.0381504070990606e-001
    8.6715355581530158e+000 7.9510153467842870e-001
    7.9768489084127339e+000 5.1077170078274248e-001
    7.3825486962263414e+000 1.2311326708300088e-001
    7.3648291159623280e+000 -2.9153579804310331e-001
    7.6686215267211226e+000 -6.1653835210187280e-001
    7.9432739927663469e+000 -7.7336016736877700e-001
    7.9623185370751965e+000 -7.9484425235453970e-001
    8.1747152417959867e+000 -7.9876320276926016e-001
    7.8759984841420838e+000 -7.8306384349073910e-001
    7.7173551207271887e+000 -8.1705644748400075e-001
    7.9068781796926695e+000 -9.0255452964445460e-001
    7.8437810198222797e+000 -9.3246704104645017e-001
    7.5826899861147803e+000 -8.4189127117697682e-001
    7.4634010624956177e+000 -6.4453230473649104e-001
    7.3615438626736029e+000 -2.7372317156095971e-001
    7.8390334813692162e+000 2.3035843142693863e-001
    9.4604375183183116e+000 8.8311473693960119e-001
    1.1583444297574935e+001 1.5284179854030966e+000
    1.1759252199951653e+001 1.6730218510330932e+000
    8.1174495467860588e+000 8.0317725653505012e-001
    8.6341321916810045e+000 7.8451914555877611e-001
    7.9817868551508360e+000 4.8819306617674674e-001
    7.3267856479962541e+000 8.5724298353803130e-002
    7.2236367144429439e+000 -3.1980157227720646e-001
    7.5443767960359995e+000 -6.2009850080482232e-001
    7.7618868528191687e+000 -7.3714418961943651e-001
    7.9084441569538422e+000 -7.3529463554449059e-001
    8.1375199359748720e+000 -7.0156385147799138e-001
    7.7373983850369612e+000 -6.4307926738724686e-001
    7.4778157117628803e+000 -6.4785668592765266e-001
    7.6611589349773812e+000 -7.4213588944359832e-001
    7.7069812617751987e+000 -8.1900064871157974e-001
    7.4442064756920967e+000 -7.7610570931166434e-001
    7.3050174172380498e+000 -6.0758273586108880e-001
    7.3076148421684328e+000 -2.5971576835213128e-001
    7.8718811641033390e+000 2.3811328141184623e-001
    9.5915728869882226e+000 9.0084590318473445e-001
    1.1657910999068129e+001 1.5406712570190602e+000
    1.1616667853602760e+001 1.6536475657825287e+000
    8.0041340740830744e+000 7.8513603708304847e-001
    8.4422748854731360e+000 7.4960321485437942e-001
    7.8393539408854735e+000 4.4859851868550149e-001
    7.2675456110464687e+000 3.6670424998400994e-002
    7.1964774867408297e+000 -3.6654152915418703e-001
    7.5351661739111000e+000 -6.4745953987247162e-001
    7.5936693786550942e+000 -7.2385538081285983e-001
    7.5702361173694186e+000 -6.8428726046655641e-001
    7.7933071355353194e+000 -6.2770542283227126e-001
    7.5686223568850526e+000 -5.7063561732713053e-001
    7.3639237514532665e+000 -5.8057276574154182e-001
    7.6951969178631670e+000 -6.9832655881228411e-001
    7.8552574392339602e+000 -8.0978432409315204e-001
    7.7480370469451483e+000 -7.9827249330402683e-001
    7.5760362638338741e+000 -6.3294821208259411e-001
    7.4389211585253925e+000 -2.8229185933081663e-001
    7.8392783949046878e+000 2.1406904154821305e-001
    9.5355069167855380e+000 8.7421160223885819e-001
    1.1667693774630830e+001 1.5322861126785716e+000
    1.1638208420697193e+001 1.6582240130410497e+000
    8.0691301976796606e+000 7.9326679478046580e-001
    8.4591111793647595e+000 7.4741516132895991e-001
    7.8188790655099067e+000 4.4242413052087004e-001
    7.2273144103919700e+000 3.1992438786989361e-002
    7.1799254108056028e+000 -3.5763008654494560e-001
    7.4834331722739060e+000 -6.2466039348696378e-001
    7.4957516736519478e+000 -6.8996884049257357e-001
    7.3927583814047768e+000 -6.4066312978324458e-001
    7.5190799261275147e+000 -5.7838549715161702e-001
    7.4157875909623590e+000 -5.3751973893024263e-001
    7.2882724700225543e+000 -5.6611223503094654e-001
    7.7036772741662594e+000 -6.9819994945352759e-001
    7.8405448106922080e+000 -8.1594498707883467e-001
    7.8553251413887644e+000 -8.1133507779762104e-001
    7.7133351868046391e+000 -6.3940946032762247e-001
    7.4585504896740495e+000 -2.9142337756775510e-001
    7.7826491695824132e+000 1.8768649126058418e-001
    9.3934953368549614e+000 8.3587411486281160e-001
    1.1474022318267915e+001 1.4933458142206433e+000
    1.1527554560009003e+001 1.6386689396131173e+000
    8.2430137412940621e+000 8.2185688055203987e-001
    8.6240269243216279e+000 7.7851048512871790e-001
    7.8851673453429694e+000 4.7097193686888095e-001
    7.1697063263521450e+000 7.0741237208864119e-002
    7.0996433180821414e+000 -2.9398434967699655e-001
    7.3492859598525389e+000 -5.4723380165163293e-001
    7.3489835012087577e+000 -6.2007206932667247e-001
    7.2666499072875181e+000 -5.8543631756575487e-001
    7.4138381885477269e+000 -5.3315030595745272e-001
    7.3257091230232563e+000 -4.9199031159573875e-001
    7.2475348497585461e+000 -5.2657396867643491e-001
    7.6851188550705460e+000 -6.6512383803277386e-001
    7.8613628780762976e+000 -7.9190935989943811e-001
    7.9294577848302445e+000 -7.8297255101738639e-001
    7.8789843712280696e+000 -6.0953585499341079e-001
    7.6980857446769422e+000 -2.7388206775781804e-001
    7.9363154098987989e+000 1.9644832982559288e-001
    9.4902664757976520e+000 8.4102617263902335e-001
    1.1415069753483987e+001 1.4799920544863052e+000
    1.1449830784352152e+001 1.6210155684065835e+000
    8.3870093862800754e+000 8.4836933071678244e-001
    8.7310189204544404e+000 8.0005678684834480e-001
    7.9068658560360285e+000 4.9164141619614254e-001
    7.1027014390154193e+000 1.0536542660131978e-001
    6.9860103182201252e+000 -2.2941340134054550e-001
    7.2483882957821448e+000 -4.7245524006170425e-001
    7.4203544396672223e+000 -5.7588127241083231e-001
    7.4706264689444257e+000 -5.8084985889109852e-001
    7.6239137109706370e+000 -5.2696378409976674e-001
    7.4766219916038770e+000 -4.6672989898770606e-001
    7.3288568005450738e+000 -4.8991890507762120e-001
    7.7313867892514248e+000 -6.2578620416469688e-001
    7.9151582761587482e+000 -7.4639081741965541e-001
    7.9261890513015105e+000 -7.3196311798373714e-001
    7.9792943980338062e+000 -5.7132298426664008e-001
    7.8400093496393986e+000 -2.5220953832619597e-001
    8.0865506605710191e+000 2.1192898652782238e-001
    9.5303191302562311e+000 8.4365719611852319e-001
    1.1454531263609830e+001 1.4873200245301492e+000
    1.1464873137122044e+001 1.6232990893753356e+000
    8.4349443175977648e+000 8.6176198139971205e-001
    8.7068817699612975e+000 7.9931939376252181e-001
    7.8093725107502392e+000 4.8372209069172983e-001
    6.9833715663736307e+000 1.1613441419785267e-001
    6.8729393307721667e+000 -1.9168176119062089e-001
    7.1033998032084567e+000 -4.1961382073325676e-001
    7.3191146549540100e+000 -5.4094661988132875e-001
    7.4658607642597214e+000 -5.7506519717660654e-001
    7.6374403733260108e+000 -5.3585564641311856e-001
    7.5222848725990765e+000 -4.7304968693894378e-001
    7.2619081131920620e+000 -4.8288664613032017e-001
    7.5635825839369977e+000 -6.0420947043753337e-001
    7.6527320612475309e+000 -7.0761876381476307e-001
    7.6654298688077969e+000 -6.9968555817154077e-001
    7.7864349579729399e+000 -5.6390573194759652e-001
    7.6041490230823756e+000 -2.5735985354678831e-001
    7.9030267785180932e+000 1.9174010029275879e-001
    9.3576773039983614e+000 8.0995509502529028e-001
    1.1279220424230751e+001 1.4561403746226240e+000
    1.1385065430968455e+001 1.6097617406935558e+000
    8.3888525695437135e+000 8.5647264691133917e-001
    8.5893372222812303e+000 7.8262181628110050e-001
    7.7353333620468776e+000 4.7508394163908901e-001
    6.9830555742321838e+000 1.2465408021711399e-001
    6.8214474084994672e+000 -1.6174814829559780e-001
    6.9243617309611611e+000 -3.6413070086709426e-001
    7.1346849627398026e+000 -4.7590756930075900e-001
    7.3676089130846849e+000 -5.1817648941685812e-001
    7.6438007611371939e+000 -4.8968883253722217e-001
    7.6264796114933446e+000 -4.3739946658727791e-001
    7.3626281566995786e+000 -4.5819980393893178e-001
    7.5293882656871611e+000 -5.7731258959308429e-001
    7.3432019478978594e+000 -6.5532886544625002e-001
    7.2372293956846381e+000 -6.4410303033341065e-001
    7.4622572079154388e+000 -5.3684799943388539e-001
    7.4081180744995532e+000 -2.5098532338855933e-001
    7.7895657215292733e+000 1.8443769534252810e-001
    9.1945282986911110e+000 7.8195079290532754e-001
    1.1091034197114611e+001 1.4197677290076298e+000
    1.1248408008787317e+001 1.5873654803102806e+000
    8.3785864178674476e+000 8.5893112204373978e-001
    8.5346187300951488e+000 7.8351978746281492e-001
    7.7623256851908016e+000 4.9264057951023893e-001
    7.0976671897963381e+000 1.5993272445743537e-001
    6.8701377598246598e+000 -1.0612975944366349e-001
    6.7618658154212934e+000 -2.7480536709363762e-001
    6.8750724094828870e+000 -3.5277649782567039e-001
    7.0736011613712044e+000 -3.7357825870199013e-001
    7.3678162002836762e+000 -3.4787368754833442e-001
    7.5032245190910016e+000 -3.2205874013405411e-001
    7.3654427863695613e+000 -3.7470641979011360e-001
    7.4558662885226639e+000 -4.9909438817645674e-001
    7.1040880535770130e+000 -5.6675989328966292e-001
    6.8952306097485998e+000 -5.5220713958184175e-001
    7.2016288067208647e+000 -4.5722488419838342e-001
    7.3617269317932585e+000 -1.9260191358552498e-001
    7.7899000705737240e+000 2.2195977956402108e-001
    9.1406723529885099e+000 7.9079467771419965e-001
    1.1002660413260033e+001 1.4075726225657679e+000
    1.1129413336584427e+001 1.5684164824614453e+000
    8.4318092977273640e+000 8.7319788207517290e-001
    8.6608506719423008e+000 8.2159359755617145e-001
    8.0168321063806047e+000 5.5740216853595626e-001
    7.3892196269259225e+000 2.4212720732337450e-001
    7.0453921389601426e+000 -9.9968804688229714e-003
    6.7686444974435425e+000 -1.5692013138004907e-001
    6.6818276722730827e+000 -2.0730242230585133e-001
    6.6831943731472814e+000 -2.1091475116480074e-001
    6.8640958364814431e+000 -1.9367002033878600e-001
    7.0082802106758431e+000 -1.9752108341131799e-001
    6.9280933589739515e+000 -2.6787151704687606e-001
    7.1395059041842623e+000 -3.8775044091166216e-001
    6.8869757215259746e+000 -4.5061186602251663e-001
    6.6569054192258372e+000 -4.2811218888570490e-001
    6.9513851375397158e+000 -3.3460218374102096e-001
    7.2353726501411764e+000 -9.8312050572643445e-002
    7.6816042810917802e+000 2.7681917137607576e-001
    9.0913652403115126e+000 8.1446823248308930e-001
    1.1034967571038173e+001 1.4194991754052779e+000
    1.1215679276641339e+001 1.5811602908323779e+000
    8.5582722501058033e+000 9.1233324206554389e-001
    9.0515668421303737e+000 9.1908659439253482e-001
    8.6242702775852873e+000 7.0621012618928858e-001
    8.0048046965649036e+000 4.1053284818920815e-001
    7.4350131608189125e+000 1.5459858935837453e-001
    7.0117475223528869e+000 8.7128466006853762e-003
    6.7144625751286364e+000 -3.9114705930194241e-002
    6.5259348678994868e+000 -5.3474013078608003e-002
    6.6171447886068480e+000 -5.9020038573375455e-002
    6.6179142998103933e+000 -8.3009260867758922e-002
    6.6151359757126498e+000 -1.3947516077291899e-001
    6.9997691562713129e+000 -2.2088384119696364e-001
    6.9062634439736623e+000 -2.7345009271435539e-001
    6.6642535432578249e+000 -2.5196586324155495e-001
    6.9169005538907777e+000 -1.6282356493074843e-001
    7.2392524757616554e+000 4.0030845767049392e-002
    7.7503608123653791e+000 3.7304645590002639e-001
    9.2270014160558045e+000 8.7827279904183841e-001
    1.1246410409475940e+001 1.4645736579126212e+000
    1.1362509011142210e+001 1.6017935230736182e+000
    8.7591650335607198e+000 9.6992851758603149e-001
    9.6461745188182828e+000 1.0733554960559648e+000
    9.5459953351913018e+000 9.5362824542858016e-001
    8.8726543608278927e+000 6.8946433757394487e-001
    8.1485149232075234e+000 4.3687587600440153e-001
    7.5964065466953041e+000 2.9074592393664783e-001
    7.1906824976691714e+000 2.2946412092846658e-001
    6.9488971972881917e+000 1.9469397171735497e-001
    6.8976942512197770e+000 1.6294291189430796e-001
    6.6939604725535569e+000 1.2580849826600324e-001
    6.7183474901123876e+000 9.6666954680544107e-002
    7.2358096496735742e+000 7.2372190498292868e-002
    7.3226299266666803e+000 3.8392497143618726e-002
    7.2134722311523340e+000 4.4958006952148633e-002
    7.4468212142090140e+000 1.1894881233253669e-001
    7.8397695560433389e+000 2.9151498318636304e-001
    8.4681041930534189e+000 5.9963239937824953e-001
    9.9126105316488680e+000 1.0667258662842714e+000
    1.1815688878827791e+001 1.5846744138383460e+000
    1.1842416646144354e+001 1.6773256962651997e+000
    8.9386453376700850e+000 1.0282097948541218e+000
    9.8604836232774939e+000 1.1887049506190652e+000
    1.0136267036369084e+001 1.1957163982796750e+000
    9.6539397151274855e+000 1.0189069392356289e+000
    8.9325612518559403e+000 8.0518816560507123e-001
    8.2684580145556570e+000 6.6217037160182468e-001
    7.8704781774436059e+000 5.8922161181965860e-001
    7.6149382828225756e+000 5.4372444808952447e-001
    7.4365002897388299e+000 4.9553471866593790e-001
    7.1349633941023551e+000 4.5003990114998887e-001
    7.2171803038372815e+000 4.5003419978718928e-001
    7.6348459817651229e+000 4.7442265978564030e-001
    7.7951115897455630e+000 4.6691300438689526e-001
    7.9210657181172817e+000 4.6500821107608298e-001
    8.1631454416245184e+000 5.0743615951775745e-001
    8.7206428376656859e+000 6.6313098059847098e-001
    9.4333659946465360e+000 9.1141566059139434e-001
    1.0694154987866577e+001 1.3137047558386890e+000
    1.2150996614874835e+001 1.6939570887626139e+000
    1.2205821892910350e+001 1.7435974201901823e+000
    3.3583764260324025e+000 -5.4868097691034112e-001
    2.9923629623438592e+000 -7.0901279455451083e-001
    3.5297036341288797e+000 -6.1998044207961711e-001
    2.9770534801272981e+000 -8.8666421279346896e-001
    2.9145288452043689e+000 -1.2667471348192028e+000
    3.0181320435048349e+000 -1.2302104048666633e+000
    3.2675195693307035e+000 -1.9497318905169270e+000
    4.1712758936332746e+000 -2.9859295451903889e+000
    4.1712758936332746e+000 -2.9859295451903889e+000
    4.8882344546114824e+000 -3.7968169194290278e+000
    4.2283654842248888e+000 -2.9310866405607690e+000
    4.9793397393807206e+000 -3.9892970266119878e+000
    4.9709894108489801e+000 -4.0364164483056664e+000
    4.2569117343870193e+000 -3.1013769788422221e+000
    5.3234825337537979e+000 -4.3899230101415396e+000
    5.4753227450475901e+000 -4.5738861404119726e+000
    5.4753227450475901e+000 -4.5738861404119726e+000
    5.7115666731869608e+000 -4.8441936930265364e+000
    4.7993680545692978e+000 -3.7194229163440835e+000
    5.7638713867978160e+000 -4.9426256640990216e+000
    5.0984515127449184e+000 -4.3064906390722264e+000
    4.1332152870759993e+000 -3.1081117479648555e+000
    4.5811644489074208e+000 -3.7322568070785369e+000
    3.7293617918874733e+000 -2.7753193307773394e+000
    3.7293617918874733e+000 -2.7753193307773394e+000
    3.1249483351338188e+000 -1.8665484594085382e+000
    3.0561411926216002e+000 -1.1215966460904088e+000
    3.0018453676293912e+000 -1.1258645436935348e+000
    3.7058453499307098e+000 -6.2042425813384494e-001
    5.8195217165667259e+000 -3.3612188111634544e-001
    5.2454973281223705e+000 -3.5716618879159046e-001
    6.7659153542531669e+000 -2.4726718385761101e-001
    4.1248605397878295e+000 -5.8235841849531333e-001
    3.3245228839916110e+000 -1.0208588060358734e+000
    3.3130449172299152e+000 -1.6824526784658365e+000
    3.7576530008964717e+000 -2.5180408543014776e+000
    4.4305342471432869e+000 -3.3519447955556805e+000
    4.4033694578965754e+000 -3.3362303274259015e+000
    3.9943349038494302e+000 -2.9172716541230441e+000
    3.6910947392788742e+000 -2.5943112928984418e+000
    3.7109585482575618e+000 -2.5826049908919795e+000
    3.8575378005509893e+000 -2.6989031462173769e+000
    3.8921038401380033e+000 -2.7905443061079165e+000
    4.2042036004961743e+000 -3.1734748260914691e+000
    4.6165650881276186e+000 -3.5833524965203529e+000
    4.7846511825689113e+000 -3.6895429224201242e+000
    4.9087592115275713e+000 -3.6688826717766188e+000
    4.8202739683346074e+000 -3.5391876973845791e+000
    4.7261242871467202e+000 -3.4964258646767319e+000
    4.8732582387493739e+000 -3.7002512628327664e+000
    5.4033431722894054e+000 -4.1535020475078692e+000
    5.1854870749678357e+000 -3.9331663347507990e+000
    4.8718006303151453e+000 -3.6258259828015991e+000
    5.0860608271076595e+000 -3.8232245573441039e+000
    5.2966107827322242e+000 -3.9961129708435674e+000
    5.3145299814398488e+000 -3.9470833844759086e+000
    5.0938629417385410e+000 -3.7126986167678591e+000
    4.8254920218550588e+000 -3.4838940617072343e+000
    4.7786622730363932e+000 -3.3901495234140935e+000
    4.7912490516608672e+000 -3.2269599496756189e+000
    4.4204635790494820e+000 -2.7379449087672660e+000
    3.9679070494635353e+000 -2.1669704612320704e+000
    3.6897372681643592e+000 -1.5310452796086951e+000
    3.7476736595866327e+000 -9.5872678301006875e-001</input_scale>
  <output_scale>
    5.2631578947368418e-001 4.9999999999999994e-001
    5.2631578947368418e-001 4.9999999999999994e-001
    5.2631578947368418e-001 4.9999999999999994e-001
    5.2631578947368418e-001 4.9999999999999994e-001
    5.2631578947368418e-001 4.9999999999999994e-001
    5.2631578947368418e-001 4.9999999999999994e-001
    5.2631578947368418e-001 4.9999999999999994e-001
    5.2631578947368418e-001 4.9999999999999994e-001
    5.2631578947368418e-001 4.9999999999999994e-001
    5.2631578947368418e-001 4.9999999999999994e-001
    5.2631578947368418e-001 4.9999999999999994e-001
    5.2631578947368418e-001 4.9999999999999994e-001
    5.2631578947368418e-001 4.9999999999999994e-001
    5.2631578947368418e-001 4.9999999999999994e-001
    5.2631578947368418e-001 4.9999999999999994e-001
    5.2631578947368418e-001 4.9999999999999994e-001
    5.2631578947368418e-001 4.9999999999999994e-001
    5.2631578947368418e-001 4.9999999999999994e-001
    5.2631578947368418e-001 4.9999999999999994e-001
    5.2631578947368418e-001 4.9999999999999994e-001
    5.2631578947368418e-001 4.9999999999999994e-001
    5.2631578947368418e-001 4.9999999999999994e-001
    5.2631578947368418e-001 4.9999999999999994e-001
    5.2631578947368418e-001 4.9999999999999994e-001
    5.2631578947368418e-001 4.9999999999999994e-001
    5.2631578947368418e-001 4.9999999999999994e-001
    5.2631578947368418e-001 4.9999999999999994e-001
    5.2631578947368418e-001 4.9999999999999994e-001
    5.2631578947368418e-001 4.9999999999999994e-001
    5.2631578947368418e-001 4.9999999999999994e-001
    5.2631578947368418e-001 4.9999999999999994e-001</output_scale>
  <inv_output_scale>
    1.8999999999999999e+000 -9.4999999999999996e-001
    1.8999999999999999e+000 -9.4999999999999996e-001
    1.8999999999999999e+000 -9.4999999999999996e-001
    1.8999999999999999e+000 -9.4999999999999996e-001
    1.8999999999999999e+000 -9.4999999999999996e-001
    1.8999999999999999e+000 -9.4999999999999996e-001
    1.8999999999999999e+000 -9.4999999999999996e-001
    1.8999999999999999e+000 -9.4999999999999996e-001
    1.8999999999999999e+000 -9.4999999999999996e-001
    1.8999999999999999e+000 -9.4999999999999996e-001
    1.8999999999999999e+000 -9.4999999999999996e-001
    1.8999999999999999e+000 -9.4999999999999996e-001
    1.8999999999999999e+000 -9.4999999999999996e-001
    1.8999999999999999e+000 -9.4999999999999996e-001
    1.8999999999999999e+000 -9.4999999999999996e-001
    1.8999999999999999e+000 -9.4999999999999996e-001
    1.8999999999999999e+000 -9.4999999999999996e-001
    1.8999999999999999e+000 -9.4999999999999996e-001
    1.8999999999999999e+000 -9.4999999999999996e-001
    1.8999999999999999e+000 -9.4999999999999996e-001
    1.8999999999999999e+000 -9.4999999999999996e-001
    1.8999999999999999e+000 -9.4999999999999996e-001
    1.8999999999999999e+000 -9.4999999999999996e-001
    1.8999999999999999e+000 -9.4999999999999996e-001
    1.8999999999999999e+000 -9.4999999999999996e-001
    1.8999999999999999e+000 -9.4999999999999996e-001
    1.8999999999999999e+000 -9.4999999999999996e-001
    1.8999999999999999e+000 -9.4999999999999996e-001
    1.8999999999999999e+000 -9.4999999999999996e-001
    1.8999999999999999e+000 -9.4999999999999996e-001
    1.8999999999999999e+000 -9.4999999999999996e-001</inv_output_scale>
  <weights>
    <_>
      -1.4904777899217010e+000 -1.9536164861543090e-001
      2.7435587381390229e-002 -7.0794684309263656e-001
      7.0644464949328412e-001 -9.2363697895167837e-002
      -4.2135559567009034e-001 -5.6076791195773212e-001
      2.1802312247824997e-002 4.6513606724920116e-002
      4.5600303063709735e-001 9.5630474276632582e-001
      -4.9533917639717495e-001 3.3832873223703558e-001
      -9.5744025548280132e-001 8.1267740231641735e-003
      -2.8698705513160644e-001 -1.6805313554606394e-002
      -8.2834456044653768e-002 5.1653063775594765e-001
      -8.1259209237913221e-001 3.4384619373254927e-001
      -8.6888100334675233e-001 -3.6366036221029441e-001
      -1.0056315870952661e+000 -1.2466535843253771e-002
      1.4735167922737863e-001 -9.6465691415454402e-001
      -5.7442373655478163e-001 5.5108972218441288e-001
      -5.0825836959816650e-001 -7.6051763967375297e-001
      4.5391234996961644e-001 6.0350173336457891e-001
      -1.6688663182322938e-003 1.1457963265694249e-002
      -4.3528632505039896e-002 -1.2876830330509367e-001
      -6.8735478661568850e-001 -4.0887250863393854e-001
      5.2810614850427359e-002 -5.0737022921028740e-001
      -4.9694329601601284e-001 -3.3176626508134538e-001
      -5.2159861419988085e-001 1.4173655838842740e+000
      1.5336324432100232e-001 1.0270138764359518e+000
      8.6532592223093641e-001 -4.0602662815026758e-001
      -3.7780437300955527e-001 2.9156968339604095e-001
      1.5797526705013187e-001 5.5020795043706860e-001
      -4.8450647126927049e-001 2.9249166743427635e-001
      -3.4987030656365242e-001 3.3694600360171807e-002
      4.5060270075801329e-001 5.5244411637519186e-001
      5.9578451132693083e-002 2.4623136422965033e-001
      2.2963883926586581e-001 -8.3185737899746448e-001
      -5.9966912508452352e-001 -6.3617949065933532e-001
      -4.1826952817991653e-001 -7.5274957377037188e-001
      1.2593963224129172e+000 -2.9187707493074183e-001
      -5.6163398293861466e-001 -1.2490043556516191e-001
      2.7986652945283286e-001 1.0332312709630363e-001
      8.4805666851876249e-001 8.6748145165664803e-001
      -6.5819335657389433e-001 1.5886224946823777e-001
      6.8189911938298597e-002 1.4606205168688824e-001
      -3.9843313051131132e-002 2.0392803750060368e-001
      -1.8543763524097018e-001 4.8169242154050163e-001
      -8.9372090628068857e-001 -3.3785380457846953e-001
      -9.1296372242105739e-001 -2.8330422501381236e-001
      -8.2295727441382777e-002 -5.8332520779839991e-001
      7.0135298802265003e-002 -4.4061543516448015e-001
      -3.8762440246280401e-002 -7.8841899893249606e-002
      -1.6792076975692938e-001 -5.6425295682595822e-001
      1.0751138299061502e+000 2.1933391961238141e-001
      3.2190936553532506e-001 3.4885324612953911e-001
      -7.2530562517567551e-002 -3.6696798316065715e-001
      -5.7567436858784116e-001 2.0609672695033299e-001
      -1.2724045679731583e-001 -2.1828180890217019e-001
      9.4775004754974884e-002 -1.1209867825532745e-001
      -6.0844924145536472e-001 8.9172636273932626e-001
      1.4651293196111073e-001 8.1990928597741608e-001
      3.9287680075725134e-001 -2.9186745431991873e-001
      -2.8917056044491363e-001 -5.9873257657251988e-002
      -2.1270715402801091e-001 7.8497368486815622e-001
      -5.3928377070544298e-001 -2.8276334757268201e-001
      1.4570027230898114e-002 1.3529985276993164e-001
      -2.5147142308104292e-001 6.7839191555493639e-001
      -2.8970974496093299e-001 6.8296669560374307e-002
      4.2233296433918741e-003 -1.1375426956610393e+000
      -2.7091484846861125e-001 -1.1496789825852292e-001
      -5.6993040718843291e-001 -1.3945080934253748e-001
      5.7062504525089597e-001 -3.6594887666082002e-002
      -2.5785541453537514e-001 3.9602777248229520e-001
      7.3653813255075806e-002 -2.2567851050224799e-001
      -1.8333368793432334e-001 -3.2326066904403056e-001
      -3.2231543473133772e-001 3.7078678347159416e-001
      -2.0136641735966954e-002 -2.0215523740960298e-001
      2.2801758657846521e-001 3.6389003858662872e-001
      -3.1120518538156072e-001 2.5450454848214299e-001
      -1.8013527605905519e-001 -9.8573663824206473e-002
      -4.9979306323991041e-001 -1.6523019420732761e-002
      -2.9591469446558029e-002 -3.1895058968526369e-001
      2.3588861889375309e-002 -1.4490118356642701e-001
      5.9591286616327399e-001 -9.3106261456486872e-002
      4.5713899047022119e-003 -3.1654473900749541e-001
      4.8517386706587640e-001 -2.6475849741133478e-001
      4.0094553965457219e-001 2.3394547608198080e-001
      -5.9960478291332042e-001 -3.5304286080529979e-001
      -4.8288576006710215e-001 3.6600072909733772e-001
      -1.6454681761888293e-001 -1.0586474296139638e-001
      1.5128881701993610e-001 -5.8736266441950923e-002
      -5.3093600171140121e-001 -1.5860781798290774e-001
      1.8235375352512553e-001 -6.5558758470660367e-002
      -1.7891415952623876e-001 -1.0406212597093202e-001
      -1.5906708175644241e-001 1.9355081182634631e-001
      -5.1725186277449497e-001 4.2202659330207681e-001
      -5.8773857436143084e-001 -9.5695026975638997e-001
      -3.6018623586617571e-001 7.9238553174290949e-001
      -3.8201677989667887e-001 7.0574352968866150e-001
      -2.6855893709617640e-001 5.1039763720287595e-002
      1.8749860553249947e-001 -5.5307830924911727e-001
      -4.1789374508749338e-001 3.4017766045289377e-001
      -9.4668854242693590e-001 3.6889512423290549e-001
      3.8432176310315314e-001 -2.4062498033013932e-001
      -1.5011961020533263e-001 3.9244110039676955e-001
      -1.3118536560552468e-001 -5.4003176464647873e-001
      -2.2058594664262735e-001 -8.5338774534979023e-001
      -1.0385986688968353e-001 -2.0705605964352788e-001
      2.2646153267530003e-001 -9.9189200895998905e-002
      3.9663667537896141e-001 3.5327330652689543e-001
      -2.2728841171365290e-002 1.6324517399852495e-001
      1.0119468120729672e-001 2.8080009205489264e-002
      -3.5246631966439079e-001 1.5676423623009747e-001
      -3.1528305675880497e-001 -4.8097324424267435e-001
      2.9152564126776337e-001 -4.3039200410522734e-002
      4.3277705659924509e-001 -1.3611475076355850e-001
      3.0002733581566776e-001 -4.3570342267663686e-001
      -4.6280575208794408e-003 -5.6466363735952929e-001
      -6.5501335182934731e-002 -1.6192744500048981e-001
      -8.7540512114356928e-001 -1.1912445693100135e+000
      -6.4344515538766678e-001 2.2474992660551343e-001
      -1.5226391942271289e-002 -8.0331446289984165e-001
      -4.3586149391751622e-002 5.1252922209768424e-002
      -1.7239006401778759e-001 -3.0546248428178846e-001
      -3.7922362067693083e-001 -1.0455912007048176e+000
      -4.4362795647534992e-001 6.0011470074785682e-002
      -1.0693599410402231e-001 1.3575750150425414e-002
      -2.2703104516268577e-001 -2.7019558157471115e-002
      -3.0173641874707091e-001 -1.0797496201770558e+000
      -6.0052186904950100e-001 6.5951210972812913e-001
      -4.4688154080098519e-001 5.6156850412616177e-001
      -8.4791582738472079e-002 -1.4794040955725410e-001
      5.2533426125775196e-001 -3.7581431298839058e-001
      -4.2315276871730628e-001 1.7291447281161715e-001
      -1.0968441691724538e+000 2.1833320698436606e-001
      -4.5953749024936774e-001 -5.4247695017068565e-001
      -1.8308751994258238e-001 -1.4074062396482821e-002
      -6.2335836101272668e-001 -3.1948913496876402e-001
      -1.1410245378132015e-001 -5.5131862123544051e-001
      -1.2577136516611667e-001 -7.3506908996976128e-001
      1.7581568009010919e-002 8.9656335014638905e-002
      1.1830411186692032e-001 4.0110619208144482e-001
      -5.2047571124860770e-001 -1.3781859262883930e-001
      -1.7747595743382727e-001 4.0787654183786259e-001
      -5.1288642886466962e-001 -1.3500659701121704e-002
      -4.2753044271100038e-001 -8.6360805395614068e-002
      1.8473893175851142e-001 2.3136327433575180e-001
      7.4810937641724570e-002 1.3435339982077527e-001
      5.6081244187780099e-001 -4.9522636715327328e-001
      2.4592558404915180e-001 -1.9944499046205322e-001
      -1.3952891772281142e-001 -2.1141702410912153e-001
      -4.8838965219995123e-001 -7.1459208615284731e-001
      -3.6660066220290854e-001 -1.6743987633098109e-001
      -8.4285163984524888e-002 -6.0662690792321616e-001
      -3.8062073028574139e-001 8.5569614219139681e-002
      -8.7098095300769396e-002 -3.2854052259949679e-001
      -5.4765819145390804e-001 -5.3567096745762310e-001
      -6.0868951760677059e-001 -2.1384980577880928e-002
      -1.0868062412515790e-001 2.8576732350664591e-001
      1.0514512658627187e-001 2.0513112316752560e-001
      -4.0529988941151812e-001 -3.8624053834371852e-001
      -1.2911631753732328e-001 3.5213946741700664e-001
      -6.9845642579459100e-001 4.5645937039816831e-001
      -9.6553635830661941e-002 -1.0044151840273977e-001
      2.2422389476830887e-001 -1.1651084620877829e-002
      -7.2128050786819842e-001 -2.1828698240178357e-001
      -7.6472816634137852e-001 2.2830479014721447e-001
      -3.8284299925967658e-001 -2.5670136201146576e-001
      -3.5763602182091431e-001 -5.9246929418397520e-001
      -6.1127868627143334e-001 -3.5850199688323814e-002
      -4.7962088596889663e-002 -2.5245124149402232e-001
      -9.7366902210269321e-002 -3.4609689662897425e-001
      2.4016345447994206e-001 2.4018675382066340e-001
      -4.3695340551120215e-001 4.2612799137472157e-001
      -2.9695482715978072e-001 -5.8806511135902106e-001
      -5.4343891753999884e-001 5.9663454944960237e-001
      -6.5888190865927476e-001 -3.8966997235007080e-002
      1.2886825537561053e-001 1.9970045388709512e-001
      -2.7391408271831792e-002 -2.0336143202278281e-001
      -3.9020769293589297e-001 1.5187363958514929e-001
      5.8130421456271575e-001 -5.0589851900678040e-001
      4.0736364412471376e-001 2.0806238844234867e-002
      4.2390655693241036e-001 1.2158615355775824e-001
      -2.9343995887046836e-001 4.2720893669626325e-001
      -5.7259717557884005e-001 -4.4485290471902678e-001
      -3.2171271098648618e-001 -5.5314012981276117e-001
      -3.4880713179727080e-001 -3.8375442485733914e-002
      -2.0820416258766300e-001 -6.8267946225907827e-001
      1.2866519584799527e-001 -3.2997768327327354e-001
      -4.5715162637774659e-001 -1.5872695307334314e-001
      -2.4232864976911678e-001 3.4213971193235720e-001
      -2.5174348915067374e-001 8.7096376042996457e-002
      -7.1404261024876159e-001 2.7793660535573833e-001
      2.2741262306796875e-001 3.2489149240420262e-001
      -6.4460917657246353e-001 3.2765009510554532e-001
      -2.2744045563899665e-001 4.4090721553582551e-001
      -6.2033168260361704e-002 4.1993456128168088e-001
      -3.9536728995552828e-001 -6.6878401361060713e-001
      -9.9004895164777937e-002 4.8178552116507040e-001
      2.1433480172812147e-001 -3.4914078443140824e-002
      -1.1633179672635369e-001 -5.1453456126434238e-001
      -5.7025058166660303e-001 2.1173569442226389e-001
      -5.0983394823089512e-001 5.2010518890756099e-005
      2.3438585619337790e-001 2.6089688174275100e-001
      -3.4338303767673400e-001 -3.1066004600194874e-002
      -4.2275880723163822e-001 1.3025129515466854e-001
      -8.1182454506682558e-002 -6.0831185568297996e-001
      5.0805882934379140e-002 4.3886031785833751e-001
      -9.1377874764720002e-001 1.0474274885658232e-001
      1.4214053574228971e-001 4.8088538831100963e-001
      7.4300709423326228e-002 -1.4444804047999071e-001
      -3.9691729164648010e-001 1.4844696478010245e-002
      5.3336257990999703e-001 -5.8712005347835616e-001
      7.4015624467930963e-001 4.8953888096767539e-002
      3.2560452541146445e-001 2.2744317261812574e-001
      2.1762712856216551e-001 7.6475639771491788e-001
      -7.0233158589184219e-001 -3.1200961306113190e-001
      -4.7890905462896866e-001 -5.7290807415154288e-001
      -4.1883764114860417e-001 -2.9530129712698638e-001
      -2.3788823908089812e-001 -8.7025358949137332e-001
      6.2478037769269368e-001 -2.0932042049588120e-001
      -4.5525299102339023e-001 8.7411973131154883e-002
      -4.4878442900047055e-001 4.4819726026332740e-001
      -1.7152934691084870e-001 1.0842699195301965e-001
      -5.9780881806548958e-001 1.0376226101708090e-001
      6.8140013351204265e-001 8.3049023614401959e-002
      -6.9935548601479025e-001 2.2392889725351545e-001
      -2.9244103764684665e-001 5.1802453290627659e-001
      1.3139905847712707e-001 3.2429038241762576e-001
      -3.4314305676918255e-001 -7.8937616110754849e-001
      -7.2140195577436672e-002 8.4704654845111815e-001
      2.2376639307894297e-002 -3.8410045037862071e-002
      1.9139094247446278e-001 -2.6566051733152762e-001
      -1.9364730913936656e-001 4.2823982504094521e-001
      -4.5574725879873129e-001 4.3843154994927906e-002
      3.2808752297661847e-001 4.6532141359355644e-001
      -4.2748982473192426e-001 -3.3555068617233963e-001
      -1.0120458920814222e-001 1.8319063763828025e-001
      1.2498086395992605e-001 -5.2288655466471712e-001
      2.6361709082437956e-001 -2.6209313758025037e-002
      -5.6350104954200753e-001 4.0894352422474994e-002
      -2.2027981011687214e-001 1.2228709029738192e+000
      1.8862649265035519e-001 1.5362397281488431e-003
      -4.6135796752821895e-002 -2.1087301597860514e-002
      6.1880145097790162e-001 -3.6241984190462195e-001
      7.6861820711678419e-001 1.7065408571951021e-001
      -6.1909369185452791e-002 4.7512309091908955e-001
      5.6546227270531479e-001 4.5148657818314978e-003
      -4.9185594615825629e-001 6.0595525603624667e-003
      -9.4146994542966420e-002 -3.2676876659348281e-001
      -3.2684877944436141e-001 -2.4383890418543036e-001
      -2.8000071044875985e-001 -8.7386906860052682e-001
      1.5088729084747635e-001 -1.8865523180593921e-001
      -3.2761458983947622e-001 5.8814229918847272e-001
      -4.0135064631391848e-001 4.7879990671467243e-001
      1.2198536016247366e-001 3.9517096797318907e-001
      -2.6896357451055680e-001 -7.1669015522574597e-001
      1.0102226163834733e+000 7.2258116047849139e-002
      -7.4683256366757511e-001 3.3889838813422207e-001
      -2.6501530178462507e-001 5.3242310754630051e-001
      1.2857214539389095e-001 -1.7111550470892514e-001
      -7.6676560419050244e-002 -3.5780061560809895e-001
      -6.3497673120341658e-002 8.4426977048361052e-001
      -3.3009768383758942e-001 -3.0920018212354183e-001
      1.4582898619068274e-001 -2.3659976350236339e-001
      -1.7052911310806074e-001 7.2075876729812816e-001
      -2.2317371269432071e-001 -3.0351544918980672e-001
      1.5966048111334200e-001 4.6299752745403217e-001
      -4.8263837941469900e-001 -2.2806773143679138e-001
      -3.2181140423044219e-001 9.6289627094140837e-002
      5.5255201025781087e-001 -5.2243158647532462e-001
      5.6822492796218049e-001 -9.8601337049004215e-002
      3.6600423760999451e-001 1.4285358812728721e-001
      -2.2116261758164318e-001 9.2142579282583736e-001
      3.3552682277863544e-001 -5.0396481073704047e-001
      3.4932425422790764e-001 -2.6099266409120053e-001
      5.1288432092725511e-001 -1.4274880864809650e-001
      2.3947349940780616e-001 3.3660181223811420e-001
      2.0275050351727442e-001 5.1847070142789586e-001
      9.5154574059128222e-002 -5.4370473376674966e-001
      -2.1529029991493767e-001 3.1848004756220721e-001
      -1.5026974119802000e-001 -8.8413751074760766e-002
      -1.1479507150716285e-002 -3.2583743611388394e-001
      1.8425087646602786e-001 -3.7551616962404771e-001
      -4.0917543714968591e-001 -3.6885595650173697e-001
      5.1773350445200572e-001 7.1206672027820817e-001
      -2.0385936601932883e-001 4.0717725065214094e-001
      -6.3467594119421558e-002 9.0177592441887677e-001
      3.7237844890359972e-001 -8.6375200733979862e-001
      5.1316248914153917e-001 2.2970298578336248e-001
      -5.2279258288091923e-001 4.2339826353838567e-001
      -6.3614940954436053e-002 4.2870158040240741e-001
      -1.4931573470469900e-001 -9.2589281973527593e-001
      -1.5117174286329010e-001 -3.7240552856453130e-001
      -5.2439020587396368e-001 5.1988830964720323e-001
      -2.6053629808966733e-003 -4.7807081736063528e-001
      5.5358271930061143e-001 -2.7673877319232282e-001
      -2.0687458800642827e-001 1.0596123921093253e-001
      -1.7723179456904822e-001 -8.7228915540014851e-001
      1.3591013460450563e-001 7.4815217018240121e-001
      -3.1029848254193187e-001 -6.2447226788665822e-002
      -7.8040755418858498e-001 1.4863950866134185e-001
      4.5303933143741509e-001 -8.1194613882977640e-001
      1.9268128590750352e-001 6.4716163866879043e-003
      1.0108226238586338e+000 3.9027247574713064e-001
      -4.5239401097767452e-002 7.8635192889656536e-001
      6.4439297632038117e-001 -5.9406080875613487e-001
      5.1292342974239735e-001 -3.8984775138980826e-001
      5.5927828221117049e-001 1.0219629464919359e-001
      2.4416027343978167e-001 5.4869330492957102e-001
      3.9983343067588878e-001 5.4721027115513399e-001
      3.8971406044771256e-001 -3.6131931067764989e-001
      -2.4876140812914516e-001 3.3967744927160509e-001
      -5.3958556845742946e-002 5.9085247814094438e-002
      4.5761425342125117e-001 -4.6333745250681102e-001
      3.8229434731062029e-001 4.7579700866990349e-001
      -4.7486180759180235e-002 -4.5252165381388515e-001
      8.8072563121252623e-001 6.1115040550713540e-001
      -3.0449763059025720e-001 7.7416164199207527e-001
      -3.8020483782367070e-001 3.9366912095086809e-001
      5.0666715673547535e-001 -3.9888371129730832e-001
      -2.5942802103407980e-001 3.2302789182920161e-001
      1.7117084765764284e-001 3.4449848065196853e-001
      9.1214930238987149e-002 1.0660114014089828e-001
      7.9066697249860249e-002 -1.0329616022769248e+000
      7.7887654062567591e-002 7.5227843639633946e-002
      -3.8503044251409674e-001 6.2246291483114624e-001
      7.3094355204200123e-001 -8.3023639072239885e-001
      7.4686915075542870e-002 2.9238915628240175e-001
      -4.2761316290156470e-001 1.8790182361928895e-001
      4.3800838348143539e-001 -9.7510838346623274e-001
      1.8779215655247999e-001 5.6691563424813840e-001
      -6.1758141903502062e-001 1.4601081189156742e-001
      -8.6001155497941861e-001 -3.6242544998444143e-001
      5.0448181960671279e-001 -7.7501038659446064e-001
      -7.3142077540455963e-001 -1.5576643533157061e-001
      8.6111100112742134e-001 2.2231914767183564e-001
      3.1584719138105499e-001 7.6973787477752975e-001
      5.7920503306167770e-001 2.5091856416169211e-001
      1.9664690019716177e-001 -3.3834180246517764e-001
      9.8888465372929557e-001 3.9098601961370655e-001
      3.8192864748957589e-001 2.5056328373728487e-001
      4.0139725322911091e-001 5.1851578560634681e-001
      5.6691158536384190e-001 -9.1699647715889968e-002
      -4.4283872337144631e-001 3.6789767536793083e-001
      -1.9713337089406013e-001 3.3901372050836798e-001
      5.2254150678061184e-001 -5.8803443128190058e-001
      2.0476089889827040e-001 8.5214375012560373e-001
      3.2705609217018161e-001 -3.3926444218276969e-001
      4.0592669245336699e-001 3.0041485886933977e-001
      -4.1981717917684891e-001 6.0541048367024997e-001
      1.6899748985983057e-001 4.7071561445448895e-001
      7.0337129871320084e-002 3.7866314089326525e-001
      -1.1614420329529536e-001 5.7222894678423168e-002
      6.4010337464749067e-001 3.9369188624474283e-001
      -1.4684986922437755e-002 -3.6695065387033077e-001
      -1.8986481817574047e-001 -1.0789433129095898e+000
      -6.2317122047749002e-002 3.2378158193791717e-001
      -1.5124654203410398e-001 7.0554961626657775e-001
      9.9547987760990997e-001 -9.9460817615542407e-001
      -2.2899737732466971e-001 5.4023371364706929e-001
      -2.8536441491495423e-001 4.9544600812162759e-001
      9.2332149969717903e-001 -8.2083433661353467e-001
      5.9889627063529038e-001 -3.2995760843483707e-001
      -2.5626684478100836e-001 9.6060596679020976e-002
      -4.0228781301747557e-001 -2.2824163312096371e-001
      2.9658604741881434e-001 -6.8573640142241787e-001
      -5.1998435848107294e-001 -1.8791512466781518e-001
      4.6564994254553987e-001 3.6932487273947168e-001
      2.1717224792621992e-001 -2.2166560451743139e-001
      5.9874007164028265e-001 3.5292878296930279e-002
      7.8026437431515328e-001 -4.3761730181497760e-001
      6.8970733003585449e-001 3.3252758719537634e-001
      1.3690987355577688e-001 6.7426875620576143e-002
      -9.3833299505948445e-002 3.2863959328380427e-001
      1.4753658731857297e-001 -4.2780219035889472e-001
      -6.1493215740973017e-001 3.9569975286685311e-001
      -2.7555412983072963e-001 5.3945932592555801e-001
      5.9297930394134524e-001 -5.3827308950261221e-001
      -4.2946327757744462e-001 7.5445347019657305e-001
      -7.5702355363508111e-002 -2.7941788076916824e-001
      -2.4805081458873302e-001 -1.6037845407251672e-001
      -5.2873825259291307e-001 1.8855031779377091e-001
      5.3265373739395427e-001 -1.2902719146448091e-001
      -2.5133585216758481e-001 4.0582927977007022e-001
      2.1883928383480168e-002 -1.7143386301684654e-001
      6.5669967633518977e-001 3.3717241351903571e-001
      -2.6640542359226155e-001 -6.3978657919343962e-001
      -4.2025447711935870e-001 -4.8564461214029753e-001
      -1.9279070783061894e-001 2.9741432863881390e-001
      -7.6470017486506808e-002 3.9318951391408974e-001
      5.6152435268372991e-001 -5.8382292448912754e-001
      -1.5830699570379853e-001 6.9382705195218131e-001
      1.3226367592289398e-001 8.9676501355584815e-001
      6.4213566608375205e-001 -3.0709871203072385e-002
      6.4329067826633779e-001 -6.8592924012271372e-001
      5.0930438083534746e-001 -1.6437519779283208e-001
      2.6178465911620169e-001 -6.9385383835387254e-002
      4.0909017191055547e-001 -4.2272112470517653e-001
      -1.7712132087833773e-001 -2.0325845369425366e-001
      7.5025432609830328e-002 4.3404533611919466e-001
      5.6920821081783129e-003 -1.3870954392231960e-001
      5.6400152434646911e-001 -3.5568952029574796e-001
      1.6078782473983916e-001 -2.8517787710426323e-001
      -2.3384105263255652e-002 -1.5927264303853042e-001
      -3.1679887536568424e-001 -5.2385234040216028e-002
      2.1265808451020624e-001 -2.0780950852309915e-001
      -1.3467483771400771e-001 -2.4884500060060558e-001
      -4.2192211986871431e-001 -5.9216614788940754e-003
      -3.2523259235471585e-001 4.2834408141898572e-001
      3.1023378638509252e-001 -3.4078132909484998e-001
      -4.3223889048913766e-001 3.9665756498355492e-001
      -4.7770684723830237e-001 8.2785227555724955e-002
      -2.7900256579607763e-001 -3.8731993469073334e-001
      -4.3759317264010400e-001 4.1614369092527792e-001
      1.6707705875460505e-001 -6.8529901719531650e-001
      -3.8930108725972090e-001 3.5409983327684559e-002
      2.8799526373657330e-001 -1.4744754952348474e-001
      4.8525084231912502e-001 1.9485382392301551e-001
      -1.4459796012988974e-001 -3.8433431579647637e-001
      -4.2652259854867591e-001 2.2033504784164609e-001
      4.1736379461586641e-002 4.2055209601598137e-001
      2.2260132752064343e-001 -1.6556134820799964e-001
      1.9549315412684686e-002 5.5461429246350960e-002
      -2.8268499881930387e-001 8.0403493605345511e-001
      -7.2895494414809137e-002 1.1719124779478673e+000
      1.6189219976166297e-001 3.3301981160759142e-001
      3.2863495566823969e-001 -3.7650606443393941e-001
      1.0452208895178241e+000 1.0632753196513899e-001
      2.0347956108705703e-001 -1.0047805125757382e-001
      2.9723155514455102e-001 -4.2885761570038966e-001
      -1.9380871670178726e-001 -2.1576682513868706e-001
      -7.6700251177607848e-001 3.5875357768449151e-001
      -2.5483059439767886e-001 -3.8277790731833689e-001
      2.9234858394049801e-001 -7.0663482804197736e-002
      -5.0040073102284188e-001 1.7267002543392442e-002
      -8.2698405591080837e-001 -8.2238189458015010e-001
      -7.5836921508512278e-001 -2.8201807803391393e-001
      7.5696615557938629e-001 -4.5241600787940084e-001
      3.0580655193696019e-002 3.1197915715755486e-001
      -2.2333495407708209e-001 -2.1890261677524261e-001
      -7.2012977265351982e-002 9.2809295453801877e-001
      -1.6558057921096475e-001 -8.0532192278390216e-002
      -3.0747045022656433e-001 5.5622216596885510e-001
      -1.7456426714864390e-001 3.2651453622660187e-001
      -4.3312220518020944e-001 -7.1844092406783813e-002
      -5.7906605098792507e-001 3.0039108126133374e-001
      -3.7830362759502700e-001 -6.4150950183625055e-001
      -4.7655845784034373e-001 -2.0457217532103425e-001
      5.0948378691328233e-001 -8.8705523100985492e-002
      7.4154815002394636e-001 3.9550043401007495e-001
      1.5279653374291063e-001 5.9784545818013589e-002
      4.7345619019390925e-002 8.2763165564026597e-001
      2.2888237914221146e-001 3.8197587973203012e-001
      4.6380400811542682e-001 -8.9448895059894973e-001
      -8.3515930098673696e-002 5.2961452957107247e-001
      -7.1576497931672756e-001 5.2757626417280878e-001
      -1.3384829380889776e-001 9.4575716374171714e-001
      2.4033130569295433e-001 1.8163587350332736e-001
      -6.7752921350017299e-003 -3.1991803226130910e-001
      3.1016294090554086e-001 1.9973701927465048e-001
      -2.7799928096251880e-002 1.3467236797383275e-001
      1.7665325486248556e-001 -5.7114998245015736e-001
      -4.1590649821378356e-001 -3.1882452985493753e-001
      -5.0466945888436388e-001 3.5331265185326544e-001
      7.7312358957127347e-002 -8.5427332949013113e-001
      3.9654259710799625e-002 8.8196202074601743e-002
      -7.1594414205515811e-001 1.7020005074484224e-001
      -9.7818522720078360e-001 -1.1776421860660891e+000
      -8.8718707323968027e-001 -3.1981015211025493e-001
      1.0223680706527392e+000 -5.2730917005084232e-001
      4.3753570398759950e-001 3.3511565379027036e-001
      3.0181469533759161e-002 -1.4432081998094107e-001
      -9.9939751254425682e-002 1.5636606402797451e+000
      -3.9336857596590169e-001 -2.9271718071304825e-002
      2.1965277556480603e-001 6.3008013104977867e-001
      -1.1609761680806489e-004 7.6651366914396180e-001
      -2.7302171298409583e-001 -2.4311872497262269e-001
      -6.3801252217731674e-001 -3.7525536113077529e-001
      -4.5220861511973087e-001 -7.0699474045830291e-001
      -2.7793475448111687e-001 1.2576655340224110e-001
      4.5202012701063032e-001 1.3451472439948969e-001
      4.2175036398312005e-001 4.6555731254230909e-001
      -9.3250507145712036e-002 5.7759080612212521e-001
      1.6844281536792516e-001 6.1141733248809083e-001
      -1.0795982581090921e-001 1.4574459328840017e-001
      6.1326606951054941e-001 -1.4103457974278828e+000
      4.9663197690898814e-001 4.3158569292982230e-001
      -9.9437445042486738e-001 2.9937315699865708e-001
      7.9949317446653151e-002 7.7400797721881387e-001
      4.3136941063290596e-001 -4.5994734514859487e-001
      -1.2023086864249238e-001 -5.8194413714823767e-001
      2.2298324954756685e-001 -6.9282931581613073e-003
      -4.7505235587839527e-002 2.5500630346811176e-001
      -6.8002708597453734e-002 -5.8213917837565821e-001
      -8.9719947619054485e-001 -5.3595184610368118e-001
      -2.3581987041282670e-001 4.6960354562535833e-002
      1.6249856536245114e-001 -1.0007747859031495e+000
      9.7424459004089942e-002 1.8834230880045377e-001
      -6.9824567846851637e-001 3.6361176287981822e-001
      -5.2551857455391926e-001 -5.1507045747492242e-001
      -7.9381574383843634e-001 7.5885951031978663e-002
      9.5235582200316438e-001 -4.8083185501897097e-001
      4.1888774288713754e-001 2.2126936835893812e-001
      2.1374132373290996e-002 -7.3611996797172174e-002
      -3.4886173383826924e-001 8.5701527938648536e-001
      -4.3785402673183982e-001 5.0649263146333383e-002
      3.7653357047910774e-001 3.2345444951880520e-001
      -1.0020447269085581e-001 6.7349211126183439e-001
      -4.1636122159052547e-001 -6.7001423299153229e-001
      -3.2727959773001686e-001 -1.0365880323947467e+000
      -5.5310484321662245e-001 -6.4585343177845500e-001
      -1.2026922178618420e-001 2.5126708358234590e-001
      2.0825909228354308e-001 3.5088115990268359e-001
      2.1448667626181242e-001 4.6409971866480426e-001
      -3.9247844554618216e-001 6.8734755521899171e-001
      1.2317293976919223e-001 6.0905285706817053e-002
      -3.9466233094973796e-001 -2.5049457703976724e-001
      5.0153862654302039e-001 -9.3485829157113931e-001
      3.7238781456733178e-001 -1.3384863270578271e-001
      -4.8558697846834675e-001 -2.8532644726348401e-002
      3.9020362142368992e-001 2.0571972742776959e-001
      2.5741489444525067e-001 -1.9685736566149356e-001
      -5.1099889294349909e-001 -2.3663972155801233e-001
      -6.0848285374364508e-001 -1.0914418672670466e-001
      1.6586553500862150e-001 -9.0472595010742188e-002
      2.3087843264637403e-001 -6.0990676993922599e-001
      -6.7204507896944676e-001 -6.0121045620843916e-001
      8.1484499482128853e-003 2.2680615997381295e-001
      4.2039975009492470e-002 -3.1940035929613303e-001
      3.5406069028177845e-001 4.6743578634561911e-002
      7.7025177711154580e-002 2.5874927155606275e-001
      3.9671531901582617e-002 1.3910455436622258e-002
      -6.7113738627564437e-002 4.9398750208681425e-001
      5.2215558160543718e-001 -2.3774913511500065e-001
      3.5405776373719294e-001 2.7497149930485487e-001
      -1.3076818476534560e-001 6.8443555533588649e-002
      -3.4301955209518209e-001 2.3591454372923673e-001
      -5.5541828982031261e-001 -3.3834669755495012e-002
      4.3467758820035368e-001 -3.7163919083921595e-003
      2.1393246505891669e-001 3.8642373376443932e-002
      -4.8845512265751700e-001 -5.2789266868681362e-001
      2.1812893547967505e-001 -1.1457906042564217e+000
      -4.6800363261129707e-001 -2.9426096933507928e-001
      -3.5237042868500501e-001 -7.6892240808209028e-002
      6.8724588629303668e-002 5.3750781467803643e-001
      -3.2124798723585796e-001 5.6205067962351929e-001
      -2.2530047296841021e-001 4.0124344669264939e-001
      -1.5022999466770831e-001 -3.2216925611399655e-001
      -5.7336151364389198e-001 -1.8096109204413546e-001
      -2.0672034233956313e-001 -5.1929306729486457e-001
      9.4798463747077255e-001 -1.6346115454430338e-001
      4.2747124616603016e-001 -2.3767062804644376e-001
      4.6500576602479177e-001 -4.2975766129742698e-001
      4.8639485483770495e-001 8.8177186501148752e-001
      -5.5419292542375131e-001 -2.0430880128498222e-001
      -3.9485929467971598e-001 -1.3081598923489762e-001
      6.1048422351653786e-001 -3.8079895343200143e-001
      5.1408578021303575e-001 -4.9782981025948225e-001
      -2.4561335824980299e-001 -7.0133126401745816e-001
      -5.1825333668111859e-002 2.9314038466493963e-001
      -2.3930666967225753e-001 6.3904020194761235e-001
      4.4658674326268982e-001 -7.9566264687798893e-001
      3.0923393031299456e-001 -3.3255277466701393e-002
      5.4332631126157015e-002 2.0212072033018805e-001
      9.0967816973070617e-002 7.8931651391336310e-001
      5.8475318956551681e-001 -1.8215717642735638e-001
      2.6690180603996860e-001 1.4796833387405178e-001
      -2.5736258314828669e-001 8.7672622455743556e-003
      -4.8169170700234187e-001 -4.7936587791743597e-002
      -3.5379833451530368e-001 -5.1505214023347609e-002
      5.9462187944234113e-001 2.5519298534425128e-001
      -6.5180970730346977e-003 8.8834676215696240e-002
      -3.6701156914875710e-001 -4.6166857024247693e-001
      5.3846339125616427e-001 -3.9460948655889261e-001
      -3.2315116610018291e-001 -2.2586817605753557e-002
      -1.7258230387108978e-001 -2.1165774501502230e-001
      -1.9114460981497605e-001 1.4725392612316834e-001
      -6.4115854109314396e-001 8.7072290111251172e-001
      1.5033027209291006e-001 -9.1634346117050999e-002
      -7.3022810628378332e-001 -2.0483369345952540e-001
      -6.4885264917929930e-001 -3.1368241467228164e-001
      -4.0791275921704362e-001 -1.8048486842813280e-001
      6.6167580505733270e-001 -1.6675933115148409e-001
      8.8476415769729666e-001 -1.9949151136753607e-001
      5.7971004995703235e-001 -5.4006789284916668e-001
      3.0291003414928425e-001 7.7653564910489126e-001
      -6.5889383755483821e-001 4.1943994004985753e-002
      -3.1698928568489043e-001 -1.6239464072563606e-001
      6.8642054268431651e-001 -2.7211485840144517e-001
      4.7625737893592768e-001 -3.1848967662895478e-001
      -3.7327428051698497e-001 -9.7950540302878153e-001
      -3.4749205579293191e-001 4.8867491984276962e-001
      -5.5526742623515729e-002 3.9228085727405421e-001
      6.1855848961697069e-001 -1.5751768349402240e+000
      8.7626197576211332e-002 -2.5348254536207232e-002
      -3.7996812953671757e-002 2.8087319060446725e-001
      -3.8736515257209343e-002 8.9259274433165625e-001
      4.9696125552121534e-001 1.6236835791644096e-002
      -1.4297708326136771e-001 -1.2901394303855251e-001
      -5.9250850443357352e-002 -4.7958335035727384e-002
      -6.3438575566194044e-001 4.2516670460209438e-001
      -2.8625016618756283e-001 -2.3696590739215750e-001
      3.7116723835736004e-001 7.2910486655470186e-001
      2.2044743138422659e-001 5.2590113611125133e-001
      2.3330218955224705e-002 -6.4115616743541304e-001
      -3.6338012441678835e-002 -2.2381088946281441e-001
      -3.5177549112442325e-001 -1.0389929622254544e-001
      -4.7228349716376648e-002 -2.4085994898258550e-001
      7.8548374011803312e-002 -2.8685186711079613e-001
      -3.9349949243715254e-001 9.3827645318769937e-001
      2.2598148264142057e-001 -2.9008752562452972e-001
      -8.0992073962140387e-001 -2.1514635957612480e-001
      -1.9294485799929920e-001 -5.1493915007398094e-001
      -4.2133880685679975e-001 6.8188350909715686e-002
      8.0097036928368770e-001 -5.4969352777313333e-003
      6.8770122388739541e-001 1.7872656469020151e-001
      2.6776514095541215e-001 -8.3174874161650969e-001
      2.5912904025440148e-001 7.5200982798364302e-001
      -5.8330397969875647e-001 9.7485365973410919e-003
      3.8035255952229202e-001 -7.2688940429857718e-001
      2.2154822118376843e-001 -3.1877102123690726e-001
      9.6462170543615267e-001 -1.7483670179654059e-001
      2.0491495234106556e-003 -5.8251859502256365e-001
      -6.1518369870463896e-001 3.2445351142862766e-001
      -1.7521876173136783e-001 -6.5082266755292606e-001
      6.5721520990949311e-001 -1.2935383681019790e+000
      7.8094468963528271e-002 6.7626703389860310e-001
      -7.1041874090143009e-001 5.4821980397047654e-001
      2.2858401142429985e-001 7.9120303400598957e-001
      3.5164379212088936e-001 -1.5080174898536522e-001
      -1.1247389178897855e+000 -2.2659640438675624e-001
      -3.5903660104961974e-002 -5.1384751926165113e-003
      -7.9259878502656311e-001 1.2169870770013759e-001
      -8.2206577450113116e-002 -4.1331730745807066e-001
      2.7192846940662418e-001 1.1794176354862176e+000
      4.1841265805876476e-001 1.2186446306617187e+000
      9.6952693826414291e-002 -6.9812628309795988e-001
      -2.5739231076834462e-001 -7.6917387211919253e-001
      -1.6059404560860191e-003 -2.6928810630529149e-001
      -3.0339810514569948e-001 -1.5112023561345580e-002
      2.4358937345647411e-002 -4.5907003802933256e-002
      -4.0515380895592423e-001 8.3098466381066327e-001
      6.5405198259048586e-002 -1.2299563030350365e-001
      -5.7703918694718526e-001 -3.5258694900064946e-002
      -5.8038056624805867e-001 1.8657683841028716e-001
      2.7872543081028922e-001 -1.0402826191456653e+000
      3.8319838061798561e-001 -2.5205359691485557e-001
      -2.7072238940097204e-001 -2.7745420837724100e-001
      1.6807671432215815e-001 1.9530995357650002e-001
      3.1396495245168005e-001 6.7298772789286865e-001
      -4.4875597744360513e-001 5.5815178421326073e-001
      -6.5518140013568915e-001 3.4314654593137328e-001
      -6.3428413910049919e-001 1.2815752365502392e-001
      -2.0224132755720206e-001 5.5821185109199922e-001
      -7.3167992732107157e-001 -1.4789592480488629e-003
      -8.8407729709416449e-001 -7.4060646496139790e-002
      -7.7332884623643683e-001 -3.7208697556298048e-002
      2.2868226579200207e-001 -8.3308194194996199e-001
      -6.8887682251369420e-001 3.9913131652232092e-001
      -5.5287857932798845e-001 -6.0124910168764834e-001
      -5.9249730459260713e-002 3.4815642620758314e-001
      2.0607108668558072e-001 -1.5576929020003547e-001
      -2.8179977338470841e-001 -2.2354708169719048e-001
      -6.3391245240474947e-001 -2.3172858814526384e-001
      2.9432485247430820e-002 -2.3011624970954497e-001
      -4.7323075713918111e-002 -4.3672666867456944e-001
      -5.5808501185590054e-001 1.3568676560075257e+000
      -2.2035696450622244e-001 5.2613048287801034e-001
      8.6688363959877712e-001 -3.2742952340505194e-001
      -1.4367736134847534e-001 4.5127761809636668e-001
      2.7237607324380392e-001 6.4744216919858388e-001
      -5.4841766359868982e-001 -7.1376492144443388e-002
      -2.5362503131585690e-001 -2.1678893071341060e-001
      -5.5992172766061284e-002 4.2683893967880016e-001
      4.7452257941099328e-002 2.5108139294743287e-001
      3.1905868269222221e-001 -4.7229128671277915e-001
      1.9715526603296185e-001 -2.1368614651312540e-002
      -1.0740845705933041e-001 -1.0233658781429087e+000
      3.9674188570141516e-001 -8.7827125478954118e-002
      -4.3303245452375161e-001 2.4852682081129282e-001
      3.2376972444097418e-001 3.4742259026435629e-001
      2.7521179777432431e-001 5.1052151056947959e-001
      -4.8887953530639694e-001 3.1202073127420593e-001
      -2.8342300485993070e-002 -7.7734560369508196e-002
      -3.9045381007851970e-001 1.8208893110970553e-001
      -2.5843168123416277e-001 6.0894778112164838e-001
      -4.0671037163399337e-001 -1.4737208567442306e-001
      -6.1616458491073767e-001 -2.0526171510927498e-002
      1.3689963653183945e-001 -5.4958082132773400e-001
      1.1311371381595105e-001 -5.8164877414683680e-001
      -1.1586047398928512e-001 -2.4433029865029701e-001
      -4.0988000866334823e-001 -2.8484837995471923e-001
      6.3795762569246683e-001 5.5070302733644987e-002
      3.2889027497045675e-001 2.8590691748479574e-001
      9.9088330749068837e-002 -1.7026763338229361e-001
      -3.2251830197328996e-001 2.3140618799946225e-001
      -9.7073015301650564e-002 -1.5726585891878958e-001
      4.6426720648716702e-001 -2.9481353727004839e-001
      -6.2541636348371488e-001 6.1600141811717701e-001
      2.6897881372552901e-001 6.6692650343670479e-001
      5.1526432030299352e-001 -1.6949558440383949e-001
      -3.3908181078104657e-002 1.1604691578987200e-001
      1.0428753503237057e-001 4.0716438648132863e-001
      -4.8824932604607618e-001 -2.7260844984942423e-001
      1.4635588280767639e-001 -1.3468685987742490e-001
      -4.5032548738820621e-001 6.3691023059067309e-001
      -1.5944687289352444e-001 6.7476459210354681e-002
      3.3412966748414395e-002 -4.2914060167966595e-001
      2.1068850254279711e-001 3.4702190126348037e-001
      1.0967583547275606e-001 -4.8917592234349011e-001
      -1.5876778540330660e-001 7.9674661527671131e-001
      -4.9849143280394725e-001 6.1273868669809539e-001
      2.6537055988814257e-001 1.0710835885962607e-001
      -7.5911442955042019e-001 -5.3719901840298923e-001
      -3.0707124040740684e-002 7.2503554954232413e-002
      -1.1573623118008003e-001 -6.7541936699991845e-001
      8.3956176406449770e-002 -9.6777710131196820e-002
      6.2940575544972333e-003 4.4233713259579482e-001
      -2.5479686707968863e-001 5.1915814080370125e-002
      -2.0442242100773966e-001 1.9824946595656878e-002
      -3.4391801099887084e-002 -4.6316453515433875e-001
      1.9408929158707350e-001 1.0594760695754388e-001
      2.2587610552461665e-001 -4.1206068769931647e-001
      3.2296634570833455e-002 1.0205643236884078e-001
      1.7612281786663248e-001 -3.5399854655850088e-001
      2.3461452195218921e-001 -6.6024480297074667e-002
      -1.9585037071842321e-001 2.0064424754406072e-003
      -8.5228875915545135e-002 1.6480460559297569e-001
      1.4094952047407090e-002 -2.9327067523793238e-001
      2.8866256020009451e-001 -7.7439247317230994e-002
      -5.3387960468190743e-001 2.5765816755706831e-002
      8.1215323124047922e-001 1.0248453724306862e-001
      -1.1621119286199341e-001 -1.2907293720217639e-001
      -2.3121550883539520e-002 7.5221971950189745e-002
      6.0681066366498698e-002 3.4135147287690926e-001
      -2.9460292013993555e-001 -5.1240072377843204e-001
      -1.6114157235339585e-001 2.9570370856715938e-001
      -9.0262496383539850e-002 7.3956121351827708e-001
      -2.9328946448354952e-002 -1.0782477555655055e-002
      1.9232527572304303e-001 3.2252126490184752e-001
      -2.1274894684156825e-001 7.0245986825242768e-001
      -1.6384879771757552e-001 -2.5087713220568558e-001
      -3.5203652155901721e-001 5.3376930063638239e-001
      -4.2968192890444540e-001 6.3291601654299234e-001
      1.5565460825506364e-001 -2.3368933292307761e-001
      -3.1038598463676886e-001 -7.2316462871311893e-001
      -1.0647479976125512e-001 -6.6133223798446716e-001
      1.0372273086122037e+000 -5.4668247366167644e-001
      5.7345561341336038e-001 -2.5932322237904565e-001
      2.3184898104669374e-001 4.3074838128914322e-001
      -3.6453249401982302e-002 9.8850867701792744e-002
      -4.5175516216124750e-001 -9.8957799449584327e-002
      -1.9825968304357969e-001 -9.5864696429224294e-001
      5.2269593461711172e-001 1.0989182976753360e-001
      1.0248609833776194e-001 -3.9828276955024355e-001
      5.1932010961073249e-001 -1.1409103274679294e-001
      2.1117875466723238e-001 -5.4449511379274484e-001
      -3.0499996248776856e-001 -3.9050660261881032e-001
      -4.3436705332242137e-001 -9.0366570916077271e-001
      -2.1914306206475265e-001 -1.5909159554490679e-001
      1.6970831062449909e-001 -8.2630586579149512e-001
      -9.5383807286025094e-002 4.1813051868313071e-003
      -1.3880983273083067e-001 3.5951352270650223e-002
      4.9713510465170119e-001 -5.4095389746236255e-001
      -2.8054546140065423e-001 -2.8115320042436314e-002
      -7.4664649512097957e-003 -1.2807775788441511e-001
      1.7461054285522790e-001 3.3411295637840904e-001
      1.7813017233507089e-003 -5.8084497813775016e-001
      -3.1093224078763759e-001 1.3967970661181511e-001
      -1.6113909764749954e-001 4.7858662428659227e-001
      -2.2617953743682067e-002 -1.2927569871087724e-001
      3.4255544983584030e-001 4.1758431169900917e-001
      -1.1680780803683664e-001 7.0124503647985159e-001
      -6.8894226306573270e-001 -3.8890350248567879e-001
      -9.8148893142788540e-001 3.9967537335055076e-001
      -5.7316638480193227e-001 2.1046579398754309e-001
      -1.5052032725972533e-001 -1.2541544172015423e-001
      1.3540650210841310e-001 -1.1493157526316955e-001
      -1.7838720036884270e-001 -6.7236236062728549e-001
      1.0385555140081755e+000 9.0017752692641617e-002
      1.6266600187905247e-001 -1.7884978771993573e-001
      -2.1740861661877389e-001 1.8651925308916906e-001
      -2.7559002119387010e-001 5.0775415346934938e-001
      -7.7912565426315339e-001 -2.3852581776388587e-001
      -1.1818156376044404e-001 -8.8966816209723487e-001
      1.9996159194751414e-001 3.7179111919277319e-001
      1.2137243882581330e-002 -8.0388711151147013e-002
      1.0005307723493682e+000 -2.6423961847168925e-001
      4.3848717606696408e-001 -2.6166976810138437e-001
      -3.2835425491996550e-001 -3.8985248411230172e-001
      -7.8957472952104132e-002 -8.2042801998344816e-001
      -1.3972740424660809e-001 -4.8677594715286909e-001
      2.7684257966643144e-001 -3.4344685985461487e-001
      -1.6055975531557035e-001 -5.3005190118113298e-002
      -4.2104904393768197e-002 1.6889582049055918e-001
      1.8980335574360482e-001 -8.7328626346563951e-002
      -4.5135144674695915e-001 -1.6444861568491287e-002
      -4.1427430110854618e-002 9.6260100887244293e-002
      2.5443875702798541e-003 6.0081405583522696e-001
      -2.5632910417223417e-002 -2.0287116323082793e-001
      1.1446147903069467e-001 -2.2965252732991048e-001
      -4.1236711729916653e-001 2.2055553104023007e-001
      -8.0952178973789687e-002 -1.4469435753420723e-001
      1.8206954923208843e-001 2.8327349643375427e-001
      -3.4414187172553040e-001 4.1527781727358853e-001
      -3.2955638306023122e-001 2.6759866490003347e-002
      -6.3100410774856763e-001 6.0002442923719557e-001
      -9.0663020756662305e-001 -2.1262957243894004e-001
      -3.5569983405051625e-001 2.5897418616085265e-002
      -1.8901821454948470e-001 2.4858279984351797e-001
      2.4159856164200272e-002 2.2536175829182339e-001
      7.6064250847525905e-001 3.6488118376114820e-001
      -5.0650998714080253e-001 8.0933777776989180e-002
      -2.8434270172833070e-001 4.9461409005878100e-003
      -4.2978516519545146e-001 6.7047802414814950e-001
      -6.8705339240046670e-001 4.5536855486667208e-002
      3.1446977710525792e-001 -2.4432982304514472e-001
      -5.7837863039619117e-002 3.8583577096023208e-001
      -5.4321581038050681e-001 2.6005406417320620e-001
      7.7896812371262492e-001 -6.1023399550757851e-001
      4.8201877161699658e-001 -1.6160099385087667e-001
      -8.0254381156628744e-003 8.8299318704615520e-002
      1.4684880436530373e-001 6.6771999553055211e-002
      -4.6156847154765795e-001 -6.0816325475442112e-001
      -5.3815908520584634e-002 -3.0821266663557667e-001
      1.3786028504440306e-001 -1.8226380633536676e-001
      -4.1864748710159383e-001 -2.2135900538805781e-001
      2.1900661365319291e-001 1.2122710006363201e-001
      -3.2790442220775950e-001 -1.8613653075866915e-001
      -2.6614957729807170e-001 -1.0466764491893092e-001
      -7.2610137120652984e-001 2.7786593274108745e-001
      -3.8644116250796612e-001 2.2573498645530751e-001
      7.0899229876364445e-001 -1.4752315127717805e-001
      -2.3251731951618851e-001 1.3451950376160010e-001
      -4.5560247577732804e-002 4.1715688143615537e-001
      2.4003683543433488e-001 2.2256471978275341e-001
      -1.1295351726016066e-001 -1.2966531138477619e-001
      2.2841045551280206e-001 3.6118388825871572e-001
      6.6633734273001913e-002 7.0192812619460765e-001
      -5.5374395435865686e-001 -7.5664555561037072e-002
      -4.1652041611630197e-001 2.5573333058435754e-001
      -9.1715787249593150e-001 3.5787145893239558e-001
      5.0780513955146178e-001 4.3447903380174613e-001
      -2.1591521004685130e-001 5.7535073739769196e-002
      -5.4019493107246985e-001 2.3483202700744915e-001
      -1.7350306805504936e-001 -1.4049036013784719e-001
      7.3198645275321994e-002 5.6383332285064824e-001
      -5.5793498703704603e-001 3.5643380261119900e-001
      1.1816668850044544e-001 4.4839123769614647e-001
      1.6848649692984394e-001 4.8067785221811432e-001
      -1.9864904837528705e-001 3.0104150901998872e-001
      5.0901247179382669e-001 -8.6184029375602877e-001
      2.6041286428919336e-001 -1.9533579634950651e-001
      9.4893180743484365e-002 2.0773570184269355e-001
      4.8388395267078754e-001 3.1875430271855137e-001
      -6.2703088453682465e-001 -2.4483514179260504e-001
      -4.2416199574897023e-001 -1.2231001204059308e-002
      4.6936636616180000e-001 -1.7760462010057315e-001
      -6.3253001703282519e-001 -6.5708799763841086e-001
      5.6638786582971123e-001 2.9457435915275370e-002
      -2.8279565687343000e-001 1.1077868276531497e-001
      -5.7911003417567930e-001 1.0966519806045293e-001
      -4.0922075402438063e-001 3.0052615624527801e-001
      -2.4346765287503774e-001 1.8375654066256167e-001
      7.9665675418111925e-001 -1.2346767716065381e-001
      -1.9980469465421197e-001 1.0725667464189731e-001
      3.0740173152197809e-002 5.6118551505088232e-001
      3.5413926724252848e-001 4.2230440697795130e-001
      -3.6802705778479322e-001 -4.5132947153102487e-001
      4.1286440200898156e-001 7.2257606376009453e-001
      -1.0629786784861575e-002 7.8417307059629116e-001
      -6.1510167644488155e-002 1.3627653403832468e-001
      -3.9108064450672553e-001 6.7689196676593766e-001
      -7.3680454053871614e-001 -1.2817610929595724e-001
      7.9822475990806241e-001 3.7961889474012644e-001
      -4.9338207887370999e-001 -1.7110139501934485e-001
      -4.2243312693524399e-001 4.7776967649148039e-001
      2.8028710788514544e-001 -3.1760027336898894e-001
      3.1434152252324715e-001 -1.4186590422877788e-003
      -2.7783002267500101e-001 1.2852422567102448e-001
      -3.2932330019043687e-001 8.0777084986228487e-001
      3.0782301644782456e-001 2.0378648968811638e-001
      3.9335065080202812e-002 1.5190646895084325e-001
      6.1596602767927200e-001 -3.2198166009637630e-001
      -1.3860082108082761e-001 -1.3032062434703146e-001
      -1.4623676468459845e-001 5.3893932552567092e-001
      4.3765416264798790e-001 -2.0153249002357065e-001
      -4.3578663936591572e-001 2.4213958700776383e-001
      -5.1963987706041874e-002 2.8074001161183287e-001
      5.0647830633970181e-001 -8.6704055486768516e-002
      -5.9073804639191241e-001 -8.3978132482224976e-001
      4.0860510379356807e-001 -3.8160675299774227e-001
      -2.2023346039549549e-001 7.0177280032890821e-001
      -4.7831407495173828e-001 2.5946727673191378e-001
      9.6370317287793925e-002 2.9388164817640733e-001
      3.0620815305474634e-002 -3.6022727376822461e-001
      9.8423967341848861e-001 -2.0843004639146897e-002
      -1.8924214384988011e-001 2.0884355605302776e-001
      -2.5895186378817560e-003 4.1248714818504290e-001
      4.9615795673853641e-001 -1.7619392803194599e-002
      -3.4872410057152387e-001 -4.5041502259127031e-001
      4.5412117836935362e-001 8.5041809819260794e-001
      -4.9723833440088899e-001 7.0093075648073377e-001
      -2.9824452755478958e-001 2.5772522679876959e-002
      -2.9177726664541487e-001 1.0184309927981141e+000
      -3.3126266958996176e-001 -4.2680653540395708e-001
      6.0008896216506769e-001 5.5418407569526729e-001
      -3.5375586814098364e-001 1.7501104141798170e-002
      -4.7907861653797273e-001 6.6150873396173959e-001
      7.3486545568037365e-001 -4.2685440919163864e-001
      9.8379424491737888e-001 -3.8813931973040183e-001
      4.9604340507491279e-001 1.9245664390081021e-001
      -1.6353796883604241e-001 7.6676629861015444e-001
      6.7350717856453690e-001 -3.4091888891851052e-001
      3.9555610780425943e-001 -1.4576851484278339e-001
      5.3488743300607122e-001 1.5854906120712670e-001
      -2.0745475485639794e-001 -9.4288962391082462e-002
      -8.4328967801067620e-002 3.2543551222573447e-001
      2.4183706010225003e-001 -1.7218061004465129e-001
      -3.0612667209442113e-001 3.5476330930672306e-001
      1.5197864874415509e-001 2.5397133063346417e-001
      5.0647342896944847e-001 -4.2906547324320288e-001
      -2.7281001137381161e-001 -5.7459033875335075e-001
      -1.9643760812521568e-001 -7.9874515777845179e-001
      3.3111635097324787e-001 7.7986395191755931e-001
      -2.1383806324442076e-001 1.7213854777679277e-001
      2.0342133676529603e-001 7.7093665943591372e-001
      2.5261442769945347e-001 -1.9338831515891658e-001
      2.6809953343925669e-001 1.5944494496897568e-001
      -1.5765287061783963e-002 4.9623988330444890e-001
      2.4156970012463985e-001 3.5526831385108509e-001
      2.4515932865607576e-002 -4.5382738806962425e-001
      -2.1554027720364612e-002 -3.2938292891972626e-001
      -2.4913260390593060e-003 4.8929810750869396e-001
      -2.9991081419287952e-001 3.0425757962862876e-001
      -2.8452430736967205e-001 -1.2100886715746278e-001
      -2.8348051495316473e-001 3.4348093547117475e-001
      -3.0927450404753037e-001 -7.9324078883659965e-001
      4.3613485601353369e-001 1.2090822060430468e+000
      -1.3556369119610809e-001 2.7547217030705096e-001
      -8.8648135051355248e-001 7.0032604449287095e-001
      5.1280148963311500e-001 -5.2851475178401730e-001
      7.7722878607870949e-001 -2.9045295882038991e-001
      8.1338446830886402e-001 2.9910526485390926e-001
      -1.1620826339430346e-001 9.9134914770846416e-001
      7.6123188529883090e-001 -4.7604977556566563e-001
      2.8419898332210292e-001 -2.7965404649594200e-001
      7.9379318288847389e-001 5.1098250001403056e-001
      -1.6477469498192635e-001 1.3664688389302401e-001
      5.9593855071359454e-003 2.0007863767581860e-001
      2.2900487041927325e-001 1.5056348800261488e-001
      -3.3059845924151038e-001 -8.7132232988772929e-002
      1.9090690148436529e-001 1.5277933774527835e-001
      4.9011016243571137e-001 -6.4671975968296613e-001
      1.8685177026811866e-002 1.6240624635786213e-001
      -8.4182350678547055e-002 -6.9982803704883090e-001
      4.6607929688431793e-001 5.3266928938874436e-001
      -2.9522769102484997e-001 4.5030352725318945e-001
      3.5613613344824091e-001 3.3566266048508830e-001
      2.7955804286425201e-001 2.6785272564994889e-001
      -3.0514631243915674e-001 2.2756963659975421e-001
      3.5932051839631812e-001 4.3709951718935142e-001
      3.1028903213943376e-001 2.1260808604926806e-001
      1.7529771613758803e-003 -4.7805010230051298e-001
      5.5497279918440789e-001 -1.6118309840209705e-001
      2.1339327560687096e-001 4.5778887932394080e-001
      3.4153414741223986e-001 -7.5744625220174047e-003
      -2.8049823544486624e-001 2.7242120331390446e-001
      -3.0804766811331175e-001 7.0684835518862232e-002
      -1.1990476776401007e-001 -7.5989866343549339e-001
      3.0422374961737292e-001 1.0129839511309122e+000
      -8.0333188948470258e-001 2.4603729202236663e-001
      -1.1304799543169886e+000 9.2220985052686957e-002
      4.0249341734791899e-001 -3.7786267847356997e-001
      3.6222195155419934e-001 -3.3253858300530331e-001
      1.0963228854703466e+000 3.0456165785139588e-001
      1.5442071679246436e-001 1.1106228553443400e+000
      7.3359872006134874e-001 1.8473644131967984e-001
      -9.2162441688709962e-002 -4.1730984900415402e-001
      9.2775133026996581e-001 6.6480357619422381e-001
      -2.5095826225183515e-001 8.4657615037985301e-002
      -2.2602749564326027e-001 -1.9302443177618846e-002
      4.3318233252207000e-001 3.7854578938913302e-001
      -5.0212227627636452e-001 -4.1788549128921398e-001
      7.6989788803515568e-003 1.2675094049951000e-001
      3.0561863250107274e-001 -6.2711411708912079e-001
      -1.1632331667383673e-001 4.8311868552097709e-001
      -1.3162960348321187e-002 -4.3559502974506270e-001
      1.0260934813870631e-001 1.4696062463647122e-001
      -4.6003677440127244e-001 1.2723867622273968e-001
      7.3690903853178658e-001 1.8525956169819841e-001
      -6.8699593970602851e-002 6.5474412486787692e-001
      -1.4142632755595183e-001 2.6664543735388315e-002
      6.8739970747974588e-001 4.2642984061950767e-001
      1.8182300636521795e-001 -1.5402463153931556e-001
      -2.5711917761226116e-001 -3.6169845399827250e-001
      6.7360061254848480e-001 1.1236242021112890e-001
      3.8246090307423336e-001 2.2485415834909889e-001
      4.7257670790635126e-001 -8.9337232629354862e-002
      -4.9133638388426443e-001 4.1758855936677414e-001
      -5.6354171930792077e-002 3.9795190670973551e-001
      2.3362410948502596e-001 -2.4952032395590565e-001
      6.1393035877452018e-001 1.1276724029274804e-001
      -9.7011052278059318e-001 -9.9850837002001258e-002
      -1.0378741235345101e+000 -8.1576785693178916e-002
      3.4777750891617359e-001 -1.5128992597254567e-001
      7.8480037707827977e-001 -4.5516329120110799e-001
      9.5587729477774119e-001 5.2250148630046855e-001
      1.9226972444754811e-001 4.1829036229095001e-001
      7.4182605664205736e-001 -1.1372284677772999e-001
      4.9302960626058701e-001 -5.6134968167247057e-001
      5.0888268114004731e-001 4.2431251087890220e-001
      -6.0853219538550285e-001 -1.4958495345438441e-001
      -6.2033778661566730e-001 -1.2356563125051745e-001
      5.4491326954528956e-002 3.5616198297257318e-001
      -5.1070590797533333e-001 -2.8286189822409269e-001
      1.0398521795383776e-001 7.1708704543829022e-002
      3.4464242425830272e-001 -4.9883480280196429e-001
      -4.8149698225917076e-001 6.1269760296329590e-001
      -2.2406828295855302e-001 -4.2185075150067652e-001
      -2.6906898699993514e-001 -1.6658461964627436e-001
      -4.2698239897134593e-001 -8.2627096165396027e-002
      7.6760322058095887e-001 -1.8474273940493244e-001
      -2.6633661283232035e-001 4.1464908682060603e-001
      -1.7733259765806388e-002 -9.6621007559932692e-002
      5.5851826457668252e-001 3.1469594166228743e-001
      -8.7736275149168721e-003 -3.9906062780709373e-001
      -6.7264995199555933e-001 1.1288351497835100e-001
      4.0886051400319651e-001 7.1517480588127222e-002
      5.1562807546653600e-001 -1.4707730330931021e-001
      1.0750175591305018e-001 4.2917623533188641e-002
      -5.3729754845205890e-001 5.5311162293827387e-001
      5.0162562586892312e-001 7.1491422836865315e-001
      2.0761520711825643e-001 3.9487920499512807e-001
      5.6649759505858344e-001 -3.9959499522948458e-002
      -5.7796152376048116e-001 -4.2723987253062728e-001
      -5.2512483077411498e-001 -2.9302432287198497e-002
      3.8276685677784689e-001 6.3009717646042920e-002
      8.9002336987736441e-001 -7.2473298429028299e-001
      4.5213655033749384e-001 6.2245586970996625e-001
      8.4067150122741033e-002 4.0766070078245797e-001
      7.7543551484293505e-001 -1.4008686343777974e-001
      4.8010235696914078e-001 -3.5024929228405366e-001
      -2.7739157341804266e-001 -1.0361918567426935e-001
      -8.4271489678643807e-001 -2.5818997795781651e-001
      -3.7742034556870052e-001 -5.6149126034074581e-001
      -3.9991398846528942e-001 2.6750586920768438e-001
      -3.4671520350501261e-001 -4.9569715510978185e-001
      2.9489494097428287e-001 4.0363960356601136e-001
      7.1538136369177968e-002 -5.5566342215864362e-001
      -3.5856813038788998e-001 5.5285309719510567e-001
      -2.8771481002788185e-001 -3.8358415427274611e-001
      -9.9486208271797327e-002 -3.3829010400804292e-002
      -1.8006127191656587e-001 2.0606608535387161e-001
      2.2509692840754317e-001 -3.8165330538105380e-001
      -3.6588792022193234e-001 -2.6003866124977015e-001
      6.9424470762034243e-002 -1.6195415821359543e-001
      4.9335370983022048e-001 1.0765573652860659e-001
      8.9068374476741430e-002 -4.0718101412855029e-001
      -6.6192157721052691e-001 7.1138027702644313e-001
      3.3092635356724337e-001 1.4238293086045820e-001
      6.8477488737999437e-001 -5.4058092775276956e-001
      -4.8891285290529651e-001 1.8811890638201120e-001
      -5.9722418559617230e-001 4.8029805638138584e-001
      2.1470605076520760e-001 6.5572063439033368e-001
      1.7006316335826607e-001 8.9219369047953845e-001
      2.5557044362560960e-001 3.8838106629881530e-001
      1.4346379231603665e-001 -3.0056804730528763e-001
      -2.5669857757897280e-001 2.5899503420519943e-001
      3.9041641919866038e-001 7.1606976093214161e-002
      3.2711390231563831e-001 -5.6412818394305442e-001
      -1.0339952815064399e-001 4.8461987904356962e-001
      -1.7339651799830269e-001 -4.3745327954338317e-002
      6.4549469206292487e-001 9.2218545561858878e-001
