<?xml version="1.0"?>
<opencv_storage>
<svm type_id="opencv-ml-svm">
  <svm_type>C_SVC</svm_type>
  <kernel><type>RBF</type>
    <gamma>3.3750000000000002e-002</gamma></kernel>
  <C>1.2500000000000000e+001</C>
  <term_criteria><epsilon>2.2204460492503131e-016</epsilon>
    <iterations>100000</iterations></term_criteria>
  <var_all>172</var_all>
  <var_count>172</var_count>
  <class_count>2</class_count>
  <class_labels type_id="opencv-matrix">
    <rows>1</rows>
    <cols>2</cols>
    <dt>i</dt>
    <data>
      0 1</data></class_labels>
  <sv_total>574</sv_total>
  <support_vectors>
    <_>
      0. 0. 0. 7.14285746e-002 7.14285746e-002 1.07142866e-001
      1.07142866e-001 1.07142866e-001 1.07142866e-001 1.42857149e-001
      2.14285731e-001 6.78571463e-001 9.64285731e-001 9.28571463e-001
      9.28571463e-001 8.92857194e-001 8.92857194e-001 8.21428597e-001 0.
      0. 0. 0. 0. 0. 0. 0. 0. 0. 0. 0. 0. 0. 0. 0. 0. 0. 0. 0. 0.
      3.57142873e-002 1.42857149e-001 2.85714298e-001 4.28571463e-001
      5.35714328e-001 6.07142866e-001 7.85714328e-001 9.28571463e-001 1.
      8.92857194e-001 7.14285731e-001 6.07142866e-001 4.64285731e-001
      2.85714298e-001 3.57142873e-002 0. 0. 0. 0. 0. 0. 0. 0.
      7.14285746e-002 1.07142866e-001 1.07142866e-001 1.07142866e-001
      1.07142866e-001 1.07142866e-001 1.07142866e-001 1.42857149e-001
      2.85714298e-001 3.92857164e-001 5.71428597e-001 7.14285731e-001
      6.42857194e-001 6.42857194e-001 5.71428597e-001 3.92857164e-001
      2.85714298e-001 1.42857149e-001 0. 0. 0. 0. 0. 0. 0.
      1.42857149e-001 2.85714298e-001 5.00000000e-001 6.78571463e-001
      7.14285731e-001 7.85714328e-001 9.64285731e-001 8.92857194e-001
      8.21428597e-001 6.78571463e-001 5.35714328e-001 3.92857164e-001
      2.14285731e-001 1.42857149e-001 0. 0. 0. 0. 0. 0. 0. 0. 0. 0. 0.
      0. 0. 0. 0. 0. 0. 0. 0. 0. 0. 3.57142866e-001 7.85714328e-001
      8.57142925e-001 8.92857194e-001 9.28571463e-001 8.92857194e-001
      8.21428597e-001 5.35714328e-001 2.50000000e-001 2.14285731e-001
      1.42857149e-001 7.14285746e-002 3.57142873e-002 3.57142873e-002
      4.16666657e-001 6.38888896e-001 9.16666687e-001 1. 7.77777791e-001
      7.22222209e-001 7.77777791e-001 8.61111104e-001 9.16666687e-001
      8.61111104e-001 8.61111104e-001 8.05555582e-001 8.61111104e-001
      8.33333313e-001 8.88888896e-001 8.88888896e-001 9.16666687e-001
      8.33333313e-001 8.05555582e-001 8.33333313e-001 8.61111104e-001
      9.16666687e-001 8.88888896e-001 8.61111104e-001 8.61111104e-001
      8.33333313e-001 8.33333313e-001 8.61111104e-001 8.88888896e-001
      8.61111104e-001 8.05555582e-001 5.27777791e-001 3.61111104e-001
      2.77777791e-001 5.55555560e-002 0.</_>
    <_>
      0. 0. 0. 0. 0. 0. 1.33333340e-001 2.00000018e-001 1.33333340e-001
      6.66666701e-002 0. 0. 0. 0. 0. 0. 0. 6.66666701e-002
      2.00000018e-001 6.66666701e-002 6.66666701e-002 0. 2.66666681e-001
      4.00000036e-001 4.66666698e-001 5.33333361e-001 6.66666687e-001
      7.33333349e-001 5.33333361e-001 4.66666698e-001 2.66666681e-001
      4.66666698e-001 6.00000024e-001 5.33333361e-001 6.00000024e-001
      5.33333361e-001 5.33333361e-001 6.66666687e-001 8.00000072e-001
      6.66666687e-001 4.66666698e-001 5.33333361e-001 4.66666698e-001
      5.33333361e-001 4.00000036e-001 4.00000036e-001 3.33333343e-001
      3.33333343e-001 5.33333361e-001 9.33333397e-001 1. 5.33333361e-001
      2.00000018e-001 1.33333340e-001 1.33333340e-001 2.66666681e-001
      3.33333343e-001 4.00000036e-001 5.33333361e-001 7.33333349e-001
      6.00000024e-001 4.66666698e-001 4.00000036e-001 2.66666681e-001
      6.66666701e-002 6.66666701e-002 0. 0. 0. 0. 0. 0. 0. 0. 0.
      6.66666701e-002 4.00000036e-001 8.00000072e-001 8.00000072e-001
      9.33333397e-001 9.33333397e-001 9.33333397e-001 4.66666698e-001
      3.33333343e-001 4.66666698e-001 3.33333343e-001 2.00000018e-001 0.
      1.33333340e-001 4.66666698e-001 3.33333343e-001 6.00000024e-001
      8.66666734e-001 7.33333349e-001 7.33333349e-001 6.00000024e-001
      6.66666687e-001 7.33333349e-001 8.66666734e-001 8.66666734e-001
      8.00000072e-001 6.00000024e-001 3.33333343e-001 2.66666681e-001
      4.66666698e-001 4.00000036e-001 4.00000036e-001 6.00000024e-001
      8.00000072e-001 9.33333397e-001 9.33333397e-001 8.66666734e-001
      7.33333349e-001 6.66666687e-001 7.33333349e-001 8.00000072e-001
      7.33333349e-001 6.66666687e-001 6.00000024e-001 4.00000036e-001
      3.33333343e-001 3.33333343e-001 2.66666681e-001 2.00000018e-001
      6.66666701e-002 0. 0. 0. 6.66666701e-002 1.33333340e-001
      1.33333340e-001 0. 0. 0. 0. 0. 2.12765951e-002 2.12765947e-001
      1.91489354e-001 6.38297871e-002 2.12765951e-002 1.48936167e-001
      1.48936167e-001 2.55319148e-001 1.91489354e-001 2.76595742e-001
      5.53191483e-001 5.53191483e-001 5.31914890e-001 3.82978708e-001
      5.10638297e-001 7.44680822e-001 7.87234008e-001 9.99999940e-001
      9.36170161e-001 6.59574449e-001 5.95744669e-001 6.17021263e-001
      6.59574449e-001 9.14893568e-001 9.57446754e-001 7.02127635e-001
      5.10638297e-001 2.76595742e-001 8.51063803e-002 1.70212761e-001
      3.61702114e-001 4.46808487e-001 5.95744669e-001 5.31914890e-001
      3.40425521e-001 8.51063803e-002</_>
    <_>
      0. 0. 0. 0. 0. 3.68421048e-001 7.89473712e-001 8.94736826e-001
      9.47368443e-001 8.94736826e-001 8.42105269e-001 8.42105269e-001
      7.89473712e-001 4.21052635e-001 3.68421048e-001 5.26315793e-002
      1.57894731e-001 1.57894731e-001 0. 0. 0. 0. 3.68421048e-001
      3.68421048e-001 2.63157904e-001 2.10526317e-001 3.68421048e-001
      5.78947365e-001 6.84210539e-001 5.26315808e-001 4.21052635e-001
      2.10526317e-001 1.05263159e-001 0. 1.57894731e-001 3.68421048e-001
      4.73684222e-001 5.78947365e-001 5.78947365e-001 4.21052635e-001
      2.10526317e-001 0. 2.63157904e-001 6.31578922e-001 7.36842096e-001
      7.36842096e-001 7.36842096e-001 7.36842096e-001 7.89473712e-001
      8.42105269e-001 8.42105269e-001 8.42105269e-001 8.42105269e-001
      8.42105269e-001 7.89473712e-001 6.84210539e-001 4.21052635e-001
      2.63157904e-001 1.57894731e-001 5.26315793e-002 3.15789461e-001
      5.78947365e-001 7.89473712e-001 1. 8.94736826e-001 5.26315808e-001
      2.63157904e-001 0. 2.63157904e-001 4.73684222e-001 5.26315808e-001
      7.36842096e-001 8.42105269e-001 8.94736826e-001 9.47368443e-001
      7.36842096e-001 6.31578922e-001 6.84210539e-001 6.84210539e-001
      8.42105269e-001 7.89473712e-001 8.42105269e-001 8.94736826e-001
      9.47368443e-001 7.36842096e-001 7.89473712e-001 5.78947365e-001
      5.26315808e-001 3.68421048e-001 3.68421048e-001 5.78947365e-001
      6.84210539e-001 8.94736826e-001 4.73684222e-001 1.05263159e-001 0.
      0. 0. 5.26315793e-002 1.05263159e-001 1.57894731e-001
      2.10526317e-001 2.10526317e-001 2.63157904e-001 3.15789461e-001
      3.15789461e-001 3.68421048e-001 3.68421048e-001 3.68421048e-001
      3.68421048e-001 3.68421048e-001 4.21052635e-001 4.21052635e-001
      4.21052635e-001 4.21052635e-001 4.21052635e-001 4.21052635e-001
      4.73684222e-001 4.73684222e-001 4.73684222e-001 4.73684222e-001
      4.73684222e-001 4.73684222e-001 5.26315808e-001 4.73684222e-001
      4.73684222e-001 4.73684222e-001 5.26315808e-001 4.73684222e-001
      4.73684222e-001 4.73684222e-001 4.73684222e-001 4.73684222e-001
      4.73684222e-001 4.73684222e-001 4.73684222e-001 1.75675675e-001
      2.83783793e-001 3.64864886e-001 4.59459484e-001 6.75675690e-001
      7.97297299e-001 9.59459484e-001 1. 9.18918967e-001 6.75675690e-001
      4.72972989e-001 6.75675690e-001 7.29729772e-001 7.29729772e-001
      6.89189196e-001 7.16216207e-001 6.75675690e-001 6.75675690e-001
      6.35135174e-001 5.13513505e-001 5.27027011e-001 3.91891897e-001
      3.78378391e-001 1.89189196e-001 9.45945978e-002 5.40540554e-002
      1.48648649e-001 1.48648649e-001 1.89189196e-001 3.10810804e-001
      3.10810804e-001 2.56756753e-001 2.16216221e-001 1.21621624e-001 0.
      0.</_>
    <_>
      1.00000009e-001 2.00000018e-001 3.00000012e-001 2.66666681e-001
      2.33333349e-001 2.33333349e-001 2.66666681e-001 3.66666675e-001
      3.33333343e-001 3.66666675e-001 4.33333367e-001 4.66666698e-001
      3.66666675e-001 3.66666675e-001 4.33333367e-001 5.33333361e-001
      5.00000000e-001 4.66666698e-001 4.33333367e-001 3.00000012e-001
      2.66666681e-001 2.33333349e-001 2.33333349e-001 1.00000009e-001 0.
      0. 0. 0. 0. 0. 0. 0. 0. 0. 3.33333351e-002 6.66666701e-002
      3.33333351e-002 1.00000009e-001 1.33333340e-001 1.33333340e-001
      1.33333340e-001 3.33333351e-002 0. 0. 0. 0. 2.00000018e-001
      2.00000018e-001 1.66666672e-001 1.66666672e-001 1.33333340e-001
      1.33333340e-001 1.00000009e-001 1.33333340e-001 1.00000009e-001
      1.66666672e-001 3.33333343e-001 4.66666698e-001 5.66666722e-001
      5.33333361e-001 4.00000036e-001 3.33333343e-001 2.33333349e-001
      1.33333340e-001 0. 0. 6.66666701e-002 2.00000018e-001
      2.33333349e-001 4.33333367e-001 5.66666722e-001 5.00000000e-001
      5.00000000e-001 3.33333343e-001 2.00000018e-001 1.33333340e-001
      2.00000018e-001 6.66666701e-002 6.66666701e-002 3.33333351e-002 0.
      0. 0. 0. 1.00000009e-001 2.66666681e-001 3.00000012e-001
      2.66666681e-001 3.00000012e-001 3.33333343e-001 3.33333343e-001
      3.66666675e-001 3.33333343e-001 3.00000012e-001 2.66666681e-001
      2.00000018e-001 2.00000018e-001 1.66666672e-001 1.33333340e-001
      2.00000018e-001 3.00000012e-001 3.33333343e-001 2.00000018e-001
      2.33333349e-001 3.00000012e-001 4.00000036e-001 3.00000012e-001
      2.66666681e-001 2.33333349e-001 3.00000012e-001 1.66666672e-001
      1.66666672e-001 2.00000018e-001 2.00000018e-001 3.00000012e-001
      4.66666698e-001 5.66666722e-001 7.33333349e-001 7.00000048e-001
      9.33333397e-001 1. 7.00000048e-001 3.00000012e-001 1.33333340e-001
      1.00000009e-001 1.66666672e-001 2.66666681e-001 3.33333343e-001
      3.33333343e-001 3.00000012e-001 4.66666698e-001 6.33333385e-001
      7.33333349e-001 7.33333349e-001 2.33333349e-001 0. 5.33333361e-001
      4.44444448e-001 5.55555582e-001 7.55555570e-001 9.55555558e-001
      9.33333337e-001 8.66666675e-001 6.88888907e-001 5.33333361e-001
      5.11111140e-001 5.11111140e-001 6.00000024e-001 8.22222233e-001 1.
      9.55555558e-001 7.55555570e-001 6.88888907e-001 5.55555582e-001
      4.44444448e-001 3.33333343e-001 2.66666681e-001 2.88888901e-001
      4.66666669e-001 7.33333349e-001 9.11111116e-001 9.55555558e-001
      9.33333337e-001 9.11111116e-001 7.11111128e-001 6.44444466e-001
      5.11111140e-001 5.11111140e-001 5.11111140e-001 4.44444448e-001
      3.33333343e-001 2.88888901e-001</_>
    <_>
      2.69230783e-001 3.46153855e-001 3.84615391e-001 3.46153855e-001
      3.46153855e-001 3.46153855e-001 2.30769247e-001 1.92307696e-001
      2.30769247e-001 2.30769247e-001 1.92307696e-001 2.30769247e-001
      2.30769247e-001 2.30769247e-001 2.30769247e-001 1.92307696e-001
      1.53846160e-001 1.15384623e-001 0. 0. 0. 0. 1.15384623e-001
      3.07692319e-001 6.92307711e-001 8.46153855e-001 6.15384638e-001
      3.84615391e-001 2.30769247e-001 1.92307696e-001 1.92307696e-001
      1.53846160e-001 1.92307696e-001 1.53846160e-001 1.53846160e-001
      1.53846160e-001 2.30769247e-001 4.23076928e-001 7.30769277e-001
      7.30769277e-001 4.61538494e-001 3.07692319e-001 1.53846160e-001
      1.15384623e-001 0. 0. 0. 0. 0. 0. 2.30769247e-001 5.38461566e-001
      8.46153855e-001 7.30769277e-001 5.38461566e-001 2.69230783e-001
      1.92307696e-001 1.92307696e-001 1.92307696e-001 2.30769247e-001
      2.69230783e-001 8.46153855e-001 5.76923072e-001 4.23076928e-001
      3.84615391e-001 2.69230783e-001 2.30769247e-001 1.92307696e-001
      2.30769247e-001 3.07692319e-001 2.69230783e-001 2.30769247e-001
      1.92307696e-001 3.46153855e-001 5.76923072e-001 8.07692349e-001
      7.69230783e-001 5.38461566e-001 2.69230783e-001 1.92307696e-001
      1.53846160e-001 0. 0. 0. 0. 0. 1.53846160e-001 2.30769247e-001
      3.46153855e-001 4.61538494e-001 4.23076928e-001 4.61538494e-001
      5.38461566e-001 5.00000000e-001 3.84615391e-001 3.46153855e-001
      3.46153855e-001 3.07692319e-001 2.69230783e-001 2.69230783e-001
      3.84615391e-001 9.61538494e-001 1. 1. 3.07692319e-001 0. 0. 0. 0.
      0. 0. 0. 0. 0. 7.69230798e-002 3.84615391e-001 7.30769277e-001
      7.30769277e-001 4.61538494e-001 2.30769247e-001 2.30769247e-001
      2.69230783e-001 4.23076928e-001 3.84615391e-001 3.07692319e-001
      3.84615391e-001 5.00000000e-001 5.38461566e-001 5.76923072e-001
      5.00000000e-001 3.84615391e-001 6.53846204e-001 5.38461566e-001
      3.07692319e-001 1.53846160e-001 1.15384623e-001 3.13725501e-001
      4.50980395e-001 5.68627477e-001 5.49019635e-001 7.25490212e-001
      7.45098054e-001 6.47058845e-001 9.01960790e-001 9.80392218e-001 1.
      9.01960790e-001 8.03921580e-001 6.27451003e-001 6.07843161e-001
      5.68627477e-001 5.49019635e-001 5.29411793e-001 5.49019635e-001
      5.88235319e-001 5.68627477e-001 5.29411793e-001 5.49019635e-001
      6.07843161e-001 5.68627477e-001 5.29411793e-001 6.86274529e-001
      7.64705896e-001 8.03921580e-001 7.05882370e-001 5.49019635e-001
      4.70588267e-001 2.94117659e-001 2.94117659e-001 2.54901975e-001
      2.35294133e-001 2.15686277e-001</_>
    <_>
      2.38095239e-001 1.90476194e-001 2.38095239e-001 2.38095239e-001
      1.90476194e-001 2.38095239e-001 2.38095239e-001 2.38095239e-001
      2.38095239e-001 1.90476194e-001 1.90476194e-001 2.85714298e-001
      2.38095239e-001 1.42857149e-001 1.90476194e-001 2.38095239e-001
      2.38095239e-001 2.85714298e-001 2.85714298e-001 2.85714298e-001
      1.90476194e-001 1.42857149e-001 9.52380970e-002 9.52380970e-002
      4.76190485e-002 0. 0. 0. 0. 0. 0. 0. 0. 0. 0. 0. 0. 0. 0. 0. 0. 0.
      0. 0. 0. 0. 0. 0. 0. 0. 0. 0. 0. 0. 4.76190485e-002
      4.76190485e-002 4.76190485e-002 4.76190485e-002 0. 0.
      9.52380970e-002 1.42857149e-001 1.90476194e-001 3.33333343e-001
      3.80952388e-001 4.76190478e-001 5.71428597e-001 2.38095239e-001
      1.90476194e-001 2.38095239e-001 1.42857149e-001 3.80952388e-001
      3.80952388e-001 2.85714298e-001 4.76190485e-002 4.76190485e-002
      4.76190485e-002 9.52380970e-002 2.38095239e-001 5.23809552e-001
      5.23809552e-001 5.23809552e-001 1.90476194e-001 4.76190485e-002
      4.76190485e-002 9.52380970e-002 1.90476194e-001 2.85714298e-001
      3.33333343e-001 5.71428597e-001 6.19047642e-001 6.66666687e-001
      7.61904776e-001 5.71428597e-001 1.42857149e-001 5.71428597e-001
      9.04761910e-001 8.57142866e-001 6.19047642e-001 6.66666687e-001
      7.14285731e-001 7.14285731e-001 9.52380955e-001 1. 4.76190478e-001
      4.28571433e-001 7.61904776e-001 8.09523821e-001 8.57142866e-001
      6.19047642e-001 5.23809552e-001 4.76190478e-001 4.28571433e-001
      7.61904776e-001 8.57142866e-001 7.61904776e-001 8.09523821e-001
      7.14285731e-001 8.09523821e-001 6.66666687e-001 4.76190478e-001 0.
      0. 0. 0. 0. 4.76190485e-002 4.76190485e-002 4.76190485e-002
      9.52380970e-002 9.52380970e-002 4.76190485e-002 0. 0. 0. 0. 0. 0.
      0. 0. 2.77777780e-002 2.22222224e-001 4.16666657e-001
      5.83333313e-001 6.94444478e-001 8.33333313e-001 9.16666687e-001
      9.16666687e-001 9.72222209e-001 8.88888896e-001 8.88888896e-001
      8.05555582e-001 7.22222209e-001 6.38888896e-001 7.22222209e-001
      6.66666687e-001 7.22222209e-001 8.61111104e-001 8.61111104e-001
      7.77777791e-001 1. 9.72222209e-001 9.44444478e-001 8.61111104e-001
      5.27777791e-001 2.77777791e-001 1.94444448e-001 3.33333343e-001
      3.88888896e-001 3.61111104e-001 1.94444448e-001 0.</_>
    <_>
      0. 0. 0. 0. 0. 0. 0. 0. 0. 0. 0. 0. 1.78571433e-001
      2.85714298e-001 3.21428597e-001 2.14285731e-001 1.78571433e-001
      1.42857149e-001 1.07142866e-001 1.42857149e-001 1.07142866e-001
      3.57142873e-002 3.57142873e-002 3.57142873e-002 0. 0. 0. 0. 0.
      7.14285746e-002 7.14285746e-002 7.14285746e-002 1.78571433e-001
      1.78571433e-001 1.42857149e-001 0. 0. 0. 0. 0. 0. 0.
      7.14285746e-002 1.42857149e-001 2.85714298e-001 3.92857164e-001
      3.92857164e-001 4.28571463e-001 3.92857164e-001 3.57142866e-001
      3.21428597e-001 2.85714298e-001 1.42857149e-001 0. 0. 0. 0. 0. 0.
      0. 1.78571433e-001 3.57142866e-001 6.42857194e-001 7.50000060e-001
      9.28571463e-001 1. 1. 8.92857194e-001 8.21428597e-001
      5.71428597e-001 6.07142866e-001 2.50000000e-001 1.07142866e-001
      7.14285746e-002 7.14285746e-002 0. 0. 0. 0. 0. 0. 0. 0. 0. 0. 0.
      7.14285746e-002 7.14285746e-002 0. 0. 0. 0. 0. 1.07142866e-001
      3.21428597e-001 4.28571463e-001 4.64285731e-001 5.00000000e-001
      5.00000000e-001 5.71428597e-001 6.42857194e-001 6.07142866e-001
      5.71428597e-001 5.35714328e-001 5.00000000e-001 4.64285731e-001
      6.07142866e-001 6.07142866e-001 6.07142866e-001 5.71428597e-001
      5.00000000e-001 2.85714298e-001 0. 0. 0. 0. 0. 0. 1.07142866e-001
      1.42857149e-001 1.78571433e-001 1.78571433e-001 2.50000000e-001
      2.14285731e-001 1.07142866e-001 7.14285746e-002 0. 0. 0. 0. 0. 0.
      0. 0. 0. 0. 0. 7.14285746e-002 1.19047619e-001 1.66666672e-001
      1.66666672e-001 1.90476194e-001 1.90476194e-001 1.90476194e-001
      1.90476194e-001 1.19047619e-001 1.42857149e-001 3.09523821e-001
      3.80952388e-001 6.42857134e-001 6.90476179e-001 8.57142866e-001
      8.33333373e-001 8.80952418e-001 9.04761910e-001 9.28571463e-001
      9.76190507e-001 9.76190507e-001 1. 9.28571463e-001 8.80952418e-001
      8.09523821e-001 6.42857134e-001 5.23809552e-001 4.76190478e-001
      3.33333343e-001 3.09523821e-001 2.61904776e-001 1.66666672e-001
      1.42857149e-001 4.76190485e-002 4.76190485e-002</_>
    <_>
      0. 0. 1.33333340e-001 2.00000018e-001 1.33333340e-001
      1.33333340e-001 2.00000018e-001 2.66666681e-001 4.00000036e-001
      4.66666698e-001 4.66666698e-001 4.66666698e-001 2.66666681e-001
      3.33333343e-001 4.66666698e-001 5.33333361e-001 4.66666698e-001
      4.66666698e-001 4.66666698e-001 5.33333361e-001 6.00000024e-001
      6.66666687e-001 6.66666687e-001 6.00000024e-001 4.66666698e-001
      4.66666698e-001 4.00000036e-001 2.00000018e-001 1.33333340e-001
      2.00000018e-001 6.66666701e-002 1.33333340e-001 6.66666701e-002
      6.66666701e-002 2.00000018e-001 2.66666681e-001 3.33333343e-001
      6.00000024e-001 7.33333349e-001 8.00000072e-001 6.00000024e-001
      4.66666698e-001 2.00000018e-001 6.66666701e-002 1.33333340e-001
      1.33333340e-001 1.33333340e-001 6.66666701e-002 0. 0. 0. 0. 0. 0.
      0. 0. 6.66666701e-002 2.00000018e-001 2.66666681e-001
      4.66666698e-001 6.00000024e-001 7.33333349e-001 8.66666734e-001
      8.66666734e-001 6.66666687e-001 5.33333361e-001 4.66666698e-001
      7.33333349e-001 8.00000072e-001 9.33333397e-001 8.00000072e-001
      6.66666687e-001 6.00000024e-001 4.00000036e-001 2.66666681e-001 0.
      0. 0. 0. 0. 6.66666701e-002 6.66666701e-002 6.66666701e-002
      2.00000018e-001 2.66666681e-001 2.00000018e-001 2.00000018e-001
      1.33333340e-001 2.66666681e-001 4.00000036e-001 4.00000036e-001
      6.66666687e-001 6.66666687e-001 8.66666734e-001 8.66666734e-001
      6.00000024e-001 5.33333361e-001 6.66666687e-001 6.00000024e-001
      8.66666734e-001 9.33333397e-001 7.33333349e-001 8.66666734e-001
      9.33333397e-001 9.33333397e-001 9.33333397e-001 1. 8.00000072e-001
      6.00000024e-001 4.66666698e-001 2.66666681e-001 2.00000018e-001
      6.66666701e-002 6.66666701e-002 6.66666701e-002 6.66666701e-002
      6.66666701e-002 0. 1.33333340e-001 2.00000018e-001 2.66666681e-001
      2.66666681e-001 4.00000036e-001 5.33333361e-001 6.00000024e-001
      4.66666698e-001 4.00000036e-001 4.66666698e-001 2.66666681e-001
      4.66666698e-001 5.33333361e-001 4.00000036e-001 3.33333343e-001
      2.66666681e-001 0. 0. 3.84615391e-001 3.84615391e-001
      8.46153855e-001 7.94871807e-001 6.66666687e-001 5.64102590e-001
      3.84615391e-001 5.12820520e-002 7.69230798e-002 1.28205135e-001
      3.33333343e-001 7.69230783e-001 7.17948735e-001 6.15384638e-001
      4.87179488e-001 2.82051295e-001 3.33333343e-001 1.53846160e-001
      1.02564104e-001 4.35897440e-001 6.15384638e-001 5.89743614e-001
      5.38461566e-001 5.38461566e-001 5.89743614e-001 7.69230783e-001 1.
      9.23076928e-001 6.15384638e-001 7.43589759e-001 6.15384638e-001
      6.41025662e-001 8.97435904e-001 8.46153855e-001 7.69230783e-001
      1.79487184e-001</_>
    <_>
      0. 0. 0. 0. 0. 0. 0. 7.40740746e-002 1.11111112e-001
      1.11111112e-001 1.48148149e-001 2.59259254e-001 2.59259254e-001
      3.33333343e-001 3.70370388e-001 2.96296299e-001 2.96296299e-001
      2.59259254e-001 2.22222224e-001 1.48148149e-001 1.11111112e-001
      1.11111112e-001 3.70370373e-002 0. 3.70370373e-002 3.70370373e-002
      3.70370373e-002 0. 0. 0. 0. 3.70370373e-002 1.11111112e-001
      1.85185194e-001 1.85185194e-001 1.85185194e-001 2.22222224e-001
      1.48148149e-001 1.85185194e-001 3.33333343e-001 4.07407403e-001
      4.81481493e-001 5.55555582e-001 4.44444448e-001 2.96296299e-001
      2.59259254e-001 2.96296299e-001 4.44444448e-001 4.81481493e-001
      4.44444448e-001 5.18518507e-001 5.92592597e-001 8.14814806e-001 1.
      8.14814806e-001 7.77777791e-001 8.51851881e-001 9.62962985e-001
      9.25925910e-001 8.88888896e-001 7.03703701e-001 7.03703701e-001
      7.77777791e-001 9.25925910e-001 8.88888896e-001 8.14814806e-001
      7.40740776e-001 7.03703701e-001 7.77777791e-001 8.51851881e-001
      8.88888896e-001 8.51851881e-001 8.14814806e-001 8.14814806e-001
      9.62962985e-001 1. 8.14814806e-001 6.66666687e-001 7.03703701e-001
      6.66666687e-001 5.18518507e-001 4.07407403e-001 3.33333343e-001
      2.22222224e-001 1.48148149e-001 2.22222224e-001 2.59259254e-001
      2.59259254e-001 3.33333343e-001 3.33333343e-001 3.70370388e-001
      3.33333343e-001 2.22222224e-001 1.85185194e-001 1.85185194e-001
      1.85185194e-001 1.48148149e-001 2.59259254e-001 2.96296299e-001
      3.33333343e-001 4.07407403e-001 4.44444448e-001 5.18518507e-001
      4.44444448e-001 4.07407403e-001 4.81481493e-001 5.55555582e-001
      5.92592597e-001 8.51851881e-001 8.88888896e-001 8.51851881e-001
      8.51851881e-001 8.88888896e-001 8.51851881e-001 8.14814806e-001
      8.51851881e-001 9.25925910e-001 9.62962985e-001 9.62962985e-001
      9.62962985e-001 5.92592597e-001 0. 0. 0. 3.70370373e-002
      3.70370373e-002 0. 7.40740746e-002 3.70370373e-002 0.
      3.70370373e-002 7.40740746e-002 7.40740746e-002 0. 0. 0. 0.
      8.57142881e-002 1.14285715e-001 1.42857149e-001 2.28571430e-001
      1.42857149e-001 4.71428573e-001 6.57142878e-001 4.85714287e-001
      4.42857146e-001 5.57142854e-001 6.28571451e-001 6.28571451e-001
      6.71428561e-001 7.42857158e-001 8.00000012e-001 7.71428585e-001
      7.71428585e-001 7.28571415e-001 7.28571415e-001 6.85714304e-001
      6.57142878e-001 7.85714269e-001 8.57142866e-001 8.99999976e-001
      8.00000012e-001 6.85714304e-001 8.00000012e-001 8.99999976e-001 1.
      1. 7.71428585e-001 4.28571433e-001 3.42857152e-001 2.85714298e-001
      2.14285716e-001</_>
    <_>
      2.94117648e-002 5.88235296e-002 5.88235296e-002 1.17647059e-001
      1.17647059e-001 1.47058830e-001 1.76470593e-001 2.05882356e-001
      2.35294119e-001 2.35294119e-001 2.35294119e-001 2.64705896e-001
      3.82352948e-001 4.41176474e-001 4.70588237e-001 5.00000000e-001
      5.88235319e-001 5.29411793e-001 4.70588237e-001 3.82352948e-001
      4.41176474e-001 4.70588237e-001 4.70588237e-001 4.11764711e-001
      4.11764711e-001 4.11764711e-001 3.82352948e-001 4.41176474e-001
      4.41176474e-001 4.70588237e-001 5.00000000e-001 5.29411793e-001
      5.00000000e-001 4.70588237e-001 5.00000000e-001 5.00000000e-001
      5.58823526e-001 7.05882370e-001 7.94117630e-001 7.64705896e-001
      7.05882370e-001 7.64705896e-001 7.94117630e-001 7.05882370e-001
      7.05882370e-001 6.76470578e-001 7.05882370e-001 6.47058845e-001
      7.64705896e-001 6.76470578e-001 6.47058845e-001 6.76470578e-001
      7.64705896e-001 7.35294104e-001 7.35294104e-001 6.76470578e-001
      6.47058845e-001 7.05882370e-001 7.05882370e-001 7.64705896e-001
      8.52941155e-001 9.41176474e-001 8.52941155e-001 9.11764681e-001
      9.41176474e-001 9.41176474e-001 9.11764681e-001 8.52941155e-001
      8.52941155e-001 7.64705896e-001 7.64705896e-001 7.94117630e-001
      7.94117630e-001 8.23529422e-001 7.94117630e-001 8.52941155e-001
      9.11764681e-001 9.70588267e-001 1. 1. 9.41176474e-001
      9.41176474e-001 9.11764681e-001 8.23529422e-001 8.52941155e-001
      8.52941155e-001 9.11764681e-001 8.52941155e-001 7.64705896e-001
      7.05882370e-001 6.76470578e-001 7.05882370e-001 6.76470578e-001
      6.76470578e-001 7.64705896e-001 8.23529422e-001 9.41176474e-001
      9.11764681e-001 9.41176474e-001 9.11764681e-001 7.94117630e-001
      7.05882370e-001 6.47058845e-001 5.88235319e-001 5.88235319e-001
      6.47058845e-001 7.05882370e-001 7.05882370e-001 7.94117630e-001
      8.52941155e-001 8.23529422e-001 8.52941155e-001 8.82352948e-001
      8.52941155e-001 7.35294104e-001 7.64705896e-001 7.35294104e-001
      6.47058845e-001 5.58823526e-001 5.58823526e-001 5.00000000e-001
      4.41176474e-001 4.41176474e-001 4.70588237e-001 4.70588237e-001
      4.41176474e-001 3.82352948e-001 2.64705896e-001 2.94117659e-001
      2.94117659e-001 2.05882356e-001 1.17647059e-001 8.82352963e-002
      2.94117648e-002 0. 0. 6.42857134e-001 4.18367326e-001
      7.44897962e-001 9.18367326e-001 9.28571403e-001 8.46938729e-001
      7.95918345e-001 7.65306115e-001 7.55102038e-001 7.44897962e-001
      7.04081595e-001 8.06122422e-001 9.59183633e-001 1. 9.38775480e-001
      8.36734653e-001 9.18367326e-001 8.67346942e-001 8.67346942e-001
      8.36734653e-001 9.08163249e-001 8.67346942e-001 7.24489808e-001
      6.42857134e-001 7.34693885e-001 8.36734653e-001 7.85714269e-001
      7.44897962e-001 7.14285672e-001 7.34693885e-001 9.18367326e-001
      9.18367326e-001 9.79591846e-001 8.57142866e-001 6.12244904e-001
      5.30612230e-001</_>
    <_>
      0. 0. 7.35294104e-001 7.35294104e-001 7.05882370e-001
      7.35294104e-001 7.64705896e-001 7.64705896e-001 6.47058845e-001
      5.58823526e-001 4.70588237e-001 4.41176474e-001 4.11764711e-001
      5.00000000e-001 4.41176474e-001 4.70588237e-001 4.41176474e-001
      4.11764711e-001 4.11764711e-001 3.52941185e-001 3.52941185e-001
      4.11764711e-001 4.41176474e-001 4.70588237e-001 7.05882370e-001
      9.41176474e-001 9.41176474e-001 9.41176474e-001 9.11764681e-001
      2.94117659e-001 8.82352963e-002 0. 0. 0. 0. 0. 0. 0. 0.
      8.52941155e-001 9.41176474e-001 9.70588267e-001 9.70588267e-001
      9.70588267e-001 9.70588267e-001 9.41176474e-001 5.00000000e-001
      5.00000000e-001 5.00000000e-001 5.00000000e-001 4.41176474e-001
      4.41176474e-001 5.00000000e-001 5.00000000e-001 5.29411793e-001
      5.29411793e-001 5.29411793e-001 5.29411793e-001 5.29411793e-001
      5.29411793e-001 5.00000000e-001 4.41176474e-001 3.23529422e-001
      2.94117659e-001 2.35294119e-001 2.35294119e-001 8.82352963e-002
      8.82352963e-002 0. 0. 0. 0. 0. 2.94117648e-002 1.47058830e-001
      3.82352948e-001 4.11764711e-001 4.41176474e-001 3.82352948e-001
      5.29411793e-001 5.88235319e-001 5.88235319e-001 5.29411793e-001
      5.00000000e-001 5.00000000e-001 5.00000000e-001 5.29411793e-001
      5.29411793e-001 5.29411793e-001 5.29411793e-001 5.29411793e-001
      4.70588237e-001 4.70588237e-001 5.00000000e-001 7.05882370e-001
      9.11764681e-001 1. 1. 1. 1. 7.35294104e-001 8.82352963e-002 0. 0.
      0. 0. 0. 0. 0. 0. 7.94117630e-001 9.11764681e-001 9.11764681e-001
      9.11764681e-001 9.11764681e-001 9.11764681e-001 5.88235319e-001
      5.58823526e-001 4.41176474e-001 4.11764711e-001 4.11764711e-001
      4.11764711e-001 4.11764711e-001 4.11764711e-001 4.41176474e-001
      4.11764711e-001 4.11764711e-001 3.82352948e-001 3.82352948e-001
      4.41176474e-001 4.41176474e-001 4.11764711e-001 4.11764711e-001
      2.05882356e-001 5.88235296e-002 0. 2.99999993e-002 1.99999988e-001
      4.89999980e-001 6.10000014e-001 9.69999969e-001 1. 9.79999959e-001
      1. 9.79999959e-001 5.19999981e-001 3.10000002e-001 2.50000000e-001
      2.39999995e-001 2.50000000e-001 2.89999992e-001 2.99999982e-001
      2.99999982e-001 2.99999982e-001 3.10000002e-001 4.49999988e-001
      5.29999971e-001 6.69999957e-001 6.80000007e-001 6.89999998e-001
      7.09999979e-001 8.39999974e-001 9.19999957e-001 9.69999969e-001
      9.69999969e-001 8.19999993e-001 7.09999979e-001 6.89999998e-001
      6.89999998e-001 6.59999967e-001 5.09999990e-001 4.99999970e-002</_>
    <_>
      0. 0. 0. 2.72727281e-001 3.63636374e-001 4.54545468e-001
      5.45454562e-001 5.45454562e-001 6.36363626e-001 4.54545468e-001
      4.54545468e-001 3.63636374e-001 5.45454562e-001 5.45454562e-001
      6.36363626e-001 6.36363626e-001 6.36363626e-001 8.18181872e-001
      9.09090936e-001 9.09090936e-001 9.09090936e-001 7.27272749e-001
      8.18181872e-001 9.09090936e-001 8.18181872e-001 7.27272749e-001
      7.27272749e-001 8.18181872e-001 7.27272749e-001 8.18181872e-001
      8.18181872e-001 6.36363626e-001 6.36363626e-001 8.18181872e-001
      9.09090936e-001 8.18181872e-001 8.18181872e-001 9.09090936e-001 1.
      9.09090936e-001 9.09090936e-001 1. 9.09090936e-001 9.09090936e-001
      8.18181872e-001 8.18181872e-001 1. 9.09090936e-001 1. 1.
      9.09090936e-001 9.09090936e-001 1. 9.09090936e-001 9.09090936e-001
      8.18181872e-001 7.27272749e-001 7.27272749e-001 6.36363626e-001
      5.45454562e-001 4.54545468e-001 2.72727281e-001 2.72727281e-001
      2.72727281e-001 2.72727281e-001 2.72727281e-001 2.72727281e-001
      2.72727281e-001 2.72727281e-001 5.45454562e-001 7.27272749e-001
      7.27272749e-001 7.27272749e-001 6.36363626e-001 6.36363626e-001
      7.27272749e-001 7.27272749e-001 7.27272749e-001 6.36363626e-001
      8.18181872e-001 8.18181872e-001 8.18181872e-001 7.27272749e-001
      7.27272749e-001 8.18181872e-001 7.27272749e-001 7.27272749e-001
      7.27272749e-001 6.36363626e-001 6.36363626e-001 7.27272749e-001
      7.27272749e-001 7.27272749e-001 7.27272749e-001 6.36363626e-001
      6.36363626e-001 7.27272749e-001 6.36363626e-001 6.36363626e-001
      6.36363626e-001 6.36363626e-001 4.54545468e-001 6.36363626e-001
      6.36363626e-001 6.36363626e-001 6.36363626e-001 6.36363626e-001
      8.18181872e-001 8.18181872e-001 7.27272749e-001 9.09090936e-001
      8.18181872e-001 8.18181872e-001 9.09090936e-001 8.18181872e-001
      8.18181872e-001 8.18181872e-001 7.27272749e-001 7.27272749e-001
      7.27272749e-001 5.45454562e-001 4.54545468e-001 3.63636374e-001
      3.63636374e-001 3.63636374e-001 3.63636374e-001 2.72727281e-001
      2.72727281e-001 2.72727281e-001 2.72727281e-001 2.72727281e-001
      2.72727281e-001 1.81818187e-001 0. 0. 0. 2.05882356e-001
      2.50000000e-001 3.38235289e-001 3.52941185e-001 3.38235289e-001
      2.79411763e-001 1.61764711e-001 1.32352948e-001 4.41176474e-001
      5.44117630e-001 4.85294133e-001 3.97058815e-001 5.00000000e-001
      5.44117630e-001 5.73529422e-001 5.88235319e-001 5.58823526e-001
      4.85294133e-001 4.41176474e-001 3.38235289e-001 2.05882356e-001
      1.91176474e-001 1.91176474e-001 3.08823526e-001 3.67647052e-001
      3.38235289e-001 1.76470593e-001 1.47058830e-001 1.76470593e-001
      2.94117659e-001 3.82352948e-001 4.85294133e-001 6.17647052e-001 1.
      8.08823526e-001 3.97058815e-001</_>
    <_>
      4.44444448e-001 4.44444448e-001 5.18518507e-001 4.81481493e-001
      5.18518507e-001 5.92592597e-001 5.18518507e-001 5.18518507e-001
      4.81481493e-001 5.55555582e-001 5.55555582e-001 5.92592597e-001
      5.92592597e-001 6.29629612e-001 5.92592597e-001 6.29629612e-001
      6.29629612e-001 6.29629612e-001 5.92592597e-001 6.29629612e-001
      6.29629612e-001 6.29629612e-001 6.66666687e-001 7.03703701e-001
      6.66666687e-001 6.66666687e-001 6.29629612e-001 6.29629612e-001
      7.40740776e-001 7.77777791e-001 7.77777791e-001 7.40740776e-001
      7.03703701e-001 6.29629612e-001 5.55555582e-001 4.81481493e-001
      4.07407403e-001 3.33333343e-001 2.96296299e-001 3.70370388e-001
      5.18518507e-001 6.66666687e-001 5.18518507e-001 4.44444448e-001
      4.44444448e-001 4.44444448e-001 4.81481493e-001 5.18518507e-001
      5.55555582e-001 5.18518507e-001 4.81481493e-001 4.81481493e-001
      4.81481493e-001 4.81481493e-001 4.81481493e-001 5.55555582e-001
      4.81481493e-001 4.44444448e-001 4.07407403e-001 3.70370388e-001
      4.44444448e-001 6.29629612e-001 5.18518507e-001 4.81481493e-001
      6.29629612e-001 6.29629612e-001 7.03703701e-001 6.29629612e-001
      8.88888896e-001 9.62962985e-001 9.25925910e-001 1. 9.62962985e-001
      8.51851881e-001 8.51851881e-001 8.14814806e-001 8.14814806e-001
      7.77777791e-001 7.03703701e-001 6.66666687e-001 6.29629612e-001
      6.66666687e-001 6.66666687e-001 7.40740776e-001 7.40740776e-001
      8.14814806e-001 7.40740776e-001 8.14814806e-001 8.51851881e-001
      8.88888896e-001 8.51851881e-001 8.88888896e-001 9.62962985e-001
      8.88888896e-001 9.62962985e-001 1. 9.62962985e-001 7.03703701e-001
      6.29629612e-001 5.92592597e-001 6.29629612e-001 8.51851881e-001
      7.40740776e-001 7.03703701e-001 7.40740776e-001 7.03703701e-001
      5.92592597e-001 5.92592597e-001 4.81481493e-001 6.29629612e-001
      7.03703701e-001 6.66666687e-001 6.29629612e-001 5.55555582e-001
      5.18518507e-001 4.44444448e-001 3.33333343e-001 2.22222224e-001
      2.96296299e-001 4.07407403e-001 5.18518507e-001 4.07407403e-001
      2.59259254e-001 1.48148149e-001 7.40740746e-002 7.40740746e-002
      3.70370373e-002 1.11111112e-001 2.22222224e-001 1.48148149e-001
      1.85185194e-001 1.48148149e-001 1.85185194e-001 1.48148149e-001
      7.40740746e-002 1.48148149e-001 1. 1. 9.91071463e-001
      9.28571463e-001 8.21428597e-001 7.67857194e-001 6.87500060e-001
      6.25000000e-001 5.89285731e-001 5.62500000e-001 1.96428582e-001
      1.87500015e-001 2.94642866e-001 4.19642866e-001 3.66071433e-001
      2.94642866e-001 3.39285731e-001 3.48214298e-001 5.08928597e-001
      5.62500000e-001 3.48214298e-001 3.57142866e-001 4.55357164e-001
      5.08928597e-001 4.19642866e-001 5.53571463e-001 5.71428597e-001
      4.55357164e-001 4.46428597e-001 5.89285731e-001 5.44642866e-001
      5.80357194e-001 5.26785731e-001 3.30357164e-001 2.58928597e-001
      4.10714298e-001</_>
    <_>
      1. 1. 9.16666687e-001 8.33333373e-001 7.91666687e-001
      6.66666687e-001 7.50000000e-001 7.08333373e-001 7.50000000e-001
      6.66666687e-001 5.41666687e-001 5.41666687e-001 5.00000000e-001
      4.58333343e-001 4.58333343e-001 5.00000000e-001 4.58333343e-001
      4.16666687e-001 4.16666687e-001 3.75000000e-001 3.33333343e-001
      3.33333343e-001 3.33333343e-001 3.75000000e-001 4.16666687e-001
      4.16666687e-001 3.75000000e-001 4.16666687e-001 4.16666687e-001
      3.33333343e-001 3.75000000e-001 3.75000000e-001 3.75000000e-001
      3.75000000e-001 4.58333343e-001 4.58333343e-001 5.00000000e-001
      5.00000000e-001 4.58333343e-001 6.25000000e-001 8.75000000e-001
      9.16666687e-001 9.16666687e-001 9.16666687e-001 7.91666687e-001
      7.50000000e-001 7.50000000e-001 7.50000000e-001 7.50000000e-001
      7.08333373e-001 9.16666687e-001 8.75000000e-001 8.75000000e-001
      9.58333373e-001 7.50000000e-001 6.66666687e-001 8.75000000e-001
      7.91666687e-001 6.66666687e-001 6.25000000e-001 5.83333373e-001
      6.25000000e-001 4.58333343e-001 3.75000000e-001 7.08333373e-001
      7.50000000e-001 7.08333373e-001 5.41666687e-001 6.25000000e-001
      7.08333373e-001 6.66666687e-001 5.83333373e-001 4.16666687e-001
      3.75000000e-001 3.75000000e-001 4.16666687e-001 4.58333343e-001
      4.16666687e-001 4.16666687e-001 3.75000000e-001 5.41666687e-001
      4.58333343e-001 5.83333373e-001 5.00000000e-001 5.00000000e-001
      4.16666687e-001 5.41666687e-001 5.41666687e-001 4.16666687e-001
      4.16666687e-001 4.16666687e-001 4.58333343e-001 5.41666687e-001
      4.58333343e-001 4.16666687e-001 4.16666687e-001 4.58333343e-001
      4.58333343e-001 4.58333343e-001 5.00000000e-001 3.75000000e-001
      3.33333343e-001 3.33333343e-001 2.91666687e-001 4.16666687e-001
      3.33333343e-001 3.33333343e-001 3.33333343e-001 3.75000000e-001
      2.91666687e-001 3.33333343e-001 2.91666687e-001 2.91666687e-001
      1.66666672e-001 2.91666687e-001 3.75000000e-001 2.50000000e-001
      2.50000000e-001 2.08333343e-001 2.50000000e-001 2.08333343e-001
      1.66666672e-001 1.66666672e-001 1.66666672e-001 8.33333358e-002
      8.33333358e-002 8.33333358e-002 8.33333358e-002 8.33333358e-002
      4.16666679e-002 4.16666679e-002 4.16666679e-002 0. 0. 0. 0. 1.
      9.09909904e-001 7.47747779e-001 5.13513505e-001 2.79279292e-001
      4.50450480e-002 5.40540554e-002 9.00900960e-002 1.80180192e-001
      1.71171173e-001 1.80180192e-001 2.43243247e-001 2.43243247e-001
      3.69369388e-001 5.67567587e-001 4.86486495e-001 3.96396399e-001
      2.88288295e-001 2.52252251e-001 2.70270288e-001 2.70270288e-001
      3.33333343e-001 3.24324340e-001 3.78378391e-001 2.97297299e-001
      2.25225225e-001 2.61261255e-001 2.43243247e-001 3.24324340e-001
      4.05405402e-001 5.13513505e-001 4.14414436e-001 4.50450450e-001
      5.67567587e-001 6.84684694e-001 9.81981993e-001</_>
    <_>
      9.72222209e-001 8.88888896e-001 8.33333313e-001 7.77777791e-001
      6.94444478e-001 5.55555582e-001 3.88888896e-001 2.50000000e-001
      1.94444448e-001 0. 0. 2.77777780e-002 8.33333358e-002
      2.50000000e-001 3.33333343e-001 3.88888896e-001 6.38888896e-001
      6.94444478e-001 7.50000000e-001 7.77777791e-001 8.05555582e-001
      8.33333313e-001 8.05555582e-001 8.05555582e-001 7.77777791e-001
      6.94444478e-001 6.94444478e-001 8.33333313e-001 8.61111104e-001
      8.33333313e-001 8.33333313e-001 7.77777791e-001 7.77777791e-001
      8.33333313e-001 8.05555582e-001 8.33333313e-001 8.61111104e-001
      7.77777791e-001 7.22222209e-001 7.77777791e-001 7.77777791e-001
      8.05555582e-001 7.50000000e-001 6.94444478e-001 6.11111104e-001
      6.94444478e-001 6.94444478e-001 6.38888896e-001 6.66666687e-001
      7.77777791e-001 9.72222209e-001 9.72222209e-001 9.72222209e-001
      9.72222209e-001 9.44444478e-001 8.88888896e-001 7.50000000e-001
      7.50000000e-001 6.66666687e-001 5.83333313e-001 5.27777791e-001
      4.72222239e-001 5.27777791e-001 5.55555582e-001 5.83333313e-001
      5.27777791e-001 4.72222239e-001 4.72222239e-001 3.88888896e-001
      3.33333343e-001 1.11111112e-001 8.33333358e-002 1.66666672e-001
      3.05555552e-001 6.11111104e-001 6.38888896e-001 6.94444478e-001
      7.22222209e-001 6.94444478e-001 7.50000000e-001 8.05555582e-001
      8.05555582e-001 9.72222209e-001 9.72222209e-001 8.88888896e-001
      8.88888896e-001 9.16666687e-001 8.88888896e-001 8.61111104e-001
      7.50000000e-001 6.11111104e-001 6.11111104e-001 4.72222239e-001
      5.00000000e-001 5.00000000e-001 5.00000000e-001 4.72222239e-001
      4.72222239e-001 4.72222239e-001 6.38888896e-001 8.88888896e-001
      8.88888896e-001 8.88888896e-001 8.33333313e-001 8.88888896e-001
      8.61111104e-001 8.88888896e-001 8.88888896e-001 8.88888896e-001
      6.94444478e-001 5.00000000e-001 5.00000000e-001 5.00000000e-001
      4.72222239e-001 4.16666657e-001 4.44444448e-001 4.44444448e-001
      7.50000000e-001 1. 1. 1. 9.44444478e-001 9.72222209e-001
      9.16666687e-001 8.88888896e-001 1. 1. 6.94444478e-001 0. 0.
      2.22222224e-001 2.50000000e-001 2.50000000e-001 2.50000000e-001
      2.50000000e-001 4.72222239e-001 3.76068383e-001 4.78632510e-001
      5.29914558e-001 7.43589759e-001 7.86324799e-001 7.94871807e-001
      7.94871807e-001 8.29059899e-001 8.54700923e-001 7.17948735e-001
      7.17948735e-001 6.49572670e-001 7.00854719e-001 8.37606907e-001
      8.88888955e-001 9.14529979e-001 9.23076987e-001 9.48718011e-001 1.
      8.88888955e-001 9.14529979e-001 9.48718011e-001 9.31623995e-001
      9.23076987e-001 9.14529979e-001 7.94871807e-001 7.09401727e-001
      7.09401727e-001 7.09401727e-001 6.66666687e-001 7.43589759e-001
      7.52136767e-001 7.26495743e-001 5.47008574e-001 4.52991486e-001
      3.84615391e-001</_>
    <_>
      0. 0. 0. 0. 0. 0. 0. 0. 1.25000000e-001 5.00000000e-001
      5.00000000e-001 5.00000000e-001 3.12500000e-001 2.50000000e-001
      2.50000000e-001 1.87500000e-001 0. 0. 0. 0. 6.25000000e-002
      1.25000000e-001 2.50000000e-001 3.75000000e-001 5.62500000e-001
      5.62500000e-001 8.75000000e-001 8.12500000e-001 6.87500000e-001
      8.12500000e-001 8.75000000e-001 7.50000000e-001 6.25000000e-001
      5.00000000e-001 3.12500000e-001 1.25000000e-001 2.50000000e-001
      3.12500000e-001 1.87500000e-001 6.25000000e-002 1.25000000e-001
      1.87500000e-001 3.12500000e-001 4.37500000e-001 5.62500000e-001
      3.12500000e-001 1.87500000e-001 1.87500000e-001 2.50000000e-001
      3.12500000e-001 2.50000000e-001 2.50000000e-001 6.25000000e-002
      1.87500000e-001 2.50000000e-001 3.12500000e-001 1.87500000e-001
      1.87500000e-001 5.00000000e-001 8.12500000e-001 1. 9.37500000e-001
      7.50000000e-001 5.00000000e-001 2.50000000e-001 2.50000000e-001
      1.87500000e-001 3.75000000e-001 5.00000000e-001 7.50000000e-001
      6.87500000e-001 6.25000000e-001 5.00000000e-001 4.37500000e-001
      3.12500000e-001 2.50000000e-001 2.50000000e-001 2.50000000e-001
      1.87500000e-001 6.25000000e-002 0. 0. 0. 0. 1.87500000e-001
      1.25000000e-001 1.87500000e-001 1.25000000e-001 1.87500000e-001
      2.50000000e-001 3.12500000e-001 3.12500000e-001 5.00000000e-001
      4.37500000e-001 3.75000000e-001 2.50000000e-001 1.87500000e-001
      1.87500000e-001 1.87500000e-001 1.87500000e-001 1.87500000e-001
      1.87500000e-001 1.87500000e-001 1.87500000e-001 1.87500000e-001
      2.50000000e-001 1.87500000e-001 1.87500000e-001 1.87500000e-001
      1.25000000e-001 1.25000000e-001 1.25000000e-001 1.87500000e-001
      1.87500000e-001 1.87500000e-001 2.50000000e-001 3.75000000e-001
      4.37500000e-001 3.75000000e-001 2.50000000e-001 2.50000000e-001
      1.87500000e-001 1.87500000e-001 1.87500000e-001 6.25000000e-002
      6.25000000e-002 1.25000000e-001 6.25000000e-002 1.25000000e-001
      1.25000000e-001 1.25000000e-001 1.25000000e-001 6.25000000e-002
      6.25000000e-002 0. 0. 1.53846160e-001 1.28205135e-001
      5.12820520e-002 2.30769232e-001 4.87179488e-001 4.87179488e-001
      2.82051295e-001 1.02564104e-001 1.28205135e-001 0. 2.05128208e-001
      2.56410271e-001 3.07692319e-001 6.41025662e-001 8.71794879e-001
      7.69230783e-001 6.66666687e-001 8.46153855e-001 1. 8.71794879e-001
      5.12820542e-001 4.35897440e-001 4.10256416e-001 3.84615391e-001
      4.87179488e-001 6.66666687e-001 6.66666687e-001 4.61538464e-001
      5.12820542e-001 4.87179488e-001 2.30769232e-001 4.35897440e-001
      4.87179488e-001 2.30769232e-001 2.05128208e-001 0.</_>
    <_>
      5.60000002e-001 5.19999981e-001 5.19999981e-001 5.60000002e-001
      5.99999964e-001 5.99999964e-001 5.99999964e-001 5.99999964e-001
      5.99999964e-001 5.60000002e-001 5.99999964e-001 5.60000002e-001
      5.60000002e-001 5.60000002e-001 5.19999981e-001 5.19999981e-001
      5.19999981e-001 5.19999981e-001 4.79999989e-001 4.79999989e-001
      4.79999989e-001 2.80000001e-001 1.99999988e-001 1.99999988e-001
      2.39999995e-001 3.19999993e-001 3.99999976e-001 5.99999964e-001
      4.79999989e-001 4.39999998e-001 6.39999986e-001 7.99999952e-001
      9.19999957e-001 8.39999974e-001 5.99999964e-001 5.19999981e-001
      5.19999981e-001 5.60000002e-001 5.19999981e-001 5.99999964e-001
      5.19999981e-001 5.60000002e-001 5.60000002e-001 3.99999976e-001
      2.80000001e-001 2.39999995e-001 2.80000001e-001 3.19999993e-001
      1.99999988e-001 1.99999988e-001 2.39999995e-001 2.80000001e-001
      1.99999988e-001 1.99999988e-001 1.99999988e-001 1.99999988e-001
      2.80000001e-001 4.39999998e-001 5.60000002e-001 5.19999981e-001
      3.99999976e-001 3.19999993e-001 3.59999985e-001 3.59999985e-001
      3.59999985e-001 3.59999985e-001 3.59999985e-001 3.99999976e-001
      3.99999976e-001 4.79999989e-001 6.80000007e-001 6.80000007e-001
      6.39999986e-001 3.59999985e-001 2.39999995e-001 2.39999995e-001
      2.80000001e-001 2.39999995e-001 3.19999993e-001 3.19999993e-001
      2.80000001e-001 3.19999993e-001 3.59999985e-001 3.99999976e-001
      3.99999976e-001 3.99999976e-001 4.79999989e-001 5.19999981e-001
      5.60000002e-001 6.39999986e-001 5.99999964e-001 5.19999981e-001
      5.99999964e-001 4.79999989e-001 4.79999989e-001 4.79999989e-001
      9.19999957e-001 9.19999957e-001 1. 9.19999957e-001 7.59999990e-001
      6.80000007e-001 7.59999990e-001 8.79999995e-001 8.39999974e-001
      7.59999990e-001 6.80000007e-001 4.79999989e-001 3.99999976e-001
      3.99999976e-001 5.99999964e-001 6.39999986e-001 6.39999986e-001
      7.19999969e-001 6.80000007e-001 6.80000007e-001 6.80000007e-001
      6.39999986e-001 6.39999986e-001 6.39999986e-001 5.99999964e-001
      5.99999964e-001 5.99999964e-001 6.39999986e-001 6.39999986e-001
      5.99999964e-001 5.99999964e-001 5.60000002e-001 5.60000002e-001
      5.60000002e-001 5.60000002e-001 5.60000002e-001 4.79999989e-001
      4.79999989e-001 4.39999998e-001 4.39999998e-001 9.99999940e-001
      8.29268277e-001 6.01625979e-001 4.55284536e-001 3.41463387e-001
      2.68292665e-001 2.35772341e-001 2.68292665e-001 2.52032518e-001
      2.76422739e-001 3.08943093e-001 3.33333313e-001 5.77235758e-001
      7.15447128e-001 7.47967482e-001 8.21138203e-001 8.53658497e-001
      7.96747923e-001 6.91056907e-001 4.14634138e-001 1.86991870e-001
      1.54471546e-001 1.05691053e-001 4.06504050e-002 3.25203240e-002
      3.25203240e-002 5.69105670e-002 5.69105670e-002 5.69105670e-002
      1.46341458e-001 3.82113814e-001 5.20325184e-001 5.52845478e-001
      4.55284536e-001 3.41463387e-001 1.30081296e-001</_>
    <_>
      2.38095239e-001 5.71428597e-001 2.38095239e-001 6.66666687e-001
      2.38095239e-001 2.38095239e-001 1.42857149e-001 1.42857149e-001
      2.38095239e-001 1.90476194e-001 1.42857149e-001 9.52380970e-002
      1.90476194e-001 9.52380970e-002 4.76190485e-002 9.52380970e-002
      9.52380970e-002 2.38095239e-001 4.76190485e-002 4.76190485e-002
      1.90476194e-001 9.52380970e-002 2.38095239e-001 4.76190485e-002
      1.90476194e-001 1.42857149e-001 4.76190485e-002 1.90476194e-001
      4.76190485e-002 1.42857149e-001 9.52380970e-002 4.76190485e-002
      1.42857149e-001 4.76190485e-002 4.76190485e-002 4.76190485e-002
      1.42857149e-001 4.76190485e-002 4.76190485e-002 4.76190485e-002
      4.76190485e-002 3.33333343e-001 1.42857149e-001 1.42857149e-001
      1.42857149e-001 4.76190485e-002 2.85714298e-001 4.76190485e-002
      4.76190485e-002 9.52380970e-002 9.52380970e-002 2.85714298e-001
      9.52380970e-002 9.52380970e-002 9.52380970e-002 1.42857149e-001
      1.90476194e-001 1.42857149e-001 1.42857149e-001 1.42857149e-001
      2.85714298e-001 1.42857149e-001 3.33333343e-001 3.80952388e-001
      4.28571433e-001 4.28571433e-001 3.80952388e-001 6.19047642e-001 1.
      7.14285731e-001 3.80952388e-001 3.80952388e-001 3.33333343e-001
      2.38095239e-001 1.42857149e-001 2.38095239e-001 2.38095239e-001
      1.42857149e-001 9.52380970e-002 9.52380970e-002 2.38095239e-001
      1.90476194e-001 4.76190485e-002 4.76190485e-002 4.76190485e-002
      1.90476194e-001 0. 0. 0. 0. 2.38095239e-001 0. 0. 0. 0.
      1.90476194e-001 0. 0. 0. 0. 1.90476194e-001 0. 0. 0. 0.
      1.90476194e-001 0. 0. 0. 1.42857149e-001 0. 0. 0. 0.
      1.90476194e-001 0. 0. 0. 0. 1.90476194e-001 0. 0. 0. 0.
      1.42857149e-001 9.52380970e-002 1.42857149e-001 9.52380970e-002
      2.38095239e-001 2.85714298e-001 2.38095239e-001 3.33333343e-001
      7.14285731e-001 6.66666687e-001 5.23809552e-001 0. 9.99999940e-001
      5.42168677e-001 3.25301200e-001 2.89156616e-001 2.65060246e-001
      2.40963846e-001 3.97590339e-001 4.21686739e-001 4.33734924e-001
      2.77108431e-001 1.92771077e-001 1.32530123e-001 8.43373463e-002
      7.22891539e-002 6.02409616e-002 2.40963846e-002 2.40963846e-002
      3.61445770e-002 4.81927693e-002 2.40963846e-002 1.20481923e-002
      1.20481923e-002 1.20481923e-002 1.20481923e-002 4.81927693e-002
      4.81927693e-002 3.61445770e-002 3.61445770e-002 4.81927693e-002
      6.02409616e-002 3.61445770e-002 3.61445770e-002 2.40963846e-002
      2.40963846e-002 3.61445770e-002 3.61445770e-002</_>
    <_>
      2.30769247e-001 2.69230783e-001 6.53846204e-001 7.30769277e-001
      6.92307711e-001 3.84615391e-001 3.07692319e-001 4.23076928e-001
      4.61538494e-001 6.15384638e-001 6.92307711e-001 4.23076928e-001
      5.00000000e-001 5.38461566e-001 6.53846204e-001 6.53846204e-001
      4.61538494e-001 2.30769247e-001 2.69230783e-001 3.46153855e-001
      4.61538494e-001 5.76923072e-001 4.61538494e-001 3.07692319e-001
      2.30769247e-001 3.46153855e-001 3.46153855e-001 3.46153855e-001
      2.69230783e-001 2.30769247e-001 1.15384623e-001 7.69230798e-002
      7.69230798e-002 3.84615399e-002 7.69230798e-002 7.69230798e-002
      7.69230798e-002 1.53846160e-001 1.53846160e-001 1.15384623e-001
      1.92307696e-001 1.53846160e-001 7.69230798e-002 1.15384623e-001
      1.92307696e-001 3.84615391e-001 5.00000000e-001 4.61538494e-001
      4.61538494e-001 5.38461566e-001 6.15384638e-001 6.53846204e-001
      6.92307711e-001 4.23076928e-001 2.30769247e-001 4.23076928e-001
      6.53846204e-001 6.92307711e-001 7.30769277e-001 8.46153855e-001
      6.92307711e-001 4.61538494e-001 3.07692319e-001 2.30769247e-001
      3.07692319e-001 5.00000000e-001 5.38461566e-001 5.76923072e-001
      5.00000000e-001 3.46153855e-001 6.15384638e-001 6.92307711e-001
      6.15384638e-001 7.30769277e-001 7.30769277e-001 6.15384638e-001
      3.46153855e-001 4.23076928e-001 5.00000000e-001 6.53846204e-001
      6.15384638e-001 6.15384638e-001 5.00000000e-001 4.61538494e-001
      3.46153855e-001 1.92307696e-001 1.53846160e-001 2.69230783e-001
      3.07692319e-001 3.84615391e-001 3.46153855e-001 4.61538494e-001
      2.69230783e-001 1.15384623e-001 1.53846160e-001 1.15384623e-001
      7.69230798e-002 0. 7.69230798e-002 3.07692319e-001 2.30769247e-001
      2.69230783e-001 2.30769247e-001 1.53846160e-001 7.69230798e-002
      1.92307696e-001 5.38461566e-001 6.92307711e-001 5.38461566e-001
      1.53846160e-001 3.84615399e-002 3.84615399e-002 0. 2.30769247e-001
      3.07692319e-001 3.46153855e-001 3.84615391e-001 3.46153855e-001
      2.69230783e-001 3.84615391e-001 1. 8.46153855e-001 5.00000000e-001
      4.23076928e-001 3.07692319e-001 1.92307696e-001 3.07692319e-001
      3.07692319e-001 2.30769247e-001 1.92307696e-001 7.69230798e-002 0.
      7.69230798e-002 1.15384623e-001 2.30769247e-001 2.69230783e-001
      4.70588244e-002 2.00000003e-001 4.82352942e-001 8.23529422e-001 1.
      8.00000012e-001 3.29411775e-001 2.47058824e-001 3.17647070e-001
      3.05882365e-001 2.11764708e-001 4.35294122e-001 6.47058845e-001
      6.58823550e-001 4.70588237e-001 3.52941185e-001 1.88235298e-001
      7.05882385e-002 7.05882385e-002 1.76470593e-001 3.88235301e-001
      6.94117665e-001 6.94117665e-001 6.47058845e-001 3.29411775e-001
      1.52941182e-001 1.52941182e-001 1.41176477e-001 2.23529413e-001
      4.00000006e-001 7.88235307e-001 9.29411769e-001 7.52941191e-001
      5.05882382e-001 4.47058827e-001 1.41176477e-001</_>
    <_>
      0. 0. 0. 0. 0. 0. 0. 9.52380970e-002 3.33333343e-001
      3.80952388e-001 5.23809552e-001 7.14285731e-001 7.61904776e-001
      8.09523821e-001 7.61904776e-001 3.80952388e-001 2.85714298e-001
      2.85714298e-001 2.85714298e-001 2.85714298e-001 2.85714298e-001
      2.38095239e-001 0. 0. 0. 0. 0. 1.42857149e-001 2.38095239e-001
      2.38095239e-001 2.38095239e-001 2.85714298e-001 3.33333343e-001
      3.33333343e-001 2.38095239e-001 2.38095239e-001 1.90476194e-001
      2.38095239e-001 1.90476194e-001 2.38095239e-001 1.90476194e-001
      1.42857149e-001 0. 0. 9.52380970e-002 1.42857149e-001
      1.42857149e-001 1.90476194e-001 3.33333343e-001 4.28571433e-001
      6.66666687e-001 7.61904776e-001 7.14285731e-001 6.19047642e-001
      4.28571433e-001 1.90476194e-001 0. 0. 0. 0. 0. 0. 0. 0. 0. 0.
      4.76190485e-002 1.42857149e-001 1.42857149e-001 3.80952388e-001
      5.71428597e-001 6.66666687e-001 7.61904776e-001 6.66666687e-001
      6.19047642e-001 8.09523821e-001 9.04761910e-001 9.04761910e-001 1.
      1. 8.57142866e-001 7.14285731e-001 6.19047642e-001 6.19047642e-001
      6.66666687e-001 8.09523821e-001 8.09523821e-001 7.61904776e-001
      8.57142866e-001 8.09523821e-001 7.61904776e-001 4.28571433e-001
      3.33333343e-001 2.85714298e-001 2.38095239e-001 1.90476194e-001
      1.90476194e-001 1.90476194e-001 1.90476194e-001 2.85714298e-001
      2.85714298e-001 1.90476194e-001 9.52380970e-002 0. 4.76190485e-002
      1.42857149e-001 1.42857149e-001 9.52380970e-002 0. 0. 0. 0. 0.
      9.52380970e-002 1.42857149e-001 9.52380970e-002 0. 0. 0.
      9.52380970e-002 2.85714298e-001 2.85714298e-001 3.33333343e-001
      3.33333343e-001 2.85714298e-001 2.85714298e-001 2.85714298e-001
      2.85714298e-001 2.85714298e-001 2.85714298e-001 2.85714298e-001
      2.38095239e-001 1.90476194e-001 9.52380970e-002 0. 0. 0. 0. 0.
      1.02040812e-001 1.02040812e-001 2.04081625e-001 4.28571433e-001
      4.48979586e-001 2.44897962e-001 2.24489793e-001 3.67346942e-001
      5.30612230e-001 8.16326499e-001 1. 9.79591846e-001 9.79591846e-001
      9.79591846e-001 8.97959173e-001 8.57142866e-001 9.18367326e-001
      8.97959173e-001 8.77551019e-001 7.14285672e-001 8.57142866e-001
      8.36734653e-001 6.12244904e-001 4.48979586e-001 4.48979586e-001
      3.67346942e-001 2.85714269e-001 1.22448981e-001 4.08163257e-002 0.
      6.12244904e-002 8.16326514e-002 0.</_>
    <_>
      0. 3.70370373e-002 2.22222224e-001 4.81481493e-001 5.55555582e-001
      5.55555582e-001 5.92592597e-001 5.92592597e-001 5.92592597e-001
      5.92592597e-001 3.33333343e-001 3.33333343e-001 3.33333343e-001
      3.33333343e-001 3.33333343e-001 3.33333343e-001 3.33333343e-001
      3.33333343e-001 3.33333343e-001 3.33333343e-001 3.33333343e-001
      3.33333343e-001 3.33333343e-001 3.33333343e-001 3.33333343e-001
      3.33333343e-001 3.33333343e-001 3.70370388e-001 5.55555582e-001
      7.77777791e-001 8.88888896e-001 9.25925910e-001 9.25925910e-001
      9.62962985e-001 8.88888896e-001 3.70370388e-001 2.96296299e-001
      1.85185194e-001 0. 0. 0. 0. 0. 0. 0. 0. 0. 1.48148149e-001
      5.92592597e-001 8.51851881e-001 9.25925910e-001 8.14814806e-001
      8.14814806e-001 8.88888896e-001 8.14814806e-001 5.18518507e-001
      1.11111112e-001 1.48148149e-001 1.85185194e-001 3.70370388e-001
      4.44444448e-001 5.92592597e-001 8.88888896e-001 9.25925910e-001
      8.51851881e-001 7.40740776e-001 6.66666687e-001 6.66666687e-001
      7.03703701e-001 7.77777791e-001 8.14814806e-001 8.51851881e-001
      7.40740776e-001 5.92592597e-001 4.07407403e-001 2.22222224e-001
      1.11111112e-001 7.40740746e-002 2.59259254e-001 5.92592597e-001 1.
      9.62962985e-001 9.62962985e-001 9.62962985e-001 9.62962985e-001
      8.88888896e-001 9.62962985e-001 1.85185194e-001 0. 0. 0. 0. 0. 0.
      0. 0. 0. 0. 0. 1.48148149e-001 5.55555582e-001 6.66666687e-001
      8.14814806e-001 7.40740776e-001 8.51851881e-001 8.14814806e-001
      4.44444448e-001 3.33333343e-001 3.33333343e-001 2.96296299e-001
      2.96296299e-001 2.96296299e-001 2.96296299e-001 2.96296299e-001
      2.96296299e-001 2.96296299e-001 2.96296299e-001 2.96296299e-001
      2.96296299e-001 2.96296299e-001 2.96296299e-001 2.96296299e-001
      2.96296299e-001 2.96296299e-001 2.96296299e-001 2.96296299e-001
      3.33333343e-001 3.70370388e-001 4.07407403e-001 4.07407403e-001
      4.07407403e-001 4.07407403e-001 3.70370388e-001 3.33333343e-001
      1.11111112e-001 0. 9.99999978e-003 0. 0. 0. 0. 0. 0. 0.
      7.00000003e-002 1.40000001e-001 2.59999990e-001 3.40000004e-001
      3.89999986e-001 3.59999985e-001 3.70000005e-001 3.79999995e-001
      4.09999996e-001 4.09999996e-001 3.99999976e-001 4.69999999e-001
      5.00000000e-001 4.89999980e-001 5.00000000e-001 5.60000002e-001
      5.79999983e-001 5.99999964e-001 9.69999969e-001 9.79999959e-001
      9.89999950e-001 1. 9.79999959e-001 1. 9.30000007e-001
      8.79999995e-001 3.79999995e-001 1.99999996e-002</_>
    <_>
      0. 0. 0. 0. 0. 8.33333358e-002 0. 0. 0. 0. 0. 0. 0.
      8.33333358e-002 8.33333358e-002 8.33333358e-002 0. 0. 0. 0. 0.
      2.50000000e-001 4.16666687e-001 5.00000000e-001 6.66666687e-001
      7.50000000e-001 6.66666687e-001 5.00000000e-001 5.00000000e-001
      3.33333343e-001 1.66666672e-001 2.50000000e-001 1.66666672e-001
      1.66666672e-001 8.33333358e-002 1.66666672e-001 1.66666672e-001
      8.33333358e-002 0. 0. 0. 0. 0. 0. 0. 2.50000000e-001
      5.00000000e-001 7.50000000e-001 9.16666687e-001 9.16666687e-001 1.
      8.33333373e-001 5.83333373e-001 2.50000000e-001 8.33333358e-002
      8.33333358e-002 8.33333358e-002 1.66666672e-001 1.66666672e-001
      1.66666672e-001 2.50000000e-001 2.50000000e-001 8.33333358e-002
      1.66666672e-001 1.66666672e-001 3.33333343e-001 5.83333373e-001
      6.66666687e-001 7.50000000e-001 7.50000000e-001 7.50000000e-001
      6.66666687e-001 5.00000000e-001 5.00000000e-001 6.66666687e-001
      5.83333373e-001 4.16666687e-001 2.50000000e-001 0. 8.33333358e-002
      2.50000000e-001 3.33333343e-001 3.33333343e-001 3.33333343e-001
      1.66666672e-001 1.66666672e-001 0. 0. 0. 0. 0. 0. 0. 0. 0. 0. 0.
      8.33333358e-002 1.66666672e-001 1.66666672e-001 1.66666672e-001 0.
      0. 0. 0. 0. 0. 0. 0. 2.50000000e-001 3.33333343e-001
      3.33333343e-001 4.16666687e-001 6.66666687e-001 5.83333373e-001
      5.00000000e-001 4.16666687e-001 4.16666687e-001 8.33333358e-002
      8.33333358e-002 3.33333343e-001 3.33333343e-001 4.16666687e-001
      5.00000000e-001 4.16666687e-001 5.00000000e-001 5.83333373e-001
      5.00000000e-001 4.16666687e-001 3.33333343e-001 3.33333343e-001
      3.33333343e-001 3.33333343e-001 1.66666672e-001 1.66666672e-001
      1.66666672e-001 1.36363640e-001 4.54545468e-002 4.09090936e-001
      6.81818187e-001 9.09090936e-001 9.09090936e-001 8.63636374e-001
      9.54545498e-001 1. 6.81818187e-001 5.45454562e-001 4.54545468e-001
      4.09090936e-001 5.45454562e-001 6.36363626e-001 6.81818187e-001
      1.81818187e-001 2.27272734e-001 3.63636374e-001 3.18181813e-001
      2.72727281e-001 1.81818187e-001 2.27272734e-001 0. 0.
      3.63636374e-001 7.27272749e-001 7.72727311e-001 6.81818187e-001
      3.18181813e-001 2.72727281e-001 3.18181813e-001 5.90909123e-001
      7.27272749e-001 8.18181872e-001 1.</_>
    <_>
      0. 5.14285743e-001 5.71428597e-001 5.71428597e-001 5.71428597e-001
      5.42857170e-001 5.42857170e-001 5.42857170e-001 5.42857170e-001
      5.42857170e-001 5.42857170e-001 5.42857170e-001 5.42857170e-001
      5.42857170e-001 4.85714287e-001 4.57142860e-001 4.85714287e-001
      5.71428597e-001 5.71428597e-001 5.71428597e-001 5.71428597e-001
      5.71428597e-001 5.71428597e-001 6.00000024e-001 6.00000024e-001
      6.28571451e-001 6.85714304e-001 7.14285731e-001 7.14285731e-001
      5.71428597e-001 4.57142860e-001 4.85714287e-001 5.14285743e-001
      5.14285743e-001 4.57142860e-001 4.85714287e-001 5.14285743e-001
      7.14285731e-001 7.14285731e-001 6.28571451e-001 6.28571451e-001
      7.71428585e-001 7.71428585e-001 6.28571451e-001 6.57142878e-001
      8.85714293e-001 9.42857146e-001 8.57142866e-001 8.28571439e-001
      9.42857146e-001 8.57142866e-001 8.57142866e-001 9.14285719e-001
      9.42857146e-001 8.28571439e-001 8.28571439e-001 8.28571439e-001
      8.28571439e-001 8.28571439e-001 8.28571439e-001 8.28571439e-001
      8.28571439e-001 8.28571439e-001 8.28571439e-001 8.28571439e-001
      8.28571439e-001 8.28571439e-001 8.28571439e-001 8.28571439e-001
      8.28571439e-001 8.28571439e-001 8.28571439e-001 6.85714304e-001
      7.71428585e-001 8.57142866e-001 7.71428585e-001 8.00000012e-001
      7.42857158e-001 7.42857158e-001 8.00000012e-001 7.71428585e-001
      6.85714304e-001 6.85714304e-001 6.57142878e-001 6.28571451e-001
      6.28571451e-001 6.28571451e-001 6.28571451e-001 6.57142878e-001
      6.85714304e-001 7.14285731e-001 6.85714304e-001 7.71428585e-001
      7.71428585e-001 7.42857158e-001 6.85714304e-001 7.14285731e-001
      7.42857158e-001 8.28571439e-001 9.42857146e-001 8.85714293e-001
      7.42857158e-001 5.14285743e-001 4.85714287e-001 6.57142878e-001
      6.28571451e-001 6.28571451e-001 6.28571451e-001 7.71428585e-001
      7.14285731e-001 7.71428585e-001 5.71428597e-001 4.85714287e-001
      4.85714287e-001 9.71428573e-001 9.71428573e-001 4.85714287e-001
      4.85714287e-001 7.71428585e-001 8.28571439e-001 7.14285731e-001
      8.00000012e-001 9.42857146e-001 1. 1. 9.71428573e-001
      9.71428573e-001 9.14285719e-001 0. 0. 0. 0. 0. 0. 0. 0.
      9.68503952e-001 9.92125988e-001 9.92125988e-001 9.84251976e-001
      8.89763772e-001 9.37007844e-001 8.66141737e-001 8.97637784e-001
      9.29133832e-001 9.29133832e-001 1. 1. 1. 1. 1. 1. 9.92125988e-001
      8.58267725e-001 8.11023593e-001 6.45669281e-001 6.22047246e-001
      6.06299222e-001 5.66929102e-001 4.72440958e-001 4.48818892e-001
      4.64566916e-001 4.09448802e-001 4.72440958e-001 4.88188982e-001
      3.70078743e-001 3.38582665e-001 2.04724401e-001 1.81102365e-001
      1.65354326e-001 1.33858263e-001 5.51181100e-002</_>
    <_>
      5.55555582e-001 5.55555582e-001 5.00000000e-001 5.00000000e-001
      5.00000000e-001 5.00000000e-001 5.00000000e-001 5.00000000e-001
      5.00000000e-001 5.00000000e-001 5.00000000e-001 5.00000000e-001
      5.00000000e-001 5.00000000e-001 5.00000000e-001 5.55555582e-001
      5.55555582e-001 5.55555582e-001 5.55555582e-001 5.55555582e-001
      6.11111104e-001 6.11111104e-001 5.55555582e-001 5.55555582e-001
      5.55555582e-001 5.55555582e-001 5.55555582e-001 4.44444448e-001
      3.88888896e-001 3.33333343e-001 3.33333343e-001 3.33333343e-001
      2.77777791e-001 1.66666672e-001 1.66666672e-001 1.66666672e-001
      1.11111112e-001 2.77777791e-001 3.88888896e-001 5.00000000e-001
      6.11111104e-001 7.77777791e-001 8.88888896e-001 9.44444478e-001 1.
      8.88888896e-001 8.88888896e-001 8.33333313e-001 8.33333313e-001
      7.77777791e-001 7.77777791e-001 6.66666687e-001 7.22222209e-001
      6.11111104e-001 6.11111104e-001 6.11111104e-001 5.55555582e-001
      5.00000000e-001 4.44444448e-001 4.44444448e-001 4.44444448e-001
      5.00000000e-001 4.44444448e-001 4.44444448e-001 4.44444448e-001
      5.00000000e-001 3.88888896e-001 4.44444448e-001 5.55555582e-001
      6.11111104e-001 5.55555582e-001 5.00000000e-001 6.11111104e-001
      6.11111104e-001 5.55555582e-001 6.11111104e-001 5.55555582e-001
      6.11111104e-001 5.55555582e-001 6.11111104e-001 5.55555582e-001
      6.11111104e-001 6.66666687e-001 7.22222209e-001 7.22222209e-001
      7.22222209e-001 7.77777791e-001 8.33333313e-001 8.33333313e-001
      6.11111104e-001 6.11111104e-001 6.11111104e-001 5.55555582e-001
      5.55555582e-001 4.44444448e-001 4.44444448e-001 4.44444448e-001
      5.55555582e-001 5.55555582e-001 6.11111104e-001 5.55555582e-001
      5.55555582e-001 5.55555582e-001 5.00000000e-001 6.11111104e-001
      6.11111104e-001 6.11111104e-001 6.66666687e-001 6.66666687e-001
      7.22222209e-001 7.77777791e-001 7.77777791e-001 8.33333313e-001
      8.33333313e-001 8.33333313e-001 8.33333313e-001 8.33333313e-001
      7.77777791e-001 8.33333313e-001 8.88888896e-001 7.22222209e-001
      6.66666687e-001 6.11111104e-001 4.44444448e-001 1.11111112e-001 0.
      0. 0. 0. 1.11111112e-001 1.66666672e-001 1.66666672e-001
      2.22222224e-001 3.33333343e-001 3.88888896e-001 3.33333343e-001 1.
      1. 7.58333385e-001 4.75000024e-001 3.91666681e-001 3.25000018e-001
      2.83333361e-001 2.58333355e-001 3.91666681e-001 4.25000012e-001
      4.50000018e-001 3.58333349e-001 3.75000030e-001 5.50000012e-001
      4.83333349e-001 3.41666698e-001 1.91666678e-001 6.66666701e-002
      6.66666701e-002 6.66666701e-002 6.66666701e-002 5.83333373e-002
      5.83333373e-002 9.16666687e-002 3.16666692e-001 3.83333355e-001
      4.08333361e-001 3.41666698e-001 1.83333337e-001 8.33333358e-002
      9.16666687e-002 9.16666687e-002 1.08333342e-001 1.66666672e-001
      1.91666678e-001 2.33333349e-001</_>
    <_>
      9.09090936e-002 9.09090936e-002 4.54545468e-002 4.54545468e-002
      4.54545468e-002 0. 0. 0. 0. 0. 0. 4.54545468e-002 4.54545468e-002
      0. 0. 0. 0. 4.54545468e-002 9.09090936e-002 9.09090936e-002
      1.81818187e-001 2.27272734e-001 2.72727281e-001 2.72727281e-001
      1.81818187e-001 1.81818187e-001 3.63636374e-001 5.00000000e-001
      5.00000000e-001 5.00000000e-001 5.90909123e-001 5.45454562e-001
      5.45454562e-001 5.00000000e-001 5.45454562e-001 5.00000000e-001
      5.00000000e-001 4.54545468e-001 5.90909123e-001 8.63636374e-001
      8.63636374e-001 6.81818187e-001 6.36363626e-001 6.81818187e-001
      6.81818187e-001 6.81818187e-001 4.09090936e-001 2.72727281e-001
      2.72727281e-001 1.36363640e-001 1.81818187e-001 1.81818187e-001
      1.81818187e-001 3.18181813e-001 3.63636374e-001 3.63636374e-001
      4.09090936e-001 4.54545468e-001 5.90909123e-001 5.00000000e-001
      5.00000000e-001 5.00000000e-001 6.36363626e-001 7.27272749e-001
      8.18181872e-001 9.54545498e-001 1. 9.09090936e-001 9.54545498e-001
      8.18181872e-001 7.27272749e-001 6.81818187e-001 6.81818187e-001
      6.81818187e-001 6.36363626e-001 6.81818187e-001 6.81818187e-001
      6.81818187e-001 6.36363626e-001 5.00000000e-001 5.00000000e-001
      5.00000000e-001 4.54545468e-001 3.63636374e-001 4.09090936e-001
      4.54545468e-001 5.00000000e-001 5.90909123e-001 6.36363626e-001
      6.36363626e-001 5.45454562e-001 5.00000000e-001 4.09090936e-001
      5.00000000e-001 4.54545468e-001 4.09090936e-001 4.09090936e-001
      4.09090936e-001 4.09090936e-001 4.09090936e-001 5.00000000e-001
      5.00000000e-001 5.45454562e-001 5.90909123e-001 6.36363626e-001
      5.45454562e-001 5.45454562e-001 5.45454562e-001 5.45454562e-001
      5.90909123e-001 5.45454562e-001 5.90909123e-001 5.45454562e-001
      5.45454562e-001 5.00000000e-001 5.00000000e-001 5.00000000e-001
      4.54545468e-001 4.09090936e-001 3.63636374e-001 3.18181813e-001
      3.18181813e-001 2.72727281e-001 1.81818187e-001 1.81818187e-001
      9.09090936e-002 1.36363640e-001 1.81818187e-001 1.81818187e-001
      2.27272734e-001 1.81818187e-001 1.36363640e-001 1.36363640e-001
      1.36363640e-001 9.09090936e-002 9.09090936e-002 3.46153855e-001
      9.74358976e-001 1. 7.56410241e-001 4.74358976e-001 3.46153855e-001
      3.07692319e-001 3.97435904e-001 6.92307711e-001 7.56410241e-001
      7.30769217e-001 3.07692319e-001 1.79487184e-001 1.28205135e-001
      1.92307696e-001 3.20512831e-001 6.66666687e-001 8.20512831e-001
      9.10256445e-001 6.28205121e-001 2.17948720e-001 2.56410271e-001
      2.43589744e-001 2.30769232e-001 6.28205121e-001 7.56410241e-001
      5.89743614e-001 4.48717952e-001 1.66666672e-001 1.53846160e-001
      1.02564104e-001 1.15384616e-001 1.41025648e-001 3.84615391e-001
      2.82051295e-001 2.56410260e-002</_>
    <_>
      7.14285731e-001 7.14285731e-001 7.14285731e-001 7.61904776e-001
      7.14285731e-001 7.14285731e-001 7.14285731e-001 7.14285731e-001
      7.61904776e-001 7.61904776e-001 7.61904776e-001 7.61904776e-001
      7.61904776e-001 7.61904776e-001 7.61904776e-001 7.61904776e-001
      8.09523821e-001 7.61904776e-001 8.09523821e-001 8.09523821e-001
      8.09523821e-001 8.09523821e-001 8.09523821e-001 7.61904776e-001
      7.61904776e-001 7.61904776e-001 8.09523821e-001 8.09523821e-001
      8.09523821e-001 7.61904776e-001 7.61904776e-001 7.61904776e-001
      8.09523821e-001 8.09523821e-001 8.09523821e-001 8.09523821e-001
      8.09523821e-001 8.09523821e-001 8.09523821e-001 8.57142866e-001
      8.57142866e-001 4.76190478e-001 2.85714298e-001 2.85714298e-001
      9.52380970e-002 4.76190485e-002 1.42857149e-001 2.38095239e-001
      7.14285731e-001 9.04761910e-001 1. 9.52380955e-001 7.14285731e-001
      5.23809552e-001 5.71428597e-001 6.19047642e-001 5.71428597e-001
      4.76190478e-001 5.23809552e-001 5.23809552e-001 5.23809552e-001
      4.76190478e-001 5.71428597e-001 4.76190478e-001 5.23809552e-001
      5.23809552e-001 5.23809552e-001 5.23809552e-001 4.76190478e-001
      4.76190478e-001 5.23809552e-001 5.23809552e-001 5.23809552e-001
      5.71428597e-001 5.71428597e-001 5.71428597e-001 5.23809552e-001
      4.76190478e-001 4.76190478e-001 4.76190478e-001 4.76190478e-001
      4.76190478e-001 4.76190478e-001 4.28571433e-001 4.76190478e-001
      4.76190478e-001 5.23809552e-001 5.23809552e-001 4.76190478e-001
      4.28571433e-001 4.76190478e-001 4.76190478e-001 5.23809552e-001
      4.76190478e-001 4.76190478e-001 5.23809552e-001 5.23809552e-001
      5.23809552e-001 5.23809552e-001 5.23809552e-001 6.19047642e-001
      6.66666687e-001 6.19047642e-001 7.14285731e-001 7.61904776e-001
      7.14285731e-001 7.61904776e-001 7.61904776e-001 7.61904776e-001
      6.19047642e-001 3.80952388e-001 2.38095239e-001 1.90476194e-001
      4.28571433e-001 8.09523821e-001 8.09523821e-001 8.09523821e-001
      8.09523821e-001 8.09523821e-001 8.09523821e-001 8.09523821e-001
      8.09523821e-001 8.09523821e-001 8.09523821e-001 8.09523821e-001
      8.09523821e-001 8.09523821e-001 8.09523821e-001 7.61904776e-001
      7.61904776e-001 7.61904776e-001 7.61904776e-001 7.61904776e-001
      7.61904776e-001 7.61904776e-001 7.61904776e-001 6.25000000e-002
      2.60416687e-001 3.12500000e-001 3.75000000e-001 4.27083343e-001
      4.68750000e-001 6.77083373e-001 6.35416687e-001 7.08333373e-001
      6.56250000e-001 8.85416687e-001 9.16666687e-001 9.37500000e-001
      9.47916687e-001 9.79166687e-001 1. 9.89583373e-001 9.68750000e-001
      9.47916687e-001 9.37500000e-001 8.85416687e-001 7.70833373e-001
      6.56250000e-001 6.04166687e-001 4.68750000e-001 3.43750000e-001
      2.08333343e-001 4.16666679e-002 8.33333358e-002 8.33333358e-002
      8.33333358e-002 9.37500000e-002 9.37500000e-002 1.14583336e-001
      1.45833343e-001 3.33333343e-001</_>
    <_>
      0. 0. 0. 0. 0. 0. 0. 0. 0. 0. 0. 0. 2.63157904e-001
      4.73684222e-001 5.78947365e-001 5.78947365e-001 5.78947365e-001
      6.31578922e-001 6.31578922e-001 6.84210539e-001 6.84210539e-001
      6.84210539e-001 8.94736826e-001 8.94736826e-001 7.36842096e-001
      6.84210539e-001 5.78947365e-001 4.21052635e-001 3.15789461e-001
      1.57894731e-001 1.05263159e-001 5.26315793e-002 1.05263159e-001
      1.05263159e-001 5.26315793e-002 0. 0. 0. 0. 0. 0. 0. 0. 0. 0. 0.
      0. 0. 3.15789461e-001 4.21052635e-001 4.73684222e-001
      4.73684222e-001 5.78947365e-001 6.31578922e-001 6.31578922e-001
      4.21052635e-001 4.21052635e-001 2.10526317e-001 1.05263159e-001 0.
      0. 0. 3.68421048e-001 5.78947365e-001 7.36842096e-001
      7.36842096e-001 6.31578922e-001 6.84210539e-001 8.42105269e-001
      8.94736826e-001 1. 1. 1. 9.47368443e-001 9.47368443e-001
      9.47368443e-001 1. 6.31578922e-001 3.15789461e-001 1.57894731e-001
      2.10526317e-001 2.10526317e-001 3.68421048e-001 4.21052635e-001
      4.73684222e-001 3.15789461e-001 3.15789461e-001 2.63157904e-001
      2.63157904e-001 2.10526317e-001 1.57894731e-001 1.57894731e-001
      1.57894731e-001 3.15789461e-001 4.21052635e-001 4.73684222e-001
      4.21052635e-001 2.63157904e-001 2.63157904e-001 2.10526317e-001
      2.10526317e-001 2.10526317e-001 2.10526317e-001 2.10526317e-001
      2.10526317e-001 2.10526317e-001 1.57894731e-001 2.10526317e-001
      2.10526317e-001 2.10526317e-001 3.68421048e-001 3.15789461e-001
      5.26315793e-002 0. 0. 5.26315793e-002 1.05263159e-001
      2.63157904e-001 2.63157904e-001 4.73684222e-001 6.31578922e-001
      7.36842096e-001 6.31578922e-001 5.26315808e-001 6.31578922e-001
      5.78947365e-001 5.26315808e-001 4.21052635e-001 3.68421048e-001
      4.73684222e-001 4.73684222e-001 3.15789461e-001 0. 0. 0. 0.
      2.38095243e-002 1.19047619e-001 1.90476194e-001 3.80952388e-001
      6.42857134e-001 6.66666687e-001 6.19047642e-001 6.42857134e-001
      6.42857134e-001 5.95238090e-001 6.19047642e-001 8.33333373e-001
      9.04761910e-001 9.76190507e-001 8.80952418e-001 9.28571463e-001
      8.80952418e-001 8.57142866e-001 9.52380955e-001 1. 8.57142866e-001
      8.09523821e-001 6.42857134e-001 5.71428597e-001 4.04761910e-001
      4.52380955e-001 4.76190478e-001 3.80952388e-001 1.66666672e-001
      2.14285716e-001 2.14285716e-001 3.09523821e-001 5.47619045e-001
      5.00000000e-001 3.33333343e-001 1.90476194e-001</_>
    <_>
      1.56250000e-001 9.37500000e-002 3.12500000e-001 5.00000000e-001
      5.31250000e-001 2.81250000e-001 3.12500000e-001 3.75000000e-001
      3.75000000e-001 4.68750000e-001 5.31250000e-001 5.00000000e-001
      3.75000000e-001 5.00000000e-001 5.31250000e-001 5.62500000e-001
      5.00000000e-001 2.50000000e-001 3.43750000e-001 3.12500000e-001
      4.06250000e-001 6.25000000e-001 7.81250000e-001 9.37500000e-001
      9.68750000e-001 8.75000000e-001 8.12500000e-001 9.06250000e-001
      9.06250000e-001 8.43750000e-001 7.18750000e-001 5.93750000e-001
      9.06250000e-001 9.06250000e-001 7.81250000e-001 7.18750000e-001
      7.81250000e-001 7.81250000e-001 5.93750000e-001 5.00000000e-001
      5.62500000e-001 5.93750000e-001 5.62500000e-001 7.81250000e-001
      8.12500000e-001 8.75000000e-001 7.81250000e-001 8.43750000e-001
      7.18750000e-001 4.06250000e-001 5.00000000e-001 5.00000000e-001
      7.81250000e-001 7.81250000e-001 7.81250000e-001 5.31250000e-001
      4.68750000e-001 3.75000000e-001 4.68750000e-001 5.31250000e-001
      7.18750000e-001 1. 9.37500000e-001 8.12500000e-001 5.31250000e-001
      5.00000000e-001 5.31250000e-001 4.37500000e-001 4.37500000e-001
      3.43750000e-001 3.12500000e-001 5.31250000e-001 4.68750000e-001
      4.68750000e-001 4.37500000e-001 2.50000000e-001 4.06250000e-001
      3.75000000e-001 2.81250000e-001 4.06250000e-001 4.37500000e-001
      3.75000000e-001 4.06250000e-001 3.43750000e-001 1.87500000e-001
      2.50000000e-001 2.81250000e-001 5.31250000e-001 5.31250000e-001
      5.00000000e-001 5.93750000e-001 5.93750000e-001 5.00000000e-001
      5.31250000e-001 4.68750000e-001 4.06250000e-001 2.50000000e-001
      9.37500000e-002 3.75000000e-001 8.75000000e-001 9.68750000e-001
      9.68750000e-001 1. 9.06250000e-001 7.81250000e-001 6.25000000e-001
      4.37500000e-001 5.00000000e-001 5.31250000e-001 5.00000000e-001
      6.87500000e-001 5.31250000e-001 3.75000000e-001 4.06250000e-001
      5.31250000e-001 5.31250000e-001 5.62500000e-001 7.81250000e-001
      8.12500000e-001 6.56250000e-001 5.93750000e-001 4.68750000e-001
      5.62500000e-001 6.87500000e-001 5.93750000e-001 3.75000000e-001
      4.37500000e-001 4.68750000e-001 4.37500000e-001 4.37500000e-001
      5.62500000e-001 7.18750000e-001 6.87500000e-001 5.62500000e-001
      5.31250000e-001 4.37500000e-001 7.11111128e-001 6.33333325e-001
      6.33333325e-001 6.11111104e-001 5.88888884e-001 6.55555546e-001
      6.55555546e-001 7.22222269e-001 8.44444454e-001 8.55555594e-001
      9.33333337e-001 1. 8.33333373e-001 8.33333373e-001 8.00000012e-001
      8.88888896e-001 9.22222257e-001 9.22222257e-001 9.00000036e-001
      8.00000012e-001 7.11111128e-001 6.11111104e-001 6.22222245e-001
      6.44444466e-001 6.66666687e-001 7.33333349e-001 8.11111152e-001
      7.77777791e-001 8.33333373e-001 7.22222269e-001 6.88888907e-001
      6.55555546e-001 7.33333349e-001 7.55555570e-001 6.77777767e-001
      6.99999988e-001</_>
    <_>
      0. 0. 0. 1.72413796e-001 2.41379306e-001 2.41379306e-001
      2.41379306e-001 2.06896544e-001 1.72413796e-001 1.03448272e-001 0.
      0. 0. 0. 0. 2.41379306e-001 2.75862068e-001 2.75862068e-001
      1.03448272e-001 0. 1.37931034e-001 1.72413796e-001 1.72413796e-001
      3.44827585e-002 1.37931034e-001 5.17241359e-001 6.20689631e-001
      6.55172408e-001 7.58620679e-001 8.62068951e-001 8.27586174e-001
      7.58620679e-001 7.24137902e-001 6.20689631e-001 6.20689631e-001
      5.17241359e-001 4.82758611e-001 4.48275864e-001 3.10344815e-001
      2.75862068e-001 2.41379306e-001 1.72413796e-001 0. 0. 0. 0. 0. 0.
      0. 3.10344815e-001 4.48275864e-001 4.82758611e-001 5.17241359e-001
      5.86206913e-001 9.31034505e-001 1. 8.62068951e-001 3.79310340e-001
      2.41379306e-001 1.37931034e-001 0. 0. 0. 0. 0. 0. 1.72413796e-001
      2.06896544e-001 2.75862068e-001 2.75862068e-001 2.75862068e-001
      1.72413796e-001 0. 0. 0. 0. 0. 0. 2.06896544e-001 4.48275864e-001
      6.89655185e-001 6.20689631e-001 4.48275864e-001 3.44827592e-001
      1.72413796e-001 0. 0. 0. 0. 0. 0. 0. 0. 0. 0. 3.44827585e-002
      3.44827585e-002 0. 0. 0. 0. 0. 0. 0. 0. 0. 1.03448272e-001
      1.37931034e-001 1.37931034e-001 1.37931034e-001 6.89655170e-002
      1.37931034e-001 2.41379306e-001 2.41379306e-001 1.72413796e-001 0.
      0. 0. 0. 0. 0. 0. 0. 0. 0. 0. 0. 0. 0. 3.44827585e-002
      1.37931034e-001 1.72413796e-001 2.06896544e-001 2.41379306e-001
      2.75862068e-001 2.75862068e-001 0. 0. 6.12244904e-002
      1.22448981e-001 1.83673471e-001 2.24489793e-001 2.24489793e-001
      2.44897962e-001 2.44897962e-001 2.44897962e-001 2.44897962e-001
      2.24489793e-001 2.04081625e-001 2.85714269e-001 3.67346942e-001
      4.89795923e-001 5.10204077e-001 6.32653058e-001 7.14285672e-001
      7.95918345e-001 8.36734653e-001 9.38775480e-001 9.59183633e-001 1.
      9.79591846e-001 8.77551019e-001 6.32653058e-001 5.51020384e-001
      3.87755096e-001 4.08163249e-001 3.87755096e-001 3.87755096e-001
      3.06122452e-001 2.44897962e-001 6.12244904e-002 2.04081628e-002</_>
    <_>
      0. 0. 0. 0. 0. 0. 0. 0. 3.57142873e-002 3.57142873e-002
      3.57142873e-002 3.57142873e-002 3.57142873e-002 7.14285746e-002
      1.78571433e-001 2.14285731e-001 2.50000000e-001 2.14285731e-001
      2.14285731e-001 2.50000000e-001 3.21428597e-001 3.21428597e-001
      4.28571463e-001 5.71428597e-001 7.14285731e-001 7.85714328e-001
      8.21428597e-001 8.92857194e-001 9.28571463e-001 1. 9.64285731e-001
      9.64285731e-001 9.28571463e-001 9.28571463e-001 9.28571463e-001
      9.28571463e-001 8.92857194e-001 8.92857194e-001 8.92857194e-001
      8.92857194e-001 8.92857194e-001 8.92857194e-001 8.92857194e-001
      8.92857194e-001 8.92857194e-001 8.57142925e-001 8.92857194e-001
      8.92857194e-001 9.28571463e-001 9.28571463e-001 8.92857194e-001
      8.92857194e-001 9.28571463e-001 8.92857194e-001 8.92857194e-001
      8.21428597e-001 8.21428597e-001 8.21428597e-001 7.85714328e-001
      7.85714328e-001 7.50000060e-001 7.14285731e-001 7.14285731e-001
      6.78571463e-001 6.78571463e-001 6.78571463e-001 6.78571463e-001
      6.78571463e-001 6.78571463e-001 7.85714328e-001 7.85714328e-001
      7.85714328e-001 7.50000060e-001 6.78571463e-001 6.07142866e-001
      5.35714328e-001 5.35714328e-001 5.71428597e-001 5.35714328e-001
      6.42857194e-001 6.78571463e-001 7.14285731e-001 7.14285731e-001
      7.14285731e-001 7.14285731e-001 7.14285731e-001 7.50000060e-001
      8.21428597e-001 8.57142925e-001 8.57142925e-001 9.28571463e-001
      9.28571463e-001 9.28571463e-001 9.28571463e-001 9.28571463e-001
      9.28571463e-001 9.28571463e-001 8.92857194e-001 8.92857194e-001
      8.57142925e-001 8.21428597e-001 8.21428597e-001 7.85714328e-001
      7.85714328e-001 8.21428597e-001 7.50000060e-001 7.50000060e-001
      6.78571463e-001 6.78571463e-001 6.78571463e-001 6.78571463e-001
      6.78571463e-001 6.42857194e-001 6.42857194e-001 6.07142866e-001
      5.35714328e-001 4.64285731e-001 4.64285731e-001 4.64285731e-001
      4.64285731e-001 5.35714328e-001 5.71428597e-001 5.71428597e-001
      6.78571463e-001 7.14285731e-001 6.07142866e-001 5.71428597e-001
      5.00000000e-001 3.92857164e-001 3.21428597e-001 1.42857149e-001
      7.14285746e-002 0. 0. 0. 0. 0. 4.37500030e-001 5.71428597e-001
      5.44642866e-001 4.55357164e-001 4.37500030e-001 5.35714328e-001
      7.94642866e-001 9.64285731e-001 1. 8.57142925e-001 8.12500060e-001
      7.76785731e-001 8.30357194e-001 9.82142925e-001 9.46428597e-001
      9.73214328e-001 9.82142925e-001 9.64285731e-001 9.55357194e-001
      8.92857194e-001 8.30357194e-001 7.76785731e-001 7.58928597e-001
      7.32142866e-001 8.30357194e-001 7.14285731e-001 3.03571433e-001
      2.32142866e-001 7.14285746e-002 2.67857164e-002 1.78571437e-002 0.
      0. 1.78571437e-002 0.</_>
    <_>
      0. 0. 0. 5.00000007e-002 0. 1.50000006e-001 1.50000006e-001
      1.00000001e-001 5.00000000e-001 3.49999994e-001 3.00000012e-001
      2.50000000e-001 3.00000012e-001 2.00000003e-001 2.00000003e-001
      1.00000001e-001 5.00000007e-002 5.00000007e-002 0. 0. 0.
      5.00000007e-002 5.00000007e-002 2.00000003e-001 2.50000000e-001
      2.50000000e-001 0. 1.00000001e-001 0. 1.00000001e-001 0. 0. 0. 0.
      0. 4.00000006e-001 4.00000006e-001 4.50000018e-001 3.00000012e-001
      2.00000003e-001 5.00000007e-002 1.00000001e-001 1.00000001e-001
      1.50000006e-001 1.50000006e-001 1.50000006e-001 1.00000001e-001
      5.00000007e-002 1.00000001e-001 3.00000012e-001 4.50000018e-001
      6.50000036e-001 7.50000000e-001 6.99999988e-001 6.00000024e-001
      6.50000036e-001 7.50000000e-001 1. 8.50000024e-001 5.50000012e-001
      3.00000012e-001 1.50000006e-001 0. 0. 0. 5.00000007e-002
      5.00000007e-002 1.00000001e-001 1.00000001e-001 1.50000006e-001
      1.00000001e-001 2.00000003e-001 2.00000003e-001 2.00000003e-001
      3.00000012e-001 3.00000012e-001 3.00000012e-001 3.00000012e-001
      5.00000000e-001 6.00000024e-001 7.50000000e-001 7.50000000e-001
      4.50000018e-001 4.50000018e-001 5.00000000e-001 5.50000012e-001
      3.49999994e-001 3.00000012e-001 1.00000001e-001 1.00000001e-001
      1.00000001e-001 5.00000007e-002 5.00000007e-002 0. 0. 0. 0. 0.
      1.50000006e-001 2.00000003e-001 2.50000000e-001 2.00000003e-001
      5.00000007e-002 5.00000007e-002 5.00000007e-002 0. 5.00000007e-002
      1.50000006e-001 5.00000007e-002 1.50000006e-001 1.50000006e-001
      1.50000006e-001 1.50000006e-001 0. 0. 0. 0. 0. 0. 0.
      1.00000001e-001 1.50000006e-001 2.50000000e-001 3.00000012e-001
      3.00000012e-001 3.00000012e-001 2.50000000e-001 2.00000003e-001 0.
      0. 2.50000000e-001 3.00000012e-001 2.50000000e-001 1.00000001e-001
      0. 0. 1. 4.44444448e-001 8.88888910e-002 6.66666701e-002
      1.11111112e-001 2.00000003e-001 2.00000003e-001 1.33333340e-001
      2.22222224e-001 2.22222224e-001 2.00000003e-001 2.66666681e-001
      4.00000006e-001 3.77777785e-001 3.77777785e-001 4.88888890e-001
      5.77777803e-001 5.55555582e-001 4.66666669e-001 3.11111122e-001
      3.77777785e-001 4.44444448e-001 5.11111140e-001 3.55555564e-001
      5.33333361e-001 5.11111140e-001 3.55555564e-001 3.11111122e-001
      2.66666681e-001 1.11111112e-001 1.77777782e-001 8.88888910e-002
      2.00000003e-001 4.00000006e-001 3.77777785e-001 1.11111112e-001</_>
    <_>
      0. 0. 0. 0. 0. 0. 3.70370373e-002 1.85185194e-001 1.85185194e-001
      2.59259254e-001 2.96296299e-001 3.33333343e-001 2.96296299e-001
      2.59259254e-001 2.59259254e-001 3.70370388e-001 4.07407403e-001
      4.44444448e-001 4.07407403e-001 2.96296299e-001 3.70370388e-001
      2.96296299e-001 2.59259254e-001 2.22222224e-001 2.22222224e-001
      2.59259254e-001 1.11111112e-001 0. 3.70370373e-002 0.
      7.40740746e-002 1.11111112e-001 3.70370388e-001 7.03703701e-001
      8.14814806e-001 7.77777791e-001 7.77777791e-001 1. 8.51851881e-001
      7.03703701e-001 2.59259254e-001 1.11111112e-001 1.11111112e-001 0.
      0. 0. 0. 0. 0. 0. 0. 0. 0. 3.70370373e-002 7.40740746e-002
      7.40740746e-002 0. 3.70370373e-002 0. 0. 0. 7.40740746e-002
      1.11111112e-001 1.11111112e-001 1.11111112e-001 1.11111112e-001
      3.70370373e-002 3.70370373e-002 0. 0. 0. 0. 0. 0. 0.
      3.70370373e-002 1.48148149e-001 2.59259254e-001 2.96296299e-001
      2.96296299e-001 2.96296299e-001 5.18518507e-001 5.18518507e-001
      5.18518507e-001 5.55555582e-001 5.18518507e-001 5.18518507e-001 0.
      0. 3.70370373e-002 3.70370373e-002 3.70370373e-002 0. 0. 0. 0. 0.
      0. 0. 0. 0. 0. 0. 1.48148149e-001 1.85185194e-001 1.48148149e-001
      1.48148149e-001 1.85185194e-001 2.22222224e-001 3.33333343e-001
      3.33333343e-001 2.59259254e-001 2.22222224e-001 2.22222224e-001
      2.22222224e-001 2.59259254e-001 2.59259254e-001 2.59259254e-001
      1.85185194e-001 0. 7.40740746e-002 7.40740746e-002 7.40740746e-002
      0. 0. 0. 0. 0. 0. 0. 0. 0. 0. 0. 0. 0. 0. 0. 0. 2.56410260e-002
      1.79487184e-001 4.35897440e-001 5.12820542e-001 5.89743614e-001
      6.15384638e-001 3.84615391e-001 4.61538464e-001 4.35897440e-001
      3.84615391e-001 4.10256416e-001 4.87179488e-001 5.89743614e-001
      5.38461566e-001 4.35897440e-001 4.10256416e-001 4.10256416e-001
      4.61538464e-001 4.61538464e-001 6.41025662e-001 8.71794879e-001
      8.97435904e-001 8.97435904e-001 1. 9.74358976e-001 6.15384638e-001
      2.05128208e-001 2.05128208e-001 2.30769232e-001 1.79487184e-001
      7.69230798e-002 0. 0.</_>
    <_>
      4.58333343e-001 4.58333343e-001 4.58333343e-001 4.58333343e-001
      4.58333343e-001 5.00000000e-001 5.41666687e-001 5.41666687e-001
      5.41666687e-001 5.41666687e-001 5.41666687e-001 5.41666687e-001
      5.41666687e-001 5.00000000e-001 5.83333373e-001 6.25000000e-001
      6.66666687e-001 6.25000000e-001 6.25000000e-001 6.25000000e-001
      6.25000000e-001 6.66666687e-001 6.66666687e-001 6.66666687e-001
      5.83333373e-001 5.83333373e-001 5.83333373e-001 5.83333373e-001
      5.83333373e-001 6.25000000e-001 6.25000000e-001 6.25000000e-001
      6.66666687e-001 6.66666687e-001 7.08333373e-001 7.08333373e-001
      7.50000000e-001 7.50000000e-001 7.50000000e-001 7.91666687e-001
      7.91666687e-001 7.91666687e-001 8.33333373e-001 8.33333373e-001
      8.33333373e-001 9.16666687e-001 9.16666687e-001 5.00000000e-001
      3.33333343e-001 2.08333343e-001 2.08333343e-001 3.33333343e-001
      2.91666687e-001 2.08333343e-001 1.25000000e-001 1.25000000e-001
      8.33333358e-002 8.33333358e-002 8.33333358e-002 8.33333358e-002
      8.33333358e-002 1.66666672e-001 3.33333343e-001 8.33333373e-001 1.
      1. 8.75000000e-001 6.66666687e-001 5.83333373e-001 5.41666687e-001
      3.33333343e-001 3.33333343e-001 2.50000000e-001 2.50000000e-001
      2.50000000e-001 2.08333343e-001 2.08333343e-001 2.08333343e-001
      2.08333343e-001 2.08333343e-001 2.08333343e-001 2.08333343e-001
      2.08333343e-001 2.08333343e-001 2.08333343e-001 2.50000000e-001
      2.08333343e-001 2.50000000e-001 2.50000000e-001 2.91666687e-001
      5.00000000e-001 5.00000000e-001 6.25000000e-001 7.50000000e-001
      8.75000000e-001 6.66666687e-001 5.00000000e-001 2.91666687e-001
      8.33333358e-002 8.33333358e-002 8.33333358e-002 8.33333358e-002
      1.25000000e-001 1.25000000e-001 1.25000000e-001 2.08333343e-001
      2.08333343e-001 4.58333343e-001 1.66666672e-001 1.25000000e-001
      2.08333343e-001 2.50000000e-001 5.00000000e-001 5.83333373e-001
      5.41666687e-001 5.41666687e-001 5.41666687e-001 5.41666687e-001
      5.83333373e-001 5.83333373e-001 5.83333373e-001 5.83333373e-001
      5.83333373e-001 6.25000000e-001 6.66666687e-001 6.25000000e-001
      6.25000000e-001 6.25000000e-001 5.83333373e-001 5.83333373e-001
      5.83333373e-001 5.83333373e-001 5.83333373e-001 5.83333373e-001
      5.41666687e-001 5.41666687e-001 9.05511796e-001 1. 7.95275569e-001
      7.40157485e-001 7.24409461e-001 6.92913413e-001 6.92913413e-001
      6.77165329e-001 6.61417305e-001 6.45669281e-001 6.37795269e-001
      6.06299222e-001 5.59055090e-001 4.48818892e-001 3.38582665e-001
      2.83464551e-001 2.20472440e-001 1.96850389e-001 1.57480314e-001
      1.41732275e-001 1.25984251e-001 1.33858263e-001 1.65354326e-001
      2.28346452e-001 2.12598428e-001 1.41732275e-001 2.36220472e-002
      7.87401572e-003 0. 0. 0. 0. 0. 0. 7.87401572e-003 0.</_>
    <_>
      0. 0. 0. 3.80952388e-001 5.71428597e-001 6.66666687e-001
      7.14285731e-001 6.66666687e-001 6.66666687e-001 5.71428597e-001
      5.71428597e-001 5.23809552e-001 5.23809552e-001 4.76190478e-001
      6.66666687e-001 2.85714298e-001 0. 0. 0. 0. 0. 0. 0. 0. 0. 0. 0.
      0. 0. 0. 0. 0. 0. 0. 0. 0. 0. 4.76190485e-002 1.42857149e-001 0.
      0. 0. 0. 0. 1.42857149e-001 1.42857149e-001 1.90476194e-001
      1.90476194e-001 3.33333343e-001 4.28571433e-001 4.28571433e-001
      4.28571433e-001 5.23809552e-001 5.23809552e-001 6.19047642e-001 1.
      9.52380955e-001 9.52380955e-001 9.04761910e-001 8.09523821e-001
      7.14285731e-001 3.33333343e-001 0. 0. 0. 0. 0. 0. 0. 0. 0. 0. 0.
      0. 0. 0. 0. 0. 0. 0. 4.76190485e-002 4.76190485e-002 0. 0. 0. 0.
      0. 0. 0. 0. 0. 0. 0. 0. 0. 0. 0. 0. 0. 0. 0. 0. 0. 0. 0.
      1.42857149e-001 2.38095239e-001 2.85714298e-001 2.85714298e-001
      2.85714298e-001 2.85714298e-001 1.90476194e-001 0. 0. 0. 0. 0. 0.
      0. 0. 0. 0. 0. 0. 0. 0. 0. 0. 1.42857149e-001 2.85714298e-001
      3.33333343e-001 1.42857149e-001 0. 0. 0. 0. 0. 3.57142873e-002
      2.14285731e-001 2.50000000e-001 2.50000000e-001 2.85714298e-001
      2.14285731e-001 2.14285731e-001 3.21428597e-001 3.92857164e-001
      6.07142866e-001 7.50000060e-001 7.50000060e-001 8.21428597e-001
      9.28571463e-001 1. 8.21428597e-001 8.57142925e-001 8.57142925e-001
      8.21428597e-001 7.85714328e-001 6.42857194e-001 5.71428597e-001
      6.07142866e-001 5.71428597e-001 4.28571463e-001 4.64285731e-001
      1.42857149e-001 7.14285746e-002 0. 3.57142873e-002 7.14285746e-002
      3.57142873e-002 3.57142873e-002 0. 0.</_>
    <_>
      9.00000036e-001 9.00000036e-001 9.00000036e-001 9.00000036e-001
      9.00000036e-001 9.33333397e-001 9.33333397e-001 9.33333397e-001
      9.33333397e-001 9.33333397e-001 9.33333397e-001 9.33333397e-001
      9.33333397e-001 9.66666698e-001 9.66666698e-001 9.66666698e-001
      9.66666698e-001 9.66666698e-001 9.66666698e-001 9.66666698e-001 1.
      1. 9.66666698e-001 8.33333373e-001 6.33333385e-001 5.33333361e-001
      5.00000000e-001 4.66666698e-001 4.33333367e-001 4.66666698e-001
      4.33333367e-001 4.33333367e-001 5.33333361e-001 7.33333349e-001
      7.66666710e-001 7.66666710e-001 5.66666722e-001 5.00000000e-001
      4.33333367e-001 4.33333367e-001 4.00000036e-001 4.00000036e-001
      3.33333343e-001 3.33333343e-001 3.00000012e-001 3.00000012e-001
      3.00000012e-001 3.33333343e-001 3.33333343e-001 3.33333343e-001
      3.00000012e-001 2.66666681e-001 2.66666681e-001 3.33333343e-001
      3.00000012e-001 3.00000012e-001 3.00000012e-001 2.33333349e-001
      2.33333349e-001 3.00000012e-001 3.33333343e-001 3.33333343e-001
      3.00000012e-001 4.00000036e-001 3.33333343e-001 3.66666675e-001
      4.00000036e-001 5.00000000e-001 5.00000000e-001 4.33333367e-001
      7.00000048e-001 6.33333385e-001 6.33333385e-001 6.66666687e-001
      7.00000048e-001 7.66666710e-001 7.33333349e-001 7.66666710e-001
      7.00000048e-001 7.66666710e-001 7.33333349e-001 7.66666710e-001
      7.33333349e-001 7.66666710e-001 7.00000048e-001 6.00000024e-001
      5.00000000e-001 4.00000036e-001 4.00000036e-001 3.00000012e-001
      2.66666681e-001 3.00000012e-001 3.33333343e-001 3.33333343e-001
      3.00000012e-001 3.66666675e-001 3.66666675e-001 3.66666675e-001
      4.00000036e-001 4.00000036e-001 4.33333367e-001 4.33333367e-001
      4.66666698e-001 5.00000000e-001 5.00000000e-001 6.33333385e-001
      6.66666687e-001 8.66666734e-001 8.00000072e-001 7.33333349e-001
      7.00000048e-001 6.66666687e-001 6.00000024e-001 5.33333361e-001
      5.33333361e-001 6.00000024e-001 6.66666687e-001 8.33333373e-001 1.
      1. 1. 1. 1. 1. 1. 1. 1. 9.66666698e-001 9.66666698e-001
      9.66666698e-001 9.66666698e-001 9.66666698e-001 9.66666698e-001
      9.66666698e-001 9.66666698e-001 9.33333397e-001 1. 1.
      9.77941155e-001 9.55882370e-001 7.72058845e-001 6.83823526e-001
      6.39705896e-001 6.02941155e-001 5.66176474e-001 5.44117630e-001
      5.29411793e-001 5.51470578e-001 5.51470578e-001 5.88235319e-001
      6.02941155e-001 5.80882370e-001 5.44117630e-001 5.36764681e-001
      5.07352948e-001 5.14705896e-001 5.00000000e-001 4.85294133e-001
      4.63235289e-001 4.55882341e-001 4.55882341e-001 4.48529422e-001
      4.55882341e-001 4.48529422e-001 3.82352948e-001 3.16176474e-001
      2.64705896e-001 3.23529422e-001 3.38235289e-001 2.64705896e-001
      1.76470593e-001 5.14705889e-002</_>
    <_>
      0. 0. 0. 0. 0. 0. 0. 0. 0. 0. 0. 0. 0. 7.69230798e-002
      1.53846160e-001 1.53846160e-001 7.69230798e-002 2.30769247e-001
      2.30769247e-001 3.84615391e-001 3.84615391e-001 4.61538494e-001
      3.07692319e-001 7.69230798e-002 0. 0. 0. 0. 0. 2.30769247e-001
      3.84615391e-001 5.38461566e-001 3.84615391e-001 5.38461566e-001 1.
      9.23076987e-001 8.46153855e-001 7.69230783e-001 9.23076987e-001 1.
      9.23076987e-001 5.38461566e-001 4.61538494e-001 1.53846160e-001
      1.53846160e-001 2.30769247e-001 1.53846160e-001 1.53846160e-001 0.
      7.69230798e-002 1.53846160e-001 1.53846160e-001 3.07692319e-001
      4.61538494e-001 3.84615391e-001 3.84615391e-001 3.84615391e-001
      3.84615391e-001 3.84615391e-001 1.53846160e-001 2.30769247e-001
      5.38461566e-001 4.61538494e-001 5.38461566e-001 5.38461566e-001
      3.84615391e-001 3.07692319e-001 2.30769247e-001 2.30769247e-001
      3.84615391e-001 2.30769247e-001 2.30769247e-001 5.38461566e-001
      8.46153855e-001 9.23076987e-001 9.23076987e-001 9.23076987e-001
      9.23076987e-001 7.69230783e-001 2.30769247e-001 0. 3.07692319e-001
      3.07692319e-001 3.07692319e-001 2.30769247e-001 3.84615391e-001
      3.84615391e-001 0. 0. 0. 3.84615391e-001 5.38461566e-001
      4.61538494e-001 3.84615391e-001 1.53846160e-001 0. 0. 0. 0. 0. 0.
      7.69230798e-002 0. 7.69230798e-002 1.53846160e-001 3.07692319e-001
      6.15384638e-001 5.38461566e-001 6.92307711e-001 6.15384638e-001
      3.84615391e-001 4.61538494e-001 4.61538494e-001 3.84615391e-001
      7.69230798e-002 0. 7.69230798e-002 0. 0. 0. 7.69230798e-002
      7.69230798e-002 1.53846160e-001 3.07692319e-001 5.38461566e-001
      4.61538494e-001 2.30769247e-001 7.69230798e-002 0. 0. 0. 0. 0. 0.
      0. 0. 0. 1.11111112e-001 8.33333358e-002 8.33333358e-002
      1.66666672e-001 2.22222224e-001 3.33333343e-001 5.83333313e-001
      5.00000000e-001 4.72222239e-001 5.55555582e-001 4.44444448e-001
      4.44444448e-001 5.27777791e-001 5.27777791e-001 5.27777791e-001
      4.72222239e-001 5.00000000e-001 5.55555582e-001 5.27777791e-001
      6.38888896e-001 8.88888896e-001 9.16666687e-001 1. 5.27777791e-001
      5.55555582e-001 3.33333343e-001 1.66666672e-001 1.11111112e-001
      1.11111112e-001 1.11111112e-001 5.55555560e-002 1.38888896e-001
      1.94444448e-001 2.77777780e-002 0.</_>
    <_>
      0. 0. 0. 0. 0. 0. 0. 0. 4.41176474e-001 9.41176474e-001
      9.70588267e-001 5.88235319e-001 8.82352948e-001 9.41176474e-001
      9.70588267e-001 9.11764681e-001 9.41176474e-001 9.41176474e-001
      9.11764681e-001 9.41176474e-001 9.11764681e-001 9.70588267e-001
      9.70588267e-001 9.70588267e-001 9.41176474e-001 9.41176474e-001
      9.41176474e-001 9.41176474e-001 9.41176474e-001 9.41176474e-001
      9.41176474e-001 1.47058830e-001 0. 0. 0. 2.05882356e-001
      5.58823526e-001 3.52941185e-001 0. 0. 0. 8.82352963e-002
      2.35294119e-001 2.35294119e-001 5.88235296e-002 5.88235296e-002
      8.82352963e-002 1.47058830e-001 2.94117659e-001 2.35294119e-001
      8.82352963e-002 2.35294119e-001 4.70588237e-001 7.05882370e-001
      9.70588267e-001 9.41176474e-001 1. 9.70588267e-001 9.41176474e-001
      9.11764681e-001 9.11764681e-001 9.70588267e-001 6.47058845e-001
      8.23529422e-001 7.94117630e-001 5.29411793e-001 5.00000000e-001
      2.64705896e-001 3.82352948e-001 2.64705896e-001 2.35294119e-001
      2.64705896e-001 2.35294119e-001 2.05882356e-001 2.64705896e-001
      1.76470593e-001 1.47058830e-001 1.47058830e-001 8.82352963e-002 0.
      0. 2.94117648e-002 0. 0. 0. 2.94117648e-002 2.94117648e-002
      1.17647059e-001 2.05882356e-001 5.88235296e-002 5.88235296e-002
      3.23529422e-001 1.47058830e-001 0. 2.05882356e-001 0.
      2.94117648e-002 5.88235296e-002 0. 0. 0. 0. 0. 1.17647059e-001
      2.64705896e-001 2.64705896e-001 3.23529422e-001 1.76470593e-001
      2.94117648e-002 0. 0. 2.94117648e-002 2.94117648e-002
      1.76470593e-001 1.76470593e-001 2.64705896e-001 1.47058830e-001
      5.88235296e-002 5.88235296e-002 1.17647059e-001 0. 0. 0.
      1.47058830e-001 1.76470593e-001 1.47058830e-001 1.17647059e-001 0.
      0. 0. 0. 0. 0. 0. 0. 0. 0. 5.78947365e-001 8.42105269e-001
      7.36842096e-001 7.19298244e-001 7.36842096e-001 7.36842096e-001
      8.59649122e-001 1. 1. 8.94736826e-001 6.84210539e-001
      6.49122834e-001 6.66666687e-001 6.84210539e-001 7.54385948e-001
      9.64912295e-001 1. 8.59649122e-001 6.66666687e-001 7.19298244e-001
      6.84210539e-001 6.84210539e-001 7.54385948e-001 7.54385948e-001
      9.47368443e-001 8.94736826e-001 7.54385948e-001 6.66666687e-001
      6.49122834e-001 6.49122834e-001 7.19298244e-001 7.01754391e-001
      6.31578922e-001 2.28070170e-001 0.</_>
    <_>
      5.26315793e-002 1.57894731e-001 2.10526317e-001 3.68421048e-001
      4.73684222e-001 3.15789461e-001 2.63157904e-001 3.15789461e-001
      5.78947365e-001 7.36842096e-001 9.47368443e-001 4.73684222e-001
      1.05263159e-001 5.26315793e-002 2.63157904e-001 4.21052635e-001
      2.63157904e-001 1.57894731e-001 1.57894731e-001 3.15789461e-001
      2.10526317e-001 1.57894731e-001 0. 0. 0. 0. 0. 0. 5.26315793e-002
      2.63157904e-001 1.57894731e-001 2.63157904e-001 3.68421048e-001
      6.31578922e-001 8.42105269e-001 7.89473712e-001 8.42105269e-001
      7.89473712e-001 7.36842096e-001 5.26315808e-001 1.57894731e-001
      2.10526317e-001 1.05263159e-001 1.57894731e-001 2.63157904e-001
      4.73684222e-001 4.73684222e-001 4.73684222e-001 1.57894731e-001
      4.21052635e-001 5.78947365e-001 6.31578922e-001 7.36842096e-001
      5.26315808e-001 5.78947365e-001 6.31578922e-001 7.89473712e-001
      4.21052635e-001 4.21052635e-001 3.15789461e-001 6.31578922e-001
      3.68421048e-001 2.10526317e-001 1.57894731e-001 2.10526317e-001
      5.26315793e-002 5.26315793e-002 2.63157904e-001 3.68421048e-001
      5.78947365e-001 5.26315808e-001 6.84210539e-001 4.73684222e-001
      2.63157904e-001 2.63157904e-001 0. 5.26315793e-002 0.
      5.26315793e-002 5.26315793e-002 0. 5.26315793e-002 5.26315793e-002
      0. 1.57894731e-001 1.05263159e-001 0. 5.26315793e-002
      2.10526317e-001 2.63157904e-001 1.57894731e-001 0. 1.05263159e-001
      1.05263159e-001 1.05263159e-001 1.05263159e-001 2.10526317e-001
      1.05263159e-001 2.10526317e-001 4.21052635e-001 5.78947365e-001
      5.26315808e-001 4.73684222e-001 4.21052635e-001 6.31578922e-001
      6.84210539e-001 6.84210539e-001 6.84210539e-001 1. 8.94736826e-001
      7.36842096e-001 6.84210539e-001 8.42105269e-001 7.36842096e-001
      6.84210539e-001 5.26315808e-001 3.15789461e-001 2.63157904e-001
      1.57894731e-001 1.05263159e-001 0. 0. 0. 1.05263159e-001
      1.05263159e-001 1.57894731e-001 0. 5.26315793e-002 1.57894731e-001
      1.05263159e-001 1.05263159e-001 2.63157904e-001 5.26315793e-002
      5.26315793e-002 5.26315793e-002 0. 2.61904776e-001 5.47619045e-001
      8.57142866e-001 5.23809552e-001 5.47619045e-001 6.66666687e-001
      5.71428597e-001 4.52380955e-001 3.80952388e-001 2.85714298e-001
      5.95238090e-001 5.95238090e-001 8.57142866e-001 5.95238090e-001
