<?xml version="1.0"?>
<opencv_storage>
<ann type_id="opencv-ml-ann-mlp">
  <layer_sizes type_id="opencv-matrix">
    <rows>1</rows>
    <cols>3</cols>
    <dt>i</dt>
    <data>
      140 40 54</data></layer_sizes>
  <activation_function>SIGMOID_SYM</activation_function>
  <f_param1>1.</f_param1>
  <f_param2>1.</f_param2>
  <min_val>-9.4999999999999996e-001</min_val>
  <max_val>9.4999999999999996e-001</max_val>
  <min_val1>-9.7999999999999998e-001</min_val1>
  <max_val1>9.7999999999999998e-001</max_val1>
  <training_params>
    <train_method>RPROP</train_method>
    <dw0>1.0000000000000001e-001</dw0>
    <dw_plus>1.2000000000000000e+000</dw_plus>
    <dw_minus>5.0000000000000000e-001</dw_minus>
    <dw_min>1.1920928955078125e-007</dw_min>
    <dw_max>50.</dw_max>
    <term_criteria><epsilon>9.9999997764825821e-003</epsilon>
      <iterations>1000</iterations></term_criteria></training_params>
  <input_scale>
    7.8618631543282884e+000 -2.5985380791449519e+000
    7.2715777263139554e+000 -2.6150789879535652e+000
    6.8247039591709653e+000 -2.4548676221040484e+000
    5.7209582214766694e+000 -2.1706241264202726e+000
    3.7368314872560005e+000 -2.0311400468407506e+000
    3.4352748165434011e+000 -2.3719139803856915e+000
    3.8250379898050095e+000 -3.1024641173039287e+000
    3.8185309740643421e+000 -3.1135473822069222e+000
    5.0527360647151927e+000 -3.9116451476697227e+000
    5.6502135781693443e+000 -4.2792866577950477e+000
    5.5577198720293666e+000 -4.2876440512655254e+000
    5.2477508223160534e+000 -4.2796918448288839e+000
    5.1583921086916487e+000 -4.4186844018863241e+000
    4.9000589689906482e+000 -3.9868594798418395e+000
    4.5772698403995635e+000 -3.2033536806489042e+000
    4.9979273303730958e+000 -2.5290547401114210e+000
    6.2509325713888124e+000 -2.9451468191487956e-001
    1.1281600966161538e+001 -2.8877005353630442e-001
    1.3545733849659008e+001 -2.8728771593826313e-001
    1.3136654656727904e+001 -2.9031642407593283e-001
    5.8757733174895250e+000 -4.3950828288893904e+000
    6.1236818765368586e+000 -4.9569758116240523e+000
    6.1338159742870246e+000 -5.0203350189607088e+000
    6.1960262556934085e+000 -4.8311014921548265e+000
    6.4120310143242172e+000 -4.7251490088280415e+000
    6.5688417593481452e+000 -4.7908213650244358e+000
    6.5888436222987972e+000 -4.8165021001824382e+000
    6.5828899072175240e+000 -4.8324344404136550e+000
    5.7153952945518771e+000 -4.2724267287478579e+000
    5.5190367345390738e+000 -4.2720252666476988e+000
    5.5498051751125681e+000 -4.2605864321838851e+000
    5.6238716059782670e+000 -4.1137920542225501e+000
    5.8564083958188595e+000 -4.1089558276051701e+000
    5.9386091675140245e+000 -4.1786812937730833e+000
    5.9064048990760059e+000 -4.2399887302119579e+000
    5.7900960405520641e+000 -4.1325980998425687e+000
    5.2788434792358432e+000 -3.9243920505790095e+000
    5.1683010654033819e+000 -4.0265390518971387e+000
    5.1721231168285904e+000 -3.9576653807055133e+000
    5.3806426309967872e+000 -3.9018447944903607e+000
    1.8491729123698666e+000 -1.3506093379244004e+000
    1.0054899676841311e-001 -2.2503186377824372e-001
    1.4416357296632550e-002 -6.8956325333436252e-001
    1.0695867139329306e-002 -1.4632998765443330e+000
    1.0010254395729336e-002 -1.5824299779592870e+000
    1.1106779871340889e-002 -1.9259013523582289e+000
    1.1563377468182355e-002 -1.6678852153128734e+000
    1.6119264905121364e-002 -6.3876874225082003e-001
    1.1775647222540822e-001 -1.1758683191745939e-001
    4.5225861962909981e+000 -2.0648332367817945e-001
    1.7998373110084080e+000 -1.5104352788416082e+000
    6.4650215685955317e-002 -2.3863409067857777e-001
    1.2105352334113438e-002 -9.3216981258914244e-001
    1.0520969700915260e-002 -1.7937950209284561e+000
    1.2158437752106240e-002 -1.4799906858157246e+000
    1.1837752705579688e-002 -1.6470414724338744e+000
    1.0735990933959154e-002 -1.8725417006412461e+000
    1.3551881591947170e-002 -8.8023856078687168e-001
    9.7901754129838897e-002 -1.5053045639976892e-001
    4.2563959024369700e+000 -1.9480180714832321e-001
    1.8011386563721441e+000 -1.4899711956801924e+000
    5.5016210160858545e-002 -2.3513577055452042e-001
    1.1074803086429722e-002 -8.9855139935287953e-001
    1.0444961443905302e-002 -1.5006877062130475e+000
    1.0556601994133063e-002 -7.9023372117163537e-001
    1.0110243486376421e-002 -8.3428555098960577e-001
    1.0073867672077044e-002 -1.3743617804880552e+000
    1.1948952969991834e-002 -8.1931894278725037e-001
    6.9893816303888481e-002 -1.6504513869897602e-001
    4.3688090077170525e+000 -2.0672445105221426e-001
    1.8312667117415307e+000 -1.3454452902090368e+000
    5.5396937482495086e-002 -2.3178437151225256e-001
    1.1079108806933562e-002 -8.9072646250530962e-001
    1.0309494007675855e-002 -1.5491419963468860e+000
    1.0248321112759274e-002 -1.0088043457767728e+000
    1.0324142646435218e-002 -1.0414387368504234e+000
    1.0065042461695961e-002 -1.2707160722441069e+000
    1.2338574929821624e-002 -7.2786653632995613e-001
    7.4031831534638493e-002 -1.5527487538299012e-001
    4.6600487448829941e+000 -2.1637416047273653e-001
    1.7668655360966499e+000 -1.1297444750972596e+000
    6.5122580199688279e-002 -2.1728454867380478e-001
    1.1553507671372405e-002 -8.2903715302926673e-001
    9.9522098905723746e-003 -1.6043681408413024e+000
    1.0239253110781379e-002 -1.5849907678549133e+000
    1.1361337072792341e-002 -1.9622403967363466e+000
    1.1365811478733640e-002 -1.8476673236041448e+000
    1.3380332937192404e-002 -6.9751212983689892e-001
    8.7301956469495720e-002 -1.3541284183328142e-001
    4.4427442836483459e+000 -2.0283805904954771e-001
    1.7210040784655296e+000 -1.2436466750524953e+000
    6.4952565396703632e-002 -2.1886941584474337e-001
    1.1765164687536777e-002 -7.6332372847572794e-001
    1.0178988916289182e-002 -1.4376378016043392e+000
    1.1249753796248185e-002 -1.3019420851204542e+000
    1.0675074933883878e-002 -1.5251528296192298e+000
    1.0987601507663409e-002 -1.8402320896971072e+000
    1.2820260341438582e-002 -7.9603673030302802e-001
    8.3828559379158479e-002 -1.5224581778202884e-001
    3.7759004548369988e+000 -2.0293791230008248e-001
    1.7470154316022188e+000 -1.2659279595796664e+000
    5.9272197031346223e-002 -2.2856315517473247e-001
    1.1174990796389722e-002 -8.2285776645153719e-001
    9.7715276112482763e-003 -1.2361448048449908e+000
    1.2003936886911164e-002 -7.5108143579154218e-001
    1.0572148112816857e-002 -9.0794648337233330e-001
    1.0276392053485165e-002 -1.5022925899492467e+000
    1.1711668741112397e-002 -8.5587068572849978e-001
    6.2086467833709545e-002 -1.7820962874875274e-001
    3.4900531640598986e+000 -1.7287829835270108e-001
    1.3036182699512922e+000 -8.6171132316704990e-001
    5.5289738524039948e-002 -2.4071622862726968e-001
    1.1139223072786055e-002 -9.9534463578094357e-001
    1.0760618013285662e-002 -1.6238492818448778e+000
    1.1300803747375633e-002 -8.1785309283339813e-001
    9.7170562244343079e-003 -8.7944527478058376e-001
    1.0018558693651277e-002 -1.4472198827821929e+000
    1.1639421615942069e-002 -8.7643013210121057e-001
    6.4946257236770930e-002 -1.7935789855912770e-001
    4.0951647136053673e+000 -1.8243087487470719e-001
    7.3086370950128543e-001 -5.1186376817909174e-001
    6.9744965936201206e-002 -2.2884294064771513e-001
    1.2025865484052401e-002 -9.9175409617734667e-001
    1.0669008431418572e-002 -1.8633108735640671e+000
    1.2411845010961646e-002 -1.5033682218396829e+000
    1.2748146367808046e-002 -1.6195754280409680e+000
    9.5630781375262552e-003 -1.5287031851338222e+000
    1.3922782129557268e-002 -8.3498738384570204e-001
    8.8734742147518600e-002 -1.4127349738845299e-001
    4.8051588254080100e+000 -1.6134343130525566e-001
    1.6019157131545734e+000 -1.2124428547036499e+000
    9.5740177325322529e-002 -2.0363884791469863e-001
    1.4708600013553563e-002 -6.6147462518843103e-001
    1.1368288303098136e-002 -1.4877176500516385e+000
    1.0073776373014619e-002 -1.5882641351989879e+000
    9.8777058152768309e-003 -1.4360316861117204e+000
    1.1101781763300454e-002 -1.2924902487242451e+000
    1.6673181951724361e-002 -5.6179791416481173e-001
    1.1650571912062545e-001 -1.1431090836591509e-001
    4.5658995385028724e+000 -1.6747703316095419e-001</input_scale>
  <output_scale>
    5.2631578947368418e-001 4.9999999999999994e-001
    5.2631578947368418e-001 4.9999999999999994e-001
    5.2631578947368418e-001 4.9999999999999994e-001
    5.2631578947368418e-001 4.9999999999999994e-001
    5.2631578947368418e-001 4.9999999999999994e-001
    5.2631578947368418e-001 4.9999999999999994e-001
    5.2631578947368418e-001 4.9999999999999994e-001
    5.2631578947368418e-001 4.9999999999999994e-001
    5.2631578947368418e-001 4.9999999999999994e-001
    5.2631578947368418e-001 4.9999999999999994e-001
    5.2631578947368418e-001 4.9999999999999994e-001
    5.2631578947368418e-001 4.9999999999999994e-001
    5.2631578947368418e-001 4.9999999999999994e-001
    5.2631578947368418e-001 4.9999999999999994e-001
    5.2631578947368418e-001 4.9999999999999994e-001
    5.2631578947368418e-001 4.9999999999999994e-001
    5.2631578947368418e-001 4.9999999999999994e-001
    5.2631578947368418e-001 4.9999999999999994e-001
    5.2631578947368418e-001 4.9999999999999994e-001
    5.2631578947368418e-001 4.9999999999999994e-001
    5.2631578947368418e-001 4.9999999999999994e-001
    5.2631578947368418e-001 4.9999999999999994e-001
    5.2631578947368418e-001 4.9999999999999994e-001
    5.2631578947368418e-001 4.9999999999999994e-001
    5.2631578947368418e-001 4.9999999999999994e-001
    5.2631578947368418e-001 4.9999999999999994e-001
    5.2631578947368418e-001 4.9999999999999994e-001
    5.2631578947368418e-001 4.9999999999999994e-001
    5.2631578947368418e-001 4.9999999999999994e-001
    5.2631578947368418e-001 4.9999999999999994e-001
    5.2631578947368418e-001 4.9999999999999994e-001
    5.2631578947368418e-001 4.9999999999999994e-001
    5.2631578947368418e-001 4.9999999999999994e-001
    5.2631578947368418e-001 4.9999999999999994e-001
    5.2631578947368418e-001 4.9999999999999994e-001
    5.2631578947368418e-001 4.9999999999999994e-001
    5.2631578947368418e-001 4.9999999999999994e-001
    5.2631578947368418e-001 4.9999999999999994e-001
    5.2631578947368418e-001 4.9999999999999994e-001
    5.2631578947368418e-001 4.9999999999999994e-001
    5.2631578947368418e-001 4.9999999999999994e-001
    5.2631578947368418e-001 4.9999999999999994e-001
    5.2631578947368418e-001 4.9999999999999994e-001
    5.2631578947368418e-001 4.9999999999999994e-001
    5.2631578947368418e-001 4.9999999999999994e-001
    5.2631578947368418e-001 4.9999999999999994e-001
    5.2631578947368418e-001 4.9999999999999994e-001
    5.2631578947368418e-001 4.9999999999999994e-001
    5.2631578947368418e-001 4.9999999999999994e-001
    5.2631578947368418e-001 4.9999999999999994e-001
    5.2631578947368418e-001 4.9999999999999994e-001
    5.2631578947368418e-001 4.9999999999999994e-001
    5.2631578947368418e-001 4.9999999999999994e-001
    5.2631578947368418e-001 4.9999999999999994e-001</output_scale>
  <inv_output_scale>
    1.8999999999999999e+000 -9.4999999999999996e-001
    1.8999999999999999e+000 -9.4999999999999996e-001
    1.8999999999999999e+000 -9.4999999999999996e-001
    1.8999999999999999e+000 -9.4999999999999996e-001
    1.8999999999999999e+000 -9.4999999999999996e-001
    1.8999999999999999e+000 -9.4999999999999996e-001
    1.8999999999999999e+000 -9.4999999999999996e-001
    1.8999999999999999e+000 -9.4999999999999996e-001
    1.8999999999999999e+000 -9.4999999999999996e-001
    1.8999999999999999e+000 -9.4999999999999996e-001
    1.8999999999999999e+000 -9.4999999999999996e-001
    1.8999999999999999e+000 -9.4999999999999996e-001
    1.8999999999999999e+000 -9.4999999999999996e-001
    1.8999999999999999e+000 -9.4999999999999996e-001
    1.8999999999999999e+000 -9.4999999999999996e-001
    1.8999999999999999e+000 -9.4999999999999996e-001
    1.8999999999999999e+000 -9.4999999999999996e-001
    1.8999999999999999e+000 -9.4999999999999996e-001
    1.8999999999999999e+000 -9.4999999999999996e-001
    1.8999999999999999e+000 -9.4999999999999996e-001
    1.8999999999999999e+000 -9.4999999999999996e-001
    1.8999999999999999e+000 -9.4999999999999996e-001
    1.8999999999999999e+000 -9.4999999999999996e-001
    1.8999999999999999e+000 -9.4999999999999996e-001
    1.8999999999999999e+000 -9.4999999999999996e-001
    1.8999999999999999e+000 -9.4999999999999996e-001
    1.8999999999999999e+000 -9.4999999999999996e-001
    1.8999999999999999e+000 -9.4999999999999996e-001
    1.8999999999999999e+000 -9.4999999999999996e-001
    1.8999999999999999e+000 -9.4999999999999996e-001
    1.8999999999999999e+000 -9.4999999999999996e-001
    1.8999999999999999e+000 -9.4999999999999996e-001
    1.8999999999999999e+000 -9.4999999999999996e-001
    1.8999999999999999e+000 -9.4999999999999996e-001
    1.8999999999999999e+000 -9.4999999999999996e-001
    1.8999999999999999e+000 -9.4999999999999996e-001
    1.8999999999999999e+000 -9.4999999999999996e-001
    1.8999999999999999e+000 -9.4999999999999996e-001
    1.8999999999999999e+000 -9.4999999999999996e-001
    1.8999999999999999e+000 -9.4999999999999996e-001
    1.8999999999999999e+000 -9.4999999999999996e-001
    1.8999999999999999e+000 -9.4999999999999996e-001
    1.8999999999999999e+000 -9.4999999999999996e-001
    1.8999999999999999e+000 -9.4999999999999996e-001
    1.8999999999999999e+000 -9.4999999999999996e-001
    1.8999999999999999e+000 -9.4999999999999996e-001
    1.8999999999999999e+000 -9.4999999999999996e-001
    1.8999999999999999e+000 -9.4999999999999996e-001
    1.8999999999999999e+000 -9.4999999999999996e-001
    1.8999999999999999e+000 -9.4999999999999996e-001
    1.8999999999999999e+000 -9.4999999999999996e-001
    1.8999999999999999e+000 -9.4999999999999996e-001
    1.8999999999999999e+000 -9.4999999999999996e-001
    1.8999999999999999e+000 -9.4999999999999996e-001</inv_output_scale>
  <weights>
    <_>
      -1.5770144686942808e-001 -2.3972789720630244e-001
      1.9964111175572112e-002 1.9198560781125695e-001
      -1.5187851802548472e-001 7.0946150665068902e-002
      2.8300725238153568e-001 9.1244998249781703e-003
      1.2228912635337150e-001 -6.7956999815705355e-002
      1.9402659596838159e-001 -3.5796131933258549e-002
      1.8165020055268336e-001 1.0880423538744247e-001
      -7.6673375261959512e-002 -9.7344970358519980e-002
      -1.1512169906129016e-001 -8.0768682775473138e-002
      -7.5313541093168845e-002 -4.5434728594297952e-002
      -1.1253293698217345e-001 -4.2307544258658530e-001
      2.9236006610055071e-002 -9.3535350250194729e-002
      -2.9177473825795613e-001 6.3607462330488779e-002
      2.3482566056923962e-001 -2.5156807409176363e-002
      -2.4672862061632683e-001 -1.3588729221002185e-001
      2.0258021202787513e-001 2.4061079384977663e-001
      -5.0337319433454448e-003 1.1773550537463508e-001
      -4.2693331800568385e-003 -1.3274885486182031e-001
      -1.6941320142948943e-001 3.8208181458193013e-001
      -2.1963938097062367e-002 2.8656505972815866e-001
      -5.0792894933848864e-002 -2.2058883227109727e-001
      1.5382770240028824e-002 -2.1377131267911473e-001
      1.2873557785133860e-001 -1.1206904090522192e-002
      5.3969409961440097e-002 2.1524463956706895e-002
      2.4276259430955254e-003 7.9776222259853022e-002
      2.3132367493730346e-001 -1.0730183188431044e-001
      1.2965761370420723e-001 -5.3906602951843303e-002
      -6.3793487767463464e-002 -7.9293279760090901e-002
      -1.5795084434654746e-001 9.3300381763010976e-002
      8.6301083953782345e-002 -1.6303616338856539e-001
      -3.0972524750884810e-002 -5.2780655481574609e-002
      -6.0136504822715667e-002 -2.4304463025379075e-001
      -1.0772253314723743e-001 9.7385223311163852e-002
      3.6480329927045663e-001 -5.6603559310612638e-002
      3.8659157535021640e-003 -1.3064172008762051e-001
      1.8064084510876677e-001 1.0006487853607131e-001
      -2.1214016530346799e-001 -5.5923596789259379e-002
      -1.3082579882881078e-003 -8.2659345295346326e-002
      1.8924325965532809e-001 -1.4927732140839048e-001
      7.4254025497325821e-002 -1.4977060797766434e-001
      -7.0412185517057413e-002 -1.4441767483403925e-001
      3.4263114651362438e-003 1.1574153278496593e-001
      -1.9771177304373350e-001 4.5117806170128713e-002
      7.0032241501043466e-002 8.3474258619184422e-002
      1.6652792280941844e-001 1.9006047123653566e-001
      -1.7216606131716241e-002 -7.6701402053156236e-003
      8.1576412205515200e-003 1.8338405398068944e-002
      -5.5513157559441403e-002 -8.3450557196154025e-003
      -2.2990148244845504e-001 -3.5146500517979865e-002
      -2.1568320458243567e-001 4.2141428843280593e-001
      -1.6935299239869375e-002 9.5032860125817298e-002
      -2.0186820998116425e-001 -2.5678981410374974e-001
      -6.4352534609220247e-002 2.4401520870185625e-001
      -2.1254950246503243e-002 1.1498800294617940e-001
      3.2952125660925050e-003 -9.2217883777731560e-002
      7.3494171016703552e-002 1.1814302032410805e-001
      2.5481651695583896e-001 -4.3403835755534987e-003
      3.6616708501686822e-002 -6.3245560740882154e-002
      1.0069197329600672e-001 -1.9270461247941195e-001
      -6.0935180174278040e-004 3.3041087842726816e-002
      1.0743610411846219e-001 -6.9201759020179665e-002
      1.5693994801059216e-003 -1.9750390350476762e-002
      -7.5240418679827253e-002 -5.4106905419348161e-001
      -2.4562818164424777e-001 9.1602655593205091e-003
      -7.0149902124074334e-002 -1.6663154262608438e-002
      2.0874037792576786e-001 -3.0974038051271052e-002
      9.3451112698260452e-002 1.9286732458105710e-001
      -1.5366688701614092e-001 3.1760753606880010e-001
      -1.2291322566221302e-001 -9.1764038876626444e-003
      -1.2456931850990699e-001 -3.2688390835665687e-002
      -9.3274812226049972e-003 2.7769988640997545e-001
      -2.7492692372915034e-001 -9.9713496490076395e-002
      -2.6259019241061521e-001 2.4989266259944720e-001
      2.7085162143669878e-001 -3.5962366530067474e-001
      -1.1026292799636564e-001 -1.7132796524650211e-003
      1.5849604550315788e-001 4.5580689698034096e-002
      -1.4194470004940982e-002 -1.2850118690302212e-001
      1.4823466107162921e-002 -2.5201840572407647e-001
      1.4527220620512096e-001 -5.6123041179646393e-001
      2.7685339465587065e-002 6.0115652979669587e-001
      1.1372657584476236e-002 2.5879606973316854e-002
      1.4828726873802192e-001 -1.9613700333252332e-001
      -1.0717499478095721e-001 1.4762590531501696e-001
      -1.9759364781089458e-001 1.4615735838772453e-001
      -2.2999777655083292e-001 -2.5804608208568036e-001
      4.2316667143656189e-001 2.4988924786154174e-001
      -1.1965408347480677e-001 -3.0337834245608136e-001
      -3.0826466968479082e-002 1.4762094967634812e-001
      -1.4327355563355758e-002 -1.2410361962327597e-001
      -1.5069535241048301e-001 -1.5467281522422807e-001
      8.0705463072885293e-003 -5.2249716922377190e-002
      -4.7076984015400961e-003 7.7014453975889255e-002
      -6.1890347547510945e-002 1.3427881266309216e-003
      -6.8548453350337074e-002 -2.2749457518869476e-001
      -1.1378740288653277e-001 -7.2792486000425437e-003
      9.0450624400640889e-002 -5.5414386967338004e-002
      2.0640806276062701e-001 -9.5913573967668128e-002
      -3.3342746301232233e-002 -2.7727540895900260e-001
      -3.2220644169781938e-002 1.7812058424032948e-001
      7.1218173722905218e-002 -4.2394057795272527e-001
      1.6093314204641190e-002 -2.6179399619762345e-002
      1.1208623037545422e-001 7.0699919964548760e-002
      -3.3827285186918349e-001 7.6952967627176377e-002
      -6.6768039458324366e-002 5.4368636245472508e-002
      2.6911204266185196e-002 -5.5188995976858468e-003
      -4.5038491596808630e-002 7.3072466659601001e-002
      -7.7123386590583556e-002 -5.9486445550715278e-002
      2.0789587056885164e-001 -6.7072909887937834e-002
      1.0639411221832413e-003 -1.6447307804567191e-001
      -1.1188168589271204e-001 -3.2586158077928029e-001
      9.0501835060831148e-002 -1.0159492660956995e-001
      2.3865440738125989e-002 8.9026776279574629e-002
      -8.5255644710989037e-002 1.3778869132693264e-002
      1.0882774700737551e-001 1.5382057739303387e-001
      1.0979774012434326e-001 3.1249920136758074e-002
      -1.9252835169955845e-001 -2.7896834585088862e-002
      2.5589569238037341e-001 -8.2782115700251568e-002
      1.4632242216857716e-001 -1.7545609797898037e-001
      4.8749304614364088e-002 1.6140158511152100e-001
      3.3423138487471765e-001 -1.1801790615766286e-001
      -7.7587717150269506e-002 -2.1695424768441252e-001
      1.1055730654700903e-001 7.5296665851783975e-002
      -2.8639155222316559e-001 1.1900069037130549e-001
      -4.1067856045943291e-002 1.0009045545461337e-001
      -8.8559255726995672e-003 1.1750410271195767e-001
      -1.0808175775389358e-002 -6.3772277138229846e-002
      2.3072983746842118e-001 5.0638126540603061e-002
      -2.8303767090891253e-002 -5.9214843646834540e-002
      -7.2337044181755725e-002 7.9977550299200159e-002
      1.0393327515048426e-001 -4.5026619157500397e-001
      -1.5467247681675973e-002 -1.1389295254640491e-001
      -1.3059564648304309e-001 1.0813021986920100e-001
      -2.7247210119904491e-001 8.6015166927897194e-002
      -3.3140148393545045e-002 3.7969870816981728e-002
      1.2849938640159381e-001 2.5406603217286335e-002
      -1.5322148022951840e-001 -2.1522988989218919e-001
      1.2013349912007592e+000 -4.8721612517924561e-004
      8.0143240165394709e-003 -2.5051698550694868e-001
      4.7892759464640410e-002 -5.0144069302152094e-001
      7.7192412946268552e-002 -7.7823296093459435e-002
      -6.2239448346278863e-002 -8.9098409125657002e-002
      1.3711813928888672e-001 -1.8630614142325327e-001
      -2.1050599756503426e-002 1.2740532451585296e-001
      9.1115866734988116e-002 -5.7945428430996551e-002
      2.0243718693631380e-001 3.5927099924677719e-001
      1.3338011145877496e-001 -1.1903365443653596e-002
      2.1531081441554095e-001 1.6184487312422338e-001
      3.9669291503371479e-002 1.3822869538959818e-002
      -1.2041633132363246e-001 6.1401478278892252e-002
      1.4722792286050682e-001 -8.1591443198779187e-002
      -6.7468576392750210e-002 -1.2725897584788287e-001
      -1.3179463433494121e-001 1.4626127634081443e-001
      -3.7115023035702049e-001 3.2758620734721550e-002
      -1.3345406126979275e-002 -2.9001861759754383e-001
      8.4065194074104649e-002 -2.2437304111200451e-001
      -1.5396822956035550e-001 -1.9295688391480109e-001
      1.6562422600495949e-001 -1.5249226319947282e-001
      1.8944000140335489e-002 -2.6285883377920422e-001
      -2.1096404872356761e-001 -5.8350419779901086e-001
      -9.1314909318767776e-002 1.2805277600708198e-001
      7.8826528126194714e-002 -2.0357295034158323e-002
      5.3970754959519897e-002 -1.0136840973721334e-001
      -3.7307842785896117e-001 -1.6660157375614967e-001
      8.4489726271908161e-001 1.1561334838003295e-001
      -3.8656454582921812e-001 4.7267828106731602e-001
      2.1336117716415839e-001 -3.6711434332984454e-002
      2.9438419645568457e-002 2.1213513784958163e-001
      1.1539882584549634e-001 -5.1152796699269004e-002
      -7.1412176445410022e-002 2.3982170644883383e-001
      -8.1001391958765101e-002 1.4014574484091280e-001
      -1.8499461251571023e-002 7.3150478706209887e-002
      -1.7547361796216615e-001 -1.3605323490982993e-001
      -5.1390756775027746e-001 9.4176823824683904e-003
      -4.7571572571749269e-003 -9.9473922465633274e-002
      3.2803871711572563e-001 -4.0558179890049539e-001
      -3.2527852687186637e-002 -7.7060191218979252e-002
      2.2263241970558209e-001 -1.4590126481748619e-001
      -4.5150560942779548e-002 -1.5336083425344757e-001
      3.9768817273293511e-002 -2.9615591848380507e-001
      -6.2307157783726239e-002 -1.8323587198936162e-001
      9.9130574647149500e-002 4.8412319173982032e-001
      4.4510145509888710e-001 -2.9884937424978664e-001
      -1.1372798058975594e-001 -3.4548329860146554e-001
      -1.8701345331795828e-002 1.8957872314325527e-001
      -2.6061337961536330e-002 -4.6583934495523123e-002
      -1.1186016402470861e-001 2.9600284953767875e-001
      2.1320977241887940e-001 5.7208954384459908e-002
      -8.4739102135003158e-002 -2.3619717097794676e-001
      -3.3444135876192757e-002 2.2710765013838743e-001
      -1.1480474713348025e-001 3.6439559845819543e-002
      1.2419813701021161e-003 2.0411068160237255e-002
      -2.4804244541704198e-001 -9.9836764055899335e-002
      -1.5961633442786147e-001 -1.9900615819354997e-001
      -1.6012365743635780e-003 -3.5897143080929633e-001
      -2.2100069407921596e-002 -3.2258623614141652e-001
      -1.0538055246676385e-001 -5.0448861645693101e-002
      -1.0756067319836839e-001 -3.0833971838910662e-001
      -2.4665684433358720e-001 -9.4322065523049281e-002
      -5.6180247722252452e-001 6.4366200959519115e-002
      1.1486858722426271e-002 1.9522081518070805e-001
      2.1587250133916189e-001 1.0453736003661254e+000
      4.4974514486405215e-001 -3.3141767414820372e-001
      -1.1474324230137628e-001 8.2976226214863998e-003
      3.7279271853876500e-002 1.7612221839283149e-001
      -5.0678437376982161e-002 6.9077098897989166e-003
      1.5273239539836445e-001 -9.1937354322531029e-003
      2.1312117189112653e-001 -1.1927180752776445e-001
      -4.1961516834651290e-002 -3.9213711439915044e-001
      1.1352156948913866e-002 4.8361297524240887e-001
      -7.3410475400018743e-002 1.0353993008898581e-001
      1.7846101996650027e-001 5.2516507743090704e-002
      3.0878462176084115e-001 8.3342073943087989e-003
      1.5850239821268965e-002 -1.5165449091486463e-001
      -1.2142934419948798e-001 1.1600918568700613e-002
      -8.9786157966997071e-002 -4.4796963287190666e-001
      -5.7846511424153119e-002 2.7778653965586553e-001
      -1.0682183302513473e-001 -9.4764347308148214e-002
      -1.8131894290983230e-001 -3.1300069101259771e-002
      -1.7276465928390700e-001 3.0794642528058880e-001
      1.2223331473286475e-002 2.3167778100927125e-001
      -2.0169451662414442e-001 7.3819470124274056e-001
      1.4042658758640508e-001 -1.1375613656753010e-001
      1.6085138768692747e-001 9.4001633364365705e-002
      1.1190566498301231e+000 -2.2715629455149031e-002
      -2.0137755390708664e-001 -1.2404604956662268e-001
      -9.1023756436064890e-002 -2.6321909864345881e-003
      1.3444131510550583e-001 1.4137515190524486e-001
      -1.7520675402881079e-002 1.0859463964617162e-001
      1.6263457936544788e-002 -1.0067243370094145e-001
      -1.3487588466222999e-001 1.4747856463890854e-001
      -1.2561489235581341e-002 2.7569567812805196e-001
      -5.7067805771276979e-002 -1.3330000352732807e-001
      -4.5640725339370680e-001 -1.4908768531156619e-001
      -6.6049706267249764e-001 8.1496422472718999e-001
      -9.8490997085694740e-003 -3.3367359300803662e-001
      -5.4728205004403813e-002 1.2138179809395475e-001
      9.5428815828352484e-002 -9.4219340579984490e-002
      2.8861309731872314e-001 -5.3710284625810338e-002
      -1.0319394830556093e-001 1.1140466249506452e-001
      -8.9701207411702386e-002 -1.1817951516484442e+000
      -3.8667252594817264e-001 -2.5816031275130336e-001
      3.4765818070757269e-003 -2.5101891006689570e-001
      -1.5111785675762890e-001 -1.7950381380897149e-002
      1.7542378332450674e+000 -7.7668464679221810e-002
      -3.6372465092547723e-001 -1.9791600530740316e-001
      -7.6179012897211573e-002 -4.5612534086301254e-001
      -9.2920618586279688e-002 2.6595434140023783e-001
      -4.7295770654925427e-002 -2.7825107672061722e-001
      -1.2284861553865581e-001 2.7318177904157654e-002
      -2.0316533936687309e-002 2.3861731419906521e-001
      -2.3534127693403968e-002 -5.5869944236313818e-001
      9.5970663213402379e-004 -1.9923753932636687e-001
      -1.9563720637903479e+000 2.6782583346446565e-001
      -1.7377508727818325e-001 7.0998330068866766e-001
      5.4276708863895706e-001 1.9352327513213058e-001
      1.8736577563299517e-001 6.9694952325592176e-003
      2.6017161001049499e-001 5.4907618797232841e-002
      1.3266114201210402e-001 9.1658097928870946e-002
      1.1298373567968867e-002 7.8338012570255203e-002
      -2.1233912553781273e-001 -1.5497436925014922e+000
      -1.4251681189504978e-001 -2.4503108408907334e-001
      1.2614258577268170e-001 -1.5069573225435162e-001
      -6.6277661760753626e-001 -3.6260961676062825e-002
      5.1093836019780701e-002 -5.4381264102950311e-001
      9.6699071859945654e-002 -3.9061887265552292e-002
      -9.4964682798924421e-002 -1.7311491732147366e-001
      9.3517443329656766e-002 5.5236339020599368e-001
      4.8096742059637411e-002 -8.5853179075288541e-002
      -4.5500838701429278e-002 2.3442279369787569e-002
      5.5954143547758473e-001 -1.7088627085803765e-002
      -8.5290260180626062e-002 -1.1863134593138885e-001
      -1.9907706387288705e-002 8.1955692344524017e-002
      -4.8945024361088074e-001 5.6759404317010625e-002
      -5.9934815396763701e-002 7.0823581259251123e-001
      1.5730660409378389e-002 3.1733440156996730e-002
      5.5056079602267306e-002 1.1128661736622598e-001
      2.5802861857671605e-001 1.6999300895097344e-001
      1.3204057807070219e-001 2.3827524862902469e-001
      2.2713786386984613e-001 2.2339953758773967e-001
      -9.8341360618287410e-002 -1.3196019693176292e-001
      9.9087360476493594e-002 -1.1917313120696538e-002
      1.4606121633191560e-001 -1.5919110716421042e-001
      -3.6835901599849979e-001 1.6542501931588005e-001
      -2.7657438816472181e-002 8.7127256738681172e-002
      5.7043280692788201e-001 -2.5923893614380511e-001
      8.6858332694186788e-002 7.1480638131037454e-003
      -5.5350738054523840e-002 1.6053806522092784e-001
      4.9884951821724594e-001 -1.0326907675697397e-001
      -1.6416975239236178e-001 -6.7195639772158991e-002
      -1.8667846073337346e-001 -1.6262663868488753e-001
      1.5389402010448042e-001 -1.4703096156454192e-002
      -2.6657706784166332e-002 3.1661026714697574e-002
      -4.7784991184208835e-002 7.8273592019512964e-002
      3.7260629994660921e-001 3.1909551856325619e-001
      6.7600991370720398e-002 2.3140128009779926e-002
      -2.9968241803791082e-002 7.5694766785193490e-002
      6.4041916967522719e-002 -1.7271090066603989e-002
      -3.5489988071743014e-002 2.6644810329432209e-002
      1.2989877705975336e-001 -2.6986478603086689e-002
      7.8282359703472290e-002 1.2709818868424416e-001
      1.4168913352661588e-001 1.1614484125793409e+000
      4.1544809937502196e-002 -6.8801761274681170e-002
      -2.2282392579125315e-001 1.4060024772196666e-001
      -1.1048564874660174e+000 -9.6573143284587992e-002
      1.3915565987825618e-001 -3.3831571027212259e-001
      4.2291212620014623e-001 -4.7347784475717421e-002
      -1.1803721115419427e-001 -1.7020741541055659e-001
      -2.7883860306467151e-001 -5.7493336747691831e-002
      5.4622057581252383e-003 3.6187712895785401e-002
      -8.2419947256807041e-002 -1.3218107692370681e-001
      -1.5988214999982889e-001 9.9640332697973483e-002
      -2.5004910143047743e-001 -1.7539553963238258e-001
      -3.3936979460520947e-002 8.7766779466445927e-002
      8.8658182674402702e-002 9.7228392187181170e-002
      -6.4436594370911926e-002 2.6975972428666234e-001
      1.8527464574108096e-001 9.4910510981027693e-002
      1.3323693225604097e-001 1.5321429762424149e-001
      -1.9655015058869210e-001 1.2289410783964573e-001
      -2.4849755656662947e-002 -1.7188061891858170e-001
      9.2067525722933474e-002 9.9173920194387269e-002
      -5.1080606079789648e-001 -9.4114210970433831e-001
      -1.2690257251482240e-001 6.7821254129233688e-001
      3.7323561119521315e-001 8.1047148494153648e-002
      -1.8389737242436599e+000 7.2927218379681935e-001
      3.2750953236082175e-001 -3.3092436352434507e-001
      1.7849970888287003e+000 1.3236621523693134e-001
      9.6613028880783519e-002 -8.7303317628783544e-002
      -4.7185425959658939e-001 -6.6219100365965189e-001
      -1.7916227492925141e-001 -7.1714678014030600e-002
      5.5265054359772747e-002 -5.0360430708139703e-001
      3.6065260971759400e-001 -1.9447422442279688e-001
      4.2396907311676772e-002 5.3512832838991242e-001
      8.5493297632507431e-002 -4.4914544251177380e-001
      1.2746037153085010e-001 -3.0623020072712798e-001
      1.5538932158087648e-001 1.6157810968521038e+000
      -2.5094262622650071e-001 -4.0033523003122023e-001
      4.1620534881889532e-001 3.9217403287107633e-001
      -6.5179257780096977e-002 2.7104826279835081e-001
      -4.9538247792016071e-001 -1.0502615399661747e-001
      1.7952598544725251e-001 1.1645847603081709e+000
      -5.0255898884221284e-001 -1.0325124277162372e+000
      -1.3173134160864339e-001 6.7530372301377339e-001
      1.9902995215431310e-001 4.7708762189299997e-001
      -1.3636201388974962e+000 1.1021164797734890e+000
      3.1645855112996296e-001 -1.0352711060591953e+000
      1.6628106882017495e+000 5.6266748014547052e-001
      1.9238344163780419e-001 -9.0976363778693739e-002
      -4.7312132717186861e-001 -5.5679924474989406e-001
      -2.0489331626212992e-001 -6.9120625572789376e-002
      -7.7779423271350331e-002 4.7963124793114313e-002
      2.7723293270191368e-001 -1.7987704050634573e-001
      2.6627895109072403e-002 3.5193012179250199e-001
      -8.7287059176991075e-002 -3.2193881176932998e-001
      2.5303859877636709e-001 -2.8769835390594373e-001
      -2.4532523787936958e-001 9.2894939927414932e-001
      -3.6237752140630991e-001 -3.7319318446034788e-001
      4.1007353749170311e-001 3.5347081618707327e-001
      -4.5273127306573322e-004 -1.0900461979722084e-001
      -6.4646066518167178e-001 2.1478957559844532e-002
      2.1846162261582330e-001 -1.2487793492993243e-001
      -5.3216616864075372e-001 -1.1241820042675599e+000
      2.7688799418336540e-001 6.5646016508360339e-001
      2.6662028484674088e-001 -3.3055711567753748e-001
      -2.5414952121846179e-001 1.1446957488908256e+000
      -3.5120741623540092e-001 -1.0589833423803439e+000
      2.6026275204268623e-001 4.6921567768925854e-001
      8.1672632879978502e-002 -1.3521681805363991e-001
      8.2222438842609080e-001 -6.5462404451780831e-001
      -1.5673532090919789e-001 -3.0094613430833438e-002
      1.9432282495458905e-001 3.4108502123441842e-001
      -5.6503940490775416e-002 8.3861071079389393e-001
      4.4458579750498037e-002 5.2665833293596065e-001
      -4.9994301803874722e-002 3.2139374012140776e-003
      -5.5202830760996871e-002 6.9855469010351931e-002
      5.0970154039495552e-001 -3.6213289170549906e-001
      -2.7197690105538747e-001 -5.2463885452246450e-001
      2.2311453670430401e-001 4.2306881064250496e-001
      2.3494036353577780e-001 4.9729200174810712e-001
      -3.3272240713708645e-001 -2.1661838742258738e-001
      2.1128679216337701e-001 2.1569321958042266e-002
      -5.1617388754086579e-001 -7.3179433624132262e-001
      2.5887035316065893e-001 1.1587495447076301e+000
      -1.5537595960483222e-001 -5.2209716092067060e-001
      -1.2695703986665889e+000 1.1849763796397728e+000
      -2.0050475882831556e-001 -7.7717883977582403e-001
      1.5711038031163096e+000 3.5531305362726967e-001
      1.1555931148315138e-001 5.3092560384405496e-001
      -2.2459823310099650e-001 -6.4927530003398315e-001
      -1.7863974325308210e-001 -5.9221144648689605e-002
      1.3856718266367676e-001 2.5016001837179130e-001
      -2.2150637499045021e-002 -1.8443707325801700e-001
      -8.3878004259039116e-002 5.5026219142470356e-001
      6.9980407379553550e-002 -3.6626228606573530e-001
      4.6159375459418575e-002 5.1511502208324914e-002
      1.9973750695620249e-001 7.2023179213897592e-001
      -3.5532403804034068e-001 -4.3068980789414679e-001
      4.1399997010770589e-001 4.2482616710762761e-001
      -2.5621529864501835e-003 5.1598649878786329e-001
      -6.1102820239900775e-002 3.7071750183623453e-001
      2.2452612567527377e-001 -1.1051249775638318e-001
      2.4840415844760355e-001 2.2224856119124556e-001
      -7.6366097974492106e-002 -2.1559596107279055e-001
      -1.0291833557850759e-001 2.1196311657821632e-001
      5.7804864920554344e-001 1.6981839141054100e-001
      -5.7835355646364203e-002 1.3807982919712056e-001
      -1.7832748841077756e-001 -2.9515177995321423e-001
      -4.5477021153065851e-002 -2.5571001985408692e-001
      2.4241473094368976e-001 2.4928862811417926e-001
      -8.7107712419476929e-002 -3.5235813654417303e-001
      -1.0022471529105355e-001 -5.5475229356321237e-002
      1.9594185575027762e-001 -1.8313526274745626e-002
      8.2552936786112113e-002 8.5907560795957655e-002
      3.4696314725605804e-002 -1.6711136408584273e-001
      6.6027348036769698e-002 9.5721504947988464e-002
      -1.6404620945600992e-001 9.0904832236162081e-002
      -2.7225286171476591e-002 8.8021768327157857e-002
      -1.5102070047475510e-001 -2.8544811169733114e-001
      7.0168605086448330e-002 -6.4052366143648842e-002
      -3.5969336063517698e-001 -9.9717386056622850e-002
      3.1942084127799364e-001 3.6357806984803759e-002
      1.9758225918488306e-001 2.6905121806304383e-001
      3.9603123693965167e-002 -1.4420421991932705e-001
      -1.2727795828020350e-001 1.5967948771134255e-001
      1.4324698944547640e-001 -4.5862662835911651e-002
      -3.5306392778994854e-002 -5.2427449127477273e-002
      -2.4193953534846874e-001 -2.8827311455673094e-001
      -8.8980393711192610e-002 -1.2023132023450483e-001
      1.3765589569331649e-001 2.7173331366286757e-001
      -1.1846980985007030e-001 7.8935621782568119e-002
      -1.2467544091179698e-001 2.3642974196783365e-002
      1.6737111846127278e-001 -2.1024277410827097e-001
      1.5859798636305242e-001 -7.4976096328373223e-002
      1.1544373795333179e-001 -4.2347629228982650e-002
      2.4773672267043148e-001 3.4017944283162960e-001
      9.0382786454664008e-002 -8.5904923683387632e-002
      -1.3245872770971223e-001 8.5142825061299918e-003
      -8.6204908181192780e-002 -3.5879162946723048e-001
      7.1649607097231005e-002 -1.8272455907971299e-002
      -4.7974612753853585e-001 1.9775721254132361e-002
      2.6588635786841192e-001 -4.4883645811156558e-002
      2.4055998119478680e-001 2.0801475210821832e-001
      1.2274725000770428e-001 -8.4336944860860796e-002
      2.7707768742882367e-002 5.2298264077376574e-002
      8.3532848919776415e-002 2.6495799744714055e-001
      -4.2465443849920570e-002 7.4068154318456245e-002
      -1.2079791248216526e-001 -1.1920774401706150e-001
      -8.4140044204313230e-002 1.2008826365007465e-001
      4.9856198907515570e-001 2.7867822697998140e-001
      -1.8926683003079287e-002 1.9410904931821710e-001
      -1.5107892373076726e-001 -7.8331669779252239e-002
      -3.4314263674621939e-003 -1.4982189861066569e-001
      -2.9566567767806050e-002 3.7096878505012670e-001
      8.3317763196805172e-002 1.3461729737981229e-001
      -3.7576772127568922e-002 5.3055583242843152e-001
      -5.7381244445876181e-002 -8.9029988188267392e-002
      -1.2758982647391701e-001 -6.1418741237146371e-002
      1.8789560296804900e-002 -3.5139928319731845e-001
      6.0831753172095236e-002 5.0329694355837860e-002
      -6.4176337652208315e-002 1.6744008359504237e-002
      1.5691718604158938e-001 4.6019528736684678e-001
      -7.7952591319866607e-002 1.1267057875027958e-001
      -2.4438979834488203e-001 -5.2786881495900093e-002
      3.4875995842123653e-001 3.6674127415145509e-002
      4.5020081480561996e-002 -1.0788585919351527e-001
      7.9578734477918550e-002 1.2110504395741663e-001
      2.2954408297566287e-001 1.9395642309234923e-001
      1.1880115885172064e-003 -8.1212269973592842e-003
      1.2965708696107825e-001 -3.0594946207959311e-002
      -2.2257008677636056e-001 3.4206921499972737e-001
      -1.9619311576869503e-001 2.2657108577593382e-001
      7.5931098907502645e-002 -2.2581934506267076e-001
      -2.1045807326662554e-002 1.3791587304261690e-001
      -6.7654754627313518e-002 7.5955970172455825e-002
      -2.6406236691951711e-002 3.1096580841509924e-001
      -1.6114635792948248e-001 9.5411317172219151e-002
      -2.1059074298851563e-001 1.3309560568201925e-001
      -1.2267290017642137e-003 -7.6246544490937346e-002
      6.8392968002339932e-002 -1.2079052382037832e-001
      1.2903010315233193e-001 4.1287430242548426e-002
      1.7735662417101555e-001 5.6678522509159883e-002
      -8.4287853827511097e-002 2.8185370767004814e-001
      -1.6451883267076831e-001 -1.9812524725999398e-001
      1.6396259547053516e-001 3.5878988091753848e-002
      2.1906696619959698e-002 -2.6648085664713494e-001
      -4.8091892962841643e-001 -3.2020788403398427e-002
      -1.6490742966926208e-001 -1.5557333861523370e-001
      -1.8879946037765927e-001 -6.3368082557655470e-002
      -3.5722022645903051e-001 -5.3723534014820572e-002
      -1.7107507270394437e-001 -1.7242975817160423e-002
      -5.5392316087577179e-002 6.7707108152775516e-002
      -7.2033550630055385e-002 -2.6864339577484486e-001
      2.6005205795200721e-002 7.1654967695730376e-002
      1.3081961543449084e-002 4.3472655100865912e-002
      1.4473666086757969e-001 3.0862321937014942e-001
      -5.2575686070435834e-002 7.1045053306872830e-001
      7.0677768460489815e-002 9.6535525710172820e-002
      -2.0189818945770651e-002 1.3296876934350353e-002
      1.5494152081416684e-001 -1.5675550704412314e-001
      3.9166684493318349e-001 -6.8687306762739889e-002
      1.9006699519041689e-001 8.0135515740869889e-001
      -8.1436058501035396e-003 1.3633378625110126e-001
      -1.0123909556213581e-001 -3.2003616301960025e-002
      2.3052376663031190e-001 -7.0882580788913657e-002
      5.1102591592047046e-002 4.9533089499908915e-002
      4.1985929660257099e-001 -3.9652528199346546e-002
      -2.9589905647990439e-001 1.5220176720141343e-001
      -3.4457737365590840e-001 7.8238768849693927e-002
      -4.1206357932340726e-001 -2.9966054356148020e-001
      1.7862381700151730e-001 1.1989034714129609e-001
      1.5764006774237679e-001 -1.1151289330304184e-001
      5.4790638808942797e-002 -2.4821619554052779e-001
      -1.1901890981344547e-001 7.2944693888337242e-002
      -2.4064759410610695e-001 3.6504944249185954e-002
      2.1858506382049436e-001 -2.2358192530242571e-001
      1.8499488563474928e-001 7.4083503500177228e-001
      1.5316454861450379e-001 -1.7997662325088451e-001
      8.4380993536590190e-002 8.9130176441341136e-002
      7.5776288484519214e-002 -2.2627263662078520e-001
      7.8740620500867609e-001 8.0950390964125971e-002
      4.0167009492277633e-001 1.4140244124491730e-001
      3.1203418318211729e-001 9.3345852710079946e-002
      -1.5441513579004423e-001 1.7883384166684943e-001
      5.6434928226783954e-001 3.0517534506845134e-001
      3.7715143632827730e-001 -2.7737307401040173e-001
      1.1518044321736284e-001 -2.7330010083832784e-001
      -5.0909532185869377e-001 8.6649080077495888e-002
      -1.7264340834497999e-001 5.3961244628784322e-001
      -9.2064468955599554e-002 -1.8895799163384441e-001
      -1.1746511572237961e-001 -2.1467219358007636e-001
      2.7466309857500204e-001 7.5027707052096049e-002
      2.2731737184617867e-001 -2.3067462905166211e-001
      -9.6423656668218463e-002 -2.0593965438115391e-001
      -1.0711561178138698e-001 3.9554647401272236e-001
      1.3045193866255636e-001 -6.1084538612850951e-002
      1.6295918630726450e-001 2.6472202515720100e-001
      6.8807739354549508e-002 -1.2450929136541146e-001
      7.2595001763255507e-002 1.9890049951758146e-001
      -8.3077737507808155e-002 -1.9710243794284731e-002
      4.3296928678894708e-001 1.1833827784612842e-001
      8.5768148552087128e-002 4.7926036943509359e-002
      4.1752105162379416e-001 2.0765172267151316e-001
      -2.5709933748689279e-001 -3.0717511474325838e-002
      4.0346134175093015e-002 1.3140219749665547e-001
      1.4651515522346795e-002 -2.5827848059551528e-001
      -3.5636945689751959e-001 6.1410520284889185e-002
      -1.0213168612584558e-001 1.2657200666488899e-001
      -3.8676554896895317e-002 -1.3053210988589226e-001
      6.9863566640804431e-001 -3.1263380127176922e-002
      -1.3135998601105828e-001 -1.2631973370583074e-001
      3.1057852747116443e-001 1.8178316838552061e-001
      2.1999916176335016e-001 -2.3442270439462922e-002
      -5.4866082438771765e-002 -7.5393075788605213e-002
      1.0198321534641758e-001 2.7674180000056675e-001
      9.8968238000545675e-002 -3.7981457779221295e-002
      1.1426944720262298e-001 6.1096929445582031e-002
      6.1041267373171844e-002 2.3660662141869657e-001
      -2.9403236407348893e-002 5.8095947726938151e-002
      -3.4638566675264842e-001 1.1687858728034051e-001
      -3.9811920303304812e-002 1.9084169268272358e-001
      8.4642078200781887e-002 -8.9327909412336440e-002
      9.5861286309666116e-003 6.1543542057993050e-001
      7.6834400421067789e-002 2.6095554899936024e-001
      -2.2327792182777537e-001 -6.3086165269858219e-002
      1.4745704638911814e+000 2.3996824472192722e-003
      1.5808386852497447e-001 4.0987292469826553e-001
      2.5394008416855857e-001 1.7372491441577409e-001
      -2.0329369223879445e-001 -4.9386170844949499e-002
      1.7681537404747377e-001 3.5626694754336247e-002
      -7.1357696002060003e-002 -7.3621820907337182e-002
      3.6838393937156749e-001 -6.4735322956031849e-002
      -8.6805527162390449e-003 -8.5611171017412460e-002
      -2.0919616140219904e-001 -6.6797554736793358e-002
      6.7291615616274492e-001 6.1237780593606329e-002
      -5.4989668958760518e-001 -1.2139554448443600e-001
      1.2712466427230346e-001 3.3116835573164477e-001
      7.3920404957422650e-002 9.8428212782964902e-002
      -1.2002296330606152e-001 1.2095346566361495e-001
      4.7434434777743111e-002 -8.0433676437902640e-002
      -1.7298369766090235e-001 7.0201810692958819e-002
      -9.9848237897875960e-002 -2.5775727561009615e-001
      -8.0994588908597231e-002 2.4440740676214992e-001
      8.2174385643596679e-002 2.4454551470657721e-001
      -3.0242745651347347e-001 -5.5081766588203705e-002
      3.5239379586858682e-001 -4.4585106462964492e-003
      5.7855803325111803e-002 -2.0503991230851321e-001
      3.0299555913241644e-001 -1.1449990129230983e-001
      -1.1874893343555734e-001 -1.0674315766870210e-001
      -2.8664196150943486e-002 -4.8344607606179715e-002
      -4.3481488892110481e-002 1.3488117488587115e-001
      3.1641806062250694e-001 -2.1463514230661423e-001
      -1.9782736614347513e-002 -9.8135132888330479e-002
      2.9124971235614294e-001 1.1266440970910659e-001
      1.2839283132117340e-002 7.1251672946448463e-002
      4.4496793958265829e-001 1.8885938700297100e-001
      1.3631561154712524e-001 -3.6771908046349822e-001
      5.6231729215952569e-002 2.2042978384977435e-001
      -7.7667574721821966e-002 9.0736661029648807e-002
      5.4053755282650551e-002 -7.4845929755642318e-002
      -3.0715701420437158e-001 1.0911577629707504e-001
      -6.9096346144388643e-002 -4.6709531241373836e-001
      -6.5424185196284373e-002 -5.3827228776574865e-002
      1.2128772028047272e-001 2.9026157968044353e-001
      -1.7389140030461339e-001 -5.0319479755330014e-002
      5.4527063628811356e-001 -1.2760159142551444e-001
      -7.8696915334831950e-003 4.2057211831650376e-001
      1.7549768255111253e-001 8.4590787592024069e-002
      4.8460858457438763e-002 2.7977488218393204e-001
      3.8203432002059978e-001 -5.1647607581497383e-002
      4.5971887465816961e-003 -1.1824794699571140e-002
      6.8415506507775489e-002 -2.4617963110655689e-002
      -9.8232950155904886e-002 -1.3211162008465044e-001
      -1.2238573570517203e-001 5.8159845778901981e-004
      -1.4687438446604356e-001 1.2687632273136498e-001
      2.7156126021968291e-002 -7.2348951386202176e-002
      1.1256435584418591e-001 -1.8860615730320073e-003
      -9.5840847894527945e-002 1.6908306652415736e-001
      -2.4091709542792081e-002 -4.3454568357960383e-002
      3.7846686988583442e-002 -3.2987254987661009e-002
      -3.4464660719600243e-001 1.0211256604787787e-001
      -1.4874860184342348e-001 -1.1572758891349044e-001
      -4.1389446539197627e-002 2.6200693886511145e-001
      1.0855815689023381e-001 1.3658351432449664e-001
      1.5109961248150994e-002 -5.7142697499014274e-002
      -1.6259428861686151e-001 -2.3932069863732630e-001
      -6.5105735834630862e-002 9.0717230994746031e-002
      1.9223239749140425e-001 1.9080002550911099e-001
      7.4383202050012625e-003 1.0070785786654766e-002
      -1.4970423695852017e-002 -4.2767440018706804e-002
      3.7464767156865053e-001 2.8177882887882866e-001
      -5.0619198234380988e-003 -4.6588849905612767e-002
      -1.6519962921313683e-001 -5.6746406572800079e-001
      1.4828312890334047e-001 1.7693688006240729e-001
      4.0527489011632757e-002 1.0334587316543499e-001
      3.9246050869674441e-002 -2.2212552902244592e-002
      6.4290009310911889e-002 -6.7712778454156561e-002
      -4.3116100695269211e-001 -1.8174366111302254e-001
      1.9316845034709049e-001 -1.2145791695385623e-001
      1.1717998993447261e-001 -3.3780470997225309e-002
      -1.2192395394463804e-001 1.0617788871067206e-001
      -1.7626594076637275e-001 -7.9493984193452008e-002
      -1.3475853254144851e-001 -1.8354756790477354e-002
      2.0620779925980148e-001 1.4324357434836354e-001
      1.0231589961367020e-001 -2.3135672693312895e-001
      -9.7167488539338279e-002 -1.2791737078782214e-001
      5.0618203671361203e-002 -5.1242353452608545e-002
      -8.6060598649317130e-002 5.3297827843275469e-001
      -1.0673987582918954e-002 -3.9632320986290812e-002
      1.4655997210561164e-001 -1.0684329679945292e-001
      1.8257989344534409e-001 2.6249310724636411e-002
      -1.2178515487721472e-001 -1.8845859771632420e-001
      -1.9062702731656470e-001 -1.7626494458831667e-002
      2.0734711951633145e-001 1.2358224385084920e-001
      -2.5664687598568736e-001 4.3811313931234122e-002
      -6.1885721482699767e-002 5.8983248621640214e-002
      -8.3703280215418577e-002 1.4038105513810449e-002
      -1.5159186099082150e-001 -2.7605502586556030e-001
      1.7626698533994642e-001 6.8112346721148895e-002
      2.0673376826596762e-001 5.5539020776662765e-003
      1.0365017996955279e-001 9.8921750462216018e-002
      -1.1917067641865237e-001 -8.6767465705847910e-002
      -1.1871177502705310e-001 -1.2861262948211269e-001
      3.4882299861867538e-001 1.8365124071942393e-001
      2.1277656794154104e-001 -6.6954590251155563e-002
      -1.0021350914629383e-001 -9.6441856814493382e-002
      4.8307569766525990e-002 -2.4076754574876080e-002
      5.0620971322226926e-001 4.3488702906417681e-002
      -8.9526997583285278e-002 -4.4607233342666412e-002
      1.9712091773271739e-001 -3.4476270832763906e-001
      -1.2981073183679614e-002 2.0149207247132074e-002
      -1.3301092404074588e-001 -1.1837361337061374e-001
      -6.6580277933804236e-002 1.4836586633411450e-001
      -1.0444052903794356e-001 -2.2090112647919786e-003
      4.4890484719720930e-002 -1.1387886976505346e-001
      -1.2467529035621688e-001 2.2454937967267405e-001
      1.9492004459364519e-002 -6.4531306743529623e-002
      -6.0828722439858117e-002 -2.9893492382519676e-001
      1.9257697606141799e-001 6.8935360815914629e-002
      -6.7972488771573358e-002 3.8159688885116311e-002
      2.3469596862146769e-001 -9.7860515439660511e-002
      3.0087157231480061e-002 -4.3895009702470143e-002
      -1.3991519677686493e-001 -1.9980088145667893e-001
      7.6063941534510404e-002 2.3104177628656095e-001
      1.5823782045110257e-001 8.8101881579622177e-002
      -1.4918069643221621e-001 -4.9939289935714434e-002
      2.6550495488415504e-001 1.7426252497996786e-002
      2.5618592551744529e-001 7.3406507742093924e-002
      8.1018283780869838e-002 -7.6031626585429599e-002
      1.0023861447063541e-001 -6.2805528583107312e-002
      9.5756471094717143e-003 -6.2288888103462892e-002
      -1.2334456907923992e-001 -1.5238904726771454e-001
      -2.4262390482106336e-003 3.9044528755122737e-001
      -1.8464130571643270e-002 5.5735829484186920e-002
      -2.2661043891538321e-001 -6.7357186620420104e-002
      -5.5105192226009344e-003 2.6222023951533746e-001
      -1.2261796951333559e-001 -7.7831802062545877e-002
      -4.1529053506775639e-002 -1.4486568951550585e-001
      -5.7614971814090088e-002 7.4233932796855209e-002
      -1.3472625846360226e-001 3.1221768670725712e-002
      2.4679464949461122e-001 -5.0740050886647528e-002
      -1.2789546904698024e-001 -6.5005279448645037e-002
      -4.0115768747424563e-001 -4.0401374729664796e-001
      1.5878032812794037e-002 -8.9743929946963064e-002
      1.0050622044640846e-001 -1.9534236039774146e-002
      -3.9913311107647054e-001 1.5059673322781436e-001
      2.7911133940531890e-001 -2.4258606558783444e-001
      -1.0072449845894084e-001 -3.9780438487665654e-001
      1.0639380487220926e-001 -4.9638545276216493e-002
      -3.6274447977964822e-002 -6.9679465448980835e-002
      3.0876597519999575e-004 -6.1489161311148885e-002
      -5.5000655017367730e-003 -1.8545101195933572e-001
      1.3693898876459579e-001 2.1843434896159158e-001
      -1.0918168869832064e-001 -3.2936189718218079e-001
      -2.1044169581997818e-001 1.1952351187200519e-001
      -6.8936314004533122e-002 7.4317149708492347e-002
      6.9668711762683147e-002 -1.5998576269679824e-002
      2.3640764039706366e-001 6.8062668929401299e-002
      -4.9947543856104934e-002 -1.1736431286774641e-001
      -9.6183418233335094e-002 4.2379640875023816e-001
      1.0371920428897405e-001 -2.4334344400309897e-002
      -1.2142168982207663e-001 -2.7058136864606099e-002
      -5.8372983623802432e-001 -1.7992445951876943e-001
      5.0903195275384200e-002 -4.8327368496239656e-002
      2.2465228231629450e-001 -5.0586878936114493e-002
      -2.9397445660094540e-001 -1.1503127076561501e-001
      1.0725946781084311e-001 1.3201550676470289e-002
      -8.9587498127036203e-002 1.7587916572931298e-002
      -1.3924841987517159e-001 2.6332335930455136e-001
      -7.3371074961691096e-002 8.4034502974983105e-002
      -2.6199360803262954e-002 -3.0174415955020299e-002
      -1.5657679763366297e-001 3.6755065681794756e-002
      7.3495398761496702e-002 1.5786035555992003e-001
      -3.4515408861671662e-002 4.6082061104947655e-002
      -3.0118767531363960e-001 5.8827283166785406e-002
      -3.7742992261364211e-002 1.0153197408811333e-002
      5.6166890950624368e-002 -8.7457632245339020e-002
      -5.2312620967205029e-002 -8.6246470126864871e-002
      3.1618745276664884e-001 -6.2003176697553279e-002
      -2.6089821590410972e-001 7.0974024340713260e-002
      1.0692107467050155e-001 2.0557682695103621e-001
      -1.8011612495782472e-001 -4.1964542558939361e-001
      -1.3763706779591628e-001 1.3189957805614988e-001
      4.2603326972818226e-002 3.4070654633697045e-001
      7.3370332550352380e-001 -1.3830548410633131e-001
      1.3796096693439206e-002 -1.3523312731738185e-001
      1.8938519200356295e-002 2.3934432913404287e-003
      -1.7913584282129769e-001 2.9962344828632520e-001
      -8.6265182805975935e-002 9.9582830023935046e-002
      -7.0734935555175224e-002 6.9157312718875749e-002
      -1.0594668359569005e-002 -1.3472529657561363e-001
      -8.3140919391799045e-002 -1.0775401557107420e-001
      1.0871301546742146e-001 2.9894812813474991e-001
      -2.8629861031993581e-001 7.4027121209134919e-002
      3.4828323986355554e-002 3.3674021769826180e-002
      -1.3779130681337401e-001 6.6040559122924405e-002
      1.0454400154269619e-001 -9.6817736089528136e-002
      -4.1891142488072068e-002 -4.4074348781607119e-002
      4.2645981351415946e-001 -3.9572510891288278e-002
      -2.3401795689652222e-001 2.5132933966023976e-002
      6.4519393135537700e-002 2.0211215228332813e-001
      -1.4825297996852854e-001 2.8424793932579190e-001
      -9.6932643075525529e-002 -1.5482039539013301e-001
      2.4294942094545954e-001 2.7326227363472871e-001
      2.6836022496024908e-001 -4.3621479233304263e-002
      -3.1946746033840699e-002 -2.4052907226019556e-002
      -2.6134153567194607e-001 -6.4040884364116493e-002
      8.1117104542243468e-002 2.6353840155595126e-001
      -8.3240640782145062e-002 -1.1478136201441680e-001
      -2.7658802430695243e-002 -1.7644468976840738e-001
      -1.9047923651209237e-005 -1.7614249152104233e-001
      -4.0613465356443550e-002 -8.6862272906821469e-002
      9.3030481365838177e-002 -5.7459103911788288e-002
      -1.4178518934238529e-001 -1.1750437037821310e-001
      -6.2661004157246958e-002 -8.0122331546578399e-002
      -1.8190236833633466e-002 6.4530918036787829e-002
      1.3851748336287636e-001 -1.7969684989562132e-001
      -7.1228203381960467e-002 1.1821860091290835e-001
      1.1913711207564798e-001 -4.1498075397370583e-002
      -8.2439675484475838e-002 6.9887473124051816e-002
      3.8370376178049437e-001 3.6099168573542534e-001
      -5.3946737154366452e-002 5.6949812077770989e-001
      -1.2457322693326947e-001 1.7876551494706511e-001
      4.4589358294144142e-002 -3.8309899513254267e-002
      3.3310136260236345e-001 -1.6462481368930740e-001
      1.7162695678711960e-002 8.0761130140729595e-002
      -1.2146958003041000e-001 -1.6752426990837403e-002
      -2.1727225616256929e-001 6.9359228608432610e-001
      -2.4864452828982880e-001 -1.2826825485848353e-001
      9.0228716293082198e-002 -7.9121194976246201e-002
      -1.8686652243844692e-002 3.3464994341952541e-002
      -5.9550335970862282e-002 -1.6745780744860667e-001
      7.8748171216930896e-002 2.8138643809229358e-001
      -3.3106754031162233e-001 6.8545380905402520e-002
      3.2753089591461948e-002 -2.6920723204591296e-001
      -9.3340469695299536e-002 2.2393196822180800e-001
      8.2859898598586737e-002 -1.8558232773411340e-001
      -5.1143047664489856e-002 5.0897338393783312e-002
      -1.5575655091225113e-001 -1.6016956192136254e-002
      -2.3191595246808614e-002 1.0509395259026419e-001
      1.0721160523055785e-001 1.4848433439827502e-001
      1.2928655671037393e-002 -9.8643840750088779e-002
      -8.8850840884677637e-002 -1.0385834596976846e-001
      -7.7373054523385734e-002 -7.7783412709988939e-002
      3.4860542904998647e-002 2.6976082197904892e-002
      -1.9430492481249822e-002 -1.5216407541066663e-004
      -3.6566887753030582e-002 4.2114793107636750e-001
      -3.9062117094563081e-001 7.9635294618963390e-002
      5.4843946966893334e-002 1.5701691012228922e-001
      4.8585157436296468e-002 7.1058123576630147e-002
      -7.9854305430697103e-002 -1.7014475515511740e-001
      5.1325050641194830e-002 1.5191190453853456e-001
      5.6979187982030936e-002 1.7345124043650112e-001
      1.1039564767350524e-001 5.3351699052247101e-003
      -4.8297067348614692e-002 -4.3517502837514210e-002
      -1.8525415586204499e-001 2.5501692267132969e-001
      -1.0411252242081478e-001 -3.3439022765108205e-003
      -6.6396356751323498e-003 1.2642546692357867e-001
      -6.8205792455303324e-002 6.5451133773719777e-002
      -3.6852842337245645e-002 6.0879874697008549e-002
      1.3229793723786010e-001 -2.8465769400682003e-003
      -8.0961011646476649e-002 4.8960628416093721e-002
      1.7959149421407830e-001 2.7430025688037823e-001
      5.0518572567430142e-002 -1.8248696147532415e-002
      -3.2893904517837147e-001 7.4156772535843385e-001
      -5.3051712478909174e-001 -1.1473210432530592e-001
      -2.8969805030423618e-001 -4.2546271868418650e-001
      9.8835427793351208e-002 2.7805185588619580e-001
      -3.9664794988905704e-002 -8.9971260255643587e-002
      1.7963437543281924e-001 6.2133418595650680e-001
      -6.2747456429346107e-002 -9.8136559121501321e-002
      2.5772118320433416e-002 2.5775854347182975e-001
      1.0026167804058455e+000 1.0520875434147732e-001
      5.2793869057131249e-001 5.0604828873353225e-001
      5.2366613388400507e-001 -3.9167106584332194e-002
      -7.7317980804612066e-002 6.4012937096588285e-001
      1.6070074429570497e-001 -1.0691509329918639e-001
      1.9774209688595282e-001 6.8059547210746557e-002
      -4.5885699388870160e-002 1.0203089284570720e-001
      2.3268846670276999e-001 9.2112711571940398e-002
      -5.8435298117805907e-003 2.1145017662833923e-001
      2.2543102774577720e-001 1.0916421004905932e+000
      5.7702933042810645e-001 5.2968465799005071e-001
      -1.2651002575600431e-001 -1.3290588075981261e-001
      1.0004918388012293e-001 3.3155009266004593e-001
      -2.5225585733850664e-001 1.8614731903875364e-001
      3.4328944736006833e-001 -3.4988635454728662e-001
      6.0647082028885746e-002 -1.1061591442378056e-001
      1.8071464642930924e-003 -2.9101366380830512e-001
      1.3469611867093176e-001 8.3855854865208113e-001
      1.6903937979850414e-001 -4.7565289309878467e-002
      5.6030647592441828e-002 -1.4638268098847956e-001
      8.2799048186868984e-001 -3.8531871175934684e-001
      1.6620236173068850e-001 1.9651523840063598e-001
      1.3343270458844250e-001 -2.8735804787814512e-001
      -7.2243168727386314e-002 -4.6653738799565136e-002
      3.4624455662853784e-002 9.1737712201544364e-001
      -3.4227839214854067e-001 1.0598292031927120e-001
      -2.2867209899914084e-001 9.5675646734207448e-002
      9.9494868588326080e-001 2.3401394344636395e-001
      1.7947190096326737e-001 -9.8348726408766018e-002
      -7.7283396539524332e-002 6.5845101907292036e-002
      2.2155130683386029e-001 7.7768323694258831e-002
      -2.7856998714863523e-002 -3.9372112261346598e-001
      -1.1739669308837405e-001 8.8699292349425293e-002
      2.0755932908455788e-002 6.5055143127220516e-001
      -3.3158353412565034e-001 -3.7393880549434533e-001
      -1.6014243217667665e-001 -2.2445611482366765e-001
      -7.0357656149796138e-002 -5.3062366341495137e-001
      3.9228240190136532e-001 5.1508173991766548e-001
      -1.9398105540803906e-001 -2.3903217462174525e-002
      -2.7121906876729124e-001 -1.1862992613181682e-001
      8.1938700083223592e-001 -5.1822171735822509e-001
      4.8665944989093643e-002 1.3944366056458646e-001
      1.5787540840369046e-001 1.8553675545990578e-001
      7.4594402454303738e-002 1.3463644080787313e-001
      4.8482694796787507e-001 1.0422907078634151e-001
      -1.5764359333816969e-001 4.1290619358150694e-003
      5.7406240096822068e-002 1.2972588436517635e-001
      1.3122926929228246e-001 -5.3415732805057836e-001
      1.6018264905358140e-001 -1.9959467260443512e-002
      -9.1280981410446896e-002 -1.0541022385533247e-001
      1.4348156102715959e-001 -1.8408751869251852e-001
      8.1456950979977225e-003 -6.5730652663750042e-002
      -1.9903432317908859e-001 -5.4754861405084017e-002
      8.5468803947228256e-001 4.3783604265147413e-001
      2.6842495886314658e-002 -1.1054903239450919e-001
      1.4189639305289198e-001 -1.7595224783419527e-001
      -7.4714370641050920e-001 2.6281362504893996e-001
      1.6707725611488169e-001 -1.0782169901972741e-001
      -1.0519436306171090e-001 1.5519668126153988e-001
      -2.7822989619379151e-001 2.5121378045459181e-001
      1.1923086482092982e-001 3.1889358447025185e-001
      1.0203659864828369e+000 -2.4840670537940773e-001
      -5.6160265931098137e-002 8.6749972225520344e-001
      2.9558035845803726e-001 1.0665050175279023e+000
      -9.1306406257361944e-002 -1.0363859469327772e+000
      -6.3471042481127393e-002 8.9580592203362883e-002
      -6.4508782427508699e-003 -1.2032368778534543e-001
      -6.2420110349977886e-001 1.1054155800127392e+000
      -2.5662396828687745e-001 7.5457271939621118e-001
      1.0825153843110491e+000 3.6285535829288729e-001
      2.1021915023248805e-001 9.0649655698473580e-002
      4.7962319716070917e-001 -9.2662293720615463e-002
      -3.5955388550683737e-001 -4.2754159487718012e-002
      1.4516396556276319e+000 9.4464001053075146e-004
      1.2634513719750248e-001 5.5880135064287663e-002
      -4.8355407952442156e-002 -3.0481583068536233e-001
      -7.5708612945646181e-001 2.3873781546364711e-002
      -4.4880809044646508e-001 -1.7954012530437136e-001
      -1.0601858884616178e-001 2.1017986650079176e-001
      -6.7888481412893320e-001 -4.5319298579146727e-001
      6.9924164577244916e-002 1.1551350552657888e-001
      2.3820900753766622e-001 -1.3809403651187627e-001
      -9.4995936638132314e-002 -1.4259190200653643e-001
      1.3260150517395394e-001 1.7586057475963091e-001
      7.2943127046452935e-002 -4.8158261131772087e-002
      -3.9082856649535624e-001 -1.2188671190037675e-001
      -1.8870973543250073e-002 -2.6571343143103332e-001
      -6.8484508650195997e-001 5.1906100561007329e-001
      -3.2871223415793493e-001 -7.4380420399356120e-002
      6.0755515586310116e-001 2.5798758197324584e-001
      -7.1026824884339756e-002 -2.3691550144291373e-001
      -1.9309180729067857e-001 -1.3508944668613679e-001
      -4.3747997690095175e-001 -5.4528559196112833e-003
      1.3599597576877212e-001 3.6666418923323696e-001
      -2.0412012411356822e-001 2.2926967951165669e-001
      -3.6253652990198955e-002 4.7263034031879209e-001
      2.4585618158903069e-001 2.0422739643388460e-001
      1.4504338795594487e-001 3.5326157643885869e-001
      -1.4150537392271081e-001 -6.9874398107227742e-001
      -8.7238909205867188e-002 1.1718631878429665e-001
      -3.2952401611225629e-001 2.5916368576391879e-001
      3.5703251531081187e-001 4.2914713801846062e-002
      3.6807689575532987e-001 -2.4556942133998055e-001
      -1.1213948315366085e-001 -5.7701147543041764e-001
      -1.9532589302910158e-001 6.5692714138931602e-002
      -6.3490972895981934e-002 9.2320015988219636e-002
      2.3223643362318944e-002 -5.2430976819635389e-001
      -1.8554697802122883e-001 -3.3304352177429997e-001
      5.3193191182255417e-001 3.2394648472553030e-002
      -3.0435393364760160e-001 -3.1996962642381188e-001
      4.2708963808849372e-002 -1.3446240146467839e-001
      -9.8249963134773036e-002 -2.4657668853321900e-002
      7.3089270066315937e-002 2.3786840230715939e-001
      -5.2872927399181235e-001 1.6848655147148178e-001
      -5.6804575552717274e-001 -3.0923331733180008e-002
      1.2414271987300284e-001 5.5375177117011218e-002
      1.6215122444749780e-001 -2.4063367012735937e-001
      3.9188120596748310e-002 1.5379795794054987e-001
      1.1009856153576976e-001 -1.7114781327851450e-001
      1.6010360574170526e-001 3.1257183841470963e-002
      3.3185042198332182e-002 8.5216355161602519e-001
      -1.4012031778964207e-001 2.6618324068495741e-001
      1.9728754334281273e-001 5.4634921507300663e-002
      -8.6455611244255048e-002 -6.7298556343036109e-001
      -2.7238440535791142e-001 7.5383997175382889e-001
      8.2758150980660229e-003 1.1772036439811760e-001
      -2.1865020095616999e-001 -5.9295082523881204e-001
      1.2849292644989016e-001 -8.9021970349345239e-002
      4.9993277465763791e-002 -1.1935328555276696e-001
      -3.3381389855423399e-001 -6.4413618378595244e-002
      -5.6492544719220961e-001 1.6114392422352891e-001
      -3.0610357364078805e-001 6.4693803845889486e-001
      -2.0503227308040928e-002 6.8990560228939513e-001
      1.9922656283325534e+001 1.4718933438851567e-001
      -1.8246018389844023e+000 3.2646954923327520e+000
      -6.5514869280375194e+000 -4.3897599533187115e-002
      4.9833558728472421e-002 8.1437614771268219e-001
      2.4590321230594678e-001 -8.7328750144327261e-001
      -3.4476388350429160e-001 7.5638468184863500e-002
      2.0521052592052580e-001 6.7574257935309923e-001
      3.7266571034433837e-001 5.1145417701402518e-001
      -9.2758356530539776e-001 6.4583607317629688e-001
      1.4747480747435586e+000 -3.3573485445973494e-001
      -8.4970594499276464e-002 7.5038589306532633e-001
      -6.5517490226444697e-001 -8.6363373460716220e-001
      -1.7745628197271007e-001 -1.8479997058588693e-001
      8.7090360356481022e-001 1.4172925687863827e-001
      1.1575782974699145e-001 1.1411318716687573e-001
      4.6432645041112314e-001 -1.5466611170828454e-001
      8.7576088541434505e-002 -1.4553245846885907e+000
      -5.5380295436862370e-001 8.0581775971758168e-002
      5.0110678910148321e-001 7.3736453652355427e-001
      -2.7596688190641117e-001 -1.2503676121095184e-001
      3.2028992381453483e+000 -6.8566652867021585e-002
      -1.7127298566766309e+000 2.6679240704370426e+000
      -6.1197508548247459e+000 9.9673296476915552e-001
      1.1266396278844806e-001 1.5373665282704967e+000
      6.5992638466010478e-001 -7.6594843891257269e-001
      -1.6111283909389384e-001 3.4608784987758504e-002
      2.9957720204783095e-001 6.9053728099242917e-001
      -2.3401268550728241e-001 -7.5594150977630475e-002
      -9.1532230150732485e-001 5.0863861489625617e-001
      2.2471641717213245e-001 -3.7711446696020424e-002
      -4.9135465727628128e-002 2.8882447350239038e-001
      -1.5365238185993343e-001 -1.8906942894763479e+000
      1.4775541492940702e-002 -2.0143937367662237e-001
      5.4916393542857667e-001 1.3440149679684488e-001
      1.6308108160482720e-001 3.9696564371122789e-001
      6.8737385731632861e-001 -3.6044078940334356e-001
      2.6895556965064382e-001 -1.4298891631875419e+000
      2.1483133682719840e-002 -1.0373909823322951e-001
      5.7178677321508220e-002 -1.5666357628448069e-001
      -4.6244602799793449e-002 -1.5961018325884763e-001
      1.5788001188114309e-001 3.2287796832830541e-002
      1.2923281986688007e-001 1.0041180131818195e-001
      -1.6916779547644237e-001 4.5661679095603452e-002
      -3.4885854497327048e-002 5.7403077769155271e-002
      9.1454519793684828e-003 2.4304514496599317e-002
      5.5288469723059647e-002 -6.8544715481606150e-004
      -1.8294816885701913e-002 2.2587175888679906e-001
      -3.5354495033368009e-002 -1.3229076240323698e-001
      9.7083028793719280e-003 -5.4645202272119879e-002
      2.0776301569631207e-002 1.9292677063368312e-002
      -3.7076354436858805e-002 3.1232895095554020e-002
      -1.6611801380126495e-002 -5.5136566513664137e-002
      3.3282424403189625e-002 1.3031503993070878e-001
      -6.2229702618245113e-003 3.4466030575195136e-002
      -1.4900986235780345e-001 3.9633281720987873e-002
      8.5700253070257096e-002 -2.6802628680264212e-001
      -7.7619488833662431e-002 -1.7852411506131605e-001
      -2.4396614733649413e-001 -1.7803783548284952e-002
      -4.5213600726079717e-001 2.9775156421755395e-002
      -9.2134281035618562e-002 5.9559125739731844e-001
      -5.2177261084001680e-001 1.1965220231384115e-001
      7.8958261669540453e-002 -1.8016627307925256e-001
      3.9357875981068663e-001 -4.1700405411357150e-001
      -6.3712537133385885e-002 1.9158266462516296e-001
      8.6361495906577046e-002 1.5208357196627924e+000
      -2.3682772291582357e-001 7.9616725930315713e-003
      5.2306462270174971e-002 -2.2916525420465741e-001
      -1.3418804612277546e-001 -9.4404369365316565e-001
      -5.0254567410983358e-002 5.8847905951452317e-001
      5.3971957177239438e-001 2.0819503194184680e-001
      -6.7484634215651054e-002 2.9834805113226665e-001
      -3.9313623010125254e-002 -3.1123133407685549e-001
      -1.5685542947821191e-001 5.4986900585787024e-001
      1.9362040023848878e-001 6.3716357001516469e-002
      1.6937877721274305e-001 -1.4772578012741089e-001
      -2.4196464046442549e-002 -8.5138041319271135e-002
      1.5339064900354893e-001 7.8807173688575938e-001
      7.1162007241021815e-003 1.4762229105449853e-001
      1.0635294872788731e-001 -3.2213210292297476e-003
      1.1543436028800355e-001 -6.8886799261225110e-002
      -3.4650141810903090e-001 7.5427920299630621e-002
      -5.3260766435850905e-002 -7.5884199423735268e-002
      -9.3221277377889003e-002 -1.5160127126567020e-002
      1.6912717437094502e-001 -5.5466125479976203e-001
      2.5001090106282869e-001 1.9909566325945396e-001
      2.9784609785430006e-002 2.9918175750643783e-001
      -1.1207692695965824e-001 5.3617077066787611e-001
      6.3492684830911111e-002 1.0352124265997313e-001
      -3.1746302392593068e-001 9.0433231416344462e-002
      1.8212971623488061e-001 4.1806856072169718e-002
      -6.1555529837092268e-002 -8.5014794435746374e-002
      4.1235915400825059e-002 2.9216710540236646e-001
      5.6759094618582043e-002 1.8942115777613641e-001
      9.3550147881382453e-002 3.4424198616436572e-002
      -4.6693374670803069e-002 -8.7273471339194908e-001
      1.5874800230207103e-001 -5.2050033468229430e-002
      8.3104808350700304e-002 -1.0663364389787228e-001
      -1.1704710211887105e-001 -1.7573636962374142e-001
      -8.6043925312423719e-001 -1.4862865813949019e-001
      -8.1747769776556622e-002 -5.9379311948379011e-002
      6.1459228887857531e-001 1.1881519060221342e-001
      -8.4051279318931804e-002 1.4532137573645176e-001
      -5.6214387649517077e-002 1.5270998308340963e-001
      -5.8786448355752439e-002 2.9864946490806571e-001
      5.2156445692853715e-001 3.8306955396915188e-001
      -6.4353563065649988e-002 1.9009588420354348e-001
      -1.5167262460188816e-001 5.7961672072579559e-002
      4.2741595307389552e-002 -5.9095789531467526e-002
      -2.0861695583456738e-001 1.6961766501180123e-001
      -8.3100790237787089e-002 1.0218586587168323e-001
      -8.5732089034852785e-002 3.9079174492489593e-001
      -1.2292585869226139e-001 7.7325558616984882e-002
      1.1363753227832880e-002 1.1977103187694441e-001
      -1.0418638949327038e-002 1.1757057208811022e-002
      -1.1164156369564383e-001 -3.4132037990968528e-001
      5.8087925255677478e-002 -6.3094117057856980e-001
      -4.3366518924431963e-001 -3.9044479106936973e-002
      1.2530956268822471e-001 -4.1364730983593589e-001
      5.3898368731627411e-001 2.1724881492164222e-001
      -1.3429330971864786e-001 -3.1489077815390859e-001
      8.1535074770703514e-002 1.0045093801084541e+000
      5.7380724368125713e-001 1.3168309795277691e+000
      2.0149199071019042e-001 -7.4578593094761247e-001
      -1.1729031458172416e-001 2.0702391307175532e-002
      4.4594216817144426e-003 -4.6893059824658945e-001
      8.8184029964571906e-002 -5.7636823667614046e-001
      -7.3219399546668590e-002 -5.2038528940388629e-001
      5.9961298592844559e-001 4.2040627893741322e-001
      -2.6222675809637147e-001 -2.4514677652165187e-001
      3.0605562008079518e-001 -1.3013659820116317e-002
      6.0211894485823335e-002 -1.5162575050488528e-001
      6.0850745410369694e-002 -1.2546979884646617e-001
      -5.3487634768156302e-002 -5.2667046540091147e-002
      -5.5428312868126139e-001 -5.2922219061739240e-001
      -3.2444793552513840e-001 4.1050020818280533e-002
      -2.7348957739783625e-001 9.0643163047099240e-002
      -5.7602555421934232e-001 1.1258550263172944e+000
      2.0655758296054610e-001 1.4591163844583827e-001
      7.8752665848984960e-001 2.4820666207278139e-001
      -4.8675772986712840e-001 5.7531947644061476e-001
      3.8388593152542748e-002 -3.9461045082906593e-001
      -7.6902157899622250e-002 2.3664794046776030e-002
      -3.2650376692015010e-002 -9.2007346735954371e-002
      -5.7130913120207037e-002 -7.3345267668503233e-001
      -7.4175256294441980e-002 9.6750217832462557e-002
      -5.4440816435873240e-001 -6.5759546175225003e-002
      -3.5817690483548562e-002 -8.3797975812163727e-001
      1.6180974180810834e-001 2.4996042891247284e-002
      -2.3724711921812036e-001 -2.0815694938421925e-001
      2.9105202685934851e-002 6.2862837287974392e-003
      -2.7818955288673436e-001 2.8563869108388262e-001
      1.9761004539576354e-001 -1.5603476583319123e-001
      -9.6256878830722523e-002 1.2602750923203695e-001
      -9.7156258060185241e-002 -3.6371692748631090e-001
      1.7238363648626059e-001 4.7889929411813698e-001
      1.5407152076449522e-002 -3.9334881261926469e-002
      3.2308027911914611e-001 -9.3140558377730179e-002
      -1.1348231464077077e-001 -2.8007303256512617e-001
      -2.3673106335082728e-001 -1.9830142538129336e-001
      -5.6763311416449080e-002 -1.4294185975525436e-001
      8.9278841402227208e-002 -1.0011261726230747e-001
      -1.8257715498327501e-001 -4.0366021164950172e-001
      2.1857405966775278e-002 1.4892739937478652e-001
      -3.4150812974741163e-001 7.0868670696646513e-002
      -6.0115648473095218e-001 9.4209936733794919e-001
      -2.4949582111530627e-001 4.3298083296188478e-001
      -1.2357217830265629e-001 5.7645420689204396e-001
      -4.8477013737045932e-001 -1.1444374071271042e+000
      7.6322762978839456e-002 5.0597110182417852e-002
      -2.0895189237759895e-001 -1.8707876371661425e-001
      -2.9926600048086915e-001 8.3642744118786916e-001
      -1.8465072706682936e-001 1.7857963478016417e-001
      -2.1296335569682531e-001 1.0564672688017809e-001
      2.2355520734990499e-002 1.6970037268188506e-001
      1.7131042328758059e-001 5.7317236483526664e-002
      3.2193166846206439e-001 2.4952079104752109e-001
      3.1340783781490189e-001 -1.0815864113751189e-001
      -7.4095611857670080e-002 -1.0282692047558974e-001
      -6.8737530823835630e-002 -2.0347518318406604e-001
      2.2666787152109910e-001 2.0017574275230235e-001
      -4.8062161541111659e-001 -6.3157807679334058e-002
      -2.8884503530799016e-001 -3.1710971767780632e-001
      -3.7942140120193334e-002 1.1554742545021184e-001
      -3.4400057709964332e-001 -5.3939947486614293e-001
      -3.5441837352901845e-001 3.5910665590055468e-001
      1.1328184074137203e-001 3.6488232046968605e-001
      -6.0153289064334731e-002 2.6919328665436565e-001
      -1.7328439001702048e-001 4.3129143216460469e-002
      1.1752260431755743e-001 2.1721505625081414e-001
      5.3425948903984921e-001 8.0053788273023646e-002
      1.9217401430732367e-001 1.1726111715030235e-001
      1.1781741475029067e-003 7.3809227295811630e-001
      -2.2623520381924825e-001 7.9181075392258757e-002
      1.1154778461371206e-001 4.9959279206382032e-002
      2.7519345863455968e-001 -4.3224861594116447e-002
      -1.6291620603797191e-001 1.2537419732056226e-001
      1.9266251501511150e-001 3.7169977155988371e-001
      -5.6061520696907818e-001 4.9792732568789139e-001
      4.4764472034244512e-001 4.4596427910008996e-001
      -6.7812146226716968e-002 -1.9924725876635514e+000
      3.0219206155275891e+000 2.5345046992254466e-002
      -1.7859261737695098e+000 3.5700197885274703e+000
      -5.5289839707759088e+000 4.5130846298675982e-002
      -8.1681953788519165e-003 8.4063816016280368e-001
      6.7808419874449499e-001 -7.8370816233805696e-001
      -2.8020273411352203e-001 5.0424940543903007e-002
      6.0477406997677952e-002 6.8648986426965752e-001
      7.2911077338285279e-002 4.5592090851286649e-001
      -9.3882612196805082e-001 5.3290687869529874e-001
      9.4786848740969165e-001 -3.1463719340145864e-003
      2.2492370569017896e-002 4.1014497476870604e-001
      1.9350325263956009e-001 -4.0220603552429504e+000
      5.4526052106751120e-002 -6.9492705091620796e-002
      1.0578406750936415e+000 8.6391434143499868e-002
      2.1091485224861539e-001 8.8686498179163048e-002
      2.2490665331396156e+000 -6.4558051266420502e-001
      1.0891012399193810e-001 -2.3051483126574337e+000
      -5.2957046635777716e-001 -7.2924576627910509e-001
      -7.7706361901710774e-001 8.7971870558283738e-001
      3.6159868141359838e-002 -4.7046526752165369e-001
      1.6225748836389056e+000 2.2656355067193490e-002
      -6.1225008832238759e-001 2.9265341713987714e+000
      -3.0485031771043807e+000 5.4935588794306334e-001
      8.5040861640958990e-002 6.4851532596230399e-001
      3.8376866642144658e-001 -7.6771247621081429e-001
      -6.5632141335315849e-002 1.2159756840178716e-002
      3.3061588363787636e-001 6.7348514596014630e-001
      -8.2393520094824868e-002 6.3639029498297894e-001
      3.1578026675304585e-002 5.1251099260928201e-001
      7.4295692484111706e-002 -3.9776691455352092e-002
      4.5417411937216448e-002 7.2336288104936630e-001
      -9.1765854833125077e-002 -2.2162044767087835e-001
      1.8164279886204835e-003 -5.1936365463294465e-001
      4.4821110608188314e-001 -5.7707999848910431e-002
      9.9179656165853017e-002 4.9418883264708607e-001
      2.7263843038357771e-001 2.6631178042863091e-001
      8.5456141874306515e-002 -3.1785488485446778e-001
      -4.6803452028763196e-002 3.6270056995957492e-002
      4.8406231794377347e-001 -1.0242204566990382e-001
      1.3756488822475393e-001 9.7625600584934691e-002
      6.9773628042688052e-002 -4.8232895670923738e-002
      -9.7897117269660203e-002 1.3889383197583641e-001
      -5.0324987450716008e-002 -5.4183393607975675e-003
      -6.2910191268891621e-002 -1.7157837279946714e-001
      -4.7276878998292804e-002 -1.8268247682323951e-001
      9.9847671393314186e-002 -4.8594412549072845e-003
      -1.5708034092764148e-001 -1.1340504068487729e-001
      -1.1817334575810748e-001 6.0300718072397799e-002
      -1.5342353662481500e-002 5.6780593110482752e-002
      -3.0121871847967563e-001 -6.1969132020245607e-002
      -2.0073131786910284e-001 1.8161083564624446e-002
      2.4665745884347276e-001 9.6687619195897828e-002
      -1.0772301415534242e-002 2.1296745914433472e-002
      6.5608814841961183e-002 -7.0018427742771061e-002
      5.6145906943304763e-002 5.9593370534008414e-002
      -1.3860386362237828e-001 -1.7211852495125138e-001
      5.3919839709341506e-002 -4.7636640206909142e-001
      -9.7573983889537350e-002 -2.8443399840056421e-001
      -4.0835014641338319e-001 1.8927460812288305e-001
      -2.4207433494920216e-001 8.3950568356533717e-001
      -7.0358025516854550e-001 1.6070191636592637e-002
      -6.2946358920789569e-001 2.5194223991795173e-001
      1.1854749157274534e-001 1.2168790593630187e-001
      -7.2147787444484579e-002 1.3399932655719590e-001
      2.1268450827513698e-002 5.9526332854517294e-001
      1.1527141134974271e-001 -3.1679715998112833e-002
      7.1439885860793029e-002 2.8018825095472916e-001
      -8.1304374745995570e-002 -8.9293436514980118e-001
      -2.5561768596573092e-001 5.3789238282398244e-001
      3.0860207049743976e-001 -9.2710520450565950e-002
      4.8774995918348212e-002 -4.4984916876341396e-001
      -1.1302913931339376e-001 -2.1096698594758982e-002
      1.0893485622889949e-001 2.3054502586722214e-002
      -1.7772786669491652e-002 -2.4043217549384269e-001
      -2.7833530364485173e-002 -8.4883955128535360e-002
      -3.0075040693794175e-001 8.4294748882919653e-003
      5.4114568276860245e-002 -7.7191572766292782e-001
      -3.9331521333625713e-001 -5.7688089265013655e-002
      -7.1519241763167674e-001 5.0485047400017191e-002
      1.1360823155883856e-001 3.6382119970569748e-001
      -1.5773809544771406e-001 3.5772366128685409e-002
      -2.5841544135035999e-001 -8.3565569629605874e-002
      -3.6653016392394255e-001 -6.9299614880871580e-002
      3.0691915239678857e-002 -2.0414732832957236e-001
      8.7053705488051913e-002 -2.9017386281085984e-002
      -5.2720816897885011e-003 -9.7486836355251474e-002
      7.6962413165586746e-002 1.2620245668243543e-001
      -1.1961707894573080e-001 -9.3329329955810766e-002
      1.0108692711669720e-002 1.6066434881043663e-002
      9.7391228981034625e-004 7.4895358889579280e-002
      6.7199389962245393e-002 -1.6417697653944513e-001
      -4.0307642284442707e-001 1.9435181421103184e-001
      7.0090509399614115e-002 1.0198813934828847e-001
      7.2002165736492721e-002 -1.6732246931003023e-001
      -1.7840194343230656e-001 -5.4657046093358574e-001
      -1.3266278039296409e-001 -3.6749485414455829e-002
      8.1708395371903358e-002 -3.4622215347335374e-002
      4.4050399676374783e-003 -3.5698469606939548e-001
      -1.5639217656178108e+000 -1.4271627889735544e-001
      1.0761786779730133e-001 -3.3434534941272021e-002
      2.5797893504033005e-002 9.5102239608835556e-002
      5.9618178364156234e-002 1.6713883954185277e-001
      -2.0620816478848714e-001 1.2352581992010501e-001
      1.4313541136172564e-002 1.3585533842480452e-001
      1.0647912357186307e-001 -1.2187602168106619e-001
      9.2141314552990211e-003 -2.3854918179589998e-002
      -5.8613692993667796e-002 1.1495185203241938e-001
      2.6605069812922561e-002 -1.5434706439020082e-001
      -1.4046131538879558e+000 1.2255614542367625e-001
      2.0890159764600430e-002 9.5562529635282428e-003
      1.3544831831448081e-001 -1.2725004396278283e-002
      -8.7706064510571780e-003 7.0151082219714528e-002
      -4.5362322629636839e-002 2.6452285332836301e-001
      1.4090706090694885e-001 1.8464488414407881e-001
      8.7121131009299724e-001 -3.2214396593573180e-001
      1.9563950895052240e-001 -4.8067041542110561e-001
      -1.3305928231350969e-002 1.3445377146720211e-001
      4.0577356905968015e-001 -1.9169022498264382e-001
      2.0437749468320274e-001 9.6999474525346227e-002
      1.4958670630679627e-001 2.0102311976677703e-001
      -6.6389847580291328e-001 2.2233433338341227e-001
      6.7480243507016280e-001 3.7601949584288065e-002
      3.8601777884529476e-001 1.5840934446584634e-001
      9.5799669078989513e-002 -9.1036622462757025e-002
      -4.2214699302348618e-001 -1.0182602787263437e+000
      1.1805082629043114e-002 -9.0208852019866850e-002
      1.8970898151799903e-001 -1.0240870185052029e+000
      -1.5131378329979328e-001 7.8786000175959485e-003
      -5.3165145682785755e-002 -8.7144953122456056e-002
      1.1173496137333293e-001 -2.8298822815847358e-001
      2.8086521895938427e-001 -1.6924420220415134e-001
      -5.5261711472604846e-001 -3.7858383926290112e-001
      3.7062628844107293e-001 -7.7172301353258463e-002
      -1.0266911019760491e-001 -1.1900105393237846e-002
      1.1381320188883765e-002 -6.1551620571059473e-001
      1.6669006216409337e+000 -7.2940579406966216e-002
      1.7197566024357069e-001 1.2206960129166946e+000
      5.6504089657964822e-002 1.5760264961054538e-001
      5.0976849875369246e-001 1.7281288352278271e-001
      -9.6177103625284741e-002 2.0775637107838672e-002
      4.4718075283657569e-003 -1.2549074561184134e-001
      -1.8384641187714124e-001 -7.4152869235178248e-002
      1.8038997603842302e-001 4.2047671201466807e-001
      -5.2354270304015071e-001 -8.1918862382379332e-002
      -1.9493224907412812e+000 -3.0203569428897917e-002
      -2.8774200858074802e-002 -5.2627685766424182e-001
      7.0372520807352601e-001 -2.6776549541698036e-001
      8.7613334582115607e-002 -1.6731628700488380e-001
      4.3468708371919840e-001 -2.1094153193048351e-001
      -1.8205208837764186e-001 7.4313759228764509e-001
      -8.1339443793055544e-001 7.9967894111577481e-002
      -1.1759557415568217e-001 -1.7504209111522712e-001
      6.4779880857506453e-002 -6.9283539949577644e-002
      2.0196194762084771e-001 -1.6181658114760317e-001
      2.3917841536305606e-002 1.4610452934405729e+000
      3.2120425384226731e-001 1.4108125670514560e-001
      1.5147210875189265e-001 -7.5220263047971442e-002
      -1.1883403851737125e-001 1.8181875161762814e-001
      -6.4380265468695275e-001 -7.5212142541870175e-001
      4.8495395481444414e-001 -9.5090605272692752e-002
      9.1512622885063788e-002 -2.0619616427750453e-001
      7.6710395423199873e-001 -4.5803996003538128e-001
      -1.6112646434636374e-001 1.7177916537095017e-001
      -1.1396777633070097e-001 1.1510347186974794e-002
      -1.9720316304581884e-001 3.7017017693661908e-001
      -1.8841304757043553e-001 4.1566867721060491e-001
      -2.2597525079249581e-001 4.1020951546299445e-001
      -3.7125701215179663e-001 -3.6776713484051315e-001
      6.2989987149746707e-001 1.2516220661450222e-001
      1.8311045420241270e-002 8.7388570167925034e-002
      -1.0844821986850404e-001 2.5862628303801433e-001
      3.2521670266765651e-001 1.5274447917450540e-001
      -2.5061580096226671e-001 1.6389574368795420e-001
      6.5253371232220825e-001 1.1584300308026356e-001
      3.4335403952050841e-001 6.3348132520444589e-001
      -5.6551643906285654e-001 5.0922926228169441e-001
      4.1595953166418681e-001 -9.6912335459223467e-002
      -8.9637103930436265e-002 4.4327908126851202e-002
      2.0154356056406083e-002 2.8188481517421853e-003
      -8.8635943990217139e-002 -1.0697615865022861e-002
      -3.8828428403479741e-002 -4.3246830680196419e-001
      5.6703733576575199e-001 -5.4502943037219076e-001
      -8.9005536573590158e-002 -5.9001822369683647e-002
      -1.9514592218137849e-001 -1.3420302737067156e-002
      -1.6659339079510532e-001 -3.2939666315893679e-002
      -6.9287160063276506e-004 6.2775338062682262e-001
      -3.8865922186126084e-002 4.5733349504701448e-001
      -1.6490417870916543e-001 -3.3156510915425530e-001
      1.1874298721239479e-001 -1.3058483533994522e-001
      8.7849312048062164e-003 1.2072830925414164e-001
      1.6266264795874485e-001 1.6306554345135132e-001
      -1.3205944862973633e-002 1.8297563940205597e-001
      -9.6373751544476305e-002 8.9984639764336641e-002
      2.0222153578452670e-001 7.1200462285781019e-001
      4.4659443340943983e-001 -1.5032295079744779e-001
      -4.7045451546321573e-002 -9.3483966920324471e-002
      1.0899849116212013e-001 7.4223565763995775e-002
      -1.3382706266409847e-001 5.9381990652307226e-001
      7.7929798179745990e-001 -1.2263427234517501e-002
      6.4409834766964894e-002 -1.0641696015377722e+000
      5.6277963793563330e+000 -1.1089791477469560e-001
      -1.8261450105879973e+000 1.4316207256706088e+000
      -5.6016467296291159e+000 4.6424154728503080e-002
      9.9548379264770961e-002 8.1506287280593126e-001
      1.3217949378196339e+000 -7.7709860032247502e-001
      -1.9648114068955488e-001 3.2143397627775815e-002
      -9.1568436466656203e-002 6.6714003323135840e-001
      -2.6779265821671455e-001 -9.8141536855839295e-001
      -1.0612861059039818e+000 5.3569124363628451e-001
      3.9751042840917639e-001 4.5686847014546679e-002
      -3.2720813740198952e-002 -1.8992771938112607e-001
      -7.3534437905710792e-001 -1.7150892542372496e+000
      2.8516856171402594e-001 -5.0289420994477951e-001
      -4.6390312848475765e-002 5.3091429165562322e-004
      -1.8202499520158119e-001 4.5667308310921279e-001
      3.1907989769866383e+000 -2.4640784114155376e-001
      1.0542347447138975e-001 -1.0005827182621865e+000
      -5.6055072279629570e-001 3.1085663956028371e-003
      1.5788613991309516e-001 4.4223255534457739e-001
      8.6287143317847328e-002 1.5921297460407382e+000
      -4.5870033816557160e-001 -3.3259436002532350e-001
      -4.7978409726878996e-001 1.0595068246253898e+000
      -1.0241957386998550e+000 5.8908740928711278e-001
      1.7447394004986927e-001 6.3650233271299983e-001
      8.9885301964679554e-001 -9.2064621799572965e-001
      -2.6309842345564977e-001 1.3854262260804512e-001
      2.7024240258345433e-001 8.6668938214769486e-001
      -4.7001591865975550e-002 -3.3711797148799044e-002
      -8.2118238108989783e-001 5.2945980278169402e-001
      -1.6310182389439324e-002 -4.8468672820713282e-001
      -1.3514094065180968e-001 2.4392456329141202e-001
      -1.2827839748393791e-001 -1.1970219273676759e+000
      -6.0922094548216732e-002 -1.0302878829470637e-001
      3.5092436826995205e-001 -2.0858176829895805e-001
      -3.3833989454091169e-002 3.3246350186666196e-001
      7.6187659772463157e-001 1.6009891461333153e-001
      1.0676625204292652e-001 1.6357465242469074e-001
      -7.5789326495434531e-002 -3.9063101118308206e-002
      5.5625893535684678e-001 4.8454448951491459e-002
      -1.4608862003428991e-001 7.3201259625540221e-002
      2.2195286669969405e-001 -4.4867090072812067e-002
      -1.3071176730530004e-001 4.7994198848293423e-001
      -2.8804573442878856e-001 2.3617428807677528e-002
      8.4599305592355095e-002 -1.3153441775722799e-001
      1.0253087570912532e-001 -2.6833992208241031e-001
      6.3724430576542673e-002 -1.6465351309684603e-001
      -2.2386015120788583e-001 -5.4209221050964811e-002
      1.0919195379052535e-001 3.0832192669729236e-001
      1.1480389976593208e-001 4.4392433448354793e-002
      -2.0550216246043716e-002 -7.8947764712656826e-002
      -3.6507082229165683e-001 1.0179531814935984e-002
      4.3598465057305406e-002 1.1046686970910721e-001
      -3.9843946081725583e-002 7.6034697529445402e-002
      1.4576248415797680e-001 1.0943946007469302e-001
      1.4516815792887511e-001 6.6958188217604200e-002
      1.2668475415594718e-001 -2.6232558824227443e-002
      -1.3324717393675867e-001 -1.5652456928004632e-001
      -1.1734536352717423e-001 -3.3579740530132446e-001
      1.2591477128642331e-001 -1.2623498111247261e-001
      -1.4510086454696333e-001 9.1701969536770922e-001
      -6.7648582733752349e-001 1.4158319943720044e-001
      -6.9050605821409983e-001 2.6084618769115309e-001
      1.7660090432062472e-001 9.1596928414155745e-002
      -4.7322195159028169e-004 1.2544456639596560e-001
      7.8816680266543371e-002 3.0357997941999826e-001
      -1.1844126720424417e-001 -5.3073840480886529e-002
      1.7303484712772690e-001 1.2856120362454268e-001
      -1.6800007309232848e-001 7.4279599547911657e-001
      -2.7756067125509276e-001 5.2758503836763382e-001
      8.7656973505751870e-002 1.7425269349712630e-001
      3.5361840625020985e-002 5.4597107316862542e-002
      -9.8266038623464225e-002 9.3062450668707153e-001
      -3.6053105884404990e-003 1.9478092000024158e-001
      1.3007708385669403e-001 -2.3050703853722082e-001
      -4.5173415023096186e-002 -6.9963297744863207e-002
      -9.9933878473758814e-002 3.3752896068764748e-002
      4.3239898232578816e-002 -9.8876599852273817e-001
      -1.5217152863335995e-001 -2.0323017859615530e-001
      -6.5318669458116474e-001 -3.6513574926497414e-002
      1.1632028559265663e-001 8.3916333252508787e-002
      -1.2477706904792418e-001 2.7658963066179491e-002
      -2.5679314891059207e-001 -3.3873776343170021e-002
      -3.9482514563197055e-002 -2.4990450216631710e-002
      -1.4686498655897431e-001 -1.2532730365132827e-001
      1.4901859228564474e-001 -9.9781925489981632e-002
      -5.3490298941578961e-003 -2.2793177669686063e-001
      4.8106298890605699e-002 1.6009983825034577e-001
      -3.9201902316839392e-002 2.7121784780730823e-001
      -6.0621408718650779e-002 9.2210702737150957e-002
      1.9157371839679616e-001 7.4728343707496023e-002
      6.0784134691072765e-002 -6.0274587113451983e-001
      -3.1887941386716950e-001 2.0751933125792663e-001
      1.4093096448243247e-001 1.2677606787677270e-001
      6.8622771398238594e-002 -1.1953720382877889e-001
      -1.8324254640386431e-001 -1.0429357266608806e-001
      -1.5433659226999943e-001 -4.3578314724491918e-002
      9.2465177286789102e-002 -5.3978978460590174e-002
      2.3125013202961783e-002 -7.6022217531866254e-001
      -9.7308032688742896e-001 -1.7727514443673886e-001
      -6.2976589373235248e-002 3.2681735802544597e-002
      1.1359240774437739e-002 4.4056675719297961e-001
      4.1213652016764607e-002 8.7664690255871688e-002
      -2.5091901145411899e-001 1.4845372957421504e-001
      1.0167128472900010e-001 3.4627429104864875e-002
      7.6799575909603041e-002 -2.5024461271915416e-001
      -5.4941689161473063e-003 -9.3858471503338436e-003
      3.5347155991692714e-001 1.1792903312901629e-001
      -3.7839338740189514e-002 -9.1697299572798180e-002
      -2.5527344532989932e-001 1.2032045737695191e-001
      -1.1071992559415315e-001 5.7645892394992772e-002
      3.3684021912300804e-001 -5.3275380244695074e-002
      -7.2583376532114399e-002 3.3975079602571234e-001
      -9.0897047101850641e-003 -8.2295837234394306e-002
      -1.7485942200784549e-001 -2.3672666308030696e-001
      1.3809024792663929e-001 -2.3134968974621811e-001
      -2.5204097060618569e-001 -2.5119420097421136e-001
      -2.0848175523566559e-001 1.5555308580974389e-001
      1.2346072051089303e-001 -1.3081224574964417e-001
      1.7084905938323514e-001 1.5109641844042807e-001
      1.7701009541585233e-001 1.9521723335124661e-001
      4.5280665776894137e-002 1.9365559096651919e-001
      4.0377766275905114e-001 1.6910084269875971e-002
      -2.8256535107900920e-002 2.5407053619218184e-001
      -2.4847222221458590e-003 -9.3374515716993425e-003
      3.8857114544382720e-001 1.0366266461087265e-001
      -9.7713312682542949e-002 -1.5137863931587761e-001
      2.5432395184976797e-001 -6.9937260253148226e-001
      5.8728915264678536e-003 -5.9154131889500094e-001
      -4.1388567980227935e-002 -4.7640261199823064e-002
      1.6088070740695937e-001 1.1995870826018866e-001
      3.1635684952125176e-001 4.5874545259285410e-001
      -1.0856500296419574e-001 2.8639960301918588e-001
      1.5563662232961573e-001 -4.2802788134030351e-001
      -1.3364040301771730e-002 3.7517742301441823e-002
      1.2582461157682925e-002 -2.0653828099561344e-001
      4.1993937138969245e-001 -3.1140710897940105e-001
      -2.8864442484017039e-002 -1.5889774120772807e-001
      1.9868982562750240e-001 1.6609740954777019e-001
      -5.2432807920825342e-001 4.2546423431110515e-002
      9.4076337601483786e-003 1.8356059699242955e-001
      2.5700548699296097e-002 1.7729221103780940e-001
      -3.1357032381615157e-001 4.5637353299027988e-004
      -2.2003938989253891e-001 1.0241785663120086e-001
      -1.1490780855781470e-001 -1.3247332945047427e-001
      -4.8881336285737001e-002 2.2761300451159139e-002
      4.6617076561798164e-003 -2.0430848456551851e-001
      1.3580142498354605e-001 -1.6360321828575226e-002
      5.7452427508138670e-001 1.3436475266594478e-001
      2.4156574806469738e-001 -1.0326254112166529e+000
      7.1226936183145328e-001 3.5676891484956991e-001
      1.0244355732576751e-001 2.2604034858670002e-002
      1.0452782078680334e-001 2.5192056306264133e-002
      6.3195604325156052e-001 3.2362324496845826e-002
      7.5066457422814708e-003 -1.6035886903899385e-001
      -2.5891521065470324e-001 1.5332284406605352e+000
      2.1726826691673273e-001 7.7601279834624823e-002
      1.5117844026713972e-001 -3.1419891397480632e-001
      8.7419484596288388e-001 3.9311306106149335e-001
      -9.1140050236202541e-001 -1.9904959515339110e-001
      2.3448566492291704e-002 -1.1634139970753346e-001
      7.8504256948497309e-001 -1.6550902918317303e-001
      6.9675635288248439e-001 -3.6036872315442181e-001
      -2.9544205862981909e-001 -2.0867445087709591e-001
      -2.7568042426978179e-001 7.6455280007986093e-001
      -1.8893485263868773e-001 -9.9116552978135625e-002
      8.0812066119394332e-001 3.7018544210096743e-001
      -1.6892529809810049e-002 6.3055520133794252e-001
      1.3450275690699096e-001 -4.3639411394235533e-001
      7.4471480186560002e-001 -1.0235537134068347e-001
      2.9452711317888974e-001 6.2104937975949381e-001
      -1.1656758132163717e-002 1.1697702499088777e-001
      7.0677111319687680e-002 1.3891235941619544e+000
      -2.2860315348234689e-001 1.2266518912162681e+000
      3.6345489878154269e-001 1.1412438696412013e+000
      1.5486667724503009e-001 1.0492945869591908e+000
      3.6136952658538696e-001 5.2472927221026944e-001
      -1.9014134990621570e-001 -6.9094650173639205e-001
      2.7790793420392423e-001 -3.4467841812659966e-002
      3.5833219121852798e-002 -1.1463288236017569e-002
      2.7743384477479766e-001 1.3486424547053091e-001
      2.4914947287134548e-001 2.3928260409700593e-002
      2.2425908524691435e-001 -8.3953016480070600e-002
      -4.3797808095749036e-001 -3.9542748128441212e-002
      -1.8235282134332589e-002 3.0882802268300513e-001
      -1.5153078526228148e-001 -1.1214208094935216e-001
      2.5693072477604149e-003 8.4722460122067855e-002
      -3.3588748033087167e-002 5.7697268615471931e-001
      2.3645905281604519e-002 -3.4122708098843396e-001
      7.4426068550663815e-001 4.9594614141760529e-002
      1.9358311193602273e-001 3.0481961370792598e-001
      4.8029177640383294e-003 2.1436443943496411e-001
      -3.1831854452494431e-002 2.2238954564710023e-001
      -2.6792660813924185e-001 8.8190230587561050e-002
      1.5062057549505103e-001 2.1963609060093206e-001
      -2.0407450401140287e-001 -1.5583774632829023e-001
      -2.0243311099836448e-002 -1.2208474465297316e-001
      1.0952263139299583e-001 6.0469206113614928e-002
      1.3447686395025238e-001 -3.5095144909239251e-001
