<?xml version="1.0"?>
<opencv_storage>
<opencv_ml_ann_mlp>
  <format>3</format>
  <layer_sizes>
    440 40 31</layer_sizes>
  <activation_function>SIGMOID_SYM</activation_function>
  <f_param1>1.</f_param1>
  <f_param2>1.</f_param2>
  <min_val>-9.4999999999999996e-001</min_val>
  <max_val>9.4999999999999996e-001</max_val>
  <min_val1>-9.7999999999999998e-001</min_val1>
  <max_val1>9.7999999999999998e-001</max_val1>
  <training_params>
    <train_method>BACKPROP</train_method>
    <dw_scale>1.0000000000000001e-001</dw_scale>
    <moment_scale>1.0000000000000001e-001</moment_scale>
    <term_criteria>
      <iterations>30000</iterations></term_criteria></training_params>
  <input_scale>
    3.1439104325869689e+001 -6.2681382516370204e-002
    1.2999279892134824e+001 -1.6551721948381989e-001
    6.3597904201443445e+000 -3.9006602191668993e-001
    3.5694051752203921e+000 -7.6710012055320809e-001
    2.9438078430719332e+000 -1.4658717323215389e+000
    3.9059931794132576e+000 -2.9039674362589416e+000
    5.3033515668595683e+000 -4.4090510061332422e+000
    5.1495398498509068e+000 -4.2759302780052231e+000
    5.4230417820299799e+000 -4.5379501323584384e+000
    5.8462130366120446e+000 -4.9242627253053470e+000
    6.0059244733668047e+000 -5.1465275865328621e+000
    5.8888960851109751e+000 -5.0924571984892939e+000
    5.3898440658994371e+000 -4.6223742301519479e+000
    4.3427716489566865e+000 -3.4568641876784438e+000
    3.1097006191781529e+000 -1.9316480233951063e+000
    2.9684683475484057e+000 -1.0507863093432559e+000
    4.2323251466904575e+000 -5.6357163843724467e-001
    8.7422876214038467e+000 -2.6301353786450821e-001
    2.0478976953134350e+001 -1.0361194040413368e-001
    5.1684045067471374e+001 -3.9955095824943276e-002
    3.1295446780601108e+000 -1.1617559426258792e+000
    3.8737190162792383e+000 -2.6644243227629016e+000
    4.6914403636041975e+000 -3.6619936908844295e+000
    4.4461956212714515e+000 -3.4870856054525086e+000
    4.2975669763813320e+000 -3.3517529998289022e+000
    4.3533371972675203e+000 -3.4495414975514507e+000
    4.5666846187020393e+000 -3.6718377542988048e+000
    5.1196914682655770e+000 -4.1395709999991652e+000
    5.3913282665247477e+000 -4.2466929693577056e+000
    5.4723010133674990e+000 -4.2096399982239472e+000
    5.6224939768645070e+000 -4.3691816607061540e+000
    5.8683943537657504e+000 -4.6225711855399645e+000
    5.5427900547055842e+000 -4.3069710843408435e+000
    5.5858806264926777e+000 -4.3598613987773023e+000
    5.5197606435848421e+000 -4.3033086720433458e+000
    5.3933281164183144e+000 -4.2107918859867040e+000
    5.1687369023186491e+000 -3.9641682608870719e+000
    4.7227745754334158e+000 -3.3986343250258813e+000
    3.5519161974975044e+000 -2.0222779458254059e+000
    3.5666256672435392e+000 -7.9669357927147311e-001
    4.1775829978620121e-001 -1.8019436341008496e-002
    1.8356164567172681e-001 -5.4104160632090538e-002
    6.5293526938546717e-002 -1.2163251303980702e-001
    3.3061814886817358e-002 -2.2960135390846093e-001
    2.0013833988150622e-002 -3.8086418309100351e-001
    1.4185423586820317e-002 -5.3571219490319122e-001
    1.2160075351108603e-002 -6.5351831318528009e-001
    1.1432468306390801e-002 -6.8874984338129996e-001
    1.0862034789620984e-002 -7.1690831164374580e-001
    1.0422964036127146e-002 -7.3585261517395673e-001
    1.0265764621359939e-002 -7.7670207433156513e-001
    1.0178990839486457e-002 -7.9179883627395131e-001
    1.0752729711384062e-002 -7.0799639249239488e-001
    1.2015408321538716e-002 -6.0069400472447632e-001
    1.4658015701965241e-002 -4.6500494586471319e-001
    2.0948412101037948e-002 -3.2166141976451823e-001
    3.8524064810152449e-002 -1.9167941371208108e-001
    6.8782339759049918e-002 -1.0011792551287331e-001
    1.4578750650264788e-001 -5.2026656698456464e-002
    5.1135316894268878e-001 -3.1341000677132538e-002
    4.0096139289226845e-001 -2.1877340515412250e-002
    1.1789900000901871e-001 -8.3192142310511266e-002
    4.3836571114809326e-002 -1.9605653916287905e-001
    1.9715910396352208e-002 -3.9179602510399009e-001
    1.2564912646194162e-002 -6.8330658499873553e-001
    1.0425185410691117e-002 -1.0476081454120085e+000
    1.0291529451581981e-002 -1.3050702725472010e+000
    1.0105997837852147e-002 -1.2798543033218770e+000
    9.8780113845735977e-003 -1.2670384088544202e+000
    9.8381963165445029e-003 -1.3393711397881645e+000
    1.0008175394771713e-002 -1.4841911955576330e+000
    1.0186792760220324e-002 -1.5930059574687105e+000
    9.9440489498927830e-003 -1.4101797873685096e+000
    9.9057593275662971e-003 -1.1188459298299092e+000
    1.0794912715130792e-002 -7.8864747020535986e-001
    1.4091184341972580e-002 -5.1282170554774220e-001
    2.4013051328919791e-002 -2.8884270312786375e-001
    4.5209459531872519e-002 -1.3898262881895004e-001
    8.7178592135126645e-002 -6.6978870418287165e-002
    2.2954790807912806e-001 -3.1269291072898733e-002
    3.7170762663525203e-001 -2.4357983644024347e-002
    1.0149499924055003e-001 -9.3871181325246036e-002
    3.3889416781705928e-002 -2.3588595804342982e-001
    1.6635762905429431e-002 -4.5913172368947863e-001
    1.1457143613329508e-002 -8.1039597448786582e-001
    1.0334772460674201e-002 -1.3028557096672679e+000
    1.0753467362207437e-002 -1.6522003874428928e+000
    1.0443537879185149e-002 -1.5454222223671243e+000
    1.0201189477163671e-002 -1.5009663517998524e+000
    1.0390205131063226e-002 -1.6329801805082746e+000
    1.0730405669092117e-002 -1.8252380484026451e+000
    1.1063918168576149e-002 -1.9681017693402973e+000
    1.0637077236808255e-002 -1.7782438283995439e+000
    1.0081449255180980e-002 -1.4143771555470730e+000
    1.0286285400577718e-002 -9.5025178552905643e-001
    1.3183546897209082e-002 -5.8868728899429834e-001
    2.1898798866940732e-002 -3.2083859578668195e-001
    4.1804456428562169e-002 -1.5631399053518591e-001
    8.1889232290375299e-002 -7.1949313495313152e-002
    2.1803335929858553e-001 -3.1408860883289327e-002
    3.8440942676710266e-001 -2.5934350266683791e-002
    9.5099177369943402e-002 -1.0290870428576088e-001
    3.2686235833186687e-002 -2.4932217177791369e-001
    1.6292242859436815e-002 -4.6812944376834875e-001
    1.1312867346546617e-002 -8.0822043773366847e-001
    1.0299029396356388e-002 -1.2533747915891869e+000
    1.0431540179594755e-002 -1.5138626067215009e+000
    1.0312793960185876e-002 -1.4676493517711493e+000
    1.0273507298295676e-002 -1.4981491149297224e+000
    1.0408102814735769e-002 -1.6411880227134890e+000
    1.0550563563651128e-002 -1.7571569792381390e+000
    1.0867462380521564e-002 -1.8895311929531824e+000
    1.0791704636749028e-002 -1.8303118968516980e+000
    1.0284575940853283e-002 -1.5063917908722071e+000
    1.0301351805729815e-002 -1.0134963611816989e+000
    1.3165056406754092e-002 -6.1183295278441507e-001
    2.1823089709450239e-002 -3.3394154482675703e-001
    4.3021262325904273e-002 -1.6254899991248348e-001
    9.6043203329489860e-002 -6.9310440743770102e-002
    2.4513093501586047e-001 -3.0048308163234509e-002
    5.7599969362657710e-001 -3.8382283731982970e-002
    9.8424059097841216e-002 -1.0174417021579606e-001
    3.6520249663155084e-002 -2.4791359158433404e-001
    1.6688733378007994e-002 -4.7065304390199686e-001
    1.1285220864194876e-002 -8.0290029981780053e-001
    1.0123204077918084e-002 -1.1960131766456876e+000
    1.0224807357421182e-002 -1.4008485540302913e+000
    1.0311215597648140e-002 -1.4406953977552661e+000
    1.0379225676119326e-002 -1.5267515721946654e+000
    1.0197192434026735e-002 -1.5956247177407656e+000
    1.0438612932375349e-002 -1.6707918788621623e+000
    1.0651144716421576e-002 -1.7723092505749385e+000
    1.0861672268462078e-002 -1.8224925033725661e+000
    1.0431176323041004e-002 -1.5514312580227374e+000
    1.0195759714759714e-002 -1.0433682701135751e+000
    1.3058989026398555e-002 -6.2799775532856661e-001
    2.1607004957874650e-002 -3.4328651876943300e-001
    4.4842153425004111e-002 -1.6413054737024776e-001
    1.0981847921288423e-001 -6.5212945766692454e-002
    2.8347604511020297e-001 -2.7798941197903777e-002
    3.5921156591646602e-001 -3.8702149360032148e-002
    9.6415270788099139e-002 -9.8103648801899937e-002
    3.6650159691068718e-002 -2.4423193512841856e-001
    1.6336340660666797e-002 -4.8234062116742771e-001
    1.1098533633175150e-002 -8.4668104676362843e-001
    1.0312549088150004e-002 -1.2950917349654423e+000
    1.0528966081958222e-002 -1.4759058264343625e+000
    1.0516820829709598e-002 -1.4732670201594134e+000
    1.0527705582591784e-002 -1.5961874333418766e+000
    1.0204116126669138e-002 -1.6232943052188367e+000
    1.0408375983916531e-002 -1.6446154980020797e+000
    1.0492558267136519e-002 -1.6653682105432319e+000
    1.0644805278557832e-002 -1.7307521349293131e+000
    1.0409468014479891e-002 -1.5595205941840877e+000
    1.0125389785398092e-002 -1.0911875937420208e+000
    1.2736372919969822e-002 -6.5654065534673200e-001
    2.1316556448317925e-002 -3.4529285059030151e-001
    4.4806883030239185e-002 -1.6464154955295629e-001
    1.1551928511635420e-001 -7.1430311875172389e-002
    3.7535798824726696e-001 -2.7572379413186340e-002
    1.5651844432793446e-001 -3.7449021334130680e-002
    9.1082393771266146e-002 -9.7151755125793826e-002
    3.5897129586472412e-002 -2.4228742800705511e-001
    1.6247318563068613e-002 -5.0312629646883500e-001
    1.0994010504835882e-002 -9.2184220782977200e-001
    1.0423637041543693e-002 -1.4247795671481758e+000
    1.0647756017462200e-002 -1.6152047248889174e+000
    1.0632423861136046e-002 -1.5695956483630897e+000
    1.0612153203359296e-002 -1.6594248416058837e+000
    1.0363787236079548e-002 -1.7026288750988430e+000
    1.0494836180715934e-002 -1.6725470494975831e+000
    1.0519057945143895e-002 -1.6883592141138577e+000
    1.0574052619976073e-002 -1.7337752687596730e+000
    1.0281727258602876e-002 -1.5746185747283825e+000
    1.0006376390346331e-002 -1.1199136456075613e+000
    1.2544317478736399e-002 -6.7492012126310030e-001
    2.1066875896462084e-002 -3.4784421658758391e-001
    4.4595457363571192e-002 -1.6254119418431209e-001
    1.1425971380283921e-001 -7.2536489278705665e-002
    2.8666181299434695e-001 -2.6922432022234061e-002
    1.4156652047088988e-001 -3.9716911365289292e-002
    8.3401113109453015e-002 -9.6714544252823761e-002
    3.5294189108558575e-002 -2.3209914166679843e-001
    1.7104646265094975e-002 -4.9113981757225933e-001
    1.0980697864968459e-002 -9.1492793884335077e-001
    1.0402123139471120e-002 -1.4499111987672455e+000
    1.0771818435325462e-002 -1.6970419160174650e+000
    1.0616195950087297e-002 -1.6188328992147634e+000
    1.0402960548763416e-002 -1.6500322692044069e+000
    1.0236121361091633e-002 -1.7007405266479492e+000
    1.0479072425569339e-002 -1.6988063754063143e+000
    1.0533129264264468e-002 -1.7330570166506987e+000
    1.0749799515687752e-002 -1.8078051783499309e+000
    1.0251140608448400e-002 -1.5923573833923845e+000
    9.9350392128965508e-003 -1.1105469242639281e+000
    1.2689434327953287e-002 -6.6127039825856038e-001
    2.1637429623274865e-002 -3.3940851011366502e-001
    4.4352521420927084e-002 -1.5658688346083252e-001
    1.1411074033187554e-001 -7.1747785303599529e-002
    2.6394786923978625e-001 -2.8827486179644857e-002
    1.3474883052781109e-001 -3.9903040782106637e-002
    8.5933193054377410e-002 -8.9616044185279312e-002
    3.6023846531839876e-002 -2.1570813689650734e-001
    1.7747077716689073e-002 -4.4622859648755264e-001
    1.1019436054406754e-002 -8.3577801418845954e-001
    1.0150547940441939e-002 -1.3452956208950864e+000
    1.0277195848402603e-002 -1.6186394019835972e+000
    1.0424450897333473e-002 -1.6281762504662665e+000
    1.0491293190956267e-002 -1.6803096909501709e+000
    1.0285717828836159e-002 -1.7496991938973994e+000
    1.0500796220910833e-002 -1.7360400220069738e+000
    1.0379013168656579e-002 -1.7045065907499144e+000
    1.0806721773971599e-002 -1.7785015447858306e+000
    1.0234027645339379e-002 -1.5120431567639574e+000
    9.9615471241039991e-003 -1.0535993281210854e+000
    1.2994326173660918e-002 -6.1761253841473662e-001
    2.3302085917283697e-002 -3.1348285446233320e-001
    4.9785503282233814e-002 -1.3693537091720773e-001
    1.2319729887771971e-001 -6.1451039772001760e-002
    2.5990329811994933e-001 -2.6708956442741339e-002
    1.2996897357758541e-001 -3.7361587888339987e-002
    9.4314746043531975e-002 -8.6969496236455057e-002
    3.8731066741582332e-002 -1.9451205776486832e-001
    1.8662903810521877e-002 -3.9422589164364136e-001
    1.1091673732025908e-002 -7.4983496842578867e-001
    9.7608752605527413e-003 -1.2255017288881482e+000
    9.9930221570860341e-003 -1.5591684199323179e+000
    1.0329378223117754e-002 -1.6338153658544177e+000
    1.0504093259445218e-002 -1.7157182624946992e+000
    1.0620720080450924e-002 -1.8726737517632019e+000
    1.0801530864268589e-002 -1.8651924211171231e+000
    1.0412292138683995e-002 -1.7336523990404549e+000
    1.0682558678570526e-002 -1.7597373988371128e+000
    1.0097449032169262e-002 -1.4578445639720756e+000
    9.8946684097641988e-003 -1.0249244080215849e+000
    1.2913963927547007e-002 -5.8545009130375569e-001
    2.4261938901546220e-002 -2.8541879091183037e-001
    5.4550205779570836e-002 -1.2132267425500681e-001
    1.5420346797721218e-001 -5.1633290245272981e-002
    2.6038913140949987e-001 -2.2415064399674920e-002
    1.2604044942499670e-001 -3.7080287056644193e-002
    8.9344321608768942e-002 -8.9352556108456382e-002
    3.8824180806504620e-002 -1.7840158363777889e-001
    1.9340263886557657e-002 -3.6658267000829631e-001
    1.1037328302844677e-002 -7.2945651890236407e-001
    9.7515120257153313e-003 -1.2570292180680425e+000
    1.0440332121620441e-002 -1.7475932413204638e+000
    1.0606639775160787e-002 -1.7674533044543184e+000
    1.0741836401710746e-002 -1.8398359980788928e+000
    1.1056097408924066e-002 -2.0214571094367133e+000
    1.0834559601216837e-002 -1.9345600463548940e+000
    1.0661893329014837e-002 -1.8804111032064068e+000
    1.0771435914755354e-002 -1.8880470699104330e+000
    1.0072787655341042e-002 -1.5303878720530284e+000
    9.8203629429666206e-003 -1.0292147660387945e+000
    1.2582853168639834e-002 -5.6057944532755344e-001
    2.4888806345466197e-002 -2.6895738757599685e-001
    5.7276003747494364e-002 -1.1425638941113070e-001
    1.3351262485246848e-001 -4.4926690630079487e-002
    2.3402561732160151e-001 -2.1849580677122796e-002
    1.2761342293620459e-001 -3.8378119727265951e-002
    8.0091698746489942e-002 -9.3415709459615692e-002
    3.8820461645774462e-002 -1.7724313631413599e-001
    1.9498567686849513e-002 -3.6923817628047573e-001
    1.1223907548816716e-002 -7.4827774427986826e-001
    1.0027807540455489e-002 -1.3304608535889473e+000
    1.0977370812167394e-002 -1.8973399003067113e+000
    1.0897809684930803e-002 -1.8280879887219019e+000
    1.0729316382924303e-002 -1.8028979589926986e+000
    1.0892738592504612e-002 -1.8768680525015431e+000
    1.0736857717952266e-002 -1.7817068255976156e+000
    1.0731863714334157e-002 -1.8539299512071570e+000
    1.1015911106226113e-002 -1.9641663936891558e+000
    1.0224123179291862e-002 -1.5743161410403634e+000
    1.0079822964617596e-002 -1.0298810602333694e+000
    1.2931858226918511e-002 -5.5482796861717809e-001
    2.4766227417976155e-002 -2.7543925311518569e-001
    5.3230644020492275e-002 -1.2158173457288843e-001
    1.1715076329192600e-001 -4.9030563696648474e-002
    2.2924704110365385e-001 -2.1952781171124088e-002
    1.2619296284306097e-001 -4.1579708955202119e-002
    7.4978941586639175e-002 -9.3948268282982444e-002
    3.7895829156066915e-002 -1.8560224528602728e-001
    1.9826290496119663e-002 -3.8562591841922700e-001
    1.1342275243717939e-002 -7.7277586931475339e-001
    1.0087884367532912e-002 -1.3501540759202539e+000
    1.1031323513794159e-002 -1.8628326589105380e+000
    1.0775307270091910e-002 -1.7083043040939649e+000
    1.0504803860109465e-002 -1.6260874828330663e+000
    1.0442701115181693e-002 -1.6190296436712437e+000
    1.0542404905646138e-002 -1.5806543461357314e+000
    1.0504680323536067e-002 -1.6999516010318549e+000
    1.0542371117028295e-002 -1.7949654826216037e+000
    9.9894929857453508e-003 -1.4797597080639195e+000
    1.0120987917119694e-002 -1.0010011517810964e+000
    1.3165562591017723e-002 -5.7160747156115133e-001
    2.4193776302024753e-002 -2.9450626775022298e-001
    5.2554039866853482e-002 -1.3134635014465124e-001
    1.2620108085673867e-001 -5.1410947224588471e-002
    2.4339430128746520e-001 -2.0391282937355378e-002
    1.2461624537525401e-001 -4.5596911902281885e-002
    6.5850621041163779e-002 -1.0374659134356254e-001
    3.5957153652576589e-002 -1.9975275911604184e-001
    1.9623807010618909e-002 -4.1419255042219394e-001
    1.1260837433239449e-002 -8.1637646435821976e-001
    1.0199969723756697e-002 -1.4125369316358496e+000
    1.1069158815318825e-002 -1.8752093616201713e+000
    1.0593895454327533e-002 -1.6257909454035067e+000
    1.0460327760293658e-002 -1.5425657351431024e+000
    1.0386977857340642e-002 -1.5611254362775209e+000
    1.0555861277491412e-002 -1.5950227444134830e+000
    1.0746629428806338e-002 -1.7656900341352912e+000
    1.0713943735363799e-002 -1.8308303042270335e+000
    1.0078688368225288e-002 -1.5050249889643978e+000
    9.9974075521560603e-003 -1.0243214779131975e+000
    1.2724370960319619e-002 -6.0122242323930841e-001
    2.3424434437838405e-002 -3.2008572112335115e-001
    5.5941129988718453e-002 -1.4181205348753004e-001
    1.3446352629878700e-001 -5.0278205179186991e-002
    2.5238191505351132e-001 -1.8818153850533700e-002
    1.2340801884062386e-001 -4.6201232491300842e-002
    6.5211394687453197e-002 -1.0582877766420976e-001
    3.4115947333097148e-002 -2.1304701635956963e-001
    1.9078795936386016e-002 -4.2821434311673107e-001
    1.1286322354956609e-002 -8.1587315993620535e-001
    1.0232597856277880e-002 -1.3688471520661851e+000
    1.0870630106596198e-002 -1.7749915503537581e+000
    1.0428463210456082e-002 -1.5425571328196379e+000
    1.0395591660541782e-002 -1.4875296427426234e+000
    1.0343153514927391e-002 -1.5057229236917911e+000
    1.0530988824423089e-002 -1.5757639902740310e+000
    1.0794044289027421e-002 -1.7590273026236571e+000
    1.0768992855021836e-002 -1.8073446865828076e+000
    1.0270827835107788e-002 -1.5087325448731006e+000
    1.0064390918739004e-002 -1.0312865425227726e+000
    1.2548633063551399e-002 -6.1941903291358058e-001
    2.2997678401595834e-002 -3.4148267043741015e-001
    5.6617307018158709e-002 -1.5033590923439191e-001
    1.4926173791639019e-001 -5.0900316155819698e-002
    2.5260543990824413e-001 -1.7926837670907650e-002
    1.4369882086719202e-001 -4.5957134415590441e-002
    6.5867129410521669e-002 -1.1163416062028414e-001
    3.2715281093783834e-002 -2.2740587878452376e-001
    1.7688160474909929e-002 -4.4083460590049711e-001
    1.1246039131786451e-002 -8.1000089184810586e-001
    1.0246545919551448e-002 -1.3111291282235553e+000
    1.0747602806123932e-002 -1.6487010911463527e+000
    1.0563552664202044e-002 -1.5187828164900710e+000
    1.0487265595696531e-002 -1.4928144124186467e+000
    1.0344217228401630e-002 -1.4719554168474143e+000
    1.0469707425183328e-002 -1.5396163119978807e+000
    1.0670032994790980e-002 -1.7042609401079021e+000
    1.0670187134213653e-002 -1.7446011655559590e+000
    1.0312997399017707e-002 -1.4982608560492199e+000
    1.0062361325246821e-002 -1.0419765270640702e+000
    1.2340727436800720e-002 -6.3399719465455884e-001
    2.2164297986425323e-002 -3.5563790724873090e-001
    5.3639294472223605e-002 -1.6171876504842198e-001
    1.4179624792497550e-001 -5.1203474596318348e-002
    2.5048036597740247e-001 -1.7868368964655254e-002
    1.3386249417543247e-001 -4.5673636261516222e-002
    6.3356368077014405e-002 -1.1298454985457619e-001
    3.0903975406506624e-002 -2.3749064234050898e-001
    1.7083906910256269e-002 -4.5246058266520012e-001
    1.1209538805313468e-002 -8.1329698179443510e-001
    1.0341238278068541e-002 -1.2697563285714160e+000
    1.0465977805072791e-002 -1.4798101639248487e+000
    1.0368878869300971e-002 -1.4150853373458006e+000
    1.0471824958044343e-002 -1.4385662297524735e+000
    1.0354844359264079e-002 -1.4093525334715016e+000
    1.0418265470558435e-002 -1.4698866694991135e+000
    1.0468492201835785e-002 -1.6121188539429823e+000
    1.0375856260588855e-002 -1.6048963254828883e+000
    1.0116043794557985e-002 -1.4315162294194332e+000
    1.0144876237758598e-002 -1.0555636199049816e+000
    1.2132429326317733e-002 -6.4986546994138761e-001
    2.0737504966647179e-002 -3.6420601464695423e-001
    4.7880299108049758e-002 -1.7100989410462158e-001
    1.2227396214020116e-001 -5.4420365269588142e-002
    2.4605078600139996e-001 -1.8686253241027979e-002
    1.1573063242545086e-001 -5.0100164101598406e-002
    5.6398116716690601e-002 -1.1182421059227327e-001
    3.0328199249689439e-002 -2.3149220988585534e-001
    1.7341417264094938e-002 -4.3881777114687426e-001
    1.1672075267802121e-002 -7.6646699309720989e-001
    1.0384609584299612e-002 -1.1333829897785785e+000
    1.0130308613134961e-002 -1.2401187683361041e+000
    1.0155570174572840e-002 -1.2394756398409763e+000
    1.0165885420941061e-002 -1.2630780018991672e+000
    1.0220131098507676e-002 -1.2823335071694750e+000
    1.0289691745497747e-002 -1.3607941887063819e+000
    1.0131494931293726e-002 -1.4158824862074737e+000
    1.0081926339712695e-002 -1.3808958974809231e+000
    1.0033827920701750e-002 -1.2834967499828607e+000
    1.0303059299112901e-002 -9.9868265979340454e-001
    1.2556132245901188e-002 -6.3705301751577370e-001
    2.0795453805197470e-002 -3.5813796379092988e-001
    4.6086215140729248e-002 -1.6867979499250138e-001
    1.1974162539950560e-001 -5.4341729351812494e-002
    2.4722736129446821e-001 -1.8889537558812366e-002
    1.2009966762264877e-001 -4.7829554267047499e-002
    6.5862302515769772e-002 -1.0025031576478689e-001
    3.4265708575457618e-002 -1.9698203142645326e-001
    2.0559550562606384e-002 -3.6581598841598278e-001
    1.3398178019472785e-002 -6.0951090234594951e-001
    1.1112443130554671e-002 -8.4189610277204030e-001
    1.0400852482980432e-002 -9.0590849964410269e-001
    1.0295086803160250e-002 -9.3071000581904284e-001
    1.0101943835030467e-002 -9.6271524747840342e-001
    1.0086023783213740e-002 -9.8146865037591546e-001
    9.9890909701660282e-003 -1.0128395058156425e+000
    9.8588747569645484e-003 -1.0128671724046385e+000
    9.9873032709223777e-003 -9.8456216377923900e-001
    1.0056781213627288e-002 -9.7058783351153044e-001
    1.0820992510811245e-002 -8.0973736290025211e-001
    1.3874354446257781e-002 -5.4804211559656346e-001
    2.3616376513523472e-002 -3.1428717396688305e-001
    5.4644094027448513e-002 -1.4692965890845924e-001
    1.3263095025164501e-001 -4.8822858553462689e-002
    2.4946342439284244e-001 -1.8301648462368900e-002
    1.9058610433159001e-001 -3.2970517772386583e-002
    1.4361400389903625e-001 -6.7571381558025806e-002
    5.3584443096025162e-002 -1.2528388501935173e-001
    3.4424402247823775e-002 -2.0298975404732880e-001
    2.3113506210884240e-002 -3.1789698662099847e-001
    1.8061422287350963e-002 -4.0247840374522731e-001
    1.6550882120464211e-002 -4.3536142026053892e-001
    1.5419427990172100e-002 -4.4696018791751674e-001
    1.4172584792714922e-002 -4.7091515267701572e-001
    1.3570954989293884e-002 -4.8030799194228357e-001
    1.3152087757755697e-002 -4.7861235263564456e-001
    1.3988557465778182e-002 -4.6573902899632330e-001
    1.4600369398808872e-002 -4.5853637546104326e-001
    1.4369138423609021e-002 -4.6827366691847838e-001
    1.6325814421902399e-002 -4.1155948708426932e-001
    2.2391540425250340e-002 -2.9862266355149530e-001
    4.2708196312756977e-002 -1.7689459375993533e-001
    9.4203619878330244e-002 -8.3680598008050402e-002
    1.8403025529477471e-001 -3.3447710916248451e-002
    2.9611563481811348e-001 -1.7494020453309746e-002</input_scale>
  <output_scale>
    5.2631578947368418e-001 4.9999999999999994e-001
    5.2631578947368418e-001 4.9999999999999994e-001
    5.2631578947368418e-001 4.9999999999999994e-001
    5.2631578947368418e-001 4.9999999999999994e-001
    5.2631578947368418e-001 4.9999999999999994e-001
    5.2631578947368418e-001 4.9999999999999994e-001
    5.2631578947368418e-001 4.9999999999999994e-001
    5.2631578947368418e-001 4.9999999999999994e-001
    5.2631578947368418e-001 4.9999999999999994e-001
    5.2631578947368418e-001 4.9999999999999994e-001
    5.2631578947368418e-001 4.9999999999999994e-001
    5.2631578947368418e-001 4.9999999999999994e-001
    5.2631578947368418e-001 4.9999999999999994e-001
    5.2631578947368418e-001 4.9999999999999994e-001
    5.2631578947368418e-001 4.9999999999999994e-001
    5.2631578947368418e-001 4.9999999999999994e-001
    5.2631578947368418e-001 4.9999999999999994e-001
    5.2631578947368418e-001 4.9999999999999994e-001
    5.2631578947368418e-001 4.9999999999999994e-001
    5.2631578947368418e-001 4.9999999999999994e-001
    5.2631578947368418e-001 4.9999999999999994e-001
    5.2631578947368418e-001 4.9999999999999994e-001
    5.2631578947368418e-001 4.9999999999999994e-001
    5.2631578947368418e-001 4.9999999999999994e-001
    5.2631578947368418e-001 4.9999999999999994e-001
    5.2631578947368418e-001 4.9999999999999994e-001
    5.2631578947368418e-001 4.9999999999999994e-001
    5.2631578947368418e-001 4.9999999999999994e-001
    5.2631578947368418e-001 4.9999999999999994e-001
    5.2631578947368418e-001 4.9999999999999994e-001
    5.2631578947368418e-001 4.9999999999999994e-001</output_scale>
  <inv_output_scale>
    1.8999999999999999e+000 -9.4999999999999996e-001
    1.8999999999999999e+000 -9.4999999999999996e-001
    1.8999999999999999e+000 -9.4999999999999996e-001
    1.8999999999999999e+000 -9.4999999999999996e-001
    1.8999999999999999e+000 -9.4999999999999996e-001
    1.8999999999999999e+000 -9.4999999999999996e-001
    1.8999999999999999e+000 -9.4999999999999996e-001
    1.8999999999999999e+000 -9.4999999999999996e-001
    1.8999999999999999e+000 -9.4999999999999996e-001
    1.8999999999999999e+000 -9.4999999999999996e-001
    1.8999999999999999e+000 -9.4999999999999996e-001
    1.8999999999999999e+000 -9.4999999999999996e-001
    1.8999999999999999e+000 -9.4999999999999996e-001
    1.8999999999999999e+000 -9.4999999999999996e-001
    1.8999999999999999e+000 -9.4999999999999996e-001
    1.8999999999999999e+000 -9.4999999999999996e-001
    1.8999999999999999e+000 -9.4999999999999996e-001
    1.8999999999999999e+000 -9.4999999999999996e-001
    1.8999999999999999e+000 -9.4999999999999996e-001
    1.8999999999999999e+000 -9.4999999999999996e-001
    1.8999999999999999e+000 -9.4999999999999996e-001
    1.8999999999999999e+000 -9.4999999999999996e-001
    1.8999999999999999e+000 -9.4999999999999996e-001
    1.8999999999999999e+000 -9.4999999999999996e-001
    1.8999999999999999e+000 -9.4999999999999996e-001
    1.8999999999999999e+000 -9.4999999999999996e-001
    1.8999999999999999e+000 -9.4999999999999996e-001
    1.8999999999999999e+000 -9.4999999999999996e-001
    1.8999999999999999e+000 -9.4999999999999996e-001
    1.8999999999999999e+000 -9.4999999999999996e-001
    1.8999999999999999e+000 -9.4999999999999996e-001</inv_output_scale>
  <weights>
    <_>
      -6.5983905344297122e-001 3.6507924787062274e-001
      3.5034249996391903e-001 7.2858526479478006e-002
      -5.7612236829292252e-001 -6.3370283801041305e-001
      6.3179172765334513e-001 8.2859088857554775e-001
      -3.4845044665203218e-001 -8.3954142646765639e-001
      2.0090906946577730e-001 -3.1254656665417513e-001
      5.9209541664041243e-001 8.4968918369703217e-001
      -1.6740530745968976e+000 6.8786985724338978e-001
      1.2481309394346435e-001 6.6171007969765594e-001
      8.4293879014329209e-001 1.1446713001422002e+000
      5.0133635175802682e-001 6.2954557276877721e-001
      3.4461742026734010e-001 8.9797388002420958e-003
      -1.4697475913812126e+000 7.4076004150614924e-002
      -4.8096421546906959e-001 -9.1835650099030253e-001
      1.9386712636211845e-001 2.9044181730440033e-001
      -2.9208300734588627e-001 -3.6569129213067042e-002
      1.8984806731152873e-001 -1.0598393402375006e+000
      -4.7729432851108161e-001 -3.3579509076250019e-001
      -1.0915004250737075e+000 1.9522409514782324e-001
      -4.6286097479532046e-001 -2.5324669635957586e-001
      1.5582762726435165e-001 -7.0903801475514527e-001
      7.5665885477350703e-001 3.7632487899157928e-002
      -7.1877570542769620e-001 4.8032330253251054e-001
      2.0134442726431695e-001 -2.8700777216199896e-001
      5.2935254210890881e-001 1.1604893168177201e-001
      -3.6052757941096802e-001 -2.1619125539437758e-001
      -5.2775182813658505e-002 6.9461580359619746e-001
      3.9638699408729894e-001 2.9813935841930056e-001
      4.1203054850187398e-001 -3.0399582301660016e-001
      -1.6091143315264600e+000 6.8942601060225295e-001
      -9.5624050649585818e-002 8.5229398468217932e-001
      -4.0978246662975099e-001 7.6527467158214302e-001
      3.3090687138264258e-001 -7.5726543581876105e-001
      -1.1105435939958059e+000 -5.7829695604631992e-001
      6.4678255827032860e-001 4.9362850046378415e-001
      -1.6653530368931277e-001 8.7584935183409063e-001
      -1.2281341891315686e-001 9.0536947047376137e-001
      -1.7478135694792388e-001 6.5412739425211330e-001
      -1.5467925879705742e+000 -5.3009103059043094e-001
      7.8355065823324843e-001 -5.9414313380083505e-001
      6.9088619635623316e-001 1.3810199426893579e+000
      4.3944343092174470e-001 -1.3528521557873459e+000
      -7.8100025287826669e-001 -1.2971993603816073e-001
      -9.5530386777712722e-002 2.3436552759236156e-002
      9.6482608819817495e-001 1.2082561741831052e-001
      -2.2839850681863960e-001 -7.1531498643942176e-002
      -2.3041941637741488e+000 2.8335950144000255e-001
      1.7611440190559410e-001 3.1560277413062110e-002
      1.6237180157713474e-001 8.3371951004419922e-002
      -4.5314809265567907e-001 -7.8621076933618717e-001
      5.0550925449850825e-001 1.1928851504453569e-001
      -2.6557301003037115e-001 -4.6057628159730130e-001
      6.1444125016983382e-002 -5.6219879401076089e-001
      -1.2382268317126157e+000 -4.4652426574469306e-001
      -4.4270902331944145e-001 4.1968437009837006e-001
      5.0546505752370408e-001 -2.2954778325270175e+000
      -1.1880867254330731e+000 7.2908358106228532e-002
      -7.0364220511138176e-001 6.1982144445394383e-001
      5.2118145804065175e-001 3.3808323859025807e-001
      8.0373193716167080e-001 -5.0866169416603317e-002
      8.1881934893537067e-001 8.1939349548671003e-001
      1.1484044421330598e-001 -9.4315454212287897e-001
      1.1384879996526418e+000 -2.8710528198380297e-001
      8.4967035026983928e-001 3.9851830449197639e-001
      6.3213136855767749e-001 -4.1245535554253643e-001
      7.1873369356778827e-001 -1.9353238281435836e+000
      -2.1461333885705716e+000 -1.8671513573127033e-001
      3.4109766003794917e-001 7.9078009608560901e-002
      -1.5395402954929902e+000 1.4004942483719212e+000
      -4.3558680973474551e-001 1.4737478108674285e-001
      -1.5837744352880412e-001 5.6592347857336700e-001
      5.4107260459176831e-001 1.2647485195181334e+000
      1.0308696639899918e-001 -1.8683917353110617e+000
      -9.8133217342695833e-001 7.1565421682235664e-001
      1.4834159966069257e-001 -3.3046821610035998e-001
      -1.2036996014901448e-001 5.7682674356792563e-001
      -6.6415300875385264e-001 9.3456344273450198e-001
      -3.5180547529525363e-001 1.1648470305068637e+000
      -3.4428775590244848e-002 3.3559057026808270e-001
      5.7920010477252271e-001 1.1329325650828121e+000
      6.1938508433747863e-001 -6.1580962422227825e-002
      8.5866562462626406e-001 -4.2709438328896993e-001
      2.1049721975905422e+000 -4.0322693314806568e-001
      4.4228585954276745e-001 -6.7293159291803628e-001
      2.5911428055786208e+000 -1.4909048463543606e-002
      3.6095639736383284e-001 -5.5619644354460618e-001
      -1.5429640068210218e-001 1.3896373971563405e+000
      2.4360222343394378e-001 -4.9267642317363081e-001
      -1.5142489056166704e+000 1.5026909263230352e+000
      -3.0836404996245886e-001 6.5646916277454026e-001
      -3.3515278615006239e-001 1.6236667877444191e-001
      1.0002956097661525e-001 2.9615287801323659e-001
      9.2473087067617554e-001 -2.0160441330477776e+000
      9.1710106436020933e-001 1.2403811419366912e+000
      1.3671852608218491e+000 -5.0699303698946618e-001
      -1.0557176675544531e+000 6.7336495334768243e-001
      -7.4726067485216563e-001 -4.4951219099121970e-001
      -5.4970588022435918e-001 -9.8129741627553013e-001
      -5.7329017324266862e-001 -1.6820297374364785e+000
      -1.3744908003554261e+000 -3.2813612703525799e-002
      1.1641360182552894e-001 -6.7168778002411600e-001
      -4.4363067981506005e-001 -1.1887266799499872e+000
      1.8357002559707378e+000 1.8297120282888955e-002
      8.2095606228495077e-001 -5.1649542998216968e-001
      1.1136296412795841e+000 6.9088479714983345e-002
      -5.3178335392886777e-001 6.4651152849317950e-001
      6.4314682735800299e-001 1.4591546547036445e+000
      -7.7100640077392268e-001 -9.3561882405110597e-002
      -1.4341498377052160e+000 1.4981230576827960e+000
      -1.1857142197059073e-001 -1.0396745009419925e-001
      3.3268938425299960e-001 -5.6176034276825115e-001
      -3.2541277307555649e-001 1.6087048275848521e+000
      1.3739374542178542e+000 -4.7804793039887705e-001
      1.5839460140861283e+000 6.3571165899718018e-001
      9.3116129776502132e-001 2.9772135179787673e-001
      -2.7115097539995836e-001 1.8329267235192754e+000
      -5.2226555663062946e-002 -1.8587845681002613e+000
      5.5749501999101625e-001 -3.5833278071265538e-002
      -1.2391459916545864e+000 -1.4663681404473106e+000
      -2.3275752618192946e+000 -1.1445070509067364e-001
      -1.1537381731464085e+000 -7.1127397689355054e-001
      1.0682117078251012e+000 9.8798492116380776e-001
      -2.2942926628503577e-001 -8.6774992724857436e-001
      1.2347707252310698e+000 -1.8400875743418159e+000
      3.9253041437239966e-001 -1.3784145495850042e-001
      -1.1293746483594482e+000 1.0197903450310095e+000
      -3.6873021902173664e-001 2.0969367650955012e-001
      -1.1574830932136551e+000 2.6755251637276618e-002
      3.7980042882157670e-003 1.6913638319462989e+000
      8.8507508716474925e-001 -9.6329541866887092e-001
      -4.8791016047485170e-001 3.3284591067883296e-001
      1.4947836515834548e-001 1.5029931634780054e+000
      1.8295755425619040e+000 -1.2502790765440421e+000
      7.4604267689265946e-001 2.2685542402910324e+000
      1.2909669469741242e-001 6.7309139539865437e-001
      5.2655881494487788e-001 -1.8332496052675145e+000
      6.3965089390641250e-001 -8.2193346113995414e-001
      8.1984822971378346e-001 2.5814030284515055e+000
      8.1657337184901291e-001 -6.1057981609405376e-001
      -1.1063763765974763e+000 -5.9874637189897863e-002
      -2.2928923619234604e-001 -8.4973790092821511e-001
      -3.3879852556896406e-001 4.9092077342851509e-001
      6.4350065561014491e-001 -1.0430272457343601e+000
      2.9758834785882242e+000 -9.3468667622701840e-001
      1.6079463423806177e+000 1.7219182141645548e-001
      -1.0460123595264563e-001 6.8822736492448955e-001
      -1.1623918594621854e+000 -1.1847507095776541e-002
      -1.8322806875209572e+000 6.7625280259034215e-001
      7.1469191970483537e-001 1.4319213824556796e+000
      -7.1071166189779678e-001 -2.1917448558261627e+000
      -1.5975689395167008e+000 9.3283167603182793e-001
      1.5787154389328224e+000 6.8175953437495551e-001
      2.0207047664790956e+000 -5.4711089545338187e-001
      1.1187442141682218e+000 -7.6398341882042786e-001
      1.0964468600646740e-001 -2.8205822263936614e-001
      3.4642647683629751e-001 -2.8438447974146372e+000
      5.0717571870658718e-001 -1.2440991189554835e+000
      2.7151840925756715e-001 2.4755315778301750e+000
      5.5671762636353372e-001 -1.4477064522427825e+000
      -1.1328535427869975e+000 1.5400509033556635e+000
      1.1193493214396948e+000 -1.4335206708855237e+000
      5.5739549461708848e-001 1.4047591983736820e+000
      3.3541252123578041e-001 -5.7985725259036547e-001
      1.4074370374759209e+000 1.6780406700075134e-001
      2.1773130274518278e+000 2.6848110908145950e-001
      7.8079161992892199e-001 3.0860010912845483e-002
      -1.5571775353220271e-001 -1.2920424703254789e+000
      2.2725728620572466e-001 1.5663239184432818e+000
      -4.7293673226797361e-001 1.6103217973069348e+000
      -3.4924935768662618e-001 -1.0918064467257502e+000
      -1.4616483165591883e+000 9.4121230110264953e-001
      -8.2789981606246621e-003 -2.9839644495789980e-002
      1.0972903535034170e-001 -2.2668089975370287e-001
      7.6143699642356921e-001 9.3452469787084902e-001
      -2.5095065824999152e-001 4.8363907283594521e-001
      1.2600032250700277e+000 -1.0167194866161502e+000
      1.8010335269916070e-001 -9.8102114059291989e-001
      2.7183887045969135e-001 4.9891724236344054e-001
      4.7738559149581700e-001 4.4806968952426135e-001
      -2.4224260266250091e+000 8.0730476421545372e-001
      -5.4172847754058628e-001 -9.7149299960099733e-001
      9.9239753279078025e-001 -5.8659669905371559e-001
      -6.5054686066015177e-001 -2.0481111406418942e-001
      9.7052925115649014e-001 4.5987115361500512e-002
      2.2396475075140683e+000 1.2003715044597574e+000
      6.8323491189387819e-001 1.2521841004406324e+000
      -3.9356080986762842e-001 -1.5904490261483053e+000
      -4.1211983101303917e-001 2.6840339520906875e-001
      7.3533764548095915e-001 1.3454056321594424e-001
      8.3947326808073597e-001 -1.5102062676315642e+000
      -6.4627245788738108e-001 1.3390162198492670e+000
      2.2019503401833016e+000 -3.8889349425892916e-001
      -4.1769443459936956e-001 4.8186388873372878e-002
      -3.7427217441604782e-001 4.7781819340438064e-001
      -1.0732693786593970e+000 -5.4370207378207114e-001
      -7.9351937990306443e-001 1.9436671008372891e-001
      -8.8908784957301878e-001 5.3087177663453777e-001
      1.6821312162368376e+000 1.1872513573783439e+000
      1.1377589735174263e+000 -5.8020828369328836e-001
      -1.3125839373466026e+000 -1.3691342375535221e-002
      -1.1156504707914769e+000 -2.0562430693765696e-001
      1.6810266405226924e+000 -7.8548934990555130e-001
      6.0874224701106971e-001 -7.7249017523170549e-001
      -1.3316834046371175e+000 -1.1004276377471784e+000
      1.2339670163012415e+000 8.9204648352958507e-002
      6.3738868801321069e-001 -9.6047703533758744e-001
      -9.3960623252629738e-001 -2.2485814210726094e+000
      8.1610526631875857e-001 1.2555799534281320e-001
      -1.6287969179801992e-001 2.6066428122084284e-001
      -2.3193549310032177e-001 -9.1439775131664025e-001
      5.1093552713554524e-001 6.2362524297204319e-002
      -1.6993745377478586e-001 -2.2496620678192328e-001
      -1.2729802888233444e+000 -5.5023662984050381e-001
      2.1113299819329794e+000 2.6581595662810548e-001
      -1.0216050683486435e+000 2.6773850219277889e-001
      -2.8886549815501883e-001 -6.5332766617282378e-002
      -2.6656821651673379e-001 -1.3563026560024602e+000
      -8.7942895901664209e-001 -5.4220236475963068e-001
      -1.3193627953465510e+000 -1.0732703988435042e+000
      -2.6823942210923364e+000 4.1974011184080146e-001
      -5.7710341822582378e-001 -1.1343239752721048e+000
      1.0683841821742341e+000 -6.5381823398382855e-001
      2.3592742579063189e-001 -3.4728811859164832e-001
      -9.5263724968394992e-001 -5.2502639396353412e-001
      1.2409271477490769e+000 -4.4717118306721815e-002
      -1.5266792398323214e-002 -4.7077098119725569e-001
      5.7915582348910921e-002 8.3910840103566878e-002
      -1.0943354701086410e+000 9.1176832536383168e-001
      -1.4673337760186103e+000 7.7905425997666811e-001
      -4.7176962891402802e-001 -1.5724393842545465e+000
      6.8401941526455190e-001 -1.4610081474776291e+000
      -4.5097727544001837e-001 1.1280996695561761e-001
      -1.6174302847178859e+000 1.7417926393147487e-001
      1.1080502523045757e+000 -2.7841306719837183e-001
      -1.1894317666060461e+000 -3.9749943955624234e-001
      -5.5992282776112165e-002 -4.4642437462912060e-001
      1.6458063036675661e+000 7.0949535479641734e-001
      -5.6136623996683808e-002 -9.1942596923772890e-001
      7.3097869476767852e-001 -5.1695879902138553e-001
      -1.6647466768078192e+000 -3.2044991811941154e-001
      -3.8483946202783548e-001 -1.2535468359395820e+000
      4.6342975346859860e-001 -5.2364464049570826e-002
      -9.6000371202933077e-001 -5.1111778368937522e-001
      -1.8396522309967147e+000 -1.2672478259388451e+000
      -1.3884726560486687e+000 -2.7106897771351175e-002
      8.0445105583601850e-002 4.0453779620803643e-001
      -2.3272826832996922e+000 -8.5796694391494799e-001
      -1.1233495777743954e+000 1.9698566242321325e+000
      -9.5567678307566162e-001 2.5732108927058746e+000
      1.6963940197571614e-001 -1.1862878362846030e+000
      -1.2051552029477970e-001 -6.5520559336126982e-001
      -7.1037148412892726e-001 1.6903949729139127e+000
      2.8474745782380012e-001 -7.3127150629505522e-001
      8.8484287760979852e-001 -1.2325060566816746e+000
      -8.0263720934671634e-001 -4.5034639615048172e-001
      -2.0187747713122844e-001 3.2720671185922356e-001
      8.5789964910919170e-001 -1.1564960987769577e+000
      1.3632580545146816e-001 -6.5432429632759170e-001
      5.5531774224871322e-001 5.4848558760378552e-001
      1.5663155275321336e-001 1.1495290640371618e+000
      3.7541904043163304e-001 -5.5548611149636562e-001
      9.3224479803760341e-001 3.8190562030612174e-001
      -2.3978343926405254e+000 -9.8336423491700586e-001
      7.1693807214596050e-001 -7.0605732585607650e-001
      -1.6214672203979572e+000 -5.3526040593732749e-001
      7.4277016187247114e-001 1.3680889265996949e+000
      -2.6215350298730331e+000 -1.6957868268937613e+000
      8.5503547735615948e-001 3.9903826666839270e-001
      -9.1632510704152315e-001 2.9457629220798593e+000
      8.8834940251102890e-002 9.4581345163839772e-002
      9.2208450367427364e-001 8.8131956060686112e-001
      -1.3793281488177889e-001 1.8414312253254208e+000
      1.7894614982591621e+000 1.3652049899971095e+000
      1.6989154405493873e-001 1.2670811197452923e+000
      -2.4230665025226616e-001 8.2160695178473089e-002
      1.5299187079589271e+000 1.3371281301663199e-001
      -9.7243750313769495e-001 -6.4185549607871306e-001
      1.6633385573154866e-001 6.8161909363913475e-001
      -6.0586227089841327e-001 1.4393039542875449e-001
      -3.7461271549765268e-001 8.4095701569593184e-001
      2.1045022957795839e-001 -6.0243254152336456e-001
      -1.0151498860088579e+000 -1.1212538978211368e+000
      -3.5737077449917914e-001 -3.9378430016704091e-001
      -2.5365921528212625e+000 -3.4691139283067396e-001
      8.0935147673135632e-001 2.7684062482672472e-001
      2.0622417743949457e+000 3.7996498046797073e-001
      -1.5739227648294329e+000 6.6359825713884280e-001
      1.0110700894104683e+000 -1.2972868397617299e+000
      -1.0024105206449674e+000 2.7019441503051529e+000
      -7.8690692280668617e-001 -5.7241082498521056e-001
      -7.3250622842547264e-001 9.1557303390464168e-003
      1.3714969814767206e+000 9.8033916527120446e-001
      2.1187494378396425e+000 -9.2156568007162432e-001
      1.6466357602549708e+000 1.0211691450525890e+000
      7.7590998234382302e-001 -4.3201414650053516e-001
      -4.0310254820758762e-001 -3.5731322777809708e-002
      -1.1009711696256590e+000 -6.6408481587815094e-001
      1.0157200429216438e+000 9.7311358254809979e-002
      6.4537767814680624e-001 -1.5414418915096545e-001
      -3.0854151684155107e-001 1.6981428154612740e-001
      1.2415375320228725e+000 7.0444376444250068e-001
      4.4986218575657218e-002 -4.6186243023663082e-001
      8.6487809156043272e-001 -5.5999170677043386e-001
      6.0356151345507159e-001 -1.0725411077452365e+000
      -5.3398901970303014e-001 9.5813248424744990e-001
      1.1145074166162743e+000 4.7095246470060137e-001
      -1.2332850981783574e+000 7.6729372075799229e-001
      1.0626350222158620e+000 -2.2103038458302362e+000
      -1.0748336879487264e+000 -3.3306039636616064e-001
      5.9370950032613634e-001 -6.8305060781459082e-001
      -1.3573015358694590e-001 5.1817329819125280e-001
      1.2028691154176774e+000 6.3238328738253269e-001
      1.2590831700550933e+000 -2.5112010639216287e+000
      9.2269100474764465e-001 1.5621598115024267e+000
      -2.2790269403129285e-001 -1.0569536041213279e+000
      4.4255431150810681e-001 3.1630633269226516e-001
      -4.6618955604493528e-001 -9.2187317846027994e-001
      9.0094076536066964e-002 -1.0675024202903541e-001
      5.6360307799376752e-001 -3.7607544154961742e-001
      -2.3205430558350851e-002 1.7246008403639793e-001
      6.2931501917793020e-001 7.0577505957940101e-001
      -6.0594555642034686e-001 -3.8495126576270666e-001
      5.2975036519985780e-002 1.3732133429377985e-001
      1.7087871311096441e+000 -1.1496336203915687e+000
      3.0828029980211509e-002 -5.0938043341502559e-001
      7.6879970924866747e-001 -5.7916002192539295e-001
      -2.8470184642472507e-001 5.5783018431398712e-001
      1.1578860452587323e+000 -2.0325191922960051e+000
      1.6027183809702861e-002 4.3899822080602757e-001
      -9.5476809436952781e-001 -8.1649782525196157e-001
      -9.6545307035108963e-001 -4.4597095940126730e-001
      9.0081894769916149e-001 5.5464362742147477e-001
      8.9417973411114315e-001 -1.6081458598047196e+000
      9.0594680398377048e-001 2.2874172501730881e+000
      -3.9611597917319902e-001 6.6425077126427548e-002
      1.4638990353994292e+000 -5.1702430851210246e-001
      -3.7506545590049795e-001 -4.0915169604341056e-001
      -4.9838690744772995e-001 -4.2829052927409395e-001
      -1.0191051902282549e+000 -1.0426261010820628e+000
      2.7922080053656656e-001 -5.1847860473033254e-002
      9.9858614302620707e-001 1.1210901109241542e+000
      4.5196794229830112e-001 -4.5289436674691291e-001
      1.0811707145607181e-001 8.8690137364268795e-001
      8.4112718187600721e-001 -1.6215546516036368e+000
      1.0950146676542681e-001 8.7809569257691422e-001
      1.4234271987179309e-001 1.2445603944220696e-001
      -6.7663456656571008e-001 7.8474299018714488e-001
      9.6637700389975922e-001 6.0738428089771779e-001
      1.2061854855272523e-001 3.9093656587580572e-001
      1.0371552645533687e-001 -5.8302330974084840e-002
      -5.5270452615366694e-001 2.9506940521023584e-001
      6.8581016133344386e-002 7.6006112646885082e-001
      -2.7494196463999354e-001 -1.0647013442929192e+000
      -2.6603621887159190e-001 1.1960423298233060e+000
      4.4206510022231937e-001 1.4951457622206366e-002
      -1.0843242411688511e-002 1.1879804198090489e+000
      -7.7581100219389604e-002 6.2075395082959706e-001
      2.4687015229172254e-001 5.9942954833907336e-001
      -2.3644879816976791e-001 -1.1887929867413742e+000
      -6.5387788665255420e-001 -1.1364189964746824e-001
      -3.5118784531200609e-001 -6.1739170142443089e-001
      1.3326316977035941e+000 8.4596047136293873e-001
      -1.9198075405380899e+000 2.9877995961546211e-001
      -7.7172710033068928e-002 7.4612314301412730e-001
      -3.0188590295154166e-001 2.8557406059319457e-001
      1.3283113604189917e-001 -1.2249099878040802e-001
      -2.3696916290780387e-001 9.9953282324885862e-001
      1.0470981520998321e-001 -6.1530728387243649e-001
      -3.8870531254630186e-001 -1.4105702040707493e+000
      7.8071679946912775e-002 -5.3957633164080976e-001
      -1.1743584499020845e-001 5.5083328533790075e-003
      4.9691057532869792e-001 1.1915964187962161e-002
      5.6305559854046183e-001 5.8736737551519769e-001
      2.6992807652418483e-003 5.2687101609873510e-001
      3.6220940676773095e-001 6.2603506758820493e-001
      -1.5456669776796987e-003 2.1756770968161010e-001
      6.2637147824215611e-001 -1.5360404667794496e+000
      -1.8941385955573023e-001 -1.0598632866744833e+000
      -2.8353003384162317e-001 -3.8541534478787387e-001
      -7.5720628004147403e-002 -4.4432939320946296e-001
      -1.5409998283621568e-001 1.3330473063047593e-001
      1.2463377238887906e-001 2.4287663061045353e-001
      7.6884550669617011e-002 -1.1303012162253772e+000
      4.9888480802747021e-001 -5.5773133383491647e-001
      2.4992036078988633e-001 8.9907429351454085e-002
      9.2584806217998125e-002 -3.2092269342505042e-001
      5.7313247161935765e-001 9.9349917843400318e-002
      -4.4099851006694785e-001 -2.6440351156548703e-001
      1.0004410316916505e-001 6.3597799911983122e-001
      2.6051734068064480e-001 5.7230835227829535e-001
      8.5529970451493062e-002 9.8231238763856210e-001
      2.6158487301518546e-001 3.3257552626573643e-002
      -1.4848889132387693e+000 2.6756625063624440e-001
      -3.8881057148623571e-001 -5.2812375502459441e-001
      1.4962451285092002e-001 1.1268313321306901e-001
      -6.5415593353618662e-001 1.7323172186456298e-001
      -5.0007487949353757e-001 -2.7459309695499207e-001
      1.5903988367170555e-001 -1.4814725423064415e-001
      6.7591350841654840e-001 1.3872740088968138e-001
      3.7217045268276633e-001 -1.0020542155484926e-002
      -6.9412527450264183e-001 2.1858049573479776e-001
      2.0397996117437567e-001 -9.6422072337468889e-001
      -5.9330995151315036e-001 2.3554375353799739e-001
      3.1771517866409787e-001 3.0897647444719473e-001
      -1.6135494081681221e+000 -7.0061129171201608e-001
      -7.0270239049113303e-001 -1.2606437043130458e+000
      -6.0117404500505667e-001 8.6391845214964336e-001
      6.6376827210216971e-001 -1.9457073090005242e-001
      9.8764271832392836e-001 -8.3443405632330925e-001
      -1.7545539895678749e-001 2.4878439750245299e-001
      -5.3168061155255748e-002 -1.5338488292144672e-001
      -1.0724861255397620e+000 2.3347104324434995e-001
      -1.0112779710450988e+000 9.0517126314653851e-001
      -6.2437684603989636e-002 -9.3280548138017991e-002
      2.6824401638126102e-002 4.4482397825365522e-001
      -1.9957010213436926e-001 1.5188558520509836e+000
      -5.4998047117547655e-001 1.0698452903732540e+000
      -5.5901070151222620e-001 -4.1817107450309288e-001
      -3.9062775797223481e-001 3.6161841690964935e-001
      7.1449874047004938e-002 -2.1491078707482558e-001
      -1.2846445854407407e+000 5.3600017318855520e-001
      4.1754055912512100e-001 1.0026723795810553e+000
      -3.4466718515513523e-001 -5.0470620066925398e-001
      -3.3499028224666855e-001 1.5629241183150946e+000
      -2.1258059323057319e+000 -3.7542429679438410e-001
      -3.7719049427502477e-001 -1.3441152190811672e+000
      1.6529320783874990e-001 3.7110264812388749e-001
      -8.6199599632566770e-001 1.1864063915904488e+000
      2.6458322540620975e+000 -4.3938695377918857e-001
      7.6475700537667524e-001 -1.2456804340649114e-001
      1.4730204811120773e+000 1.2505848647437510e+000
      -8.3028462015331084e-001 7.4597681915363978e-001
      9.3106324785791850e-001 -3.8790808525879472e-001
      -1.5546508979331446e+000 -6.8011496429743712e-001
      5.2013572432088562e-001 -7.6787273688946411e-001
      1.3611118370681110e+000 1.9157144737868212e+000
      1.1428490728087668e+000 -8.9655871477968752e-001
      -4.9519690184518961e-001 -1.5721605740566797e+000
      2.1344078925192653e-001 5.1176464909590680e-001
      5.9308464887408896e-001 -1.8271818693378397e-001
      4.4256382946242140e-001 1.2059632958959752e+000
      2.3138727946461572e+000 -1.6529578641841053e-001
      -1.5903945963364272e+000 -3.8625545828394253e-001
      -2.4143154617909439e+000 -1.2595566980408985e+000
      -2.3715344777722153e-001 -4.4885000553178933e-001
      -6.7625166112543900e-001 -7.8974814205381427e-001
      1.4990737236750427e+000 1.2637866419860238e+000
      -1.6903488189526890e+000 8.5719661414788662e-001
      5.6381848720143873e-002 3.4525806391048419e-001
      -6.5309453996224398e-002 -1.1340110756515347e+000
      -3.9434217656878318e-001 2.7965868989729614e-001
      -2.1999275457638405e+000 4.2721357262491694e-001
      -7.0962068494058694e-001 1.0452888199390056e-001
      -1.2146138821162460e+000 -1.5063511181374862e+000
      1.1864096014165717e+000 1.6949457163626436e+000
      8.3216100793695258e-001 7.9153145571461370e-001
      -9.4134750024570713e-001 3.6176746523115207e-002
      -1.8611607022174339e+000 -2.9551406375963487e+000
      -1.0621382527395353e+000 1.3791756006136340e+000
      8.0724157106671002e-001 -1.1780371995537231e+000
      2.2966918007623746e-001 8.4569118220890604e-001
      1.0098648052399619e+000 -1.2984385379852406e-001
      -8.0187090117883353e-001 1.8763959311833853e+000
      1.3684589553352070e-001 -2.3439649994270111e+000
      -3.4204784850364123e-001 -3.5063740188764886e-001
      -2.0199729666866229e+000 7.0084561795702982e-001
      6.1774917211390012e-001 2.3851461280143546e-001
      -5.4283034306596467e-001 1.3964527159941154e-001
      8.8033250915310146e-001 -1.5270681065711149e+000
      -1.0982951907897500e+000 9.7138467525769090e-001
      -1.3053483786379369e-001 -4.3898063922468689e-001
      1.1019632021364960e+000 -6.4405254670762391e-001
      -1.8746415630818544e-001 1.4564412196370091e-001
      -7.1258217421812264e-001 4.8640426192651848e-001
      7.2539372406441305e-001 5.0230253470561026e-001
      6.1982511928022932e-001 6.5797077683487704e-001
      8.0671440311869747e-001 4.4270604133139151e-002
      1.5112769929819517e-001 -1.1201935715533189e+000
      3.0572449599204971e-001 2.0586199010591483e-001
      5.1662010196506902e-001 -8.7831411713221086e-001
      -5.0180479550845736e-001 1.4656775288128399e+000
      -5.4580561336126920e-001 -4.7662403010627347e-001
      -4.5270274922897008e-001 2.0694892820251307e+000
      3.0998739923943242e-001 6.0305660869032118e-001
      1.9202251558322320e-001 -7.6102071843044850e-001
      -3.3637948872406309e-001 7.6254660536836194e-001
      -4.6877728425875507e-003 -1.0576374871172149e+000
      -1.4663146808901926e+000 8.2686215557899667e-001
      5.0847505095914503e-001 -8.2255044676237299e-001
      -5.1188552415552135e-001 1.0504679717998546e+000
      -6.2004504830097940e-001 1.4616559008545207e+000
      8.8502360356096321e-002 -1.6795140324258009e+000
      5.2258681721428668e-001 -7.1388615923975318e-001
      -7.8954960933364071e-001 -3.3866674288608312e-001
      3.2229503925385622e-001 1.1728542239698809e+000
      -2.4448997149989832e-001 1.4070708928801187e-001
      1.1675845087988630e-001 8.2344379092511899e-001
      1.0618964433479315e-001 7.6958918952752176e-001
      6.3795121007845157e-001 2.3852127863958583e-001
      6.7282399863166920e-001 -8.3345587685399225e-001
      -2.7223775657764870e-001 5.1865147337337369e-001
      -6.6746844816276030e-001 -1.3754683066453046e+000
      -1.1172457972742602e+000 1.0522092933680108e-001
      7.0053130210435721e-001 -5.0251567438565181e-001
      -2.2553206420758554e+000 3.7817124028559479e-001
      -5.9600652354860617e-001 -5.6876488295101968e-001
      -4.2079965295418753e-001 7.1324551906679590e-001
      6.1733115618157297e-001 1.6770947895031727e+000
      3.1656437631608308e-001 -6.8236944410058686e-001
      -7.3226797693982781e-001 1.2470727018872800e+000
      -8.7687593032839162e-001 8.1664255657816842e-001
      -7.6155182233826579e-001 -7.4659608917008458e-001
      -5.1708162235010380e-001 5.0580428742721639e-001
      -4.0211369503172029e-001 -1.1634016949164061e+000
      1.0473210481205368e+000 -2.7384769862319586e-001
      1.3348478692995297e-001 5.8965732073121324e-001
      -7.7863716043965303e-002 2.0482620319893083e+000
      5.6618572285870583e-001 -1.5894295158659086e-001
      1.7948930658914370e+000 1.9439592823773117e+000
      1.5900850691123007e+000 -1.0322984840353742e+000
      5.6890905763548227e-001 8.8744364304027445e-001
      -4.0935152256513441e-001 -6.0413361499625462e-001
      -1.3508614303375344e+000 -5.4510325823736816e-001
      2.0913755267602014e+000 -4.0854290288110889e-001
      -3.6531211246607098e-001 6.4912301903495029e-001
      -5.3364692724987817e-001 1.9082071442912013e-001
      -8.3369974704365668e-001 2.1544435011982808e+000
      -9.2334921338493792e-001 -3.2451506188944441e-002
      1.6734486610988479e+000 -1.1359065561721358e+000
      -3.4732427954688179e-002 8.8966342615579552e-001
      -6.4421914408186576e-001 8.3822620305898543e-001
      5.1716291856660646e-001 -1.2386724954745794e+000
      -1.1890411672034369e+000 1.2169859486386010e+000
      -1.0679073251490105e-001 -5.9498112249772794e-001
      -2.0390639335156491e-002 -1.6759819902914144e-001
      4.8445451692069763e-001 2.2944034127462944e+000
      1.3935331560469946e-001 9.4480244268967928e-001
      3.1008798423954415e-001 8.2054328869675175e-001
      1.5210135283646942e+000 1.5746560706113157e+000
      1.8953785189561569e+000 -1.0814712789744070e+000
      -6.5625698246825626e-001 -1.3608987015843006e+000
      6.5431971282612522e-001 -1.2556141295667604e+000
      -1.5397165712997485e+000 5.1682520067646520e-001
      2.2823594841733890e+000 -3.9266968551042551e-002
      8.8685178978717381e-003 3.7039611719915261e-001
      -4.8287819052324193e-001 -8.9614775824401793e-001
      1.0152108574945264e+000 1.7944536601902565e+000
      6.3118564815552808e-002 1.7794743497399685e+000
      -2.2079460814931406e-001 -2.9736428272214815e-002
      1.9275583861178650e-001 1.0971023280138466e+000
      1.3118022522518040e+000 -7.1122265564655873e-001
      6.8344316570481767e-001 -8.4743678979667303e-001
      -1.1771652279087397e+000 5.5183333302182036e-001
      -1.7816492465409215e+000 -1.4599247972257792e+000
      -2.3876986762342133e-002 -1.1374413785198862e+000
      3.9169650766386555e-001 3.6286081541059539e-001
      -1.6506232566218806e-001 6.1816787863838585e-001
      7.1944240875965915e-001 1.5698469398404258e+000
      2.3809393716364102e+000 3.9746009794625331e-001
      1.0141611631516001e+000 -2.8083110498515612e-001
      -4.4681671734722261e-001 -6.1679655288558688e-001
      1.2243510860478546e+000 4.4986215180284578e-001
      -2.1021829779561401e+000 8.1176562319920420e-001
      6.6149462666481340e-001 -4.6822061270182402e-002
      4.0663045318117225e-001 9.1073877168599959e-001
      -2.6141304177783392e-001 1.1306698331054883e+000
      8.5585116998810246e-002 1.3358688398858365e+000
      8.9798207940812558e-002 8.3259272842383902e-001
      -1.1053293733654319e+000 -1.1415132591689952e+000
      4.0867976951352181e-001 -7.3916554338403739e-001
      -3.0932081980281095e-001 1.8003676759293963e-001
      3.1053658437958975e-001 -2.3330742987721292e-001
      2.4596171019813406e-001 -5.2365283097413151e-001
      -4.5848200457400656e-001 4.3373500211097438e-001
      -7.0510721648143160e-001 -6.4072770954658642e-001
      -3.3450981992220452e-001 9.5368485846926743e-001
      -9.9047054534080792e-001 -2.8118004375962669e-001
      -5.8017119034558307e-002 -1.6888260362399005e-001
      2.6608682470697698e-001 1.4061591914016160e+000
      9.4719374242005516e-001 2.0493091025316651e-001
      -1.3062541203105033e-001 3.6459022393913154e-001
      -2.3030440628134130e-001 -1.6107011502955607e-001
      -3.5359179579042919e+000 1.3513679406727466e+000
      -2.3594592516558924e-001 2.1415466223120568e-002
      2.0391842588421252e+000 1.9000914670591031e+000
      1.3586140876719282e+000 5.4748873829338840e-001
      1.5197019340411477e+000 5.4097060446208967e-001
      7.4698072045437824e-001 7.4557449771989692e-001
      -2.1562009424235934e-001 1.2200343961461282e+000
      -6.7905973800147901e-001 1.4964143364210927e-001
      -1.0788016059206829e+000 9.8818912863923081e-001
      -9.9041951157585642e-002 -3.7816012589982789e-001
      -8.4483652089079830e-001 2.1114761999646084e-001
      1.5413256486404184e-001 -7.3517490954896592e-001
      -1.2637829093978020e-001 -2.1356005115604328e+000
      1.4583087322340657e-001 4.4552593589825684e-001
      5.8358576946727903e-001 -1.3662692587445568e+000
      4.7201921577652606e-001 -9.2192654972886467e-001
      1.6603797493111641e+000 1.5059883650943784e+000
      6.0268156801045726e-002 -5.4000461255039989e-001
      3.1303227136660622e-001 3.4672564548327667e-001
      -5.0218784349212786e-001 1.7124999752215282e+000
      -1.3305588631624448e+000 8.2228961072451845e-001
      1.0646367231865583e+000 -6.2575697836233024e-001
      8.8349076589028486e-001 -8.0895796994249158e-001
      4.1438508138689911e-001 1.1571053764113430e+000
      1.7314092262219951e+000 -2.4034245478739198e+000
      -2.0936680094208363e-002 1.1787771345063669e+000
      -4.7044149172369915e-001 3.6686009749698356e-001
      -5.5347660744168159e-001 5.3863682474675600e-001
      -7.3835857554490114e-001 -3.4972558978409635e-001
      -1.1191764671229671e+000 -6.2361769832803826e-001
      -6.3327943431259437e-001 1.7816014669506375e+000
      1.5678736269335865e+000 -2.1978067806836243e+000
      -1.2560281358398311e+000 -1.3558225346523145e+000
      -1.0495556033696880e+000 -5.0835617075825845e-001
      -1.1860105456188219e-001 -3.3343787827356870e+000
      8.6651844618246088e-001 7.3232530671784601e-001
      1.7609538972329810e+000 -1.1522804035499051e-002
      -1.0186354033324491e-001 -1.0974269250398829e+000
      -4.0636871179391498e-001 -5.5224951288066548e-001
      -1.1006493143163787e+000 1.6591202223879040e+000
      -8.6399230149861284e-001 2.2792821675575921e+000
      7.6925027446093319e-001 1.8870681353599283e-001
      -2.8937025859276466e-001 -3.7781718890748767e-001
      9.9205313473789858e-001 6.1690264743712897e-001
      2.2466834049416491e+000 -2.5426738414530128e+000
      1.5755838839332212e+000 8.8019636416180869e-001
      1.4258459212059689e+000 3.5897454813095381e-001
      -9.0787405659982556e-001 1.0870189995647805e+000
      -1.1145144596092788e-001 1.0812125164363351e+000
      -2.2206437311371774e+000 3.5234181034944884e-002
      -5.4570508149663410e-001 1.9220741153126202e+000
      1.7943320707877963e+000 -1.1510285578658805e+000
      -4.0542320477201821e-001 -3.2605533174832835e-001
      -6.6502888603917487e-001 -2.8222685929811653e-001
      1.1526084822491756e+000 -7.0013850059153382e-001
      2.0446415004324114e-001 4.0746629897252334e-001
      -2.9821948451161767e-001 1.0290568390748702e+000
      2.1167751462758208e-001 -3.7309839261735527e-002
      2.4697818497730001e-001 1.1288887197237047e+000
      -5.5062342037921996e-001 5.1660703191980628e-001
      -1.6012987712544988e+000 1.6910543818033801e+000
      -1.5442837836953704e+000 4.5420814958557233e-004
      4.3810004496479482e-001 -1.0140954263058544e+000
      5.8111342159854451e-001 -7.1240076065198776e-001
      5.2347171042140983e-001 -6.5525860802746216e-001
      2.1748479185326511e-001 9.9326411093327827e-001
      3.0978901476974158e-001 1.6032650545785121e+000
      -4.4972616795970026e-003 -2.7116877796654520e-001
      5.9330527143524736e-001 8.0543286561231309e-001
      -6.8631632052181246e-001 -9.2339837165794376e-003
      -3.9234577287879596e-001 2.7645112628782749e+000
      1.4717026739926296e+000 -1.9669775517496972e+000
      5.7068011994952061e-001 -2.9870928761910104e-001
      4.2030399833242277e-001 -4.8867470274043551e-001
      3.8877273858684991e-001 -4.9767113063902420e-002
      -3.8038494511941667e-001 -2.1821171979257811e-001
      5.6314528305246046e-002 2.2827864770934503e+000
      -3.5561390094613010e-001 4.9589396278441017e-001
      4.7061523091524976e-002 9.4990558632251443e-001
      -1.1117291604569735e+000 1.7776218919942360e-001
      -2.5544681895622937e-002 1.0053186104238376e+000
      2.9655800155763298e-002 1.0208158315669504e+000
      -1.2628133817206433e-001 -1.9823821674009314e+000
      1.1553648608305900e+000 -2.7086026480484322e-002
      -1.5365852810215368e-002 -8.4596820115674443e-001
      7.4362463112175969e-001 3.3652432910474001e-001
      -2.1907987426413417e-001 1.7402009842290405e+000
      -2.1769427963558885e-001 -1.0060620876601944e+000
      9.6805252694846711e-001 1.3065378828693930e+000
      1.6527318464927812e-001 -1.4840177911441188e+000
      8.3274973752568104e-001 2.8577133291133774e+000
      2.4923559321051116e+000 -3.4545673820635097e+000
      2.0536526655068479e+000 8.3044584927394194e-002
      -9.3802874577994064e-002 -2.4507157867598919e-001
      -1.2614156391959483e+000 -2.0441426435171980e-001
      7.7916925490550598e-002 -5.6792841029975771e-001
      5.1278877041333715e-001 1.4188617086890964e+000
      -4.6243284464387170e-004 9.8928490406143554e-001
      -1.0679568137307498e+000 1.8049655480667097e+000
      -1.7257393285865446e+000 -8.8500873539194680e-001
      -7.1909629577195033e-001 6.2703099131582818e-001
      -1.1412977601558614e+000 1.4500237125812898e+000
      -2.7849695252952100e-001 3.4200445560702086e-001
      -6.7220259688754747e-001 -6.5643298760848556e-001
      1.2556708769046032e+000 -1.4425668304385340e+000
      1.8138390780194741e-001 3.8826948523207572e-001
      -3.4134670562225855e-002 6.0248151508861836e-001
      -7.5363802015637826e-001 -8.8679736983615265e-001
      2.2991535214680097e+000 1.8244564961912186e+000
      -4.8151834406788208e-001 5.3031413746413048e-001
      7.6213484342550863e-001 8.3606148949601844e-001
      9.2744855700369180e-002 -1.9113387554340204e+000
      1.1725197381334840e+000 -7.0427369947723070e-002
      -1.3802954060034409e+000 -5.0732908123473242e-001
      -9.6105301933770015e-001 3.4737636140262984e-001
      -1.3697210302326239e+000 -1.2324749723122694e+000
      1.3454886900351677e+000 7.9748897036570632e-001
      1.9136059060120639e-001 1.9266031964307209e+000
      -2.0525695785268852e-001 1.5290578399955650e+000
      2.6672317487449704e-001 1.4829872374827885e-001
      -1.5394181497960708e+000 1.8958870662865250e+000
      -1.7927685480802071e+000 4.7843608043708558e-001
      -1.9188496249522042e+000 -2.5206134561970922e-001
      -9.6405090575984875e-001 -8.7134726473032142e-001
      1.2654993598794928e+000 9.4172090320544111e-001
      -6.1901726884177766e-001 1.1833685470640736e+000
      -4.7360356604961995e-001 -1.4728176407330390e-001
      -1.5249180186217817e+000 -1.4593675445189815e+000
      1.4936021108770374e+000 1.6572485412658949e-001
      -3.4345146551842696e+000 -5.1576452965390970e-002
      7.5638193197417070e-001 -7.4330380870124235e-001
      9.0309549088872088e-001 -1.2155026401238991e+000
      2.3291422087298099e+000 1.5707569665028847e+000
      -3.1722364273807728e+000 -1.5490971534911191e+000
      3.0788952979323980e-001 9.8573913371572064e-001
      -6.0459435383896076e-001 1.2619166981648439e-001
      5.8630630570948705e-001 -6.0687540920695386e-002
      3.9013519373633337e-001 7.4836647764991426e-001
      1.2936857104294885e+000 1.0643937595890007e+000
      4.1178441539359167e-001 4.9893331083858178e-001
      -8.7862052498872367e-001 1.1670738900682871e+000
      -1.3019948812460393e+000 6.4428115624779425e-001
      -1.9585432250517674e+000 -6.4776430502188898e-001
      1.5923188917371465e-002 -6.1508847565692315e-001
      2.4031487558208586e+000 1.4304209186179744e+000
      6.9436929715591511e-001 1.6144940339760137e+000
      -5.6102277767339392e-001 -3.4245552479598519e-002
      -1.8146567262239133e+000 3.5543953514577242e-001
      6.0937321331740102e-001 -2.4329668742966759e+000
      -1.4313391432996172e+000 1.0929231533684668e-001
      3.2582880759095945e+000 5.7206912675150445e-001
      -2.5158073758615190e-001 -1.8274492837938126e+000
      3.7266837147731963e-001 5.2839877562006277e-001
      -1.6551746917620038e+000 3.0742429131584853e-001
      8.9523720039210251e-003 3.0645002032800177e-002
      -3.5516929106414696e-001 1.3567013390507479e+000
      2.9958793140164791e-001 -3.3903292026032689e-003
      6.9124534026718676e-001 1.3624878381875245e+000
      1.2751953224320645e+000 5.2746021741217763e-001
      7.5918394732251560e-001 1.4462069872184982e+000
      -9.2281983312889704e-001 9.8389907016992895e-001
      1.3553897294278158e-001 1.3550957061607274e+000
      -9.8877651723749876e-002 3.9770801650676419e-003
      4.2147708896701819e-001 -1.0819090295776859e+000
      1.9954845609426306e+000 -6.5797321788755594e-002
      9.2253735414375426e-001 2.2439961339165024e+000
      -1.1501149313181149e+000 -1.2058231131636139e+000
      -3.9577617292169787e-001 1.5049205442883589e+000
      8.5788818981163584e-001 -3.2847105725523420e+000
      -8.1149408863536421e-001 4.5501410879757909e-001
      2.3965935658707931e+000 1.0755436797207989e+000
      -1.8529151551649843e+000 -1.4445923827437110e+000
      -8.6615954430198383e-001 -8.7329105408514851e-001
      -1.0263849922748638e+000 1.5093450643697592e-001
      1.9851766575612049e+000 -8.4818942378972673e-001
      1.5479485668841628e-001 -5.5895736755062497e-001
      1.5920042911543864e+000 7.6843898932239765e-002
      1.6155450305379413e+000 7.5127043186863229e-001
      2.9118713769383620e-001 6.4371830024739085e-001
      6.2212998205037517e-001 -1.3316368938570862e+000
      -1.5575701100615147e+000 2.9531907675019831e-001
      3.9266267894925910e-001 7.0247886446393515e-001
      -1.4095573983202008e+000 9.0791851090414585e-002
      6.8296616825498413e-001 -3.7759218771854886e-001
      -3.5752396151309329e-001 8.4316256096678310e-001
      1.0072999977918788e+000 4.8641129597382848e-001
      1.1696316020300084e+000 -3.7847958759774492e-001
      5.6082550596729430e-001 5.3478408928264964e-001
      2.6018921197171219e-001 1.0258624621183278e-001
      -1.0701956998841033e+000 6.3304445711317339e-002
      1.7097472815316934e+000 2.9379446647322299e-001
      1.8290257885624110e-002 -7.2254881799709314e-001
      5.4448688869370165e-001 6.3755755658457735e-003
      -6.2712668752847511e-001 1.3657311261328575e+000
      -8.1357458057604870e-001 -8.3070332598437402e-001
      4.4707663886518867e-001 -9.1392120491000284e-001
      1.4904102790995406e+000 1.0038167755223819e+000
      5.8603108236855928e-001 1.1908924829720820e-001
      3.0096297073655770e-002 1.7651545594574933e-001
      1.1034629908190943e+000 -2.9124410299123688e-001
      -1.3578469640314634e+000 6.3209742008324898e-001
      -4.0470579493324904e-001 3.4732104088166044e-001
      -6.1962713318098239e-001 -3.8220740921860619e-001
      -3.3838567132069466e-002 -4.0029432771946372e-002
      4.4223286959257546e-001 7.9988829053549526e-001
      -5.5144096501166517e-001 7.2684605697727112e-001
      9.2530840966813599e-001 -6.4856286700033916e-001
      -2.6102815241088451e-001 8.3102958291026222e-002
      -1.2738069347438022e-001 -6.4344558005710795e-001
      3.9379363390729516e-001 1.2267730078654424e+000
      9.9359705184309766e-001 9.0661222945476383e-001
      -2.3629107796507018e-001 8.4242515779164251e-001
      -4.0023825064968777e-001 2.1523505105718649e-001
      -1.2469897608156391e-001 7.5378283214138508e-001
      -4.8909851996655584e-001 -4.6843483707647188e-001
      -4.0277451059364633e-001 -5.4401141602008518e-001
      5.4717305096341118e-001 3.4764353955759142e-001
      6.0905791082134164e-001 3.3974531642116307e-001
      1.5386375166563954e-002 4.3983756100920546e-001
      -4.4558697646063089e-001 5.1554096059311105e-002
      4.3169912409238931e-001 -6.1258943185578618e-002
      1.3284179685308969e-001 1.9135077478209425e-001
      1.7298325288018013e-001 3.1936135119153108e-001
      6.6529919141788310e-002 3.5112484390821058e-001
      -3.5211736238782168e-002 -2.7695508748960592e-002
      5.7928485899294069e-001 -1.7735192869181091e-001
      -3.1396340063934097e-001 -8.1452280226362350e-001
      2.3074617432144037e-001 -7.1050048248911768e-001
      3.0634833894590974e-001 -2.4825139969537036e-001
      3.2554514606036811e-001 -1.0970911633187054e-001
      2.1619058072840228e-001 -1.2649373043307791e-001
      -1.8975676769714725e-001 -8.9168227658296448e-002
      6.2801793687129071e-002 6.7714246177054502e-002
      4.4694094887959129e-001 1.3569801798956030e-001
      1.6592111109795921e-001 3.7607450001825937e-001
      -7.1986029411725836e-003 -7.2429926686599809e-003
      2.5908481451179294e-001 1.1735475799993215e-001
      -5.4941720867121557e-001 2.6312553510145789e-002
      -6.3127965882637826e-001 -9.6369905416722645e-001
      -1.1155056574149278e+000 1.1690205181201432e-001
      -1.7216345372117916e+000 -1.4691995756365284e+000
      1.0308497733142631e-001 6.0758261685674331e-001
      -9.1265898132015499e-001 6.7331020915084450e-001
      7.8760682575708330e-001 7.0160349461897253e-001
      -2.8086344008057107e-001 1.8661744416541981e-001
      7.6643342081177457e-001 -2.9546126461441635e-001
      7.1938771084594189e-001 -4.0931432809157403e-001
      1.6788513255722992e-001 4.3873772971644776e-001
      9.3710409708357117e-002 -7.5095154563464050e-001
      8.0407500798449871e-001 1.0140068210558817e+000
      9.5682807923293489e-001 2.0931562819280516e+000
      -1.5568615189482666e+000 -1.1014004392453767e+000
      1.7336738860679315e-001 -1.1800759872952646e+000
      6.7583202498206751e-001 1.7414243599661119e-001
      1.0619267250330395e+000 1.9147946140675072e+000
      -2.1249986803009077e-001 8.8029943934080523e-001
      9.6033000543075397e-001 -3.3632844449939425e-001
      6.9906503225150751e-001 -6.6798388748937801e-002
      5.8855646357357017e-001 -8.2654694597431677e-001
      4.9549882491158359e-001 1.9282397645584909e-001
      -1.3661613376225068e-001 -4.6114626107199630e-001
      -1.3848489331082967e-001 -2.0380976119305040e-002
      -3.9059353506215577e-001 7.4503937213641139e-002
      3.6748436767048975e-001 -4.5842043300210356e-001
      1.5616156916695387e-001 -1.2293434470764517e-001
      9.0483239384657621e-001 -4.7099764028036201e-001
      3.9622919932537631e-001 5.7826526612997864e-001
      -2.4709435582193781e-001 1.1480465306927716e+000
      -4.1275023069984762e-001 2.7517110129125555e-001
      2.1452977580688148e-001 1.4885986418494801e+000
      -8.1773482428437227e-001 -6.7618424307800587e-002
      -3.0714630089249251e-001 -5.9373380057944070e-001
      -1.2709677102488107e-001 5.8588241860678222e-002
      -8.6214403032411879e-001 4.9128641918681093e-001
      1.0155723195254913e+000 3.6039838254886680e-001
      -7.7988336290575977e-001 -1.0446188465428968e-001
      1.8770805394060681e+000 8.2031321961185311e-001
      8.6441127668005768e-001 -3.2953012519067104e-001
      -3.8537625500819878e-001 9.2700083953105128e-001
      -9.6947515041076870e-001 -4.6009878242484936e-001
      2.4046552660907952e-001 5.3300370382594597e-001
      -1.4716364943121776e+000 1.8206892043132783e-001
      -3.4967461167595554e-002 2.4457959142135394e-001
      5.5285724943321768e-001 3.9564103822926172e-001
      7.6289136154732740e-001 -6.9721491279966852e-001
      1.3131537719363655e+000 -5.5488000584431774e-001
      6.5080812371981467e-001 9.1059472524498963e-001
      1.5324723835636145e-001 1.1084601895325875e-001
      -1.0762030921480870e+000 1.2707742763293209e-001
      -2.3250782201263925e-001 -7.4632829521019528e-001
      5.4106172775507000e-002 -6.4969780576155955e-001
      -1.4531938609808062e-001 3.2474039670738303e-001
      5.5328722256499230e-001 4.8374735934068891e-001
      6.7242171343652080e-001 1.0036909720371863e+000
      -1.5033604917189033e-001 -5.4162105452732645e-001
      -2.5677079531006763e-001 1.3164711287917524e-001
      -2.8473041643792069e-001 -4.2545569776060589e-002
      3.8806574548833667e-001 -4.5608017047447197e-001
      -1.8808925240795943e-001 -8.7864782143494125e-001
      -3.9811517089412413e-001 3.4919246595586478e-001
      1.6973853599891542e-001 -5.6074544879131105e-001
      9.7247809802215174e-002 1.2071821398584868e+000
      -2.4792003286169584e-001 -2.5242300765264497e-001
      1.1862361387998730e+000 -1.1660289658153167e+000
      -5.8663012365573930e-001 -4.1948508248857647e-001
      9.2976406002992826e-002 7.7216408750917054e-001
      -6.5163534865209072e-001 5.7717369963660992e-001
      -1.3994733040666751e-001 3.7904394259763247e-001
      -5.6090568063370527e-001 1.1075510757112035e+000
      -1.1626457163598571e+000 -7.5604075659825509e-001
      8.4028436152908881e-001 -1.5949477110106386e-001
      -5.2128247811898476e-001 4.4747965951795038e-001
      6.3155211923209109e-001 1.0026732613241707e+000
      -6.7307926684142894e-001 3.5157047467574659e-001
      -8.2636246983469175e-001 8.9292128234584447e-002
      1.0114122620793458e+000 4.7436373546989680e-001
      6.9317485290437886e-001 1.2515864158255268e+000
      -8.0154394719355049e-001 3.8268292196494225e-001
      -8.3480749371870067e-001 -3.4213445843130130e-001
      4.8860338180371021e-001 -6.6465557541472997e-001
      3.2472253338556162e-001 3.4010105316891992e-001
      -7.4678901291218336e-001 -6.7370838256879073e-001
      9.7728528730131436e-001 7.5966503151188380e-001
      -1.1878823529836542e+000 -1.9941957408972855e+000
      8.8554804496101114e-001 -7.6232704901092407e-001
      -3.2169616868896195e-001 3.3275288662993013e-001
      1.3129379904050520e+000 1.2212194716736571e+000
      1.9265452727984192e-001 -3.6964065041101790e-001
      9.0550625081917568e-001 2.8628988404461109e-001
      -9.7289082521410120e-001 -3.5399029097015583e-001
      5.0247346898184775e-001 -2.4893816495087676e-001
      -1.4679101880474299e-001 -3.2192871449841209e-001
      1.6013337880407011e-001 6.9801533252743542e-001
      6.2152175719924696e-001 -8.4937820354833604e-001
      -1.5431255380648723e+000 4.6765028238017214e-001
      6.6354961851618677e-001 5.2382807362602901e-001
      3.0077808363256153e-001 -1.1932304938617071e-001
      -2.2979884167768735e-001 2.8335491836901983e-001
      -3.8600017080277332e-001 -2.1815793944777082e-001
      -2.5677237792106061e-001 -5.0497778833118645e-001
      6.1224140916169478e-001 3.5856321268580504e-001
      6.1949371171110446e-001 7.8356628629459935e-001
      9.4177413943986954e-001 6.4171564674856607e-001
      -9.6246438533550449e-001 -7.3015896675311986e-001
      4.0602469062568275e-001 -8.3224737959238473e-002
      -2.0739215505356481e+000 8.0784573946624444e-002
      1.4430226641814328e+000 6.5771530830112024e-001
      1.8856371508855824e-001 -7.0681327197584853e-001
      1.0836988168132586e+000 4.1194064540475139e-001
      3.6492742634444075e-002 -1.4955528444566679e-001
      1.1695370927983291e+000 1.5891430003682025e-001
      -3.5983206348092253e-002 -7.5108107786468059e-001
      -3.5577072603360049e-001 -3.3226273494058378e-002
      8.4552739792230724e-001 -8.5794682014388071e-002
      -1.0499850123504637e+000 -2.7386547206746908e-001
      9.0949291422317835e-001 -6.9355543262427455e-001
      6.6963205404343229e-001 5.8614043894353048e-002
      -2.4576342188141678e-001 -4.6447899054237390e-001
      4.1054781402357921e-001 3.4854605077383596e-002
      -4.5932874428802323e-001 8.3437751369551519e-002
      8.1855156655650818e-001 6.4367538001722979e-001
      4.9165623674181819e-001 -4.3072399353907082e-002
      5.4166888991446105e-001 1.1747303852905451e-001
      -8.3819321641942376e-002 5.9362554774827858e-001
      4.4027166670327578e-001 -8.2109788753137639e-002
      -1.1390666864073662e+000 -1.2262105526583329e+000
      2.7474639804892798e-001 -6.9635495665644920e-001
      5.8782817934929350e-002 -7.0949342428460471e-001
      1.7879378756314704e-001 2.7140905398004206e-001
      -1.6924302788192122e-001 -8.5534817013212838e-001
      3.0602435294066477e-002 -1.6891820808762994e+000
      4.2960220083038109e-001 -2.5549062619378987e-001
      -6.7723349874685546e-001 -1.1194918785765834e-001
      1.7111548932693188e-001 -3.1146778386284196e-001
      -5.5408535529252578e-001 -2.6644432426301795e-001
      1.5642349542370088e-001 -5.7264730637640683e-002
      -1.0415728888499071e-001 -5.7178181361644509e-001
      -2.0048242867590177e-001 1.6348004058188984e-001
      8.3261489516361309e-001 8.8582184139282949e-001
      -1.9948905621430921e-001 -7.5983933451808894e-001
      6.6526256786836158e-001 -4.7120427795876135e-001
      2.4579393487349485e-001 9.0294026119274984e-001
      1.7308963437188800e+000 7.6669099364326831e-001
      -4.4218057093704083e-001 -3.2750654747427582e-001
      2.2083445716598069e-001 -1.0104333883065790e+000
      -5.3368654635066703e-001 2.4968943112753680e-001
      1.2127486007195942e+000 4.2189407193949013e-001
      6.1044914603815448e-001 -2.1065430664308335e-001
      -4.3309224118761258e-001 -1.2816650307283148e+000
      8.8898552176671329e-003 -5.2607527839611978e-001
      -1.9984478138745316e+000 -3.9881161243708801e-001
      -9.1798238636126983e-001 -4.0536977998427531e-001
      -4.7587916072647135e-001 7.5085708803904050e-001
      4.3958125964613520e-001 -4.1840048499050414e-001
      2.5981882794925115e-001 -2.4799022964751390e-002
      2.6537450796638262e-001 -1.3996493851819167e-001
      6.9413496005253228e-001 -6.0974462107559735e-001
      -4.1330352071204496e-001 1.6198074957325465e-001
      4.9454653817867782e-002 -2.5013073479138209e-001
      4.1153795607931154e-001 3.0457497197146349e-001
      1.3800107839295337e+000 -1.5136713991661948e+000
      2.3270212081217800e-001 -6.2851325224338817e-001
      -1.0598863328623433e-001 -7.0228232906287671e-002
      -4.4973009020135485e-001 5.3487173885115413e-001
      2.9050335506200897e-001 -1.4727615205673896e+000
      -8.2040862180405971e-001 -7.7216105945308840e-003
      -1.6604791146131015e-001 -2.7467847148713254e-001
      6.4712208314178710e-001 -8.7255694951926022e-001
      -3.2143602744533672e-001 -6.9371872502730392e-001
      -5.0830836844802829e-001 -9.1678650580106191e-001
      -6.1510643737913873e-001 -2.4732790729221824e-001
      -7.9839877490572336e-002 5.4906005051320461e-001
      -3.2978587016492827e-001 1.2033389121503192e-003
      4.2091179391697947e-001 -3.8552373068284967e-001
      3.7145881648189072e-001 -1.1104792880858563e+000
      6.8840505680027220e-001 6.0478061838072539e-001
      -2.8296817385869372e-001 -7.9287864635006022e-001
      8.8416327590587518e-001 -2.6538295422059061e-001
      -1.6638577204457736e+000 -7.5870890413294478e-001
      1.1990512985603663e+000 1.7335848606890556e+000
      7.7105844136462287e-001 -3.0887098062665264e-001
      8.6759508222914050e-001 -5.8473936997670284e-001
      1.5495144862609625e-001 -2.9933266254966678e-001
      -5.1556136260328045e-001 1.3181246809974125e+000
      3.0060953060238201e-002 -2.6191924680399453e-001
      4.2606963035182860e-001 -1.0976113673959603e-002
      -1.0017859887868981e+000 -2.1349605473971275e-001
      -6.7622236441549999e-001 -8.5966888133091179e-001
      -4.1447765814972798e-001 -2.6114017767091613e-001
      -7.8402953812900211e-001 -2.8436646675583666e-001
      -1.5560287956676036e-001 -1.4048770778036435e-001
      3.9592064662501858e-001 1.1218747677394674e+000
      -6.0858984321863574e-001 -9.9159869294939140e-002
      -4.2891085206115294e-002 -4.9507539152576252e-001
      1.4952677346178689e+000 -8.9429935861343834e-001
      1.0834500659839197e+000 1.1553003727188287e+000
      -1.0567602799895586e+000 -3.0499563083006576e-001
      8.8862007211456506e-001 1.4111278311284317e-001
      -6.4112612171723204e-001 1.6635533184463916e-001
      9.6221843555419562e-001 2.7288822246441674e-001
      -9.1217056825782827e-001 -2.9264473128408852e-001
      6.8958746184544306e-001 -6.3979175080917425e-002
      6.8450460024221027e-001 -4.0213416658935658e-001
      -4.6682841014372911e-001 1.0458584206910500e+000
      -6.6629049967888632e-001 4.3508286773440868e-001
      8.8060004925944657e-001 -8.0658440878263693e-001
      -1.0548507138128278e+000 -5.0889405178643654e-001
      -7.2048466544548817e-001 -6.2951911027601637e-001
      8.9024537246165891e-001 -1.4323532491329682e-001
      6.0469724696025406e-001 3.6988612091417528e-001
      3.8546985355271901e-001 1.1194844340839707e-001
      4.8365473195278386e-001 1.5738589392643154e+000
      3.6846186972149397e-001 -9.0133268153414026e-001
      -1.4637361961859041e-001 1.4568263988304589e-001
      2.0613658995373192e+000 -6.3726778057427658e-001
      4.9653524318777981e-001 1.4918089554881689e-001
      1.0753474485377199e+000 6.9006214357490847e-001
      -5.4023557761795904e-001 -3.2868439036534863e-001
      -6.8559115626208977e-001 5.4401759627535762e-001
      5.0393758294595303e-001 -5.7327194738843235e-001
      -1.0188362378842419e+000 -8.0191838223327805e-001
      -4.7148604420667053e-002 -5.5146017552492799e-001
      8.9390972443310804e-002 5.3387473758783865e-001
      -3.3218925262633608e-001 -6.5178803088496148e-002
      1.9700000098697842e-001 3.5567302457447186e-001
      1.1988029003064291e+000 -8.3455348512271987e-001
      -1.0583705847817122e+000 2.8372831775927582e-001
      -3.1694667706580715e-001 6.4748289829227745e-001
      1.1222639558274825e+000 1.9696216522115925e-001
      4.8731703406647953e-002 1.3911133452705435e+000
      2.8895851022512653e-001 -3.0264252513033657e-001
      -1.7159418481304700e-001 9.0590720810488090e-001
      -1.3195006755453331e-002 -1.0454432328655210e+000
      -2.4931685881290000e-001 -4.6813234139909582e-001
      1.4174440641907744e+000 1.6825715626059684e-001
      -2.2168397321533775e-001 -3.5156758179422702e-002
      9.7203071725613016e-002 -6.8556513807819823e-003
      -4.0792378357332981e-001 9.8320878950945190e-001
      -6.8276606765401404e-001 -3.5885609061731358e-003
      -2.2015038317792437e-001 -1.6076584045554618e-001
      -4.2369637605116611e-001 -9.0483395123995969e-001
      9.3019910999125155e-002 2.0422906117187534e-001
      -7.2083614562250942e-001 -1.9292002546058651e-001
      1.0956150161426019e+000 -4.8600814580781870e-001
      -5.3232922735305743e-001 1.3407270211085358e+000
      4.6243674449598732e-002 3.0980410166050915e-001
      -6.4543196451522922e-001 1.4393916641886422e+000
      7.5280330771867177e-001 1.7661100398888996e+000
      -2.2740933208037900e-001 -3.2843584862773129e-001
      2.3036470059278907e-001 5.0573089130872917e-001
      -7.4532506641527296e-001 -8.1696864543275205e-001
      -1.5578879186771000e-001 2.9036856065545896e-001
      1.4813606077955938e-001 8.9265688565781276e-001
      -4.2822276098290635e-001 -5.9385943240771200e-001
      1.1887978264481116e+000 -9.5774273356220602e-002
      -8.1194187245461202e-001 -3.9093774209516513e-001
      1.9134162040818994e-001 -1.2742495824852271e+000
      -4.8561384202785204e-002 2.7667649883797740e-001
      -6.4845403764798881e-001 4.2693176136661437e-001
      -1.7958462421618554e-001 -7.8768390090123874e-001
      1.4103955449573921e-001 5.0889231129171975e-001
      -3.8763697299436288e-002 3.7761803714961356e-001
      8.9386866034956020e-002 3.9914062150814578e-001
      -3.5718230411330987e-002 7.8894250863333537e-001
      -6.2900795753368144e-001 1.3895081972914181e+000
      -1.8031771126777701e-001 1.8903150160003053e+000
      -4.2937068145641843e-001 3.5588313175754777e-001
      3.2225217779555609e-001 1.2245328850719721e+000
      1.3509438376250121e-001 1.8309294282271193e-001
      -5.8453305483074347e-001 -1.1303026171048905e-001
      6.8257955809268234e-001 -1.8252907951963668e-001
      -1.7336360366639665e+000 1.9810592718248823e-001
      5.0611046516333946e-001 3.1706722119399749e-001
      -2.0442619197440559e-001 -2.6004413969996243e-001
      -8.1183865611475536e-001 8.4078002551519126e-001
      -1.2431481074369222e+000 -1.2176637512747697e+000
      -1.0697362720095925e-001 -7.5709538203827964e-001
      5.4914711404166783e-001 3.5068724895375228e-002
      1.6050422233919830e-002 -3.9961107137087848e-001
      -9.3335547306041144e-001 1.8984482144155174e-002
      -7.1086151107194601e-002 1.3243650850269604e+000
      -4.6088162926858933e-001 4.7432312698147056e-001
      4.7269719742948357e-001 4.3915391034611911e-001
      1.4192201425089196e-001 3.5085405031477329e-001
      2.8502143830867330e-002 4.5582548836823311e-001
      5.6265462253691806e-002 1.0247161088866064e+000
      -1.8130019515431714e-001 2.0323488620687657e-001
      7.1356817159743069e-001 -4.3818197699843303e-001
      7.0508021785483821e-001 7.1685876068372834e-001
      8.1440565493835354e-002 -2.6343340212912686e-001
      1.4944180225478139e+000 -3.1365714498170832e-001
      -1.4328630123336858e-001 -6.2754001913123214e-001
      -1.3019322761990149e-001 -9.5478136997683483e-002
      -6.8228123909446636e-001 2.6376093567009623e-001
      2.4116122666045504e-002 1.2789450258325548e+000
      -1.0274706746849676e+000 -1.6260362440616197e-001
      9.3831524128286059e-001 -6.2636052350790172e-001
      1.5401353180270216e+000 -5.4853020734862690e-001
      4.5411896721682626e-001 2.5864296641261925e-001
      -5.9054499004497396e-001 4.2145891629872735e-002
      8.2830701789163408e-001 -4.0572223136329444e-001
      -1.9174730351341668e-001 -4.5003104130407323e-001
      -7.2346185369037963e-001 1.4619589867013023e+000
      4.1905942231093851e-001 -1.0655172922185301e+000
      5.3148484009529351e-001 1.6117374893542319e-001
      1.5690699749911083e-001 -5.2599929973812976e-001
      -1.4379095971812056e-001 1.5648284814799474e-001
      1.3930712547483095e+000 1.3424012204806868e-001
      4.3776331295202292e-001 6.5239641121388336e-001
      1.0413314561549154e+000 -1.0688639425938491e+000
      1.9863709472842517e-001 1.6159587273334314e-001
      -7.7851142267993856e-001 -2.8617327190782571e-001
      -1.0673817643548673e+000 -7.2516344310699765e-001
      5.2419954678448610e-001 6.4460041427646264e-001
      -1.1881850468958502e-001 -5.6836742692358599e-001
      -6.5059550904796482e-001 -3.8043831094398706e-004
      7.1850694117887115e-001 -9.7706081157634428e-001
      5.9420038516021823e-001 8.0790874143063462e-002
      3.2005055228705048e-001 1.9040891973725589e+000
      -8.1111915029236703e-001 1.0911773690474534e-001
      1.8299801820388182e+000 -7.5302671413202438e-001
      2.6591788928192273e-001 -1.1311305349677245e+000
      3.8307716172251322e-001 1.3770262298618174e+000
      -2.7793305947989055e-001 -8.6609846402656498e-001
      5.5126293440278396e-001 -4.6333801715993383e-001
      7.4945001888695872e-001 1.7266374058569772e-001
      -8.0804802297661893e-001 7.0753891523516521e-001
      1.4640057131066060e+000 4.2451442382401761e-001
      8.5561963425627374e-001 6.8327165836897930e-001
      4.3123935341522979e-001 -1.1920023578382800e-001
      1.0739180594461177e+000 -6.7738744794234262e-001
      -4.9412715473080621e-001 -4.8332568288583044e-001
      1.6035130977320115e-002 1.1883273726714445e-001
      3.2807456223848502e-001 7.2700071738854033e-001
      -1.6471616661642787e+000 -2.4524294729024216e+000
      -1.7057668877562451e-001 -2.8107357464615951e-001
      9.3955084912625310e-003 -4.1219539849605968e-001
      5.0800828004141563e-001 -9.8022678012303976e-001
      -6.5976094397269619e-002 1.6145833092585935e+000
      2.7111376727229802e-001 3.4327887343444430e-001
      8.8136663422016914e-001 -2.8465602716677957e-001
      -7.2384118163884326e-001 8.6340055904671351e-002
      8.3341288327364704e-001 2.3511377782949455e-001
      -9.8231267592779414e-001 -1.2291645971613896e+000
      2.2245679982528413e-001 -5.5164931971946669e-002
      -5.1658315583877468e-001 -2.1844704278611216e-001
      2.1715431186377351e-001 9.8777204981098721e-001
      -1.3595446125481631e-001 -4.2943805745242619e-001
      1.4239777539927081e+000 5.0047503403320615e-001
      1.0045517580016466e-002 9.8125201219779079e-002
      -1.0888693581348301e+000 -3.8240343940594718e-001
      -5.8976336480548830e-001 1.1509761744338005e+000
      3.0286089241966013e-001 5.6785683504395301e-001
      -3.2918592262467128e-001 8.5868539415517298e-001
      -8.9503390179872289e-001 1.4770620569786372e+000
      -4.1993376415386491e-001 2.7022304647745599e-001
      1.6904270258116024e-002 -1.2446246871828780e-002
      1.5502318387105563e-001 -7.3536238570553214e-001
      -3.9515855653708430e-002 5.9634496197606179e-001
      -3.1539911667814113e-001 1.9072933310146747e-001
      3.5159067295753343e-001 -7.1991679449617796e-001
      6.8205467424956390e-001 -3.3991182178964763e-001
      2.1706252418025598e-001 6.7502076161976357e-002
      3.9457599727648396e-002 -6.9531485202559939e-001
      3.0481241520475405e-002 8.3918754748972035e-002
      1.9095209245399533e-001 -9.2409825818109248e-002
      -2.6843992744167217e-001 5.3071234514709853e-001
      -1.0310551139442603e-001 4.4249889926488595e-001
      8.7558832603989264e-002 1.2825820738221543e+000
      4.3645904690911186e-001 6.9133585825068410e-003
      -4.2182750067256003e-001 -1.4860846227918015e-001
      2.3012003867643602e-001 -3.1277236238227363e-001
      1.2002381490287284e-001 8.9732779700759227e-002
      -5.6405510681423487e-001 1.3705495852442376e-001
      -6.7743764566181519e-001 2.7133437750741628e-002
      -1.0643445197984079e-001 -1.7489735207381366e-001
      1.5429006785621360e+000 4.8378667131448914e-002
      3.5932777455877679e-001 -1.4192760345266541e-002
      1.8997399636783627e-001 3.1451091670006720e-001
      -3.5554112153031209e-001 9.2647341376333084e-002
      -8.7355933373965322e-001 -2.6931583273544291e-001
      -7.2923820066774503e-001 4.6626492224038618e-001
      2.5919524898967317e-001 8.5060471312069286e-002
      1.8279108414351458e-001 -2.6639821041981432e-001
      -2.5205444682634570e-001 -2.9805329637529565e-001
      7.4567140890312411e-001 -1.5153062995957137e-001
      -7.2825257636097518e-001 -7.2269396165330990e-001
      -2.1284360688052371e-002 -7.2209755585671243e-001
      1.6858286709949641e-001 -6.4999654504133175e-001
      -3.6030331790407621e-001 -6.9146187313888274e-002
      -2.5328585174540105e-002 3.3793490141303306e-001
      -8.2275423410231729e-001 -8.3470674662417965e-001
      8.1804636895641700e-002 7.8976502506312302e-002
      6.1283414064234054e-001 5.2229135159795777e-002
      6.9405292770060567e-001 -4.0582442138576084e-002
      -4.8046192121381760e-002 -7.4427735397501726e-001
      7.5141181345185459e-001 3.4055091841429719e-001
      -8.6964323088117546e-001 9.7948085768880075e-002
      1.8192026140089135e-001 -1.4238134461240248e+000
      3.2904240592957790e-001 8.5946898507331199e-002
      -1.4387170271423833e+000 -8.2785818837713621e-001
      -1.2980516749360262e+000 -6.9787659036842323e-002
      -1.2486352892337118e+000 1.8767949168936812e-001
      3.6621169879143281e-002 5.0244513462595020e-001
      5.0812000081396769e-001 -7.9535983105798924e-001
      -2.8149821797551566e-001 -1.0954675442223827e+000
      1.2002539671711736e+000 6.8616694065588690e-001
      7.8042876357986790e-001 9.6608659396854668e-001
      -3.3932545075997239e-001 -6.0166873784505648e-001
      -2.2593413124699007e+000 1.3714954191624420e+000
      1.3817306630220885e+000 2.0435170295673575e+000
      -1.8946784501978242e+000 -1.0068500791627444e+000
      8.5852223185493415e-001 -4.5555434015936308e-001
      -2.6152155427793537e-002 7.3557091015459131e-001
      1.1264022502875985e+000 7.0546207245397341e-001
      -6.4556083002724352e-001 -1.7185502183338328e+000
      1.5637171818456295e+000 -1.3239789169364811e+000
      2.8708254617746365e-001 -1.8602281977875310e-001
      8.6275818914570890e-001 -9.9742241475674343e-001
      5.7414721424083381e-001 5.8820840153113307e-001
      -8.2873695798994285e-002 -4.6231783836327084e-001
      -1.3348982995501215e+000 -6.1776891610453089e-001
      2.0595865017968404e-001 -5.7716035770766683e-001
      -8.7573616723413572e-002 -1.2729734817325078e+000
      1.2296654845800319e+000 -4.6511839963612342e-002
      -1.0637368448641336e+000 2.8528478582106814e-001
      7.5685936072924884e-002 -6.2424402751304631e-001
      4.6464401796866328e-001 8.1148009942842458e-001
      -3.8868839361172941e-001 7.9917545505038834e-001
      -2.1898174335790435e+000 1.1492549860911709e+000
      -2.7511380518417866e-001 2.0644601126426443e-001
      -6.9027584320419233e-001 1.0823172192070336e+000
      -2.7738585074105343e-001 -5.5072089539632531e-002
      -4.5244523994175739e-001 1.5093560899706990e+000
      8.8244100754789467e-001 7.3215835929067441e-001
      -7.7199142445219138e-001 -1.7182132158859134e+000
      1.2432943931187443e+000 -5.1613441335627619e-001
      8.6508403891143659e-001 2.7091455497867689e-001
      -2.4669798805626497e-001 1.5093010638247184e+000
      -4.2634470863264266e-002 6.7585213923386422e-001
      7.1403100140674169e-001 4.0658716899461700e-001
      -1.1353918996051449e+000 -8.3415625487179501e-001
      5.9939581462080105e-001 -8.0339545641827603e-001
      -1.6089100197497938e-001 -7.1768471484528112e-002
      6.0640780361084845e-001 -5.4891622751483726e-001
      -6.8407124991995960e-001 3.5828619904550635e-002
      1.7541373161394672e-001 -5.3692988690255927e-001
      -4.9444025213069687e-001 -3.4684705929848750e-002
      2.2135523577050331e-001 9.1770425611894413e-001
      -6.0300656292271615e-001 1.2632678884222923e-001
      -7.3593984570224213e-001 1.1272191189938798e+000
      -5.1408891836518467e-001 7.8991123993579981e-001
      -1.5926354255176065e-001 7.5282414530294772e-001
      4.1905183554513903e-001 -1.6904952816821994e-001
      1.1206444783056695e+000 -6.6236594038556740e-001
      -1.2031275602076689e-003 -3.4152880731253937e-001
      -5.3069840296269066e-001 -1.5529713327579620e+000
      -9.0591745705362847e-001 -8.3953749320775362e-001
      1.3082738914490544e+000 -2.7795614038969907e-001
      5.5481326401759590e-001 3.3167195549644540e-001
      -1.0206951718389112e+000 1.2070438776231174e+000
      6.5223784522179015e-002 1.4459605428815678e-001
      1.2386872478180937e+000 -5.1078922437326790e-001
      -3.0602839842964213e-001 6.6657362219303101e-002
      -8.3888754989713668e-002 -3.2892362113349766e-001
      -9.3319115775025805e-003 6.2058191100610627e-001
      -1.9729332773208588e-001 -3.9079475777067635e-002
      -7.5770876950779897e-001 1.4157697959548292e+000
      1.1008949658692064e+000 6.2621906347873635e-001
      -3.3064526102335062e-001 -9.1148333437379181e-001
      6.9610289254207414e-001 -4.1161560470004127e-001
      -1.0037392885980378e+000 -1.3557067735904269e-001
      -1.2839007562340388e-001 3.8634481939420917e-001
      5.5104750310409467e-001 -5.7594523585755542e-001
      2.1369180243696018e-001 -5.4684708499638257e-001
      8.0397364788972125e-001 -2.3834473667959727e-001
      6.1385701823415517e-001 -1.1421358886630772e+000
      -8.0634548778019566e-001 -3.2768826239606738e-002
      -2.4963138744307906e-001 8.2429514087593703e-001
      7.4092617156222851e-001 -8.1670552041917011e-001
      -3.7656576401445263e-002 1.1160642257712670e+000
      1.2026749078973427e+000 -7.6010819369030458e-001
      9.6290906306852675e-001 4.8842753560443641e-001
      -4.8462801460249089e-001 -4.3132750915668921e-001
      1.3682444233207092e+000 1.9020178960111409e-001
      -1.1618917238557642e+000 4.1494985021057001e-001
      8.8691500266991863e-001 -2.0571042372612791e-001
      -1.5268230712650688e-001 4.5763092309593706e-001
      1.3545530324354438e+000 -3.0885531394883275e-001
      3.0275259701580309e-001 -9.2893180539874365e-001
      6.5715024779046216e-001 -5.0214989777679675e-001
      -1.7093999906291319e+000 1.7301550369660046e-001
      3.4058065978193941e-001 -8.4156872002131400e-002
      3.2446168964683508e-001 4.7209905804548169e-001
      8.0254770507321449e-001 -5.6719411381334428e-001
      -5.0824318304143723e-001 8.6738068637975352e-001
      2.5287511956047060e-001 -1.9162052736689297e+000
      -6.2073897150196078e-001 4.5758132062248319e-001
      5.5654148352148070e-001 3.8672837753825778e-001
