<?xml version="1.0"?>
<opencv_storage>
<opencv_ml_svm>
  <format>3</format>
  <svmType>C_SVC</svmType>
  <kernel>
    <type>RBF</type>
    <gamma>3.3750000000000002e-002</gamma></kernel>
  <C>2.5000000000000000e+000</C>
  <term_criteria><iterations>20000</iterations></term_criteria>
  <var_count>352</var_count>
  <class_count>2</class_count>
  <class_labels type_id="opencv-matrix">
    <rows>2</rows>
    <cols>1</cols>
    <dt>i</dt>
    <data>
      0 1</data></class_labels>
  <sv_total>769</sv_total>
  <support_vectors>
    <_>
      3.22580636e-001 1.61290318e-001 0. 0. 0. 3.22580636e-002
      3.22580636e-002 6.45161271e-002 6.45161271e-002 6.45161271e-002
      3.22580636e-001 4.83870953e-001 2.25806445e-001 3.87096763e-001
      5.16129017e-001 5.16129017e-001 3.22580636e-001 2.90322572e-001
      3.22580636e-001 6.77419305e-001 8.70967746e-001 1.93548381e-001
      1.61290318e-001 9.67741907e-002 9.67741907e-002 4.19354826e-001
      7.74193525e-001 9.67741907e-001 7.74193525e-001 3.87096763e-001
      3.54838699e-001 4.19354826e-001 3.87096763e-001 4.19354826e-001
      4.19354826e-001 7.74193525e-001 1. 7.41935492e-001 4.19354826e-001
      9.67741907e-002 6.45161271e-002 6.45161271e-002 1.61290318e-001
      1.93548381e-001 1.61290318e-001 6.45161271e-002 6.45161271e-002
      6.45161271e-002 2.25806445e-001 3.87096763e-001 4.83870953e-001
      3.54838699e-001 3.54838699e-001 3.87096763e-001 4.51612890e-001
      4.83870953e-001 5.16129017e-001 6.45161271e-001 6.77419305e-001
      5.80645144e-001 4.19354826e-001 3.22580636e-002 3.22580636e-002
      6.45161271e-002 1.93548381e-001 7.09677398e-001 8.38709652e-001
      7.41935492e-001 2.90322572e-001 2.25806445e-001 2.58064508e-001
      2.58064508e-001 2.58064508e-001 2.90322572e-001 3.54838699e-001
      7.74193525e-001 7.41935492e-001 3.54838699e-001 6.45161271e-002
      6.45161271e-002 3.22580636e-002 6.45161271e-002 3.22580636e-002
      3.22580636e-002 6.45161271e-002 2.58064508e-001 9.35483813e-001
      9.03225780e-001 8.70967746e-001 0. 3.22580636e-002 0. 0. 0. 0. 0.
      1.61290318e-001 7.09677398e-001 1. 1. 3.87096763e-001
      3.22580636e-001 3.54838699e-001 3.87096763e-001 4.19354826e-001
      4.19354826e-001 5.48387051e-001 7.74193525e-001 6.45161271e-001
      3.87096763e-001 0. 0. 0. 3.22580636e-001 8.70967746e-001
      9.35483813e-001 7.74193525e-001 2.58064508e-001 2.58064508e-001
      2.58064508e-001 2.58064508e-001 2.25806445e-001 2.25806445e-001
      1.93548381e-001 2.25806445e-001 9.67741907e-002 0. 3.22580636e-002
      0. 6.45161271e-002 1.29032254e-001 0. 1.93548381e-001
      4.83870953e-001 5.16129017e-001 5.16129017e-001 1. 9.42857146e-001
      5.14285743e-001 5.57142854e-001 4.57142860e-001 4.71428573e-001
      4.85714287e-001 4.57142860e-001 5.14285743e-001 6.42857134e-001
      6.42857134e-001 6.28571451e-001 6.42857134e-001 6.85714304e-001
      6.57142878e-001 6.99999988e-001 6.57142878e-001 6.71428561e-001
      6.42857134e-001 6.14285707e-001 6.71428561e-001 6.85714304e-001
      6.57142878e-001 4.85714287e-001 4.00000006e-001 4.57142860e-001
      4.85714287e-001 4.57142860e-001 5.28571427e-001 6.00000024e-001
      5.85714281e-001 4.28571433e-001 3.42857152e-001 3.28571439e-001
      1.71428576e-001 2.85714298e-001 6.46387860e-002 0. 0.
      7.60456268e-003 0. 1.14068445e-002 3.61216739e-002 0.
      2.09125467e-002 1.90114067e-003 0. 4.56273779e-002 0.
      8.36501867e-002 1.33079849e-002 0. 6.65399209e-002 1.90114067e-003
      5.70342224e-003 5.70342205e-002 3.61216739e-002 1.59695819e-001
      3.61216739e-002 9.50570330e-002 5.89353591e-002 1.40684411e-001
      3.04182507e-002 0. 0. 0. 3.47908735e-001 0. 5.70342224e-003 0.
      1.59695819e-001 1.82509512e-001 1.12167299e-001 0. 1.52091254e-002
      3.80228134e-003 3.42205316e-002 0. 7.22433478e-002 6.08365014e-002
      0. 5.70342224e-003 1.90114067e-003 0. 1.52091254e-002 0.
      5.89353591e-002 5.89353591e-002 1.90114067e-003 0. 0.
      8.55513290e-002 1.52091254e-002 1.90114067e-003 1.90114067e-003 0.
      3.80228125e-002 0. 0. 5.70342224e-003 0. 0. 5.13307974e-002 0.
      1.90114067e-003 0. 5.32319397e-002 3.80228134e-003 0.
      1.71102658e-002 7.60456268e-003 5.51330782e-002 1.90114067e-003 0.
      0. 1.14068445e-002 8.17490518e-002 0. 0. 6.84410632e-002
      9.50570311e-003 1.52091254e-002 0. 3.80228125e-002 3.80228134e-003
      0. 9.12547559e-002 0. 1.90114062e-002 2.47148294e-002
      1.33079849e-002 8.55513290e-002 1.50190115e-001 3.80228134e-003
      1.76806077e-001 9.31558907e-002 1.29277572e-001 4.82889742e-001
      4.03041810e-001 1. 7.14828908e-001 9.18250918e-001 6.61596954e-001
      3.84030402e-001 1.48288965e-001 1.82509512e-001 1.29277572e-001
      1.17870718e-001 6.84410632e-002 4.18250933e-002 5.89353591e-002
      5.70342205e-002 3.61216739e-002 0. 1.90114067e-003 0.
      7.22433478e-002 0. 5.70342224e-003 0. 9.50570311e-003
      5.32319397e-002 5.51330782e-002 1.90114067e-003 9.50570311e-003 0.
      1.52091254e-002 0. 2.28136890e-002 3.23193930e-002 0.
      1.90114067e-003 0. 0. 1.90114067e-003 0. 2.28136890e-002
      5.70342224e-003 0. 0. 1.90114067e-003 1.90114067e-003 0.
      1.90114067e-003 0. 0. 5.70342224e-003 0. 0. 1.90114067e-003 0.
      1.90114067e-003 7.60456268e-003 0. 1.90114067e-003 0.
      1.90114067e-003 0. 0. 5.70342224e-003 1.90114067e-003
      4.75285165e-002 0. 0. 0. 1.90114067e-003 1.52091254e-002 0. 0.
      1.90114062e-002 0. 0. 0. 7.60456268e-003 0. 0.</_>
    <_>
      6.17647052e-001 6.47058845e-001 7.94117630e-001 7.05882370e-001
      7.05882370e-001 7.05882370e-001 7.35294104e-001 8.52941155e-001
      8.23529422e-001 8.52941155e-001 8.52941155e-001 9.11764681e-001
      9.11764681e-001 7.94117630e-001 4.11764711e-001 1.76470593e-001
      5.88235296e-002 2.94117648e-002 4.11764711e-001 6.47058845e-001
      9.11764681e-001 1. 9.41176474e-001 7.05882370e-001 4.41176474e-001
      4.11764711e-001 4.11764711e-001 4.11764711e-001 4.11764711e-001
      3.82352948e-001 3.82352948e-001 4.11764711e-001 3.23529422e-001
      2.35294119e-001 5.88235296e-002 2.94117648e-002 0. 2.94117648e-002
      1.47058830e-001 1.76470593e-001 1.47058830e-001 1.17647059e-001 0.
      0. 2.05882356e-001 4.70588237e-001 7.64705896e-001 1.
      9.41176474e-001 7.05882370e-001 3.82352948e-001 1.17647059e-001
      1.47058830e-001 1.47058830e-001 1.47058830e-001 1.47058830e-001
      1.17647059e-001 1.17647059e-001 8.82352963e-002 0. 0. 0. 0.
      2.35294119e-001 5.58823526e-001 7.64705896e-001 8.82352948e-001
      7.94117630e-001 5.29411793e-001 2.64705896e-001 2.35294119e-001
      2.05882356e-001 2.35294119e-001 2.35294119e-001 4.11764711e-001
      6.47058845e-001 7.94117630e-001 7.94117630e-001 6.76470578e-001
      2.35294119e-001 0. 0. 0. 0. 0. 0. 5.88235296e-002 3.82352948e-001
      6.47058845e-001 8.52941155e-001 8.52941155e-001 5.29411793e-001
      1.76470593e-001 0. 0. 0. 0. 0. 0. 8.82352963e-002 1.76470593e-001
      2.64705896e-001 3.52941185e-001 4.70588237e-001 4.70588237e-001
      4.70588237e-001 4.41176474e-001 3.82352948e-001 3.52941185e-001
      3.52941185e-001 3.82352948e-001 3.82352948e-001 4.41176474e-001
      3.52941185e-001 2.35294119e-001 5.88235296e-002 0. 8.82352963e-002
      1.47058830e-001 1.76470593e-001 2.05882356e-001 1.76470593e-001
      2.35294119e-001 2.64705896e-001 2.94117659e-001 3.82352948e-001
      4.41176474e-001 5.29411793e-001 5.88235319e-001 5.88235319e-001
      4.41176474e-001 1.47058830e-001 0. 0. 0. 0. 6.82926774e-001
      7.68292665e-001 7.56097555e-001 5.73170722e-001 4.99999970e-001
      4.26829249e-001 3.29268277e-001 3.41463387e-001 4.51219499e-001
      5.48780441e-001 5.48780441e-001 5.60975611e-001 6.70731664e-001
      7.07317054e-001 6.82926774e-001 6.70731664e-001 6.70731664e-001
      5.60975611e-001 4.87804860e-001 5.48780441e-001 5.60975611e-001
      5.48780441e-001 5.73170722e-001 5.85365832e-001 5.60975611e-001
      5.85365832e-001 6.34146333e-001 8.41463387e-001 9.99999940e-001
      9.02438998e-001 7.43902385e-001 4.99999970e-001 1.82926819e-001
      7.31707290e-002 4.87804860e-002 3.29268277e-001 9.07441019e-004 0.
      0. 0. 0. 0. 0. 0. 0. 0. 0. 0. 0. 9.07441019e-004 0. 0. 0. 0. 0. 0.
      0. 0. 0. 0. 0. 0. 0. 0. 0. 0. 0. 0. 0. 0. 0. 0. 0. 0. 0. 0. 0. 0.
      0. 0. 0. 0. 0. 0. 0. 0. 0. 0. 0. 0. 0. 0. 0. 0. 0. 0. 0. 0. 0. 0.
      0. 0. 0. 0. 0. 0. 0. 0. 0. 0. 0. 0. 0. 0. 0. 0. 0. 0. 0. 0. 0. 0.
      0. 0. 0. 9.07441019e-004 0. 1.81488204e-003 2.72232294e-003
      9.07441019e-004 4.53720521e-003 3.62976408e-003 2.72232294e-003
      1.81488204e-003 5.44464588e-003 9.07441042e-003 1.81488208e-002
      1.63339376e-002 2.54083481e-002 8.43920112e-002 1.98729590e-001
      7.98548102e-001 1. 9.00181472e-001 5.83484590e-001 3.03085297e-001
      1.47005439e-001 9.61887464e-002 7.98548087e-002 1.99637022e-002
      2.35934667e-002 1.36116156e-002 1.99637022e-002 4.53720521e-003
      1.81488204e-003 0. 9.98185109e-003 0. 1.81488204e-003 0.
      4.53720521e-003 1.36116156e-002 2.72232294e-003 0. 0. 0.
      9.07441042e-003 0. 6.35208702e-003 9.98185109e-003 0. 0. 0. 0.
      9.07441019e-004 0. 9.07441019e-004 3.62976408e-003 0. 0. 0.
      5.44464588e-003 0. 0. 0. 0. 0. 0. 0. 0. 0. 0. 2.72232294e-003 0.
      0. 0. 0. 0. 0. 0. 0. 0. 0. 0. 0. 0. 0. 0. 0. 9.07441019e-004 0. 0.
      0. 0. 0. 0.</_>
    <_>
      6.89655170e-002 2.75862068e-001 3.79310340e-001 4.13793087e-001
      6.20689631e-001 5.17241359e-001 3.10344815e-001 3.10344815e-001
      5.86206913e-001 7.24137902e-001 4.13793087e-001 3.10344815e-001
      1.72413796e-001 6.89655170e-002 0. 0. 0. 0. 1.72413796e-001
      3.44827592e-001 4.82758611e-001 5.17241359e-001 6.89655185e-001
      5.51724136e-001 5.17241359e-001 5.17241359e-001 7.24137902e-001
      8.27586174e-001 8.62068951e-001 6.55172408e-001 4.48275864e-001
      2.06896544e-001 6.89655170e-002 0. 0. 0. 6.89655170e-002
      1.03448272e-001 3.44827585e-002 0. 0. 0. 0. 2.06896544e-001
      5.17241359e-001 6.20689631e-001 6.55172408e-001 4.82758611e-001
      4.82758611e-001 4.13793087e-001 4.13793087e-001 3.79310340e-001
      4.48275864e-001 5.51724136e-001 7.24137902e-001 5.86206913e-001
      4.13793087e-001 0. 0. 0. 0. 9.65517223e-001 1. 1. 6.55172408e-001
      2.75862068e-001 2.06896544e-001 2.06896544e-001 3.44827592e-001
      5.17241359e-001 7.58620679e-001 7.93103456e-001 6.20689631e-001
      3.79310340e-001 2.06896544e-001 0. 0. 0. 0. 6.55172408e-001
      7.93103456e-001 8.62068951e-001 7.24137902e-001 2.75862068e-001
      2.75862068e-001 2.41379306e-001 2.75862068e-001 2.75862068e-001
      2.75862068e-001 2.75862068e-001 8.96551728e-001 8.27586174e-001
      7.58620679e-001 4.48275864e-001 0. 0. 0. 0. 1.03448272e-001
      1.37931034e-001 1.37931034e-001 1.03448272e-001 1.03448272e-001
      5.17241359e-001 6.55172408e-001 7.93103456e-001 7.93103456e-001
      5.51724136e-001 4.82758611e-001 3.79310340e-001 2.75862068e-001
      1.72413796e-001 0. 0. 0. 3.79310340e-001 7.93103456e-001
      8.27586174e-001 8.96551728e-001 3.10344815e-001 3.10344815e-001
      2.41379306e-001 2.41379306e-001 2.41379306e-001 2.75862068e-001
      3.44827592e-001 4.82758611e-001 8.96551728e-001 8.27586174e-001
      7.58620679e-001 0. 0. 0. 0. 0. 0. 1.38888896e-001 1.38888896e-001
      1.25000000e-001 6.94444478e-002 6.94444478e-002 4.16666679e-002
      1.66666672e-001 6.94444478e-001 9.30555582e-001 1. 8.47222209e-001
      6.11111104e-001 5.41666687e-001 5.27777791e-001 5.41666687e-001
      5.27777791e-001 5.69444478e-001 6.52777791e-001 6.25000000e-001
      6.66666687e-001 7.63888896e-001 6.94444478e-001 6.66666687e-001
      6.38888896e-001 6.11111104e-001 5.83333313e-001 5.69444478e-001
      5.69444478e-001 6.25000000e-001 6.80555582e-001 6.52777791e-001
      6.66666687e-001 7.50000000e-001 7.22222209e-001 5.41666687e-001
      3.88888896e-001 2.26586107e-002 0. 0. 0. 0. 0. 0. 0. 0. 0. 0. 0.
      0. 0. 0. 0. 0. 0. 0. 0. 0. 0. 0. 0. 0. 0. 0. 0. 0. 0.
      1.35951657e-002 0. 0. 0. 0. 0. 4.53172205e-003 0. 0. 0. 0. 0.
      9.06344410e-003 0. 0. 0. 0. 0. 0. 0. 6.04229607e-003 0. 0. 0. 0.
      1.51057402e-003 0. 0. 0. 0. 0. 0. 0. 0. 0. 0. 1.20845921e-002 0.
      0. 0. 0. 0. 0. 0. 0. 1.02719031e-001 0. 0. 0. 0. 0. 0. 0.
      5.74018136e-002 0. 0. 0. 9.06344410e-003 0. 0. 3.32326293e-002 0.
      0. 1.20845921e-002 0. 3.02114803e-002 2.05438063e-001 0.
      1.32930517e-001 0. 0. 2.03927487e-001 0. 7.76435018e-001
      8.45921487e-002 0. 3.08157086e-001 0. 1.96374618e-002
      6.08761311e-001 2.02416912e-001 7.50755310e-001 7.40181282e-002
      3.70090634e-001 2.97583073e-001 4.81873125e-001 2.37160116e-001 0.
      0. 0. 1. 0. 4.38066460e-002 0. 2.28096679e-001 3.98791552e-001
      2.31117830e-001 0. 5.43806627e-002 4.53172205e-003 7.40181282e-002
      0. 8.00604224e-002 6.64652586e-002 0. 1.05740186e-002 0. 0.
      4.38066460e-002 0. 1.35951657e-002 2.26586107e-002 1.66163146e-002
      0. 0. 1.20845921e-002 2.11480372e-002 0. 0. 0. 0. 0. 0.
      3.02114803e-003 0. 0. 0. 0. 0. 0. 0. 0. 0. 0. 0. 3.02114803e-003
      0. 0. 0. 0. 0. 0. 0. 0. 0. 0. 0. 0. 0. 0.</_>
    <_>
      7.09677398e-001 4.83870953e-001 5.48387051e-001 7.09677398e-001
      6.45161271e-001 4.83870953e-001 6.77419305e-001 5.48387051e-001
      1.61290318e-001 0. 0. 0. 0. 0. 3.54838699e-001 5.16129017e-001
      6.45161271e-001 7.41935492e-001 8.70967746e-001 6.12903237e-001
      5.16129017e-001 5.16129017e-001 7.41935492e-001 7.74193525e-001
      6.45161271e-001 5.48387051e-001 4.19354826e-001 2.25806445e-001 0.
      0. 0. 0. 0. 0. 0. 0. 0. 0. 0. 0. 0. 1. 1. 1. 1. 1.29032254e-001
      1.29032254e-001 1.29032254e-001 1.29032254e-001 1.29032254e-001
      1.29032254e-001 1.29032254e-001 1.29032254e-001 1.61290318e-001
      1.61290318e-001 1.61290318e-001 3.22580636e-002 0. 0. 0. 0.
      3.87096763e-001 5.48387051e-001 6.77419305e-001 7.09677398e-001
      4.83870953e-001 5.16129017e-001 5.48387051e-001 4.83870953e-001
      5.16129017e-001 4.83870953e-001 4.83870953e-001 7.09677398e-001
      6.45161271e-001 4.83870953e-001 3.54838699e-001 2.25806445e-001 0.
      0. 0. 0. 2.25806445e-001 3.87096763e-001 5.16129017e-001
      6.77419305e-001 6.12903237e-001 5.16129017e-001 4.83870953e-001
      5.16129017e-001 5.16129017e-001 5.48387051e-001 5.16129017e-001
      5.16129017e-001 7.09677398e-001 6.12903237e-001 5.80645144e-001
      3.54838699e-001 0. 0. 0. 0. 2.25806445e-001 4.19354826e-001
      6.12903237e-001 7.41935492e-001 5.80645144e-001 4.51612890e-001
      4.51612890e-001 4.19354826e-001 4.51612890e-001 5.16129017e-001
      5.16129017e-001 5.16129017e-001 7.09677398e-001 6.77419305e-001
      5.48387051e-001 3.54838699e-001 1.29032254e-001 0. 0. 0.
      3.22580636e-001 4.19354826e-001 5.48387051e-001 6.45161271e-001
      6.12903237e-001 5.16129017e-001 4.83870953e-001 5.16129017e-001
      5.16129017e-001 5.16129017e-001 5.16129017e-001 5.48387051e-001
      7.41935492e-001 6.45161271e-001 5.48387051e-001 0. 0.
      1.51515156e-002 2.87878811e-001 3.63636374e-001 4.54545468e-001
      8.48484874e-001 9.09090936e-001 9.09090936e-001 7.12121248e-001
      6.81818187e-001 7.57575750e-001 7.57575750e-001 7.72727311e-001
      7.57575750e-001 7.42424250e-001 7.87878811e-001 8.03030312e-001
      9.24242437e-001 9.84848499e-001 9.69696999e-001 1. 9.84848499e-001
      8.93939435e-001 7.12121248e-001 7.27272749e-001 7.72727311e-001
      7.12121248e-001 7.12121248e-001 7.27272749e-001 8.63636374e-001
      8.33333373e-001 8.03030312e-001 6.21212125e-001 3.18181813e-001
      1.21212125e-001 2.77008303e-003 0. 0. 1.38504151e-003
      2.77008303e-003 4.15512454e-003 1.38504151e-003 0. 1.38504151e-003
      0. 2.77008303e-003 4.15512454e-003 0. 2.77008303e-003
      1.38504151e-003 1.38504151e-003 2.77008303e-003 1.38504151e-003 0.
      1.38504151e-003 1.38504151e-003 1.38504151e-003 0. 1.38504151e-003
      0. 0. 1.38504151e-003 0. 0. 0. 5.54016605e-003 0. 1.38504151e-003
      0. 1.38504151e-003 5.54016605e-003 1.38504151e-003 0. 0. 0.
      1.38504151e-003 0. 1.38504151e-003 0. 0. 0. 0. 0. 0. 0.
      1.38504151e-003 0. 0. 0. 0. 4.15512454e-003 0. 0. 0. 0.
      5.54016605e-003 0. 0. 1.38504151e-003 4.15512454e-003
      2.77008303e-003 1.38504151e-003 4.15512454e-003 0. 6.92520756e-003
      8.31024908e-003 1.38504151e-003 2.77008303e-003 4.15512454e-003
      5.54016605e-003 4.15512454e-003 5.54016605e-003 2.77008303e-003 0.
      1.38504151e-003 8.31024908e-003 0. 2.77008303e-003 5.54016605e-003
      1.38504151e-002 1.52354566e-002 1.10803321e-002 2.07756236e-002
      9.69529059e-003 1.52354566e-002 4.15512472e-002 2.07756236e-002
      4.01662029e-002 3.18559557e-002 4.84764539e-002 8.58725756e-002
      7.47922435e-002 6.23268671e-002 1.28808856e-001 1.42659277e-001
      2.07756221e-001 3.69806081e-001 4.29362863e-001 7.72853136e-001
      8.53185594e-001 1. 8.36565077e-001 5.06925166e-001 2.47922435e-001
      1.78670362e-001 1.01108029e-001 9.00276974e-002 4.43213284e-002
      3.60110775e-002 2.35457048e-002 1.93905812e-002 3.60110775e-002
      1.10803321e-002 1.10803321e-002 8.31024908e-003 1.93905812e-002
      4.15512454e-003 4.15512454e-003 9.69529059e-003 5.54016605e-003
      9.69529059e-003 5.54016605e-003 1.38504151e-003 2.77008303e-003 0.
      2.77008303e-003 0. 2.77008303e-003 2.77008303e-003 1.38504151e-003
      1.38504151e-003 1.38504151e-003 0. 0. 0. 2.77008303e-003 0. 0. 0.
      0. 0. 1.38504151e-003 0. 0. 0. 0. 0. 0. 0. 0. 0. 2.77008303e-003
      0. 1.38504151e-003 0. 1.38504151e-003 0. 0. 0. 0. 4.15512454e-003
      0. 0. 0. 0. 0. 0. 0. 1.38504151e-003 0. 0. 0. 1.38504151e-003
      1.38504151e-003 1.38504151e-003</_>
    <_>
      1. 1.94444448e-001 2.50000000e-001 3.33333343e-001 8.61111104e-001
      8.88888896e-001 7.50000000e-001 3.05555552e-001 2.22222224e-001
      1.66666672e-001 3.33333343e-001 5.83333313e-001 8.05555582e-001
      7.50000000e-001 4.16666657e-001 3.33333343e-001 5.55555560e-002
      5.55555560e-002 8.33333358e-002 1.66666672e-001 8.61111104e-001
      8.61111104e-001 8.61111104e-001 4.16666657e-001 3.33333343e-001
      3.61111104e-001 4.16666657e-001 4.44444448e-001 4.44444448e-001
      5.00000000e-001 5.83333313e-001 8.61111104e-001 7.22222209e-001
      5.55555582e-001 4.16666657e-001 1.38888896e-001 1.38888896e-001
      1.38888896e-001 1.66666672e-001 2.22222224e-001 2.22222224e-001
      1.94444448e-001 1.38888896e-001 1.38888896e-001 1.38888896e-001
      1.38888896e-001 1.66666672e-001 5.27777791e-001 6.11111104e-001
      6.38888896e-001 4.72222239e-001 4.44444448e-001 3.88888896e-001
      4.16666657e-001 4.44444448e-001 3.88888896e-001 5.83333313e-001
      6.94444478e-001 6.38888896e-001 4.72222239e-001 2.22222224e-001
      1.38888896e-001 1.38888896e-001 1.38888896e-001 1.38888896e-001
      2.22222224e-001 3.05555552e-001 3.05555552e-001 2.50000000e-001
      2.22222224e-001 2.22222224e-001 2.22222224e-001 2.22222224e-001
      2.22222224e-001 2.22222224e-001 3.05555552e-001 8.33333313e-001
      8.33333313e-001 7.77777791e-001 2.22222224e-001 1.11111112e-001
      1.38888896e-001 1.11111112e-001 1.94444448e-001 3.33333343e-001
      3.61111104e-001 3.61111104e-001 3.61111104e-001 3.61111104e-001
      4.16666657e-001 5.00000000e-001 5.27777791e-001 5.55555582e-001
      5.55555582e-001 6.94444478e-001 6.66666687e-001 5.27777791e-001
      2.77777791e-001 1.11111112e-001 1.38888896e-001 1.38888896e-001
      1.66666672e-001 1.38888896e-001 2.22222224e-001 2.50000000e-001
      2.50000000e-001 1.38888896e-001 1.38888896e-001 5.00000000e-001
      6.66666687e-001 7.22222209e-001 5.55555582e-001 4.16666657e-001
      4.44444448e-001 3.33333343e-001 2.50000000e-001 2.22222224e-001
      1.11111112e-001 8.33333358e-002 8.33333358e-002 8.33333358e-002
      5.00000000e-001 6.38888896e-001 8.05555582e-001 7.22222209e-001
      5.00000000e-001 4.16666657e-001 4.44444448e-001 4.44444448e-001
      3.88888896e-001 5.00000000e-001 6.66666687e-001 7.50000000e-001
      5.27777791e-001 4.16666657e-001 3.88888896e-001 9.90990996e-001
      9.27927971e-001 9.27927971e-001 1.26126125e-001 6.30630627e-002
      1.89189196e-001 5.40540576e-001 6.21621609e-001 6.66666687e-001
      4.32432443e-001 3.87387395e-001 3.87387395e-001 3.60360384e-001
      3.15315336e-001 3.42342347e-001 3.87387395e-001 4.59459484e-001
      4.59459484e-001 5.22522509e-001 5.04504502e-001 4.23423439e-001
      3.69369388e-001 3.60360384e-001 3.42342347e-001 3.51351351e-001
      3.24324340e-001 3.78378391e-001 4.32432443e-001 4.23423439e-001
      5.49549580e-001 6.21621609e-001 6.12612605e-001 4.32432443e-001
      3.15315336e-001 7.56756783e-001 1. 1.19047612e-002 1.32275131e-002
      7.93650746e-003 6.61375653e-003 3.96825373e-003 1.45502640e-002
      1.32275131e-002 5.29100513e-003 1.32275131e-002 3.96825373e-003
      5.29100513e-003 1.05820103e-002 2.64550257e-003 9.25925933e-003
      3.96825373e-003 1.32275128e-003 0. 0. 0. 0. 2.64550257e-003 0. 0.
      0. 1.32275128e-003 0. 0. 0. 0. 0. 1.32275128e-003 0. 0. 0. 0. 0.
      1.32275128e-003 0. 0. 0. 0. 0. 0. 0. 0. 0. 0. 0. 0. 0.
      1.32275128e-003 0. 0. 0. 0. 0. 0. 0. 0. 0. 0. 0. 0. 0. 0. 0. 0. 0.
      0. 0. 0. 0. 0. 0. 0. 0. 0. 0. 0. 0. 0. 0. 0. 0. 0. 0.
      1.32275128e-003 1.32275128e-003 0. 0. 1.32275128e-003 0. 0. 0.
      1.32275128e-003 5.29100513e-003 7.93650746e-003 1.58730149e-002
      3.17460299e-002 5.68783060e-002 7.14285672e-002 1.49470896e-001
      2.16931209e-001 4.76190448e-001 6.85185194e-001 9.99999940e-001
      9.97354448e-001 6.83862388e-001 3.69047612e-001 2.31481478e-001
      1.57407403e-001 8.33333284e-002 9.92063433e-002 5.55555522e-002
      5.95238060e-002 2.77777761e-002 5.82010560e-002 2.64550261e-002
      2.24867724e-002 3.30687836e-002 2.24867724e-002 1.05820103e-002
      2.11640205e-002 2.51322743e-002 1.19047612e-002 3.30687836e-002
      6.61375653e-003 1.58730149e-002 1.71957668e-002 1.85185187e-002
      1.85185187e-002 7.93650746e-003 9.25925933e-003 3.04232799e-002
      7.93650746e-003 1.71957668e-002 1.45502640e-002 2.64550257e-003
      2.11640205e-002 3.96825373e-003 1.45502640e-002 1.85185187e-002
      7.93650746e-003 1.19047612e-002 1.32275131e-002 1.32275131e-002
      1.05820103e-002 9.25925933e-003 7.93650746e-003 6.61375653e-003
      1.85185187e-002 1.32275128e-003 1.32275131e-002 1.71957668e-002
      6.61375653e-003 9.25925933e-003 5.29100513e-003 9.25925933e-003
      1.19047612e-002 1.45502640e-002 3.96825373e-003 3.96825373e-003
      7.93650746e-003 7.93650746e-003 1.19047612e-002 6.61375653e-003
      9.25925933e-003 3.96825373e-003 1.32275128e-003 1.05820103e-002
      2.77777761e-002 5.29100513e-003 6.61375653e-003 6.61375653e-003
      1.32275131e-002 6.61375653e-003 2.64550257e-003 2.51322743e-002
      3.96825373e-003 1.19047612e-002</_>
    <_>
      6.11111104e-001 4.72222239e-001 2.50000000e-001 3.33333343e-001
      4.72222239e-001 6.66666687e-001 8.88888896e-001 9.16666687e-001
      8.88888896e-001 5.00000000e-001 3.05555552e-001 1.94444448e-001
      2.22222224e-001 1.94444448e-001 2.77777791e-001 6.11111104e-001
      7.77777791e-001 8.61111104e-001 8.33333313e-001 6.66666687e-001
      3.88888896e-001 2.22222224e-001 5.55555560e-002 2.77777780e-002
      2.77777780e-002 0. 0. 2.77777780e-002 5.55555582e-001
      6.66666687e-001 7.22222209e-001 7.77777791e-001 7.77777791e-001
      3.33333343e-001 2.77777791e-001 2.22222224e-001 1.94444448e-001
      2.22222224e-001 2.22222224e-001 2.22222224e-001 2.77777791e-001
      3.33333343e-001 4.16666657e-001 4.44444448e-001 4.44444448e-001
      3.88888896e-001 3.05555552e-001 1.11111112e-001 2.77777780e-002
      5.55555560e-002 5.55555560e-002 8.33333358e-002 8.33333358e-002
      1.11111112e-001 8.33333358e-002 8.33333358e-002 8.33333358e-002
      5.55555560e-002 0. 0. 0. 0. 0. 8.33333358e-002 4.16666657e-001
      6.11111104e-001 7.22222209e-001 7.77777791e-001 8.05555582e-001
      6.38888896e-001 5.00000000e-001 4.72222239e-001 3.88888896e-001
      3.88888896e-001 3.88888896e-001 4.16666657e-001 4.16666657e-001
      5.00000000e-001 6.94444478e-001 8.33333313e-001 7.77777791e-001
      7.22222209e-001 5.55555582e-001 3.05555552e-001 8.33333358e-002 0.
      0. 0. 2.50000000e-001 6.38888896e-001 6.94444478e-001
      7.50000000e-001 8.05555582e-001 8.05555582e-001 3.88888896e-001
      2.77777791e-001 2.50000000e-001 2.50000000e-001 2.22222224e-001
      2.22222224e-001 2.22222224e-001 2.50000000e-001 2.77777791e-001
      3.61111104e-001 8.33333313e-001 8.61111104e-001 8.61111104e-001
      8.61111104e-001 7.50000000e-001 6.66666687e-001 1.11111112e-001
      1.38888896e-001 1.38888896e-001 1.38888896e-001 7.22222209e-001
      8.05555582e-001 8.61111104e-001 9.16666687e-001 1. 8.88888896e-001
      4.16666657e-001 3.61111104e-001 3.33333343e-001 3.61111104e-001
      3.61111104e-001 3.61111104e-001 3.61111104e-001 3.88888896e-001
      4.44444448e-001 9.44444478e-001 1. 9.16666687e-001 8.88888896e-001
      7.77777791e-001 6.94444478e-001 1.38888896e-001 4.80519474e-001
      5.97402573e-001 7.66233742e-001 9.61038947e-001 1. 8.70129883e-001
      8.18181813e-001 8.05194795e-001 7.66233742e-001 7.66233742e-001
      7.27272749e-001 6.75324678e-001 6.88311696e-001 7.66233742e-001
      7.79220760e-001 8.31168830e-001 7.66233742e-001 7.79220760e-001
      7.01298714e-001 7.27272749e-001 7.40259767e-001 6.88311696e-001
      7.14285731e-001 7.14285731e-001 7.66233742e-001 7.27272749e-001
      7.40259767e-001 8.70129883e-001 9.22077894e-001 8.83116901e-001
      7.79220760e-001 7.79220760e-001 5.71428597e-001 4.93506491e-001
      6.75324678e-001 6.88311696e-001 4.76702511e-001 5.37634417e-002
      9.67741907e-002 2.00716853e-001 7.88530484e-002 5.48387110e-001
      2.11469531e-001 9.31899622e-002 4.58781362e-001 2.50896066e-001
      2.32974917e-001 8.53046596e-001 5.23297489e-001 9.39068079e-001
      5.87813616e-001 9.78494644e-001 6.84587836e-001 1. 5.44802845e-001
      6.09318972e-001 5.26881695e-001 2.97491044e-001 3.47670257e-001
      3.22580636e-002 1.03942655e-001 2.50896066e-002 5.73476702e-002
      3.58422939e-003 7.16845877e-003 2.50896066e-002 1.07526883e-001
      3.58422939e-003 1.79211460e-002 0. 1.79211460e-002 4.65949811e-002
      1.43369175e-002 0. 1.07526882e-002 0. 3.58422939e-003 0.
      1.43369175e-002 3.58422939e-003 0. 3.58422939e-003 0. 0. 0. 0.
      2.86738351e-002 0. 3.58422939e-003 0. 0. 7.16845877e-003 0. 0. 0.
      0. 3.58422939e-003 0. 0. 0. 0. 0. 3.58422939e-003 0. 0. 0. 0. 0.
      0. 0. 0. 7.16845877e-003 0. 0. 0. 0. 0. 0. 0. 7.16845877e-003 0.
      0. 0. 0. 0. 0. 7.16845877e-003 0. 0. 0. 0. 0. 1.79211460e-002 0.
      7.16845877e-003 0. 0. 7.16845877e-003 0. 1.43369175e-002
      3.58422939e-003 0. 3.58422939e-003 0. 0. 1.43369175e-002
      3.22580636e-002 2.50896066e-002 2.50896066e-002 2.15053763e-002
      1.03942655e-001 1.25448033e-001 1.32616490e-001 7.16845877e-003
      4.30107526e-002 3.58422920e-002 2.18637988e-001 0. 1.86379924e-001
      8.24372768e-002 2.54480273e-001 4.76702511e-001 7.52688199e-002
      9.31899622e-002 1.82795703e-001 1.14695340e-001 8.24372768e-002
      3.94265242e-002 1.36200711e-001 2.25806445e-001 7.16845877e-003
      8.60215053e-002 8.24372768e-002 0. 1.21863797e-001 2.15053763e-002
      8.96057338e-002 8.96057338e-002 7.88530484e-002 1.79211460e-002
      3.94265242e-002 1.21863797e-001 1.29032254e-001 4.65949811e-002
      7.16845877e-003 0. 1.43369168e-001 0. 1.79211460e-002
      6.09318987e-002 0. 5.73476702e-002 1.79211468e-001 5.01792133e-002
      1.11111112e-001 5.37634417e-002 1.18279569e-001 1.07526882e-002 0.
      1.54121861e-001 2.11469531e-001 6.09318987e-002 3.94265242e-002 0.
      0. 1.68458775e-001 3.87096763e-001 3.58422939e-003 7.16845877e-003
      1.29032254e-001 1.32616490e-001 9.31899622e-002 2.15053763e-002
      3.22580636e-001 1.07526883e-001 1.79211460e-002</_>
    <_>
      0. 0. 0. 0. 1.17647059e-001 1.76470593e-001 3.52941185e-001
      4.11764711e-001 5.00000000e-001 5.00000000e-001 4.70588237e-001
      4.70588237e-001 5.29411793e-001 5.58823526e-001 5.29411793e-001
      3.52941185e-001 4.41176474e-001 4.11764711e-001 2.94117659e-001 0.
      0. 0. 1.17647059e-001 1.47058830e-001 1.47058830e-001
      1.47058830e-001 1.17647059e-001 8.82352963e-002 1.17647059e-001
      1.17647059e-001 8.82352963e-002 1.47058830e-001 6.76470578e-001
      6.76470578e-001 5.29411793e-001 5.88235296e-002 2.94117648e-002
      2.94117648e-002 2.94117648e-002 8.82352963e-002 1.17647059e-001
      8.82352963e-002 5.88235296e-002 5.88235296e-002 8.82352963e-002
      8.82352963e-002 4.70588237e-001 6.76470578e-001 7.05882370e-001
      5.00000000e-001 4.11764711e-001 3.82352948e-001 4.41176474e-001
      4.70588237e-001 4.11764711e-001 5.58823526e-001 7.64705896e-001
      6.47058845e-001 5.00000000e-001 2.35294119e-001 2.05882356e-001
      2.05882356e-001 2.05882356e-001 5.29411793e-001 6.47058845e-001
      7.64705896e-001 6.47058845e-001 4.41176474e-001 5.00000000e-001
      4.70588237e-001 4.70588237e-001 5.29411793e-001 6.17647052e-001
      7.05882370e-001 7.35294104e-001 6.17647052e-001 3.52941185e-001
      1.47058830e-001 1.47058830e-001 1.47058830e-001 3.82352948e-001
      7.05882370e-001 8.52941155e-001 8.52941155e-001 6.17647052e-001
      5.29411793e-001 4.70588237e-001 4.70588237e-001 4.70588237e-001
      5.00000000e-001 6.17647052e-001 8.23529422e-001 7.64705896e-001
      5.58823526e-001 2.35294119e-001 1.76470593e-001 1.47058830e-001
      1.17647059e-001 3.52941185e-001 5.88235319e-001 7.94117630e-001
      8.82352948e-001 4.41176474e-001 3.82352948e-001 3.82352948e-001
      3.82352948e-001 3.82352948e-001 4.11764711e-001 5.88235319e-001
      7.64705896e-001 7.35294104e-001 5.00000000e-001 2.35294119e-001
      8.82352963e-002 1.17647059e-001 1.17647059e-001 3.82352948e-001
      6.17647052e-001 7.64705896e-001 8.23529422e-001 5.58823526e-001
      5.00000000e-001 4.11764711e-001 4.11764711e-001 4.70588237e-001
      4.70588237e-001 5.88235319e-001 8.23529422e-001 7.94117630e-001
      6.76470578e-001 4.11764711e-001 2.35294119e-001 7.94117630e-001 1.
      9.70588267e-001 9.41176474e-001 7.14285731e-001 8.33333373e-001 1.
      9.04761910e-001 7.50000000e-001 4.76190478e-001 4.76190478e-001
      4.88095254e-001 5.11904776e-001 5.95238090e-001 5.83333373e-001
      6.78571463e-001 6.66666687e-001 6.42857134e-001 6.54761910e-001
      6.78571463e-001 7.14285731e-001 7.26190507e-001 6.90476179e-001
      7.61904776e-001 7.73809552e-001 7.61904776e-001 7.38095224e-001
      6.42857134e-001 6.42857134e-001 6.07142866e-001 6.30952418e-001
      6.07142866e-001 5.47619045e-001 5.59523821e-001 5.23809552e-001
      5.35714269e-001 5.00000000e-001 4.88095254e-001 3.09523821e-001
      3.80952388e-001 2.04841718e-002 1.86219742e-003 3.72439483e-003
      1.67597774e-002 0. 2.42085662e-002 2.42085662e-002 0.
      1.67597774e-002 3.72439483e-003 0. 2.97951587e-002 1.86219742e-003
      2.79329605e-002 7.44878966e-003 7.44878966e-003 9.31098685e-003
      9.31098685e-003 9.31098685e-003 1.11731850e-002 7.44878966e-003
      1.11731850e-002 7.44878966e-003 1.30353821e-002 3.72439483e-003
      9.31098685e-003 1.30353821e-002 0. 1.86219742e-003 0.
      2.60707643e-002 0. 5.58659248e-003 0. 1.86219742e-003
      1.30353821e-002 5.58659248e-003 0. 1.86219742e-003 0.
      1.86219742e-003 0. 1.86219742e-003 1.86219742e-003 0. 0. 0. 0.
      1.86219742e-003 0. 3.72439483e-003 1.86219742e-003 0. 0. 0.
      1.86219742e-003 0. 0. 0. 0. 0. 0. 0. 0. 0. 0. 1.86219742e-003 0.
      0. 0. 0. 0. 0. 0. 0. 1.86219742e-003 0. 1.86219742e-003 0. 0.
      3.72439483e-003 0. 0. 1.86219742e-003 0. 0. 1.86219742e-003 0. 0.
      0. 1.86219742e-003 1.86219742e-003 0. 3.72439483e-003 0.
      3.72439483e-003 5.58659248e-003 0. 3.72439483e-003 3.72439483e-003
      3.72439483e-003 2.04841718e-002 5.58659248e-003 1.48975793e-002
      1.86219737e-002 2.97951587e-002 2.23463699e-002 3.16573568e-002
      1.48975793e-002 5.58659211e-002 3.72439474e-002 4.84171323e-002
      9.31098685e-002 4.65549342e-002 1.00558661e-001 4.46927398e-002
      1.17318437e-001 9.12476704e-002 1.17318437e-001 1.75046563e-001
      2.17877105e-001 3.05400372e-001 5.69832385e-001 6.49906874e-001
      8.10055852e-001 1. 6.59217894e-001 6.08938575e-001 3.78026068e-001
      2.60707647e-001 1.76908761e-001 1.08007453e-001 1.11731842e-001
      1.21042833e-001 8.37988853e-002 9.12476704e-002 9.86964628e-002
      5.95903173e-002 1.17318437e-001 7.26256967e-002 7.26256967e-002
      8.37988853e-002 3.16573568e-002 3.16573568e-002 3.91061455e-002
      5.21415286e-002 3.91061455e-002 2.97951587e-002 3.16573568e-002
      1.86219737e-002 4.09683436e-002 3.72439483e-003 2.23463699e-002
      4.09683436e-002 1.67597774e-002 1.48975793e-002 4.28305417e-002
      3.16573568e-002 2.23463699e-002 2.42085662e-002 3.16573568e-002
      2.23463699e-002 1.11731850e-002 2.97951587e-002 3.53817493e-002
      3.72439474e-002 9.31098685e-003 3.35195549e-002 5.58659248e-003
      2.42085662e-002 5.40037267e-002 9.31098685e-003 9.31098685e-003
      2.79329605e-002 3.72439474e-002 1.67597774e-002 9.31098685e-003
      2.42085662e-002 9.31098685e-003 0.</_>
    <_>
      0. 0. 0. 1.03448272e-001 2.75862068e-001 1.37931034e-001
      3.44827585e-002 4.82758611e-001 7.93103456e-001 8.27586174e-001
      8.27586174e-001 7.93103456e-001 5.86206913e-001 5.51724136e-001
      6.89655185e-001 7.58620679e-001 6.89655185e-001 7.24137902e-001
      6.55172408e-001 5.51724136e-001 3.10344815e-001 0. 1.37931034e-001
      8.27586174e-001 8.27586174e-001 8.27586174e-001 8.27586174e-001
      8.27586174e-001 5.51724136e-001 5.17241359e-001 4.82758611e-001
      5.17241359e-001 6.89655185e-001 7.58620679e-001 6.89655185e-001
      6.89655185e-001 5.86206913e-001 3.79310340e-001 6.89655170e-002
      3.44827592e-001 8.27586174e-001 8.27586174e-001 7.93103456e-001
      7.24137902e-001 7.24137902e-001 2.75862068e-001 3.79310340e-001
      6.89655185e-001 7.58620679e-001 8.27586174e-001 8.62068951e-001
      8.62068951e-001 6.55172408e-001 7.93103456e-001 7.58620679e-001
      7.24137902e-001 8.27586174e-001 8.27586174e-001 8.27586174e-001
      7.58620679e-001 8.27586174e-001 7.24137902e-001 2.75862068e-001
      2.75862068e-001 6.20689631e-001 8.96551728e-001 9.31034505e-001 1.
      9.65517223e-001 7.24137902e-001 6.20689631e-001 6.20689631e-001
      7.24137902e-001 8.62068951e-001 8.62068951e-001 7.93103456e-001
      7.93103456e-001 8.27586174e-001 7.24137902e-001 5.17241359e-001
      4.82758611e-001 7.24137902e-001 7.24137902e-001 6.55172408e-001
      7.93103456e-001 7.58620679e-001 7.93103456e-001 6.89655185e-001
      7.58620679e-001 7.58620679e-001 7.58620679e-001 6.20689631e-001
      6.20689631e-001 6.20689631e-001 4.48275864e-001 3.44827592e-001
      2.75862068e-001 3.44827592e-001 4.82758611e-001 6.20689631e-001
      6.89655185e-001 6.89655185e-001 7.58620679e-001 5.17241359e-001
      4.48275864e-001 5.17241359e-001 6.55172408e-001 7.58620679e-001
      7.24137902e-001 6.89655185e-001 5.86206913e-001 4.13793087e-001
      1.03448272e-001 6.89655170e-002 2.41379306e-001 6.20689631e-001
      8.27586174e-001 9.31034505e-001 8.96551728e-001 6.20689631e-001
      4.82758611e-001 4.82758611e-001 5.17241359e-001 6.89655185e-001
      7.58620679e-001 7.58620679e-001 6.89655185e-001 5.86206913e-001
      2.06896544e-001 6.89655170e-002 4.13793087e-001 5.86206913e-001
      2.06896544e-001 0. 0. 0. 0. 1.85185187e-002 3.70370373e-002
      2.77777780e-002 8.33333358e-002 3.88888896e-001 6.85185194e-001
      8.33333313e-001 9.16666687e-001 9.90740776e-001 9.90740776e-001
      9.16666687e-001 8.79629612e-001 8.79629612e-001 9.81481493e-001 1.
      8.98148179e-001 9.16666687e-001 1. 8.98148179e-001 8.70370388e-001
      8.79629612e-001 8.33333313e-001 8.33333313e-001 9.16666687e-001
      9.07407403e-001 8.79629612e-001 7.96296299e-001 5.09259284e-001
      7.40740746e-002 2.77777780e-002 1.20370373e-001 3.61111104e-001
      1.66666672e-001 0. 0. 4.66494828e-001 0. 0. 2.57731951e-003 0. 0.
      6.95876256e-002 2.57731951e-003 5.15463902e-003 0. 5.15463902e-003
      2.06185561e-002 0. 2.31958758e-002 0. 5.15463902e-003
      2.57731951e-003 2.57731951e-003 0. 1.03092780e-002 1.13402061e-001
      2.57731951e-003 0. 2.57731951e-003 4.12371121e-002 1.80412363e-002
      2.57731951e-003 0. 0. 0. 2.11340204e-001 0. 0. 0. 1.54639166e-002
      2.57731955e-002 6.44329861e-002 0. 1.28865978e-002 0.
      1.28865978e-002 0. 3.86597924e-002 1.80412363e-002 0.
      7.73195829e-003 0. 2.57731951e-003 5.15463902e-003 0.
      1.13402061e-001 1.80412363e-002 0. 2.57731951e-003 2.57731951e-003
      3.86597924e-002 7.73195829e-003 5.15463902e-003 0. 0.
      3.35051529e-002 0. 5.15463902e-003 1.54639166e-002 0.
      1.28865978e-002 1.31443292e-001 1.03092780e-002 1.03092780e-002
      1.03092780e-002 1.00515462e-001 1.03092780e-002 5.15463902e-003
      5.67010306e-002 6.44329861e-002 3.35051537e-001 2.06185561e-002
      1.54639166e-002 5.15463902e-003 6.95876256e-002 3.78865957e-001
      1.03092780e-002 1.28865978e-002 2.08762884e-001 1.05670102e-001
      6.18556663e-002 3.09278332e-002 3.40206176e-001 4.12371121e-002
      3.60824727e-002 6.62371099e-001 7.73195848e-002 9.79381427e-002
      1.98453605e-001 7.98969045e-002 5.90206146e-001 4.14948434e-001
      1.15979381e-001 4.92268026e-001 2.55154639e-001 1.93298966e-001
      6.90721631e-001 1.88144326e-001 9.99999940e-001 3.73711318e-001
      2.11340204e-001 4.30412352e-001 9.79381427e-002 4.38144319e-002
      2.16494843e-001 4.43298966e-001 1.57216489e-001 2.06185561e-002
      3.60824727e-002 1.88144326e-001 1.28865972e-001 7.73195829e-003 0.
      0. 0. 3.35051537e-001 0. 5.15463902e-003 0. 3.35051529e-002
      6.95876256e-002 1.44329891e-001 0. 2.57731951e-003 0.
      2.31958758e-002 0. 1.15979381e-001 5.67010306e-002 0.
      1.80412363e-002 0. 0. 7.73195829e-003 0. 1.98453605e-001
      2.57731955e-002 0. 0. 0. 2.83505153e-002 7.73195829e-003 0. 0. 0.
      7.47422650e-002 0. 0. 2.57731951e-003 0. 0. 1.15979381e-001 0.
      2.57731951e-003 0. 1.80412363e-002 2.57731951e-003 2.57731951e-003
      5.15463902e-003 5.15463902e-003 1.80412367e-001 5.15463902e-003
      5.15463902e-003 0. 2.57731951e-003 6.95876256e-002 0. 0.
      8.50515440e-002 2.57731951e-003 2.57731951e-003 2.57731951e-003
      1.03092780e-002 0. 0.</_>
    <_>
      0. 0. 0. 0. 0. 0. 9.41176474e-001 1. 7.05882370e-001
      3.23529422e-001 2.05882356e-001 1.76470593e-001 1.17647059e-001
      1.17647059e-001 1.76470593e-001 2.05882356e-001 1.76470593e-001
      1.76470593e-001 2.05882356e-001 2.35294119e-001 4.70588237e-001
      8.52941155e-001 9.41176474e-001 9.41176474e-001 9.41176474e-001
      3.52941185e-001 2.35294119e-001 2.05882356e-001 1.76470593e-001
      6.17647052e-001 6.17647052e-001 5.00000000e-001 3.52941185e-001
      3.52941185e-001 3.52941185e-001 0. 0. 0. 1.17647059e-001
      7.64705896e-001 9.41176474e-001 9.70588267e-001 8.52941155e-001
      7.94117630e-001 7.94117630e-001 9.11764681e-001 9.41176474e-001
      9.70588267e-001 9.70588267e-001 4.11764711e-001 2.94117659e-001
      2.64705896e-001 2.35294119e-001 6.17647052e-001 6.76470578e-001
      6.17647052e-001 6.47058845e-001 6.47058845e-001 5.88235319e-001
      2.05882356e-001 2.35294119e-001 2.64705896e-001 2.94117659e-001
      9.41176474e-001 9.70588267e-001 9.70588267e-001 8.23529422e-001
      6.17647052e-001 5.29411793e-001 4.41176474e-001 4.70588237e-001
      4.11764711e-001 3.52941185e-001 3.52941185e-001 3.82352948e-001
      4.41176474e-001 3.52941185e-001 4.11764711e-001 4.70588237e-001
      5.88235319e-001 7.94117630e-001 9.70588267e-001 9.41176474e-001
      9.70588267e-001 9.70588267e-001 9.70588267e-001 9.70588267e-001
      9.70588267e-001 5.88235319e-001 1.76470593e-001 1.17647059e-001
      8.82352963e-002 3.23529422e-001 9.70588267e-001 9.70588267e-001
      9.70588267e-001 9.70588267e-001 9.70588267e-001 9.70588267e-001
      9.70588267e-001 7.94117630e-001 5.00000000e-001 3.23529422e-001
      2.35294119e-001 1.47058830e-001 2.35294119e-001 2.94117659e-001
      3.82352948e-001 5.00000000e-001 4.41176474e-001 3.52941185e-001
      2.64705896e-001 4.41176474e-001 5.29411793e-001 7.64705896e-001
      9.70588267e-001 9.70588267e-001 1. 1.47058830e-001 1.17647059e-001
      1.17647059e-001 2.35294119e-001 8.82352948e-001 8.23529422e-001
      8.23529422e-001 8.23529422e-001 8.52941155e-001 8.23529422e-001
      1.47058830e-001 1.17647059e-001 8.82352963e-002 1.17647059e-001 1.
      9.41176474e-001 1.47058830e-001 0. 0. 1.68141589e-001
      7.25663722e-001 9.91150439e-001 8.40707958e-001 7.25663722e-001
      6.28318608e-001 5.57522118e-001 5.04424751e-001 4.51327443e-001
      5.30973434e-001 6.28318608e-001 6.19469047e-001 6.46017671e-001
      6.63716793e-001 6.28318608e-001 5.39822996e-001 5.30973434e-001
      5.22123873e-001 5.30973434e-001 5.75221241e-001 6.19469047e-001
      6.28318608e-001 6.28318608e-001 6.37168169e-001 6.37168169e-001
      6.28318608e-001 5.13274312e-001 5.04424751e-001 5.22123873e-001
      5.39822996e-001 6.01769924e-001 8.49557519e-001 1. 7.87610590e-001
      2.65486725e-002 2.17606314e-002 0. 5.93471806e-003 6.92383759e-003
      4.94559808e-003 3.26409489e-002 9.89119615e-003 3.95647855e-003
      2.37388723e-002 1.97823923e-002 1.87932737e-002 3.46191861e-002
      3.65974270e-002 6.23145364e-002 6.33036569e-002 1.01879321e-001
      1.19683474e-001 2.34421358e-001 3.16518277e-001 6.17210627e-001
      9.19881284e-001 9.99999940e-001 6.64688408e-001 2.36399591e-001
      1.05835803e-001 3.85756642e-002 3.75865474e-002 1.08803157e-002
      7.91295711e-003 6.92383759e-003 1.08803157e-002 9.89119639e-004
      3.95647855e-003 5.93471806e-003 1.97823928e-003 7.91295711e-003
      4.94559808e-003 1.97823928e-003 1.97823928e-003 2.96735903e-003
      1.97823928e-003 9.89119639e-004 0. 1.97823928e-003 0.
      1.97823928e-003 0. 0. 0. 0. 1.97823928e-003 9.89119639e-004 0. 0.
      0. 0. 0. 0. 0. 0. 9.89119639e-004 0. 0. 0. 0. 0. 1.97823928e-003
      0. 0. 0. 1.97823928e-003 0. 0. 0. 0. 0. 0. 0. 0. 0. 0. 0. 0.
      9.89119639e-004 0. 0. 0. 0. 0. 0. 0. 0. 0. 0. 0. 0.
      9.89119639e-004 0. 0. 0. 0. 0. 0. 0. 0. 0. 0. 0. 0. 0.
      9.89119639e-004 0. 0. 0. 0. 0. 0. 0. 0. 0. 2.96735903e-003 0. 0.
      0. 0. 9.89119639e-004 9.89119639e-004 0. 0. 0. 0. 0. 0. 0. 0. 0.
      0. 0. 0. 0. 0. 0. 0. 0. 0. 0. 0. 0. 0. 0. 0. 0. 0. 0. 0. 0. 0. 0.
      0. 0. 0. 0. 0. 9.89119639e-004 0. 9.89119639e-004 0. 0. 0. 0.
      4.94559808e-003 0. 0. 9.89119639e-004 0. 0. 0. 3.95647855e-003
      9.89119639e-004 0.</_>
    <_>
      6.94444478e-001 3.61111104e-001 4.16666657e-001 7.50000000e-001
      8.05555582e-001 3.05555552e-001 1.94444448e-001 2.50000000e-001
      6.11111104e-001 6.66666687e-001 7.77777791e-001 7.50000000e-001
      5.83333313e-001 5.83333313e-001 6.38888896e-001 1. 1. 1.
      5.55555560e-002 0. 0. 0. 8.05555582e-001 8.05555582e-001
      8.33333313e-001 8.61111104e-001 8.05555582e-001 8.05555582e-001
      7.50000000e-001 6.38888896e-001 0. 8.33333358e-002 2.22222224e-001
      9.72222209e-001 1. 1. 1. 9.16666687e-001 8.61111104e-001
      8.88888896e-001 1. 1. 1. 1. 1. 7.50000000e-001 6.66666687e-001
      6.38888896e-001 6.38888896e-001 6.66666687e-001 6.11111104e-001
      5.83333313e-001 5.55555582e-001 3.88888896e-001 4.44444448e-001
      4.16666657e-001 2.22222224e-001 3.61111104e-001 5.27777791e-001
      9.16666687e-001 1. 1. 1. 3.05555552e-001 1.11111112e-001
      5.55555560e-002 0. 6.94444478e-001 7.77777791e-001 7.77777791e-001
      8.05555582e-001 8.05555582e-001 7.77777791e-001 7.22222209e-001
      3.33333343e-001 5.55555560e-002 1.38888896e-001 2.77777791e-001 1.
      1. 1. 1. 7.77777791e-001 6.11111104e-001 5.55555582e-001
      5.00000000e-001 5.00000000e-001 5.27777791e-001 5.55555582e-001
      5.55555582e-001 5.55555582e-001 5.27777791e-001 5.00000000e-001
      3.88888896e-001 5.00000000e-001 5.83333313e-001 7.50000000e-001 1.
      1. 1. 1. 7.22222209e-001 6.11111104e-001 5.55555582e-001
      5.00000000e-001 5.00000000e-001 5.27777791e-001 5.55555582e-001
      5.55555582e-001 5.55555582e-001 5.00000000e-001 4.16666657e-001
      3.88888896e-001 5.00000000e-001 6.11111104e-001 9.16666687e-001 1.
      1. 1. 7.50000000e-001 6.38888896e-001 5.27777791e-001
      4.16666657e-001 5.00000000e-001 5.83333313e-001 6.11111104e-001
      6.11111104e-001 5.83333313e-001 5.27777791e-001 4.44444448e-001
      2.50000000e-001 3.33333343e-001 5.00000000e-001 7.50000000e-001 1.
      1. 7.17171729e-001 6.26262605e-001 5.35353541e-001 6.96969688e-001
      8.58585835e-001 9.39393938e-001 9.09090936e-001 8.98989916e-001
      9.19191897e-001 9.29292917e-001 9.69696999e-001 9.19191897e-001
      9.19191897e-001 9.19191897e-001 8.88888896e-001 8.88888896e-001
      8.68686855e-001 8.68686855e-001 8.58585835e-001 9.19191897e-001
      9.39393938e-001 9.39393938e-001 9.79797959e-001 9.89898980e-001
      9.79797959e-001 1. 9.89898980e-001 9.79797959e-001 9.49494958e-001
      9.49494958e-001 9.29292917e-001 8.88888896e-001 6.66666687e-001
      5.95959604e-001 6.06060624e-001 6.76767647e-001 0. 0. 0. 0. 0. 0.
      0. 0. 0. 0. 0. 0. 0. 0. 0. 9.00900923e-004 0. 0. 9.00900923e-004
      1.80180185e-003 1.53153157e-002 2.52252258e-002 1.80180192e-001
      3.00900906e-001 6.26126170e-001 4.16216224e-001 1. 5.26126146e-001
      3.45045060e-001 3.63963962e-001 2.38738745e-001 4.50450480e-002
      4.05405425e-002 1.58558562e-001 3.15315314e-002 5.76576591e-002
      2.70270277e-003 2.25225240e-002 9.00900923e-003 9.00900923e-004 0.
      0. 9.00900923e-004 0. 0. 0. 0. 0. 0. 0. 0. 0. 0. 0. 0. 0. 0. 0. 0.
      0. 0. 0. 0. 0. 0. 0. 0. 0. 0. 0. 0. 0. 0. 0. 0. 0. 0. 0. 0. 0. 0.
      0. 0. 0. 0. 0. 0. 0. 0. 0. 0. 0. 0. 0. 0. 0. 0. 0. 0. 0. 0. 0. 0.
      0. 0. 0. 0. 0. 0. 0. 0. 0. 0. 0. 0. 0. 0. 0. 0. 0. 0. 0. 0. 0. 0.
      0. 0. 0. 0. 0. 0. 0. 0. 0. 0. 0. 0. 0. 0. 0. 0. 0. 0. 0. 0. 0. 0.
      0. 0. 0. 0. 0. 0. 0. 0. 0. 0. 0. 0. 0. 0. 0. 0. 0. 0. 0. 0. 0. 0.
      0. 0. 0. 0. 0. 0. 0. 0. 0. 0. 0.</_>
    <_>
      0. 3.44827585e-002 2.75862068e-001 5.17241359e-001 5.86206913e-001
      5.51724136e-001 7.58620679e-001 5.17241359e-001 3.10344815e-001
      3.44827592e-001 8.62068951e-001 8.27586174e-001 3.44827592e-001
      2.41379306e-001 2.06896544e-001 3.44827585e-002 0. 0.
      1.03448272e-001 9.31034505e-001 1. 1. 3.79310340e-001
      3.44827592e-001 3.79310340e-001 3.79310340e-001 3.79310340e-001
      4.48275864e-001 4.48275864e-001 4.48275864e-001 3.79310340e-001
      1.72413796e-001 0. 0. 0. 0. 1.03448272e-001 1.72413796e-001
      1.72413796e-001 6.89655170e-002 0. 0. 0. 1.03448272e-001
      1.37931034e-001 1.37931034e-001 1.37931034e-001 1.37931034e-001
      1.03448272e-001 3.10344815e-001 6.55172408e-001 7.93103456e-001
      5.17241359e-001 4.82758611e-001 3.79310340e-001 2.41379306e-001
      1.03448272e-001 0. 0. 0. 0. 1.37931034e-001 1.37931034e-001
      1.37931034e-001 1.37931034e-001 1.03448272e-001 3.10344815e-001
      5.51724136e-001 6.89655185e-001 5.51724136e-001 4.48275864e-001
      3.79310340e-001 2.75862068e-001 2.06896544e-001 0. 0. 0. 0.
      9.31034505e-001 9.65517223e-001 9.31034505e-001 2.41379306e-001
      2.06896544e-001 2.06896544e-001 2.41379306e-001 2.41379306e-001
      2.06896544e-001 2.75862068e-001 3.10344815e-001 3.79310340e-001
      3.10344815e-001 1.37931034e-001 0. 0. 0. 0. 5.51724136e-001
      7.24137902e-001 6.55172408e-001 2.75862068e-001 3.44827592e-001
      2.75862068e-001 2.75862068e-001 3.10344815e-001 3.79310340e-001
      4.13793087e-001 6.20689631e-001 5.86206913e-001 3.79310340e-001 0.
      0. 0. 0. 6.55172408e-001 6.89655185e-001 7.58620679e-001
      4.48275864e-001 3.44827592e-001 3.44827592e-001 3.79310340e-001
      3.44827592e-001 3.79310340e-001 4.48275864e-001 6.89655185e-001
      5.86206913e-001 4.13793087e-001 0. 0. 0. 0. 0. 0. 0. 0.
      3.44827585e-002 6.89655170e-002 1.21951215e-002 3.65853645e-002
      4.87804860e-002 4.87804860e-002 0. 6.09756075e-002 2.07317069e-001
      7.43902385e-001 9.99999940e-001 8.41463387e-001 6.95121944e-001
      4.26829249e-001 4.39024389e-001 3.41463387e-001 3.29268277e-001
      3.29268277e-001 4.51219499e-001 4.87804860e-001 5.85365832e-001
      6.70731664e-001 6.21951222e-001 4.99999970e-001 4.63414609e-001
      3.17073166e-001 3.04878026e-001 3.65853637e-001 3.90243888e-001
      3.90243888e-001 4.02438998e-001 3.78048778e-001 4.39024389e-001
      4.39024389e-001 5.12195110e-001 4.02438998e-001 3.29268277e-001
      1.34146333e-001 4.51504998e-002 0. 0. 1.67224079e-003 0.
      1.00334445e-002 5.01672225e-003 0. 2.67558526e-002 3.34448158e-003
      1.67224079e-003 1.50501672e-002 0. 1.00334445e-002 1.67224079e-003
      1.67224079e-003 1.67224079e-003 0. 0. 0. 1.17056854e-002 0. 0. 0.
      1.50501672e-002 1.67224079e-003 1.67224079e-003 0. 0. 0.
      3.67892981e-002 0. 0. 0. 0. 1.67224079e-003 1.83946490e-002 0. 0.
      0. 0. 0. 1.00334445e-002 0. 0. 0. 0. 0. 1.67224079e-003 0.
      3.01003344e-002 1.67224079e-003 3.34448158e-003 0. 0.
      1.00334445e-002 5.01672225e-003 0. 0. 0. 1.00334445e-002 0. 0.
      3.34448158e-003 0. 0. 2.17391308e-002 0. 0. 0. 3.34448158e-003
      1.67224079e-003 0. 6.68896316e-003 5.01672225e-003 1.17056854e-002
      0. 0. 1.67224079e-003 1.67224079e-003 1.17056854e-002 0. 0.
      3.51170562e-002 3.34448158e-003 6.68896316e-003 0. 1.33779263e-002
      0. 0. 3.51170562e-002 0. 3.34448158e-003 3.34448158e-003
      1.67224079e-003 1.83946490e-002 2.00668890e-002 1.67224079e-003
      1.17056854e-002 5.01672225e-003 8.36120360e-003 6.02006689e-002
      2.34113708e-002 6.68896288e-002 3.84615399e-002 1.10367894e-001
      1.82274252e-001 2.09030092e-001 3.91304344e-001 7.19063520e-001 1.
      9.53177273e-001 8.84615362e-001 6.03678942e-001 4.06354517e-001
      2.00668901e-001 3.19397986e-001 1.60535112e-001 1.35451511e-001
      1.35451511e-001 1.38795987e-001 5.68561852e-002 8.69565234e-002
      6.68896288e-002 6.18729107e-002 1.13712370e-001 7.85953179e-002
      4.51504998e-002 5.68561852e-002 3.67892981e-002 4.51504998e-002
      1.83946490e-002 2.67558526e-002 3.84615399e-002 1.67224072e-002
      5.01672225e-003 1.33779263e-002 8.36120360e-003 1.83946490e-002 0.
      1.83946490e-002 1.33779263e-002 5.01672225e-003 3.34448158e-003
      3.34448158e-003 1.67224072e-002 6.68896316e-003 0. 0. 0. 0. 0. 0.
      0. 1.67224079e-003 0. 1.33779263e-002 5.01672225e-003
      3.34448158e-003 1.67224079e-003 1.67224079e-003 0. 1.67224079e-003
      1.67224079e-003 0. 1.50501672e-002 0. 0. 0. 0. 8.36120360e-003 0.
      1.67224079e-003 1.33779263e-002 0. 0. 0. 0. 0. 0.</_>
    <_>
      6.06060624e-002 0. 0. 0. 0. 0. 0. 0. 0. 1.21212125e-001
      2.42424250e-001 3.33333343e-001 3.93939406e-001 4.24242437e-001
      2.12121218e-001 2.42424250e-001 5.75757623e-001 5.15151501e-001
      2.42424250e-001 1.51515156e-001 3.03030312e-002 0. 0. 0.
      6.66666687e-001 6.66666687e-001 6.66666687e-001 2.72727281e-001
      2.42424250e-001 2.42424250e-001 2.42424250e-001 2.42424250e-001
      2.72727281e-001 2.72727281e-001 2.42424250e-001 1.51515156e-001 0.
      0. 0. 0. 6.06060624e-002 6.06060624e-002 0. 0. 0. 0.
      2.12121218e-001 2.42424250e-001 2.42424250e-001 2.42424250e-001
      3.03030312e-001 3.33333343e-001 3.63636374e-001 4.54545468e-001
      4.24242437e-001 4.84848499e-001 3.93939406e-001 1.81818187e-001 0.
      0. 0. 6.66666687e-001 6.96969748e-001 6.66666687e-001
      2.12121218e-001 1.51515156e-001 1.81818187e-001 2.72727281e-001
      3.63636374e-001 5.15151501e-001 5.15151501e-001 3.93939406e-001
      2.12121218e-001 0. 0. 0. 4.24242437e-001 6.96969748e-001
      6.96969748e-001 2.12121218e-001 1.51515156e-001 1.51515156e-001
      1.51515156e-001 1.51515156e-001 1.21212125e-001 1.81818187e-001
      6.66666687e-001 6.96969748e-001 6.36363626e-001 0. 0. 0.
      1.51515156e-001 2.42424250e-001 3.33333343e-001 3.33333343e-001
      2.72727281e-001 2.72727281e-001 2.72727281e-001 3.03030312e-001
      3.63636374e-001 4.24242437e-001 3.63636374e-001 2.12121218e-001 0.
      0. 0. 0. 2.12121218e-001 3.03030312e-001 3.33333343e-001
      3.33333343e-001 2.72727281e-001 2.72727281e-001 2.72727281e-001
      3.33333343e-001 3.93939406e-001 3.93939406e-001 3.03030312e-001 0.
      0. 0. 0. 0. 0. 0. 0. 3.03030312e-002 6.06060624e-002
      1.21212125e-001 1.21212125e-001 1.51515156e-001 1.81818187e-001
      2.12121218e-001 2.42424250e-001 1. 1.42857144e-002 1.42857149e-001
      1.28571436e-001 1.00000001e-001 1.00000001e-001 7.14285746e-002
      5.71428575e-002 4.28571440e-002 2.85714287e-002 1.42857144e-002
      5.00000000e-001 8.14285696e-001 1. 7.57142842e-001 6.14285707e-001
      5.28571427e-001 5.00000000e-001 5.42857170e-001 5.71428597e-001
      7.85714269e-001 8.57142866e-001 8.00000012e-001 6.28571451e-001
      4.42857146e-001 4.71428573e-001 4.71428573e-001 4.42857146e-001
      4.71428573e-001 4.71428573e-001 5.85714281e-001 6.57142878e-001
      5.85714281e-001 2.00000003e-001 0. 1.42857144e-002 1.42857144e-002
      8.58369097e-002 0. 0. 0. 0. 1.28755365e-002 0. 0. 8.58369097e-003
      0. 0. 0. 0. 3.00429184e-002 3.43347639e-002 0. 3.86266112e-002 0.
      0. 4.29184549e-002 1.71673819e-002 5.57939932e-002 6.00858368e-002
      4.72102985e-002 3.86266112e-002 6.86695278e-002 3.86266112e-002 0.
      0. 0. 1.84549361e-001 0. 4.29184549e-003 0. 1.28755361e-001
      1.80257514e-001 8.15450624e-002 0. 4.29184549e-003 1.28755365e-002
      2.14592274e-002 0. 2.40343347e-001 1.37339056e-001 0.
      6.00858368e-002 4.29184549e-002 0. 6.86695278e-002 0.
      1.58798277e-001 6.86695278e-002 7.72532225e-002 1.28755365e-002
      5.57939932e-002 1.88841194e-001 7.29613751e-002 3.00429184e-002
      4.29184549e-003 0. 2.06008583e-001 0. 2.57510729e-002
      8.15450624e-002 0. 5.15021458e-002 2.78969944e-001 4.29184549e-002
      6.43776804e-002 5.15021458e-002 1.24463521e-001 1.71673819e-002
      4.72102985e-002 8.15450624e-002 1.45922750e-001 9.87124443e-002
      8.15450624e-002 2.14592274e-002 0. 7.29613751e-002 3.51931334e-001
      1.28755365e-002 0. 1.80257514e-001 4.72102985e-002 8.58369097e-002
      8.58369097e-003 2.31759652e-001 2.57510729e-002 3.43347639e-002
      5.27897000e-001 7.29613751e-002 1.15879826e-001 2.01716736e-001
      9.01287571e-002 5.53648055e-001 3.43347639e-001 7.72532225e-002
      4.50643778e-001 2.10300431e-001 1.97424889e-001 6.78111613e-001
      2.78969944e-001 7.68240333e-001 3.90557945e-001 6.39485002e-001
      7.46781111e-001 5.96566498e-001 4.03433472e-001 7.68240333e-001
      8.28326166e-001 1. 9.52789724e-001 6.99570835e-001 8.49785388e-001
      5.79399168e-001 7.12446332e-001 2.31759652e-001 1.03004292e-001
      1.20171674e-001 4.46351945e-001 4.29184549e-003 1.71673819e-001
      9.87124443e-002 1.67381972e-001 3.30472112e-001 7.72532225e-002
      4.72102985e-002 6.43776804e-002 3.86266112e-002 6.43776804e-002
      8.58369097e-003 6.00858368e-002 4.72102985e-002 4.29184549e-003
      2.57510729e-002 2.57510729e-002 4.29184549e-003 2.14592274e-002
      4.29184549e-003 6.00858368e-002 8.58369097e-003 8.58369097e-003 0.
      4.29184549e-003 3.00429184e-002 1.28755365e-002 0. 0. 0.
      1.28755365e-002 0. 0. 0. 0. 4.29184549e-003 1.71673819e-002 0. 0.
      0. 4.29184549e-003 0. 0. 0. 0. 3.00429184e-002 0. 0. 0. 0.
      4.29184549e-003 0. 0. 1.28755365e-002 0. 0. 0. 1.28755365e-002 0.
      0.</_>
    <_>
      0. 0. 6.45161271e-002 1.61290318e-001 1.93548381e-001
      2.58064508e-001 4.19354826e-001 4.83870953e-001 5.80645144e-001
      6.12903237e-001 6.77419305e-001 7.09677398e-001 6.77419305e-001
      6.45161271e-001 5.48387051e-001 4.19354826e-001 3.22580636e-001
      2.58064508e-001 2.90322572e-001 2.90322572e-001 3.54838699e-001
      3.54838699e-001 3.54838699e-001 6.45161271e-001 7.09677398e-001
      7.09677398e-001 6.45161271e-001 1.61290318e-001 0. 0. 0.
      9.67741907e-002 9.67741907e-002 2.25806445e-001 2.25806445e-001
      9.67741907e-002 3.22580636e-002 9.67741907e-002 1.29032254e-001
      3.22580636e-001 3.54838699e-001 3.87096763e-001 4.51612890e-001
      4.19354826e-001 4.83870953e-001 3.87096763e-001 4.19354826e-001
      3.54838699e-001 2.25806445e-001 2.58064508e-001 2.58064508e-001
      9.67741907e-002 0. 1.29032254e-001 3.22580636e-001 4.19354826e-001
      5.80645144e-001 5.48387051e-001 4.51612890e-001 4.51612890e-001
      4.51612890e-001 4.19354826e-001 3.54838699e-001 2.58064508e-001
      1.93548381e-001 1.29032254e-001 0. 0. 2.25806445e-001
      3.54838699e-001 4.19354826e-001 4.51612890e-001 4.51612890e-001
      4.19354826e-001 3.87096763e-001 3.22580636e-001 2.58064508e-001
      2.25806445e-001 1.61290318e-001 1.29032254e-001 6.45161271e-002 0.
      0. 3.22580636e-001 3.54838699e-001 5.80645144e-001 6.45161271e-001
      6.12903237e-001 5.80645144e-001 5.16129017e-001 4.83870953e-001
      3.22580636e-001 4.19354826e-001 1.93548381e-001 1.61290318e-001
      9.67741907e-002 0. 0. 2.25806445e-001 3.22580636e-001
      4.19354826e-001 4.83870953e-001 4.83870953e-001 4.19354826e-001
      4.19354826e-001 3.54838699e-001 3.54838699e-001 2.90322572e-001
      2.25806445e-001 1.61290318e-001 1.29032254e-001 3.22580636e-002 0.
      0. 0. 0. 0. 0. 0. 4.51612890e-001 9.35483813e-001 1. 1.
      9.67741907e-001 1. 8.70967746e-001 6.45161271e-001 3.54838699e-001
      0. 0. 0. 0. 0. 0. 0. 0. 0. 4.05405425e-002 1.62162170e-001
      4.05405402e-001 5.94594598e-001 8.78378391e-001 1. 9.05405402e-001
      7.56756783e-001 6.35135174e-001 6.08108103e-001 5.81081092e-001
      7.16216207e-001 7.16216207e-001 7.16216207e-001 6.48648679e-001
      6.62162185e-001 6.62162185e-001 6.75675690e-001 6.48648679e-001
      6.89189196e-001 5.94594598e-001 5.13513505e-001 4.59459484e-001
      3.64864886e-001 3.37837845e-001 3.51351351e-001 3.10810804e-001
      3.64864886e-001 3.91891897e-001 3.64864886e-001 3.64864886e-001
      2.29729742e-001 1.62162170e-001 1.35135144e-001 1.08108111e-001
      1.01226993e-001 0. 9.20245424e-003 2.14723926e-002 3.06748459e-003
      6.44171759e-002 2.60736197e-001 9.20245424e-003 1.01226993e-001
      2.45398767e-002 3.06748450e-002 9.81595069e-002 3.98772992e-002
      2.48466253e-001 5.82822077e-002 5.21472394e-002 8.28220844e-002
      5.52147217e-002 6.44171759e-002 1.38036802e-001 1.28834352e-001
      1.16564415e-001 1.96319014e-001 5.82822077e-002 3.46625745e-001
      6.44171759e-002 1.62576690e-001 1.22699384e-002 6.13496918e-003
      3.06748459e-003 3.06748450e-002 0. 0. 0. 0. 0. 0. 0. 0. 0. 0. 0.
      0. 0. 0. 0. 0. 0. 0. 0. 0. 0. 0. 0. 0. 0. 0. 0. 0. 0. 0. 0. 0. 0.
      0. 0. 0. 0. 0. 0. 0. 0. 0. 0. 0. 0. 0. 0. 0. 0. 0. 0. 0. 0. 0. 0.
      0. 0. 0. 0. 0. 0. 0. 0. 0. 0. 0. 0. 9.20245424e-003 0. 0.
      3.06748459e-003 0. 9.20245424e-003 3.06748459e-003 3.06748459e-003
      9.20245424e-003 9.20245424e-003 6.13496918e-003 1.84049085e-002
      1.53374225e-002 2.45398767e-002 4.60122675e-002 1.53374225e-002
      7.97545984e-002 1.84049085e-002 1.71779141e-001 9.20245349e-002
      2.45398760e-001 3.52760732e-001 5.39877295e-001 6.59509182e-001
      7.60736167e-001 8.25153351e-001 7.76073575e-001 1. 4.81595069e-001
      3.34355831e-001 4.57055211e-001 3.58895689e-001 5.12269914e-001
      2.54601210e-001 3.03680986e-001 7.48466253e-001 4.90797535e-002
      2.66871154e-001 9.81595069e-002 9.20245424e-003 4.11042929e-001
      1.53374225e-002 1.04294479e-001 3.58895689e-001 5.21472394e-002
      1.84049085e-002 2.76073609e-002 4.44785267e-001 7.05521479e-002
      4.29447852e-002 3.68098170e-002 0. 8.89570564e-002 0.
      5.52147217e-002 3.68098170e-002 0. 2.45398767e-002 2.33128831e-001
      6.13496900e-002 6.13496918e-003 6.13496900e-002 6.44171759e-002
      6.13496918e-003 0. 7.36196339e-002 5.82822077e-002 7.66871125e-002
      0. 0. 0. 4.29447852e-002 1.90184042e-001 0. 0. 1.01226993e-001
      6.13496918e-003 2.76073609e-002 0. 6.44171759e-002 0. 0.</_>
    <_>
      1. 8.05555582e-001 8.05555582e-001 8.61111104e-001 9.16666687e-001
      9.72222209e-001 1. 5.00000000e-001 1.38888896e-001 2.77777780e-002
      2.77777780e-002 0. 2.77777780e-002 2.77777780e-002 3.88888896e-001
      5.00000000e-001 3.61111104e-001 3.88888896e-001 5.00000000e-001
      4.44444448e-001 2.77777791e-001 3.88888896e-001 4.44444448e-001
      4.72222239e-001 1.11111112e-001 0. 0. 0. 3.33333343e-001
      8.61111104e-001 9.16666687e-001 8.88888896e-001 3.05555552e-001
      2.77777791e-001 2.77777791e-001 2.77777791e-001 3.05555552e-001
      3.88888896e-001 5.55555582e-001 8.05555582e-001 6.66666687e-001
      3.05555552e-001 0. 0. 0. 0. 8.33333358e-002 1.11111112e-001
      8.33333358e-002 0. 0. 0. 2.77777780e-002 4.16666657e-001
      7.77777791e-001 9.16666687e-001 6.66666687e-001 5.83333313e-001
      5.55555582e-001 5.00000000e-001 4.16666657e-001 5.27777791e-001
      6.66666687e-001 9.16666687e-001 9.44444478e-001 7.77777791e-001
      2.77777780e-002 2.77777780e-002 2.77777780e-002 1.94444448e-001
      3.05555552e-001 3.88888896e-001 4.44444448e-001 4.16666657e-001
      4.16666657e-001 4.44444448e-001 4.16666657e-001 5.00000000e-001
      5.27777791e-001 5.83333313e-001 6.11111104e-001 5.00000000e-001
      3.33333343e-001 0. 0. 0. 1.38888896e-001 3.05555552e-001
      4.16666657e-001 4.72222239e-001 5.27777791e-001 5.00000000e-001
      4.44444448e-001 4.16666657e-001 5.00000000e-001 5.27777791e-001
      6.11111104e-001 5.00000000e-001 4.72222239e-001 2.77777791e-001
      5.55555560e-002 0. 0. 2.22222224e-001 3.61111104e-001
      4.16666657e-001 4.72222239e-001 4.44444448e-001 4.16666657e-001
      4.16666657e-001 4.72222239e-001 5.27777791e-001 6.11111104e-001
      6.94444478e-001 5.83333313e-001 4.72222239e-001 2.77777791e-001 0.
      0. 0. 2.50000000e-001 4.16666657e-001 5.00000000e-001
      5.27777791e-001 4.44444448e-001 4.44444448e-001 4.16666657e-001
      4.16666657e-001 4.16666657e-001 4.72222239e-001 5.27777791e-001
      4.16666657e-001 3.33333343e-001 5.55555560e-002 0. 0.
      2.73972601e-001 4.65753436e-001 5.89041114e-001 7.26027369e-001
      7.94520557e-001 7.67123282e-001 7.94520557e-001 6.84931517e-001
      6.43835604e-001 6.98630154e-001 7.80821919e-001 7.26027369e-001
      6.84931517e-001 7.12328792e-001 7.80821919e-001 8.21917772e-001
      9.58904088e-001 1. 9.86301363e-001 8.21917772e-001 6.71232879e-001
      6.02739692e-001 6.43835604e-001 7.12328792e-001 6.84931517e-001
      6.57534242e-001 6.02739692e-001 6.02739692e-001 5.89041114e-001
      7.39726007e-001 8.35616410e-001 8.63013685e-001 8.49315047e-001
      7.67123282e-001 6.43835604e-001 4.10958886e-001 0. 0. 0. 0. 0. 0.
      0. 0. 0. 0. 0. 0. 0. 0. 0. 0. 0. 0. 0. 0. 1.08342362e-003 0. 0. 0.
      0. 0. 0. 0. 0. 0. 1.08342362e-003 0. 0. 0. 0. 1.08342362e-003 0.
      0. 0. 0. 1.08342362e-003 0. 0. 0. 0. 2.16684723e-003 0. 0.
      1.08342362e-003 0. 2.16684723e-003 0. 4.33369447e-003
      1.08342362e-003 2.16684723e-003 3.25027085e-003 7.58396555e-003
      4.33369447e-003 0. 0. 1.95016246e-002 0. 3.25027085e-003
      1.08342362e-003 0. 9.75081231e-003 1.84182022e-002 5.41711785e-003
      1.51679311e-002 5.41711785e-003 2.60021668e-002 3.25027085e-003
      1.08342362e-003 1.40845068e-002 7.58396555e-003 1.08342362e-003
      2.16684723e-003 1.08342362e-003 0. 1.62513535e-002 3.68364044e-002
      0. 4.33369447e-003 8.66738893e-003 2.05850489e-002 2.05850489e-002
      1.62513535e-002 5.41711822e-002 2.49187425e-002 3.46695557e-002
      5.41711822e-002 4.87540625e-002 8.66738856e-002 9.53412801e-002
      2.14517877e-001 3.08775723e-001 5.40628374e-001 6.87973976e-001 1.
      7.50812590e-001 5.65547109e-001 2.68689066e-001 1.05092093e-001
      5.95882982e-002 2.38353200e-002 1.51679311e-002 1.30010834e-002
      1.40845068e-002 6.50054170e-003 1.19176600e-002 3.25027085e-003
      8.66738893e-003 1.08342362e-003 0. 3.25027085e-003 1.08342362e-003
      1.08342362e-003 0. 0. 0. 3.25027085e-003 0. 0. 0. 1.08342362e-003
      0. 1.08342362e-003 0. 0. 0. 0. 0. 0. 1.08342362e-003 0. 0. 0. 0.
      0. 0. 0. 1.08342362e-003 0. 0. 0. 0. 0. 0. 0. 0. 1.08342362e-003
      0. 0. 0. 0. 0. 0. 0. 0. 0. 0. 0. 0. 1.08342362e-003 0. 0. 0. 0. 0.
      0. 1.08342362e-003 0. 0. 0. 0. 0. 0. 0. 0. 0.</_>
    <_>
      0. 0. 0. 0. 0. 0. 0. 0. 0. 0. 8.33333313e-001 1. 1.
      6.38888896e-001 3.61111104e-001 2.50000000e-001 2.77777791e-001
      3.88888896e-001 4.72222239e-001 5.27777791e-001 3.05555552e-001
      1.94444448e-001 3.61111104e-001 6.66666687e-001 7.77777791e-001 1.
      1. 9.72222209e-001 1.66666672e-001 1.38888896e-001 1.38888896e-001
      2.77777791e-001 5.83333313e-001 5.27777791e-001 4.44444448e-001
      3.05555552e-001 3.33333343e-001 3.33333343e-001 3.05555552e-001
      3.61111104e-001 5.00000000e-001 9.16666687e-001 9.72222209e-001
      9.72222209e-001 9.16666687e-001 8.33333313e-001 8.33333313e-001
      9.72222209e-001 9.72222209e-001 9.72222209e-001 4.72222239e-001
      1.66666672e-001 1.94444448e-001 1.94444448e-001 6.94444478e-001
      6.94444478e-001 7.22222209e-001 7.22222209e-001 7.22222209e-001
      6.38888896e-001 1.94444448e-001 2.50000000e-001 3.33333343e-001
      5.27777791e-001 1. 9.72222209e-001 8.33333313e-001 6.66666687e-001
      5.27777791e-001 4.44444448e-001 3.88888896e-001 3.88888896e-001
      5.00000000e-001 4.72222239e-001 5.00000000e-001 4.72222239e-001
      4.44444448e-001 5.00000000e-001 5.55555582e-001 1. 1. 1.
      7.77777791e-001 6.38888896e-001 5.00000000e-001 5.00000000e-001
      3.88888896e-001 3.88888896e-001 4.16666657e-001 5.00000000e-001
      4.72222239e-001 4.16666657e-001 4.16666657e-001 5.00000000e-001
      6.94444478e-001 9.16666687e-001 8.61111104e-001 4.16666657e-001
      1.11111112e-001 8.33333358e-002 8.33333358e-002 3.33333343e-001
      5.00000000e-001 6.11111104e-001 6.94444478e-001 7.22222209e-001
      6.38888896e-001 1.94444448e-001 2.22222224e-001 3.61111104e-001
      4.72222239e-001 9.72222209e-001 9.72222209e-001 9.16666687e-001
      7.77777791e-001 8.05555582e-001 8.05555582e-001 7.77777791e-001
      5.55555582e-001 4.16666657e-001 3.33333343e-001 2.22222224e-001
      3.61111104e-001 5.27777791e-001 6.66666687e-001 7.22222209e-001
      8.61111104e-001 9.44444478e-001 3.33333343e-001 0. 0. 0. 0. 0. 0.
      0. 4.90566045e-001 9.43396211e-001 9.62264180e-001 7.83018887e-001
      5.00000000e-001 4.43396240e-001 3.49056602e-001 3.11320752e-001
      3.58490586e-001 5.75471699e-001 6.88679278e-001 7.07547188e-001
      7.54716992e-001 7.45283008e-001 7.26415098e-001 6.60377383e-001
      6.22641504e-001 6.03773594e-001 5.94339609e-001 6.03773594e-001
      6.50943398e-001 6.98113203e-001 6.98113203e-001 6.98113203e-001
      6.88679278e-001 7.16981173e-001 7.16981173e-001 5.28301895e-001
      3.96226406e-001 4.15094346e-001 4.62264150e-001 5.37735879e-001
      6.69811308e-001 9.33962286e-001 1. 7.92452812e-001 7.57128820e-002
      4.22812216e-002 3.73647995e-002 3.93313691e-002 4.52310741e-002
      4.42477874e-002 4.62143570e-002 5.30973487e-002 8.75122920e-002
      1.07177980e-001 1.30776793e-001 2.29105219e-001 3.16617519e-001
      4.95575249e-001 8.74139667e-001 1. 4.65093434e-001 1.91740423e-001
      6.09636195e-002 1.67158321e-002 9.83284228e-003 1.08161261e-002
      3.93313682e-003 9.83284204e-004 0. 5.89970499e-003 0. 0. 0. 0.
      7.86627363e-003 0. 0. 0. 0. 9.83284204e-004 9.83284204e-004 0. 0.
      0. 0. 0. 2.94985250e-003 0. 0. 0. 0. 0. 0. 0. 3.93313682e-003 0.
      0. 0. 0. 0. 0. 0. 0. 0. 0. 0. 0. 0. 0. 0. 0. 0. 0. 0. 0. 0. 0. 0.
      0. 4.91642114e-003 0. 0. 0. 9.83284204e-004 4.91642114e-003 0. 0.
      4.91642114e-003 0. 1.96656841e-003 0. 1.47492634e-002
      9.83284204e-004 0. 1.47492634e-002 3.93313682e-003 5.89970499e-003
      1.47492634e-002 5.89970499e-003 3.24483775e-002 1.17994100e-002
      1.96656841e-003 3.93313691e-002 1.57325473e-002 7.86627363e-003
      2.75319573e-002 9.83284228e-003 2.75319573e-002 1.27826948e-002
      1.27826948e-002 2.35988200e-002 8.84955749e-003 3.93313682e-003
      9.83284228e-003 1.96656841e-003 1.76991150e-002 5.89970499e-003
      9.83284228e-003 1.96656841e-003 4.91642114e-003 1.96656841e-003 0.
      0. 0. 4.91642114e-003 0. 0. 0. 2.94985250e-003 5.89970499e-003 0.
      0. 0. 0. 9.83284204e-004 0. 0. 1.96656841e-003 0. 0. 0. 0.
      9.83284204e-004 0. 1.96656841e-003 9.83284204e-004 0. 0.
      9.83284204e-004 9.83284204e-004 9.83284204e-004 0. 0. 0. 0. 0. 0.
      0. 0. 0. 0. 0. 0. 0. 0. 0. 0. 0. 0. 9.83284204e-004 0. 0. 0. 0. 0.
      0. 0. 9.83284204e-004 9.83284204e-004 0. 9.83284204e-004
      5.89970499e-003 2.94985250e-003 1.96656841e-003</_>
    <_>
      1. 1. 1. 9.72222209e-001 3.88888896e-001 1.38888896e-001
      1.11111112e-001 4.16666657e-001 5.00000000e-001 5.55555582e-001
      5.55555582e-001 4.44444448e-001 5.00000000e-001 5.55555582e-001
      5.55555582e-001 6.11111104e-001 5.83333313e-001 5.83333313e-001
      5.27777791e-001 1.94444448e-001 8.33333358e-002 2.77777780e-002
      2.77777780e-002 1.38888896e-001 2.50000000e-001 3.88888896e-001
      4.44444448e-001 5.00000000e-001 5.83333313e-001 5.27777791e-001
      5.00000000e-001 5.83333313e-001 6.66666687e-001 5.55555582e-001
      4.72222239e-001 2.77777791e-001 1.38888896e-001 8.33333358e-002
      2.77777780e-002 2.77777780e-002 2.77777780e-002 2.77777780e-002
      2.77777780e-002 2.77777780e-002 2.77777780e-002 2.77777780e-002
      1.11111112e-001 2.22222224e-001 3.33333343e-001 3.88888896e-001
      4.72222239e-001 4.72222239e-001 5.27777791e-001 5.00000000e-001
      5.55555582e-001 6.94444478e-001 6.94444478e-001 5.00000000e-001
      3.05555552e-001 1.66666672e-001 2.77777780e-002 2.77777780e-002
      2.77777780e-002 8.33333358e-002 1.94444448e-001 3.33333343e-001
      5.00000000e-001 5.00000000e-001 5.83333313e-001 5.00000000e-001
      4.72222239e-001 5.00000000e-001 6.38888896e-001 5.55555582e-001
      4.16666657e-001 3.61111104e-001 1.66666672e-001 2.77777780e-002
      5.55555560e-002 5.55555560e-002 1.38888896e-001 2.77777791e-001
      3.33333343e-001 4.16666657e-001 4.72222239e-001 5.27777791e-001
      4.72222239e-001 4.44444448e-001 5.55555582e-001 6.66666687e-001
      5.27777791e-001 4.44444448e-001 3.05555552e-001 1.11111112e-001
      2.77777780e-002 2.77777780e-002 2.77777780e-002 1.66666672e-001
      3.05555552e-001 4.72222239e-001 5.27777791e-001 6.66666687e-001
      5.83333313e-001 5.00000000e-001 5.83333313e-001 6.66666687e-001
      7.22222209e-001 4.72222239e-001 3.33333343e-001 1.66666672e-001
      5.55555560e-002 2.77777780e-002 2.77777780e-002 8.33333358e-002
      2.50000000e-001 3.33333343e-001 4.44444448e-001 5.00000000e-001
      5.55555582e-001 5.27777791e-001 5.27777791e-001 5.83333313e-001
      6.94444478e-001 7.22222209e-001 5.00000000e-001 3.33333343e-001
      1.66666672e-001 8.33333358e-002 1.11111112e-001 3.88888896e-001 1.
      1. 1. 1. 1. 1. 9.25531864e-001 1.27659574e-001 1.17021270e-001
      1.17021270e-001 1.91489354e-001 3.82978708e-001 4.68085080e-001
      4.99999970e-001 5.10638297e-001 6.48936152e-001 6.48936152e-001
      6.80851042e-001 6.06382966e-001 5.95744669e-001 6.91489339e-001
      8.08510602e-001 8.08510602e-001 7.76595712e-001 6.80851042e-001
      7.44680822e-001 7.23404229e-001 7.44680822e-001 6.80851042e-001
      7.02127635e-001 8.19148898e-001 9.57446754e-001 9.99999940e-001
      9.78723347e-001 8.93616974e-001 7.34042525e-001 4.89361674e-001
      1.70212761e-001 1.27659574e-001 1.27659574e-001 1.38297871e-001
      5.53191483e-001 3.55371892e-001 4.21487600e-001 2.35537186e-001
      7.43801594e-002 4.09090906e-001 4.25619811e-001 3.30578506e-001
      1.65289253e-001 4.04958665e-001 2.80991733e-001 2.06611559e-001
      3.80165279e-001 1.73553705e-001 1.69421479e-001 1.36363626e-001
      2.68595040e-001 9.91735458e-002 2.35537186e-001 4.54545431e-002
      2.06611559e-001 1.48760319e-001 1.36363626e-001 2.02479333e-001
      5.37190065e-002 3.88429731e-001 7.43801594e-002 2.02479333e-001
      6.19834699e-002 0. 0. 0. 0. 0. 0. 0. 0. 0. 0. 0. 0. 0. 0. 0. 0. 0.
      0. 0. 0. 0. 0. 0. 0. 0. 0. 0. 0. 0. 0. 0. 0. 0. 0. 0. 0. 0. 0. 0.
      0. 0. 0. 0. 0. 0. 0. 0. 0. 0. 0. 0. 0. 0. 0. 0. 0. 0. 0. 0. 0. 0.
      0. 0. 0. 0. 0. 0. 0. 0. 0. 0. 0. 0. 0. 0. 0. 0. 0. 0. 0. 0. 0. 0.
      0. 0. 0. 0. 0. 0. 0. 0. 0. 0. 0. 0. 0. 0. 0. 0. 0. 0. 0. 0. 0. 0.
      0. 0. 0. 0. 2.89256182e-002 2.89256182e-002 2.47933865e-002
      1.61157012e-001 1.07438013e-001 5.78512363e-002 1.73553705e-001
      3.30578499e-002 1.77685946e-001 1.07438013e-001 7.85123929e-002
      1.40495867e-001 1.48760319e-001 1.52892560e-001 1.23966940e-001
      1.07438013e-001 2.10743800e-001 4.58677679e-001 3.01652879e-001
      4.46280986e-001 4.38016504e-001 2.76859492e-001 7.60330558e-001
      4.99999970e-001 3.55371892e-001 5.37190080e-001 7.35537171e-001
      7.97520638e-001 8.63636315e-001 2.93388426e-001 8.59504104e-001
      2.14876026e-001 1.03305779e-001 9.99999940e-001 1.98347092e-001
      4.13223118e-001 4.33884293e-001 5.16528904e-001 2.60330558e-001
      2.76859492e-001 6.44628048e-001 9.50413197e-002 2.93388426e-001</_>
    <_>
      1.00000009e-001 8.33333373e-001 9.00000036e-001 1.33333340e-001
      1.00000009e-001 2.66666681e-001 5.66666722e-001 5.00000000e-001
      1.66666672e-001 2.00000018e-001 5.66666722e-001 5.00000000e-001
      3.00000012e-001 3.00000012e-001 2.00000018e-001 3.33333343e-001
      3.33333343e-001 3.00000012e-001 3.33333351e-002 3.33333351e-002
      6.66666701e-002 7.66666710e-001 7.66666710e-001 7.66666710e-001
      2.00000018e-001 2.00000018e-001 1.66666672e-001 1.33333340e-001
      1.66666672e-001 2.33333349e-001 7.66666710e-001 7.00000048e-001
      6.00000024e-001 3.33333351e-002 6.66666701e-002 6.66666701e-002
      6.66666701e-002 1.66666672e-001 1.66666672e-001 1.00000009e-001
      6.66666701e-002 6.66666701e-002 6.66666701e-002 2.66666681e-001
      3.33333343e-001 4.00000036e-001 4.33333367e-001 4.00000036e-001
      4.33333367e-001 4.66666698e-001 4.66666698e-001 4.66666698e-001
      4.33333367e-001 3.33333343e-001 2.66666681e-001 1.00000009e-001
      6.66666701e-002 6.66666701e-002 6.66666701e-002 2.00000018e-001
      3.66666675e-001 4.00000036e-001 4.33333367e-001 4.00000036e-001
      4.00000036e-001 4.00000036e-001 4.00000036e-001 4.33333367e-001
      5.33333361e-001 4.33333367e-001 3.66666675e-001 6.66666701e-002
      6.66666701e-002 6.66666701e-002 1.33333340e-001 3.00000012e-001
      3.66666675e-001 4.66666698e-001 4.33333367e-001 4.00000036e-001
      4.33333367e-001 4.33333367e-001 3.66666675e-001 4.33333367e-001
      5.00000000e-001 4.33333367e-001 3.00000012e-001 6.66666701e-002
      3.33333351e-002 3.33333351e-002 5.66666722e-001 6.33333385e-001
      6.33333385e-001 2.00000018e-001 2.00000018e-001 2.33333349e-001
      2.33333349e-001 2.00000018e-001 3.00000012e-001 3.33333343e-001
      7.33333349e-001 7.00000048e-001 5.66666722e-001 6.66666701e-002
      6.66666701e-002 6.66666701e-002 3.33333343e-001 5.33333361e-001
      7.33333349e-001 5.33333361e-001 4.00000036e-001 3.66666675e-001
      3.66666675e-001 3.66666675e-001 4.66666698e-001 7.00000048e-001
      6.00000024e-001 4.66666698e-001 6.66666701e-002 6.66666701e-002
      6.66666701e-002 1. 0. 0. 0. 0. 3.33333351e-002 3.33333351e-002
      6.66666701e-002 3.33333351e-002 6.66666701e-002 6.66666701e-002
      1.00000009e-001 1.00000009e-001 1.00000009e-001 1.00000009e-001 1.
      1.01010099e-001 6.06060624e-002 3.03030312e-002 3.03030312e-002
      1.01010099e-001 5.95959604e-001 7.07070708e-001 5.05050480e-001
      4.14141417e-001 4.54545468e-001 4.04040396e-001 4.14141417e-001
      3.93939406e-001 4.14141417e-001 4.14141417e-001 4.54545468e-001
      4.34343427e-001 3.73737365e-001 3.73737365e-001 3.43434334e-001
      3.63636374e-001 3.63636374e-001 3.83838385e-001 6.66666687e-001
      7.17171729e-001 6.06060624e-001 3.03030312e-002 2.02020202e-002
      1.01010101e-002 2.02020202e-002 8.98989916e-001 0. 1.11111112e-001
      1.71717167e-001 2.42424250e-001 0. 0. 0. 0. 0. 0. 0. 0. 0. 0. 0.
      0. 0. 0. 0. 0. 0. 0. 0. 0. 0. 0. 0. 0. 0. 0. 0. 0. 0. 0. 0. 0. 0.
      0. 0. 1.87969930e-003 0. 0. 5.63909765e-003 0. 0. 0.
      1.50375944e-002 0. 0. 0. 0. 0. 3.75939859e-003 0. 7.51879718e-003
      1.87969930e-003 0. 0. 0. 0. 0. 0. 0. 0. 5.63909765e-003 0.
      5.63909765e-003 0. 0. 3.75939859e-003 3.75939859e-003
      1.87969930e-003 0. 5.63909765e-003 9.39849671e-003 0. 0.
      9.39849671e-003 9.39849671e-003 1.87969930e-003 1.87969930e-003 0.
      0. 7.51879718e-003 1.87969934e-002 0. 0. 7.51879718e-003
      3.75939859e-003 3.38345878e-002 0. 2.44360901e-002 1.31578948e-002
      1.87969930e-003 1.25939846e-001 1.87969934e-002 3.75939868e-002
      4.69924808e-002 3.00751887e-002 1.10902257e-001 8.08270723e-002
      2.44360901e-002 1.59774438e-001 7.33082741e-002 1.14661656e-001
      2.33082712e-001 1.35338351e-001 2.68797010e-001 1.48496240e-001
      2.87593991e-001 2.21804515e-001 3.27067673e-001 2.96992481e-001
      4.28571433e-001 5.62030077e-001 5.16917288e-001 7.78195500e-001
      7.04887211e-001 1. 6.87969923e-001 4.81203020e-001 2.87593991e-001
      1.50375947e-001 1.35338351e-001 9.96240601e-002 5.26315793e-002
      5.26315793e-002 5.07518798e-002 5.63909784e-002 7.89473727e-002
      3.00751887e-002 1.12781953e-002 7.51879718e-003 3.75939859e-003
      1.87969934e-002 1.87969930e-003 5.63909765e-003 1.12781953e-002
      5.63909765e-003 0. 0. 0. 1.87969930e-003 0. 3.75939859e-003
      3.75939859e-003 5.63909765e-003 0. 1.87969930e-003 1.87969930e-003
      1.87969930e-003 1.87969930e-003 0. 0. 1.87969930e-003 0. 0.
      1.87969930e-003 0. 0. 5.63909765e-003 0. 0. 0. 1.87969930e-003 0.
      0. 0. 0. 1.87969930e-003 0. 0. 0. 0. 0. 0. 0. 0. 0. 0. 0. 0. 0. 0.</_>
    <_>
      1.11111112e-001 0. 0. 9.72222209e-001 1. 5.55555582e-001
      4.44444448e-001 4.16666657e-001 4.44444448e-001 5.27777791e-001
      7.77777791e-001 6.66666687e-001 4.16666657e-001 4.16666657e-001
      4.16666657e-001 4.16666657e-001 5.27777791e-001 7.50000000e-001
      9.72222209e-001 1. 1. 1. 3.05555552e-001 2.50000000e-001
      2.50000000e-001 6.66666687e-001 6.94444478e-001 6.94444478e-001
      6.38888896e-001 5.00000000e-001 5.27777791e-001 3.05555552e-001
      1.38888896e-001 1.11111112e-001 3.88888896e-001 8.88888896e-001 1.
      1. 9.44444478e-001 9.16666687e-001 9.16666687e-001 1. 1. 1. 1. 1.
      1. 1. 1. 1. 2.77777791e-001 2.50000000e-001 2.50000000e-001
      8.88888896e-001 1. 1. 1. 1. 1. 1. 1. 9.72222209e-001
      9.16666687e-001 8.88888896e-001 8.88888896e-001 8.88888896e-001
      8.88888896e-001 6.38888896e-001 5.27777791e-001 4.16666657e-001
      5.27777791e-001 6.38888896e-001 7.50000000e-001 8.33333313e-001
      9.16666687e-001 1. 1. 1. 8.05555582e-001 4.72222239e-001
      4.44444448e-001 4.44444448e-001 6.66666687e-001 7.50000000e-001
      7.50000000e-001 7.22222209e-001 7.50000000e-001 6.66666687e-001
      5.00000000e-001 5.83333313e-001 6.38888896e-001 1. 1. 1.
      8.61111104e-001 5.83333313e-001 5.27777791e-001 4.44444448e-001
      4.44444448e-001 4.44444448e-001 5.55555582e-001 6.66666687e-001
      6.38888896e-001 5.83333313e-001 5.00000000e-001 5.55555582e-001
      6.66666687e-001 8.33333313e-001 1. 1. 1. 8.05555582e-001
      5.00000000e-001 4.16666657e-001 4.44444448e-001 6.66666687e-001
      7.22222209e-001 7.50000000e-001 7.50000000e-001 6.94444478e-001
      6.94444478e-001 5.00000000e-001 5.55555582e-001 6.11111104e-001 1.
      1. 9.72222209e-001 0. 0. 5.55555560e-002 1.11111112e-001
      8.33333358e-002 8.33333358e-002 1.11111112e-001 1.11111112e-001
      1.38888896e-001 9.19354796e-001 9.19354796e-001 9.03225780e-001
      9.11290288e-001 9.11290288e-001 5.64516127e-001 5.00000000e-001
      4.35483873e-001 5.80645144e-001 6.85483873e-001 6.77419305e-001
      7.01612890e-001 7.33870924e-001 7.41935492e-001 6.85483873e-001
      5.80645144e-001 5.48387051e-001 5.24193525e-001 5.96774161e-001
      7.09677398e-001 7.74193525e-001 7.66129017e-001 7.41935492e-001
      7.33870924e-001 6.93548381e-001 6.69354796e-001 6.53225780e-001
      6.53225780e-001 5.80645144e-001 6.20967746e-001 7.09677398e-001
      9.11290288e-001 1. 9.19354796e-001 8.87096763e-001 8.70967746e-001
      8.23892932e-003 0. 0. 1.02986617e-003 0. 2.05973233e-003
      3.08959838e-003 0. 3.08959838e-003 3.08959838e-003 0.
      1.02986617e-003 2.05973233e-003 7.20906304e-003 8.23892932e-003
      1.23583935e-002 2.26570554e-002 6.59114346e-002 1.29763141e-001
      2.98661202e-001 4.46961910e-001 6.96189523e-001 1. 7.37384200e-001
      3.89289409e-001 2.38928944e-001 1.97734296e-001 1.74047381e-001
      1.23583943e-001 9.16580856e-002 5.25231734e-002 3.81050482e-002
      2.67765205e-002 3.60453166e-002 4.01647799e-002 3.50154489e-002
      1.33882603e-002 1.02986619e-002 8.23892932e-003 9.26879514e-003
      1.02986619e-002 1.02986617e-003 6.17919676e-003 3.08959838e-003
      2.05973233e-003 0. 0. 0. 1.02986617e-003 0. 7.20906304e-003
      1.02986617e-003 0. 0. 0. 2.05973233e-003 1.02986617e-003 0. 0. 0.
      0. 0. 0. 0. 0. 0. 2.05973233e-003 0. 0. 0. 0. 0. 0. 0. 0.
      3.08959838e-003 0. 0. 0. 0. 2.05973233e-003 0. 0. 8.23892932e-003
      0. 0. 0. 0. 0. 0. 0. 0. 0. 0. 0. 0. 5.14933094e-003 0. 0. 0. 0. 0.
      0. 1.13285277e-002 0. 0. 7.20906304e-003 0. 0. 6.17919676e-003
      1.02986617e-003 6.17919676e-003 0. 0. 3.08959838e-003
      2.05973233e-003 0. 0. 0. 0. 1.02986619e-002 0. 0. 0. 0.
      1.02986617e-003 0. 0. 0. 0. 0. 0. 2.05973233e-003 0. 0. 0. 0. 0.
      0. 0. 0. 0. 0. 0. 0. 0. 0. 0. 0. 0. 0. 0. 0. 0. 0. 0. 0. 0. 0. 0.
      0. 0. 0. 0. 0. 0. 0. 0. 0. 0. 0. 0. 0. 0. 0. 0. 0. 1.02986617e-003
      0. 1.02986617e-003</_>
    <_>
      3.03030312e-002 0. 0. 0. 1.81818187e-001 1. 9.09090936e-002
      9.09090936e-002 9.09090936e-002 2.12121218e-001 3.63636374e-001
      4.24242437e-001 4.54545468e-001 5.45454562e-001 3.93939406e-001
      3.03030312e-001 2.42424250e-001 6.36363626e-001 5.75757623e-001
      1.81818187e-001 2.12121218e-001 1.21212125e-001 3.03030312e-002
      3.03030312e-002 3.03030312e-002 6.96969748e-001 7.27272749e-001
      6.66666687e-001 2.12121218e-001 1.81818187e-001 2.12121218e-001
      2.12121218e-001 2.42424250e-001 2.42424250e-001 2.42424250e-001
      2.12121218e-001 2.72727281e-001 1.51515156e-001 3.03030312e-002
      3.03030312e-002 3.03030312e-002 0. 0. 3.03030312e-002
      3.03030312e-002 3.03030312e-002 3.03030312e-002 3.03030312e-002
      5.45454562e-001 6.06060624e-001 6.66666687e-001 1.81818187e-001
      1.51515156e-001 1.81818187e-001 2.42424250e-001 2.42424250e-001
      2.42424250e-001 2.72727281e-001 6.36363626e-001 5.75757623e-001
      4.24242437e-001 0. 0. 0. 6.06060624e-002 9.09090936e-002
      1.21212125e-001 1.21212125e-001 9.09090936e-002 6.06060624e-002
      6.06060624e-002 6.06060624e-002 9.09090936e-002 1.21212125e-001
      6.36363626e-001 6.06060624e-001 5.75757623e-001 0. 0.
      3.03030312e-002 6.06060624e-002 3.03030312e-002 6.06060624e-002
      3.03030312e-002 0. 3.33333343e-001 6.66666687e-001 6.66666687e-001
      1.21212125e-001 0. 0. 0. 0. 0. 0. 0. 0. 3.03030312e-001
      4.54545468e-001 5.75757623e-001 3.33333343e-001 2.42424250e-001
      2.42424250e-001 2.12121218e-001 2.12121218e-001 3.33333343e-001
      4.54545468e-001 6.06060624e-001 4.54545468e-001 1.51515156e-001
      9.09090936e-002 6.06060624e-002 6.06060624e-002 1.21212125e-001
      3.93939406e-001 6.06060624e-001 4.84848499e-001 3.03030312e-001
      2.42424250e-001 2.12121218e-001 2.12121218e-001 3.03030312e-001
      3.63636374e-001 5.45454562e-001 5.45454562e-001 3.63636374e-001 0.
      6.06060624e-002 6.06060624e-002 7.57575750e-001 1.81818187e-001 0.
      0. 0. 0. 0. 5.35714328e-002 4.10714298e-001 1.60714298e-001
      7.14285746e-002 1.25000000e-001 2.50000000e-001 5.71428597e-001 1.
      9.82142925e-001 7.32142866e-001 7.32142866e-001 6.25000000e-001
      5.71428597e-001 5.17857194e-001 6.42857194e-001 6.78571463e-001
      9.10714328e-001 8.75000060e-001 7.50000060e-001 6.25000000e-001
      6.60714328e-001 6.78571463e-001 6.42857194e-001 7.14285731e-001
      8.03571463e-001 8.21428597e-001 8.03571463e-001 6.96428597e-001
      4.28571463e-001 1.07142866e-001 1.78571437e-002 1.78571437e-002
      5.35714328e-002 5.35714328e-002 3.39285731e-001 1.25000000e-001
      1.67682916e-001 0. 0. 9.14634112e-003 0. 2.13414617e-002
      2.74390243e-002 0. 0. 0. 0. 6.09756075e-003 0. 1.21951215e-002 0.
      0. 0. 0. 0. 0. 1.52439019e-002 0. 0. 0. 0. 0. 0. 0. 0. 0.
      1.52439019e-002 0. 0. 0. 0. 0. 6.09756075e-003 0. 0. 0. 0. 0.
      9.14634112e-003 0. 0. 0. 0. 0. 0. 0. 2.74390243e-002 0. 0. 0. 0.
      0. 0. 0. 0. 0. 1.21951215e-002 0. 0. 0. 0. 3.04878037e-003
      4.57317047e-002 0. 0. 3.04878037e-003 2.13414617e-002
      3.04878037e-003 3.04878037e-003 2.13414617e-002 2.74390243e-002
      1.58536583e-001 1.52439019e-002 3.04878037e-003 0. 4.57317047e-002
      2.04268292e-001 6.09756075e-003 1.21951215e-002 1.21951215e-001
      1.21951215e-001 6.09756075e-002 3.04878037e-003 2.46951208e-001
      3.96341458e-002 1.52439019e-002 3.71951193e-001 3.04878037e-003
      7.01219514e-002 1.67682916e-001 0. 4.08536583e-001 3.35365832e-001
      0. 4.32926804e-001 2.74390243e-002 3.04878037e-003 4.57317054e-001
      9.14634112e-003 9.26829219e-001 2.59146333e-001 6.70731664e-002
      5.57926834e-001 2.13414617e-002 4.57317047e-002 5.64024389e-001
      2.49999985e-001 6.61585331e-001 1.73780486e-001 2.98780471e-001
      6.18902445e-001 5.60975611e-001 3.10975611e-001 0. 9.14634112e-003
      0. 9.99999940e-001 0. 1.18902437e-001 0. 4.54268277e-001
      6.95121944e-001 5.24390221e-001 9.14634112e-003 1.40243903e-001
      7.31707290e-002 2.10365847e-001 6.09756075e-003 3.71951193e-001
      3.23170722e-001 0. 5.79268262e-002 4.26829234e-002 0.
      1.95121944e-001 1.52439019e-002 1.24999993e-001 1.92073166e-001
      9.75609720e-002 1.21951215e-002 3.04878037e-002 1.82926819e-001
      1.21951215e-001 7.01219514e-002 2.74390243e-002 6.09756075e-003
      7.92682916e-002 0. 3.35365832e-002 8.23170692e-002 0.
      4.57317047e-002 1.18902437e-001 2.13414617e-002 2.13414617e-002
      3.04878037e-002 5.48780486e-002 1.21951215e-002 0. 1.52439019e-002
      2.13414617e-002 7.01219514e-002 3.04878037e-003 0. 0. 0.
      2.43902430e-002 0. 0. 5.48780486e-002 0. 0. 0. 9.14634112e-003 0.
      0.</_>
    <_>
      9.35483813e-001 9.35483813e-001 9.35483813e-001 6.12903237e-001
      4.83870953e-001 5.16129017e-001 4.83870953e-001 4.83870953e-001
      5.16129017e-001 5.48387051e-001 5.48387051e-001 5.48387051e-001
      5.16129017e-001 4.83870953e-001 4.51612890e-001 4.19354826e-001
      3.54838699e-001 1.93548381e-001 0. 0. 0. 0. 0. 0. 9.67741907e-002
      2.25806445e-001 2.25806445e-001 2.58064508e-001 2.58064508e-001
      2.58064508e-001 2.58064508e-001 2.58064508e-001 2.58064508e-001
      2.58064508e-001 2.58064508e-001 3.87096763e-001 5.48387051e-001
      6.45161271e-001 8.06451559e-001 9.67741907e-001 8.70967746e-001
      6.77419305e-001 4.83870953e-001 4.19354826e-001 2.25806445e-001 0.
      0. 0. 0. 0. 0. 1.93548381e-001 2.58064508e-001 2.58064508e-001
      2.58064508e-001 2.58064508e-001 2.58064508e-001 2.58064508e-001
      2.58064508e-001 2.25806445e-001 2.58064508e-001 3.87096763e-001
      6.12903237e-001 6.77419305e-001 7.74193525e-001 1. 8.38709652e-001
      7.74193525e-001 5.48387051e-001 4.19354826e-001 3.22580636e-001 0.
      0. 0. 0. 0. 9.67741907e-002 7.09677398e-001 7.74193525e-001
      8.06451559e-001 8.38709652e-001 2.90322572e-001 2.25806445e-001
      2.25806445e-001 1.93548381e-001 2.25806445e-001 2.25806445e-001
      2.58064508e-001 2.58064508e-001 2.58064508e-001 2.90322572e-001
      3.54838699e-001 4.19354826e-001 4.19354826e-001 3.54838699e-001
      3.22580636e-001 1.93548381e-001 0. 0. 0. 0. 0. 0. 9.03225780e-001
      9.67741907e-001 9.67741907e-001 9.67741907e-001 8.38709652e-001 0.
      0. 0. 0. 0. 0. 0. 0. 0. 0. 9.35483813e-001 9.67741907e-001 1.
      9.67741907e-001 8.70967746e-001 0. 0. 0. 0. 0. 0. 0. 0. 0. 0. 0.
      0. 0. 0. 0. 0. 0. 0. 1.51162788e-001 6.97674394e-001
      8.60465109e-001 9.06976759e-001 9.53488350e-001 9.65116262e-001
      9.88372087e-001 1. 7.79069781e-001 4.41860467e-001 4.18604642e-001
      3.95348847e-001 3.95348847e-001 3.60465109e-001 3.60465109e-001
      3.72093022e-001 3.37209314e-001 3.02325577e-001 3.13953489e-001
      3.13953489e-001 3.25581402e-001 3.48837197e-001 3.72093022e-001
      4.41860467e-001 4.41860467e-001 4.53488380e-001 4.65116262e-001
      4.76744175e-001 4.76744175e-001 4.76744175e-001 4.76744175e-001 0.
      0. 0. 0. 0. 0. 0. 0. 0. 0. 0. 0. 0. 0. 0. 0. 0. 0. 0. 0. 0. 0. 0.
      0. 0. 0. 0. 0. 0. 0. 0. 0. 0. 0. 0. 0. 0. 0. 0. 0. 0. 0. 0. 0. 0.
      0. 0. 0. 0. 0. 0. 0. 0. 0. 0. 0. 0. 0. 0. 0. 0. 0. 0. 0. 0. 0. 0.
      0. 0. 0. 0. 0. 0. 0. 0. 0. 0. 0. 0. 0. 0. 0. 0. 0. 0. 0. 0. 0. 0.
      0. 0. 0. 0. 0. 0. 0. 0. 0. 0. 0. 0. 0. 0. 0. 0. 5.23560215e-003
      1.43979061e-002 9.03141350e-002 9.03141350e-002 1.11256547e-001
      1.78010479e-001 2.42146596e-001 5.18324614e-001 6.92408383e-001
      8.49476457e-001 6.74083769e-001 1. 6.88481688e-001 4.92146611e-001
      3.48167539e-001 1.60994768e-001 6.28272295e-002 6.15183264e-002
      3.92670147e-002 2.22513098e-002 6.15183264e-002 3.92670184e-003 0.
      1.30890054e-003 0. 0. 0. 0. 0. 0. 0. 0. 0. 0. 0. 0. 0. 0. 0. 0. 0.
      0. 0. 0. 0. 0. 0. 0. 0. 0. 0. 0. 0. 0. 0. 0. 0. 0. 0. 0. 0. 0. 0.
      0. 0. 0. 0. 0. 0. 0. 0. 0. 0. 0. 0.</_>
    <_>
      4.19354826e-001 0. 6.45161271e-002 5.48387051e-001 6.45161271e-001
      3.22580636e-001 3.22580636e-001 8.70967746e-001 8.06451559e-001
      2.90322572e-001 3.87096763e-001 7.74193525e-001 6.12903237e-001
      6.77419305e-001 5.80645144e-001 3.22580636e-002 3.22580636e-002
      3.22580636e-002 5.48387051e-001 6.45161271e-001 7.09677398e-001
      2.90322572e-001 2.90322572e-001 1.93548381e-001 1.93548381e-001
      1.61290318e-001 1.93548381e-001 3.87096763e-001 3.87096763e-001
      3.22580636e-001 1.29032254e-001 0. 6.45161271e-002 1.93548381e-001
      2.90322572e-001 2.58064508e-001 2.25806445e-001 9.67741907e-002
      6.45161271e-002 6.45161271e-002 3.87096763e-001 5.48387051e-001
      6.77419305e-001 5.48387051e-001 3.87096763e-001 3.54838699e-001
      3.22580636e-001 3.87096763e-001 5.48387051e-001 7.74193525e-001
      7.09677398e-001 4.19354826e-001 1.29032254e-001 0. 1.29032254e-001
      4.19354826e-001 4.51612890e-001 4.51612890e-001 5.16129017e-001
      5.48387051e-001 5.16129017e-001 4.83870953e-001 4.51612890e-001
      6.12903237e-001 6.12903237e-001 7.41935492e-001 6.77419305e-001
      5.48387051e-001 4.51612890e-001 5.16129017e-001 5.16129017e-001
      6.12903237e-001 5.80645144e-001 4.83870953e-001 3.22580636e-001
      3.87096763e-001 8.06451559e-001 7.74193525e-001 5.80645144e-001
      9.67741907e-002 1.29032254e-001 3.87096763e-001 4.83870953e-001
      5.80645144e-001 5.80645144e-001 2.90322572e-001 2.90322572e-001
      3.54838699e-001 4.19354826e-001 4.19354826e-001 3.87096763e-001
      3.87096763e-001 4.83870953e-001 6.12903237e-001 6.12903237e-001
      8.06451559e-001 7.74193525e-001 6.12903237e-001 6.12903237e-001
      4.83870953e-001 4.51612890e-001 4.19354826e-001 7.74193525e-001 1.
      1. 6.45161271e-001 5.16129017e-001 5.80645144e-001 6.45161271e-001
      6.45161271e-001 6.77419305e-001 6.77419305e-001 9.67741907e-001
      9.35483813e-001 2.90322572e-001 2.25806445e-001 3.54838699e-001
      9.67741907e-001 9.67741907e-001 4.19354826e-001 1.61290318e-001 0.
      0. 0. 0. 0. 0. 0. 0. 0. 0. 0. 0. 0. 0. 0. 0. 5.55555560e-002
      1.94444448e-001 4.30555552e-001 6.11111104e-001 6.38888896e-001
      5.27777791e-001 4.72222239e-001 4.86111104e-001 5.83333313e-001
      7.08333313e-001 6.25000000e-001 7.08333313e-001 7.77777791e-001
      9.16666687e-001 1. 1. 9.02777791e-001 9.02777791e-001
      8.61111104e-001 8.61111104e-001 1. 9.16666687e-001 9.86111104e-001
      9.44444478e-001 8.05555582e-001 6.94444478e-001 4.86111104e-001
      5.00000000e-001 4.86111104e-001 7.50000000e-001 8.19444478e-001
      8.88888896e-001 8.05555582e-001 5.69444478e-001 4.16666679e-002
      2.11988300e-001 0. 1.46198831e-003 1.46198831e-003 0.
      5.84795326e-003 4.53216359e-002 1.46198831e-003 5.84795326e-003
      1.46198831e-003 1.46198831e-003 7.30994157e-003 0. 5.55555560e-002
      1.46198831e-003 0. 5.84795326e-003 0. 0. 3.21637429e-002
      1.02339178e-001 1.31578948e-002 1.46198831e-003 2.92397663e-003
      2.77777780e-002 2.04678364e-002 1.46198831e-003 0. 0. 0.
      4.53216359e-002 0. 0. 0. 0. 7.30994157e-003 8.77192989e-003 0. 0.
      0. 0. 0. 7.30994157e-003 0. 0. 1.46198831e-003 0. 0. 0. 0.
      1.46198831e-002 5.84795326e-003 1.46198831e-003 1.46198831e-003 0.
      4.38596494e-003 1.46198831e-003 0. 0. 0. 1.16959065e-002 0. 0. 0.
      0. 0. 1.31578948e-002 0. 0. 0. 7.30994157e-003 0. 0.
      1.46198831e-003 1.46198831e-003 7.30994195e-002 0. 0. 0. 0.
      8.77192989e-003 1.46198831e-003 0. 2.19298247e-002 0. 0. 0.
      5.84795326e-003 0. 0. 1.16959065e-002 0. 0. 5.84795326e-003
      1.46198831e-003 2.04678364e-002 3.21637429e-002 1.46198831e-003
      3.07017546e-002 1.90058481e-002 1.46198831e-002 6.43274859e-002
      7.16374293e-002 1.30116954e-001 1.73976615e-001 3.23099405e-001
      5.36549687e-001 7.96783626e-001 1. 8.84502947e-001 5.70175469e-001
      3.59649122e-001 2.73391813e-001 1.22807018e-001 1.38888896e-001
      7.89473653e-002 1.25730991e-001 5.11695892e-002 3.80116962e-002
      3.21637429e-002 7.89473653e-002 1.02339182e-002 2.04678364e-002
      2.19298247e-002 2.33918130e-002 4.38596494e-002 2.63157897e-002
      5.84795326e-003 5.84795326e-003 7.30994157e-003 8.77192989e-003
      1.46198831e-003 1.02339182e-002 1.16959065e-002 0. 4.38596494e-003
      0. 0. 4.38596494e-003 0. 1.60818715e-002 1.02339182e-002 0. 0. 0.
      7.30994157e-003 1.46198831e-003 0. 0. 0. 1.46198831e-003 0. 0. 0.
      0. 0. 5.84795326e-003 0. 1.46198831e-003 0. 2.92397663e-003 0. 0.
      1.46198831e-003 7.30994157e-003 8.33333358e-002 0. 0. 0.
      2.92397663e-003 7.30994157e-003 0. 0. 1.46198831e-002 0. 0. 0.
      5.84795326e-003 0. 0.</_>
    <_>
      1. 9.09090936e-001 7.27272749e-001 6.36363626e-001 5.00000000e-001
      4.09090936e-001 3.63636374e-001 2.72727281e-001 4.54545468e-001
      4.09090936e-001 3.63636374e-001 5.00000000e-001 6.81818187e-001
      5.45454562e-001 3.63636374e-001 4.09090936e-001 4.54545468e-001
      5.00000000e-001 4.54545468e-001 4.54545468e-001 5.00000000e-001
      5.00000000e-001 4.54545468e-001 4.54545468e-001 5.45454562e-001
      6.81818187e-001 5.90909123e-001 4.54545468e-001 4.54545468e-001
      5.45454562e-001 5.90909123e-001 5.90909123e-001 3.18181813e-001
      4.54545468e-001 3.63636374e-001 1.81818187e-001 4.54545468e-002
      1.36363640e-001 1.81818187e-001 1.81818187e-001 1.81818187e-001
      3.63636374e-001 4.54545468e-001 5.45454562e-001 4.09090936e-001
      5.00000000e-001 4.09090936e-001 3.63636374e-001 2.27272734e-001
      9.09090936e-002 1.36363640e-001 9.09090936e-002 1.36363640e-001
      9.09090936e-002 9.09090936e-002 9.09090936e-002 9.09090936e-002
      2.72727281e-001 4.09090936e-001 5.00000000e-001 5.00000000e-001
      5.90909123e-001 6.36363626e-001 7.27272749e-001 5.45454562e-001
      4.09090936e-001 3.63636374e-001 4.09090936e-001 4.09090936e-001
      3.63636374e-001 2.72727281e-001 2.27272734e-001 1.81818187e-001
      1.81818187e-001 1.81818187e-001 1.81818187e-001 9.09090936e-002 0.
      0. 9.09090936e-002 2.72727281e-001 4.54545468e-001 5.00000000e-001
      5.45454562e-001 5.00000000e-001 5.45454562e-001 3.63636374e-001
      3.18181813e-001 1.81818187e-001 1.81818187e-001 1.81818187e-001
      1.81818187e-001 0. 0. 0. 0. 0. 0. 2.27272734e-001 3.63636374e-001
      5.45454562e-001 5.90909123e-001 5.90909123e-001 5.90909123e-001
      5.00000000e-001 3.18181813e-001 4.54545468e-002 0. 0. 0. 0. 0.
      1.36363640e-001 3.63636374e-001 4.54545468e-001 5.45454562e-001
      3.63636374e-001 3.18181813e-001 2.72727281e-001 3.18181813e-001
      4.09090936e-001 4.54545468e-001 5.00000000e-001 6.36363626e-001
      9.54545498e-001 8.63636374e-001 7.27272749e-001 5.45454562e-001
      4.54545468e-002 1.81818187e-001 1.81818187e-001 2.72727281e-001
      4.09090936e-001 5.00000000e-001 5.90909123e-001 4.09090936e-001
      3.93442601e-001 3.27868819e-001 1.96721300e-001 1.47540972e-001
      1.31147534e-001 2.13114738e-001 3.60655725e-001 5.90163887e-001
      7.04917967e-001 6.22950792e-001 5.40983558e-001 6.06557369e-001
      5.24590135e-001 5.90163887e-001 5.57377040e-001 5.40983558e-001
      6.55737638e-001 8.68852437e-001 8.68852437e-001 6.39344215e-001
      5.57377040e-001 5.24590135e-001 5.57377040e-001 5.40983558e-001
      5.08196712e-001 5.24590135e-001 5.24590135e-001 5.40983558e-001
      9.50819612e-001 9.99999940e-001 4.59016383e-001 9.83606502e-002
      9.83606502e-002 9.83606502e-002 1.14754096e-001 4.59016383e-001
      8.20793491e-003 0. 1.36798911e-003 1.36798911e-003 0.
      5.47195645e-003 8.20793491e-003 0. 5.47195645e-003 1.36798911e-003
      2.73597823e-003 6.83994545e-003 2.73597823e-003 9.57592390e-003
      8.20793491e-003 4.10396745e-003 1.36798909e-002 6.83994545e-003
      1.09439129e-002 9.57592390e-003 1.50478799e-002 1.09439129e-002
      8.20793491e-003 4.10396745e-003 9.57592390e-003 9.57592390e-003
      9.57592390e-003 0. 0. 0. 1.36798909e-002 0. 9.57592390e-003
      1.36798911e-003 1.36798909e-002 1.77838579e-002 9.57592390e-003
      2.73597823e-003 6.83994545e-003 5.47195645e-003 6.83994545e-003
      1.36798911e-003 5.47195645e-003 1.09439129e-002 0. 0.
      1.36798911e-003 0. 1.09439129e-002 1.36798911e-003 6.83994545e-003
      1.36798911e-003 6.83994545e-003 2.73597823e-003 0. 6.83994545e-003
      1.09439129e-002 4.10396745e-003 1.36798911e-003 1.36798911e-003
      8.20793491e-003 1.36798911e-003 1.36798911e-003 2.73597823e-003 0.
      0. 6.83994545e-003 6.83994545e-003 4.10396745e-003 1.23119019e-002
      1.36798911e-003 1.36798911e-003 4.10396745e-003 2.73597823e-003
      4.10396745e-003 1.23119019e-002 4.10396745e-003 5.47195645e-003 0.
      5.47195645e-003 1.77838579e-002 2.73597823e-003 2.73597823e-003
      6.83994545e-003 1.09439129e-002 4.10396745e-003 5.47195645e-003
      1.50478799e-002 5.47195645e-003 6.83994545e-003 1.91518478e-002
      6.83994545e-003 5.47195645e-003 9.57592390e-003 5.47195645e-003
      3.00957598e-002 1.91518478e-002 5.47195645e-003 3.28317396e-002
      2.59917937e-002 3.41997296e-002 6.01915196e-002 4.78796177e-002
      1.28590971e-001 1.16279073e-001 2.12038308e-001 3.06429565e-001
      5.58139563e-001 9.09712732e-001 1. 8.00273657e-001 5.26675820e-001
      4.50068414e-001 2.28454188e-001 1.43638864e-001 7.93433711e-002
      9.57592353e-002 4.24076617e-002 2.32558157e-002 2.18878258e-002
      3.83036956e-002 5.47195645e-003 2.05198359e-002 9.57592390e-003
      1.77838579e-002 2.59917937e-002 6.83994545e-003 8.20793491e-003
      8.20793491e-003 5.47195645e-003 1.36798911e-003 2.73597823e-003
      6.83994545e-003 6.83994545e-003 1.36798911e-003 1.36798911e-003
      5.47195645e-003 0. 6.83994545e-003 2.73597823e-003 5.47195645e-003
      1.36798911e-003 2.73597823e-003 0. 1.36798911e-003 2.73597823e-003
      4.10396745e-003 0. 1.36798911e-003 0. 4.10396745e-003 0. 0.
      1.36798911e-003 0. 0. 4.10396745e-003 0. 4.10396745e-003
      1.36798911e-003 1.36798911e-003 1.36798911e-003 0. 4.10396745e-003
      2.73597823e-003 4.10396745e-003 1.36798911e-003 0. 0.
      1.36798911e-003 6.83994545e-003 0. 0. 6.83994545e-003 0.
