<?xml version="1.0"?>
<opencv_storage>
<svm type_id="opencv-ml-svm">
  <svm_type>C_SVC</svm_type>
  <kernel><type>LINEAR</type></kernel>
  <C>1.</C>
  <term_criteria><epsilon>2.2204460492503131e-016</epsilon>
    <iterations>1000</iterations></term_criteria>
  <var_all>14688</var_all>
  <var_count>14688</var_count>
  <class_count>2</class_count>
  <class_labels type_id="opencv-matrix">
    <rows>1</rows>
    <cols>2</cols>
    <dt>i</dt>
    <data>
      0 1</data></class_labels>
  <sv_total>1</sv_total>
  <support_vectors>
    <_>
      -5.97692133e-006 -2.07899648e-005 -1.74498782e-005 1.07039559e-005
      -3.86790634e-006 4.33194401e-007 2.32261755e-005 1.10907495e-005
      1.51464683e-005 2.76672399e-005 1.30812941e-005 1.82960630e-005
      2.50735739e-005 8.36295112e-006 1.12234475e-005 1.24118851e-005
      -6.33217724e-006 -4.40597159e-006 -9.54974439e-006
      -2.66925799e-005 -2.68072981e-005 -1.19968736e-005
      -2.91559445e-005 -3.22440683e-005 -5.51395351e-006
      -2.27740202e-005 -2.80539280e-005 -7.68560085e-007
      -1.90739793e-005 -2.47618354e-005 -2.96095595e-006
      -1.93812739e-005 -2.60821525e-005 -4.42203009e-006
      -2.24066516e-005 -2.58348464e-005 -2.02145529e-007
      -1.57814484e-005 -1.79538929e-005 1.02727392e-006 -1.52661432e-005
      -1.75789246e-005 4.64315099e-006 -1.34369602e-005 -1.95305856e-005
      3.29386648e-006 -1.63964451e-005 -2.32352595e-005 5.35649815e-006
      -1.46471548e-005 -2.13096228e-005 1.16248839e-005 -8.93359629e-006
      -1.52551156e-005 1.57756112e-005 -2.66144662e-006 -9.29496764e-006
      1.69667128e-005 -5.76025172e-007 -8.54233622e-006 1.67581074e-005
      3.05346703e-006 -4.39607629e-006 1.49050111e-005 3.25686278e-006
      -4.45601017e-006 1.85282533e-005 9.47464105e-006 8.29531132e-007
      1.82542371e-005 1.08993736e-005 2.64574510e-006 2.54278712e-005
      1.84669079e-005 9.84580674e-006 4.08396845e-005 3.57486970e-005
      2.70663095e-005 4.22583653e-005 4.03494050e-005 3.38512727e-005
      3.52518946e-005 3.39775543e-005 2.92975328e-005 3.53991927e-005
      3.27159069e-005 3.03483030e-005 3.03105335e-005 2.31255381e-005
      2.43302638e-005 7.50908066e-006 -1.77625645e-006 5.33050411e-007
      9.10617928e-006 -2.24260248e-006 1.14676607e-006 1.32253808e-005
      3.15274497e-006 3.54832514e-006 2.24730447e-005 1.34003658e-005
      1.04494839e-005 2.64226219e-005 2.03192958e-005 1.43438656e-005
      3.02328590e-005 2.50059675e-005 1.68501283e-005 3.00603915e-005
      2.44014427e-005 1.55290818e-005 3.90686655e-005 3.14284116e-005
      2.32987732e-005 4.34670146e-005 3.54601507e-005 2.61179830e-005
      3.97438816e-005 3.04130699e-005 2.18329878e-005 3.80390557e-005
      2.76498340e-005 1.95708471e-005 2.68580461e-005 1.60404616e-005
      6.54018095e-006 1.45961512e-005 3.74035039e-006 -1.03006823e-005
      9.07464164e-006 -2.90184244e-006 -1.75808491e-005 -3.74031174e-007
      -1.18385333e-005 -2.48098368e-005 -6.40792663e-008
      -1.27561661e-005 -2.52836489e-005 1.07268067e-006 -1.41930477e-005
      -2.58985128e-005 8.30316822e-006 -7.52986443e-006 -1.87469359e-005
      1.81523301e-005 3.85690601e-006 -6.66904816e-006 1.74287161e-005
      4.26265751e-006 -7.24580696e-006 1.04912415e-005 -2.25411767e-007
      -1.60683867e-005 9.20833918e-006 -1.72242642e-006 -1.81987616e-005
      1.09113944e-005 -1.34357003e-006 -1.69609575e-005 1.47518331e-005
      2.38474399e-006 -1.06092975e-005 1.78720875e-005 5.39128905e-006
      -5.33542470e-006 1.96619967e-005 6.99033080e-006 3.53249561e-007
      1.30249009e-005 2.69565112e-006 -2.04389789e-006 -1.78371113e-006
      -1.08570457e-005 -1.23276095e-005 -1.80330844e-005
      -2.33408027e-005 -2.44034709e-005 -1.87430742e-005
      -2.35680000e-005 -2.43287268e-005 -7.71295527e-006
      -1.40231305e-005 -1.54989430e-005 -1.07866872e-005
      -1.84949658e-005 -1.90488227e-005 -5.47516265e-006
      -1.51284776e-005 -1.53720139e-005 -1.26905925e-005
      -2.34516301e-005 -2.22186609e-005 -2.57332363e-006
      -1.49933076e-005 -1.22898991e-005 6.44341480e-006 -7.23165113e-006
      -3.30775015e-006 5.65160781e-006 -6.63938090e-006 -4.84303973e-006
      7.07921981e-006 -6.17208980e-006 -4.52418954e-006 9.83284190e-006
      -3.40318752e-006 -5.32771992e-006 4.26466522e-006 -9.47587432e-006
      -1.01953055e-005 -2.48473475e-006 -1.63676250e-005
      -1.40544817e-005 6.91802688e-006 -4.68984945e-006 1.71727223e-007
      1.37596089e-005 5.52836445e-006 1.25384968e-005 1.43139114e-005
      6.44567626e-006 1.47578457e-005 1.29716263e-005 6.27528607e-006
      1.18576609e-005 1.43537936e-005 5.84563440e-006 1.12480748e-005
      6.33226500e-006 -8.76772629e-006 4.87794296e-007 3.98150905e-006
      -1.59881347e-005 -6.35972310e-006 6.04450588e-006 -1.83164320e-005
      -9.54615825e-006 1.24578904e-007 -2.55888917e-005 -1.75383975e-005
      -9.33177944e-006 -3.24207576e-005 -2.44486819e-005
      -2.96807252e-006 -2.78056723e-005 -1.77577513e-005 1.86767841e-006
      -2.40856480e-005 -9.53004019e-006 1.00988918e-005 -1.86599664e-005
      -2.57126703e-006 9.84030066e-006 -2.02149004e-005 -5.03567253e-006
      8.59058491e-006 -1.93606811e-005 -5.61997922e-006 1.79727590e-006
      -1.73371409e-005 -6.05878813e-006 7.36805987e-006 -7.95517462e-006
      3.13163582e-006 1.17265408e-005 -3.10928749e-006 1.01831283e-005
      1.06265861e-005 -5.99419582e-006 8.70693384e-006 8.63020796e-006
      -9.75164767e-006 6.32897672e-006 8.80573589e-006 -1.06624657e-005
      5.06349761e-006 3.41657437e-006 -1.24902836e-005 3.53428987e-007
      -6.27915597e-006 -2.18733621e-005 -9.95001483e-006
      -4.62995104e-006 -1.82614367e-005 -9.17893431e-006 4.38775123e-006
      -8.16793727e-006 1.14774775e-006 1.72117361e-005 4.91838409e-006
      1.39801268e-005 2.02705996e-005 8.93197921e-006 1.78764913e-005
      1.60198815e-005 9.08046150e-006 1.70644380e-005 7.00282544e-006
      1.76248182e-006 1.14564027e-005 4.73217688e-006 2.58412456e-006
      1.25146153e-005 -2.04126081e-006 -3.82723420e-006 9.43814393e-006
      2.51302095e-006 -2.16977185e-007 1.89054190e-005 7.82612369e-006
      2.61284003e-006 2.46352229e-005 1.47973806e-005 6.17644764e-006
      3.02192584e-005 1.08206791e-006 -1.16377660e-005 1.21966832e-005
      -7.95295273e-006 -2.48891793e-005 -1.41817793e-006
      -1.10694918e-005 -3.20861873e-005 -9.69742541e-006
      -1.28525344e-005 -3.41668965e-005 -1.36305853e-005
      -1.96835936e-005 -4.29070205e-005 -2.42544393e-005
      -3.37592282e-005 -5.52459896e-005 -4.06630570e-005
      -4.33967398e-005 -6.76643685e-005 -5.28765449e-005
      -4.49727304e-005 -7.66734302e-005 -5.61974193e-005
      -3.69766312e-005 -7.20694879e-005 -5.22348710e-005
      -3.01936398e-005 -6.13050506e-005 -4.79523151e-005
      -1.27916273e-005 -4.61748350e-005 -3.29904615e-005 1.75848209e-006
      -3.66415006e-005 -2.32264683e-005 -2.08172719e-006
      -4.27287487e-005 -2.87203347e-005 -4.27194755e-006
      -4.34491376e-005 -2.95351765e-005 5.81709583e-006 -3.24804641e-005
      -1.75108144e-005 2.07968533e-005 -1.50659644e-005 2.27374153e-006
      2.63509464e-005 -8.04826868e-006 9.75051898e-006 1.66953014e-005
      -1.51232307e-005 1.06439018e-006 7.35745925e-006 -2.04668377e-005
      -7.31451246e-006 -4.60936963e-006 -2.80269342e-005
      -1.92432890e-005 -8.39831773e-006 -2.98627929e-005
      -2.15953896e-005 -5.72289537e-006 -2.55823943e-005
      -1.40776929e-005 -1.20297568e-006 -2.24951946e-005
      -1.03060602e-005 6.42367979e-007 -2.25367112e-005 -9.90862281e-006
      -4.15467957e-006 -2.85401875e-005 -1.60665968e-005
      -9.33817432e-007 -2.32307575e-005 -1.58055464e-005 3.63910044e-006
      -2.01590792e-005 -9.29901671e-006 -8.11527116e-006
      -3.12185439e-005 -1.74476827e-005 -1.54115805e-005
      -3.85430467e-005 -1.88237173e-005 -6.86603607e-006
      -2.62487429e-005 -3.19104743e-006 -1.25423940e-005
      -3.08647977e-005 -5.41679856e-006 -1.04393357e-005
      -2.57299216e-005 -2.30779478e-005 9.12276755e-006 -4.85233340e-006
      -2.77138406e-006 2.32749480e-005 1.14440054e-005 1.34919574e-005
      4.15986360e-005 2.86948580e-005 3.12240772e-005 4.58150789e-005
      2.84831167e-005 2.97287588e-005 3.37533347e-005 1.40393095e-005
      1.37312072e-005 1.75535552e-005 -2.31882905e-006 -4.91902119e-006
      1.49230882e-005 -4.37821336e-006 -9.23827974e-006 1.02737422e-005
      -9.45315060e-006 -1.64761095e-005 4.86616500e-006 -1.39283820e-005
      -2.09471782e-005 8.91056118e-009 -1.71141128e-005 -2.32433158e-005
      -4.78105630e-006 -2.09589562e-005 -2.57389656e-005
      -2.39779888e-006 -1.93782289e-005 -2.19639551e-005
      -9.60122748e-007 -1.71938427e-005 -1.95349076e-005
      -6.81429356e-007 -1.93562701e-005 -2.43678569e-005 2.38429720e-006
      -1.73302451e-005 -2.36125761e-005 1.70915264e-005 -1.71791339e-006
      -8.48017407e-006 2.07672292e-005 2.24528003e-006 -4.13118141e-006
      1.46739949e-005 -2.93312542e-006 -8.86261751e-006 1.25249417e-005
      -2.76729133e-006 -8.52288667e-006 2.07175490e-005 7.97400935e-006
      1.70400722e-006 2.53736089e-005 1.45895028e-005 8.97294831e-006
      2.34554172e-005 1.47775800e-005 8.69735231e-006 1.70749099e-005
      9.21556784e-006 1.98761086e-006 2.68101139e-005 2.01933217e-005
      1.37209108e-005 4.95365748e-005 4.46455524e-005 3.88605076e-005
      6.00336316e-005 5.85333655e-005 5.41632762e-005 6.19882121e-005
      6.09967610e-005 5.82655412e-005 5.98024635e-005 5.72786630e-005
      5.62941204e-005 5.07781624e-005 4.61693780e-005 4.72693100e-005
      3.72775394e-005 2.93627909e-005 3.27363341e-005 2.69324737e-005
      1.76098965e-005 1.94109471e-005 1.87856785e-005 9.19732702e-006
      8.27999429e-006 2.35526732e-005 1.56207807e-005 9.86007490e-006
      1.93490196e-005 1.37631623e-005 5.22462642e-006 1.57957165e-005
      1.10755973e-005 7.79398519e-008 2.22367780e-005 1.58054991e-005
      5.81020640e-006 3.71307033e-005 2.92658951e-005 1.88481990e-005
      3.54024160e-005 2.72035140e-005 1.58865041e-005 3.70152302e-005
      2.76884148e-005 1.67362996e-005 3.64250191e-005 2.55504183e-005
      1.48277495e-005 2.77908766e-005 1.54968802e-005 2.90680441e-006
      1.54770241e-005 6.39252491e-008 -1.57592913e-005 1.51626291e-005
      -6.99799727e-007 -1.74254128e-005 1.36406588e-005 -1.25670385e-006
      -1.56821916e-005 1.13142632e-005 -3.82955977e-006 -1.67611252e-005
      1.35717992e-005 -3.82570261e-006 -1.58935509e-005 9.79187826e-006
      -7.13756162e-006 -1.87672467e-005 1.14278218e-005 -3.19339779e-006
      -1.58507901e-005 1.14361419e-005 -1.34561412e-006 -1.58871080e-005
      1.03660223e-005 -8.36511788e-007 -1.83563316e-005 -2.78945549e-007
      -1.11510217e-005 -3.00611046e-005 -1.62114233e-007
      -1.34876245e-005 -2.94221809e-005 2.67378232e-006 -1.02194690e-005
      -2.53974340e-005 6.94678874e-006 -6.31726925e-006 -1.76225858e-005
      1.22465635e-005 -2.88224626e-008 -8.46436160e-006 8.02547311e-006
      -3.47566720e-006 -8.23843766e-006 -4.29132297e-006
      -1.23255650e-005 -1.56723236e-005 -1.21127441e-005
      -1.79554318e-005 -2.03323434e-005 -1.22350975e-005
      -1.81716077e-005 -2.04437019e-005 -1.29638120e-005
      -2.16082026e-005 -2.35177322e-005 -1.87161895e-005
      -2.91321376e-005 -3.00646680e-005 -2.05004635e-005
      -3.31993288e-005 -3.31376868e-005 -1.86743509e-005
      -3.34908655e-005 -3.30126459e-005 -1.78826213e-006
      -1.75783789e-005 -1.70571129e-005 1.56736962e-006 -1.31329989e-005
      -1.19731185e-005 3.74643605e-006 -1.12410607e-005 -1.10041319e-005
      1.70037515e-006 -1.42511662e-005 -1.53273559e-005 1.38665894e-006
      -1.52329603e-005 -1.80079151e-005 2.43004342e-006 -1.32552432e-005
      -1.59962037e-005 3.12680277e-006 -1.12364633e-005 -1.22458514e-005
      5.28213741e-006 -7.22650248e-006 -5.10711334e-006 6.58596764e-006
      -2.46466402e-006 1.10251801e-006 1.01965124e-005 2.43417048e-006
      6.48532068e-006 1.68864262e-005 8.93451306e-006 1.18086955e-005
      1.89632119e-005 8.31608122e-006 1.06757043e-005 1.00773177e-005
      -6.44306056e-006 -9.72166845e-007 9.84961753e-006 -1.16925730e-005
      -6.95546441e-006 2.08287220e-005 -3.64742982e-006 -5.80870321e-008
      2.08770234e-005 -4.71132034e-006 -4.24282149e-007 7.65736695e-006
      -1.56882252e-005 -1.18437283e-005 1.28892179e-006 -2.22408325e-005
      -1.54788759e-005 1.17978207e-005 -1.34944994e-005 -2.69041743e-006
      1.34586444e-005 -1.33101239e-005 -4.62199779e-007 1.96918663e-005
      -8.16635475e-006 3.73733928e-006 2.35510051e-005 -2.31356285e-006
      8.34514594e-006 2.47525040e-005 6.27904092e-006 1.58773037e-005
      2.83707705e-005 1.38916466e-005 2.28584850e-005 2.71540775e-005
      1.36667359e-005 2.41331581e-005 2.25140211e-005 8.64537924e-006
      2.09442678e-005 2.24871728e-005 5.10426526e-006 1.82716758e-005
      2.86642971e-005 1.13258675e-005 2.46824384e-005 3.24074826e-005
      1.73969529e-005 2.76230930e-005 2.64643586e-005 1.23324253e-005
      2.04889438e-005 3.39409416e-005 1.97413065e-005 2.60127235e-005
      4.50579573e-005 3.15611651e-005 3.75702912e-005 4.78903094e-005
      3.51900744e-005 4.14538299e-005 5.27097691e-005 4.18138879e-005
      4.71714447e-005 5.91217868e-005 5.01646973e-005 5.68869218e-005
      3.68241344e-005 3.20645231e-005 3.82300022e-005 1.76049398e-005
      1.46770381e-005 2.33651917e-005 9.25125278e-006 6.72222131e-006
      1.97399077e-005 1.51333425e-005 1.14442328e-005 2.98441810e-005
      2.14352294e-005 1.43974303e-005 3.65847918e-005 3.93023620e-005
      2.85587084e-005 5.20136782e-005 3.49939110e-005 1.97004447e-005
      4.37540912e-005 2.65709677e-005 7.97417579e-006 3.00972133e-005
      2.09417467e-005 -5.26123188e-007 1.98083490e-005 1.68710139e-005
      -7.31973978e-006 1.19069418e-005 6.99556176e-006 -1.72242926e-005
      8.17273929e-007 2.01162592e-007 -2.30468431e-005 -8.22234597e-006
      -1.40169077e-005 -3.87482396e-005 -2.30780697e-005
      -1.21774228e-005 -4.47787606e-005 -2.46425243e-005
      -7.35802405e-006 -4.04947968e-005 -2.10212856e-005 3.49469985e-007
      -3.09426978e-005 -1.53478159e-005 1.23437703e-005 -1.98268572e-005
      -5.40021801e-006 2.92297100e-005 -8.45368322e-006 7.36732545e-006
      2.64459177e-005 -1.28276879e-005 3.38856057e-006 2.63751044e-005
      -1.15152243e-005 3.25977726e-006 3.84779960e-005 2.22274480e-006
      1.76718931e-005 4.47186358e-005 1.00912966e-005 2.74291724e-005
      4.56085363e-005 1.30528324e-005 3.06427937e-005 4.21740806e-005
      1.18234311e-005 2.80556051e-005 3.19338287e-005 6.95950212e-006
      2.09514110e-005 1.47748106e-005 -5.85483076e-006 5.03716456e-006
      5.24852794e-006 -1.24255648e-005 -2.47595062e-006 5.04869945e-007
      -1.67998151e-005 -4.51996448e-006 -9.54446023e-006
      -2.73204223e-005 -1.39994636e-005 -8.92699973e-006
      -3.03760098e-005 -1.59815154e-005 -8.83729535e-006
      -3.15574580e-005 -1.91234249e-005 4.91518563e-007 -2.15969976e-005
      -1.25527758e-005 1.36093913e-005 -1.02473696e-005 6.89932335e-007
      1.16308265e-005 -1.19901806e-005 3.69251143e-006 2.48186802e-006
      -2.00069280e-005 -7.82351549e-007 5.72647150e-006 -1.40009670e-005
      9.16859881e-006 -4.48899800e-006 -2.29982543e-005 8.02142893e-007
      -2.85155124e-006 -1.75551795e-005 -1.77351631e-005 1.17402687e-005
      -1.96021369e-006 -3.14449017e-006 3.60931081e-005 2.54401675e-005
      2.45089159e-005 5.54030266e-005 4.23647507e-005 4.12500121e-005
      4.84637130e-005 3.09656316e-005 2.89958152e-005 3.70198250e-005
      1.57334289e-005 1.25834813e-005 2.43660579e-005 1.20272693e-006
      -3.95065854e-006 2.58145301e-005 2.70440751e-006 -4.67958807e-006
      2.00060222e-005 -3.30544435e-006 -1.15128923e-005 5.86442980e-007
      -1.93214273e-005 -2.75757066e-005 -1.14685481e-005
      -2.80364693e-005 -3.47101632e-005 -7.83740234e-006
      -2.24259002e-005 -2.66780171e-005 -8.23223036e-006
      -2.37614477e-005 -2.67337637e-005 -1.03740549e-005
      -2.70005785e-005 -2.88961037e-005 -8.91126274e-006
      -2.75128841e-005 -3.04054083e-005 -3.42878889e-006
      -2.22938397e-005 -2.58013370e-005 1.00005273e-005 -7.73307693e-006
      -1.11799209e-005 4.66418032e-006 -1.18175249e-005 -1.48619256e-005
      -5.06732613e-006 -2.00416962e-005 -2.30226888e-005 3.97517937e-007
      -1.26540708e-005 -1.46312550e-005 1.13007836e-005 6.43955616e-007
      -5.79861819e-007 1.84119835e-005 8.00609178e-006 7.03898195e-006
      1.29515865e-005 4.62191292e-006 2.46638297e-006 8.80599328e-006
      2.94572465e-006 -9.80254669e-008 2.27000401e-005 1.57311460e-005
      1.42619392e-005 4.35431684e-005 3.97059121e-005 3.86550164e-005
      5.97758262e-005 5.88616240e-005 5.90778327e-005 5.95508427e-005
      5.97624385e-005 6.09851086e-005 5.25262876e-005 5.14632193e-005
      5.29359713e-005 4.97963956e-005 4.63592187e-005 4.87857069e-005
      4.79803020e-005 4.10677712e-005 4.37066374e-005 4.45922014e-005
      3.60200247e-005 3.59131991e-005 2.47987446e-005 1.53295532e-005
      1.10674409e-005 3.07636110e-005 2.36052456e-005 1.42406170e-005
      2.34773943e-005 1.89564817e-005 4.64554978e-006 1.88628037e-005
      1.40887041e-005 -1.30944386e-006 3.14589233e-005 2.43570812e-005
      1.00639863e-005 3.77039396e-005 3.08838826e-005 1.46377524e-005
      2.77740619e-005 1.95425546e-005 4.81414600e-006 2.86949489e-005
      1.81492451e-005 3.16983164e-006 4.05891551e-005 2.81201228e-005
      1.36568624e-005 3.85595013e-005 2.24138475e-005 5.97880944e-006
      3.12462689e-005 1.12251610e-005 -9.01451767e-006 3.45569824e-005
      1.25259903e-005 -8.68461302e-006 2.74443100e-005 6.32614319e-006
      -1.14066870e-005 1.99270453e-005 -9.14140287e-007 -1.65804413e-005
      2.08520323e-005 -2.04859680e-006 -1.47746259e-005 1.33495669e-005
      -6.90973366e-006 -1.93724245e-005 7.83967607e-006 -9.03801083e-006
      -2.42163478e-005 6.10973075e-006 -8.48820855e-006 -2.64771606e-005
      2.33723995e-006 -1.10617457e-005 -3.20478757e-005 -1.24400303e-005
      -2.49127406e-005 -4.68465769e-005 -2.09675254e-005
      -3.51292038e-005 -5.57206768e-005 -2.08331312e-005
      -3.51033304e-005 -5.23096787e-005 -2.42082842e-005
      -3.85674575e-005 -5.47515265e-005 -1.52115208e-005
      -2.76028732e-005 -4.12489098e-005 -1.17022337e-005
      -2.14224183e-005 -3.25992332e-005 -1.72055734e-005
      -2.53164035e-005 -3.41536688e-005 -1.04750989e-005
      -1.65348447e-005 -2.33567844e-005 -2.87500575e-006
      -1.08017066e-005 -1.62266224e-005 -2.92858749e-006
      -1.57847244e-005 -2.07349240e-005 -1.46800703e-005
      -3.19638129e-005 -3.46127599e-005 -2.22954823e-005
      -4.14813003e-005 -4.44840152e-005 -7.73891952e-006
      -2.87143830e-005 -3.20747677e-005 5.06835840e-006 -1.62502402e-005
      -2.06055483e-005 4.32190473e-006 -1.54792961e-005 -1.97820755e-005
      5.34821675e-006 -1.35945611e-005 -1.82462099e-005 5.90949548e-006
      -1.39971953e-005 -1.91508607e-005 3.00089710e-006 -1.62558827e-005
      -2.21108494e-005 7.00349574e-007 -1.74750166e-005 -2.31297909e-005
      -1.48791355e-006 -1.65300953e-005 -2.16951958e-005
      -3.03127376e-006 -1.57474751e-005 -1.89828970e-005
      -1.68716233e-005 -2.65586750e-005 -2.81798821e-005
      -4.04032971e-006 -1.23958307e-005 -1.45380127e-005 1.17332675e-005
      2.28790168e-006 -3.24968232e-006 8.60759064e-006 -4.13008001e-006
      -1.05319432e-005 -2.11651269e-007 -1.92155694e-005
      -2.30782261e-005 1.29432738e-006 -2.34970303e-005 -2.76046576e-005
      1.39616723e-005 -1.17585405e-005 -1.82052590e-005 3.07426490e-005
      5.22982600e-006 -8.54923883e-007 2.22809031e-005 -8.48434411e-007
      -5.64693391e-006 1.19646156e-005 -1.23093851e-005 -1.27950325e-005
      8.65861239e-006 -1.57730228e-005 -1.16941947e-005 1.28244246e-005
      -1.25179658e-005 -5.38118866e-006 1.68609531e-005 -8.60393993e-006
      -1.68368331e-006 1.01588930e-005 -1.16877500e-005 -5.39020175e-006
      1.48353574e-005 -1.93925439e-006 2.61124796e-006 7.77437435e-006
      -5.39663961e-006 -6.51917787e-007 8.48733089e-006 -1.99256647e-006
      4.01252464e-006 1.40006014e-005 4.39036194e-006 1.22417905e-005
      1.44823571e-005 1.88491538e-006 9.56461918e-006 2.08079182e-005
      9.19807826e-006 1.73916942e-005 3.07043119e-005 1.81036230e-005
      2.27036653e-005 3.20927029e-005 1.84875207e-005 2.04059652e-005
      3.99030105e-005 2.49952755e-005 2.60588386e-005 3.67626490e-005
      2.23036477e-005 2.21547780e-005 3.27887901e-005 1.89869770e-005
      1.86612215e-005 5.07491859e-005 4.04552047e-005 3.90624591e-005
      6.98819786e-005 6.26722976e-005 6.16811376e-005 4.89488266e-005
      4.56843227e-005 4.72528627e-005 1.86147972e-005 1.60470736e-005
      2.13667554e-005 5.83677638e-006 2.86263162e-006 1.34061656e-005
      1.48796225e-005 8.59089596e-006 2.53519556e-005 2.88981300e-005
      1.72404252e-005 3.79342491e-005 3.60889717e-005 2.03461605e-005
      4.34110189e-005 3.39492071e-005 1.36394237e-005 3.68365036e-005
      3.26126064e-005 8.43836006e-006 2.95032150e-005 2.75634611e-005
      7.78660763e-007 1.90383525e-005 2.10215640e-005 -8.95178800e-006
      9.36270499e-006 9.17051693e-006 -2.14852189e-005 -4.19815842e-006
      1.02762660e-005 -1.72357104e-005 -1.09265522e-006 1.04023202e-005
      -1.81584619e-005 -5.92080880e-007 5.77243372e-006 -2.62017602e-005
      -4.59397461e-006 5.51513085e-006 -2.74804861e-005 -5.33325692e-006
      9.95892060e-006 -2.06481345e-005 -1.32005300e-006 2.65381932e-005
      -4.32065372e-006 1.34834308e-005 3.72649265e-005 1.99089072e-006
      2.06535988e-005 4.05671963e-005 3.82373037e-006 2.29834586e-005
      3.74285628e-005 2.41034627e-006 1.84655109e-005 3.74379233e-005
      3.87169439e-006 1.83782158e-005 4.21303412e-005 1.10654528e-005
      2.64800674e-005 4.88625592e-005 2.11904971e-005 3.68123110e-005
      4.32477245e-005 1.74471479e-005 3.34793003e-005 3.15648831e-005
      8.75592013e-006 2.51657220e-005 1.12382513e-005 -7.44629551e-006
      6.07750144e-006 6.63845458e-006 -8.86891576e-006 4.94185133e-006
      1.10909623e-005 -2.87496664e-006 1.21641615e-005 3.73302942e-006
      -1.07860105e-005 4.71955900e-006 -7.83841006e-006 -2.60590132e-005
      -1.06994739e-005 -9.09037044e-006 -2.92736677e-005
      -1.53642013e-005 -5.66289054e-006 -2.67217165e-005
      -1.59167466e-005 2.06851364e-005 -1.28767056e-006 9.77961645e-006
      2.70353667e-005 4.72064630e-006 1.87890109e-005 2.87405055e-005
      6.13721204e-006 2.40848676e-005 1.82641124e-005 -2.91428137e-006
      1.90557257e-005 1.01583182e-005 -9.48306661e-006 1.38484520e-005
      -1.12862390e-005 -2.45748251e-005 -2.55378745e-005 2.61383821e-006
      -9.85335737e-006 -1.11880463e-005 3.41543237e-005 2.56521653e-005
      2.20867332e-005 5.17879635e-005 4.05565406e-005 3.65493142e-005
      3.91428330e-005 2.20642069e-005 1.79700019e-005 2.86693976e-005
      6.19910679e-006 4.36268721e-007 1.97293430e-005 -4.79573509e-006
      -1.23328891e-005 1.82524764e-005 -7.20404341e-006 -1.51619233e-005
      1.21946214e-005 -1.23053142e-005 -2.07536705e-005 1.99475721e-006
      -1.85441259e-005 -2.59258941e-005 -1.17931741e-005
      -2.71127501e-005 -3.39615763e-005 -5.47698801e-006
      -1.87180740e-005 -2.25627191e-005 -5.71651469e-007
      -1.51730001e-005 -1.66177524e-005 -1.31905017e-005
      -2.91913129e-005 -2.96953967e-005 -2.31935555e-005
      -3.96022515e-005 -4.04246675e-005 -1.87218175e-005
      -3.51910458e-005 -3.63727777e-005 -8.72167038e-006
      -2.27041601e-005 -2.45448628e-005 -1.69860432e-005
      -2.92891709e-005 -3.05579633e-005 -2.51334386e-005
      -3.58922225e-005 -3.69339177e-005 -1.96461187e-005
      -2.98671948e-005 -2.90452645e-005 -1.51792929e-005
      -2.31257582e-005 -2.04229855e-005 -1.20167333e-005
      -2.02398460e-005 -1.77141446e-005 -1.46387010e-005
      -2.20649436e-005 -2.11528240e-005 -5.07908271e-006
      -1.15911344e-005 -1.11182198e-005 9.75328567e-006 4.19583921e-006
      6.33598665e-006 1.98281705e-005 1.72359305e-005 1.87640017e-005
      2.32190760e-005 2.55661944e-005 2.85796395e-005 2.95458103e-005
      3.23182576e-005 3.50687224e-005 2.58080290e-005 2.76893770e-005
      3.10812211e-005 1.93860888e-005 1.91054914e-005 2.32065322e-005
      2.09887803e-005 1.63821478e-005 1.78761111e-005 2.57472366e-005
      1.97323534e-005 1.75820387e-005 1.66994614e-005 9.06086643e-006
      6.01134786e-007 2.57585398e-005 1.98824964e-005 7.80928349e-006
      2.72458747e-005 2.29711131e-005 6.72489796e-006 1.81419800e-005
      1.31254792e-005 -5.43915303e-006 2.49173499e-005 1.85567224e-005
      -6.79824410e-008 3.26593872e-005 2.43354134e-005 7.16645991e-006
      1.86146626e-005 8.33327158e-006 -8.29870623e-006 1.77071561e-005
      4.06217623e-006 -1.14858431e-005 2.56693456e-005 8.61593708e-006
      -8.52160611e-006 3.21536718e-005 1.05058534e-005 -9.68928362e-006
      3.45168301e-005 8.45477007e-006 -1.45741005e-005 3.67757566e-005
      8.53469464e-006 -1.44358391e-005 2.67633441e-005 1.32842914e-007
      -1.94419226e-005 1.65888505e-005 -9.31968862e-006 -2.47237404e-005
      6.80809262e-006 -1.78886385e-005 -2.89135787e-005 5.31390106e-006
      -1.57990507e-005 -2.79972155e-005 1.35164955e-005 -2.31904187e-006
      -1.88552476e-005 8.13180486e-006 -2.60132788e-006 -2.33658793e-005
      6.07293714e-006 -4.13651605e-006 -2.82313213e-005 -7.38324616e-006
      -1.57609575e-005 -4.00412573e-005 -8.47388401e-006
      -1.98074831e-005 -4.14798196e-005 -6.48227160e-006
      -1.71034953e-005 -3.60434606e-005 -9.69112989e-006
      -2.04837343e-005 -3.75975360e-005 2.75737852e-006 -6.43580915e-006
      -2.01817802e-005 1.43636089e-005 7.72428211e-006 -4.90749380e-006
      1.69780142e-005 1.23318250e-005 1.91296090e-006 1.64669054e-005
      1.26221612e-005 4.63517745e-006 1.75843124e-005 1.14503928e-005
      5.94239782e-006 2.77065265e-005 1.36357330e-005 8.95338781e-006
      1.21548201e-005 -7.97597477e-006 -1.16084275e-005 1.30415322e-006
      -2.15880264e-005 -2.48699525e-005 1.76384092e-005 -5.92644119e-006
      -8.48681248e-006 2.49611021e-005 1.78925052e-006 -2.10949247e-006
      1.57371596e-005 -5.93981576e-006 -1.02306667e-005 1.27892656e-006
      -1.85208646e-005 -2.15795717e-005 -4.31380215e-007
      -1.86469533e-005 -2.22352755e-005 2.87943720e-007 -1.80120041e-005
      -2.22345734e-005 -4.07372590e-006 -2.09710906e-005
      -2.54648894e-005 4.64850791e-006 -8.25554798e-006 -1.29153104e-005
      -7.57904616e-007 -1.00661127e-005 -1.46147568e-005
      -1.61431963e-005 -2.35008720e-005 -2.73147234e-005
      -7.79566108e-006 -1.10636311e-005 -1.70792282e-005 2.08962183e-006
      -4.98718646e-006 -1.53382280e-005 -6.44903685e-006
      -1.77573165e-005 -2.83234604e-005 -4.63355263e-006
      -2.36209962e-005 -3.21074040e-005 7.72105579e-007 -2.32239272e-005
      -3.28309543e-005 7.50903928e-006 -1.57280228e-005 -2.76003575e-005
      1.94674412e-005 -4.47981392e-006 -1.57156119e-005 8.26897940e-006
      -1.46992616e-005 -2.46123891e-005 5.79515563e-006 -1.63081604e-005
      -2.21334139e-005 5.77114179e-007 -1.94405038e-005 -2.01139956e-005
      9.19267222e-006 -9.68143740e-006 -6.56706243e-006 -3.78979308e-007
      -1.80687803e-005 -1.37747675e-005 -4.90110324e-006
      -2.03270774e-005 -1.66993050e-005 -4.42626333e-006
      -1.59360898e-005 -1.25568558e-005 -2.52195855e-006
      -1.00178559e-005 -6.85254736e-006 9.35956791e-007 -4.34818503e-006
      4.80978883e-007 -1.03758146e-006 -5.88941066e-006 -1.71170228e-007
      7.22092523e-007 -3.93004666e-006 1.31794468e-006 -3.21984680e-006
      -9.46135788e-006 -5.27953853e-006 6.94093478e-006 -1.60591173e-006
      -3.22506571e-006 1.58326748e-005 4.43753925e-006 2.75043226e-006
      2.79225096e-005 1.23421742e-005 1.02254699e-005 2.78945336e-005
      1.09819903e-005 7.71699706e-006 1.65319307e-005 1.22025665e-006
      -1.81900009e-006 2.80391087e-005 1.63874429e-005 1.03934444e-005
      5.22003247e-005 4.35610855e-005 3.84035557e-005 4.91512219e-005
      4.37149320e-005 4.13827147e-005 3.13065539e-005 3.00207175e-005
      3.29679897e-005 2.62394005e-005 2.35495318e-005 3.28489259e-005
      2.26385419e-005 1.51932909e-005 3.01146920e-005 3.23129389e-005
      1.90303726e-005 3.84274463e-005 3.48271060e-005 1.77350939e-005
      3.85544408e-005 2.94232977e-005 9.23848984e-006 3.00671709e-005
      1.85283243e-005 -3.95119014e-006 1.49095204e-005 1.53618530e-005
      -9.70158726e-006 6.20706578e-006 1.41209757e-005 -1.52883549e-005
      7.58654210e-007 6.90497745e-006 -2.16526332e-005 -6.88152295e-006
      5.87018258e-006 -2.16452809e-005 -4.98738245e-006 1.00164134e-005
      -1.68066344e-005 2.35452990e-006 1.00856432e-005 -1.99630867e-005
      3.27820590e-006 9.38615085e-006 -2.14353186e-005 4.48828223e-006
      1.19542256e-005 -1.46188804e-005 8.39045788e-006 1.42461213e-005
      -1.25417546e-005 1.09848061e-005 1.66379432e-005 -1.32009154e-005
      1.13867000e-005 2.61343157e-005 -5.11100507e-006 1.88497670e-005
      3.58893230e-005 6.63369474e-006 2.65248218e-005 3.13912205e-005
      3.64129687e-006 2.14678385e-005 3.43631727e-005 1.29216869e-005
      2.99582589e-005 3.55069496e-005 1.72058371e-005 3.41458726e-005
      3.02401349e-005 1.08465065e-005 2.82425171e-005 1.82396852e-005
      7.51561743e-007 1.89615621e-005 1.21687335e-005 -3.24887992e-006
      1.48063255e-005 7.92655555e-006 -4.12943700e-006 1.47605706e-005
      1.22007914e-005 2.90319622e-006 2.15201035e-005 1.26565880e-007
      -9.70910787e-006 8.96857273e-006 -9.38289759e-006 -2.47958942e-005
      -6.94737037e-006 -1.18555008e-005 -3.07305017e-005
      -1.42958888e-005 -7.86919281e-006 -2.77372710e-005
      -1.57705072e-005 2.05490687e-005 -1.11679060e-006 1.13857259e-005
      2.67809373e-005 5.15973807e-006 1.90980027e-005 3.88012377e-005
      1.65634901e-005 3.37583188e-005 2.83371664e-005 7.58722990e-006
      2.80759305e-005 2.07372614e-005 7.95100561e-007 2.33841038e-005
      -1.02681643e-005 -2.11239658e-005 -2.25107779e-005
      -2.17564320e-006 -1.25581983e-005 -1.44139231e-005 2.31103786e-005
      1.52985958e-005 1.09081020e-005 3.66350396e-005 2.66978859e-005
      2.13277872e-005 2.80996865e-005 1.27567064e-005 8.12005146e-006
      2.54680635e-005 3.72220188e-006 -9.60228476e-007 2.27683850e-005
      -1.87327714e-006 -1.01042078e-005 1.60219588e-005 -9.41608596e-006
      -1.77227339e-005 1.05755353e-005 -1.18652924e-005 -1.95123903e-005
      1.19717356e-006 -1.63458226e-005 -2.19770864e-005 -1.70722724e-005
      -2.87520834e-005 -3.40908373e-005 -1.22954598e-005
      -2.12831310e-005 -2.45263745e-005 -6.47169145e-007
      -1.02525819e-005 -1.00211419e-005 -8.01951774e-006
      -2.05356027e-005 -1.87492078e-005 -2.41323341e-005
      -3.51362069e-005 -3.31984957e-005 -2.92073128e-005
      -3.86842512e-005 -3.68950532e-005 -2.64342780e-005
      -3.30861694e-005 -3.21439511e-005 -2.37826807e-005
      -2.94830024e-005 -2.99000112e-005 -2.31797458e-005
      -2.87527728e-005 -2.79213837e-005 -1.71363481e-005
      -2.28023437e-005 -2.11885435e-005 -1.22800675e-005
      -1.88366212e-005 -1.48015015e-005 -7.73818556e-006
      -1.53606197e-005 -9.84597500e-006 -3.28869737e-006
      -1.00627403e-005 -6.92101503e-006 7.12245628e-006 1.84997600e-006
      3.24517941e-006 2.10086218e-005 1.73693243e-005 1.97338923e-005
      1.35614700e-005 1.53611363e-005 1.83086613e-005 4.39166752e-006
      1.11915006e-005 1.36143935e-005 2.07386856e-005 2.81846733e-005
      3.17556660e-005 2.33162173e-005 2.79264750e-005 3.21845837e-005
      2.63090478e-005 2.81195935e-005 3.11467156e-005 4.07370499e-005
      3.99014098e-005 4.04559541e-005 4.18292548e-005 3.93916307e-005
      3.57980862e-005 4.31797962e-005 3.67027424e-005 2.79561955e-005
      5.23172494e-005 4.83049189e-005 3.57622157e-005 4.37961899e-005
      4.00093923e-005 2.38895573e-005 2.84120142e-005 2.37431232e-005
      6.81127904e-006 3.58481702e-005 2.75590028e-005 1.19076758e-005
      5.13189698e-005 3.89393826e-005 2.29879060e-005 4.18363925e-005
      2.56210515e-005 1.09601378e-005 3.19435203e-005 1.14005652e-005
      -3.50291020e-006 2.98080704e-005 5.93667255e-006 -1.07958022e-005
      3.09545067e-005 3.01837576e-006 -1.76802096e-005 3.41732084e-005
      2.96131338e-006 -2.16395674e-005 4.32807174e-005 1.14526829e-005
      -1.27166304e-005 4.50901425e-005 1.63186414e-005 -2.23418010e-006
      3.33312819e-005 6.88585260e-006 -8.21977846e-006 1.43588359e-005
      -9.43727809e-006 -1.92367297e-005 5.97505186e-006 -1.32851665e-005
      -2.20615748e-005 1.17558238e-005 -9.27358826e-007 -1.58821331e-005
      2.93969947e-006 -2.48345418e-006 -2.16482458e-005 -1.50172752e-006
      -3.80858114e-006 -2.60573215e-005 -1.05192776e-005
      -1.18304542e-005 -3.60646736e-005 -9.35254008e-009
      -1.47140213e-006 -2.29669622e-005 9.37898130e-006 8.10734309e-006
      -1.06807775e-005 8.46698822e-006 5.94459425e-006 -8.76312060e-006
      2.10281160e-005 1.95830580e-005 7.49681112e-006 3.40906772e-005
      3.46989764e-005 2.34811378e-005 4.76072964e-005 4.80429699e-005
      3.92774309e-005 3.61838174e-005 3.83793777e-005 3.19385181e-005
      3.28457572e-005 3.16678379e-005 2.64153714e-005 4.75264787e-005
      3.49855982e-005 3.20835461e-005 4.33109453e-005 2.37414115e-005
      2.37879540e-005 3.44364344e-005 1.16710262e-005 1.11396457e-005
      2.78828647e-005 4.00379304e-006 4.34254071e-006 4.13503658e-005
      1.85072495e-005 1.87142377e-005 3.77579199e-005 1.80451698e-005
      1.99014266e-005 2.71629779e-005 1.12365942e-005 1.36845047e-005
      2.67116975e-005 1.35549471e-005 1.61340522e-005 2.00461473e-005
      8.92601020e-006 1.17050786e-005 1.57374670e-005 7.04077956e-006
      8.79481922e-006 1.68433726e-005 1.22080091e-005 1.21192907e-005
      9.60440138e-006 9.16333283e-006 7.56283043e-006 -1.98238581e-006
      1.38734981e-006 -2.13349699e-006 -9.40672726e-006 -8.34632010e-006
      -1.31430406e-005 1.06837142e-005 9.67726919e-006 -2.51318170e-007
      2.96643611e-005 2.29158104e-005 1.12526586e-005 1.90622432e-005
      2.87144076e-006 -8.12505914e-006 1.35730270e-005 -6.84032011e-006
      -1.81160121e-005 1.75138248e-005 -2.59422018e-006 -1.74671713e-005
      1.80896059e-005 -2.38120992e-006 -1.73096560e-005 1.14092636e-005
      -9.98946234e-006 -2.30430232e-005 8.52726589e-006 -1.21618141e-005
      -2.05502256e-005 9.26874964e-006 -5.17171566e-006 -8.85500776e-006
      4.55085137e-006 -4.62877233e-006 -5.63997037e-006 -2.48907895e-006
      -7.77095192e-006 -5.93923414e-006 -7.16561772e-006
      -8.28770135e-006 -6.12034046e-006 1.32130253e-006 6.60210389e-007
      5.49981269e-006 8.05285345e-006 7.78533922e-006 1.40211550e-005
      1.31187726e-005 1.42315594e-005 2.30765490e-005 1.26590094e-005
      1.48637846e-005 2.28703702e-005 1.59475676e-005 1.82557651e-005
      2.43487921e-005 1.43944908e-005 1.57153481e-005 1.79685521e-005
      2.42829865e-005 1.98824291e-005 1.94207951e-005 2.98750165e-005
      2.12278846e-005 1.67813596e-005 3.46978159e-005 1.90273477e-005
      1.56621591e-005 3.27963098e-005 1.58467337e-005 1.05550653e-005
      3.31465271e-005 1.57606610e-005 1.00992029e-005 4.60396150e-005
      3.11647891e-005 2.40830304e-005 6.28304988e-005 5.05223288e-005
      4.47890343e-005 6.69322544e-005 6.03740773e-005 5.61063534e-005
      5.05650460e-005 4.62753342e-005 4.90579077e-005 4.18929922e-005
      3.82092367e-005 4.64749137e-005 4.96443936e-005 4.29778229e-005
      5.51538978e-005 5.86604656e-005 4.70012164e-005 6.26753972e-005
      5.71825512e-005 4.20630022e-005 5.99657978e-005 5.31432961e-005
      3.68248548e-005 5.45237781e-005 4.07594598e-005 2.46522777e-005
      3.88447734e-005 2.70415239e-005 8.58833482e-006 2.13586536e-005
      2.02644969e-005 -1.37051143e-006 1.09347238e-005 1.47372011e-005
      -7.40075257e-006 6.45853561e-006 -1.25604899e-007 -2.36796986e-005
      -7.38573362e-006 -1.55172165e-005 -3.88760709e-005
      -1.79131766e-005 -9.10111612e-006 -3.37461424e-005
      -6.04200750e-006 -1.55242942e-005 -3.82264552e-005
      -8.73382578e-006 -9.36529887e-006 -2.91834713e-005
      -1.75557727e-006 -1.66682585e-005 -3.70162015e-005
      -8.78406900e-006 -1.83641714e-005 -4.02465012e-005
      -9.05842535e-006 -7.92421815e-006 -2.95800328e-005 3.15382209e-007
      -4.51686174e-006 -2.22503950e-005 2.10244707e-006 -1.71991439e-006
      -1.67483231e-005 5.35082063e-006 1.21002768e-005 2.48855395e-006
      2.34193831e-005 1.50672968e-005 7.32068156e-006 2.83145855e-005
      1.39675949e-005 1.70691010e-006 2.41811067e-005 9.01949807e-006
      -2.92890581e-006 1.99715960e-005 1.12913358e-005 -4.37612577e-008
      2.27709934e-005 1.94781896e-005 1.01355627e-005 3.40022416e-005
      8.67420476e-006 3.30839862e-006 2.68184176e-005 -9.93287017e-007
      -7.79309266e-006 1.52798129e-005 -1.81930682e-006 -1.55729704e-005
      5.31543492e-006 -1.22216707e-005 -2.92762252e-005 -1.15454559e-005
      -3.24696293e-006 -2.19409758e-005 -9.08375932e-006 1.19992173e-005
      -7.13020427e-006 4.23056827e-006 2.64559367e-005 6.08982737e-006
      1.80212191e-005 4.01351062e-005 2.00769427e-005 3.59462974e-005
      3.64954685e-005 1.92522330e-005 3.76490789e-005 3.34688157e-005
      1.82456242e-005 3.75432646e-005 -1.04508954e-005 -1.99808128e-005
      -2.11737661e-005 -6.25907842e-006 -1.62944070e-005
      -1.88646209e-005 1.20805453e-005 5.16245291e-006 -4.26011752e-007
      2.46905929e-005 1.64209250e-005 1.08089025e-005 1.76439007e-005
      3.17676086e-006 -3.57746330e-007 1.20909344e-005 -8.39256427e-006
      -1.28405864e-005 7.29197745e-006 -1.49646175e-005 -2.25159802e-005
      1.42544204e-005 -8.16471402e-006 -1.51876584e-005 2.76028504e-006
      -1.49162634e-005 -1.99624064e-005 -1.41326418e-005
      -2.70087439e-005 -3.12010343e-005 -4.21852819e-005
      -4.84127777e-005 -5.11168219e-005 -3.55062875e-005
      -3.84766863e-005 -4.04791754e-005 -1.01836822e-005
      -1.53098117e-005 -1.39953054e-005 2.32353523e-006 -2.35991138e-006
      4.08259666e-007 -1.57575960e-006 -6.05762807e-006 -2.17573438e-006
      -2.30682072e-005 -2.60123998e-005 -2.27882465e-005
      -2.58248274e-005 -2.58719811e-005 -2.29265042e-005
      -2.46675718e-005 -2.35389907e-005 -2.20929978e-005
      -3.23192107e-005 -2.97411261e-005 -3.02707012e-005
      -2.24766081e-005 -2.39569890e-005 -2.29336147e-005
      -1.33102831e-005 -1.74973611e-005 -1.14420873e-005 1.05533145e-005
      5.64156471e-006 1.14358963e-005 2.07129815e-005 1.51861886e-005
      1.99105307e-005 1.65028232e-005 1.24974295e-005 1.78500813e-005
      9.27236397e-006 8.43899124e-006 1.27660705e-005 -8.86690032e-006
      -5.35882100e-006 8.14096609e-007 -1.08389268e-005 -1.92683228e-006
      2.86270438e-006 1.70035108e-007 1.01008063e-005 1.45351723e-005
      3.29375666e-006 1.08541544e-005 1.81176438e-005 8.63740297e-006
      1.45167642e-005 1.95346765e-005 2.27737310e-005 2.60078614e-005
      2.84574180e-005 3.36680641e-005 3.44231994e-005 3.18038328e-005
      5.04305426e-005 4.66663587e-005 3.91810790e-005 6.51949667e-005
      6.14856835e-005 5.01501127e-005 4.85465680e-005 4.62707576e-005
      3.15329708e-005 3.25953370e-005 2.88241026e-005 1.28716683e-005
      4.12995760e-005 3.27721318e-005 1.84117325e-005 5.85058042e-005
      4.43183562e-005 3.09620264e-005 4.89803206e-005 2.95309346e-005
      1.65894653e-005 3.15734760e-005 7.81105700e-006 -5.84804002e-006
      2.86294398e-005 -2.37051410e-007 -1.55729704e-005 3.26831469e-005
      1.20318941e-006 -1.75391451e-005 3.61739767e-005 3.07266055e-006
      -1.98422058e-005 4.58153590e-005 1.37380939e-005 -8.59035663e-006
      4.87696234e-005 2.02406391e-005 2.88102979e-006 4.26483202e-005
      1.72570253e-005 4.75214711e-006 3.02428252e-005 9.57265729e-006
      1.85319880e-006 8.74444868e-006 -6.27793179e-006 -1.37811030e-005
      -1.93383607e-006 -9.83331574e-006 -2.26471238e-005
      -1.09515122e-005 -1.24679236e-005 -3.00734227e-005
      -1.54158843e-005 -1.19863553e-005 -3.54264630e-005
      -8.79214986e-006 -3.85694329e-006 -2.76074534e-005 6.58569115e-006
      1.19624756e-005 -9.07055619e-006 2.28081226e-005 2.73348742e-005
      9.69980192e-006 1.93071555e-005 2.26624761e-005 8.70659915e-006
      2.02553019e-005 2.39355504e-005 1.25633615e-005 3.04225850e-005
      3.56786295e-005 2.43337745e-005 5.15467837e-005 5.85223715e-005
      4.82083597e-005 3.93054033e-005 4.43222889e-005 3.67701832e-005
      2.65293984e-005 2.58662094e-005 1.99809947e-005 3.85555541e-005
      2.68830117e-005 2.46640047e-005 5.62377281e-005 3.88421795e-005
      3.86976863e-005 5.35103063e-005 3.20528052e-005 3.21213811e-005
      3.65910346e-005 1.44279220e-005 1.61158387e-005 4.75956949e-005
      2.72198467e-005 3.19049468e-005 4.22516059e-005 2.67159194e-005
      3.26691516e-005 3.67344910e-005 2.69329867e-005 3.26331101e-005
      4.15543254e-005 3.63405379e-005 4.34007925e-005 2.63323800e-005
      2.43834766e-005 3.15405377e-005 2.10541857e-005 2.16511307e-005
      2.79926535e-005 2.16784993e-005 2.67603064e-005 3.10297073e-005
      1.31371035e-005 2.24972700e-005 2.43974118e-005 8.36892355e-007
      1.21713892e-005 1.14942868e-005 2.34524236e-006 1.08049362e-005
      6.53839743e-006 2.88956144e-005 3.28734168e-005 2.50581470e-005
      4.21063451e-005 4.03705017e-005 3.09460811e-005 2.95297050e-005
      2.00245777e-005 1.04396040e-005 1.34826369e-005 -1.00198656e-006
      -1.22088641e-005 3.74457954e-006 -1.17492264e-005 -2.61518162e-005
      4.65211087e-006 -1.29887703e-005 -2.73857077e-005 3.81542850e-006
      -1.74716624e-005 -2.93144149e-005 7.49593994e-007 -1.65267375e-005
      -2.59805547e-005 -6.87545298e-006 -1.47383171e-005
      -2.00923751e-005 -1.50831675e-005 -1.43354955e-005
      -1.67201906e-005 -1.50525357e-005 -8.12924827e-006
      -8.75993010e-006 -1.04349183e-005 -1.15631735e-006
      -4.77924516e-007 -8.89481089e-006 -1.55108319e-006 3.07920573e-006
      -1.17347172e-005 -4.85897044e-006 2.17129400e-006 -7.28115629e-006
      -1.00037539e-006 8.17102045e-006 -1.21891535e-005 -4.63040442e-006
      2.81966186e-006 3.75502259e-006 1.34850043e-005 1.78700666e-005
      2.10391881e-005 3.01820346e-005 3.15425787e-005 3.95925599e-005
      4.12396257e-005 3.85044768e-005 2.84577291e-005 2.47965127e-005
      1.95402263e-005 2.23971256e-005 1.02232816e-005 4.56231919e-006
      3.31208794e-005 1.63885052e-005 9.91001707e-006 3.91515387e-005
      2.09980917e-005 1.27806607e-005 5.42774214e-005 3.62132923e-005
      2.86675258e-005 7.61918782e-005 6.23294618e-005 5.41776717e-005
      7.37686496e-005 6.35134638e-005 5.87474424e-005 4.94536143e-005
      4.42176606e-005 4.67411555e-005 4.80671297e-005 4.44499019e-005
      5.16381260e-005 6.39434802e-005 5.74789956e-005 6.94467890e-005
      6.96691204e-005 6.15376412e-005 7.56065856e-005 6.67476779e-005
      5.55360057e-005 7.16295472e-005 4.91910359e-005 3.90983441e-005
      5.47926611e-005 3.13267119e-005 2.30804926e-005 3.68461733e-005
      1.76735030e-005 9.95903611e-006 2.27472192e-005 1.93919004e-005
      7.65971345e-006 1.97843583e-005 1.36117933e-005 -4.79660400e-007
      1.31990437e-005 -6.46640910e-006 -2.31627018e-005 -5.28553664e-006
      -1.51897702e-005 -3.30607763e-005 -1.02883769e-005
      -1.84802939e-005 -3.72240356e-005 -7.17634839e-006
      -2.19887606e-005 -3.86440879e-005 -7.05512048e-006
      -2.18038222e-005 -3.62774481e-005 -6.45992623e-006
      -2.89655200e-005 -4.37292729e-005 -1.15262828e-005
      -3.27394810e-005 -4.65452431e-005 -1.12212765e-005
      -3.02624339e-005 -4.28357635e-005 -8.00733960e-006
      -1.65400779e-005 -2.53952749e-005 4.61313857e-006 -4.56464113e-006
      -1.03392686e-005 1.73988428e-005 -1.17034335e-006 -2.23793063e-006
      2.30016540e-005 -2.34827803e-006 -3.05366507e-006 2.18994064e-005
      2.98086184e-006 -1.20294237e-006 2.41729995e-005 -2.02201454e-006
      -9.30858641e-006 1.71741049e-005 8.92137723e-006 2.69267980e-006
      2.93339617e-005 2.15820201e-005 1.64197991e-005 4.35857073e-005
      2.12031046e-005 1.68824099e-005 4.49999570e-005 1.93797769e-005
      1.34586026e-005 4.04090133e-005 1.05394129e-005 -1.04886533e-006
      2.29005600e-005 -1.81718713e-006 -1.83888369e-005 1.78268908e-006
      8.76765080e-006 -9.45619922e-006 5.63274943e-006 2.17487141e-005
      2.97052134e-006 1.61901407e-005 3.34228389e-005 1.27659932e-005
      2.67182768e-005 4.65128760e-005 2.64805876e-005 4.22413214e-005
      4.59836010e-005 2.89216223e-005 4.60570045e-005 3.75413401e-005
      2.37072418e-005 4.23070451e-005 -9.73544593e-006 -2.09340888e-005
      -2.35164698e-005 -1.50097287e-006 -1.19149536e-005
      -1.56967981e-005 1.48163508e-005 6.80805306e-006 1.92680864e-006
      2.15372729e-005 1.32842015e-005 8.63556579e-006 1.58333587e-005
      5.83760198e-007 -1.10066981e-006 3.49105017e-006 -1.49281532e-005
      -1.71511183e-005 5.88791499e-006 -1.35943301e-005 -1.72451510e-005
      7.91707043e-006 -8.22051061e-006 -1.28256534e-005 -9.11322388e-007
      -1.16965002e-005 -1.41909422e-005 -1.97807367e-005
      -2.58152486e-005 -2.82531564e-005 -3.48838221e-005
      -3.46893867e-005 -3.66518871e-005 -8.50026572e-006
      -5.71415467e-006 -6.79390359e-006 1.62721626e-005 1.60376167e-005
      1.87699698e-005 1.67710241e-005 1.76176436e-005 2.09405262e-005
      9.45997454e-006 1.24703247e-005 1.71719093e-005 -2.24066716e-005
      -1.69111972e-005 -1.21423727e-005 -3.28924070e-005
      -2.53556300e-005 -2.10401449e-005 -3.55786324e-005
      -2.72767938e-005 -2.60043744e-005 -4.53608482e-005
      -3.70657763e-005 -3.97327531e-005 -3.19320097e-005
      -2.81346256e-005 -3.03935667e-005 -1.02049735e-005
      -1.03759176e-005 -6.70296049e-006 1.62048545e-005 1.27735848e-005
      1.98588259e-005 2.39407073e-005 1.95954435e-005 2.85113056e-005
      -3.43088686e-007 -1.91075333e-006 6.77301387e-006 -1.20113436e-005
      -9.17342186e-006 -1.59582589e-006 -1.30827957e-005
      -5.86182978e-006 1.96777114e-006 -2.89828822e-005 -1.55194321e-005
      -9.05607885e-006 -2.87919738e-005 -1.41758273e-005
      -8.07172637e-006 -2.70628116e-005 -1.56925889e-005
      -6.63521405e-006 -2.06759742e-005 -1.13435808e-005
      -2.98214150e-006 -7.65372170e-006 -1.44256694e-006 4.65463881e-006
      1.18588741e-005 1.45123313e-005 1.61479857e-005 2.85951610e-005
      2.66611041e-005 2.21126011e-005 2.93862340e-005 2.86023969e-005
      1.95485209e-005 2.55246323e-005 2.61857458e-005 1.37429388e-005
      2.75318762e-005 2.55585292e-005 1.15045950e-005 2.49067598e-005
      1.69296254e-005 3.67499410e-006 3.52888856e-005 2.15845030e-005
      8.39206677e-006 4.38483621e-005 2.33084556e-005 1.16051915e-005
      3.83077640e-005 1.26004097e-005 2.81550655e-007 2.74234771e-005
      -3.19088531e-006 -1.60128475e-005 3.51442031e-005 3.15892021e-006
      -1.22363163e-005 3.09720417e-005 -1.03692992e-006 -1.98243142e-005
      2.62904523e-005 -3.55749626e-006 -2.12701707e-005 2.01668336e-005
      -3.89919114e-006 -1.86341804e-005 2.27418568e-005 3.79931657e-006
      -7.52534243e-006 1.60723921e-005 2.59291505e-006 -5.52416714e-006
      7.08484367e-006 -1.13225121e-006 -7.91141338e-006 3.64958214e-006
      -1.20834375e-006 -1.20310197e-005 2.58059072e-006 5.24134066e-006
      -1.12380212e-005 1.30294086e-006 9.33053252e-006 -1.20236573e-005
      3.18729508e-006 1.36276585e-005 -1.07513470e-005 1.73346998e-005
      2.64070331e-005 4.89848662e-006 1.80436473e-005 2.72193683e-005
      8.65815309e-006 1.30609105e-005 1.96867059e-005 6.31685680e-006
      6.82152358e-006 1.20043587e-005 2.83966256e-006 2.07422945e-005
      2.88675728e-005 1.70305211e-005 3.56633573e-005 4.34751018e-005
      3.27570051e-005 2.27097717e-005 3.14436438e-005 2.20299553e-005
      1.67862672e-005 2.10910257e-005 1.44151254e-005 2.85117094e-005
      2.25556669e-005 1.85232784e-005 3.48498106e-005 2.01374278e-005
      1.82730619e-005 4.01848811e-005 1.99675669e-005 1.91923191e-005
      3.15239340e-005 1.07374699e-005 1.31172892e-005 3.27433117e-005
      1.64484936e-005 2.21793434e-005 2.33728588e-005 1.39697813e-005
      2.24215564e-005 1.53024193e-005 1.33161793e-005 2.28912340e-005
      9.99957047e-006 1.35343662e-005 2.41283469e-005 6.45688033e-006
      1.42147064e-005 2.49256991e-005 5.43618808e-006 1.67461840e-005
      2.69804696e-005 2.41427515e-005 3.93359442e-005 4.74083245e-005
      1.25027072e-005 3.26626068e-005 3.71138885e-005 3.49361130e-006
      2.23360894e-005 2.44630883e-005 9.24124015e-006 2.69922530e-005
      2.42808910e-005 3.40480187e-006 1.53327692e-005 1.00351563e-005
      1.60444179e-005 2.10726685e-005 1.61771695e-005 1.94533077e-005
      1.86732577e-005 1.27419562e-005 -2.68388476e-006 -9.53287508e-006
      -1.67000344e-005 -2.66762504e-006 -1.25407569e-005
      -2.05957494e-005 -4.02137675e-006 -1.70750227e-005
      -2.59307126e-005 -6.34968842e-007 -1.75097593e-005
      -2.48502511e-005 -1.64098510e-005 -3.09069619e-005
      -3.72977738e-005 -2.27716191e-005 -2.60896686e-005
      -3.01942418e-005 -2.03125328e-005 -1.06699472e-005
      -1.30956478e-005 -2.30004935e-005 -5.79356174e-006
      -7.57398311e-006 -2.63061120e-005 -5.97589315e-006
      -5.72207500e-006 -1.71713091e-005 -4.94755881e-008 3.18474736e-006
      -1.85049248e-005 -4.17860610e-006 6.72536316e-007 -2.30025926e-005
      -1.08456743e-005 -4.07518928e-006 -2.12566483e-005
      -8.63358491e-006 -1.46984053e-006 -1.77565707e-005
      -4.50623520e-006 -1.84924591e-008 -3.72416207e-006 1.17543505e-005
      1.25970455e-005 2.29257093e-005 3.07577538e-005 2.83176450e-005
      1.06057742e-005 1.30963099e-005 7.24508845e-006 5.42417774e-006
      -2.30862906e-006 -7.49899073e-006 2.02644042e-005 6.61058448e-006
      -2.09866084e-006 3.17629383e-005 1.49074704e-005 5.67822690e-006
      4.26634433e-005 2.38675639e-005 1.42028730e-005 6.32625379e-005
      4.66727215e-005 3.83009537e-005 6.59960933e-005 5.43221140e-005
      5.07711411e-005 5.44291361e-005 4.96522080e-005 5.28211567e-005
      4.66763413e-005 4.59147705e-005 5.32740414e-005 4.34150097e-005
      4.14020506e-005 5.24286334e-005 4.12437184e-005 3.81503414e-005
      5.29865283e-005 4.79293776e-005 4.40505282e-005 6.00045387e-005
      2.35626485e-005 2.24881496e-005 3.81848949e-005 -1.02029244e-005
      -5.90623449e-006 8.77968068e-006 -2.08035199e-005 -1.37655752e-005
      -5.64747154e-007 -1.84367145e-005 -1.69463110e-005
      -4.67348946e-006 -1.64036628e-005 -1.92841126e-005
      -4.60236561e-006 -1.58048242e-005 -2.37708409e-005
      -4.24271821e-006 -7.39538109e-006 -1.93103515e-005 6.55395706e-006
      -1.14719921e-006 -1.36191802e-005 1.78418613e-005 -3.08295125e-006
      -1.46491202e-005 1.77973088e-005 -1.91584058e-005 -3.01166165e-005
      2.74787249e-006 -3.40361876e-005 -4.36483606e-005 -1.01006499e-005
      -3.52823263e-005 -4.31039880e-005 -5.99022087e-006
      -4.12460467e-005 -4.43742938e-005 -6.88497266e-006
      -4.49089348e-005 -4.37294766e-005 -1.09057228e-005
      -3.64271255e-005 -3.20357540e-005 -1.95538450e-006
      -2.95262853e-005 -2.38709708e-005 5.72049748e-006 -3.59353908e-005
      -3.00586034e-005 -8.57983139e-007 -1.46647644e-005
      -1.31302195e-005 1.48382042e-005 -1.20116829e-005 -1.13543383e-005
      1.51256309e-005 -1.14335826e-005 -1.24330409e-005 1.57179384e-005
      -9.34473974e-006 -9.21191895e-006 1.94797740e-005 2.42592737e-008
      -1.41883987e-007 3.05156354e-005 1.08786016e-005 6.94556638e-006
      3.71623828e-005 1.28035481e-005 9.01674071e-007 2.86983104e-005
      -3.68928681e-007 -1.69035975e-005 7.09753340e-006 7.97403027e-006
      -1.01831856e-005 8.14455871e-006 3.02234821e-005 1.06572743e-005
      2.58421078e-005 3.83831393e-005 1.68519709e-005 3.30027178e-005
      4.30300206e-005 2.19850044e-005 3.90280220e-005 3.96162941e-005
      2.28693025e-005 4.02471305e-005 3.80481761e-005 2.26643169e-005
      4.23219062e-005 4.81302322e-006 -7.91965067e-006 -1.32061705e-005
      1.06988082e-005 -1.80609482e-006 -6.48096830e-006 1.76065259e-005
      7.52120150e-006 2.45758815e-006 1.78013070e-005 7.80339633e-006
      4.58992372e-006 1.86943562e-005 3.85074327e-006 2.76735454e-006
      9.96201470e-006 -6.79196319e-006 -7.90403828e-006 -8.23235268e-007
      -1.71252741e-005 -1.89183938e-005 -1.25185361e-005
      -2.41765447e-005 -2.71079498e-005 -1.44187479e-005
      -1.95153734e-005 -2.13591939e-005 -3.41884261e-005
      -3.26261652e-005 -3.48355788e-005 -3.96941687e-005
      -3.15198704e-005 -3.30650219e-005 -6.89483340e-006 2.87364378e-006
      2.57531224e-006 1.07688911e-005 1.74589204e-005 2.02044175e-005
      1.69989507e-005 2.34338459e-005 2.85885362e-005 7.01653516e-006
      1.74045599e-005 2.16865974e-005 -1.51077411e-005 -2.10915186e-006
      7.80406765e-007 -2.48402557e-005 -9.55826908e-006 -7.33240495e-006
      -1.90134997e-005 -3.37311303e-006 -3.80508118e-006
      -3.41437371e-005 -2.17014913e-005 -2.54146780e-005
      -4.40506446e-005 -3.43961874e-005 -3.75000709e-005
      -1.24532771e-005 -7.34959121e-006 -6.43139674e-006 2.18080950e-005
      2.23987590e-005 2.74531976e-005 1.66292193e-005 1.74123979e-005
      2.40892969e-005 -2.33776318e-005 -2.03078744e-005 -1.10764577e-005
      -2.37025761e-005 -1.61208445e-005 -6.43884459e-006
      -2.31320573e-005 -1.06506168e-005 -2.54191832e-006
      -3.79213670e-005 -2.01162675e-005 -1.42670306e-005
      -4.72305837e-005 -2.75971433e-005 -2.20733018e-005
      -4.72052598e-005 -3.18583734e-005 -2.30762562e-005
      -3.63147701e-005 -2.23371644e-005 -1.37187553e-005
      -3.07062219e-005 -2.17122033e-005 -1.39177882e-005
      -2.57724078e-005 -2.00062277e-005 -1.48456083e-005
      -2.07490939e-005 -1.93249107e-005 -2.20800739e-005
      -5.30340412e-006 -3.65512096e-006 -1.11279032e-005 7.90757986e-006
      1.13891028e-005 -1.73733000e-007 1.45099093e-005 1.47510609e-005
      1.21768062e-006 8.39736822e-006 2.65404969e-006 -1.05775352e-005
      1.48545168e-005 4.07583821e-006 -7.73140437e-006 3.10032410e-005
      1.13367496e-005 6.84174779e-007 3.46369270e-005 1.13615097e-005
      1.32788068e-006 3.00758256e-005 1.64461255e-006 -8.54550217e-006
      3.01214241e-005 -2.84307333e-007 -1.13626256e-005 1.96860183e-005
      -1.09451057e-005 -2.33333540e-005 7.25029804e-006 -2.01254607e-005
      -3.39426115e-005 9.86117357e-006 -1.31892248e-005 -2.41965517e-005
      1.19594724e-005 -4.64019968e-006 -1.28501060e-005 4.52675204e-006
      -3.84758823e-006 -9.61451951e-006 1.27440999e-005 8.86918315e-006
      3.17190984e-006 6.07064885e-006 5.89695992e-006 -2.28342810e-006
      -1.86877983e-007 5.22160053e-006 -7.59315026e-006 -3.93019491e-006
      7.08613015e-006 -1.38888890e-005 5.84060081e-006 1.84476139e-005
      -5.96371274e-006 1.52956163e-005 2.75408656e-005 4.38652205e-006
      1.32757032e-005 2.46933323e-005 4.53623761e-006 -2.41197063e-006
      5.48009439e-006 -9.04703666e-006 -1.19108890e-005 -5.39840221e-006
      -1.66069713e-005 1.14371478e-005 2.08617166e-005 6.96249799e-006
      2.94900074e-005 3.96763171e-005 2.56322073e-005 1.30644185e-005
      2.35905081e-005 1.16331312e-005 5.35942900e-006 1.24672615e-005
      3.55904149e-006 2.11700681e-005 1.71195625e-005 1.20086779e-005
      2.63849870e-005 1.32275445e-005 1.09038683e-005 3.41127925e-005
      1.39715394e-005 1.30630206e-005 2.58386044e-005 5.95685970e-006
      7.10244922e-006 -7.39070742e-007 -1.50861570e-005 -9.27099791e-006
      -3.83865927e-006 -1.00037860e-005 -1.92596985e-006
      -1.64484482e-005 -1.36450108e-005 -4.59939838e-006
      -2.24847081e-005 -1.11051531e-005 -2.48543211e-006
      -1.21468693e-005 3.44014438e-006 1.31875704e-005 1.79410563e-006
      1.83786760e-005 2.77987092e-005 1.93550331e-005 3.76704120e-005
      4.47176099e-005 5.56117629e-006 2.58920918e-005 2.93221146e-005
      -8.27039275e-006 1.39196436e-005 1.36643848e-005 1.25267306e-005
      3.36119556e-005 3.17953672e-005 9.70728138e-007 1.49762191e-005
      1.22731062e-005 -1.66549739e-006 8.87328588e-006 5.03023966e-006
      1.22225106e-006 5.50401865e-006 2.14040892e-006 -5.88436296e-006
      -6.53605093e-006 -1.05246509e-005 -9.23111259e-007
      -4.27393343e-006 -1.07427923e-005 3.29011345e-006 -4.08989308e-006
      -1.14042314e-005 2.51278052e-005 1.33907288e-005 7.84290387e-006
      1.57424586e-006 -7.68073460e-006 -1.13622173e-005 -1.78931514e-005
      -1.55261769e-005 -1.95218436e-005 -1.48512427e-005 1.01229978e-006
      -2.27387523e-006 -2.97222250e-005 -3.96650148e-006
      -6.82337986e-006 -2.53565231e-005 2.88038746e-006 1.13639533e-006
      -9.98858559e-006 1.22858783e-005 1.16687243e-005 -6.01780403e-006
      1.23956379e-005 1.32645346e-005 -1.44259693e-005 8.84445626e-007
      2.83271925e-006 -8.75376918e-006 6.13723296e-006 6.68810071e-006
      -8.89098828e-006 8.14586929e-006 9.52019309e-006 -8.78089941e-006
      8.59355259e-006 7.35248113e-006 7.80006576e-006 2.28294157e-005
      1.88864324e-005 -5.25943869e-006 3.33319554e-006 -1.97852160e-006
      -4.03142803e-006 -6.24192808e-006 -1.24256812e-005 1.70413132e-005
      6.83643611e-006 -5.85832481e-007 3.31891388e-005 1.67921553e-005
      5.20136064e-006 3.50839837e-005 1.51334325e-005 4.69430643e-006
      4.33436398e-005 2.34479994e-005 1.55926955e-005 4.82576543e-005
      3.38392747e-005 3.00159772e-005 3.96900323e-005 3.25217152e-005
      3.54175390e-005 2.68642198e-005 2.59010867e-005 3.33881908e-005
      2.40186273e-005 2.53436738e-005 3.54729964e-005 3.17437225e-005
      3.17877675e-005 4.41968950e-005 4.07683583e-005 4.18615346e-005
      5.56288142e-005 2.54446913e-005 2.94691508e-005 4.34411049e-005
      -2.78801645e-006 9.39737401e-006 2.29177713e-005 -1.68651586e-005
      -1.75881792e-006 1.04106139e-005 -2.00736431e-005 -8.04226966e-006
      4.84538350e-006 -2.76346800e-005 -2.16638982e-005 -6.30482600e-006
      -2.88956999e-005 -2.91293018e-005 -9.62143713e-006 3.58747070e-006
      -1.17397462e-006 2.39851706e-005 2.47485659e-005 1.89609091e-005
      4.71267304e-005 9.32473540e-006 3.91148660e-006 3.58764628e-005
      -1.40495149e-005 -2.22091767e-005 8.63485729e-006 -2.34219406e-005
      -3.02038388e-005 1.33992592e-006 -2.12354280e-005 -2.45238080e-005
      1.10013680e-005 -2.83510944e-005 -2.55643827e-005 1.15651665e-005
      -3.68863621e-005 -3.00388365e-005 4.17103456e-006 -2.66590814e-005
      -1.83565026e-005 1.48925656e-005 -1.82495733e-005 -9.44439489e-006
      2.27913260e-005 -1.20955619e-005 -1.60398451e-006 2.78276002e-005
      -1.29883949e-006 4.64458299e-006 3.14242061e-005 -9.72929502e-006
      -7.63173466e-006 1.83366847e-005 -1.29591308e-005 -1.24434646e-005
      1.45077411e-005 -1.94070835e-005 -1.90730170e-005 8.71522570e-006
      -8.27426356e-006 -1.04335013e-005 2.15377040e-005 -1.26810335e-006
      -7.33675233e-006 2.41673279e-005 3.45774515e-006 -1.05733325e-005
      2.00034410e-005 2.52144514e-006 -1.41963010e-005 1.24968856e-005
      1.07811738e-005 -8.73162753e-006 1.24745602e-005 3.13902819e-005
      1.03160155e-005 2.92074947e-005 4.01332582e-005 1.78100927e-005
      3.70827001e-005 4.08791020e-005 1.83371885e-005 3.88671360e-005
      3.54170406e-005 1.68853931e-005 3.69776608e-005 3.40102961e-005
      1.70528874e-005 3.82668331e-005 2.02072788e-005 5.07081450e-006
      -1.97278428e-006 2.25801232e-005 7.61532692e-006 1.26531847e-006
      2.66683001e-005 1.47378214e-005 9.97415736e-006 3.52418574e-005
      2.37611803e-005 2.04199096e-005 4.41084776e-005 2.91218585e-005
      2.82355104e-005 1.62667166e-005 1.02593356e-006 1.43562616e-007
      2.27689566e-006 -1.02694357e-005 -1.24319695e-005 -5.30004490e-006
      -1.22823822e-005 -1.52597386e-005 -6.03889021e-006
      -6.49356389e-006 -7.14931775e-006 -2.91937049e-005
      -2.16782428e-005 -2.26345455e-005 -3.89315428e-005
      -2.47340704e-005 -2.77641957e-005 -2.89799264e-005
      -1.41848523e-005 -1.58052262e-005 -1.21493295e-005 6.32824140e-007
      2.02043043e-006 -1.61390421e-008 1.19893275e-005 1.55225225e-005
      2.24123733e-006 1.87199093e-005 2.12266077e-005 -1.06234593e-005
      9.52603932e-006 1.13825463e-005 -2.57285319e-005 -6.65982043e-006
      -4.92455274e-006 -2.47736825e-005 -4.74980834e-006
      -5.14776275e-006 -3.48893482e-005 -1.66680366e-005
      -2.12712603e-005 -4.36819610e-005 -2.72836078e-005
      -3.28307433e-005 -1.57601044e-005 -5.42110274e-006
      -7.12729206e-006 1.34937172e-005 2.07716075e-005 2.31609010e-005
      1.43439092e-005 2.15749060e-005 2.49705245e-005 -2.74541544e-005
      -1.83159882e-005 -1.27290295e-005 -1.51539971e-005
      -1.25013412e-006 5.60294211e-006 -8.65615402e-006 1.08621525e-005
      1.72733198e-005 -3.16534388e-005 -9.09980736e-006 -3.87918817e-006
      -5.36378793e-005 -3.03052293e-005 -2.60124270e-005
      -5.38054992e-005 -3.51139643e-005 -2.75879429e-005
      -4.70851737e-005 -2.97171191e-005 -2.10237940e-005
      -3.01494565e-005 -1.82852018e-005 -9.82171514e-006
      -1.43467250e-005 -5.35965000e-006 3.01555616e-007 -1.35758810e-007
      4.56704765e-006 3.67513485e-006 -2.47630055e-006 2.58379168e-006
      -4.16381636e-006 6.85555779e-006 1.22118063e-005 2.89533801e-007
      1.25146607e-005 1.41981964e-005 1.10075597e-007 7.42062048e-006
      3.41952796e-006 -1.22308447e-005 8.88896466e-006 -2.96719122e-007
      -1.47168330e-005 1.68432198e-005 3.72011709e-006 -7.63915068e-006
      2.05948563e-005 2.86550744e-006 -5.66195286e-006 1.00594179e-005
      -1.33046169e-005 -1.93330252e-005 7.42852899e-006 -1.78700138e-005
      -2.33694282e-005 7.80662049e-006 -2.14096981e-005 -2.68610565e-005
      1.29658747e-005 -1.36233384e-005 -2.08366546e-005 1.81404503e-005
      -3.48154344e-006 -9.97694315e-006 3.04637233e-005 1.57984978e-005
      1.07542755e-005 1.91101972e-005 1.39325984e-005 9.56346867e-006
      1.43738725e-005 1.49498028e-005 1.07156175e-005 -3.39743053e-007
      3.98665134e-006 -2.66020902e-006 -1.50794431e-005 -6.68421762e-006
      -1.83603988e-005 -7.84621989e-006 3.86229885e-006 -1.81418800e-005
      7.00628016e-006 1.92349889e-005 -5.44670274e-006 1.29036353e-005
      2.67810537e-005 1.22114943e-006 2.41483267e-005 3.67836838e-005
      1.29020082e-005 8.37150583e-006 1.61334629e-005 -2.61828473e-006
      -1.75539299e-005 -9.63214825e-006 -2.60510569e-005 2.12530063e-006
      9.71314603e-006 -7.73607462e-006 9.96089602e-006 1.89561852e-005
      1.84283090e-006 -3.23251015e-007 1.01962250e-005 -3.30181456e-006
      8.50058370e-007 7.02727402e-006 -3.02785338e-006 2.25731019e-005
      2.01595867e-005 1.40180327e-005 2.90619755e-005 1.69066006e-005
      1.35524142e-005 4.59117473e-005 2.63784495e-005 2.39444162e-005
      2.11797305e-005 1.46812965e-006 2.42778492e-006 4.15035885e-007
      -1.49856114e-005 -7.68364316e-006 -1.55901653e-005
      -2.19085523e-005 -1.22810397e-005 -3.53041687e-005
      -3.04607529e-005 -2.21566715e-005 -1.97963800e-005
      -7.81223844e-006 -2.32449948e-009 5.95310530e-006 1.98962480e-005
      2.71642548e-005 2.11511906e-005 3.68683213e-005 4.19788012e-005
      2.18828700e-005 3.54010299e-005 3.66970344e-005 -1.03185266e-005
      5.48813250e-006 2.49626714e-006 -1.62681135e-005 1.42577528e-006
      -5.49228480e-006 -8.26511314e-006 1.04402698e-005 4.24172413e-006
      4.56839643e-006 2.15626515e-005 1.39703488e-005 -1.74503143e-007
      1.28143884e-005 6.34696607e-006 -6.07349421e-006 4.76185960e-006
      -2.83288472e-007 9.80415098e-006 1.47359597e-005 1.03959455e-005
      2.15450527e-005 2.20839356e-005 1.48341769e-005 3.32117816e-005
      3.05900030e-005 2.34947329e-005 4.00849603e-005 3.34803408e-005
      2.86141549e-005 1.57556951e-005 1.41345554e-005 1.06498619e-005
      -1.38230516e-005 -2.72988427e-006 -5.30422903e-006
      -2.39530818e-005 -2.27520400e-006 -5.09188112e-006
      -2.43958730e-005 5.88871535e-006 2.42158012e-006 -1.84985256e-005
      1.27674848e-005 8.89691182e-006 -1.75601035e-005 6.41757060e-006
      1.84731516e-006 -5.03735873e-006 1.45084259e-005 9.50798585e-006
      -1.21574049e-005 2.35245648e-006 -3.16231240e-006 -1.62855067e-005
      -3.28058832e-006 -9.17373563e-006 -1.58339790e-005
      -6.03758565e-007 -6.56832754e-006 -9.90961689e-006 5.77769379e-006
      8.49529783e-007 -1.35238288e-005 3.37485130e-006 -1.95114126e-006
      -2.34304152e-005 -1.07910364e-005 -1.71080774e-005
      -1.60565614e-005 -1.25089546e-005 -1.75651221e-005 6.17232399e-006
      6.79933635e-007 -7.67769779e-006 1.94969252e-005 4.24209293e-006
      -9.06339665e-006 2.26134143e-005 2.22230142e-006 -1.06461102e-005
      2.29632515e-005 -4.00914928e-007 -9.21764786e-006 2.25831318e-005
      3.59173669e-006 -3.70097410e-008 4.66400621e-007 -1.12004245e-005
      -8.44836359e-006 1.78918265e-006 -2.86024078e-006 3.22091705e-006
      6.45447244e-006 6.02279079e-006 1.31865299e-005 1.78741084e-005
      1.76549311e-005 2.58086711e-005 2.53655908e-005 2.53214803e-005
      3.61167622e-005 6.62431785e-006 1.21922467e-005 2.39991114e-005
      1.26087380e-005 2.60113484e-005 3.74428128e-005 1.14579670e-005
      2.80238091e-005 3.86584252e-005 -8.76098147e-006 5.68747646e-006
      1.60851996e-005 -2.65916442e-005 -1.48228737e-005 -1.54843599e-006
      -1.99794904e-005 -1.20505765e-005 5.36424204e-006 4.13797034e-006
      7.04033573e-006 2.89639611e-005 2.71396875e-005 2.78389198e-005
      5.25295036e-005 2.37112181e-005 2.21525661e-005 4.87638135e-005
      1.38527241e-006 -5.87689101e-006 1.96748060e-005 -6.53902725e-006
      -1.39061312e-005 1.44984597e-005 -2.20905349e-006 -4.79557002e-006
      2.81546563e-005 -3.38765062e-006 2.76035735e-007 3.47741698e-005
      -1.25784018e-005 -4.38250345e-006 2.80888471e-005 3.80641973e-006
      1.33458652e-005 4.43170939e-005 7.05018192e-006 1.60636573e-005
      4.73884829e-005 5.46642195e-006 1.40715956e-005 4.11878791e-005
      -5.04639274e-006 -1.46540856e-006 2.21655682e-005 -6.36868253e-006
      -5.65480195e-006 1.63096083e-005 -2.01191756e-006 -3.86216834e-006
      1.92228672e-005 4.91967330e-006 1.39954284e-006 2.67856340e-005
      -1.42002582e-005 -1.93456835e-005 1.00928655e-005 -2.16472217e-005
      -3.04246769e-005 1.27494695e-006 -2.52123937e-006 -1.85082117e-005
      1.26930090e-005 -8.47296917e-007 -1.83242846e-005 9.81062840e-006
      -2.45067736e-006 -2.25204840e-005 9.86610075e-007 2.06740915e-005
      -2.36572617e-007 2.14328793e-005 2.10461621e-005 -1.21246455e-006
      2.06839741e-005 3.52226525e-005 1.08370341e-005 3.29483337e-005
      3.90983114e-005 1.72788787e-005 4.06301806e-005 4.66285055e-005
      2.69398261e-005 5.08481680e-005 1.98623802e-005 2.28160457e-006
      -6.07896345e-006 2.37569584e-005 7.23004496e-006 -2.88047687e-007
      2.31013673e-005 8.86362341e-006 4.87221087e-006 4.79000119e-005
      3.45307344e-005 3.15797370e-005 4.96482098e-005 3.46049019e-005
      3.30343137e-005 1.30609506e-005 -8.79395827e-007 -2.03132618e-006
      -3.55421435e-007 -1.04973560e-005 -1.37078814e-005 8.72711155e-007
      -3.16365413e-006 -5.84867530e-006 -4.05275659e-006
      -1.37839311e-006 -2.24619248e-006 -1.96428591e-005
      -9.02226475e-006 -8.80262542e-006 -4.12940899e-005
      -2.41374692e-005 -2.50859684e-005 -4.20497054e-005
      -2.45301817e-005 -2.54519036e-005 -3.28462447e-005
      -1.91800937e-005 -1.70066451e-005 -7.97204939e-006 7.66786525e-006
      1.07817150e-005 5.71719647e-006 2.50548310e-005 2.75631501e-005
      -1.00974412e-005 1.20264640e-005 1.44090718e-005 -2.32351977e-005
      -2.45736715e-006 -2.12119539e-006 -1.75524492e-005 4.36946266e-006
      2.15459681e-006 -1.89186067e-005 4.07065181e-006 -2.24022801e-006
      -1.88975082e-005 4.51492383e-007 -5.32574541e-006 -7.27587030e-006
      6.21495110e-006 3.50944742e-006 2.63461825e-005 3.67574794e-005
      3.75371856e-005 3.51520721e-005 4.51440319e-005 4.85448400e-005
      -1.09209459e-005 2.98633995e-006 7.85719840e-006 -7.18042702e-006
      1.04721594e-005 1.72432810e-005 -1.12225734e-006 2.11008719e-005
      2.77873314e-005 -2.76654882e-005 -3.06522747e-006 1.23485779e-006
      -5.29036879e-005 -2.89485160e-005 -2.50512585e-005
      -4.50746193e-005 -2.47017088e-005 -1.98476118e-005
      -2.35057087e-005 -6.67720542e-006 2.23636249e-007 6.16083071e-007
      1.30882754e-005 2.08324182e-005 4.56828502e-006 1.57452578e-005
      2.09794762e-005 -4.50604239e-006 4.28658132e-006 4.02358319e-006
      8.26897030e-006 1.47207584e-005 8.54799237e-006 1.01153864e-005
      1.55855996e-005 4.80089966e-006 1.30907219e-005 1.64409303e-005
      3.25439464e-006 1.51095774e-005 1.35821765e-005 -3.19758578e-006
      2.71470308e-005 2.27222317e-005 7.15662873e-006 2.68728854e-005
      1.77064721e-005 8.91875516e-006 2.10334983e-005 8.60994533e-006
      4.67692780e-006 9.23307653e-006 -9.47253193e-006 -9.98752876e-006
      1.98787795e-008 -2.09778591e-005 -2.08765287e-005 2.34540767e-006
      -2.15841119e-005 -2.17088273e-005 1.40798484e-005 -1.01107535e-005
      -1.15878220e-005 2.94355596e-005 1.01027226e-005 8.03720468e-006
      3.88356530e-005 2.76133906e-005 2.57559932e-005 1.96901910e-005
      1.77808324e-005 1.72935361e-005 7.39974485e-006 1.31655061e-005
      1.10363681e-005 -1.45737995e-005 -5.12361203e-006 -8.88397972e-006
      -2.27615856e-005 -9.92210971e-006 -2.00104732e-005
      -4.33494779e-006 8.67297149e-006 -1.17579384e-005 7.35828007e-006
      2.07756966e-005 -4.88796240e-006 2.45034425e-006 1.41933215e-005
      -1.23094414e-005 9.66397874e-006 1.88089762e-005 -5.55531233e-006
      4.97209521e-006 9.94851598e-006 -9.25323002e-006 2.72545731e-006
      6.21043228e-006 -9.90389253e-006 -1.04592873e-005 -3.93888740e-006
      -2.20212569e-005 -1.37275656e-005 -5.43267561e-006
      -2.16675289e-005 -1.05366489e-005 2.04792325e-008 -1.22975489e-005
      -3.82330882e-006 3.52476286e-006 -5.42804219e-006 1.77127076e-005
      1.47080736e-005 9.10433027e-006 2.61753557e-005 1.47096598e-005
      1.15768262e-005 3.81705649e-005 2.03918389e-005 1.75977311e-005
      2.38498960e-005 6.10295183e-006 6.35590868e-006 1.58961188e-006
      -1.14983122e-005 -6.51648133e-006 -1.49862390e-005
      -2.16795379e-005 -1.11837981e-005 -3.36219491e-005
      -2.58581968e-005 -1.82379863e-005 -2.16856242e-005
      -7.35593312e-006 -9.04672106e-007 -3.30044008e-006 1.08305794e-005
      1.60354230e-005 1.66745940e-005 2.73696551e-005 2.95157079e-005
      1.85898182e-006 9.12932319e-006 5.56692112e-006 -2.13062740e-005
      -1.39529902e-005 -2.08368729e-005 -2.56853236e-005
      -1.68484385e-005 -2.67219475e-005 -1.03701886e-005 1.14304885e-006
      -9.02926331e-006 5.23326571e-006 1.73875251e-005 1.01797605e-005
      1.68090492e-006 1.61422977e-005 1.01716041e-005 -6.16954549e-006
      7.43365263e-006 1.41504677e-006 1.17906966e-005 2.23335137e-005
      1.68604020e-005 3.38001046e-005 3.84513296e-005 3.03306570e-005
      3.95425377e-005 4.02945807e-005 3.21454318e-005 3.55070806e-005
      3.39323560e-005 2.84430771e-005 1.99894403e-005 2.19519043e-005
      1.79181097e-005 -5.28874079e-006 7.23366702e-006 5.42078988e-006
      -2.60375018e-005 -2.37150357e-006 -4.74108992e-006
      -2.22593098e-005 8.15965996e-006 5.46164756e-006 -6.16092848e-006
      2.35170828e-005 1.77754700e-005 5.70920633e-007 2.23035640e-005
      1.50115056e-005 7.18409046e-006 2.39630972e-005 1.42354866e-005
      -1.37334575e-006 1.28468255e-005 -2.10482455e-007 -9.21102765e-006
      2.06925165e-006 -1.10093488e-005 -1.15295443e-005 1.41785119e-006
      -1.02293443e-005 3.82781900e-006 1.73172539e-005 8.51822188e-006
      -1.32472348e-006 1.69129380e-005 1.05067356e-005 -1.46187358e-005
      3.62424373e-007 -5.14749263e-006 -1.23801801e-005 -3.02710691e-006
      -7.80034406e-006 1.20913674e-005 1.09115354e-005 3.83177439e-006
      2.55872765e-005 1.21933290e-005 -5.74472026e-008 4.75687284e-006
      -1.69051291e-005 -2.84595699e-005 7.71061241e-006 -1.64646808e-005
      -2.22900999e-005 2.43678119e-006 -1.88246959e-005 -1.85082572e-005
      -2.06683399e-005 -3.53400028e-005 -3.00015381e-005
      -3.42068006e-006 -9.48978595e-006 -2.01188345e-006 1.54698264e-005
      1.63176064e-005 2.15773853e-005 2.39011206e-005 2.58349355e-005
      3.11142721e-005 9.28657118e-006 1.15578196e-005 1.80335919e-005
      1.12920475e-006 7.57987709e-006 1.59776937e-005 5.60724948e-006
      1.80935858e-005 2.50001940e-005 2.84317451e-007 1.55214912e-005
      2.30090791e-005 -1.17892414e-005 2.66232860e-006 1.06636271e-005
      -3.00162974e-005 -1.85726294e-005 -6.22958351e-006
      -1.86766920e-005 -1.03273424e-005 7.24061420e-006 1.45361546e-005
      2.05298420e-005 4.01237994e-005 2.56494859e-005 2.88499432e-005
      5.11176368e-005 2.26996053e-005 2.19875055e-005 4.64091790e-005
      7.41210533e-006 -3.67864885e-007 2.34917497e-005 -5.38415043e-006
      -1.30545786e-005 1.32467640e-005 8.07406934e-007 -7.66637065e-009
      3.07959272e-005 -5.77998708e-006 -2.04966545e-006 3.11645454e-005
      -9.29338967e-006 6.68840698e-007 3.12715238e-005 1.54871359e-005
      2.70840865e-005 5.65543487e-005 1.65361125e-005 2.52568061e-005
      5.33975435e-005 8.78649098e-006 1.48406489e-005 3.84007471e-005
      -1.88170668e-006 -1.24492533e-006 1.85159715e-005 -9.22276467e-006
      -9.44651310e-006 6.70107784e-006 -4.26183487e-006 -9.53316885e-006
      8.42760619e-006 -4.28104386e-006 -1.25805036e-005 7.38802828e-006
      -1.00433990e-005 -2.06031564e-005 5.92261449e-006 -1.88982394e-005
      -3.14377867e-005 -2.05814558e-006 6.26860128e-007 -1.62710712e-005
      1.28775564e-005 3.08495896e-006 -1.60387699e-005 1.20259656e-005
      7.69866074e-006 -1.30529133e-005 1.07336964e-005 2.39839537e-005
      2.12008308e-006 2.48618144e-005 2.67620380e-005 3.04437435e-006
      2.52460359e-005 2.92685254e-005 4.17078536e-006 2.78190109e-005
      4.00210301e-005 1.66401805e-005 4.14931565e-005 5.74735277e-005
      3.65897722e-005 6.12163130e-005 1.67817616e-005 -1.68388362e-006
      -9.18763635e-006 1.70448675e-005 -7.86853320e-007 -7.98568362e-006
      8.71167504e-006 -7.88003217e-006 -1.06782800e-005 3.49644470e-005
      2.02313167e-005 1.83092652e-005 4.77999783e-005 3.29245959e-005
      3.08124108e-005 2.77808122e-005 1.36808148e-005 1.08537261e-005
      2.52396512e-005 1.54881891e-005 1.19668921e-005 9.40014797e-006
      4.31230910e-006 3.56552073e-006 -3.26984809e-006 -1.91675554e-006
      5.81996005e-007 -2.41383750e-005 -1.43710959e-005 -1.22762485e-005
      -4.04811944e-005 -2.43360446e-005 -2.29024226e-005
      -3.51737617e-005 -1.88814302e-005 -1.77010261e-005
      -2.43817231e-005 -1.08835511e-005 -8.70355325e-006
      -7.88890975e-006 6.79296136e-006 1.04398459e-005 -6.02860246e-006
      1.18953594e-005 1.46353232e-005 -2.13880321e-005 -1.20221694e-006
      1.82371025e-006 -2.50577978e-005 -3.91293725e-006 -4.69371662e-006
      -8.75270234e-006 1.31257857e-005 9.07743288e-006 -1.22339759e-006
      2.12668165e-005 1.49694361e-005 -1.01423866e-005 1.12567850e-005
      5.52236270e-006 5.82592975e-006 2.17492907e-005 1.97894369e-005
      3.78959630e-005 5.13961932e-005 5.26055665e-005 3.46233901e-005
      4.66378406e-005 4.90910534e-005 -7.36655420e-006 6.24441600e-006
      1.19718470e-005 -1.58464027e-005 1.81188307e-006 8.92029857e-006
      -9.60916259e-006 1.14549466e-005 1.85759982e-005 -2.93260036e-005
      -6.59250281e-006 -2.05942729e-006 -3.45920234e-005
      -1.32573405e-005 -1.11966892e-005 -3.33332828e-005
      -1.51461918e-005 -1.08474451e-005 -2.13512180e-006 1.22110841e-005
      1.78741157e-005 3.39915241e-005 4.58782670e-005 5.28639212e-005
      2.48646102e-005 3.78089426e-005 4.23943275e-005 1.49671196e-005
      2.54501228e-005 2.46552281e-005 1.34104203e-005 2.13999356e-005
      1.58715247e-005 1.93257711e-005 2.59909029e-005 1.68754977e-005
      1.96062974e-005 2.37913519e-005 1.20776022e-005 3.26243680e-005
      3.37473648e-005 2.11290426e-005 4.22203593e-005 4.00984463e-005
      3.04339301e-005 1.83700922e-005 1.33491876e-005 9.18510614e-006
      4.28688281e-006 -4.22733274e-006 -2.55584223e-006 -7.70660691e-008
      -1.32627347e-005 -8.64379035e-006 -1.49225411e-006
      -1.84789151e-005 -1.21546873e-005 6.18414833e-006 -1.23077143e-005
      -8.26868290e-006 1.36829840e-005 -5.30174430e-006 -1.04129481e-006
      2.21812988e-005 6.96103052e-006 8.81404321e-006 2.24249452e-005
      1.57529139e-005 1.77512320e-005 6.09779909e-006 8.45390332e-006
      1.11113941e-005 -6.99311659e-006 2.81568782e-006 3.94710241e-006
      -1.58324165e-005 -2.29697162e-006 -2.96912503e-006
      -2.74218182e-005 -9.43003488e-006 -1.74945453e-005 1.49474738e-006
      1.62632241e-005 -1.83815359e-006 1.09341881e-005 2.35541174e-005
      -3.13729316e-007 -1.55446633e-005 -7.27224779e-006
      -3.17574049e-005 2.02472324e-006 6.56235943e-006 -1.62817032e-005
      1.00792677e-005 1.06354901e-005 -7.59413797e-006 2.52055884e-006
      2.46141212e-006 -1.09861148e-005 -2.32220100e-005 -2.03670061e-005
      -3.29149298e-005 -1.19306433e-005 -6.95564495e-006
      -1.71395241e-005 -1.25969734e-007 9.14464727e-006 1.71925558e-006
      8.44725764e-006 1.47178298e-005 1.11144391e-005 1.12226380e-005
      8.68547340e-006 7.28487566e-006 1.09812436e-005 1.60578304e-006
      4.70926352e-007 2.42130809e-005 1.00466132e-005 1.07221367e-005
      3.07824448e-005 1.53927158e-005 1.71197134e-005 2.15914442e-005
      9.12997257e-006 1.73447370e-005 3.44605814e-006 -5.18042143e-008
      1.11576646e-005 -8.61979333e-006 1.41804708e-006 1.07505039e-005
      -6.06614776e-006 8.74678517e-006 1.54483841e-005 4.64521781e-006
      1.62827655e-005 2.03914096e-005 1.04761693e-005 1.68121078e-005
      1.67639246e-005 -3.54645726e-006 -4.76962987e-006 -1.02212307e-005
      -2.45608244e-005 -2.68433669e-005 -3.56638629e-005
      -2.72470061e-005 -2.82106830e-005 -3.85082312e-005
      -9.00133819e-006 -6.82663267e-006 -1.59823467e-005
      -6.12182839e-006 2.36871097e-006 -3.84538453e-006 -4.80399649e-006
      9.36725610e-006 4.26282031e-006 -1.76443809e-005 -2.98254440e-006
      -7.96270069e-006 6.49512970e-007 1.47381361e-005 9.20087041e-006
      3.43385545e-005 4.23044621e-005 3.43808897e-005 3.61411039e-005
      4.10074790e-005 3.24751672e-005 2.57595166e-005 2.80470231e-005
      2.10037488e-005 1.76301110e-005 2.13940966e-005 1.62581491e-005
      6.15059389e-006 1.76182439e-005 1.58820276e-005 -4.72202692e-006
      1.54086647e-005 1.47824367e-005 -1.08937074e-005 1.38780078e-005
      1.27363292e-005 -9.23000516e-006 1.40147986e-005 9.50717731e-006
      2.09407153e-005 3.77261458e-005 3.07449627e-005 2.41021353e-005
      3.59686419e-005 2.44690436e-005 7.11090343e-006 1.66873469e-005
      1.12471969e-006 -1.04556402e-005 -2.12258919e-006 -1.89835027e-005
      -2.49944278e-005 -1.39127587e-005 -2.94617621e-005
      -6.06177309e-007 1.35020973e-005 3.34415688e-007 1.38215341e-006
      2.23059833e-005 1.30198305e-005 7.39520090e-007 1.97107784e-005
      1.37739917e-005 2.17257202e-005 3.73965777e-005 3.28590322e-005
      3.32754134e-005 3.55602606e-005 3.01220207e-005 3.12852353e-005
      1.97806166e-005 1.12958614e-005 1.16427536e-005 -8.30199042e-006
      -1.51607373e-005 2.23916231e-005 -7.37725898e-008 6.96539018e-007
      5.22777600e-006 -1.44869691e-005 -8.51779350e-006 -1.40221873e-005
      -2.70314049e-005 -1.67574944e-005 3.63285676e-006 -2.57460624e-006
      8.17029104e-006 1.62344568e-005 1.66474711e-005 2.41178222e-005
      2.07540943e-005 2.52737536e-005 2.97402239e-005 6.96838561e-006
      1.16237279e-005 1.43446796e-005 4.02757053e-007 6.00376916e-006
      7.96588756e-006 -1.77898391e-006 5.63720960e-006 8.97085829e-006
      -1.41159817e-005 -5.39893199e-006 -9.69643565e-007
      -2.18918594e-005 -1.59161973e-005 -8.11212703e-006
      -3.46250199e-005 -2.87067796e-005 -1.61679200e-005
      -1.81144424e-005 -1.16416686e-005 6.36610594e-006 2.61551963e-006
      6.96524557e-006 2.63424081e-005 1.31382476e-005 1.43068009e-005
      3.61314815e-005 6.78611559e-006 5.14974272e-006 2.75299844e-005
      -1.19674896e-005 -2.05531142e-005 3.67849702e-006 -1.90945429e-005
      -2.61536770e-005 -2.80725175e-007 -2.96604176e-005
      -2.93307785e-005 8.40339226e-007 -2.41926464e-005 -1.75888945e-005
      1.41811761e-005 -2.35087391e-005 -1.03276916e-005 2.01105559e-005
      -6.80065796e-007 1.17164127e-005 3.94771851e-005 5.88631792e-006
      1.26399927e-005 3.72964641e-005 1.80719701e-006 3.79428980e-006
      2.47877033e-005 -8.20945934e-006 -1.17590635e-005 3.10425480e-006
      -1.40765860e-005 -2.01012790e-005 -8.08226832e-006
      -4.42135479e-006 -1.53352266e-005 -1.97657073e-006
      -5.03291722e-006 -1.97598238e-005 -4.22807761e-006
      -9.43236046e-006 -2.47987427e-005 -4.16019338e-006
      -1.56966053e-005 -3.13373239e-005 -8.46037165e-006 1.12154530e-005
      -8.50174547e-006 1.65761958e-005 1.81648084e-005 -1.67009887e-006
      2.27998826e-005 2.23110801e-005 1.22781330e-006 2.20062811e-005
      3.99738383e-005 1.83897428e-005 3.90561036e-005 2.73511450e-005
      3.54502322e-006 2.66921525e-005 2.19800859e-005 -3.44685259e-006
      2.05278902e-005 2.77667841e-005 4.25211920e-006 2.94552756e-005
      5.14048297e-005 3.00231641e-005 5.59486252e-005 1.59485044e-005
      -2.60919319e-006 -1.22328829e-005 6.64154186e-006 -1.16564097e-005
      -1.95232569e-005 -1.21156506e-006 -1.71199426e-005
      -2.07211087e-005 1.71681022e-005 2.18769583e-006 9.72600205e-008
      3.43007778e-005 1.90231276e-005 1.50342439e-005 3.41329505e-005
      1.97620411e-005 1.54499539e-005 4.54579858e-005 3.49361035e-005
      3.06076181e-005 3.21082880e-005 2.68889871e-005 2.55822924e-005
      -2.18992750e-006 -2.24410678e-006 1.70291253e-006 -2.61514961e-005
      -2.10342769e-005 -1.53344208e-005 -2.12643936e-005
      -8.25175539e-006 -5.59537375e-006 -1.03291823e-005 4.36989421e-006
      7.28154873e-006 -5.60621686e-007 1.20933973e-005 1.65258371e-005
      -7.17477315e-006 5.19647756e-006 1.02677295e-005 -6.89708486e-006
      8.01544411e-006 1.20020095e-005 -2.30644382e-005 -6.67349150e-006
      -4.79865867e-006 -1.37475918e-005 3.75592003e-006 2.30277715e-006
      5.29100498e-006 2.28394583e-005 1.96069741e-005 4.57053966e-006
      2.36985106e-005 1.94400036e-005 -1.22199226e-005 6.63818992e-006
      3.39084704e-006 1.57185241e-005 3.04768491e-005 3.12915945e-005
      3.80248675e-005 5.02757612e-005 5.47549898e-005 1.92361076e-005
      3.07415794e-005 3.57623430e-005 -1.33728154e-005 1.14273057e-007
      7.76372053e-006 -8.12007875e-006 8.37568950e-006 1.85213739e-005
      -9.97965617e-006 9.62343529e-006 2.00372015e-005 -2.83158606e-005
      -7.85975226e-006 -2.30234446e-006 -2.53042163e-005
      -7.60125386e-006 -4.12847339e-006 -2.96226972e-005
      -1.56547503e-005 -1.00274428e-005 -1.14059358e-005 1.55701309e-006
      7.57471935e-006 3.10705582e-005 4.31315348e-005 4.90013845e-005
      2.85708211e-005 4.29259635e-005 4.66937527e-005 3.18854036e-005
      4.35833608e-005 4.24552709e-005 3.39464204e-005 4.28404419e-005
      3.90387613e-005 3.90126952e-005 4.73300061e-005 4.05172723e-005
      3.96228861e-005 4.39241121e-005 3.58964680e-005 3.92951515e-005
      4.27749474e-005 3.37458878e-005 4.62342614e-005 4.50223706e-005
      3.95865900e-005 -6.07684569e-007 -3.02712328e-006 -2.49949471e-006
      -1.69340328e-005 -2.24872838e-005 -1.74405941e-005
      -7.56098461e-006 -1.69527648e-005 -8.78795618e-006
      -5.72438648e-006 -1.66287446e-005 -8.84128804e-006 4.44762509e-006
      -7.43981991e-006 -1.59023716e-006 -6.52118104e-007
      -1.13600772e-005 -7.29877320e-006 7.45067337e-006 -2.40487066e-006
      1.08684685e-006 4.71886278e-006 1.85156591e-006 5.62949390e-006
      -2.29523539e-005 -1.60379859e-005 -1.10381761e-005
      -9.82184065e-006 4.31957415e-006 6.94334994e-006 4.27141958e-006
      2.24674750e-005 2.10816488e-005 -9.69068424e-007 1.98917805e-005
      1.37474281e-005 2.23845745e-005 3.69046757e-005 2.08153033e-005
      1.56633832e-005 2.58283417e-005 5.28003784e-006 -7.77572313e-006
      -7.59265731e-007 -2.29403850e-005 1.63623390e-005 1.81109972e-005
      -3.12600969e-006 3.88067274e-005 3.75935306e-005 1.99225487e-005
      2.00770428e-005 1.82325111e-005 6.03336866e-006 -1.45124377e-005
      -1.38744881e-005 -2.31034355e-005 1.73502622e-006 5.81298809e-006
      4.66912184e-007 5.67842244e-006 1.39792392e-005 1.04982664e-005
      1.69766718e-005 2.33636420e-005 2.29891193e-005 1.87632777e-005
      1.51080822e-005 1.57867635e-005 9.55291216e-006 1.66089512e-006
      2.79705591e-006 2.90162443e-005 1.62555953e-005 1.72799137e-005
      3.85395688e-005 2.46939744e-005 2.80026088e-005 3.60303602e-005
      2.57779720e-005 3.53937721e-005 2.41218095e-005 2.28185163e-005
      3.52556781e-005 7.38441122e-006 1.96254950e-005 3.11479635e-005
      -7.06084336e-007 1.28615438e-005 2.13813564e-005 1.30784101e-005
      2.28002536e-005 2.66683746e-005 6.44151123e-006 9.69139637e-006
      7.55422252e-006 -1.98464409e-006 -6.63641504e-006 -1.38188543e-005
      -4.75495654e-006 -1.24202825e-005 -2.15972141e-005
      -1.89827588e-005 -2.61449841e-005 -3.48894646e-005
      -4.47882985e-006 -6.02382352e-006 -1.47510300e-005 9.66578955e-006
      1.57819723e-005 1.05487925e-005 -5.14002295e-006 6.77573371e-006
      2.08483289e-006 -2.08697547e-005 -5.67573579e-006 -1.11593135e-005
      -4.16590001e-006 1.25522774e-005 5.65173605e-006 1.94396998e-005
      3.01419695e-005 2.20223174e-005 2.53876715e-005 3.36672092e-005
      2.45532301e-005 2.02016527e-005 2.62451340e-005 1.86423404e-005
      9.42051065e-006 1.47709670e-005 1.02918502e-005 1.06848320e-005
      2.09509399e-005 2.07793146e-005 5.19247806e-006 1.88118356e-005
      2.18322421e-005 -3.27355770e-006 1.47015035e-005 1.64689882e-005
      1.87059106e-006 1.64948233e-005 1.58860439e-005 3.34690230e-005
      4.43568606e-005 4.05031096e-005 2.39721703e-005 3.06300972e-005
      2.30189416e-005 6.55382200e-006 1.15607208e-005 -1.03827665e-006
      -4.07205516e-006 -7.47287231e-007 -1.53176406e-005
      -1.08061331e-005 -3.44009982e-006 -1.96442834e-005
      -3.46045749e-006 9.31501199e-006 -3.75453601e-006 3.39828921e-006
      2.38784523e-005 1.53649435e-005 1.74143643e-005 3.65927226e-005
      3.18757156e-005 5.21931506e-005 6.77372009e-005 6.49339854e-005
      5.67935676e-005 6.04045563e-005 5.62515597e-005 2.14234606e-005
      1.13520164e-005 4.86319186e-006 2.16195422e-005 4.37644439e-006
      -1.10836762e-008 2.77000181e-005 8.72450164e-006 1.12842672e-005
      1.82202020e-005 2.44438661e-006 1.12577191e-005 -2.96462645e-006
      -1.22425672e-005 3.02937474e-006 -5.23703761e-007 -1.46651519e-006
      1.23809250e-005 7.00273222e-006 1.10489109e-005 2.22263861e-005
      6.32336514e-006 1.42151302e-005 1.95044595e-005 7.76729757e-006
      1.42460085e-005 1.54155023e-005 6.21034496e-006 1.10264155e-005
      1.05751051e-005 -5.87966724e-006 -1.42618489e-006 -9.85130669e-007
      -1.73164335e-005 -1.45859985e-005 -9.65811432e-006
      -1.73974277e-005 -1.84015171e-005 -8.62022262e-006
      -3.03034521e-005 -3.26107292e-005 -1.82834847e-005
      -2.38943176e-005 -2.40879490e-005 -7.27869065e-006
      -1.13320984e-005 -8.45622526e-006 1.03083867e-005 -3.15761395e-006
      -3.68611836e-006 1.72661239e-005 -1.40032500e-006 -5.25452151e-006
      1.72056734e-005 -2.42720180e-005 -3.36132362e-005 -8.39125005e-006
      -2.84762591e-005 -3.55917145e-005 -9.37739878e-006
      -4.18771342e-005 -4.15002214e-005 -1.36196559e-005
      -4.62652679e-005 -4.00805984e-005 -1.19673423e-005
      -2.74150862e-005 -1.52379298e-005 1.10424708e-005 -4.81061397e-006
      6.33185073e-006 3.04619552e-005 -1.11165309e-005 -4.45449132e-006
      1.67787148e-005 -2.68600888e-005 -2.41803427e-005 -7.16347040e-006
      -2.72740108e-005 -3.25666297e-005 -2.10425696e-005
      -1.64259582e-005 -2.64461760e-005 -1.83389675e-005
      -3.15903185e-006 -1.79918716e-005 -8.75105070e-006
      -9.63461844e-006 -2.67534251e-005 -1.63167442e-005
      -2.28964655e-005 -4.06348081e-005 -2.58280397e-005
      -2.18832902e-005 -4.20269280e-005 -2.31987269e-005 9.66536027e-006
      -1.16410920e-005 8.15140720e-006 1.44862261e-005 -6.91402192e-006
      1.26103578e-005 2.80269051e-005 6.26517431e-006 2.27711171e-005
      4.35513793e-005 2.05076067e-005 3.78614168e-005 2.70264009e-005
      1.42551619e-006 2.16045337e-005 1.63516343e-005 -9.15461260e-006
      1.29375376e-005 2.07225166e-005 -2.88385604e-006 2.03134732e-005
      4.41020202e-005 2.19406083e-005 4.60901829e-005 1.83814918e-005
      1.36432789e-007 -1.17654445e-005 5.18738443e-006 -1.25649312e-005
      -2.25488875e-005 -1.90144817e-006 -1.74041124e-005
      -2.40025456e-005 3.35976551e-006 -1.08778468e-005 -1.71612264e-005
      2.61108144e-005 1.13570477e-005 5.30683019e-006 3.20182116e-005
      1.69685663e-005 1.07724945e-005 3.08821072e-005 2.00207269e-005
      1.41837672e-005 1.71705724e-005 1.01735341e-005 9.17055331e-006
      -5.52544907e-006 -8.18401259e-006 -2.32325101e-006
      -1.41043483e-005 -1.13450451e-005 -2.49727896e-006 8.05837044e-006
      1.90471001e-005 2.41204416e-005 1.65077126e-005 2.90185944e-005
      3.39121652e-005 1.30629178e-005 2.40382524e-005 2.86984650e-005
      -3.02605122e-006 7.38324843e-006 1.21209623e-005 1.86439797e-006
      1.40400753e-005 1.83518805e-005 1.15134856e-006 1.33723743e-005
      1.64379217e-005 2.02380434e-005 3.04801561e-005 3.24364846e-005
      2.89943200e-005 4.11296060e-005 4.10404609e-005 4.58125851e-006
      1.87302485e-005 1.61974767e-005 -1.58469320e-005 -1.63064919e-006
      -2.35643415e-006 1.70327348e-005 2.67342512e-005 3.15873549e-005
      2.04805528e-005 2.89467571e-005 3.74380543e-005 2.02715619e-005
      3.02725548e-005 4.03634003e-005 -6.05029072e-006 5.95951360e-006
      1.83159009e-005 -5.06108381e-006 1.02386120e-005 2.59079898e-005
      -5.03885758e-006 1.26590476e-005 2.79931774e-005 -9.87471867e-006
      9.40029349e-006 1.87640817e-005 -1.92358839e-005 -4.40710301e-006
      1.82631311e-006 -1.95909706e-005 -1.01553396e-005 -1.98998237e-006
      -2.46331660e-006 4.72800411e-006 1.20815002e-005 2.28597037e-005
      3.18809398e-005 3.59394799e-005 1.73396729e-005 2.93333778e-005
      3.14428944e-005 2.32217753e-005 3.45471599e-005 3.47689747e-005
      3.93941991e-005 4.91323990e-005 4.62870776e-005 4.91433275e-005
      5.70972697e-005 5.37999113e-005 4.97979454e-005 5.59116161e-005
      5.24196148e-005 5.63648064e-005 6.01226711e-005 5.70005468e-005
      4.31993867e-005 4.31764638e-005 4.34451904e-005 -7.82972711e-006
      -9.49862260e-006 -4.08768483e-006 -3.12068914e-005
      -3.49848451e-005 -2.71544650e-005 -1.40194061e-005
      -2.02381725e-005 -1.22683259e-005 -9.88656484e-006
      -1.33824096e-005 -7.96585664e-006 3.43444822e-006 2.20093554e-007
      3.63796585e-006 8.97003758e-007 -1.83529824e-006 1.17298191e-006
      4.31030867e-006 3.02168451e-006 7.54350731e-006 -4.13119869e-006
      -9.58044950e-008 3.92234870e-006 -3.11995427e-005 -2.15807431e-005
      -1.67860489e-005 -9.25923996e-006 6.69389829e-006 1.04379278e-005
      5.15321562e-006 2.45676001e-005 2.37223758e-005 1.06026209e-005
      3.24839930e-005 2.59302960e-005 2.61863897e-005 4.03982594e-005
      2.56915573e-005 1.00481575e-005 2.00812265e-005 1.67644953e-006
      1.28269903e-006 5.28582086e-006 -1.54325317e-005 2.70343298e-005
      2.78059451e-005 7.40716041e-006 5.10436403e-005 4.98777372e-005
      3.41599298e-005 4.09270287e-005 3.90170862e-005 2.71043064e-005
      9.83686823e-006 1.12510770e-005 5.17147691e-006 9.66311018e-006
      1.41650326e-005 1.12442858e-005 2.04560711e-005 2.70317996e-005
      2.71195604e-005 1.95351986e-005 2.44001949e-005 2.58448581e-005
      2.16373173e-005 1.85704139e-005 2.02116407e-005 1.80605311e-005
      9.63550883e-006 1.20283266e-005 2.22783656e-005 9.43229861e-006
      1.22812307e-005 3.25889923e-005 2.01842886e-005 2.66691295e-005
      3.03703873e-005 2.20510301e-005 3.37975471e-005 2.13732910e-005
      2.11354891e-005 3.60759259e-005 9.74791783e-006 2.15352957e-005
      3.42485619e-005 4.47170896e-006 1.63145596e-005 2.45338942e-005
      6.59000943e-006 1.56544938e-005 1.93280139e-005 3.37006986e-006
      4.21565255e-006 2.27475516e-006 1.55480502e-005 1.20112409e-005
      3.39930648e-006 9.01001022e-006 2.54541578e-006 -9.72912585e-006
      4.17528418e-006 -4.49326080e-006 -1.49080788e-005 8.75735714e-006
      5.75743343e-006 -2.53703115e-006 3.61138927e-006 1.01228143e-005
      5.93168170e-006 -1.07156884e-005 2.07532162e-006 -5.68755013e-007
      -1.19100914e-005 7.91512684e-006 2.52984069e-006 8.19732804e-007
      1.85424888e-005 1.26753821e-005 1.33828044e-005 2.69838765e-005
      1.94019540e-005 2.58830260e-005 3.67768371e-005 2.73623755e-005
      2.18657606e-005 3.02796670e-005 2.35140797e-005 -2.09816653e-006
      3.88866783e-006 -4.15722212e-007 7.05864636e-007 7.03912428e-006
      8.86673388e-006 7.83390260e-006 1.56297519e-005 2.09600112e-005
      6.73793420e-006 1.75228161e-005 2.27945347e-005 1.99498336e-005
      2.68217409e-005 3.12131888e-005 3.59545520e-005 3.97843141e-005
      4.22414996e-005 4.06753388e-005 4.14854294e-005 4.07620282e-005
      3.50206428e-005 3.32838827e-005 2.70406526e-005 1.26433197e-005
      1.04986020e-005 2.13654016e-006 -4.98228974e-006 -3.36829339e-006
      -1.42107046e-005 -9.18652313e-006 4.69510951e-007 -9.76385400e-006
      3.66044583e-006 2.07511948e-005 1.36708741e-005 2.17905272e-005
      3.92964248e-005 3.33585376e-005 5.46354895e-005 6.87737047e-005
      6.42871237e-005 4.00297395e-005 4.31781664e-005 3.86583379e-005
      1.75627690e-006 -5.18872002e-006 -1.07672931e-005 1.17120780e-005
      8.75216926e-007 -2.57828719e-006 2.06381264e-005 9.73592159e-006
      1.37080469e-005 7.36748734e-006 -1.34715037e-006 1.00122516e-005
      -1.09104549e-005 -1.14849008e-005 5.31600563e-006 -7.47662898e-006
      -1.30147794e-006 1.63339246e-005 8.98926544e-007 1.07156384e-005
      2.37390341e-005 1.44109652e-006 1.27321537e-005 2.06912482e-005
      1.22159724e-006 8.99959105e-006 1.07404076e-005 9.65339859e-006
      1.38898631e-005 1.43994366e-005 -1.25536653e-005 -9.53215294e-006
      -7.93688832e-006 -1.00700599e-005 -1.07086680e-005
      -5.11557346e-006 -1.59373358e-005 -2.42310161e-005
      -9.32606417e-006 -2.83844929e-005 -3.78219374e-005
      -1.91773088e-005 -3.22591914e-005 -3.66606837e-005
      -1.81733594e-005 -1.72692053e-005 -1.88000067e-005 8.73702902e-007
      -9.08332197e-007 -3.61605680e-006 1.65498714e-005 -1.80842599e-005
      -2.19814810e-005 -5.21351240e-007 -2.87399598e-005
      -3.99042547e-005 -1.59861538e-005 -3.29701143e-005
      -3.74149895e-005 -1.44002315e-005 -3.60181803e-005
      -3.58010620e-005 -1.25528686e-005 -2.87584680e-005
      -2.45685278e-005 -1.25078327e-006 -1.31556253e-005
      -3.60849231e-006 1.76987232e-005 3.33416597e-006 1.32007044e-005
      3.34015967e-005 -7.15736269e-006 -1.31418744e-007 1.75234036e-005
      -3.00098545e-005 -2.73859951e-005 -1.27989442e-005
      -2.27785295e-005 -2.81338853e-005 -1.86537254e-005
      -1.55065300e-005 -2.66662955e-005 -1.93774722e-005 2.90323374e-006
      -1.26980440e-005 -3.15138846e-006 -1.16182409e-005
      -2.86354407e-005 -2.00257982e-005 -1.72342043e-005
      -3.58874968e-005 -2.42137921e-005 -1.49678708e-005
      -3.62930368e-005 -2.18434452e-005 8.13258703e-006 -1.34687771e-005
      2.08513984e-006 5.29487761e-006 -1.70054755e-005 -2.23767006e-006
      2.16405133e-005 1.35443514e-007 1.23265809e-005 3.36323246e-005
      1.02025888e-005 2.29973921e-005 1.41524424e-005 -8.85123154e-006
      6.06900949e-006 -8.09957328e-006 -3.23236782e-005 -1.53540277e-005
      -4.24098971e-006 -2.73257956e-005 -7.65133518e-006 2.51425954e-005
      3.03704155e-006 2.39372494e-005 2.07659218e-006 -1.55645394e-005
      -2.84756134e-005 -1.04702667e-005 -2.89775435e-005
      -3.93826158e-005 -1.29899518e-005 -2.90203734e-005
      -3.62780556e-005 1.01027772e-005 -4.23174379e-006 -1.14358199e-005
      3.36511293e-005 1.92194111e-005 9.25896893e-006 3.27038324e-005
      1.87540791e-005 9.54462939e-006 1.96885740e-005 8.83199755e-006
      1.54752729e-006 4.66518077e-006 -2.31471040e-006 -3.37077654e-006
      2.10467397e-006 -6.62832008e-007 6.95101380e-006 1.84842941e-006
      4.78837956e-006 1.38910327e-005 -5.85598536e-006 5.29028921e-006
      1.25185106e-005 -8.26486212e-006 4.75745810e-006 9.62368813e-006
      -2.70983151e-006 1.01475953e-005 1.44511014e-005 -2.28517865e-006
      8.27545318e-006 1.24923927e-005 7.97993016e-006 1.87717214e-005
      2.20357742e-005 1.64885787e-005 2.51821057e-005 2.82762667e-005
      2.97340230e-005 3.82118415e-005 4.05961109e-005 3.05690701e-005
      3.99337587e-005 4.16947078e-005 7.62393438e-006 1.80837706e-005
      1.82579752e-005 -1.28124220e-005 -3.02508215e-006 -2.94172037e-006
      1.66980499e-005 2.21058635e-005 2.88652318e-005 2.71339431e-005
      3.23489185e-005 4.29777065e-005 2.86761806e-005 3.37889396e-005
      4.69365186e-005 -2.35006425e-007 9.54262578e-006 2.44638122e-005
      6.95287326e-006 2.02425290e-005 3.94643721e-005 7.45940770e-006
      2.39076799e-005 4.03854865e-005 2.61233208e-006 1.91467170e-005
      2.94523743e-005 -1.02221666e-005 3.46640127e-006 1.06928901e-005
      -2.17698962e-005 -1.50432406e-005 -8.26587166e-006
      -3.01086129e-006 5.52777294e-007 6.68754319e-006 1.56242495e-005
      2.21945356e-005 2.53872186e-005 1.15986659e-005 2.09871996e-005
      2.10787821e-005 7.17552211e-006 1.79140716e-005 1.67449853e-005
      2.90846474e-005 3.91352332e-005 3.67252833e-005 3.46846209e-005
      4.24296741e-005 3.92740803e-005 3.99603996e-005 4.51128217e-005
      4.33877685e-005 4.88737678e-005 5.04732088e-005 5.05410244e-005
      2.61522455e-005 2.52053778e-005 2.92398508e-005 -2.60973902e-005
      -2.66033912e-005 -1.96948495e-005 -3.65991582e-005
      -3.84753548e-005 -2.82916353e-005 -1.53658129e-005
      -1.54877034e-005 -9.02282409e-006 -1.33013154e-005
      -1.03561879e-005 -7.57606040e-006 2.96381268e-006 8.00367707e-006
      8.17819728e-006 1.84047622e-005 2.44756502e-005 2.42706410e-005
      2.24531159e-005 2.68138501e-005 2.92903514e-005 7.96496624e-006
      1.59921219e-005 1.92735279e-005 -1.88401045e-005 -6.14064675e-006
      -2.08421125e-006 -1.56838505e-005 1.04449634e-006 3.32160312e-006
      -7.32815170e-006 1.16778983e-005 1.17926447e-005 -7.74532327e-006
      1.45056974e-005 8.59598276e-006 1.28995371e-005 2.56208841e-005
      1.42275212e-005 -6.25586654e-006 4.28615522e-006 -1.16408355e-005
      -9.78860862e-006 -4.03472177e-006 -2.18194182e-005 2.12729065e-005
      2.32413240e-005 6.35584411e-006 3.49656912e-005 3.63964100e-005
      2.25050826e-005 3.04396981e-005 2.99050389e-005 1.95914545e-005
      1.76434005e-005 2.11382230e-005 1.61657536e-005 1.41865457e-005
      2.04553889e-005 2.15225864e-005 1.91608615e-005 2.75834464e-005
      3.01153832e-005 1.52331822e-005 2.09212085e-005 2.44949588e-005
      1.89094044e-005 1.69384748e-005 2.14947977e-005 1.55865491e-005
      8.88385057e-006 1.28441534e-005 1.07084052e-005 -4.35259636e-007
      6.34140588e-006 1.91296222e-005 8.74400303e-006 1.85288081e-005
      1.50248661e-005 8.45801605e-006 2.31347676e-005 4.87209309e-006
      6.43499698e-006 2.20176535e-005 -6.25997609e-006 5.28635292e-006
      1.83284410e-005 9.66562766e-007 1.33370013e-005 2.20627444e-005
      1.99959482e-006 9.35610842e-006 1.22949614e-005 6.09910967e-006
      7.67622078e-006 5.26380654e-006 2.22470844e-005 1.95340326e-005
      1.05409636e-005 2.83019308e-005 2.36246451e-005 1.15347166e-005
      1.18924372e-005 7.32599528e-006 -3.52700908e-006 2.14396823e-005
